svm_type c_svc
kernel_type rbf
gamma 8
nr_class 2
total_sv 103
rho 3.34576
distance 71.1145
label 56 -1
nr_sv 62 41
SV
34.56737623954794 1:-0.889703 2:-0.736402 3:-0.793423 4:-0.879499 5:-0.726498 6:-0.771294 7:-0.749932 8:-0.740351 9:-0.736439 10:-0.734825 11:-0.733443 12:-0.766325 13:-0.794774 14:-0.807833 15:-0.820194 16:-0.823652 17:-0.815395 18:-0.811029 19:-0.804284 20:-0.799466 21:-0.807983 22:-0.828398 23:-0.843229 24:-0.849125 25:-0.850745 26:-0.850928 27:-0.851681 28:-0.854754 29:-0.867805 30:-0.872893 31:-0.875824 32:-0.877249 33:-0.880269 34:-0.882949 35:-0.884453 36:-0.88579 37:-0.888823 38:-0.890571 39:-0.89199 40:-0.892999 41:-0.893677 42:-0.893588 43:-0.893519 44:-0.893992 45:-0.894099 46:-0.893721 47:-0.893487 48:-0.893284 49:-0.893195 50:-0.892797 51:-0.892249 52:-0.892213 53:-0.892266 54:-0.891878 55:-0.891468 56:-0.891166 57:-0.890905 58:-0.890837 59:-0.890632 60:-0.890575 61:-0.89042 62:-0.8903 63:-0.890135 64:-0.88971 65:-0.889759 66:-0.889534 67:-0.889491 68:-0.889184 69:-0.888776 70:-0.888516 71:-0.888459 72:-0.888578 73:-0.888384 74:-0.888427 75:-0.888068 76:-0.888537 77:-0.888752 78:-0.888831 79:-0.889599 80:-0.889739 81:-0.889813 82:-0.8896 83:-0.889143 84:-0.886956 85:-0.884688 86:-0.882401 87:-0.880212 88:-0.877932 89:-0.875727 90:-0.873848 91:-0.871909 92:-0.869696 93:-0.868017 94:-0.866114 95:-0.8644 96:-0.862541 97:-0.860797 98:-0.858978 99:-0.857742 100:-0.856034 101:-0.854858 102:-0.853397 103:-0.852055 104:-0.853054 
200.7455397498509 1:-0.900772 2:-0.783473 3:-0.838224 4:-0.875815 5:-0.721579 6:-0.745582 7:-0.730874 8:-0.725808 9:-0.72636 10:-0.724871 11:-0.725744 12:-0.758531 13:-0.788206 14:-0.801597 15:-0.814968 16:-0.817653 17:-0.809993 18:-0.807013 19:-0.799921 20:-0.796027 21:-0.803396 22:-0.817815 23:-0.832139 24:-0.839245 25:-0.840209 26:-0.842059 27:-0.843611 28:-0.848825 29:-0.8524 30:-0.855628 31:-0.860519 32:-0.863459 33:-0.865961 34:-0.868285 35:-0.870438 36:-0.871818 37:-0.873982 38:-0.875785 39:-0.877163 40:-0.878432 41:-0.87894 42:-0.879117 43:-0.879098 44:-0.879659 45:-0.879816 46:-0.879757 47:-0.879352 48:-0.879244 49:-0.878933 50:-0.878647 51:-0.87867 52:-0.879606 53:-0.879279 54:-0.879363 55:-0.879055 56:-0.878753 57:-0.878843 58:-0.878931 59:-0.878636 60:-0.878983 61:-0.878706 62:-0.878828 63:-0.878923 64:-0.878861 65:-0.878843 66:-0.878594 67:-0.878665 68:-0.878769 69:-0.879059 70:-0.879801 71:-0.879695 72:-0.879715 73:-0.879808 74:-0.880539 75:-0.880693 76:-0.881127 77:-0.88148 78:-0.881659 79:-0.881981 80:-0.881741 81:-0.881433 82:-0.881168 83:-0.880498 84:-0.878027 85:-0.87601 86:-0.874426 87:-0.872354 88:-0.870037 89:-0.868131 90:-0.866232 91:-0.864436 92:-0.862304 93:-0.860358 94:-0.858811 95:-0.857344 96:-0.855412 97:-0.853739 98:-0.851897 99:-0.850408 100:-0.849008 101:-0.847973 102:-0.846398 103:-0.845029 104:-0.84656 
117.6559525645322 1:-0.881451 2:-0.743724 3:-0.802267 4:-0.875694 5:-0.723218 6:-0.765792 7:-0.749436 8:-0.738073 9:-0.733966 10:-0.732614 11:-0.730774 12:-0.763026 13:-0.799551 14:-0.815443 15:-0.838607 16:-0.843754 17:-0.833707 18:-0.82815 19:-0.819671 20:-0.813924 21:-0.819008 22:-0.829874 23:-0.837994 24:-0.84414 25:-0.844465 26:-0.844785 27:-0.846051 28:-0.848834 29:-0.852099 30:-0.855105 31:-0.858057 32:-0.860225 33:-0.864659 34:-0.866778 35:-0.868972 36:-0.870323 37:-0.872178 38:-0.874027 39:-0.875647 40:-0.876797 41:-0.877059 42:-0.877516 43:-0.877712 44:-0.877671 45:-0.877649 46:-0.877747 47:-0.877333 48:-0.877476 49:-0.8772 50:-0.87715 51:-0.877108 52:-0.876981 53:-0.878706 54:-0.878865 55:-0.878945 56:-0.878896 57:-0.880261 58:-0.881652 59:-0.881468 60:-0.881466 61:-0.882161 62:-0.882181 63:-0.882275 64:-0.882194 65:-0.881944 66:-0.881606 67:-0.881423 68:-0.881373 69:-0.881388 70:-0.882098 71:-0.882868 72:-0.883695 73:-0.883664 74:-0.884015 75:-0.884614 76:-0.88464 77:-0.885135 78:-0.885396 79:-0.885879 80:-0.885989 81:-0.885787 82:-0.885435 83:-0.884796 84:-0.882407 85:-0.880018 86:-0.877784 87:-0.875642 88:-0.873661 89:-0.871721 90:-0.869846 91:-0.867978 92:-0.865902 93:-0.863987 94:-0.861969 95:-0.860346 96:-0.858573 97:-0.856907 98:-0.855003 99:-0.853432 100:-0.851738 101:-0.850188 102:-0.849229 103:-0.847678 104:-0.848643 
199.3878012704894 1:-0.893296 2:-0.74477 3:-0.815039 4:-0.867882 5:-0.708051 6:-0.73364 7:-0.724506 8:-0.72037 9:-0.716154 10:-0.714884 11:-0.717461 12:-0.750156 13:-0.775246 14:-0.788915 15:-0.802906 16:-0.806738 17:-0.79851 18:-0.794903 19:-0.790198 20:-0.790116 21:-0.797874 22:-0.808668 23:-0.81734 24:-0.823517 25:-0.82545 26:-0.825966 27:-0.827833 28:-0.831836 29:-0.838107 30:-0.842765 31:-0.845638 32:-0.84808 33:-0.85269 34:-0.854693 35:-0.857448 36:-0.859286 37:-0.861178 38:-0.862723 39:-0.864516 40:-0.865854 41:-0.866827 42:-0.867069 43:-0.868659 44:-0.86895 45:-0.868932 46:-0.869178 47:-0.869056 48:-0.869276 49:-0.869167 50:-0.868883 51:-0.868719 52:-0.868373 53:-0.868314 54:-0.867965 55:-0.867919 56:-0.868295 57:-0.868179 58:-0.868125 59:-0.867953 60:-0.867909 61:-0.867859 62:-0.867604 63:-0.867811 64:-0.867817 65:-0.867573 66:-0.867536 67:-0.867422 68:-0.867449 69:-0.867552 70:-0.867316 71:-0.867242 72:-0.867838 73:-0.868591 74:-0.869256 75:-0.870025 76:-0.870577 77:-0.871111 78:-0.871799 79:-0.872815 80:-0.873778 81:-0.873857 82:-0.874654 83:-0.874289 84:-0.871951 85:-0.870275 86:-0.867916 87:-0.865791 88:-0.863444 89:-0.861483 90:-0.859556 91:-0.857734 92:-0.856051 93:-0.854093 94:-0.852412 95:-0.850674 96:-0.84884 97:-0.847309 98:-0.845441 99:-0.844064 100:-0.842715 101:-0.841305 102:-0.839976 103:-0.838813 104:-0.839917 
121.1152723888983 1:-0.886014 2:-0.741632 3:-0.792981 4:-0.834246 5:-0.685725 6:-0.72176 7:-0.705686 8:-0.697557 9:-0.691827 10:-0.69081 11:-0.691609 12:-0.721902 13:-0.749335 14:-0.761226 15:-0.774048 16:-0.777296 17:-0.773712 18:-0.780206 19:-0.773773 20:-0.768774 21:-0.774266 22:-0.784907 23:-0.793463 24:-0.801433 25:-0.801862 26:-0.802087 27:-0.80491 28:-0.808037 29:-0.813779 30:-0.8166 31:-0.818993 32:-0.820649 33:-0.82384 34:-0.825563 35:-0.829572 36:-0.833392 37:-0.834949 38:-0.836514 39:-0.837966 40:-0.838684 41:-0.839529 42:-0.842499 43:-0.844163 44:-0.845023 45:-0.847572 46:-0.847455 47:-0.848024 48:-0.849863 49:-0.850044 50:-0.849824 51:-0.850715 52:-0.850171 53:-0.849744 54:-0.85006 55:-0.849432 56:-0.84968 57:-0.849225 58:-0.848639 59:-0.84806 60:-0.847878 61:-0.847546 62:-0.847413 63:-0.846915 64:-0.846819 65:-0.84659 66:-0.84631 67:-0.845968 68:-0.845673 69:-0.845572 70:-0.845247 71:-0.844973 72:-0.844537 73:-0.844444 74:-0.844187 75:-0.843897 76:-0.8435 77:-0.843432 78:-0.843569 79:-0.843281 80:-0.843612 81:-0.843402 82:-0.843038 83:-0.842574 84:-0.840052 85:-0.837988 86:-0.83564 87:-0.833622 88:-0.831425 89:-0.829407 90:-0.827466 91:-0.825764 92:-0.823778 93:-0.8222 94:-0.820255 95:-0.818629 96:-0.816783 97:-0.815316 98:-0.813482 99:-0.811886 100:-0.810422 101:-0.808849 102:-0.80743 103:-0.806227 104:-0.807076 
18.79748255888518 1:-0.826788 2:-0.601464 3:-0.684939 4:-0.861783 5:-0.706576 6:-0.747561 7:-0.723044 8:-0.719432 9:-0.714458 10:-0.713663 11:-0.712643 12:-0.743695 13:-0.767875 14:-0.78091 15:-0.795271 16:-0.798888 17:-0.790023 18:-0.786188 19:-0.78668 20:-0.789899 21:-0.804217 22:-0.817482 23:-0.824844 24:-0.829953 25:-0.830356 26:-0.830229 27:-0.831783 28:-0.840374 29:-0.843449 30:-0.847089 31:-0.853215 32:-0.857741 33:-0.860714 34:-0.864556 35:-0.867488 36:-0.870027 37:-0.871973 38:-0.874372 39:-0.875544 40:-0.876183 41:-0.876156 42:-0.875937 43:-0.875673 44:-0.876142 45:-0.87589 46:-0.875623 47:-0.876854 48:-0.877596 49:-0.87857 50:-0.879861 51:-0.880039 52:-0.88176 53:-0.881062 54:-0.881406 55:-0.881034 56:-0.88052 57:-0.879902 58:-0.879573 59:-0.878826 60:-0.878415 61:-0.878318 62:-0.877632 63:-0.87718 64:-0.876843 65:-0.876401 66:-0.876172 67:-0.875964 68:-0.876329 69:-0.876407 70:-0.876118 71:-0.875706 72:-0.875137 73:-0.875266 74:-0.875655 75:-0.875198 76:-0.875106 77:-0.874746 78:-0.874578 79:-0.874243 80:-0.874235 81:-0.873709 82:-0.873603 83:-0.873497 84:-0.871121 85:-0.869041 86:-0.866695 87:-0.864413 88:-0.862285 89:-0.860273 90:-0.858062 91:-0.856355 92:-0.854486 93:-0.852541 94:-0.851225 95:-0.850193 96:-0.848924 97:-0.847614 98:-0.846565 99:-0.845118 100:-0.843295 101:-0.841977 102:-0.841853 103:-0.840791 104:-0.841699 
23.4004551298844 1:-0.877761 2:-0.635983 3:-0.728993 4:-0.858598 5:-0.699342 6:-0.737703 7:-0.751944 8:-0.745996 9:-0.738009 10:-0.733 11:-0.727783 12:-0.758518 13:-0.782381 14:-0.793114 15:-0.804045 16:-0.80561 17:-0.798775 18:-0.794292 19:-0.795598 20:-0.791362 21:-0.796668 22:-0.808459 23:-0.81714 24:-0.825923 25:-0.832893 26:-0.836128 27:-0.837748 28:-0.841307 29:-0.847477 30:-0.855646 31:-0.859324 32:-0.861902 33:-0.863997 34:-0.865822 35:-0.868953 36:-0.869966 37:-0.871483 38:-0.873606 39:-0.875691 40:-0.876372 41:-0.877108 42:-0.87643 43:-0.876079 44:-0.87552 45:-0.876538 46:-0.876657 47:-0.876439 48:-0.876511 49:-0.87684 50:-0.876061 51:-0.87557 52:-0.874999 53:-0.874731 54:-0.874183 55:-0.873718 56:-0.873439 57:-0.872944 58:-0.872599 59:-0.872179 60:-0.87179 61:-0.871409 62:-0.870833 63:-0.870294 64:-0.870158 65:-0.869927 66:-0.869424 67:-0.869119 68:-0.869777 69:-0.869893 70:-0.870211 71:-0.869913 72:-0.870081 73:-0.870875 74:-0.870559 75:-0.870091 76:-0.870783 77:-0.871072 78:-0.870616 79:-0.870277 80:-0.870324 81:-0.870122 82:-0.86977 83:-0.869082 84:-0.866712 85:-0.864317 86:-0.862161 87:-0.86007 88:-0.857951 89:-0.856331 90:-0.854831 91:-0.853264 92:-0.851414 93:-0.849674 94:-0.847827 95:-0.846079 96:-0.844139 97:-0.843076 98:-0.841962 99:-0.840324 100:-0.839488 101:-0.837964 102:-0.836639 103:-0.835073 104:-0.835758 
12.8326694256353 1:-0.840381 2:-0.625523 3:-0.702222 4:-0.777784 5:-0.69524 6:-0.668812 7:-0.650504 8:-0.641267 9:-0.637549 10:-0.635667 11:-0.63395 12:-0.665124 13:-0.690444 14:-0.722635 15:-0.742642 16:-0.755352 17:-0.748981 18:-0.74122 19:-0.732648 20:-0.727374 21:-0.732132 22:-0.7414 23:-0.748163 24:-0.753718 25:-0.75395 26:-0.754271 27:-0.75441 28:-0.758353 29:-0.761302 30:-0.763222 31:-0.764826 32:-0.768119 33:-0.769807 34:-0.771128 35:-0.775257 36:-0.777748 37:-0.778997 38:-0.779928 39:-0.781801 40:-0.782422 41:-0.782274 42:-0.7824 43:-0.784031 44:-0.784185 45:-0.783993 46:-0.783977 47:-0.783184 48:-0.782547 49:-0.781936 50:-0.782534 51:-0.782231 52:-0.78288 53:-0.782989 54:-0.782579 55:-0.78234 56:-0.782236 57:-0.781921 58:-0.781614 59:-0.781369 60:-0.780884 61:-0.781011 62:-0.780769 63:-0.781296 64:-0.781042 65:-0.780574 66:-0.780796 67:-0.780749 68:-0.780733 69:-0.78202 70:-0.782079 71:-0.782114 72:-0.78243 73:-0.782459 74:-0.784043 75:-0.784304 76:-0.785442 77:-0.785243 78:-0.785162 79:-0.785273 80:-0.786763 81:-0.786683 82:-0.786987 83:-0.786488 84:-0.784105 85:-0.78172 86:-0.779968 87:-0.778039 88:-0.776022 89:-0.774237 90:-0.772336 91:-0.770462 92:-0.76851 93:-0.766633 94:-0.765069 95:-0.763471 96:-0.761473 97:-0.759868 98:-0.758197 99:-0.757596 100:-0.756523 101:-0.755693 102:-0.754597 103:-0.753908 104:-0.755245 
6.259301318935777 1:-0.87611 2:-0.677824 3:-0.748062 4:-0.869149 5:-0.715481 6:-0.751041 7:-0.730575 8:-0.727868 9:-0.721231 10:-0.720457 11:-0.719633 12:-0.75188 13:-0.778433 14:-0.79152 15:-0.803675 16:-0.807549 17:-0.799743 18:-0.795041 19:-0.788811 20:-0.793624 21:-0.804558 22:-0.822228 23:-0.830969 24:-0.836938 25:-0.839934 26:-0.842495 27:-0.843346 28:-0.845819 29:-0.848892 30:-0.851712 31:-0.854162 32:-0.8565 33:-0.859654 34:-0.862485 35:-0.864045 36:-0.865589 37:-0.867685 38:-0.869298 39:-0.871484 40:-0.872246 41:-0.872641 42:-0.87346 43:-0.874597 44:-0.874379 45:-0.874359 46:-0.874065 47:-0.874838 48:-0.875861 49:-0.876635 50:-0.876882 51:-0.877362 52:-0.877057 53:-0.876854 54:-0.876506 55:-0.878093 56:-0.877568 57:-0.877225 58:-0.877689 59:-0.877481 60:-0.878995 61:-0.878809 62:-0.87912 63:-0.87993 64:-0.879526 65:-0.879544 66:-0.879638 67:-0.879362 68:-0.87908 69:-0.878763 70:-0.878486 71:-0.878468 72:-0.878226 73:-0.877794 74:-0.877901 75:-0.877662 76:-0.877581 77:-0.877188 78:-0.877109 79:-0.877663 80:-0.877746 81:-0.877912 82:-0.877934 83:-0.877321 84:-0.875788 85:-0.874066 86:-0.871785 87:-0.869574 88:-0.867908 89:-0.865808 90:-0.863661 91:-0.861752 92:-0.860065 93:-0.858157 94:-0.856198 95:-0.854384 96:-0.852671 97:-0.851141 98:-0.849331 99:-0.847847 100:-0.847115 101:-0.846076 102:-0.8452 103:-0.844036 104:-0.845315 
174.2957883994773 1:-0.874654 2:-0.58682 3:-0.731273 4:-0.864862 5:-0.749351 6:-0.746439 7:-0.728528 8:-0.72191 9:-0.717159 10:-0.715837 11:-0.716202 12:-0.75112 13:-0.777129 14:-0.790015 15:-0.802625 16:-0.8056 17:-0.797355 18:-0.793402 19:-0.786496 20:-0.78839 21:-0.801176 22:-0.813274 23:-0.821161 24:-0.82872 25:-0.831883 26:-0.832643 27:-0.833955 28:-0.837148 29:-0.840245 30:-0.843094 31:-0.845395 32:-0.847862 33:-0.850106 34:-0.853037 35:-0.856359 36:-0.858667 37:-0.860521 38:-0.862696 39:-0.864312 40:-0.86555 41:-0.866088 42:-0.865826 43:-0.866153 44:-0.866454 45:-0.866995 46:-0.869828 47:-0.869442 48:-0.86966 49:-0.870167 50:-0.87153 51:-0.872257 52:-0.872256 53:-0.871897 54:-0.872107 55:-0.872758 56:-0.872402 57:-0.872606 58:-0.873226 59:-0.874128 60:-0.874384 61:-0.874772 62:-0.874848 63:-0.87533 64:-0.875018 65:-0.874742 66:-0.874342 67:-0.874026 68:-0.87432 69:-0.87392 70:-0.873835 71:-0.873546 72:-0.873228 73:-0.872984 74:-0.872633 75:-0.872666 76:-0.872384 77:-0.87205 78:-0.872945 79:-0.872933 80:-0.873115 81:-0.873016 82:-0.873215 83:-0.873154 84:-0.87084 85:-0.868524 86:-0.866721 87:-0.86469 88:-0.863113 89:-0.861123 90:-0.859202 91:-0.857363 92:-0.855318 93:-0.853555 94:-0.851708 95:-0.850277 96:-0.848637 97:-0.847233 98:-0.845693 99:-0.845333 100:-0.84448 101:-0.843194 102:-0.842158 103:-0.841153 104:-0.841986 
29.62908969919605 1:-0.866401 2:-0.627615 3:-0.704562 4:-0.856705 5:-0.698265 6:-0.745675 7:-0.723385 8:-0.718937 9:-0.712659 10:-0.709051 11:-0.708412 12:-0.749215 13:-0.772891 14:-0.783844 15:-0.797319 16:-0.799827 17:-0.79145 18:-0.787262 19:-0.782864 20:-0.780461 21:-0.787691 22:-0.799724 23:-0.807277 24:-0.813683 25:-0.81453 26:-0.819006 27:-0.825946 28:-0.829707 29:-0.832784 30:-0.838636 31:-0.84337 32:-0.84522 33:-0.848723 34:-0.85054 35:-0.852696 36:-0.856788 37:-0.861211 38:-0.863803 39:-0.865847 40:-0.868379 41:-0.869313 42:-0.869383 43:-0.871147 44:-0.870911 45:-0.870312 46:-0.870083 47:-0.869417 48:-0.868943 49:-0.868378 50:-0.867959 51:-0.867661 52:-0.868168 53:-0.868771 54:-0.868042 55:-0.869998 56:-0.869637 57:-0.868929 58:-0.868517 59:-0.868454 60:-0.86807 61:-0.867491 62:-0.867262 63:-0.866983 64:-0.86781 65:-0.868296 66:-0.867949 67:-0.868858 68:-0.868774 69:-0.869084 70:-0.86927 71:-0.8694 72:-0.870411 73:-0.870218 74:-0.870912 75:-0.870848 76:-0.870661 77:-0.871706 78:-0.871194 79:-0.870668 80:-0.871529 81:-0.871297 82:-0.870948 83:-0.8702 84:-0.867706 85:-0.86534 86:-0.862821 87:-0.860695 88:-0.858196 89:-0.856039 90:-0.853834 91:-0.851969 92:-0.849674 93:-0.847952 94:-0.846002 95:-0.844745 96:-0.842783 97:-0.84108 98:-0.84016 99:-0.839643 100:-0.838416 101:-0.836711 102:-0.835221 103:-0.83436 104:-0.835332 
15.11716199492051 1:-0.877955 2:-0.59728 3:-0.685804 4:-0.853501 5:-0.719649 6:-0.753968 7:-0.724667 8:-0.713313 9:-0.708346 10:-0.704766 11:-0.705998 12:-0.748147 13:-0.774679 14:-0.793477 15:-0.807059 16:-0.808091 17:-0.79854 18:-0.793322 19:-0.784996 20:-0.780404 21:-0.78594 22:-0.796568 23:-0.804641 24:-0.810591 25:-0.811392 26:-0.816338 27:-0.820038 28:-0.82326 29:-0.827383 30:-0.830326 31:-0.83504 32:-0.840192 33:-0.844514 34:-0.847117 35:-0.85131 36:-0.853662 37:-0.85707 38:-0.862499 39:-0.86474 40:-0.866373 41:-0.86709 42:-0.86822 43:-0.868231 44:-0.867975 45:-0.867619 46:-0.867234 47:-0.86662 48:-0.866864 49:-0.86708 50:-0.86634 51:-0.866503 52:-0.867742 53:-0.868869 54:-0.869358 55:-0.869185 56:-0.869227 57:-0.870451 58:-0.869927 59:-0.86941 60:-0.868899 61:-0.868226 62:-0.868361 63:-0.868121 64:-0.868473 65:-0.86784 66:-0.867603 67:-0.867017 68:-0.866794 69:-0.866379 70:-0.866626 71:-0.867257 72:-0.867301 73:-0.867021 74:-0.867315 75:-0.867655 76:-0.868453 77:-0.868986 78:-0.868775 79:-0.868374 80:-0.868442 81:-0.868485 82:-0.868115 83:-0.867251 84:-0.864985 85:-0.862742 86:-0.860208 87:-0.85799 88:-0.855609 89:-0.853377 90:-0.851551 91:-0.849437 92:-0.847382 93:-0.845383 94:-0.843722 95:-0.842082 96:-0.840312 97:-0.839203 98:-0.838043 99:-0.836742 100:-0.835063 101:-0.833349 102:-0.833228 103:-0.832122 104:-0.833226 
30.07243253670681 1:-0.801155 2:-0.520921 3:-0.628928 4:-0.842911 5:-0.692568 6:-0.73825 7:-0.710799 8:-0.702699 9:-0.697066 10:-0.693117 11:-0.697985 12:-0.727407 13:-0.752221 14:-0.764157 15:-0.777213 16:-0.780092 17:-0.775057 18:-0.780694 19:-0.7751 20:-0.778024 21:-0.783336 22:-0.793943 23:-0.801591 24:-0.808174 25:-0.811279 26:-0.811098 27:-0.812084 28:-0.81657 29:-0.819046 30:-0.824135 31:-0.829033 32:-0.83237 33:-0.83829 34:-0.840983 35:-0.844905 36:-0.848576 37:-0.850795 38:-0.852322 39:-0.854161 40:-0.854536 41:-0.854401 42:-0.854038 43:-0.853799 44:-0.85352 45:-0.85316 46:-0.852338 47:-0.851775 48:-0.851217 49:-0.851039 50:-0.850957 51:-0.851751 52:-0.851527 53:-0.850944 54:-0.85118 55:-0.852617 56:-0.853785 57:-0.854196 58:-0.853831 59:-0.853877 60:-0.854295 61:-0.854345 62:-0.853887 63:-0.853594 64:-0.854313 65:-0.854045 66:-0.853622 67:-0.853319 68:-0.852901 69:-0.852491 70:-0.852465 71:-0.852591 72:-0.854426 73:-0.856243 74:-0.856999 75:-0.858248 76:-0.857972 77:-0.858135 78:-0.857861 79:-0.857412 80:-0.856884 81:-0.856676 82:-0.856124 83:-0.855327 84:-0.852781 85:-0.850788 86:-0.848651 87:-0.846744 88:-0.844258 89:-0.842326 90:-0.840502 91:-0.839572 92:-0.837446 93:-0.835279 94:-0.834181 95:-0.832377 96:-0.830235 97:-0.829502 98:-0.828509 99:-0.827507 100:-0.827186 101:-0.826267 102:-0.825726 103:-0.82478 104:-0.825949 
1.526732583188932 1:-0.81737 2:-0.507322 3:-0.593221 4:-0.734045 5:-0.665156 6:-0.63467 7:-0.606055 8:-0.600167 9:-0.599219 10:-0.595645 11:-0.594928 12:-0.624799 13:-0.648023 14:-0.658769 15:-0.675083 16:-0.678274 17:-0.668875 18:-0.664218 19:-0.658078 20:-0.653812 21:-0.660989 22:-0.671023 23:-0.678544 24:-0.686179 25:-0.686282 26:-0.687628 27:-0.689864 28:-0.693317 29:-0.697203 30:-0.700568 31:-0.703471 32:-0.708283 33:-0.710031 34:-0.717276 35:-0.719285 36:-0.721724 37:-0.723044 38:-0.724885 39:-0.727029 40:-0.728261 41:-0.729715 42:-0.729787 43:-0.730015 44:-0.729813 45:-0.730614 46:-0.730438 47:-0.730113 48:-0.72976 49:-0.730188 50:-0.730067 51:-0.730486 52:-0.730484 53:-0.730825 54:-0.731114 55:-0.730965 56:-0.731015 57:-0.731759 58:-0.731932 59:-0.732103 60:-0.731965 61:-0.732631 62:-0.735384 63:-0.737894 64:-0.739776 65:-0.740652 66:-0.7404 67:-0.739993 68:-0.740537 69:-0.740807 70:-0.74165 71:-0.741383 72:-0.741688 73:-0.741905 74:-0.743768 75:-0.744462 76:-0.746242 77:-0.746933 78:-0.747557 79:-0.747712 80:-0.747157 81:-0.746744 82:-0.746439 83:-0.746569 84:-0.744156 85:-0.741811 86:-0.739589 87:-0.737609 88:-0.736006 89:-0.733995 90:-0.731915 91:-0.730333 92:-0.728594 93:-0.726481 94:-0.724771 95:-0.723038 96:-0.721485 97:-0.719959 98:-0.71914 99:-0.71924 100:-0.717469 101:-0.717545 102:-0.715919 103:-0.71596 104:-0.717467 
304.3138407501913 1:-0.866984 2:-0.680962 3:-0.754088 4:-0.840475 5:-0.679261 6:-0.717508 7:-0.698454 8:-0.695663 9:-0.689861 10:-0.690152 11:-0.694305 12:-0.725631 13:-0.751372 14:-0.764371 15:-0.777293 16:-0.77967 17:-0.785066 18:-0.783202 19:-0.777242 20:-0.772272 21:-0.77847 22:-0.792266 23:-0.799481 24:-0.806491 25:-0.807055 26:-0.808439 27:-0.810024 28:-0.814796 29:-0.817902 30:-0.820767 31:-0.823386 32:-0.825446 33:-0.827792 34:-0.830292 35:-0.832286 36:-0.834511 37:-0.835812 38:-0.837813 39:-0.839379 40:-0.840175 41:-0.840838 42:-0.84183 43:-0.843129 44:-0.842966 45:-0.843284 46:-0.843105 47:-0.842561 48:-0.842656 49:-0.843193 50:-0.843071 51:-0.843285 52:-0.844089 53:-0.845135 54:-0.844612 55:-0.844742 56:-0.844522 57:-0.847128 58:-0.84855 59:-0.848944 60:-0.849335 61:-0.850981 62:-0.851741 63:-0.851691 64:-0.852361 65:-0.852032 66:-0.851545 67:-0.85148 68:-0.851071 69:-0.850597 70:-0.850308 71:-0.851192 72:-0.851057 73:-0.850596 74:-0.850492 75:-0.850067 76:-0.849643 77:-0.849233 78:-0.849539 79:-0.849274 80:-0.849079 81:-0.848808 82:-0.849321 83:-0.848617 84:-0.846207 85:-0.844558 86:-0.843452 87:-0.841458 88:-0.839198 89:-0.836993 90:-0.834925 91:-0.832915 92:-0.830703 93:-0.829491 94:-0.827576 95:-0.825784 96:-0.824062 97:-0.822311 98:-0.820396 99:-0.819383 100:-0.81822 101:-0.81757 102:-0.816174 103:-0.814902 104:-0.815795 
40.91432405900284 1:-0.80067 2:-0.630753 3:-0.73262 4:-0.839565 5:-0.708742 6:-0.732742 7:-0.710858 8:-0.701223 9:-0.696417 10:-0.693784 11:-0.697076 12:-0.728033 13:-0.752123 14:-0.766502 15:-0.779217 16:-0.782337 17:-0.774137 18:-0.787811 19:-0.787672 20:-0.781874 21:-0.786709 22:-0.79693 23:-0.803788 24:-0.808884 25:-0.810059 26:-0.811597 27:-0.81627 28:-0.819245 29:-0.822091 30:-0.826549 31:-0.831073 32:-0.834724 33:-0.838555 34:-0.840245 35:-0.841975 36:-0.842852 37:-0.844879 38:-0.846757 39:-0.84925 40:-0.850342 41:-0.85052 42:-0.85046 43:-0.850508 44:-0.850436 45:-0.850172 46:-0.849613 47:-0.849274 48:-0.849454 49:-0.848959 50:-0.848481 51:-0.848624 52:-0.848214 53:-0.848013 54:-0.848738 55:-0.848742 56:-0.848388 57:-0.847945 58:-0.847909 59:-0.847619 60:-0.847282 61:-0.846789 62:-0.846302 63:-0.846956 64:-0.849026 65:-0.850256 66:-0.851264 67:-0.85267 68:-0.853078 69:-0.852905 70:-0.852911 71:-0.853411 72:-0.85373 73:-0.853286 74:-0.853229 75:-0.852859 76:-0.852549 77:-0.852253 78:-0.853214 79:-0.85302 80:-0.8527 81:-0.852362 82:-0.852224 83:-0.851454 84:-0.849002 85:-0.846881 86:-0.844685 87:-0.842854 88:-0.840587 89:-0.838569 90:-0.836655 91:-0.834934 92:-0.832928 93:-0.831059 94:-0.829274 95:-0.827875 96:-0.825867 97:-0.824215 98:-0.822441 99:-0.820875 100:-0.819398 101:-0.81797 102:-0.816512 103:-0.814968 104:-0.816186 
50.30120701967864 1:-0.870091 2:-0.632845 3:-0.720994 4:-0.839255 5:-0.739539 6:-0.748275 7:-0.727516 8:-0.713564 9:-0.70354 10:-0.701671 11:-0.705864 12:-0.734866 13:-0.770437 14:-0.781089 15:-0.791235 16:-0.797754 17:-0.788778 18:-0.787204 19:-0.778343 20:-0.776006 21:-0.783652 22:-0.793231 23:-0.801419 24:-0.808308 25:-0.808741 26:-0.808872 27:-0.809652 28:-0.814567 29:-0.818473 30:-0.82078 31:-0.82314 32:-0.825562 33:-0.827789 34:-0.830178 35:-0.832458 36:-0.834022 37:-0.836282 38:-0.838041 39:-0.839176 40:-0.840845 41:-0.841513 42:-0.842082 43:-0.842444 44:-0.843052 45:-0.843594 46:-0.843327 47:-0.842998 48:-0.84389 49:-0.843875 50:-0.843846 51:-0.843988 52:-0.845906 53:-0.846037 54:-0.845428 55:-0.846474 56:-0.846398 57:-0.846574 58:-0.848558 59:-0.850745 60:-0.850803 61:-0.851016 62:-0.851666 63:-0.852733 64:-0.853311 65:-0.852723 66:-0.852681 67:-0.852904 68:-0.852528 69:-0.85235 70:-0.851809 71:-0.851893 72:-0.85142 73:-0.851437 74:-0.851109 75:-0.850791 76:-0.850478 77:-0.850168 78:-0.849874 79:-0.849609 80:-0.84954 81:-0.849558 82:-0.849725 83:-0.849628 84:-0.848632 85:-0.847166 86:-0.845055 87:-0.842834 88:-0.841057 89:-0.839003 90:-0.836818 91:-0.834877 92:-0.832857 93:-0.831025 94:-0.829003 95:-0.827506 96:-0.825627 97:-0.823944 98:-0.821999 99:-0.820315 100:-0.818896 101:-0.817891 102:-0.816819 103:-0.815905 104:-0.816585 
55.84163289324372 1:-0.84776 2:-0.559623 3:-0.662765 4:-0.81085 5:-0.726244 6:-0.711092 7:-0.685236 8:-0.678121 9:-0.685782 10:-0.683058 11:-0.67909 12:-0.707711 13:-0.730376 14:-0.742686 15:-0.756303 16:-0.758359 17:-0.750426 18:-0.745587 19:-0.745793 20:-0.74587 21:-0.754141 22:-0.764031 23:-0.776512 24:-0.781185 25:-0.784578 26:-0.783621 27:-0.784752 28:-0.788367 29:-0.791364 30:-0.797494 31:-0.799536 32:-0.80112 33:-0.802863 34:-0.804563 35:-0.806552 36:-0.809012 37:-0.810756 38:-0.812056 39:-0.813147 40:-0.814266 41:-0.814594 42:-0.817468 43:-0.818691 44:-0.818798 45:-0.818994 46:-0.818524 47:-0.818319 48:-0.81813 49:-0.817821 50:-0.819985 51:-0.819555 52:-0.819679 53:-0.820244 54:-0.819758 55:-0.820851 56:-0.820649 57:-0.820121 58:-0.820402 59:-0.823635 60:-0.823162 61:-0.825501 62:-0.825485 63:-0.827231 64:-0.826542 65:-0.826185 66:-0.825752 67:-0.825489 68:-0.82554 69:-0.825076 70:-0.824622 71:-0.824344 72:-0.824571 73:-0.823965 74:-0.823721 75:-0.823807 76:-0.823321 77:-0.822928 78:-0.822709 79:-0.823091 80:-0.822619 81:-0.822196 82:-0.821837 83:-0.821137 84:-0.818791 85:-0.81647 86:-0.814272 87:-0.812379 88:-0.810183 89:-0.807926 90:-0.806314 91:-0.805581 92:-0.804479 93:-0.80237 94:-0.801003 95:-0.799179 96:-0.797719 97:-0.79693 98:-0.795621 99:-0.795464 100:-0.794569 101:-0.793768 102:-0.792007 103:-0.790644 104:-0.79128 
164.5405589625639 1:-0.851643 2:-0.667364 3:-0.733985 4:-0.828253 5:-0.737248 6:-0.707042 7:-0.696759 8:-0.697069 9:-0.718015 10:-0.711654 11:-0.706838 12:-0.737556 13:-0.760179 14:-0.773581 15:-0.785127 16:-0.785707 17:-0.777547 18:-0.775458 19:-0.772808 20:-0.768504 21:-0.776127 22:-0.785618 23:-0.792924 24:-0.798966 25:-0.799336 26:-0.799234 27:-0.807064 28:-0.815169 29:-0.818517 30:-0.822226 31:-0.824684 32:-0.827474 33:-0.829768 34:-0.831518 35:-0.833606 36:-0.83474 37:-0.835609 38:-0.837004 39:-0.838617 40:-0.83991 41:-0.841391 42:-0.841972 43:-0.841824 44:-0.84163 45:-0.841639 46:-0.841454 47:-0.841228 48:-0.841725 49:-0.841264 50:-0.840979 51:-0.840806 52:-0.841118 53:-0.840912 54:-0.840193 55:-0.840265 56:-0.839863 57:-0.839187 58:-0.840096 59:-0.839823 60:-0.839873 61:-0.840068 62:-0.840538 63:-0.840529 64:-0.841001 65:-0.840693 66:-0.840238 67:-0.840454 68:-0.840108 69:-0.840119 70:-0.839752 71:-0.839816 72:-0.840156 73:-0.839862 74:-0.839548 75:-0.839405 76:-0.839094 77:-0.838636 78:-0.838662 79:-0.838438 80:-0.838103 81:-0.837816 82:-0.837546 83:-0.836883 84:-0.834603 85:-0.832403 86:-0.830129 87:-0.827952 88:-0.825866 89:-0.823805 90:-0.821966 91:-0.82133 92:-0.819206 93:-0.817317 94:-0.81617 95:-0.814595 96:-0.812696 97:-0.811277 98:-0.810185 99:-0.809689 100:-0.808033 101:-0.806814 102:-0.805543 103:-0.804158 104:-0.804604 
15.36060558410721 1:-0.763387 2:-0.462343 3:-0.576422 4:-0.810696 5:-0.665938 6:-0.69333 7:-0.671471 8:-0.663297 9:-0.658087 10:-0.667323 11:-0.665516 12:-0.6958 13:-0.722675 14:-0.734043 15:-0.746416 16:-0.749024 17:-0.740451 18:-0.758895 19:-0.75242 20:-0.749582 21:-0.755074 22:-0.765241 23:-0.77348 24:-0.779092 25:-0.781199 26:-0.789313 27:-0.790051 28:-0.792963 29:-0.80172 30:-0.805226 31:-0.80852 32:-0.811922 33:-0.81374 34:-0.818902 35:-0.823601 36:-0.824232 37:-0.825321 38:-0.826437 39:-0.828676 40:-0.830284 41:-0.829711 42:-0.831757 43:-0.831665 44:-0.831561 45:-0.831657 46:-0.831112 47:-0.830125 48:-0.829372 49:-0.829553 50:-0.828947 51:-0.828253 52:-0.827436 53:-0.826687 54:-0.82619 55:-0.825937 56:-0.825562 57:-0.82496 58:-0.824674 59:-0.82444 60:-0.825008 61:-0.827755 62:-0.828593 63:-0.828514 64:-0.831131 65:-0.831962 66:-0.833053 67:-0.833425 68:-0.833501 69:-0.83429 70:-0.834618 71:-0.834637 72:-0.834301 73:-0.833671 74:-0.833076 75:-0.832807 76:-0.832347 77:-0.83245 78:-0.832498 79:-0.832382 80:-0.831898 81:-0.832618 82:-0.831965 83:-0.831079 84:-0.828489 85:-0.82608 86:-0.823627 87:-0.821279 88:-0.81887 89:-0.817097 90:-0.815103 91:-0.812992 92:-0.810771 93:-0.808649 94:-0.806534 95:-0.804826 96:-0.803073 97:-0.802023 98:-0.800119 99:-0.799107 100:-0.798285 101:-0.797203 102:-0.796519 103:-0.795798 104:-0.79642 
0.8896969393877818 1:-0.745133 2:-0.267782 3:-0.46753 4:-0.691568 5:-0.623839 6:-0.582733 7:-0.557598 8:-0.557235 9:-0.550316 10:-0.550457 11:-0.553628 12:-0.583517 13:-0.60583 14:-0.616145 15:-0.634843 16:-0.63643 17:-0.630932 18:-0.630799 19:-0.622784 20:-0.617739 21:-0.6247 22:-0.636436 23:-0.645072 24:-0.651047 25:-0.651757 26:-0.652026 27:-0.653663 28:-0.656491 29:-0.659707 30:-0.662067 31:-0.665505 32:-0.668778 33:-0.670964 34:-0.672718 35:-0.674998 36:-0.67665 37:-0.678259 38:-0.681362 39:-0.682528 40:-0.683931 41:-0.684376 42:-0.686648 43:-0.687898 44:-0.687753 45:-0.687943 46:-0.688103 47:-0.687967 48:-0.688001 49:-0.68804 50:-0.688236 51:-0.687829 52:-0.687719 53:-0.689168 54:-0.693167 55:-0.693098 56:-0.692845 57:-0.694947 58:-0.694331 59:-0.694044 60:-0.694293 61:-0.695045 62:-0.694914 63:-0.695871 64:-0.696157 65:-0.69566 66:-0.695554 67:-0.695801 68:-0.696818 69:-0.699148 70:-0.69968 71:-0.70386 72:-0.707192 73:-0.707863 74:-0.708081 75:-0.71038 76:-0.710301 77:-0.70987 78:-0.71012 79:-0.710399 80:-0.710437 81:-0.709878 82:-0.709319 83:-0.709017 84:-0.707879 85:-0.705741 86:-0.703889 87:-0.702278 88:-0.700226 89:-0.698249 90:-0.696351 91:-0.694392 92:-0.692156 93:-0.690385 94:-0.688398 95:-0.686606 96:-0.684821 97:-0.683995 98:-0.684047 99:-0.683284 100:-0.681931 101:-0.681512 102:-0.681419 103:-0.680262 104:-0.681995 
1.824046002271211 1:-0.757076 2:-0.258368 3:-0.415119 4:-0.752757 5:-0.618691 6:-0.631333 7:-0.608383 8:-0.598036 9:-0.600521 10:-0.598345 11:-0.598451 12:-0.633088 13:-0.686498 14:-0.697075 15:-0.706592 16:-0.70764 17:-0.697551 18:-0.692298 19:-0.687058 20:-0.682326 21:-0.688298 22:-0.706957 23:-0.718031 24:-0.73064 25:-0.732998 26:-0.736757 27:-0.745877 28:-0.747593 29:-0.751374 30:-0.755647 31:-0.755902 32:-0.758089 33:-0.759367 34:-0.759943 35:-0.760654 36:-0.764958 37:-0.765152 38:-0.76611 39:-0.766779 40:-0.767311 41:-0.767869 42:-0.767589 43:-0.767487 44:-0.7664 45:-0.766413 46:-0.765905 47:-0.765713 48:-0.765502 49:-0.765694 50:-0.766691 51:-0.765546 52:-0.764566 53:-0.767519 54:-0.768877 55:-0.769432 56:-0.772714 57:-0.772743 58:-0.774596 59:-0.773398 60:-0.772271 61:-0.771978 62:-0.771285 63:-0.771441 64:-0.772266 65:-0.771221 66:-0.770923 67:-0.771239 68:-0.772069 69:-0.772118 70:-0.772223 71:-0.772241 72:-0.771585 73:-0.770946 74:-0.770359 75:-0.77038 76:-0.769954 77:-0.769672 78:-0.769858 79:-0.770872 80:-0.770399 81:-0.770573 82:-0.770391 83:-0.769212 84:-0.767399 85:-0.765452 86:-0.763034 87:-0.761392 88:-0.758833 89:-0.757949 90:-0.758027 91:-0.757218 92:-0.754677 93:-0.752469 94:-0.750721 95:-0.749405 96:-0.748208 97:-0.746429 98:-0.746272 99:-0.745292 100:-0.745166 101:-0.745294 102:-0.745545 103:-0.746434 104:-0.747416 
39.98022610698374 1:-0.859411 2:-0.547071 3:-0.617012 4:-0.8475 5:-0.695945 6:-0.73031 7:-0.706696 8:-0.698402 9:-0.693982 10:-0.693648 11:-0.696447 12:-0.726528 13:-0.75163 14:-0.764185 15:-0.776995 16:-0.779281 17:-0.77338 18:-0.788062 19:-0.784689 20:-0.778446 21:-0.78488 22:-0.798669 23:-0.811254 24:-0.819232 25:-0.821289 26:-0.820741 27:-0.824418 28:-0.830099 29:-0.834363 30:-0.83656 31:-0.839558 32:-0.846757 33:-0.849319 34:-0.851975 35:-0.854453 36:-0.856214 37:-0.857318 38:-0.858439 39:-0.861191 40:-0.861683 41:-0.861219 42:-0.86141 43:-0.86124 44:-0.860876 45:-0.861755 46:-0.863197 47:-0.862815 48:-0.864514 49:-0.863568 50:-0.862927 51:-0.862078 52:-0.86165 53:-0.861329 54:-0.86068 55:-0.86032 56:-0.859771 57:-0.859397 58:-0.859861 59:-0.859545 60:-0.858847 61:-0.858571 62:-0.858757 63:-0.859327 64:-0.860443 65:-0.860065 66:-0.860515 67:-0.861215 68:-0.860949 69:-0.862254 70:-0.864065 71:-0.864339 72:-0.864049 73:-0.863378 74:-0.864095 75:-0.863782 76:-0.863644 77:-0.863414 78:-0.862966 79:-0.862856 80:-0.862984 81:-0.862679 82:-0.862101 83:-0.862229 84:-0.859883 85:-0.857297 86:-0.855214 87:-0.852717 88:-0.850872 89:-0.848687 90:-0.846924 91:-0.84476 92:-0.843289 93:-0.841374 94:-0.840299 95:-0.838884 96:-0.838437 97:-0.837394 98:-0.835899 99:-0.83492 100:-0.833017 101:-0.83122 102:-0.831003 103:-0.83017 104:-0.831346 
23.12868920755978 1:-0.85242 2:-0.593096 3:-0.658231 4:-0.846183 5:-0.684911 6:-0.73279 7:-0.708761 8:-0.703559 9:-0.698583 10:-0.697027 11:-0.699239 12:-0.728602 13:-0.7543 14:-0.765659 15:-0.777421 16:-0.782662 17:-0.774424 18:-0.787761 19:-0.786907 20:-0.782552 21:-0.790811 22:-0.803919 23:-0.815065 24:-0.821432 25:-0.822632 26:-0.829542 27:-0.831911 28:-0.835724 29:-0.838972 30:-0.844538 31:-0.847002 32:-0.848358 33:-0.852993 34:-0.854516 35:-0.855745 36:-0.856984 37:-0.858723 38:-0.859724 39:-0.861672 40:-0.861992 41:-0.862773 42:-0.863006 43:-0.863502 44:-0.86454 45:-0.864434 46:-0.865668 47:-0.864604 48:-0.864282 49:-0.867102 50:-0.866409 51:-0.865511 52:-0.865035 53:-0.864974 54:-0.864275 55:-0.863804 56:-0.863355 57:-0.862847 58:-0.86208 59:-0.861745 60:-0.861235 61:-0.860796 62:-0.860689 63:-0.86042 64:-0.860707 65:-0.860188 66:-0.860492 67:-0.861257 68:-0.860619 69:-0.860347 70:-0.861084 71:-0.860553 72:-0.86036 73:-0.860137 74:-0.859894 75:-0.859855 76:-0.860315 77:-0.860259 78:-0.85987 79:-0.859311 80:-0.859413 81:-0.85952 82:-0.859435 83:-0.858517 84:-0.856398 85:-0.854178 86:-0.852748 87:-0.850672 88:-0.848276 89:-0.846838 90:-0.844971 91:-0.843671 92:-0.842022 93:-0.840305 94:-0.838366 95:-0.837541 96:-0.836216 97:-0.834443 98:-0.83261 99:-0.831368 100:-0.830461 101:-0.828965 102:-0.828197 103:-0.826639 104:-0.827478 
1.149268854317409 1:-0.822419 2:-0.433054 3:-0.572898 4:-0.814526 5:-0.650111 6:-0.698896 7:-0.678537 8:-0.668978 9:-0.662447 10:-0.66772 11:-0.66607 12:-0.695933 13:-0.719836 14:-0.731843 15:-0.745745 16:-0.781684 17:-0.77959 18:-0.773428 19:-0.766234 20:-0.765444 21:-0.781562 22:-0.79401 23:-0.799853 24:-0.80605 25:-0.805514 26:-0.808492 27:-0.809153 28:-0.815308 29:-0.818012 30:-0.823159 31:-0.828637 32:-0.831131 33:-0.833193 34:-0.836209 35:-0.838576 36:-0.839004 37:-0.839422 38:-0.840844 39:-0.849181 40:-0.851285 41:-0.854401 42:-0.854745 43:-0.854839 44:-0.854892 45:-0.858655 46:-0.859961 47:-0.86042 48:-0.860226 49:-0.859974 50:-0.861948 51:-0.861422 52:-0.860075 53:-0.859477 54:-0.858167 55:-0.856958 56:-0.85599 57:-0.854991 58:-0.854367 59:-0.85358 60:-0.852882 61:-0.852437 62:-0.852765 63:-0.852536 64:-0.852009 65:-0.851237 66:-0.850612 67:-0.850112 68:-0.849405 69:-0.848854 70:-0.848249 71:-0.847659 72:-0.847033 73:-0.846106 74:-0.845614 75:-0.844974 76:-0.844305 77:-0.84397 78:-0.843281 79:-0.842708 80:-0.842155 81:-0.841775 82:-0.84111 83:-0.840063 84:-0.838034 85:-0.83592 86:-0.833433 87:-0.831021 88:-0.828828 89:-0.826567 90:-0.82424 91:-0.822135 92:-0.820074 93:-0.81801 94:-0.815784 95:-0.813911 96:-0.811879 97:-0.810008 98:-0.807931 99:-0.806578 100:-0.805031 101:-0.803101 102:-0.801263 103:-0.799597 104:-0.80053 
20.55222468468134 1:-0.857857 2:-0.600418 3:-0.669669 4:-0.815809 5:-0.655147 6:-0.70573 7:-0.68054 8:-0.673866 9:-0.66761 10:-0.675728 11:-0.682528 12:-0.7117 13:-0.735103 14:-0.747048 15:-0.75767 16:-0.760409 17:-0.754581 18:-0.749823 19:-0.743261 20:-0.738415 21:-0.749515 22:-0.769929 23:-0.776959 24:-0.782457 25:-0.7828 26:-0.783346 27:-0.784336 28:-0.787546 29:-0.790945 30:-0.794 31:-0.795878 32:-0.798607 33:-0.802279 34:-0.805039 35:-0.807714 36:-0.808757 37:-0.809878 38:-0.812044 39:-0.813715 40:-0.815619 41:-0.816215 42:-0.818381 43:-0.819644 44:-0.821779 45:-0.822859 46:-0.825522 47:-0.825485 48:-0.825639 49:-0.827354 50:-0.826816 51:-0.828798 52:-0.829424 53:-0.831866 54:-0.832095 55:-0.833197 56:-0.833742 57:-0.834001 58:-0.834535 59:-0.833725 60:-0.833617 61:-0.83326 62:-0.832513 63:-0.832417 64:-0.832382 65:-0.832093 66:-0.83248 67:-0.832184 68:-0.832896 69:-0.832227 70:-0.831574 71:-0.830933 72:-0.831661 73:-0.831261 74:-0.830917 75:-0.830557 76:-0.830308 77:-0.830286 78:-0.829888 79:-0.82947 80:-0.829295 81:-0.82886 82:-0.828339 83:-0.828416 84:-0.825924 85:-0.823983 86:-0.822823 87:-0.821295 88:-0.81914 89:-0.81747 90:-0.815238 91:-0.813122 92:-0.811063 93:-0.809191 94:-0.807625 95:-0.805803 96:-0.803921 97:-0.802197 98:-0.800192 99:-0.799244 100:-0.797669 101:-0.796524 102:-0.795676 103:-0.794814 104:-0.795898 
7.954709767417988 1:-0.818049 2:-0.58159 3:-0.681977 4:-0.808899 5:-0.651069 6:-0.699058 7:-0.711959 8:-0.696203 9:-0.685696 10:-0.680351 11:-0.677287 12:-0.707521 13:-0.734756 14:-0.746747 15:-0.757851 16:-0.760621 17:-0.754188 18:-0.749486 19:-0.741645 20:-0.737681 21:-0.743694 22:-0.754072 23:-0.762773 24:-0.769132 25:-0.770344 26:-0.77246 27:-0.773848 28:-0.77781 29:-0.780654 30:-0.783479 31:-0.786563 32:-0.789851 33:-0.79258 34:-0.794931 35:-0.797196 36:-0.799401 37:-0.804666 38:-0.809437 39:-0.814862 40:-0.817493 41:-0.820441 42:-0.821714 43:-0.821822 44:-0.821989 45:-0.822889 46:-0.82259 47:-0.821908 48:-0.822261 49:-0.821712 50:-0.821869 51:-0.821674 52:-0.821631 53:-0.821481 54:-0.820907 55:-0.820476 56:-0.821177 57:-0.821908 58:-0.821661 59:-0.821416 60:-0.823222 61:-0.824172 62:-0.823949 63:-0.824135 64:-0.824583 65:-0.823983 66:-0.823716 67:-0.823642 68:-0.823376 69:-0.822934 70:-0.8225 71:-0.822331 72:-0.822078 73:-0.821581 74:-0.821678 75:-0.821498 76:-0.821111 77:-0.820579 78:-0.820344 79:-0.819968 80:-0.81996 81:-0.819561 82:-0.819337 83:-0.818616 84:-0.816514 85:-0.814072 86:-0.811863 87:-0.810603 88:-0.8093 89:-0.807913 90:-0.805883 91:-0.803811 92:-0.802916 93:-0.80097 94:-0.799126 95:-0.797594 96:-0.796004 97:-0.794474 98:-0.792688 99:-0.791573 100:-0.790584 101:-0.789515 102:-0.788754 103:-0.787388 104:-0.788118 
0.9351873067605242 1:-0.837371 2:-0.552301 3:-0.624634 4:-0.807181 5:-0.665566 6:-0.694769 7:-0.67217 8:-0.662578 9:-0.658639 10:-0.669311 11:-0.667158 12:-0.696058 13:-0.720504 14:-0.732678 15:-0.746238 16:-0.749133 17:-0.741028 18:-0.73597 19:-0.729409 20:-0.73982 21:-0.754384 22:-0.764466 23:-0.771525 24:-0.77679 25:-0.779014 26:-0.778775 27:-0.779725 28:-0.78302 29:-0.791025 30:-0.794777 31:-0.797733 32:-0.799801 33:-0.801812 34:-0.804488 35:-0.807689 36:-0.810162 37:-0.812975 38:-0.814112 39:-0.81511 40:-0.815872 41:-0.816053 42:-0.816744 43:-0.817053 44:-0.821037 45:-0.821822 46:-0.823314 47:-0.822374 48:-0.822505 49:-0.822019 50:-0.821522 51:-0.821306 52:-0.820893 53:-0.820229 54:-0.820588 55:-0.82024 56:-0.820006 57:-0.819971 58:-0.819855 59:-0.819266 60:-0.819242 61:-0.818737 62:-0.81838 63:-0.818113 64:-0.818056 65:-0.81927 66:-0.82005 67:-0.820447 68:-0.819786 69:-0.819493 70:-0.819263 71:-0.818912 72:-0.8185 73:-0.818702 74:-0.818282 75:-0.819159 76:-0.818729 77:-0.81869 78:-0.818589 79:-0.819224 80:-0.82014 81:-0.820438 82:-0.820169 83:-0.819849 84:-0.817929 85:-0.816142 86:-0.813595 87:-0.812322 88:-0.810223 89:-0.808028 90:-0.806308 91:-0.804431 92:-0.802378 93:-0.800919 94:-0.798765 95:-0.797095 96:-0.796336 97:-0.794523 98:-0.792604 99:-0.791713 100:-0.79033 101:-0.789912 102:-0.788708 103:-0.788455 104:-0.789889 
17.21604950502248 1:-0.75193 2:-0.540795 3:-0.629356 4:-0.802562 5:-0.63966 6:-0.679472 7:-0.662344 8:-0.657449 9:-0.656169 10:-0.652617 11:-0.651966 12:-0.683355 13:-0.706629 14:-0.720098 15:-0.739949 16:-0.754165 17:-0.750526 18:-0.744128 19:-0.74624 20:-0.744204 21:-0.748889 22:-0.757833 23:-0.766079 24:-0.771278 25:-0.772464 26:-0.772309 27:-0.776888 28:-0.779843 29:-0.782386 30:-0.784768 31:-0.787225 32:-0.788954 33:-0.791297 34:-0.794518 35:-0.798583 36:-0.801485 37:-0.804069 38:-0.80689 39:-0.810559 40:-0.81198 41:-0.81161 42:-0.811215 43:-0.811239 44:-0.811152 45:-0.812955 46:-0.815354 47:-0.814445 48:-0.814255 49:-0.813756 50:-0.81508 51:-0.814625 52:-0.81482 53:-0.815023 54:-0.815753 55:-0.815626 56:-0.815875 57:-0.815647 58:-0.81589 59:-0.815333 60:-0.815566 61:-0.8164 62:-0.818086 63:-0.817436 64:-0.816925 65:-0.816908 66:-0.817665 67:-0.819285 68:-0.818876 69:-0.818528 70:-0.818366 71:-0.818146 72:-0.817472 73:-0.817523 74:-0.817022 75:-0.816594 76:-0.816297 77:-0.817334 78:-0.817014 79:-0.816825 80:-0.816674 81:-0.816145 82:-0.815579 83:-0.815476 84:-0.813075 85:-0.810558 86:-0.808031 87:-0.806039 88:-0.803668 89:-0.802226 90:-0.799998 91:-0.797888 92:-0.795964 93:-0.794281 94:-0.792724 95:-0.791173 96:-0.789857 97:-0.789067 98:-0.788459 99:-0.787553 100:-0.78588 101:-0.784318 102:-0.784589 103:-0.783597 104:-0.784904 
0.3569282670276448 1:-0.759794 2:-0.33159 3:-0.483606 4:-0.734548 5:-0.605999 6:-0.601809 7:-0.583663 8:-0.5926 9:-0.596228 10:-0.59251 11:-0.594293 12:-0.621788 13:-0.645643 14:-0.657501 15:-0.67389 16:-0.688553 17:-0.682328 18:-0.67812 19:-0.675324 20:-0.673551 21:-0.678884 22:-0.692852 23:-0.701145 24:-0.707332 25:-0.707816 26:-0.707921 27:-0.710962 28:-0.714384 29:-0.718925 30:-0.72215 31:-0.723815 32:-0.725213 33:-0.727699 34:-0.728807 35:-0.731955 36:-0.733377 37:-0.734904 38:-0.735708 39:-0.737866 40:-0.737841 41:-0.739016 42:-0.739204 43:-0.742171 44:-0.746714 45:-0.746276 46:-0.746247 47:-0.745216 48:-0.745726 49:-0.745878 50:-0.747113 51:-0.748624 52:-0.748216 53:-0.750443 54:-0.752009 55:-0.751701 56:-0.751641 57:-0.752311 58:-0.752426 59:-0.754972 60:-0.754762 61:-0.7566 62:-0.757256 63:-0.75716 64:-0.757676 65:-0.759665 66:-0.759424 67:-0.759468 68:-0.758976 69:-0.758733 70:-0.759575 71:-0.759503 72:-0.759219 73:-0.759632 74:-0.759806 75:-0.759504 76:-0.759049 77:-0.758539 78:-0.758602 79:-0.758241 80:-0.757899 81:-0.757562 82:-0.75713 83:-0.756949 84:-0.754521 85:-0.752126 86:-0.749923 87:-0.747751 88:-0.745544 89:-0.743696 90:-0.742109 91:-0.740076 92:-0.738316 93:-0.736731 94:-0.734975 95:-0.733486 96:-0.731746 97:-0.730291 98:-0.728823 99:-0.72736 100:-0.726484 101:-0.72536 102:-0.724243 103:-0.723393 104:-0.724703 
98.0175592680803 1:-0.86611 2:-0.623431 3:-0.70228 4:-0.851594 5:-0.77553 6:-0.745533 7:-0.745309 8:-0.729672 9:-0.721254 10:-0.715306 11:-0.713315 12:-0.757685 13:-0.787058 14:-0.803891 15:-0.819253 16:-0.820537 17:-0.811844 18:-0.805462 19:-0.796742 20:-0.791001 21:-0.796478 22:-0.806034 23:-0.813705 24:-0.81909 25:-0.819662 26:-0.819621 27:-0.820526 28:-0.823528 29:-0.827086 30:-0.830475 31:-0.83866 32:-0.841529 33:-0.843689 34:-0.84782 35:-0.850613 36:-0.852388 37:-0.854165 38:-0.859936 39:-0.86125 40:-0.863984 41:-0.863717 42:-0.86365 43:-0.864592 44:-0.865911 45:-0.865302 46:-0.865534 47:-0.865009 48:-0.864932 49:-0.864292 50:-0.863593 51:-0.864543 52:-0.865473 53:-0.865023 54:-0.866215 55:-0.867336 56:-0.866848 57:-0.8662 58:-0.866023 59:-0.865924 60:-0.867347 61:-0.867394 62:-0.866812 63:-0.867326 64:-0.867803 65:-0.867447 66:-0.867278 67:-0.867048 68:-0.866673 69:-0.866293 70:-0.865713 71:-0.865417 72:-0.865198 73:-0.865217 74:-0.864691 75:-0.864369 76:-0.864179 77:-0.864234 78:-0.86386 79:-0.863513 80:-0.863227 81:-0.862896 82:-0.862672 83:-0.861963 84:-0.859466 85:-0.857228 86:-0.855031 87:-0.85317 88:-0.850841 89:-0.848983 90:-0.846843 91:-0.845279 92:-0.843135 93:-0.841497 94:-0.84007 95:-0.838528 96:-0.836732 97:-0.835345 98:-0.834524 99:-0.833434 100:-0.832011 101:-0.830835 102:-0.829693 103:-0.82856 104:-0.830276 
33.19034142762097 1:-0.863683 2:-0.58159 3:-0.686343 4:-0.840266 5:-0.761337 6:-0.747514 7:-0.723113 8:-0.714153 9:-0.705517 10:-0.719937 11:-0.714302 12:-0.742549 13:-0.765682 14:-0.776172 15:-0.791394 16:-0.792225 17:-0.783077 18:-0.778038 19:-0.770451 20:-0.765641 21:-0.773552 22:-0.791774 23:-0.807078 24:-0.812038 25:-0.812235 26:-0.811961 27:-0.812851 28:-0.815161 29:-0.818537 30:-0.821291 31:-0.823331 32:-0.826502 33:-0.828474 34:-0.831567 35:-0.83455 36:-0.835589 37:-0.837527 38:-0.839005 39:-0.840734 40:-0.843997 41:-0.846702 42:-0.847896 43:-0.850881 44:-0.851376 45:-0.851094 46:-0.851414 47:-0.85082 48:-0.853195 49:-0.855316 50:-0.854634 51:-0.857193 52:-0.856559 53:-0.856077 54:-0.857717 55:-0.858319 56:-0.860017 57:-0.859398 58:-0.858938 59:-0.859536 60:-0.859742 61:-0.859071 62:-0.858929 63:-0.858226 64:-0.858221 65:-0.858627 66:-0.857958 67:-0.857491 68:-0.857223 69:-0.857543 70:-0.856904 71:-0.856448 72:-0.856174 73:-0.855851 74:-0.855857 75:-0.855646 76:-0.855174 77:-0.85518 78:-0.854766 79:-0.85479 80:-0.85503 81:-0.855482 82:-0.855095 83:-0.854614 84:-0.852047 85:-0.849528 86:-0.847138 87:-0.845214 88:-0.843184 89:-0.840874 90:-0.838851 91:-0.83687 92:-0.834557 93:-0.833 94:-0.831023 95:-0.829265 96:-0.827288 97:-0.82672 98:-0.8248 99:-0.822951 100:-0.822107 101:-0.821366 102:-0.820021 103:-0.818967 104:-0.819738 
7.417860853243628 1:-0.833099 2:-0.552301 3:-0.661245 4:-0.825931 5:-0.797957 6:-0.762769 7:-0.725414 8:-0.733177 9:-0.717598 10:-0.708379 11:-0.704688 12:-0.732093 13:-0.759659 14:-0.791757 15:-0.805735 16:-0.807303 17:-0.79589 18:-0.788601 19:-0.780268 20:-0.773398 21:-0.777663 22:-0.786952 23:-0.794319 24:-0.799134 25:-0.80012 26:-0.799459 27:-0.80048 28:-0.804115 29:-0.808805 30:-0.813651 31:-0.816948 32:-0.819862 33:-0.824172 34:-0.825562 35:-0.827769 36:-0.82908 37:-0.832516 38:-0.83756 39:-0.838847 40:-0.83945 41:-0.839549 42:-0.839759 43:-0.839704 44:-0.840984 45:-0.841891 46:-0.841244 47:-0.840521 48:-0.840014 49:-0.84131 50:-0.84308 51:-0.843281 52:-0.846149 53:-0.845414 54:-0.845181 55:-0.845409 56:-0.844847 57:-0.845213 58:-0.846037 59:-0.846013 60:-0.845455 61:-0.844989 62:-0.844445 63:-0.844412 64:-0.843832 65:-0.84374 66:-0.843511 67:-0.844087 68:-0.843677 69:-0.843312 70:-0.842741 71:-0.842355 72:-0.842115 73:-0.841596 74:-0.84207 75:-0.841469 76:-0.841459 77:-0.842613 78:-0.842683 79:-0.842729 80:-0.842256 81:-0.841992 82:-0.841578 83:-0.840827 84:-0.838263 85:-0.835868 86:-0.833881 87:-0.831765 88:-0.82937 89:-0.82762 90:-0.825533 91:-0.823403 92:-0.82156 93:-0.819984 94:-0.81813 95:-0.816371 96:-0.815212 97:-0.813954 98:-0.81317 99:-0.811379 100:-0.809998 101:-0.809034 102:-0.807306 103:-0.806221 104:-0.806705 
1.123413420536906 1:-0.847274 2:-0.50523 3:-0.641667 4:-0.811584 5:-0.708037 6:-0.69948 7:-0.678621 8:-0.669332 9:-0.682418 10:-0.676677 11:-0.674181 12:-0.703282 13:-0.72636 14:-0.741536 15:-0.753113 16:-0.757201 17:-0.74837 18:-0.744446 19:-0.75584 20:-0.750393 21:-0.754457 22:-0.764299 23:-0.771558 24:-0.776433 25:-0.777711 26:-0.778215 27:-0.778666 28:-0.783031 29:-0.785448 30:-0.789855 31:-0.792055 32:-0.794697 33:-0.797208 34:-0.801865 35:-0.806024 36:-0.808298 37:-0.814209 38:-0.815458 39:-0.816635 40:-0.817899 41:-0.821102 42:-0.823713 43:-0.825791 44:-0.825906 45:-0.826296 46:-0.829167 47:-0.829979 48:-0.830206 49:-0.830111 50:-0.829423 51:-0.828778 52:-0.829584 53:-0.829163 54:-0.828577 55:-0.827955 56:-0.827566 57:-0.826991 58:-0.826373 59:-0.827072 60:-0.826403 61:-0.826476 62:-0.826849 63:-0.826562 64:-0.825995 65:-0.825742 66:-0.826019 67:-0.825547 68:-0.825424 69:-0.82517 70:-0.824735 71:-0.825196 72:-0.825714 73:-0.826377 74:-0.825827 75:-0.82539 76:-0.825111 77:-0.824722 78:-0.825555 79:-0.825488 80:-0.826146 81:-0.826474 82:-0.826346 83:-0.825618 84:-0.823539 85:-0.82174 86:-0.819321 87:-0.817036 88:-0.814667 89:-0.812639 90:-0.810525 91:-0.808659 92:-0.806601 93:-0.804585 94:-0.802598 95:-0.801165 96:-0.799599 97:-0.798309 98:-0.7968 99:-0.795439 100:-0.795525 101:-0.794917 102:-0.794025 103:-0.792659 104:-0.79332 
1.069621581005644 1:-0.63406 2:-0.354603 3:-0.498746 4:-0.702528 5:-0.642012 6:-0.599753 7:-0.576324 8:-0.565964 9:-0.559068 10:-0.558445 11:-0.558068 12:-0.626475 13:-0.666211 14:-0.682261 15:-0.688058 16:-0.687125 17:-0.677477 18:-0.671377 19:-0.663442 20:-0.659499 21:-0.664839 22:-0.682868 23:-0.695093 24:-0.707661 25:-0.706639 26:-0.706963 27:-0.707456 28:-0.709574 29:-0.714838 30:-0.716925 31:-0.718234 32:-0.720401 33:-0.721873 34:-0.722536 35:-0.724661 36:-0.724622 37:-0.726433 38:-0.727327 39:-0.728117 40:-0.728713 41:-0.728525 42:-0.727611 43:-0.727064 44:-0.726102 45:-0.725679 46:-0.725543 47:-0.724499 48:-0.72454 49:-0.724855 50:-0.724105 51:-0.723502 52:-0.723137 53:-0.723293 54:-0.72365 55:-0.722898 56:-0.722479 57:-0.722559 58:-0.723657 59:-0.724083 60:-0.723992 61:-0.724224 62:-0.723454 63:-0.722909 64:-0.722317 65:-0.721715 66:-0.721655 67:-0.72122 68:-0.720659 69:-0.720292 70:-0.719615 71:-0.719255 72:-0.718996 73:-0.718147 74:-0.717841 75:-0.717859 76:-0.717334 77:-0.71687 78:-0.716122 79:-0.715969 80:-0.715639 81:-0.71502 82:-0.71487 83:-0.713965 84:-0.711995 85:-0.711634 86:-0.711379 87:-0.71149 88:-0.710205 89:-0.707969 90:-0.706665 91:-0.705015 92:-0.702772 93:-0.701994 94:-0.699889 95:-0.698589 96:-0.696511 97:-0.695477 98:-0.695804 99:-0.694903 100:-0.693198 101:-0.692237 102:-0.690679 103:-0.689156 104:-0.691222 
2.235255310826626 1:-0.759017 2:-0.25 3:-0.425723 4:-0.693681 5:-0.607398 6:-0.58287 7:-0.558305 8:-0.549674 9:-0.5434 10:-0.5436 11:-0.554249 12:-0.611436 13:-0.63515 14:-0.656738 15:-0.667571 16:-0.668904 17:-0.658143 18:-0.650621 19:-0.64222 20:-0.643778 21:-0.655624 22:-0.674012 23:-0.692959 24:-0.69931 25:-0.698842 26:-0.698205 27:-0.69715 28:-0.699414 29:-0.70139 30:-0.702392 31:-0.704909 32:-0.704999 33:-0.706674 34:-0.707078 35:-0.708739 36:-0.708991 37:-0.709098 38:-0.710294 39:-0.711118 40:-0.712915 41:-0.712239 42:-0.711995 43:-0.711036 44:-0.710995 45:-0.710855 46:-0.710273 47:-0.709868 48:-0.709217 49:-0.708254 50:-0.707474 51:-0.707391 52:-0.706353 53:-0.705847 54:-0.709645 55:-0.711562 56:-0.712436 57:-0.712127 58:-0.711398 59:-0.711272 60:-0.715255 61:-0.716367 62:-0.716263 63:-0.715733 64:-0.715032 65:-0.714344 66:-0.714818 67:-0.714209 68:-0.713363 69:-0.713982 70:-0.7137 71:-0.713013 72:-0.713649 73:-0.713893 74:-0.713905 75:-0.71345 76:-0.713777 77:-0.714374 78:-0.715144 79:-0.715554 80:-0.715802 81:-0.715821 82:-0.715478 83:-0.714408 84:-0.712101 85:-0.709545 86:-0.707425 87:-0.705023 88:-0.702482 89:-0.701484 90:-0.700746 91:-0.700049 92:-0.698295 93:-0.696815 94:-0.694843 95:-0.692998 96:-0.692428 97:-0.692539 98:-0.691451 99:-0.690304 100:-0.688835 101:-0.687341 102:-0.686172 103:-0.685425 104:-0.686708 
10.48841745462007 1:-0.824846 2:-0.654812 3:-0.731436 4:-0.857744 5:-0.718087 6:-0.72601 7:-0.730091 8:-0.719123 9:-0.714839 10:-0.712328 11:-0.711585 12:-0.748786 13:-0.772541 14:-0.792501 15:-0.805473 16:-0.810643 17:-0.807691 18:-0.805513 19:-0.798573 20:-0.793068 21:-0.797724 22:-0.808898 23:-0.817608 24:-0.824461 25:-0.824735 26:-0.824828 27:-0.826244 28:-0.829353 29:-0.833003 30:-0.837107 31:-0.840998 32:-0.843261 33:-0.845173 34:-0.847609 35:-0.85057 36:-0.85243 37:-0.855012 38:-0.856608 39:-0.858567 40:-0.860363 41:-0.860916 42:-0.86116 43:-0.863194 44:-0.864124 45:-0.865328 46:-0.865358 47:-0.865535 48:-0.86661 49:-0.867559 50:-0.867218 51:-0.867271 52:-0.869112 53:-0.86876 54:-0.869904 55:-0.870014 56:-0.869796 57:-0.872264 58:-0.872467 59:-0.873926 60:-0.873287 61:-0.872904 62:-0.872675 63:-0.872397 64:-0.872646 65:-0.873592 66:-0.873203 67:-0.872643 68:-0.87282 69:-0.87226 70:-0.872171 71:-0.872523 72:-0.872179 73:-0.871809 74:-0.871623 75:-0.871291 76:-0.87089 77:-0.870903 78:-0.87051 79:-0.870317 80:-0.87006 81:-0.870105 82:-0.869807 83:-0.869046 84:-0.866529 85:-0.8653 86:-0.863631 87:-0.862004 88:-0.859628 89:-0.857485 90:-0.855369 91:-0.853419 92:-0.851138 93:-0.849299 94:-0.847281 95:-0.845719 96:-0.843796 97:-0.84211 98:-0.840137 99:-0.838517 100:-0.836918 101:-0.836397 102:-0.83514 103:-0.834045 104:-0.83474 
49.65557860749436 1:-0.84407 2:-0.625523 3:-0.707208 4:-0.83302 5:-0.67784 6:-0.727001 7:-0.701445 8:-0.69543 9:-0.70793 10:-0.701984 11:-0.698747 12:-0.728273 13:-0.752603 14:-0.76421 15:-0.779528 16:-0.781775 17:-0.774722 18:-0.773689 19:-0.765984 20:-0.766304 21:-0.778246 22:-0.787691 23:-0.794569 24:-0.80144 25:-0.803408 26:-0.802949 27:-0.803962 28:-0.806692 29:-0.809847 30:-0.815293 31:-0.818167 32:-0.821342 33:-0.823058 34:-0.825759 35:-0.827175 36:-0.829326 37:-0.830452 38:-0.832626 39:-0.83596 40:-0.837507 41:-0.83795 42:-0.840815 43:-0.842383 44:-0.842255 45:-0.843319 46:-0.843376 47:-0.842841 48:-0.844082 49:-0.845933 50:-0.847608 51:-0.847347 52:-0.848032 53:-0.848187 54:-0.847658 55:-0.848015 56:-0.850204 57:-0.849935 58:-0.849212 59:-0.848711 60:-0.848818 61:-0.84815 62:-0.847495 63:-0.847078 64:-0.847251 65:-0.846997 66:-0.846781 67:-0.846394 68:-0.845825 69:-0.84562 70:-0.845465 71:-0.845412 72:-0.84539 73:-0.844855 74:-0.844515 75:-0.845621 76:-0.845109 77:-0.844796 78:-0.845067 79:-0.845837 80:-0.846156 81:-0.845678 82:-0.845489 83:-0.845185 84:-0.842687 85:-0.840218 86:-0.837878 87:-0.835499 88:-0.833039 89:-0.83176 90:-0.829673 91:-0.827776 92:-0.825695 93:-0.823909 94:-0.821826 95:-0.820326 96:-0.818614 97:-0.817396 98:-0.816327 99:-0.816215 100:-0.8152 101:-0.813662 102:-0.812031 103:-0.810523 104:-0.811092 
8.90687968072476 1:-0.857178 2:-0.549163 3:-0.639551 4:-0.831455 5:-0.669014 6:-0.705903 7:-0.69367 8:-0.687726 9:-0.682763 10:-0.683799 11:-0.681188 12:-0.711139 13:-0.737394 14:-0.750391 15:-0.763034 16:-0.767234 17:-0.766586 18:-0.761137 19:-0.767254 20:-0.761323 21:-0.765846 22:-0.776853 23:-0.789259 24:-0.797107 25:-0.797683 26:-0.798285 27:-0.799247 28:-0.80161 29:-0.805033 30:-0.807887 31:-0.81041 32:-0.811918 33:-0.814145 34:-0.818199 35:-0.820034 36:-0.821863 37:-0.823031 38:-0.824706 39:-0.826159 40:-0.828992 41:-0.831703 42:-0.83265 43:-0.836436 44:-0.839212 45:-0.841074 46:-0.84145 47:-0.840929 48:-0.840728 49:-0.840229 50:-0.840789 51:-0.841683 52:-0.84088 53:-0.84203 54:-0.841326 55:-0.840627 56:-0.840943 57:-0.84217 58:-0.84363 59:-0.845542 60:-0.846209 61:-0.845485 62:-0.847828 63:-0.84711 64:-0.846494 65:-0.845988 66:-0.84533 67:-0.844691 68:-0.844776 69:-0.844972 70:-0.845038 71:-0.844409 72:-0.844771 73:-0.84416 74:-0.84391 75:-0.844113 76:-0.843986 77:-0.844782 78:-0.845195 79:-0.845443 80:-0.84493 81:-0.844993 82:-0.844565 83:-0.843777 84:-0.841854 85:-0.83962 86:-0.837077 87:-0.835024 88:-0.832664 89:-0.83035 90:-0.828881 91:-0.826802 92:-0.824658 93:-0.823184 94:-0.821046 95:-0.8194 96:-0.81777 97:-0.817326 98:-0.817378 99:-0.816969 100:-0.816147 101:-0.814449 102:-0.813598 103:-0.81272 104:-0.813652 
5.431497566709338 1:-0.861644 2:-0.555439 3:-0.654527 4:-0.831422 5:-0.674293 6:-0.726399 7:-0.703823 8:-0.692805 9:-0.687126 10:-0.688765 11:-0.691926 12:-0.722088 13:-0.746298 14:-0.758016 15:-0.770252 16:-0.772807 17:-0.763892 18:-0.766365 19:-0.75882 20:-0.755129 21:-0.770371 22:-0.782432 23:-0.791939 24:-0.802448 25:-0.802538 26:-0.802296 27:-0.803123 28:-0.805366 29:-0.810809 30:-0.812896 31:-0.81508 32:-0.816867 33:-0.821246 34:-0.823048 35:-0.82476 36:-0.8259 37:-0.828548 38:-0.829615 39:-0.830627 40:-0.831675 41:-0.834675 42:-0.836106 43:-0.83618 44:-0.837119 45:-0.839518 46:-0.841669 47:-0.843334 48:-0.843545 49:-0.844662 50:-0.844579 51:-0.843819 52:-0.843231 53:-0.842945 54:-0.842149 55:-0.842183 56:-0.841612 57:-0.841683 58:-0.84311 59:-0.844 60:-0.845424 61:-0.845598 62:-0.846363 63:-0.846359 64:-0.845886 65:-0.845217 66:-0.844585 67:-0.844899 68:-0.844553 69:-0.844606 70:-0.843995 71:-0.843632 72:-0.843045 73:-0.843428 74:-0.843366 75:-0.843767 76:-0.843371 77:-0.843229 78:-0.842706 79:-0.842942 80:-0.842711 81:-0.842953 82:-0.842698 83:-0.842239 84:-0.839833 85:-0.837732 86:-0.835364 87:-0.833097 88:-0.830994 89:-0.829632 90:-0.827586 91:-0.825488 92:-0.823695 93:-0.82203 94:-0.820189 95:-0.818439 96:-0.817393 97:-0.816807 98:-0.815464 99:-0.813654 100:-0.811962 101:-0.811775 102:-0.811377 103:-0.810542 104:-0.8127 
150.8263652131886 1:-0.836109 2:-0.563808 3:-0.657662 4:-0.831255 5:-0.677573 6:-0.722245 7:-0.700309 8:-0.69271 9:-0.687101 10:-0.684681 11:-0.691659 12:-0.721649 13:-0.745187 14:-0.757455 15:-0.769764 16:-0.772221 17:-0.764327 18:-0.759748 19:-0.75593 20:-0.75259 21:-0.758166 22:-0.771994 23:-0.787352 24:-0.79301 25:-0.795553 26:-0.797347 27:-0.800407 28:-0.804051 29:-0.807199 30:-0.813404 31:-0.816866 32:-0.819465 33:-0.821231 34:-0.824194 35:-0.826329 36:-0.827702 37:-0.829141 38:-0.832153 39:-0.833601 40:-0.834869 41:-0.835909 42:-0.837335 43:-0.838091 44:-0.840253 45:-0.842446 46:-0.842334 47:-0.842113 48:-0.842212 49:-0.84214 50:-0.842526 51:-0.842671 52:-0.842242 53:-0.841694 54:-0.841905 55:-0.841475 56:-0.842867 57:-0.843685 58:-0.845374 59:-0.845268 60:-0.847211 61:-0.847311 62:-0.847621 63:-0.847892 64:-0.847731 65:-0.847512 66:-0.847026 67:-0.846702 68:-0.846332 69:-0.84586 70:-0.845611 71:-0.845285 72:-0.845407 73:-0.845128 74:-0.845166 75:-0.844724 76:-0.844718 77:-0.844347 78:-0.844119 79:-0.843973 80:-0.843952 81:-0.843784 82:-0.843442 83:-0.842651 84:-0.840261 85:-0.838195 86:-0.836271 87:-0.834423 88:-0.832482 89:-0.830524 90:-0.828613 91:-0.827155 92:-0.825478 93:-0.823358 94:-0.821478 95:-0.820168 96:-0.819487 97:-0.818083 98:-0.817015 99:-0.815725 100:-0.814431 101:-0.812764 102:-0.811575 103:-0.811429 104:-0.812337 
31.17925182943063 1:-0.807078 2:-0.531381 3:-0.656117 4:-0.828342 5:-0.6676 6:-0.703527 7:-0.6886 8:-0.681209 9:-0.675974 10:-0.675955 11:-0.685386 12:-0.715153 13:-0.739758 14:-0.751113 15:-0.770801 16:-0.773981 17:-0.764997 18:-0.761408 19:-0.753537 20:-0.749369 21:-0.75724 22:-0.768547 23:-0.779382 24:-0.78537 25:-0.78615 26:-0.7879 27:-0.789217 28:-0.793992 29:-0.798989 30:-0.801839 31:-0.803883 32:-0.806767 33:-0.809106 34:-0.811643 35:-0.81542 36:-0.817202 37:-0.81879 38:-0.823076 39:-0.826006 40:-0.827511 41:-0.828711 42:-0.829934 43:-0.831488 44:-0.833702 45:-0.83421 46:-0.834073 47:-0.8339 48:-0.834296 49:-0.835145 50:-0.837076 51:-0.837671 52:-0.838484 53:-0.838131 54:-0.837784 55:-0.837504 56:-0.837094 57:-0.838494 58:-0.841666 59:-0.84197 60:-0.841771 61:-0.844025 62:-0.843381 63:-0.843546 64:-0.842877 65:-0.843072 66:-0.842426 67:-0.842164 68:-0.841535 69:-0.841913 70:-0.841867 71:-0.841253 72:-0.840825 73:-0.840528 74:-0.840135 75:-0.841062 76:-0.840883 77:-0.841298 78:-0.84107 79:-0.840916 80:-0.841372 81:-0.84091 82:-0.840831 83:-0.840442 84:-0.838208 85:-0.835842 86:-0.833594 87:-0.831175 88:-0.828947 89:-0.827047 90:-0.825071 91:-0.82297 92:-0.8209 93:-0.818814 94:-0.817595 95:-0.816463 96:-0.815852 97:-0.815405 98:-0.813698 99:-0.813027 100:-0.811193 101:-0.809572 102:-0.809459 103:-0.808339 104:-0.80947 
36.02804168959877 1:-0.825137 2:-0.546025 3:-0.636502 4:-0.820877 5:-0.679782 6:-0.710983 7:-0.693632 8:-0.682266 9:-0.675553 10:-0.681219 11:-0.682004 12:-0.711069 13:-0.735237 14:-0.746926 15:-0.759066 16:-0.76843 17:-0.760424 18:-0.757151 19:-0.748975 20:-0.748207 21:-0.762157 22:-0.775677 23:-0.786846 24:-0.796463 25:-0.798925 26:-0.799334 27:-0.799965 28:-0.805517 29:-0.810262 30:-0.812811 31:-0.815758 32:-0.817161 33:-0.819618 34:-0.823598 35:-0.825273 36:-0.826183 37:-0.827562 38:-0.829317 39:-0.830489 40:-0.832348 41:-0.832131 42:-0.832644 43:-0.834023 44:-0.83408 45:-0.834331 46:-0.833976 47:-0.83335 48:-0.833017 49:-0.832668 50:-0.832317 51:-0.833033 52:-0.832191 53:-0.832005 54:-0.833166 55:-0.833498 56:-0.835074 57:-0.834484 58:-0.833947 59:-0.833569 60:-0.833484 61:-0.83401 62:-0.83373 63:-0.83365 64:-0.833531 65:-0.833146 66:-0.832866 67:-0.833538 68:-0.833389 69:-0.834628 70:-0.834228 71:-0.83498 72:-0.83543 73:-0.835749 74:-0.835418 75:-0.83545 76:-0.836354 77:-0.836309 78:-0.836447 79:-0.835984 80:-0.835775 81:-0.835149 82:-0.835018 83:-0.834375 84:-0.83167 85:-0.829423 86:-0.826934 87:-0.824769 88:-0.822519 89:-0.820917 90:-0.819488 91:-0.817485 92:-0.815763 93:-0.814379 94:-0.812909 95:-0.812282 96:-0.810357 97:-0.808778 98:-0.807806 99:-0.806271 100:-0.805092 101:-0.805065 102:-0.803221 103:-0.802286 104:-0.803085 
76.14182668772004 1:-0.831739 2:-0.709205 3:-0.775605 4:-0.803747 5:-0.664787 6:-0.683074 7:-0.666262 8:-0.660603 9:-0.657365 10:-0.661735 11:-0.662664 12:-0.693354 13:-0.71822 14:-0.730742 15:-0.743689 16:-0.756172 17:-0.754173 18:-0.74887 19:-0.744676 20:-0.739706 21:-0.745557 22:-0.757432 23:-0.766094 24:-0.778883 25:-0.780682 26:-0.781657 27:-0.782962 28:-0.785382 29:-0.788616 30:-0.791164 31:-0.793828 32:-0.796184 33:-0.798552 34:-0.800202 35:-0.803059 36:-0.804434 37:-0.80655 38:-0.808191 39:-0.810182 40:-0.81135 41:-0.811902 42:-0.812852 43:-0.813372 44:-0.813317 45:-0.813177 46:-0.813114 47:-0.813016 48:-0.81268 49:-0.812612 50:-0.812431 51:-0.812415 52:-0.812758 53:-0.81331 54:-0.813381 55:-0.813069 56:-0.812834 57:-0.812446 58:-0.812479 59:-0.812174 60:-0.812105 61:-0.811831 62:-0.812179 63:-0.812174 64:-0.811919 65:-0.81165 66:-0.811851 67:-0.81161 68:-0.811384 69:-0.8112 70:-0.811056 71:-0.810807 72:-0.81092 73:-0.81086 74:-0.810802 75:-0.810822 76:-0.81059 77:-0.810784 78:-0.81056 79:-0.810333 80:-0.810381 81:-0.809962 82:-0.810038 83:-0.809443 84:-0.807112 85:-0.805017 86:-0.802969 87:-0.800786 88:-0.798684 89:-0.797183 90:-0.795839 91:-0.794254 92:-0.792509 93:-0.790927 94:-0.789085 95:-0.787551 96:-0.785604 97:-0.784397 98:-0.782721 99:-0.781206 100:-0.779664 101:-0.778102 102:-0.776934 103:-0.776228 104:-0.777137 
1.993838004251573 1:-0.692995 2:-0.523013 3:-0.633971 4:-0.734579 5:-0.656365 6:-0.625563 7:-0.599146 8:-0.597461 9:-0.596496 10:-0.593884 11:-0.593788 12:-0.623809 13:-0.656913 14:-0.667783 15:-0.685029 16:-0.69106 17:-0.693863 18:-0.690521 19:-0.681786 20:-0.677372 21:-0.682923 22:-0.692011 23:-0.698658 24:-0.705234 25:-0.705559 26:-0.706655 27:-0.707765 28:-0.710802 29:-0.714436 30:-0.716925 31:-0.720134 32:-0.721593 33:-0.724363 34:-0.727424 35:-0.729514 36:-0.730744 37:-0.732549 38:-0.734037 39:-0.736134 40:-0.736861 41:-0.737462 42:-0.737535 43:-0.739188 44:-0.738881 45:-0.739048 46:-0.739487 47:-0.739062 48:-0.738462 49:-0.738634 50:-0.738691 51:-0.738469 52:-0.738181 53:-0.73793 54:-0.738642 55:-0.738348 56:-0.738181 57:-0.737875 58:-0.737918 59:-0.738183 60:-0.738174 61:-0.737784 62:-0.740924 63:-0.744326 64:-0.746078 65:-0.745781 66:-0.745628 67:-0.747953 68:-0.748029 69:-0.747806 70:-0.747793 71:-0.747598 72:-0.747735 73:-0.748572 74:-0.747996 75:-0.74816 76:-0.747918 77:-0.747763 78:-0.747453 79:-0.747329 80:-0.747122 81:-0.746668 82:-0.74636 83:-0.746244 84:-0.743881 85:-0.741605 86:-0.73945 87:-0.737176 88:-0.735111 89:-0.733015 90:-0.731163 91:-0.730408 92:-0.729542 93:-0.728001 94:-0.726399 95:-0.724779 96:-0.723083 97:-0.721398 98:-0.719588 99:-0.717977 100:-0.716491 101:-0.716272 102:-0.71531 103:-0.714312 104:-0.71551 
2.827889642901738 1:-0.731735 2:-0.251046 3:-0.443406 4:-0.643371 5:-0.531167 6:-0.514504 7:-0.504002 8:-0.493508 9:-0.491301 10:-0.499868 11:-0.521104 12:-0.553071 13:-0.574351 14:-0.590982 15:-0.603998 16:-0.606641 17:-0.597612 18:-0.592849 19:-0.584023 20:-0.580667 21:-0.585501 22:-0.597716 23:-0.60561 24:-0.610517 25:-0.610806 26:-0.60994 27:-0.612084 28:-0.614619 29:-0.618189 30:-0.6202 31:-0.623295 32:-0.626008 33:-0.628051 34:-0.62997 35:-0.632367 36:-0.633339 37:-0.634684 38:-0.636763 39:-0.637869 40:-0.638772 41:-0.640948 42:-0.641051 43:-0.643177 44:-0.643312 45:-0.64362 46:-0.646095 47:-0.647142 48:-0.648013 49:-0.647191 50:-0.648107 51:-0.649737 52:-0.649027 53:-0.650109 54:-0.649716 55:-0.649381 56:-0.649068 57:-0.649762 58:-0.651738 59:-0.652785 60:-0.653356 61:-0.653986 62:-0.653929 63:-0.653601 64:-0.653339 65:-0.652931 66:-0.652755 67:-0.653152 68:-0.653865 69:-0.653724 70:-0.654073 71:-0.653722 72:-0.653279 73:-0.652844 74:-0.652414 75:-0.65196 76:-0.652193 77:-0.651967 78:-0.651636 79:-0.651326 80:-0.65102 81:-0.650838 82:-0.651323 83:-0.651245 84:-0.649938 85:-0.648178 86:-0.646704 87:-0.644356 88:-0.643914 89:-0.64463 90:-0.643589 91:-0.643207 92:-0.642843 93:-0.641373 94:-0.641032 95:-0.64183 96:-0.640664 97:-0.63948 98:-0.637892 99:-0.639154 100:-0.637369 101:-0.635881 102:-0.634258 103:-0.632624 104:-0.634478 
50.24100376615985 1:-0.831351 2:-0.728033 3:-0.77266 4:-0.781906 5:-0.632647 6:-0.662665 7:-0.645035 8:-0.635975 9:-0.641015 10:-0.639507 11:-0.639351 12:-0.669637 13:-0.694623 14:-0.714315 15:-0.742535 16:-0.743994 17:-0.733641 18:-0.730039 19:-0.721939 20:-0.716921 21:-0.724942 22:-0.735828 23:-0.744967 24:-0.751673 25:-0.752671 26:-0.753699 27:-0.756061 28:-0.762503 29:-0.765637 30:-0.768169 31:-0.770341 32:-0.77289 33:-0.774966 34:-0.778575 35:-0.784196 36:-0.789209 37:-0.790582 38:-0.791777 39:-0.792912 40:-0.793609 41:-0.793913 42:-0.800312 43:-0.800235 44:-0.799926 45:-0.799826 46:-0.79899 47:-0.798685 48:-0.798155 49:-0.79739 50:-0.798447 51:-0.798477 52:-0.798115 53:-0.79786 54:-0.797325 55:-0.797149 56:-0.796482 57:-0.7964 58:-0.795875 59:-0.795248 60:-0.795285 61:-0.795108 62:-0.794911 63:-0.79437 64:-0.794226 65:-0.793873 66:-0.793736 67:-0.793422 68:-0.793101 69:-0.792963 70:-0.792615 71:-0.792302 72:-0.792124 73:-0.791821 74:-0.79177 75:-0.791497 76:-0.791376 77:-0.790946 78:-0.791029 79:-0.790746 80:-0.790759 81:-0.790515 82:-0.790268 83:-0.789837 84:-0.78749 85:-0.785327 86:-0.783125 87:-0.78116 88:-0.778967 89:-0.777036 90:-0.775088 91:-0.773279 92:-0.771261 93:-0.769348 94:-0.768057 95:-0.766323 96:-0.764644 97:-0.763072 98:-0.761416 99:-0.759828 100:-0.758294 101:-0.756778 102:-0.755493 103:-0.754041 104:-0.755114 
8.425916336035206 1:-0.75358 2:-0.558577 3:-0.744031 4:-0.750004 5:-0.605334 6:-0.634013 7:-0.615182 8:-0.609016 9:-0.652703 10:-0.658355 11:-0.650748 12:-0.676371 13:-0.697207 14:-0.706511 15:-0.715776 16:-0.717337 17:-0.708836 18:-0.704141 19:-0.697332 20:-0.702688 21:-0.710851 22:-0.72039 23:-0.726943 24:-0.733061 25:-0.737828 26:-0.73879 27:-0.740607 28:-0.750423 29:-0.752231 30:-0.754352 31:-0.759194 32:-0.760191 33:-0.761399 34:-0.763909 35:-0.764999 36:-0.765945 37:-0.767208 38:-0.768369 39:-0.769088 40:-0.77038 41:-0.770218 42:-0.770082 43:-0.770118 44:-0.770026 45:-0.769596 46:-0.769088 47:-0.768449 48:-0.768576 49:-0.768201 50:-0.767765 51:-0.767366 52:-0.766956 53:-0.766532 54:-0.766065 55:-0.765782 56:-0.765316 57:-0.765438 58:-0.764909 59:-0.764706 60:-0.76438 61:-0.763974 62:-0.763644 63:-0.763357 64:-0.763031 65:-0.762924 66:-0.762581 67:-0.762532 68:-0.762258 69:-0.761919 70:-0.761853 71:-0.761445 72:-0.761244 73:-0.761233 74:-0.760998 75:-0.760636 76:-0.760392 77:-0.760033 78:-0.759768 79:-0.759456 80:-0.759324 81:-0.759103 82:-0.759069 83:-0.758493 84:-0.756226 85:-0.754009 86:-0.751938 87:-0.749857 88:-0.747736 89:-0.745769 90:-0.743866 91:-0.742229 92:-0.740381 93:-0.738565 94:-0.736799 95:-0.735497 96:-0.734224 97:-0.732707 98:-0.731035 99:-0.729512 100:-0.727985 101:-0.726437 102:-0.724975 103:-0.723588 104:-0.72444 
2.117156602835959 1:-0.78465 2:-0.535565 3:-0.632366 4:-0.712269 5:-0.618777 6:-0.62603 7:-0.592724 8:-0.597541 9:-0.585253 10:-0.584057 11:-0.580749 12:-0.628617 13:-0.662955 14:-0.672023 15:-0.681375 16:-0.684559 17:-0.678887 18:-0.671596 19:-0.663655 20:-0.658183 21:-0.664516 22:-0.67349 23:-0.680868 24:-0.685974 25:-0.686847 26:-0.689919 27:-0.697445 28:-0.70551 29:-0.708129 30:-0.711743 31:-0.72272 32:-0.724657 33:-0.727315 34:-0.731397 35:-0.732449 36:-0.733588 37:-0.736316 38:-0.740179 39:-0.740532 40:-0.740692 41:-0.740301 42:-0.739489 43:-0.740996 44:-0.741534 45:-0.740622 46:-0.739857 47:-0.738382 48:-0.738168 49:-0.737445 50:-0.737247 51:-0.7374 52:-0.736173 53:-0.735771 54:-0.73612 55:-0.735275 56:-0.734248 57:-0.733358 58:-0.733335 59:-0.732373 60:-0.73148 61:-0.731687 62:-0.731202 63:-0.730745 64:-0.730615 65:-0.729977 66:-0.729575 67:-0.729 68:-0.728706 69:-0.728145 70:-0.727849 71:-0.727298 72:-0.727057 73:-0.72636 74:-0.726051 75:-0.725847 76:-0.725192 77:-0.725031 78:-0.724733 79:-0.724277 80:-0.724239 81:-0.724018 82:-0.723612 83:-0.722973 84:-0.720391 85:-0.718545 86:-0.716571 87:-0.714628 88:-0.712786 89:-0.710707 90:-0.709301 91:-0.708588 92:-0.707283 93:-0.705259 94:-0.704736 95:-0.703282 96:-0.701224 97:-0.699782 98:-0.69782 99:-0.696587 100:-0.695156 101:-0.693367 102:-0.692421 103:-0.692139 104:-0.692928 
1.858286373864568 1:-0.775038 2:-0.541841 3:-0.603521 4:-0.680974 5:-0.583854 6:-0.595035 7:-0.565913 8:-0.563342 9:-0.554768 10:-0.551238 11:-0.550091 12:-0.615146 13:-0.636341 14:-0.645048 15:-0.657407 16:-0.658873 17:-0.647757 18:-0.642354 19:-0.63485 20:-0.629425 21:-0.633838 22:-0.646884 23:-0.660174 24:-0.66985 25:-0.674445 26:-0.673368 27:-0.675837 28:-0.682145 29:-0.686161 30:-0.688449 31:-0.693173 32:-0.697507 33:-0.698968 34:-0.700115 35:-0.700602 36:-0.702162 37:-0.704951 38:-0.706887 39:-0.707873 40:-0.7096 41:-0.709768 42:-0.709279 43:-0.708338 44:-0.708025 45:-0.707523 46:-0.706796 47:-0.705543 48:-0.706391 49:-0.706297 50:-0.705567 51:-0.704964 52:-0.704174 53:-0.703495 54:-0.703176 55:-0.702589 56:-0.701915 57:-0.701196 58:-0.700479 59:-0.699911 60:-0.699309 61:-0.698803 62:-0.698796 63:-0.697946 64:-0.698403 65:-0.697771 66:-0.697629 67:-0.697386 68:-0.696892 69:-0.696892 70:-0.696124 71:-0.696052 72:-0.695674 73:-0.69552 74:-0.695151 75:-0.694885 76:-0.694342 77:-0.693976 78:-0.69392 79:-0.693392 80:-0.693694 81:-0.693118 82:-0.692952 83:-0.692278 84:-0.689792 85:-0.688193 86:-0.686017 87:-0.683819 88:-0.68163 89:-0.680559 90:-0.678658 91:-0.677114 92:-0.675117 93:-0.673622 94:-0.671831 95:-0.670236 96:-0.668203 97:-0.666865 98:-0.66535 99:-0.663673 100:-0.662626 101:-0.662063 102:-0.662321 103:-0.661656 104:-0.662883 
0.4724656200783305 1:-0.766591 2:-0.493724 3:-0.593555 4:-0.662922 5:-0.542593 6:-0.532269 7:-0.54058 8:-0.529674 9:-0.531706 10:-0.528072 11:-0.527778 12:-0.572292 13:-0.60731 14:-0.615109 15:-0.634034 16:-0.633287 17:-0.622735 18:-0.623358 19:-0.613914 20:-0.608414 21:-0.612746 22:-0.625425 23:-0.632035 24:-0.635627 25:-0.640337 26:-0.643078 27:-0.647317 28:-0.64951 29:-0.655127 30:-0.664978 31:-0.672376 32:-0.677651 33:-0.680929 34:-0.686794 35:-0.688073 36:-0.688284 37:-0.688708 38:-0.688851 39:-0.692586 40:-0.693078 41:-0.69286 42:-0.692029 43:-0.691672 44:-0.691009 45:-0.690503 46:-0.689354 47:-0.68832 48:-0.688029 49:-0.687776 50:-0.687034 51:-0.686735 52:-0.685683 53:-0.685464 54:-0.685001 55:-0.684692 56:-0.684103 57:-0.684005 58:-0.68326 59:-0.683077 60:-0.682865 61:-0.682306 62:-0.681948 63:-0.681061 64:-0.681214 65:-0.680731 66:-0.680267 67:-0.680282 68:-0.679999 69:-0.679559 70:-0.679173 71:-0.678726 72:-0.678288 73:-0.67759 74:-0.677617 75:-0.677157 76:-0.677073 77:-0.676372 78:-0.676012 79:-0.67562 80:-0.675629 81:-0.675272 82:-0.674934 83:-0.674252 84:-0.671824 85:-0.669663 86:-0.667537 87:-0.665492 88:-0.663333 89:-0.661519 90:-0.659685 91:-0.657945 92:-0.655964 93:-0.655823 94:-0.655465 95:-0.653842 96:-0.653533 97:-0.652607 98:-0.650874 99:-0.649177 100:-0.647822 101:-0.64636 102:-0.644958 103:-0.643674 104:-0.645142 
1.620693695974407 1:-0.771445 2:-0.531381 3:-0.581639 4:-0.654606 5:-0.616213 6:-0.595168 7:-0.556774 8:-0.555125 9:-0.544638 10:-0.550036 11:-0.57327 12:-0.595 13:-0.612187 14:-0.621833 15:-0.633105 16:-0.635392 17:-0.625604 18:-0.62182 19:-0.618163 20:-0.614612 21:-0.61749 22:-0.625823 23:-0.639855 24:-0.650271 25:-0.648572 26:-0.651952 27:-0.655276 28:-0.659084 29:-0.666795 30:-0.671464 31:-0.672572 32:-0.673505 33:-0.680505 34:-0.681545 35:-0.682363 36:-0.682961 37:-0.682954 38:-0.684824 39:-0.686456 40:-0.68631 41:-0.686017 42:-0.685051 43:-0.684291 44:-0.684634 45:-0.684511 46:-0.683554 47:-0.683502 48:-0.682397 49:-0.681773 50:-0.680974 51:-0.679971 52:-0.679342 53:-0.679697 54:-0.678662 55:-0.67889 56:-0.678324 57:-0.677502 58:-0.677064 59:-0.676562 60:-0.676065 61:-0.675384 62:-0.674783 63:-0.674248 64:-0.673717 65:-0.673688 66:-0.673568 67:-0.672811 68:-0.672791 69:-0.67213 70:-0.671829 71:-0.67135 72:-0.671998 73:-0.671511 74:-0.671079 75:-0.67075 76:-0.670304 77:-0.670041 78:-0.669636 79:-0.669255 80:-0.669125 81:-0.66879 82:-0.668554 83:-0.667767 84:-0.665472 85:-0.663595 86:-0.661407 87:-0.659419 88:-0.657637 89:-0.65567 90:-0.65382 91:-0.652161 92:-0.650149 93:-0.648554 94:-0.646596 95:-0.644864 96:-0.643123 97:-0.641322 98:-0.63999 99:-0.638471 100:-0.637186 101:-0.635771 102:-0.635287 103:-0.635616 104:-0.63742 
1.611671210448501 1:-0.69115 2:-0.440377 3:-0.508012 4:-0.62664 5:-0.631555 6:-0.562351 7:-0.52512 8:-0.516089 9:-0.507852 10:-0.544586 11:-0.549024 12:-0.56942 13:-0.58634 14:-0.593663 15:-0.619661 16:-0.621784 17:-0.610284 18:-0.608136 19:-0.599051 20:-0.594469 21:-0.596869 22:-0.609325 23:-0.614863 24:-0.625403 25:-0.627231 26:-0.626492 27:-0.626544 28:-0.636813 29:-0.638962 30:-0.638987 31:-0.64319 32:-0.643463 33:-0.646213 34:-0.655489 35:-0.656154 36:-0.656974 37:-0.657263 38:-0.657712 39:-0.659029 40:-0.659706 41:-0.659975 42:-0.659785 43:-0.659104 44:-0.66015 45:-0.658987 46:-0.658186 47:-0.656588 48:-0.65536 49:-0.655461 50:-0.654834 51:-0.654036 52:-0.653446 53:-0.652303 54:-0.652453 55:-0.651973 56:-0.651367 57:-0.650753 58:-0.650206 59:-0.650252 60:-0.649798 61:-0.649276 62:-0.649006 63:-0.648467 64:-0.64862 65:-0.64846 66:-0.648381 67:-0.647894 68:-0.647087 69:-0.647034 70:-0.646676 71:-0.646244 72:-0.645507 73:-0.645262 74:-0.64484 75:-0.643983 76:-0.643122 77:-0.643454 78:-0.643101 79:-0.643075 80:-0.642707 81:-0.641825 82:-0.641929 83:-0.640956 84:-0.638719 85:-0.636648 86:-0.634804 87:-0.632665 88:-0.630492 89:-0.628794 90:-0.626961 91:-0.625919 92:-0.623725 93:-0.622568 94:-0.620823 95:-0.619157 96:-0.617432 97:-0.616235 98:-0.616422 99:-0.616514 100:-0.614709 101:-0.614661 102:-0.61342 103:-0.612049 104:-0.613506 
34.76810943229719 1:-0.866304 2:-0.593096 3:-0.744959 4:-0.873902 5:-0.711247 6:-0.751551 7:-0.761861 8:-0.752535 9:-0.742745 10:-0.739369 11:-0.736713 12:-0.767098 13:-0.79262 14:-0.804597 15:-0.81645 16:-0.82683 17:-0.821824 18:-0.824388 19:-0.822212 20:-0.818423 21:-0.824131 22:-0.835504 23:-0.843288 24:-0.848801 25:-0.848977 26:-0.85027 27:-0.852028 28:-0.854647 29:-0.857361 30:-0.860402 31:-0.863522 32:-0.86564 33:-0.86791 34:-0.871752 35:-0.875985 36:-0.878075 37:-0.882206 38:-0.884202 39:-0.885308 40:-0.886704 41:-0.887138 42:-0.88683 43:-0.886647 44:-0.886474 45:-0.886215 46:-0.88576 47:-0.885456 48:-0.884923 49:-0.885884 50:-0.885374 51:-0.885225 52:-0.884909 53:-0.884499 54:-0.884044 55:-0.883668 56:-0.883727 57:-0.883315 58:-0.883147 59:-0.88351 60:-0.883176 61:-0.883624 62:-0.883593 63:-0.883354 64:-0.882972 65:-0.882734 66:-0.882443 67:-0.882785 68:-0.882705 69:-0.88246 70:-0.882475 71:-0.882876 72:-0.882906 73:-0.882902 74:-0.88284 75:-0.882564 76:-0.882682 77:-0.88257 78:-0.882613 79:-0.882977 80:-0.883332 81:-0.883402 82:-0.883493 83:-0.88298 84:-0.88155 85:-0.879317 86:-0.87697 87:-0.874716 88:-0.872491 89:-0.870675 90:-0.869646 91:-0.867791 92:-0.86622 93:-0.864441 94:-0.862458 95:-0.86075 96:-0.859239 97:-0.857582 98:-0.856307 99:-0.854553 100:-0.852837 101:-0.851267 102:-0.849821 103:-0.848867 104:-0.850336 
24.63713513350988 1:-0.777562 2:-0.535565 3:-0.641147 4:-0.817637 5:-0.65966 6:-0.701774 7:-0.68624 8:-0.677018 9:-0.671221 10:-0.67153 11:-0.669587 12:-0.699789 13:-0.72582 14:-0.737993 15:-0.751988 16:-0.772113 17:-0.778513 18:-0.781854 19:-0.774372 20:-0.768402 21:-0.772197 22:-0.781479 23:-0.788207 24:-0.794325 25:-0.794063 26:-0.793442 27:-0.79515 28:-0.800217 29:-0.803901 30:-0.809459 31:-0.811209 32:-0.815385 33:-0.81785 34:-0.819754 35:-0.825291 36:-0.827332 37:-0.829268 38:-0.831925 39:-0.833401 40:-0.836031 41:-0.835457 42:-0.836181 43:-0.835928 44:-0.835458 45:-0.834642 46:-0.834683 47:-0.834413 48:-0.83446 49:-0.834039 50:-0.833463 51:-0.833059 52:-0.832138 53:-0.831748 54:-0.832461 55:-0.832348 56:-0.832216 57:-0.831849 58:-0.831457 59:-0.830914 60:-0.830845 61:-0.830142 62:-0.829849 63:-0.829615 64:-0.829172 65:-0.829147 66:-0.829335 67:-0.829626 68:-0.829314 69:-0.8296 70:-0.829127 71:-0.829201 72:-0.8305 73:-0.832456 74:-0.832666 75:-0.832122 76:-0.832051 77:-0.831615 78:-0.831383 79:-0.831533 80:-0.831608 81:-0.832441 82:-0.832672 83:-0.833445 84:-0.830868 85:-0.828722 86:-0.826649 87:-0.824591 88:-0.822196 89:-0.819985 90:-0.818239 91:-0.81628 92:-0.814212 93:-0.812175 94:-0.81027 95:-0.808473 96:-0.806795 97:-0.804965 98:-0.802929 99:-0.801753 100:-0.801436 101:-0.79994 102:-0.798439 103:-0.797837 104:-0.799506 
33.01122100444449 1:-0.826011 2:-0.584728 3:-0.693828 4:-0.855481 5:-0.696388 6:-0.738899 7:-0.727117 8:-0.716857 9:-0.711671 10:-0.708649 11:-0.707806 12:-0.744717 13:-0.770586 14:-0.78246 15:-0.794235 16:-0.797287 17:-0.788442 18:-0.784306 19:-0.777211 20:-0.774654 21:-0.780841 22:-0.792118 23:-0.800645 24:-0.807155 25:-0.808534 26:-0.810404 27:-0.818989 28:-0.824229 29:-0.830652 30:-0.83585 31:-0.839916 32:-0.84273 33:-0.844923 34:-0.846994 35:-0.849469 36:-0.851253 37:-0.853712 38:-0.857592 39:-0.861995 40:-0.864936 41:-0.866596 42:-0.866001 43:-0.867326 44:-0.869853 45:-0.869503 46:-0.869826 47:-0.870043 48:-0.869561 49:-0.869152 50:-0.86892 51:-0.868928 52:-0.869047 53:-0.86864 54:-0.867966 55:-0.867646 56:-0.868714 57:-0.870922 58:-0.870891 59:-0.872519 60:-0.872738 61:-0.872388 62:-0.872464 63:-0.872183 64:-0.871961 65:-0.871861 66:-0.871645 67:-0.872255 68:-0.871772 69:-0.871473 70:-0.8711 71:-0.871036 72:-0.870907 73:-0.870907 74:-0.870474 75:-0.870431 76:-0.870076 77:-0.869969 78:-0.869577 79:-0.869437 80:-0.870091 81:-0.870652 82:-0.870598 83:-0.870167 84:-0.867819 85:-0.86551 86:-0.863077 87:-0.8609 88:-0.858727 89:-0.856633 90:-0.854556 91:-0.852586 92:-0.850364 93:-0.848382 94:-0.846349 95:-0.84451 96:-0.842834 97:-0.841085 98:-0.839217 99:-0.838105 100:-0.83644 101:-0.834849 102:-0.834523 103:-0.833522 104:-0.834746 
0.2845971025909265 1:-0.878052 2:-0.612971 3:-0.684586 4:-0.858676 5:-0.699033 6:-0.743904 7:-0.72636 8:-0.718389 9:-0.710798 10:-0.709808 11:-0.708845 12:-0.73999 13:-0.770408 14:-0.78258 15:-0.795209 16:-0.797816 17:-0.789825 18:-0.785624 19:-0.779796 20:-0.776462 21:-0.783245 22:-0.794394 23:-0.803861 24:-0.815268 25:-0.826985 26:-0.829257 27:-0.831004 28:-0.833838 29:-0.841738 30:-0.844264 31:-0.846433 32:-0.848475 33:-0.851679 34:-0.854654 35:-0.858092 36:-0.862143 37:-0.864925 38:-0.868255 39:-0.870947 40:-0.871298 41:-0.873138 42:-0.872442 43:-0.872776 44:-0.873521 45:-0.87431 46:-0.874165 47:-0.873248 48:-0.872444 49:-0.872209 50:-0.871737 51:-0.871258 52:-0.872309 53:-0.874015 54:-0.873917 55:-0.87448 56:-0.874867 57:-0.875533 58:-0.874799 59:-0.87429 60:-0.873608 61:-0.873349 62:-0.873141 63:-0.872516 64:-0.872106 65:-0.874237 66:-0.873621 67:-0.873388 68:-0.873655 69:-0.873214 70:-0.874626 71:-0.874017 72:-0.873857 73:-0.873722 74:-0.873635 75:-0.874179 76:-0.874771 77:-0.874335 78:-0.874108 79:-0.873707 80:-0.873242 81:-0.872687 82:-0.872625 83:-0.872156 84:-0.870118 85:-0.867774 86:-0.865372 87:-0.863066 88:-0.860681 89:-0.858367 90:-0.856142 91:-0.85403 92:-0.852383 93:-0.850355 94:-0.848967 95:-0.847167 96:-0.845185 97:-0.843836 98:-0.843178 99:-0.842284 100:-0.84095 101:-0.839432 102:-0.837967 103:-0.837399 104:-0.838562 
16.62166326013424 1:-0.856789 2:-0.519874 3:-0.647001 4:-0.848876 5:-0.691103 6:-0.735871 7:-0.713523 8:-0.704312 9:-0.698885 10:-0.697234 11:-0.70639 12:-0.740262 13:-0.764044 14:-0.776257 15:-0.787891 16:-0.791524 17:-0.785256 18:-0.780329 19:-0.773156 20:-0.772773 21:-0.778677 22:-0.792964 23:-0.804107 24:-0.812401 25:-0.813749 26:-0.813861 27:-0.816798 28:-0.819744 29:-0.824422 30:-0.832999 31:-0.837407 32:-0.842242 33:-0.844607 34:-0.847176 35:-0.852108 36:-0.856404 37:-0.857945 38:-0.86065 39:-0.86283 40:-0.863624 41:-0.863256 42:-0.864372 43:-0.864296 44:-0.86409 45:-0.863924 46:-0.863128 47:-0.862651 48:-0.863478 49:-0.864083 50:-0.863775 51:-0.86431 52:-0.864266 53:-0.864378 54:-0.863644 55:-0.863133 56:-0.862722 57:-0.862138 58:-0.861627 59:-0.861616 60:-0.861343 61:-0.862413 62:-0.861929 63:-0.861472 64:-0.861415 65:-0.86191 66:-0.861722 67:-0.861596 68:-0.861079 69:-0.86097 70:-0.86078 71:-0.860594 72:-0.861591 73:-0.861199 74:-0.860969 75:-0.860541 76:-0.860614 77:-0.860624 78:-0.860532 79:-0.860144 80:-0.859912 81:-0.859919 82:-0.86018 83:-0.859445 84:-0.857044 85:-0.854678 86:-0.852946 87:-0.850574 88:-0.848686 89:-0.846988 90:-0.84541 91:-0.84385 92:-0.841877 93:-0.840774 94:-0.840136 95:-0.838895 96:-0.837324 97:-0.836488 98:-0.836449 99:-0.835361 100:-0.83367 101:-0.831875 102:-0.830487 103:-0.829914 104:-0.830904 
36.6336178308137 1:-0.889412 2:-0.75523 3:-0.802539 4:-0.858228 5:-0.704126 6:-0.725203 7:-0.709038 8:-0.707194 9:-0.703238 10:-0.705218 11:-0.709256 12:-0.743408 13:-0.768016 14:-0.782142 15:-0.794402 16:-0.797112 17:-0.789535 18:-0.787156 19:-0.784709 20:-0.785075 21:-0.790463 22:-0.801674 23:-0.809533 24:-0.81554 25:-0.818425 26:-0.819711 27:-0.823361 28:-0.826317 29:-0.829377 30:-0.83219 31:-0.835898 32:-0.838283 33:-0.841232 34:-0.844009 35:-0.846313 36:-0.848465 37:-0.854167 38:-0.856694 39:-0.858195 40:-0.862178 41:-0.862629 42:-0.862394 43:-0.862278 44:-0.863035 45:-0.862819 46:-0.862833 47:-0.862605 48:-0.862726 49:-0.863282 50:-0.862892 51:-0.864808 52:-0.864798 53:-0.865222 54:-0.867063 55:-0.867564 56:-0.868189 57:-0.868232 58:-0.868476 59:-0.869372 60:-0.870052 61:-0.869698 62:-0.869225 63:-0.86898 64:-0.868937 65:-0.868597 66:-0.86837 67:-0.868283 68:-0.867872 69:-0.867642 70:-0.867241 71:-0.867189 72:-0.866968 73:-0.866879 74:-0.866844 75:-0.866898 76:-0.86725 77:-0.866891 78:-0.866548 79:-0.86634 80:-0.866346 81:-0.866118 82:-0.865935 83:-0.865579 84:-0.863229 85:-0.861019 86:-0.858652 87:-0.856533 88:-0.854315 89:-0.852299 90:-0.850328 91:-0.848498 92:-0.846592 93:-0.844611 94:-0.842981 95:-0.841362 96:-0.8394 97:-0.837914 98:-0.836179 99:-0.834588 100:-0.833761 101:-0.832889 102:-0.831447 103:-0.82991 104:-0.83087 
13.75659004947187 1:-0.876887 2:-0.753138 3:-0.801558 4:-0.850887 5:-0.707101 6:-0.738625 7:-0.746427 8:-0.738208 9:-0.729087 10:-0.724485 11:-0.72151 12:-0.750051 13:-0.775102 14:-0.785851 15:-0.799158 16:-0.803682 17:-0.794137 18:-0.791974 19:-0.784384 20:-0.781185 21:-0.786671 22:-0.797654 23:-0.805889 24:-0.812254 25:-0.813303 26:-0.814205 27:-0.817321 28:-0.821589 29:-0.826577 30:-0.829641 31:-0.83696 32:-0.840489 33:-0.843353 34:-0.849511 35:-0.854287 36:-0.856636 37:-0.858777 38:-0.861381 39:-0.866772 40:-0.868932 41:-0.869326 42:-0.870361 43:-0.870534 44:-0.870603 45:-0.870655 46:-0.870144 47:-0.86957 48:-0.868832 49:-0.868422 50:-0.868651 51:-0.868073 52:-0.867595 53:-0.866939 54:-0.867105 55:-0.866578 56:-0.866285 57:-0.865849 58:-0.865496 59:-0.865376 60:-0.865006 61:-0.865167 62:-0.864946 63:-0.864773 64:-0.864481 65:-0.864245 66:-0.863853 67:-0.863582 68:-0.863125 69:-0.863027 70:-0.862754 71:-0.862501 72:-0.862236 73:-0.861971 74:-0.861734 75:-0.861342 76:-0.860951 77:-0.860888 78:-0.860678 79:-0.860387 80:-0.860221 81:-0.859822 82:-0.859475 83:-0.859594 84:-0.857059 85:-0.854838 86:-0.85246 87:-0.850457 88:-0.848092 89:-0.846154 90:-0.844309 91:-0.842542 92:-0.840364 93:-0.838629 94:-0.836637 95:-0.834996 96:-0.83315 97:-0.83156 98:-0.830144 99:-0.828542 100:-0.826981 101:-0.825426 102:-0.824175 103:-0.822688 104:-0.823468 
30.5737307907815 1:-0.804068 2:-0.687238 3:-0.767891 4:-0.83444 5:-0.691517 6:-0.730931 7:-0.708207 8:-0.699276 9:-0.694311 10:-0.694094 11:-0.691785 12:-0.724089 13:-0.749201 14:-0.761414 15:-0.7747 16:-0.777586 17:-0.776631 18:-0.784242 19:-0.777613 20:-0.774581 21:-0.779532 22:-0.790327 23:-0.799496 24:-0.80509 25:-0.806501 26:-0.80686 27:-0.80878 28:-0.812052 29:-0.815141 30:-0.822332 31:-0.824963 32:-0.831034 33:-0.833076 34:-0.834751 35:-0.836351 36:-0.83759 37:-0.838909 38:-0.84025 39:-0.841651 40:-0.842806 41:-0.843045 42:-0.843163 43:-0.843793 44:-0.846098 45:-0.847223 46:-0.850335 47:-0.850706 48:-0.851642 49:-0.853074 50:-0.853352 51:-0.853145 52:-0.854057 53:-0.853521 54:-0.853693 55:-0.853471 56:-0.853294 57:-0.853037 58:-0.852438 59:-0.852432 60:-0.851936 61:-0.851546 62:-0.851239 63:-0.850961 64:-0.850581 65:-0.850298 66:-0.849854 67:-0.849537 68:-0.849181 69:-0.848891 70:-0.848642 71:-0.848126 72:-0.847823 73:-0.847594 74:-0.847271 75:-0.846863 76:-0.846566 77:-0.846434 78:-0.846272 79:-0.845823 80:-0.845751 81:-0.845639 82:-0.845462 83:-0.844804 84:-0.842934 85:-0.840695 86:-0.838411 87:-0.836222 88:-0.834223 89:-0.832084 90:-0.830171 91:-0.828288 92:-0.826095 93:-0.824219 94:-0.822317 95:-0.820871 96:-0.81898 97:-0.81742 98:-0.815552 99:-0.813941 100:-0.812326 101:-0.81074 102:-0.80933 103:-0.807814 104:-0.808813 
24.93073054648265 1:-0.87145 2:-0.707113 3:-0.772558 4:-0.828891 5:-0.686862 6:-0.719391 7:-0.705485 8:-0.693481 9:-0.688211 10:-0.687803 11:-0.685675 12:-0.726839 13:-0.752117 14:-0.763457 15:-0.775475 16:-0.778029 17:-0.76969 18:-0.766304 19:-0.758326 20:-0.754049 21:-0.760094 22:-0.771083 23:-0.779821 24:-0.78618 25:-0.787501 26:-0.787563 27:-0.789525 28:-0.792896 29:-0.805382 30:-0.812228 31:-0.815926 32:-0.822966 33:-0.824621 34:-0.827833 35:-0.829549 36:-0.830943 37:-0.832365 38:-0.833802 39:-0.835208 40:-0.83613 41:-0.837688 42:-0.838802 43:-0.839507 44:-0.841394 45:-0.843802 46:-0.845229 47:-0.845739 48:-0.846206 49:-0.847108 50:-0.846499 51:-0.847516 52:-0.847325 53:-0.846818 54:-0.84627 55:-0.845886 56:-0.84542 57:-0.844952 58:-0.844657 59:-0.844027 60:-0.844055 61:-0.844123 62:-0.844011 63:-0.84365 64:-0.843303 65:-0.84302 66:-0.842687 67:-0.842422 68:-0.841984 69:-0.841482 70:-0.841398 71:-0.840909 72:-0.840894 73:-0.840655 74:-0.84049 75:-0.840052 76:-0.839934 77:-0.839749 78:-0.839564 79:-0.839552 80:-0.839345 81:-0.839041 82:-0.838793 83:-0.838081 84:-0.835679 85:-0.833471 86:-0.831219 87:-0.829063 88:-0.826822 89:-0.824894 90:-0.822799 91:-0.820947 92:-0.818985 93:-0.81721 94:-0.815459 95:-0.813893 96:-0.812034 97:-0.81055 98:-0.808859 99:-0.807362 100:-0.805856 101:-0.804694 102:-0.803611 103:-0.802059 104:-0.802886 
-494.2610218345595 1:-0.867566 2:-0.703975 3:-0.7723 4:-0.840592 5:-0.693426 6:-0.719075 7:-0.701338 8:-0.695562 9:-0.692167 10:-0.691932 11:-0.692699 12:-0.722958 13:-0.749869 14:-0.762906 15:-0.776041 16:-0.779717 17:-0.774661 18:-0.776289 19:-0.769943 20:-0.76544 21:-0.771422 22:-0.786083 23:-0.794259 24:-0.803328 25:-0.803906 26:-0.805086 27:-0.806791 28:-0.812644 29:-0.815956 30:-0.818938 31:-0.821105 32:-0.823695 33:-0.826101 34:-0.828693 35:-0.830403 36:-0.832109 37:-0.834078 38:-0.835486 39:-0.837851 40:-0.839469 41:-0.839672 42:-0.839986 43:-0.840803 44:-0.842151 45:-0.843533 46:-0.844479 47:-0.844759 48:-0.844565 49:-0.844465 50:-0.84469 51:-0.844622 52:-0.84413 53:-0.843702 54:-0.843229 55:-0.842842 56:-0.843366 57:-0.843456 58:-0.843161 59:-0.843189 60:-0.844326 61:-0.844352 62:-0.845416 63:-0.846009 64:-0.84668 65:-0.847338 66:-0.847131 67:-0.846747 68:-0.846718 69:-0.846485 70:-0.846102 71:-0.845723 72:-0.84586 73:-0.845492 74:-0.845477 75:-0.845307 76:-0.845284 77:-0.845278 78:-0.845111 79:-0.845072 80:-0.844803 81:-0.844588 82:-0.844649 83:-0.845181 84:-0.842943 85:-0.840618 86:-0.838278 87:-0.836037 88:-0.83426 89:-0.832132 90:-0.830748 91:-0.828803 92:-0.826783 93:-0.825065 94:-0.823351 95:-0.821979 96:-0.820509 97:-0.819726 98:-0.817987 99:-0.816744 100:-0.815784 101:-0.815013 102:-0.814019 103:-0.813482 104:-0.814797 
-1.699759978476236 1:-0.788825 2:-0.617155 3:-0.692886 4:-0.68841 5:-0.552474 6:-0.607646 7:-0.576624 8:-0.562902 9:-0.559256 10:-0.564888 11:-0.564858 12:-0.5912 13:-0.614372 14:-0.625131 15:-0.637489 16:-0.639121 17:-0.632227 18:-0.627419 19:-0.620534 20:-0.616123 21:-0.621048 22:-0.631803 23:-0.639123 24:-0.645704 25:-0.646344 26:-0.647352 27:-0.648591 28:-0.653225 29:-0.661458 30:-0.666982 31:-0.669029 32:-0.671097 33:-0.675371 34:-0.677389 35:-0.681576 36:-0.685501 37:-0.687853 38:-0.689376 39:-0.69415 40:-0.695442 41:-0.696228 42:-0.696947 43:-0.697091 44:-0.697107 45:-0.69768 46:-0.697888 47:-0.697149 48:-0.696612 49:-0.696892 50:-0.69716 51:-0.696953 52:-0.696875 53:-0.696149 54:-0.695624 55:-0.696147 56:-0.695919 57:-0.69578 58:-0.696247 59:-0.69579 60:-0.695592 61:-0.695393 62:-0.695372 63:-0.694807 64:-0.695445 65:-0.695157 66:-0.694877 67:-0.694811 68:-0.694597 69:-0.694243 70:-0.694259 71:-0.694242 72:-0.693887 73:-0.693882 74:-0.693577 75:-0.693523 76:-0.693462 77:-0.693291 78:-0.693184 79:-0.693052 80:-0.692904 81:-0.692801 82:-0.692359 83:-0.692007 84:-0.69012 85:-0.688335 86:-0.686695 87:-0.68467 88:-0.682787 89:-0.68093 90:-0.679201 91:-0.677531 92:-0.675622 93:-0.674003 94:-0.672235 95:-0.670803 96:-0.668906 97:-0.667645 98:-0.666118 99:-0.665133 100:-0.663828 101:-0.662363 102:-0.662781 103:-0.663112 104:-0.664961 
-23.18124440981198 1:-0.894752 2:-0.724895 3:-0.798679 4:-0.887687 5:-0.735291 6:-0.759016 7:-0.743144 8:-0.738467 9:-0.734002 10:-0.734583 11:-0.734112 12:-0.767199 13:-0.792673 14:-0.80773 15:-0.821026 16:-0.82439 17:-0.81676 18:-0.822187 19:-0.817901 20:-0.819768 21:-0.829588 22:-0.842433 23:-0.851757 24:-0.85763 25:-0.858336 26:-0.858254 27:-0.85907 28:-0.863151 29:-0.866439 30:-0.869617 31:-0.871825 32:-0.875223 33:-0.878527 34:-0.880349 35:-0.882442 36:-0.884744 37:-0.886169 38:-0.887914 39:-0.889895 40:-0.890777 41:-0.892096 42:-0.891883 43:-0.892084 44:-0.892821 45:-0.893442 46:-0.894123 47:-0.894147 48:-0.894184 49:-0.894358 50:-0.894284 51:-0.894726 52:-0.895417 53:-0.895426 54:-0.89519 55:-0.895072 56:-0.896626 57:-0.896421 58:-0.896201 59:-0.896216 60:-0.895805 61:-0.895918 62:-0.895514 63:-0.896952 64:-0.896809 65:-0.896598 66:-0.896218 67:-0.896033 68:-0.895838 69:-0.89564 70:-0.895632 71:-0.895425 72:-0.89609 73:-0.896718 74:-0.897126 75:-0.897833 76:-0.897623 77:-0.897417 78:-0.897728 79:-0.897599 80:-0.897517 81:-0.897194 82:-0.897016 83:-0.897447 84:-0.894923 85:-0.89274 86:-0.890484 87:-0.888852 88:-0.887033 89:-0.884848 90:-0.882836 91:-0.880951 92:-0.878726 93:-0.876789 94:-0.87485 95:-0.873157 96:-0.871142 97:-0.869536 98:-0.868084 99:-0.866443 100:-0.864782 101:-0.863168 102:-0.861587 103:-0.860067 104:-0.861055 
-9.467946990028654 1:-0.753289 2:-0.624477 3:-0.744973 4:-0.796614 5:-0.678935 6:-0.662663 7:-0.650801 8:-0.646815 9:-0.644545 10:-0.645334 11:-0.645571 12:-0.693422 13:-0.726131 14:-0.750462 15:-0.765605 16:-0.768444 17:-0.759347 18:-0.754248 19:-0.747287 20:-0.742954 21:-0.748722 22:-0.758731 23:-0.766145 24:-0.772181 25:-0.774794 26:-0.77497 27:-0.775565 28:-0.778233 29:-0.782887 30:-0.789674 31:-0.793607 32:-0.795765 33:-0.798305 34:-0.801447 35:-0.80307 36:-0.804209 37:-0.806487 38:-0.810661 39:-0.812736 40:-0.813338 41:-0.814468 42:-0.815886 43:-0.815578 44:-0.816485 45:-0.818403 46:-0.81988 47:-0.819212 48:-0.818779 49:-0.82031 50:-0.819489 51:-0.820538 52:-0.819919 53:-0.819394 54:-0.818737 55:-0.819836 56:-0.819164 57:-0.818609 58:-0.818281 59:-0.817697 60:-0.817198 61:-0.817024 62:-0.816607 63:-0.816155 64:-0.815721 65:-0.815563 66:-0.815144 67:-0.814664 68:-0.814183 69:-0.813848 70:-0.813452 71:-0.813057 72:-0.812675 73:-0.812231 74:-0.811887 75:-0.811671 76:-0.811455 77:-0.811122 78:-0.810746 79:-0.810471 80:-0.810223 81:-0.809803 82:-0.809567 83:-0.80883 84:-0.806418 85:-0.804173 86:-0.80191 87:-0.799798 88:-0.797547 89:-0.795602 90:-0.793523 91:-0.79161 92:-0.789542 93:-0.78756 94:-0.785827 95:-0.784175 96:-0.782315 97:-0.780608 98:-0.778883 99:-0.777174 100:-0.775602 101:-0.77401 102:-0.772462 103:-0.770988 104:-0.771765 
-14.09024159944593 1:-0.75426 2:-0.631799 3:-0.728433 4:-0.775065 5:-0.647985 6:-0.638738 7:-0.625619 8:-0.622313 9:-0.621333 10:-0.626669 11:-0.633127 12:-0.690839 13:-0.72239 14:-0.734151 15:-0.74463 16:-0.750061 17:-0.741013 18:-0.735946 19:-0.728497 20:-0.723958 21:-0.729019 22:-0.738686 23:-0.74666 24:-0.751992 25:-0.752685 26:-0.752716 27:-0.761075 28:-0.767284 29:-0.773048 30:-0.777248 31:-0.780903 32:-0.782219 33:-0.784007 34:-0.786117 35:-0.787373 36:-0.788266 37:-0.789723 38:-0.791916 39:-0.793061 40:-0.793593 41:-0.793795 42:-0.794181 43:-0.79385 44:-0.793518 45:-0.793626 46:-0.793178 47:-0.792467 48:-0.793598 49:-0.79297 50:-0.792873 51:-0.792322 52:-0.792025 53:-0.791799 54:-0.791491 55:-0.791013 56:-0.790495 57:-0.789978 58:-0.790178 59:-0.790022 60:-0.789767 61:-0.789431 62:-0.789167 63:-0.788748 64:-0.788458 65:-0.788148 66:-0.78794 67:-0.788144 68:-0.787656 69:-0.787621 70:-0.788162 71:-0.787971 72:-0.787741 73:-0.787585 74:-0.787351 75:-0.787001 76:-0.786579 77:-0.786329 78:-0.786217 79:-0.785987 80:-0.785727 81:-0.785546 82:-0.785436 83:-0.784926 84:-0.782815 85:-0.780516 86:-0.778336 87:-0.776237 88:-0.77407 89:-0.77208 90:-0.770081 91:-0.768375 92:-0.766501 93:-0.765324 94:-0.763558 95:-0.761968 96:-0.760072 97:-0.758756 98:-0.756993 99:-0.755622 100:-0.754191 101:-0.752875 102:-0.75128 103:-0.749987 104:-0.750873 
-35.89261981738453 1:-0.865042 2:-0.693515 3:-0.770907 4:-0.804477 5:-0.677536 6:-0.696915 7:-0.672822 8:-0.665157 9:-0.677798 10:-0.674379 11:-0.675135 12:-0.703452 13:-0.72959 14:-0.740288 15:-0.753007 16:-0.754406 17:-0.750366 18:-0.745059 19:-0.737573 20:-0.732958 21:-0.738703 22:-0.748759 23:-0.756226 24:-0.763561 25:-0.763995 26:-0.766067 27:-0.767579 28:-0.770976 29:-0.774805 30:-0.780605 31:-0.782933 32:-0.78469 33:-0.787155 34:-0.789366 35:-0.791466 36:-0.79356 37:-0.795893 38:-0.797418 39:-0.799063 40:-0.799924 41:-0.800796 42:-0.800671 43:-0.80095 44:-0.801217 45:-0.801109 46:-0.801322 47:-0.802112 48:-0.802035 49:-0.801959 50:-0.802225 51:-0.801936 52:-0.801786 53:-0.801462 54:-0.801551 55:-0.801707 56:-0.801657 57:-0.801268 58:-0.801398 59:-0.801303 60:-0.801314 61:-0.80144 62:-0.801298 63:-0.801503 64:-0.801634 65:-0.802246 66:-0.801981 67:-0.802087 68:-0.80236 69:-0.802436 70:-0.802484 71:-0.802199 72:-0.802996 73:-0.80303 74:-0.802828 75:-0.802882 76:-0.802607 77:-0.802499 78:-0.802404 79:-0.802656 80:-0.80313 81:-0.804126 82:-0.804943 83:-0.804333 84:-0.802077 85:-0.800125 86:-0.798051 87:-0.795892 88:-0.793782 89:-0.792627 90:-0.790931 91:-0.789571 92:-0.789029 93:-0.787714 94:-0.785887 95:-0.785107 96:-0.783873 97:-0.782299 98:-0.780468 99:-0.78017 100:-0.779306 101:-0.777761 102:-0.776644 103:-0.775425 104:-0.778168 
-57.63868919246315 1:-0.848536 2:-0.482218 3:-0.657903 4:-0.842814 5:-0.717927 6:-0.759283 7:-0.727097 8:-0.715285 9:-0.707466 10:-0.70486 11:-0.708049 12:-0.738721 13:-0.762081 14:-0.774124 15:-0.785247 16:-0.787388 17:-0.779834 18:-0.778952 19:-0.772069 20:-0.772657 21:-0.783847 22:-0.793894 23:-0.801309 24:-0.809501 25:-0.813872 26:-0.813856 27:-0.814982 28:-0.81889 29:-0.822978 30:-0.825926 31:-0.827999 32:-0.830306 33:-0.834224 34:-0.835933 35:-0.838537 36:-0.84017 37:-0.84253 38:-0.844083 39:-0.845531 40:-0.847927 41:-0.849703 42:-0.850664 43:-0.850486 44:-0.851456 45:-0.853724 46:-0.855504 47:-0.857512 48:-0.86395 49:-0.864395 50:-0.865255 51:-0.868135 52:-0.868972 53:-0.869993 54:-0.870774 55:-0.870011 56:-0.869184 57:-0.868415 58:-0.867732 59:-0.867774 60:-0.867371 61:-0.866736 62:-0.868467 63:-0.86792 64:-0.867322 65:-0.866793 66:-0.866574 67:-0.866152 68:-0.865597 69:-0.864976 70:-0.864636 71:-0.864107 72:-0.863719 73:-0.863086 74:-0.862739 75:-0.862518 76:-0.861996 77:-0.861549 78:-0.861479 79:-0.86103 80:-0.860593 81:-0.860253 82:-0.85985 83:-0.85894 84:-0.856311 85:-0.853964 86:-0.851605 87:-0.849184 88:-0.846789 89:-0.844546 90:-0.842951 91:-0.840951 92:-0.838749 93:-0.836687 94:-0.835216 95:-0.835488 96:-0.833952 97:-0.832281 98:-0.83049 99:-0.829281 100:-0.827966 101:-0.826401 102:-0.8247 103:-0.823165 104:-0.824073 
-49.99990554546371 1:-0.831934 2:-0.625523 3:-0.75755 4:-0.819807 5:-0.714576 6:-0.697802 7:-0.679625 8:-0.675439 9:-0.671791 10:-0.672188 11:-0.670639 12:-0.702042 13:-0.727471 14:-0.741723 15:-0.754699 16:-0.758138 17:-0.750384 18:-0.747086 19:-0.740452 20:-0.736282 21:-0.742595 22:-0.754536 23:-0.762844 24:-0.76948 25:-0.770883 26:-0.771862 27:-0.773765 28:-0.783807 29:-0.789571 30:-0.793113 31:-0.797072 32:-0.801767 33:-0.804795 34:-0.80751 35:-0.810907 36:-0.814148 37:-0.816176 38:-0.819978 39:-0.821614 40:-0.822672 41:-0.826559 42:-0.827836 43:-0.828497 44:-0.829664 45:-0.830006 46:-0.832324 47:-0.833705 48:-0.835628 49:-0.836775 50:-0.83749 51:-0.83834 52:-0.838609 53:-0.838524 54:-0.837889 55:-0.837958 56:-0.837496 57:-0.837569 58:-0.837381 59:-0.837346 60:-0.836898 61:-0.836922 62:-0.836359 63:-0.83599 64:-0.836233 65:-0.835819 66:-0.83572 67:-0.835447 68:-0.835099 69:-0.834892 70:-0.834413 71:-0.834347 72:-0.833882 73:-0.833755 74:-0.83326 75:-0.833224 76:-0.832897 77:-0.8327 78:-0.8324 79:-0.832193 80:-0.831824 81:-0.831719 82:-0.831491 83:-0.830924 84:-0.828404 85:-0.826333 86:-0.823966 87:-0.822024 88:-0.81967 89:-0.817838 90:-0.815765 91:-0.814009 92:-0.811841 93:-0.810139 94:-0.808183 95:-0.806587 96:-0.804774 97:-0.803142 98:-0.801439 99:-0.799824 100:-0.798344 101:-0.796708 102:-0.79529 103:-0.79376 104:-0.794571 
-8.990173783308167 1:-0.834846 2:-0.697699 3:-0.845115 4:-0.838399 5:-0.688649 6:-0.720188 7:-0.701359 8:-0.695553 9:-0.692173 10:-0.692644 11:-0.69208 12:-0.724847 13:-0.750385 14:-0.763809 15:-0.776871 16:-0.78031 17:-0.775885 18:-0.776147 19:-0.771653 20:-0.771927 21:-0.778452 22:-0.789519 23:-0.797521 24:-0.803876 25:-0.805948 26:-0.806618 27:-0.808561 28:-0.813474 29:-0.818056 30:-0.823312 31:-0.826069 32:-0.828082 33:-0.830523 34:-0.832434 35:-0.834828 36:-0.83661 37:-0.838835 38:-0.840483 39:-0.842783 40:-0.843909 41:-0.844301 42:-0.844439 43:-0.845014 44:-0.845004 45:-0.845016 46:-0.844827 47:-0.844635 48:-0.844337 49:-0.844351 50:-0.844377 51:-0.844128 52:-0.843884 53:-0.843787 54:-0.844172 55:-0.844253 56:-0.843888 57:-0.84435 58:-0.84437 59:-0.844173 60:-0.844212 61:-0.844298 62:-0.844191 63:-0.844109 64:-0.843955 65:-0.843706 66:-0.843556 67:-0.843483 68:-0.843538 69:-0.843514 70:-0.843418 71:-0.84366 72:-0.843539 73:-0.843497 74:-0.843411 75:-0.843392 76:-0.843294 77:-0.843167 78:-0.843068 79:-0.843023 80:-0.842927 81:-0.842734 82:-0.84282 83:-0.842163 84:-0.840022 85:-0.837877 86:-0.835711 87:-0.833641 88:-0.831617 89:-0.829783 90:-0.82795 91:-0.82617 92:-0.824131 93:-0.822577 94:-0.820767 95:-0.819241 96:-0.817448 97:-0.816228 98:-0.814564 99:-0.813056 100:-0.811636 101:-0.810281 102:-0.808783 103:-0.80754 104:-0.8081 
-44.14074790387382 1:-0.86679 2:-0.634937 3:-0.65885 4:-0.836376 5:-0.729572 6:-0.714987 7:-0.704522 8:-0.73645 9:-0.722249 10:-0.715359 11:-0.716733 12:-0.744564 13:-0.767106 14:-0.777154 15:-0.788025 16:-0.789584 17:-0.780358 18:-0.776473 19:-0.768757 20:-0.763561 21:-0.769112 22:-0.779795 23:-0.787561 24:-0.793698 25:-0.79416 26:-0.79456 27:-0.796049 28:-0.810236 29:-0.815413 30:-0.818554 31:-0.820648 32:-0.824958 33:-0.829788 34:-0.835582 35:-0.841133 36:-0.84313 37:-0.844684 38:-0.845853 39:-0.84683 40:-0.847391 41:-0.847317 42:-0.847194 43:-0.846938 44:-0.846762 45:-0.846612 46:-0.846105 47:-0.845838 48:-0.845544 49:-0.845075 50:-0.845078 51:-0.844668 52:-0.844261 53:-0.84415 54:-0.843899 55:-0.845137 56:-0.847994 57:-0.854466 58:-0.856489 59:-0.855863 60:-0.855188 61:-0.855223 62:-0.856386 63:-0.856213 64:-0.856432 65:-0.85598 66:-0.856188 67:-0.855659 68:-0.856067 69:-0.856594 70:-0.856578 71:-0.858613 72:-0.857884 73:-0.85734 74:-0.856991 75:-0.856572 76:-0.855914 77:-0.855486 78:-0.855025 79:-0.854702 80:-0.854169 81:-0.853685 82:-0.853695 83:-0.85405 84:-0.851535 85:-0.849935 86:-0.848507 87:-0.84685 88:-0.844384 89:-0.84207 90:-0.839898 91:-0.838098 92:-0.836197 93:-0.834239 94:-0.832162 95:-0.830204 96:-0.828434 97:-0.826644 98:-0.824918 99:-0.823383 100:-0.821636 101:-0.819874 102:-0.818157 103:-0.816651 104:-0.817471 
-10.54400597914175 1:-0.845235 2:-0.756276 3:-0.78899 4:-0.822654 5:-0.866964 6:-0.792908 7:-0.751551 8:-0.728461 9:-0.717273 10:-0.711002 11:-0.705689 12:-0.779756 13:-0.814229 14:-0.82334 15:-0.831978 16:-0.832633 17:-0.827579 18:-0.819493 19:-0.80846 20:-0.800456 21:-0.803172 22:-0.812275 23:-0.818246 24:-0.822544 25:-0.826281 26:-0.824826 27:-0.826174 28:-0.828681 29:-0.830571 30:-0.832335 31:-0.833373 32:-0.834812 33:-0.836276 34:-0.837568 35:-0.839916 36:-0.840779 37:-0.841757 38:-0.842427 39:-0.843643 40:-0.844188 41:-0.844099 42:-0.844129 43:-0.84387 44:-0.843639 45:-0.843539 46:-0.842962 47:-0.84247 48:-0.84219 49:-0.841591 50:-0.841104 51:-0.840923 52:-0.841341 53:-0.841218 54:-0.840716 55:-0.840404 56:-0.839731 57:-0.839098 58:-0.838687 59:-0.838276 60:-0.837973 61:-0.837518 62:-0.837148 63:-0.836618 64:-0.836716 65:-0.836435 66:-0.836122 67:-0.836162 68:-0.83588 69:-0.83553 70:-0.835221 71:-0.834913 72:-0.834614 73:-0.834318 74:-0.834081 75:-0.833819 76:-0.833552 77:-0.833319 78:-0.833107 79:-0.832809 80:-0.832651 81:-0.832391 82:-0.832187 83:-0.831591 84:-0.829238 85:-0.826882 86:-0.824733 87:-0.822625 88:-0.820403 89:-0.818437 90:-0.816544 91:-0.814655 92:-0.812688 93:-0.810754 94:-0.808896 95:-0.80727 96:-0.805407 97:-0.803891 98:-0.802115 99:-0.800544 100:-0.798969 101:-0.797491 102:-0.795867 103:-0.794481 104:-0.795537 
