svm_type c_svc
kernel_type rbf
gamma 8
nr_class 2
total_sv 194
rho 9.69161
distance 289.897
label 58 -1
nr_sv 112 82
SV
2048 1:-0.998155 2:-0.987448 3:-0.992548 4:-0.998944 5:-0.834553 6:-0.841638 7:-0.83957 8:-0.839964 9:-0.840256 10:-0.84148 11:-0.842819 12:-0.877793 13:-0.905857 14:-0.920452 15:-0.934841 16:-0.939011 17:-0.931475 18:-0.927561 19:-0.921343 20:-0.917239 21:-0.924356 22:-0.936761 23:-0.946167 24:-0.953634 25:-0.955302 26:-0.956191 27:-0.95827 28:-0.962283 29:-0.966332 30:-0.970074 31:-0.973378 32:-0.976205 33:-0.979242 34:-0.982072 35:-0.984728 36:-0.986872 37:-0.989111 38:-0.991416 39:-0.993569 40:-0.995231 41:-0.99607 42:-0.996477 43:-0.99698 44:-0.997458 45:-0.997801 46:-0.997916 47:-0.998025 48:-0.99813 49:-0.998231 50:-0.998327 51:-0.998419 52:-0.99845 53:-0.998485 54:-0.998456 55:-0.998476 56:-0.998503 57:-0.998529 58:-0.998554 59:-0.998616 60:-0.998683 61:-0.998704 62:-0.998725 63:-0.998744 64:-0.998764 65:-0.998782 66:-0.9988 67:-0.998817 68:-0.99882 69:-0.998808 70:-0.998796 71:-0.998787 72:-0.998821 73:-0.998855 74:-0.99889 75:-0.998917 76:-0.998917 77:-0.998917 78:-0.998917 79:-0.998898 80:-0.998881 81:-0.998884 82:-0.998906 83:-0.998483 84:-0.996144 85:-0.993974 86:-0.991764 87:-0.989624 88:-0.987404 89:-0.985375 90:-0.983449 91:-0.981618 92:-0.979584 93:-0.977746 94:-0.975915 95:-0.974343 96:-0.972526 97:-0.970973 98:-0.969206 99:-0.967615 100:-0.966063 101:-0.964496 102:-0.962965 103:-0.961526 104:-0.962265 
16.0208117884033 1:-0.969028 2:-0.937238 3:-0.957834 4:-0.959477 5:-0.809934 6:-0.81637 7:-0.807634 8:-0.804919 9:-0.80423 10:-0.809911 11:-0.810211 12:-0.843567 13:-0.870435 14:-0.884157 15:-0.897836 16:-0.901393 17:-0.894216 18:-0.889968 19:-0.883419 20:-0.879824 21:-0.886542 22:-0.898512 23:-0.907562 24:-0.91469 25:-0.916155 26:-0.916907 27:-0.918827 28:-0.922656 29:-0.926531 30:-0.930988 31:-0.934106 32:-0.936761 33:-0.940038 34:-0.942693 35:-0.945518 36:-0.947525 37:-0.949756 38:-0.951835 39:-0.953799 40:-0.955325 41:-0.956068 42:-0.956394 43:-0.957112 44:-0.957507 45:-0.957777 46:-0.957824 47:-0.95784 48:-0.958253 49:-0.958355 50:-0.958385 51:-0.958416 52:-0.958378 53:-0.958357 54:-0.958274 55:-0.958472 56:-0.958445 57:-0.9584 58:-0.958376 59:-0.958348 60:-0.958683 61:-0.958654 62:-0.958622 63:-0.958598 64:-0.958574 65:-0.958545 66:-0.958707 67:-0.958681 68:-0.958641 69:-0.958904 70:-0.958848 71:-0.95886 72:-0.958804 73:-0.958749 74:-0.958725 75:-0.958825 76:-0.958782 77:-0.958951 78:-0.959066 79:-0.959003 80:-0.958959 81:-0.95889 82:-0.958835 83:-0.958494 84:-0.956271 85:-0.954072 86:-0.951858 87:-0.949729 88:-0.947765 89:-0.945778 90:-0.943906 91:-0.94208 92:-0.940049 93:-0.938347 94:-0.936488 95:-0.934881 96:-0.933038 97:-0.931463 98:-0.929704 99:-0.928116 100:-0.92701 101:-0.925882 102:-0.924419 103:-0.923296 104:-0.924273 
1020.158571886964 1:-0.965047 2:-0.9341 3:-0.955304 4:-0.959055 5:-0.798443 6:-0.80827 7:-0.801964 8:-0.800823 9:-0.801507 10:-0.808291 11:-0.808139 12:-0.841663 13:-0.869161 14:-0.882952 15:-0.896688 16:-0.90124 17:-0.893167 18:-0.88896 19:-0.882444 20:-0.878602 21:-0.885358 22:-0.897988 23:-0.907036 24:-0.914163 25:-0.915628 26:-0.91638 27:-0.9183 28:-0.92213 29:-0.926115 30:-0.930021 31:-0.933578 32:-0.936232 33:-0.939114 34:-0.941984 35:-0.944781 36:-0.946794 37:-0.948893 38:-0.951115 39:-0.953084 40:-0.954614 41:-0.955363 42:-0.955693 43:-0.95612 44:-0.956815 45:-0.957089 46:-0.95714 47:-0.957159 48:-0.957202 49:-0.957499 50:-0.957535 51:-0.957574 52:-0.957899 53:-0.957877 54:-0.957793 55:-0.957765 56:-0.957741 57:-0.957872 58:-0.957848 59:-0.95782 60:-0.957798 61:-0.957977 62:-0.957949 63:-0.957927 64:-0.957986 65:-0.95799 66:-0.957967 67:-0.957944 68:-0.957965 69:-0.958037 70:-0.957986 71:-0.957935 72:-0.958134 73:-0.958775 74:-0.95872 75:-0.958738 76:-0.958689 77:-0.958641 78:-0.958598 79:-0.958534 80:-0.958641 81:-0.958569 82:-0.958512 83:-0.958023 84:-0.955656 85:-0.953669 86:-0.951492 87:-0.949362 88:-0.94715 89:-0.945132 90:-0.943342 91:-0.941517 92:-0.939487 93:-0.937638 94:-0.935781 95:-0.934301 96:-0.93267 97:-0.931404 98:-0.930102 99:-0.928688 100:-0.927129 101:-0.925709 102:-0.92433 103:-0.923215 104:-0.923999 
299.4265788499268 1:-0.965241 2:-0.927824 3:-0.952066 4:-0.959035 5:-0.811913 6:-0.815387 7:-0.813422 8:-0.811187 9:-0.808209 10:-0.809611 11:-0.813414 12:-0.847379 13:-0.87377 14:-0.887093 15:-0.900442 16:-0.903715 17:-0.895422 18:-0.891829 19:-0.885511 20:-0.881053 21:-0.887654 22:-0.899521 23:-0.909075 24:-0.916091 25:-0.917451 26:-0.918104 27:-0.920432 28:-0.924161 29:-0.927944 30:-0.931437 31:-0.934508 32:-0.937118 33:-0.939959 34:-0.942589 35:-0.945892 36:-0.948004 37:-0.950057 38:-0.952102 39:-0.954035 40:-0.955531 41:-0.956246 42:-0.956848 43:-0.957288 44:-0.957657 45:-0.957902 46:-0.958143 47:-0.958189 48:-0.958201 49:-0.958212 50:-0.958467 51:-0.958479 52:-0.958422 53:-0.958382 54:-0.958282 55:-0.958238 56:-0.958199 57:-0.95836 58:-0.958522 59:-0.958476 60:-0.9586 61:-0.958557 62:-0.958513 63:-0.958476 64:-0.958441 65:-0.9584 66:-0.958365 67:-0.958545 68:-0.958494 69:-0.958713 70:-0.958647 71:-0.958649 72:-0.958584 73:-0.95852 74:-0.958628 75:-0.958667 76:-0.958614 77:-0.958564 78:-0.958517 79:-0.958603 80:-0.958554 81:-0.958479 82:-0.958419 83:-0.958067 84:-0.955696 85:-0.953494 86:-0.951277 87:-0.94956 88:-0.947464 89:-0.945492 90:-0.943562 91:-0.94173 92:-0.939996 93:-0.938337 94:-0.936594 95:-0.934977 96:-0.933156 97:-0.93166 98:-0.930072 99:-0.92861 100:-0.927166 101:-0.925653 102:-0.924338 103:-0.92318 104:-0.924177 
341.537018761195 1:-0.954658 2:-0.91318 3:-0.948348 4:-0.958798 5:-0.823413 6:-0.830011 7:-0.822849 8:-0.816018 9:-0.817262 10:-0.816119 11:-0.815919 12:-0.848476 13:-0.874704 14:-0.888474 15:-0.901945 16:-0.905428 17:-0.896963 18:-0.892418 19:-0.885621 20:-0.881684 21:-0.888222 22:-0.900034 23:-0.909538 24:-0.916508 25:-0.917826 26:-0.918939 27:-0.920715 28:-0.92479 29:-0.92853 30:-0.931982 31:-0.935015 32:-0.937592 33:-0.9404 34:-0.943 35:-0.945815 36:-0.947983 37:-0.950022 38:-0.952323 39:-0.954367 40:-0.95584 41:-0.956534 42:-0.956812 43:-0.957425 44:-0.957779 45:-0.95801 46:-0.958216 47:-0.958213 48:-0.958214 49:-0.958417 50:-0.958417 51:-0.958419 52:-0.958353 53:-0.958305 54:-0.958427 55:-0.958414 56:-0.958362 57:-0.958467 58:-0.958416 59:-0.958364 60:-0.9584 61:-0.958352 62:-0.958461 63:-0.958417 64:-0.958374 65:-0.958327 66:-0.958286 67:-0.958322 68:-0.958477 69:-0.958408 70:-0.958339 71:-0.958339 72:-0.958271 73:-0.958974 74:-0.959291 75:-0.959226 76:-0.959222 77:-0.959282 78:-0.959219 79:-0.959136 80:-0.959073 81:-0.959164 82:-0.959287 83:-0.958803 84:-0.956416 85:-0.954199 86:-0.951966 87:-0.949958 88:-0.947755 89:-0.945813 90:-0.943887 91:-0.942046 92:-0.94 93:-0.938136 94:-0.936328 95:-0.934744 96:-0.933012 97:-0.931623 98:-0.93014 99:-0.928718 100:-0.92715 101:-0.925567 102:-0.924394 103:-0.923225 104:-0.924165 
2048 1:-0.955435 2:-0.921548 3:-0.952658 4:-0.958548 5:-0.808925 6:-0.815273 7:-0.806477 8:-0.811159 9:-0.808101 10:-0.808932 11:-0.81054 12:-0.843944 13:-0.870635 14:-0.884658 15:-0.898178 16:-0.90233 17:-0.894113 18:-0.889782 19:-0.883459 20:-0.879108 21:-0.886303 22:-0.898215 23:-0.907212 24:-0.914519 25:-0.915932 26:-0.916841 27:-0.919101 28:-0.923055 29:-0.926863 30:-0.930554 31:-0.933702 32:-0.936427 33:-0.939433 34:-0.942065 35:-0.944687 36:-0.946822 37:-0.949035 38:-0.951096 39:-0.953044 40:-0.954681 41:-0.955407 42:-0.955957 43:-0.956358 44:-0.956837 45:-0.957108 46:-0.957249 47:-0.957248 48:-0.957376 49:-0.957395 50:-0.957517 51:-0.95754 52:-0.957588 53:-0.957556 54:-0.957505 55:-0.957606 56:-0.957571 57:-0.957691 58:-0.957656 59:-0.957618 60:-0.957668 61:-0.957634 62:-0.957598 63:-0.957569 64:-0.957694 65:-0.957658 66:-0.957628 67:-0.957781 68:-0.957912 69:-0.957852 70:-0.957862 71:-0.957801 72:-0.957742 73:-0.95785 74:-0.95789 75:-0.957845 76:-0.957957 77:-0.958225 78:-0.958176 79:-0.958108 80:-0.958193 81:-0.958117 82:-0.958056 83:-0.957794 84:-0.955421 85:-0.953327 86:-0.951107 87:-0.948973 88:-0.946893 89:-0.944869 90:-0.94302 91:-0.94119 92:-0.939246 93:-0.937556 94:-0.935818 95:-0.93433 96:-0.932555 97:-0.9311 98:-0.92975 99:-0.928352 100:-0.926789 101:-0.925216 102:-0.923913 103:-0.922706 104:-0.923646 
1635.033796401098 1:-0.955629 2:-0.904812 3:-0.950149 4:-0.958112 5:-0.817149 6:-0.822935 7:-0.818031 8:-0.814889 9:-0.811843 10:-0.813962 11:-0.813722 12:-0.847083 13:-0.873883 14:-0.887092 15:-0.901163 16:-0.904289 17:-0.896215 18:-0.891686 19:-0.885479 20:-0.880959 21:-0.887504 22:-0.899571 23:-0.90847 24:-0.915462 25:-0.91722 26:-0.917837 27:-0.919832 28:-0.923542 29:-0.92767 30:-0.931307 31:-0.934343 32:-0.936922 33:-0.940047 34:-0.942639 35:-0.945223 36:-0.94718 37:-0.949226 38:-0.951532 39:-0.953451 40:-0.95506 41:-0.955759 42:-0.956163 43:-0.956543 44:-0.957019 45:-0.957366 46:-0.957377 47:-0.957572 48:-0.957575 49:-0.957678 50:-0.95778 51:-0.957784 52:-0.957815 53:-0.957859 54:-0.957748 55:-0.957783 56:-0.957733 57:-0.957752 58:-0.957704 59:-0.957737 60:-0.957774 61:-0.957728 62:-0.957759 63:-0.957717 64:-0.957829 65:-0.957781 66:-0.957813 67:-0.957771 68:-0.957787 69:-0.957719 70:-0.957722 71:-0.957722 72:-0.957655 73:-0.957656 74:-0.957597 75:-0.957611 76:-0.957622 77:-0.957571 78:-0.957585 79:-0.957516 80:-0.957468 81:-0.957452 82:-0.957539 83:-0.957182 84:-0.95481 85:-0.95272 86:-0.95078 87:-0.948796 88:-0.946629 89:-0.944602 90:-0.942822 91:-0.940988 92:-0.939152 93:-0.937291 94:-0.935645 95:-0.934103 96:-0.932371 97:-0.930947 98:-0.929343 99:-0.927848 100:-0.926284 101:-0.924913 102:-0.923609 103:-0.92236 104:-0.923357 
722.2802899747421 1:-0.951648 2:-0.917364 3:-0.948692 4:-0.958052 5:-0.820157 6:-0.818059 7:-0.812547 8:-0.81243 9:-0.808974 10:-0.813782 11:-0.814215 12:-0.848495 13:-0.874643 14:-0.887767 15:-0.901358 16:-0.904457 17:-0.896015 18:-0.892128 19:-0.885303 20:-0.880786 21:-0.887333 22:-0.899151 23:-0.908063 24:-0.915637 25:-0.916961 26:-0.918101 27:-0.92006 28:-0.923755 29:-0.927506 30:-0.93097 31:-0.934013 32:-0.936598 33:-0.939811 34:-0.942406 35:-0.944846 36:-0.947306 37:-0.949344 38:-0.951374 39:-0.953423 40:-0.954902 41:-0.955602 42:-0.956189 43:-0.956565 44:-0.956978 45:-0.95721 46:-0.957222 47:-0.957204 48:-0.957212 49:-0.957218 50:-0.957228 51:-0.957241 52:-0.957185 53:-0.957616 54:-0.957672 55:-0.957616 56:-0.957567 57:-0.9575 58:-0.957454 59:-0.957406 60:-0.957682 61:-0.957635 62:-0.957586 63:-0.957545 64:-0.957505 65:-0.957649 66:-0.957638 67:-0.957597 68:-0.957542 69:-0.957828 70:-0.957757 71:-0.957687 72:-0.957685 73:-0.95766 74:-0.957622 75:-0.958144 76:-0.958199 77:-0.958138 78:-0.958204 79:-0.958125 80:-0.958067 81:-0.957983 82:-0.957913 83:-0.957522 84:-0.95526 85:-0.953191 86:-0.950964 87:-0.948823 88:-0.9466 89:-0.944858 90:-0.942922 91:-0.941085 92:-0.939376 93:-0.937726 94:-0.935954 95:-0.934573 96:-0.932848 97:-0.931309 98:-0.929674 99:-0.928066 100:-0.926545 101:-0.925097 102:-0.923594 103:-0.922473 104:-0.923385 
2048 1:-0.958639 2:-0.901674 3:-0.945513 4:-0.957837 5:-0.80965 6:-0.811186 7:-0.815938 8:-0.819189 9:-0.814301 10:-0.812262 11:-0.813648 12:-0.849056 13:-0.875549 14:-0.888993 15:-0.902033 16:-0.905042 17:-0.896867 18:-0.89225 19:-0.88539 20:-0.881543 21:-0.888151 22:-0.899904 23:-0.908758 24:-0.915709 25:-0.91701 26:-0.918228 27:-0.919986 28:-0.923667 29:-0.927862 30:-0.931296 31:-0.934393 32:-0.937113 33:-0.939898 34:-0.942477 35:-0.944901 36:-0.947413 37:-0.949435 38:-0.951451 39:-0.953685 40:-0.955145 41:-0.955879 42:-0.956145 43:-0.956511 44:-0.957148 45:-0.957414 46:-0.957411 47:-0.95738 48:-0.957478 49:-0.957469 50:-0.957464 51:-0.957708 52:-0.957674 53:-0.957617 54:-0.9575 55:-0.95744 56:-0.957607 57:-0.957568 58:-0.957514 59:-0.957457 60:-0.957407 61:-0.957594 62:-0.957539 63:-0.957568 64:-0.957521 65:-0.957469 66:-0.957424 67:-0.957562 68:-0.957715 69:-0.957674 70:-0.9576 71:-0.957594 72:-0.95752 73:-0.958042 74:-0.958088 75:-0.958087 76:-0.95802 77:-0.958018 78:-0.957957 79:-0.957877 80:-0.957816 81:-0.957729 82:-0.957805 83:-0.957444 84:-0.955062 85:-0.952849 86:-0.950621 87:-0.94848 88:-0.946528 89:-0.944541 90:-0.942604 91:-0.941047 92:-0.939005 93:-0.937262 94:-0.935389 95:-0.933888 96:-0.932105 97:-0.930797 98:-0.92923 99:-0.927998 100:-0.926427 101:-0.924857 102:-0.92349 103:-0.922367 104:-0.923361 
2048 1:-0.99932 2:-0.995816 3:-0.998544 4:-0.999746 5:-0.830072 6:-0.838905 7:-0.837339 8:-0.838009 9:-0.838467 10:-0.839812 11:-0.84114 12:-0.876368 13:-0.904704 14:-0.919523 15:-0.934098 16:-0.938287 17:-0.930662 18:-0.926805 19:-0.920714 20:-0.916722 21:-0.923936 22:-0.936426 23:-0.945909 24:-0.953447 25:-0.955179 26:-0.956126 27:-0.958259 28:-0.962321 29:-0.966415 30:-0.970199 31:-0.973541 32:-0.976405 33:-0.979475 34:-0.982337 35:-0.985023 36:-0.987194 37:-0.989459 38:-0.991709 39:-0.993834 40:-0.995522 41:-0.996385 42:-0.996815 43:-0.997339 44:-0.997838 45:-0.998199 46:-0.998334 47:-0.99846 48:-0.998582 49:-0.998699 50:-0.99881 51:-0.998917 52:-0.998963 53:-0.999011 54:-0.998995 55:-0.999027 56:-0.999066 57:-0.999103 58:-0.999139 59:-0.999174 60:-0.999208 61:-0.99924 62:-0.999272 63:-0.999302 64:-0.999331 65:-0.99936 66:-0.999387 67:-0.999413 68:-0.999426 69:-0.999422 70:-0.999418 71:-0.999415 72:-0.999411 73:-0.999408 74:-0.999407 75:-0.999417 76:-0.999426 77:-0.999435 78:-0.999443 79:-0.999434 80:-0.999426 81:-0.999426 82:-0.999426 83:-0.998981 84:-0.996621 85:-0.99443 86:-0.992224 87:-0.990101 88:-0.987897 89:-0.985885 90:-0.983974 91:-0.982159 92:-0.980139 93:-0.978289 94:-0.97643 95:-0.974831 96:-0.972988 97:-0.971418 98:-0.969658 99:-0.968074 100:-0.966529 101:-0.964969 102:-0.963444 103:-0.961997 104:-0.962713 
33.09684944366573 1:-0.948153 2:-0.843096 3:-0.884774 4:-0.942551 5:-0.7825 6:-0.786274 7:-0.784645 8:-0.786375 9:-0.784334 10:-0.789263 11:-0.794973 12:-0.827367 13:-0.853481 14:-0.86753 15:-0.880669 16:-0.883831 17:-0.87652 18:-0.872037 19:-0.865227 20:-0.861488 21:-0.868079 22:-0.879776 23:-0.888599 24:-0.896082 25:-0.897696 26:-0.898301 27:-0.900464 28:-0.904122 29:-0.907838 30:-0.911266 31:-0.914699 32:-0.917238 33:-0.920015 34:-0.92296 35:-0.925493 36:-0.927427 37:-0.929441 38:-0.931716 39:-0.933605 40:-0.935435 41:-0.936113 42:-0.936382 43:-0.936798 44:-0.937386 45:-0.937773 46:-0.937772 47:-0.937996 48:-0.937983 49:-0.93797 50:-0.93831 51:-0.9383 52:-0.938217 53:-0.938158 54:-0.938061 55:-0.938292 56:-0.938358 57:-0.938695 58:-0.938627 59:-0.93864 60:-0.938983 61:-0.93912 62:-0.939045 63:-0.93898 64:-0.938918 65:-0.939515 66:-0.939443 67:-0.939688 68:-0.939928 69:-0.940171 70:-0.940392 71:-0.940429 72:-0.94045 73:-0.940407 74:-0.940692 75:-0.940596 76:-0.940561 77:-0.940529 78:-0.9405 79:-0.94163 80:-0.942124 81:-0.942268 82:-0.942888 83:-0.942784 84:-0.941057 85:-0.939359 86:-0.938326 87:-0.936974 88:-0.935034 89:-0.93292 90:-0.931008 91:-0.929091 92:-0.927023 93:-0.925136 94:-0.923533 95:-0.922148 96:-0.920369 97:-0.918706 98:-0.916979 99:-0.915308 100:-0.913678 101:-0.912262 102:-0.910699 103:-0.909744 104:-0.911548 
2048 1:-0.999515 2:-0.995816 3:-0.997854 4:-0.999746 5:-0.831409 6:-0.839191 7:-0.837286 8:-0.837783 9:-0.838138 10:-0.839417 11:-0.840794 12:-0.876058 13:-0.904423 14:-0.919266 15:-0.933861 16:-0.938068 17:-0.93046 18:-0.926615 19:-0.920536 20:-0.916554 21:-0.923776 22:-0.936273 23:-0.945763 24:-0.953306 25:-0.955045 26:-0.955996 27:-0.958134 28:-0.9622 29:-0.966298 30:-0.970085 31:-0.973431 32:-0.976298 33:-0.979371 34:-0.982236 35:-0.984924 36:-0.987097 37:-0.989365 38:-0.991617 39:-0.993744 40:-0.995434 41:-0.996298 42:-0.99673 43:-0.997256 44:-0.997756 45:-0.998119 46:-0.998255 47:-0.998383 48:-0.998506 49:-0.998624 50:-0.998736 51:-0.998844 52:-0.998891 53:-0.99894 54:-0.998925 55:-0.998958 56:-0.998998 57:-0.999036 58:-0.999073 59:-0.999109 60:-0.999143 61:-0.999177 62:-0.999209 63:-0.99924 64:-0.99927 65:-0.999299 66:-0.999327 67:-0.999354 68:-0.999366 69:-0.999363 70:-0.999361 71:-0.99937 72:-0.999378 73:-0.999386 74:-0.999397 75:-0.999418 76:-0.999438 77:-0.999457 78:-0.999476 79:-0.999476 80:-0.999476 81:-0.999476 82:-0.999475 83:-0.99903 84:-0.996669 85:-0.994478 86:-0.992272 87:-0.990147 88:-0.987933 89:-0.985911 90:-0.983991 91:-0.982167 92:-0.980139 93:-0.978289 94:-0.97643 95:-0.97483 96:-0.972987 97:-0.971417 98:-0.969657 99:-0.968079 100:-0.966542 101:-0.964989 102:-0.963472 103:-0.962033 104:-0.962755 
2048 1:-0.999417 2:-0.996862 3:-0.998563 4:-0.999746 5:-0.831452 6:-0.839233 7:-0.837328 8:-0.837826 9:-0.838181 10:-0.839459 11:-0.840836 12:-0.876101 13:-0.904466 14:-0.91931 15:-0.933905 16:-0.938112 17:-0.930503 18:-0.926659 19:-0.920579 20:-0.916598 21:-0.923819 22:-0.936317 23:-0.945807 24:-0.95335 25:-0.955089 26:-0.95604 27:-0.958178 28:-0.962244 29:-0.966342 30:-0.97013 31:-0.973475 32:-0.976342 33:-0.979415 34:-0.98228 35:-0.984968 36:-0.987141 37:-0.989409 38:-0.991661 39:-0.993788 40:-0.995478 41:-0.996343 42:-0.996774 43:-0.9973 44:-0.9978 45:-0.998164 46:-0.998299 47:-0.998427 48:-0.99855 49:-0.998668 50:-0.998781 51:-0.998889 52:-0.998935 53:-0.998985 54:-0.99897 55:-0.999002 56:-0.999042 57:-0.99908 58:-0.999118 59:-0.999153 60:-0.999188 61:-0.999221 62:-0.999253 63:-0.999284 64:-0.999314 65:-0.999343 66:-0.999371 67:-0.999398 68:-0.999411 69:-0.999408 70:-0.999404 71:-0.999401 72:-0.999398 73:-0.999396 74:-0.999396 75:-0.999406 76:-0.999415 77:-0.999424 78:-0.999434 79:-0.999432 80:-0.999432 81:-0.999431 82:-0.999431 83:-0.998986 84:-0.996625 85:-0.994434 86:-0.992228 87:-0.990104 88:-0.9879 89:-0.985888 90:-0.983976 91:-0.982161 92:-0.980134 93:-0.978285 94:-0.976427 95:-0.974827 96:-0.972985 97:-0.971415 98:-0.969655 99:-0.968072 100:-0.966527 101:-0.964967 102:-0.963443 103:-0.961996 104:-0.962712 
2048 1:-0.99932 2:-0.995816 3:-0.998544 4:-0.999745 5:-0.830074 6:-0.838906 7:-0.83734 8:-0.83801 9:-0.838468 10:-0.839814 11:-0.841139 12:-0.876367 13:-0.904703 14:-0.919522 15:-0.934096 16:-0.938285 17:-0.930661 18:-0.926803 19:-0.920712 20:-0.916721 21:-0.923934 22:-0.936424 23:-0.945908 24:-0.953446 25:-0.955178 26:-0.956125 27:-0.958258 28:-0.96232 29:-0.966413 30:-0.970198 31:-0.97354 32:-0.976404 33:-0.979474 34:-0.982336 35:-0.985022 36:-0.987193 37:-0.989458 38:-0.991708 39:-0.993833 40:-0.995521 41:-0.996384 42:-0.996813 43:-0.997338 44:-0.997837 45:-0.998198 46:-0.998332 47:-0.998459 48:-0.998581 49:-0.998698 50:-0.998809 51:-0.998916 52:-0.998961 53:-0.99901 54:-0.998994 55:-0.999025 56:-0.999065 57:-0.999102 58:-0.999138 59:-0.999173 60:-0.999207 61:-0.999239 62:-0.99927 63:-0.999301 64:-0.99933 65:-0.999358 66:-0.999386 67:-0.999412 68:-0.999424 69:-0.999421 70:-0.999417 71:-0.999413 72:-0.99941 73:-0.999406 74:-0.999406 75:-0.999415 76:-0.999424 77:-0.999433 78:-0.999442 79:-0.999432 80:-0.999424 81:-0.999424 82:-0.999424 83:-0.99898 84:-0.996619 85:-0.994428 86:-0.992223 87:-0.9901 88:-0.987896 89:-0.985883 90:-0.983973 91:-0.982157 92:-0.980137 93:-0.978288 94:-0.976429 95:-0.97483 96:-0.972987 97:-0.971417 98:-0.969657 99:-0.968073 100:-0.966528 101:-0.964968 102:-0.963443 103:-0.961996 104:-0.962712 
2048 1:-0.999029 2:-0.988494 3:-0.995097 4:-0.999511 5:-0.830516 6:-0.839337 7:-0.837633 8:-0.837939 9:-0.838179 10:-0.839381 11:-0.840704 12:-0.875926 13:-0.904257 14:-0.919073 15:-0.933646 16:-0.937834 17:-0.930211 18:-0.926355 19:-0.920264 20:-0.916273 21:-0.923485 22:-0.935973 23:-0.945455 24:-0.952991 25:-0.954724 26:-0.955671 27:-0.957804 28:-0.961865 29:-0.965958 30:-0.969742 31:-0.973084 32:-0.975947 33:-0.979017 34:-0.981878 35:-0.984564 36:-0.986734 37:-0.989 38:-0.991249 39:-0.993414 40:-0.995148 41:-0.996053 42:-0.996524 43:-0.997087 44:-0.997622 45:-0.998019 46:-0.998186 47:-0.998345 48:-0.998497 49:-0.998639 50:-0.998742 51:-0.99884 52:-0.998878 53:-0.998919 54:-0.998895 55:-0.99892 56:-0.998952 57:-0.998983 58:-0.999013 59:-0.999042 60:-0.99907 61:-0.999097 62:-0.999122 63:-0.999147 64:-0.999172 65:-0.999195 66:-0.999218 67:-0.99924 68:-0.999247 69:-0.999239 70:-0.999231 71:-0.999224 72:-0.999216 73:-0.999227 74:-0.999247 75:-0.999275 76:-0.999296 77:-0.999323 78:-0.999349 79:-0.999336 80:-0.999321 81:-0.999312 82:-0.99932 83:-0.998882 84:-0.996518 85:-0.994314 86:-0.992095 87:-0.989959 88:-0.987742 89:-0.985719 90:-0.983816 91:-0.982007 92:-0.979989 93:-0.978136 94:-0.976274 95:-0.974683 96:-0.972854 97:-0.971299 98:-0.969553 99:-0.967983 100:-0.966451 101:-0.964904 102:-0.963392 103:-0.961958 104:-0.962686 
46.48517555605875 1:-0.926793 2:-0.715481 3:-0.782905 4:-0.934227 5:-0.776802 6:-0.789389 7:-0.77852 8:-0.776349 9:-0.782105 10:-0.782083 11:-0.78079 12:-0.814061 13:-0.840394 14:-0.853764 15:-0.867162 16:-0.870585 17:-0.862846 18:-0.858329 19:-0.851742 20:-0.84782 21:-0.854444 22:-0.866014 23:-0.875433 24:-0.882442 25:-0.883886 26:-0.884658 27:-0.886567 28:-0.890832 29:-0.89458 30:-0.898234 31:-0.901327 32:-0.903958 33:-0.906823 34:-0.909605 35:-0.912085 36:-0.914106 37:-0.916197 38:-0.918273 39:-0.920237 40:-0.921752 41:-0.922516 42:-0.922981 43:-0.923423 44:-0.92373 45:-0.924138 46:-0.924214 47:-0.924342 48:-0.926525 49:-0.926936 50:-0.926844 51:-0.927103 52:-0.927351 53:-0.927302 54:-0.927101 55:-0.927595 56:-0.927605 57:-0.927432 58:-0.927936 59:-0.927806 60:-0.927911 61:-0.927773 62:-0.927866 63:-0.928039 64:-0.92806 65:-0.927927 66:-0.929102 67:-0.929531 68:-0.929857 69:-0.930891 70:-0.931569 71:-0.931966 72:-0.93285 73:-0.933254 74:-0.934177 75:-0.935393 76:-0.936066 77:-0.936841 78:-0.937138 79:-0.937431 80:-0.938298 81:-0.93875 82:-0.938913 83:-0.938854 84:-0.937718 85:-0.935937 86:-0.934364 87:-0.933322 88:-0.931521 89:-0.930455 90:-0.928611 91:-0.927105 92:-0.925538 93:-0.924364 94:-0.922443 95:-0.92062 96:-0.919347 97:-0.917538 98:-0.916032 99:-0.914242 100:-0.912471 101:-0.910804 102:-0.90913 103:-0.907649 104:-0.909335 
2048 1:-0.999223 2:-0.995816 3:-0.998544 4:-0.999743 5:-0.830075 6:-0.838908 7:-0.837341 8:-0.838011 9:-0.838469 10:-0.839815 11:-0.841138 12:-0.876366 13:-0.904702 14:-0.91952 15:-0.934095 16:-0.938284 17:-0.93066 18:-0.926802 19:-0.920711 20:-0.91672 21:-0.923933 22:-0.936423 23:-0.945907 24:-0.953445 25:-0.955177 26:-0.956124 27:-0.958257 28:-0.962319 29:-0.966412 30:-0.970196 31:-0.973539 32:-0.976403 33:-0.979473 34:-0.982335 35:-0.985021 36:-0.987191 37:-0.989457 38:-0.991707 39:-0.993832 40:-0.99552 41:-0.996382 42:-0.996812 43:-0.997337 44:-0.997835 45:-0.998197 46:-0.998331 47:-0.998458 48:-0.99858 49:-0.998696 50:-0.998808 51:-0.998915 52:-0.99896 53:-0.999009 54:-0.998992 55:-0.999024 56:-0.999063 57:-0.999101 58:-0.999137 59:-0.999172 60:-0.999205 61:-0.999238 62:-0.999269 63:-0.9993 64:-0.999329 65:-0.999357 66:-0.999384 67:-0.999411 68:-0.999423 69:-0.999419 70:-0.999416 71:-0.999412 72:-0.999409 73:-0.999405 74:-0.999405 75:-0.999414 76:-0.999423 77:-0.999432 78:-0.999441 79:-0.999431 80:-0.999422 81:-0.999422 82:-0.999422 83:-0.998978 84:-0.996617 85:-0.994426 86:-0.992221 87:-0.990098 88:-0.987894 89:-0.985882 90:-0.983971 91:-0.982156 92:-0.980136 93:-0.978287 94:-0.976428 95:-0.974828 96:-0.972986 97:-0.971416 98:-0.969656 99:-0.968072 100:-0.966527 101:-0.964967 102:-0.963442 103:-0.961995 104:-0.96271 
90.66690907243729 1:-0.866401 2:-0.758368 3:-0.833781 4:-0.81837 5:-0.676693 6:-0.697023 7:-0.686353 8:-0.679142 9:-0.674924 10:-0.674604 11:-0.675616 12:-0.708912 13:-0.733997 14:-0.745899 15:-0.759069 16:-0.763107 17:-0.754382 18:-0.750999 19:-0.744462 20:-0.740519 21:-0.746122 22:-0.759642 23:-0.770981 24:-0.777969 25:-0.779218 26:-0.780877 27:-0.785996 28:-0.79029 29:-0.793546 30:-0.797741 31:-0.805333 32:-0.810806 33:-0.813913 34:-0.815874 35:-0.817869 36:-0.819003 37:-0.820561 38:-0.822256 39:-0.824424 40:-0.825437 41:-0.826747 42:-0.82642 43:-0.826805 44:-0.827212 45:-0.827475 46:-0.827314 47:-0.826976 48:-0.827041 49:-0.826816 50:-0.826707 51:-0.826722 52:-0.8262 53:-0.826218 54:-0.825714 55:-0.825507 56:-0.825534 57:-0.825208 58:-0.825025 59:-0.824996 60:-0.825035 61:-0.82496 62:-0.824859 63:-0.824706 64:-0.824585 65:-0.824228 66:-0.824335 67:-0.824178 68:-0.824073 69:-0.824047 70:-0.823715 71:-0.823556 72:-0.823521 73:-0.823463 74:-0.823328 75:-0.823253 76:-0.823109 77:-0.823465 78:-0.823334 79:-0.823023 80:-0.822982 81:-0.822883 82:-0.822752 83:-0.822486 84:-0.820066 85:-0.818215 86:-0.816107 87:-0.814067 88:-0.811936 89:-0.810025 90:-0.808168 91:-0.806362 92:-0.804403 93:-0.80272 94:-0.800815 95:-0.799485 96:-0.797598 97:-0.796298 98:-0.794545 99:-0.793139 100:-0.791537 101:-0.790149 102:-0.788772 103:-0.787467 104:-0.788434 
21.04561174366459 1:-0.788533 2:-0.766736 3:-0.840115 4:-0.817112 5:-0.662832 6:-0.701342 7:-0.686861 8:-0.679873 9:-0.674881 10:-0.675495 11:-0.675339 12:-0.707027 13:-0.730962 14:-0.744477 15:-0.757424 16:-0.760817 17:-0.753072 18:-0.749739 19:-0.742774 20:-0.738886 21:-0.745428 22:-0.7617 23:-0.769673 24:-0.777246 25:-0.778963 26:-0.779664 27:-0.782574 28:-0.786737 29:-0.790448 30:-0.794051 31:-0.798101 32:-0.805651 33:-0.811157 34:-0.814535 35:-0.81678 36:-0.818229 37:-0.819988 38:-0.821331 39:-0.822873 40:-0.82484 41:-0.824891 42:-0.825185 43:-0.825339 44:-0.825433 45:-0.825321 46:-0.825601 47:-0.825013 48:-0.824861 49:-0.824664 50:-0.824865 51:-0.824705 52:-0.824533 53:-0.824278 54:-0.824025 55:-0.823758 56:-0.82358 57:-0.823408 58:-0.823279 59:-0.823102 60:-0.823032 61:-0.822878 62:-0.822636 63:-0.822624 64:-0.822379 65:-0.822413 66:-0.822818 67:-0.822685 68:-0.822541 69:-0.822418 70:-0.822271 71:-0.822186 72:-0.822235 73:-0.822176 74:-0.822231 75:-0.822132 76:-0.821832 77:-0.821854 78:-0.821733 79:-0.821578 80:-0.82151 81:-0.821387 82:-0.821233 83:-0.820744 84:-0.818504 85:-0.816484 86:-0.814361 87:-0.812273 88:-0.810235 89:-0.808317 90:-0.80647 91:-0.804731 92:-0.802729 93:-0.801138 94:-0.799368 95:-0.797776 96:-0.796092 97:-0.794988 98:-0.79324 99:-0.791653 100:-0.790243 101:-0.788757 102:-0.787297 103:-0.786085 104:-0.786767 
5.747759899216526 1:-0.840478 2:-0.65272 3:-0.704654 4:-0.802859 5:-0.647038 6:-0.681168 7:-0.660264 8:-0.655898 9:-0.652149 10:-0.651804 11:-0.652835 12:-0.683399 13:-0.708455 14:-0.722267 15:-0.734636 16:-0.738055 17:-0.730837 18:-0.726726 19:-0.720512 20:-0.721911 21:-0.728332 22:-0.739216 23:-0.747448 24:-0.757954 25:-0.759443 26:-0.760008 27:-0.767425 28:-0.776009 29:-0.7838 30:-0.788966 31:-0.7956 32:-0.799393 33:-0.801238 34:-0.802714 35:-0.807914 36:-0.808765 37:-0.811244 38:-0.818742 39:-0.821714 40:-0.822183 41:-0.821986 42:-0.824056 43:-0.823972 44:-0.824093 45:-0.824512 46:-0.824049 47:-0.823163 48:-0.822626 49:-0.82196 50:-0.821435 51:-0.821344 52:-0.821236 53:-0.822037 54:-0.821411 55:-0.822186 56:-0.821825 57:-0.822921 58:-0.822284 59:-0.821875 60:-0.821447 61:-0.820999 62:-0.820739 63:-0.820769 64:-0.820669 65:-0.820221 66:-0.82031 67:-0.819927 68:-0.819462 69:-0.819073 70:-0.818624 71:-0.819269 72:-0.819665 73:-0.819567 74:-0.819698 75:-0.819617 76:-0.819188 77:-0.818709 78:-0.818708 79:-0.818136 80:-0.818508 81:-0.817944 82:-0.817856 83:-0.81695 84:-0.815047 85:-0.812706 86:-0.810771 87:-0.808512 88:-0.806166 89:-0.804108 90:-0.802047 91:-0.800247 92:-0.798117 93:-0.796276 94:-0.79431 95:-0.792624 96:-0.790826 97:-0.789207 98:-0.787632 99:-0.785864 100:-0.784215 101:-0.782662 102:-0.781036 103:-0.779596 104:-0.780587 
19.58823188622475 1:-0.810573 2:-0.752092 3:-0.822713 4:-0.78842 5:-0.639703 6:-0.671883 7:-0.651532 8:-0.64862 9:-0.643617 10:-0.645983 11:-0.646218 12:-0.67554 13:-0.701814 14:-0.714107 15:-0.72751 16:-0.731023 17:-0.72382 18:-0.720031 19:-0.713324 20:-0.715845 21:-0.721655 22:-0.733208 23:-0.743128 24:-0.750331 25:-0.752024 26:-0.75469 27:-0.762829 28:-0.770388 29:-0.774955 30:-0.777796 31:-0.780833 32:-0.782864 33:-0.784928 34:-0.787493 35:-0.789218 36:-0.790995 37:-0.792417 38:-0.794189 39:-0.796552 40:-0.797426 41:-0.798005 42:-0.797903 43:-0.797806 44:-0.797947 45:-0.797871 46:-0.797592 47:-0.7976 48:-0.797058 49:-0.79705 50:-0.796943 51:-0.796727 52:-0.796802 53:-0.796541 54:-0.79623 55:-0.795939 56:-0.795706 57:-0.795609 58:-0.795423 59:-0.795193 60:-0.795106 61:-0.794904 62:-0.794577 63:-0.794546 64:-0.794379 65:-0.794185 66:-0.794114 67:-0.793951 68:-0.793856 69:-0.793899 70:-0.79372 71:-0.793635 72:-0.793454 73:-0.793294 74:-0.79304 75:-0.79305 76:-0.792938 77:-0.792779 78:-0.792721 79:-0.792547 80:-0.792583 81:-0.792372 82:-0.792453 83:-0.791778 84:-0.789665 85:-0.787999 86:-0.785881 87:-0.783882 88:-0.781796 89:-0.780154 90:-0.778175 91:-0.776785 92:-0.774757 93:-0.772993 94:-0.771226 95:-0.769868 96:-0.767996 97:-0.766749 98:-0.765027 99:-0.763574 100:-0.761981 101:-0.760507 102:-0.759049 103:-0.757553 104:-0.758666 
10.30215492013726 1:-0.756978 2:-0.595188 3:-0.680648 4:-0.768811 5:-0.621434 6:-0.646403 7:-0.627796 8:-0.621674 9:-0.619004 10:-0.618245 11:-0.619218 12:-0.650786 13:-0.675402 14:-0.687395 15:-0.700521 16:-0.703871 17:-0.696957 18:-0.700247 19:-0.693943 20:-0.690884 21:-0.698575 22:-0.710295 23:-0.722795 24:-0.734094 25:-0.741238 26:-0.745144 27:-0.747491 28:-0.749763 29:-0.753152 30:-0.755557 31:-0.759176 32:-0.760973 33:-0.763226 34:-0.764708 35:-0.766496 36:-0.767665 37:-0.769217 38:-0.770382 39:-0.771619 40:-0.772754 41:-0.775821 42:-0.776394 43:-0.776372 44:-0.776355 45:-0.776095 46:-0.775578 47:-0.775098 48:-0.774665 49:-0.775127 50:-0.77583 51:-0.779611 52:-0.782502 53:-0.781937 54:-0.782761 55:-0.782415 56:-0.78276 57:-0.783101 58:-0.784164 59:-0.783647 60:-0.783174 61:-0.784019 62:-0.783681 63:-0.785161 64:-0.786014 65:-0.785289 66:-0.785114 67:-0.785073 68:-0.784813 69:-0.784429 70:-0.783985 71:-0.784124 72:-0.783824 73:-0.784143 74:-0.783968 75:-0.784072 76:-0.784268 77:-0.783924 78:-0.783597 79:-0.78365 80:-0.783334 81:-0.78344 82:-0.783261 83:-0.782509 84:-0.780105 85:-0.777904 86:-0.776281 87:-0.774084 88:-0.772707 89:-0.770545 90:-0.768561 91:-0.766791 92:-0.764838 93:-0.763161 94:-0.761117 95:-0.759404 96:-0.757679 97:-0.756006 98:-0.75427 99:-0.752871 100:-0.751286 101:-0.749681 102:-0.748116 103:-0.746798 104:-0.747446 
22.20729276227481 1:-0.827273 2:-0.731172 3:-0.801761 4:-0.762492 5:-0.616661 6:-0.654953 7:-0.635239 8:-0.627811 9:-0.622078 10:-0.623156 11:-0.624336 12:-0.65436 13:-0.67849 14:-0.690525 15:-0.703975 16:-0.706964 17:-0.69903 18:-0.697684 19:-0.695367 20:-0.691245 21:-0.699253 22:-0.715184 23:-0.722245 24:-0.728851 25:-0.737464 26:-0.741481 27:-0.742142 28:-0.74571 29:-0.748867 30:-0.751324 31:-0.754499 32:-0.756269 33:-0.758616 34:-0.760015 35:-0.76132 36:-0.762687 37:-0.764786 38:-0.767808 39:-0.76917 40:-0.770469 41:-0.770687 42:-0.770865 43:-0.770543 44:-0.770817 45:-0.770719 46:-0.770887 47:-0.770436 48:-0.770133 49:-0.770098 50:-0.769993 51:-0.769755 52:-0.769405 53:-0.769367 54:-0.769615 55:-0.769364 56:-0.769105 57:-0.768944 58:-0.768701 59:-0.768655 60:-0.768707 61:-0.768527 62:-0.768396 63:-0.768193 64:-0.768286 65:-0.768058 66:-0.767862 67:-0.768096 68:-0.767887 69:-0.767709 70:-0.767602 71:-0.767556 72:-0.767346 73:-0.767191 74:-0.76701 75:-0.767042 76:-0.767013 77:-0.766974 78:-0.766826 79:-0.766621 80:-0.766607 81:-0.76656 82:-0.766529 83:-0.766032 84:-0.763784 85:-0.76191 86:-0.759798 87:-0.758145 88:-0.756061 89:-0.75423 90:-0.752386 91:-0.751153 92:-0.749202 93:-0.747481 94:-0.745715 95:-0.744216 96:-0.742662 97:-0.741144 98:-0.739477 99:-0.737999 100:-0.736639 101:-0.735232 102:-0.733656 103:-0.732512 104:-0.733592 
35.76671773870269 1:-0.898442 2:-0.66841 3:-0.734423 4:-0.893726 5:-0.730365 6:-0.740137 7:-0.746462 8:-0.744873 9:-0.741257 10:-0.739847 11:-0.739232 12:-0.77173 13:-0.79823 14:-0.810945 15:-0.823619 16:-0.828429 17:-0.819959 18:-0.815477 19:-0.809659 20:-0.805709 21:-0.812484 22:-0.823726 23:-0.832528 24:-0.839646 25:-0.840762 26:-0.841807 27:-0.844003 28:-0.847657 29:-0.851543 30:-0.854774 31:-0.858022 32:-0.860799 33:-0.866765 34:-0.869487 35:-0.871916 36:-0.874347 37:-0.876849 38:-0.878588 39:-0.880675 40:-0.882743 41:-0.883647 42:-0.88399 43:-0.88447 44:-0.885237 45:-0.888971 46:-0.889469 47:-0.889652 48:-0.889477 49:-0.889719 50:-0.889994 51:-0.889743 52:-0.890267 53:-0.892255 54:-0.892272 55:-0.892415 56:-0.892088 57:-0.891941 58:-0.891846 59:-0.892264 60:-0.89346 61:-0.893662 62:-0.894438 63:-0.894119 64:-0.893963 65:-0.893647 66:-0.893642 67:-0.893351 68:-0.893234 69:-0.89311 70:-0.893011 71:-0.892886 72:-0.892628 73:-0.89251 74:-0.892274 75:-0.892463 76:-0.892485 77:-0.892226 78:-0.892067 79:-0.891983 80:-0.891766 81:-0.892353 82:-0.892735 83:-0.893294 84:-0.892582 85:-0.891358 86:-0.890114 87:-0.888385 88:-0.886698 89:-0.885272 90:-0.884195 91:-0.884503 92:-0.883427 93:-0.883508 94:-0.882664 95:-0.881049 96:-0.879817 97:-0.879146 98:-0.87732 99:-0.875526 100:-0.874359 101:-0.872545 102:-0.870911 103:-0.869404 104:-0.871136 
788.6862712333386 1:-0.938152 2:-0.889121 3:-0.934187 4:-0.930548 5:-0.773455 6:-0.775323 7:-0.778269 8:-0.776423 9:-0.781046 10:-0.784651 11:-0.78375 12:-0.816822 13:-0.843953 14:-0.857094 15:-0.870708 16:-0.874656 17:-0.86635 18:-0.861968 19:-0.85551 20:-0.851131 21:-0.858296 22:-0.869979 23:-0.879374 24:-0.886479 25:-0.887785 26:-0.888426 27:-0.890715 28:-0.894661 29:-0.898372 30:-0.901795 31:-0.905224 32:-0.907999 33:-0.910766 34:-0.913617 35:-0.916007 36:-0.917941 37:-0.920505 38:-0.922491 39:-0.924369 40:-0.926124 41:-0.926799 42:-0.927067 43:-0.927723 44:-0.928064 45:-0.928509 46:-0.928506 47:-0.928669 48:-0.928655 49:-0.928898 50:-0.92969 51:-0.930718 52:-0.931159 53:-0.931053 54:-0.93089 55:-0.931015 56:-0.930914 57:-0.930786 58:-0.930982 59:-0.930881 60:-0.930959 61:-0.93173 62:-0.932549 63:-0.932824 64:-0.933306 65:-0.933175 66:-0.933129 67:-0.933084 68:-0.932954 69:-0.932994 70:-0.93302 71:-0.932881 72:-0.932745 73:-0.932678 74:-0.932656 75:-0.932704 76:-0.932703 77:-0.932587 78:-0.932478 79:-0.932471 80:-0.932492 81:-0.932352 82:-0.932235 83:-0.931811 84:-0.929418 85:-0.927336 86:-0.925123 87:-0.922971 88:-0.920773 89:-0.918858 90:-0.91691 91:-0.915194 92:-0.913166 93:-0.911395 94:-0.909809 95:-0.908177 96:-0.906313 97:-0.904845 98:-0.90308 99:-0.901564 100:-0.899994 101:-0.898407 102:-0.896949 103:-0.895477 104:-0.896315 
1641.603735642293 1:-0.904656 2:-0.781381 3:-0.838079 4:-0.894188 5:-0.746505 6:-0.746741 7:-0.745633 8:-0.755284 9:-0.752745 10:-0.751191 11:-0.750157 12:-0.782017 13:-0.80748 14:-0.82113 15:-0.833953 16:-0.837004 17:-0.829071 18:-0.825039 19:-0.818763 20:-0.814384 21:-0.820674 22:-0.832135 23:-0.841259 24:-0.847747 25:-0.849243 26:-0.850104 27:-0.852064 28:-0.855858 29:-0.85934 30:-0.863062 31:-0.866015 32:-0.868354 33:-0.871414 34:-0.87422 35:-0.877648 36:-0.880464 37:-0.882489 38:-0.884273 39:-0.886607 40:-0.888089 41:-0.888915 42:-0.890556 43:-0.892415 44:-0.893224 45:-0.893233 46:-0.893245 47:-0.893191 48:-0.893402 49:-0.895292 50:-0.896202 51:-0.89608 52:-0.896052 53:-0.895775 54:-0.895679 55:-0.895638 56:-0.896138 57:-0.897534 58:-0.898763 59:-0.898468 60:-0.899085 61:-0.898788 62:-0.898864 63:-0.898587 64:-0.898993 65:-0.899723 66:-0.900152 67:-0.900047 68:-0.899934 69:-0.899804 70:-0.89951 71:-0.899222 72:-0.899074 73:-0.898964 74:-0.898862 75:-0.898772 76:-0.898517 77:-0.898482 78:-0.898245 79:-0.898229 80:-0.898543 81:-0.898268 82:-0.898089 83:-0.897556 84:-0.895089 85:-0.892961 86:-0.890648 87:-0.888566 88:-0.886343 89:-0.884239 90:-0.882381 91:-0.88047 92:-0.878656 93:-0.876722 94:-0.874911 95:-0.873242 96:-0.871448 97:-0.86986 98:-0.86803 99:-0.86652 100:-0.866209 101:-0.86587 102:-0.864603 103:-0.863869 104:-0.865246 
7.756451830511387 1:-0.909025 2:-0.825314 3:-0.865312 4:-0.885814 5:-0.754333 6:-0.755105 7:-0.746398 8:-0.753194 9:-0.746209 10:-0.745353 11:-0.744872 12:-0.775639 13:-0.802189 14:-0.814313 15:-0.826693 16:-0.830339 17:-0.822879 18:-0.818179 19:-0.811899 20:-0.807261 21:-0.813287 22:-0.825743 23:-0.83431 24:-0.841344 25:-0.842914 26:-0.843341 27:-0.844898 28:-0.849071 29:-0.852538 30:-0.856172 31:-0.859531 32:-0.861846 33:-0.866283 34:-0.869527 35:-0.872528 36:-0.87422 37:-0.876331 38:-0.878085 39:-0.881153 40:-0.883515 41:-0.884238 42:-0.884291 43:-0.884802 44:-0.885522 45:-0.886725 46:-0.889185 47:-0.889115 48:-0.888898 49:-0.88963 50:-0.889373 51:-0.889135 52:-0.889779 53:-0.891096 54:-0.891257 55:-0.890949 56:-0.890649 57:-0.890311 58:-0.890033 59:-0.891457 60:-0.892946 61:-0.892909 62:-0.892873 63:-0.892768 64:-0.892483 65:-0.89219 66:-0.891919 67:-0.892203 68:-0.892103 69:-0.891997 70:-0.891823 71:-0.891711 72:-0.891437 73:-0.89117 74:-0.89125 75:-0.891008 76:-0.890764 77:-0.891157 78:-0.891235 79:-0.891199 80:-0.890993 81:-0.891022 82:-0.890973 83:-0.890329 84:-0.888017 85:-0.885952 86:-0.883647 87:-0.881437 88:-0.879279 89:-0.877185 90:-0.875178 91:-0.873277 92:-0.871559 93:-0.869979 94:-0.868047 95:-0.866533 96:-0.864832 97:-0.863409 98:-0.861628 99:-0.859965 100:-0.858345 101:-0.856709 102:-0.855246 103:-0.853936 104:-0.855063 
1.10752135122371 1:-0.890771 2:-0.718619 3:-0.754068 4:-0.878212 5:-0.710078 6:-0.726577 7:-0.736637 8:-0.731651 9:-0.726128 10:-0.724237 11:-0.725444 12:-0.757981 13:-0.783886 14:-0.797413 15:-0.810512 16:-0.81444 17:-0.805957 18:-0.802415 19:-0.796064 20:-0.791947 21:-0.798633 22:-0.809886 23:-0.818858 24:-0.825867 25:-0.827473 26:-0.828233 27:-0.830014 28:-0.834365 29:-0.838271 30:-0.841678 31:-0.844753 32:-0.848279 33:-0.852356 34:-0.855351 35:-0.859198 36:-0.861409 37:-0.863554 38:-0.865654 39:-0.867799 40:-0.872739 41:-0.874312 42:-0.877134 43:-0.877363 44:-0.87755 45:-0.877691 46:-0.877721 47:-0.877298 48:-0.877487 49:-0.877341 50:-0.877071 51:-0.877226 52:-0.878241 53:-0.877884 54:-0.877481 55:-0.877594 56:-0.877488 57:-0.877114 58:-0.877262 59:-0.877156 60:-0.877186 61:-0.87693 62:-0.876836 63:-0.876758 64:-0.87804 65:-0.877741 66:-0.87765 67:-0.877631 68:-0.877349 69:-0.877244 70:-0.877135 71:-0.87739 72:-0.879184 73:-0.880066 74:-0.880467 75:-0.88183 76:-0.881777 77:-0.882143 78:-0.881866 79:-0.88169 80:-0.881926 81:-0.882875 82:-0.883513 83:-0.883359 84:-0.880949 85:-0.878716 86:-0.876328 87:-0.874307 88:-0.872785 89:-0.872193 90:-0.871005 91:-0.869211 92:-0.866989 93:-0.865082 94:-0.864047 95:-0.862744 96:-0.86214 97:-0.861286 98:-0.860425 99:-0.858675 100:-0.857057 101:-0.855286 102:-0.853648 103:-0.852827 104:-0.854159 
6.006296474437042 1:-0.999417 2:-0.995816 3:-0.998544 4:-0.999745 5:-0.830074 6:-0.838906 7:-0.83734 8:-0.83801 9:-0.838468 10:-0.839814 11:-0.841139 12:-0.876367 13:-0.904703 14:-0.919522 15:-0.934096 16:-0.938285 17:-0.930661 18:-0.926803 19:-0.920712 20:-0.916721 21:-0.923934 22:-0.936424 23:-0.945908 24:-0.953446 25:-0.955178 26:-0.956125 27:-0.958258 28:-0.96232 29:-0.966413 30:-0.970198 31:-0.97354 32:-0.976404 33:-0.979474 34:-0.982336 35:-0.985022 36:-0.987193 37:-0.989458 38:-0.991708 39:-0.993833 40:-0.995521 41:-0.996384 42:-0.996813 43:-0.997338 44:-0.997837 45:-0.998198 46:-0.998332 47:-0.998459 48:-0.998581 49:-0.998698 50:-0.998809 51:-0.998916 52:-0.998961 53:-0.99901 54:-0.998994 55:-0.999025 56:-0.999065 57:-0.999102 58:-0.999138 59:-0.999173 60:-0.999207 61:-0.999239 62:-0.99927 63:-0.999301 64:-0.99933 65:-0.999358 66:-0.999386 67:-0.999412 68:-0.999424 69:-0.999421 70:-0.999417 71:-0.999413 72:-0.99941 73:-0.999406 74:-0.999406 75:-0.999415 76:-0.999424 77:-0.999433 78:-0.999442 79:-0.999432 80:-0.999424 81:-0.999424 82:-0.999424 83:-0.99898 84:-0.996619 85:-0.994428 86:-0.992223 87:-0.9901 88:-0.987896 89:-0.985883 90:-0.983973 91:-0.982157 92:-0.980137 93:-0.978288 94:-0.976429 95:-0.97483 96:-0.972987 97:-0.971417 98:-0.969657 99:-0.968073 100:-0.966528 101:-0.964968 102:-0.963443 103:-0.961996 104:-0.962712 
2048 1:-0.999417 2:-0.996862 3:-0.998563 4:-0.999745 5:-0.831451 6:-0.839232 7:-0.837327 8:-0.837825 9:-0.83818 10:-0.839458 11:-0.840835 12:-0.8761 13:-0.904465 14:-0.919309 15:-0.933904 16:-0.938111 17:-0.930502 18:-0.926658 19:-0.920578 20:-0.916596 21:-0.923818 22:-0.936316 23:-0.945806 24:-0.953349 25:-0.955087 26:-0.956039 27:-0.958177 28:-0.962243 29:-0.966341 30:-0.970128 31:-0.973474 32:-0.976341 33:-0.979414 34:-0.982279 35:-0.984967 36:-0.98714 37:-0.989408 38:-0.99166 39:-0.993787 40:-0.995477 41:-0.996341 42:-0.996773 43:-0.997299 44:-0.997799 45:-0.998162 46:-0.998298 47:-0.998426 48:-0.998549 49:-0.998667 50:-0.99878 51:-0.998887 52:-0.998934 53:-0.998984 54:-0.998968 55:-0.999001 56:-0.999041 57:-0.999079 58:-0.999116 59:-0.999152 60:-0.999187 61:-0.99922 62:-0.999252 63:-0.999283 64:-0.999313 65:-0.999342 66:-0.99937 67:-0.999397 68:-0.99941 69:-0.999406 70:-0.999403 71:-0.9994 72:-0.999397 73:-0.999394 74:-0.999394 75:-0.999404 76:-0.999414 77:-0.999423 78:-0.999432 79:-0.99943 80:-0.99943 81:-0.999429 82:-0.999429 83:-0.998984 84:-0.996623 85:-0.994432 86:-0.992226 87:-0.990103 88:-0.987898 89:-0.985886 90:-0.983975 91:-0.982159 92:-0.980133 93:-0.978284 94:-0.976425 95:-0.974826 96:-0.972983 97:-0.971414 98:-0.969654 99:-0.968071 100:-0.966526 101:-0.964966 102:-0.963441 103:-0.961995 104:-0.96271 
7.806480516432835 1:-0.771542 2:-0.667364 3:-0.752538 4:-0.680037 5:-0.542785 6:-0.582289 7:-0.55772 8:-0.550284 9:-0.545976 10:-0.545328 11:-0.545694 12:-0.574947 13:-0.597778 14:-0.61117 15:-0.63099 16:-0.635473 17:-0.632042 18:-0.629857 19:-0.635662 20:-0.63615 21:-0.641615 22:-0.651114 23:-0.658188 24:-0.664875 25:-0.664252 26:-0.664023 27:-0.666587 28:-0.670344 29:-0.672452 30:-0.675394 31:-0.677586 32:-0.678771 33:-0.682247 34:-0.683571 35:-0.685521 36:-0.686819 37:-0.688316 38:-0.68962 39:-0.691236 40:-0.691354 41:-0.691618 42:-0.691505 43:-0.691532 44:-0.690986 45:-0.691858 46:-0.691061 47:-0.690861 48:-0.690617 49:-0.690633 50:-0.690509 51:-0.690285 52:-0.689735 53:-0.689525 54:-0.689495 55:-0.689338 56:-0.689435 57:-0.688889 58:-0.688712 59:-0.688302 60:-0.688257 61:-0.688296 62:-0.687968 63:-0.68803 64:-0.687711 65:-0.687496 66:-0.687552 67:-0.687461 68:-0.687316 69:-0.686916 70:-0.686775 71:-0.686727 72:-0.686659 73:-0.686437 74:-0.686525 75:-0.686234 76:-0.686229 77:-0.685774 78:-0.68577 79:-0.685462 80:-0.6855 81:-0.685137 82:-0.684953 83:-0.684634 84:-0.682553 85:-0.680617 86:-0.678479 87:-0.676757 88:-0.674745 89:-0.672979 90:-0.671138 91:-0.669559 92:-0.66762 93:-0.665993 94:-0.664435 95:-0.662963 96:-0.661527 97:-0.660263 98:-0.658713 99:-0.657079 100:-0.655899 101:-0.654468 102:-0.6533 103:-0.652 104:-0.652789 
2.398604818431862 1:-0.604932 2:-0.626569 3:-0.720739 4:-0.658271 5:-0.550098 6:-0.562424 7:-0.540794 8:-0.532039 9:-0.528647 10:-0.5278 11:-0.526741 12:-0.555702 13:-0.578291 14:-0.598573 15:-0.612744 16:-0.617982 17:-0.613723 18:-0.616023 19:-0.619182 20:-0.621694 21:-0.62737 22:-0.643077 23:-0.648329 24:-0.653306 25:-0.652912 26:-0.651581 27:-0.651858 28:-0.655333 29:-0.658417 30:-0.66034 31:-0.662807 32:-0.664052 33:-0.665651 34:-0.666882 35:-0.668323 36:-0.668666 37:-0.67003 38:-0.670793 39:-0.672144 40:-0.673061 41:-0.673273 42:-0.673037 43:-0.672995 44:-0.672585 45:-0.672462 46:-0.671818 47:-0.671354 48:-0.670994 49:-0.670954 50:-0.671146 51:-0.671015 52:-0.670592 53:-0.670155 54:-0.670023 55:-0.66959 56:-0.66953 57:-0.669348 58:-0.669293 59:-0.668915 60:-0.668675 61:-0.668407 62:-0.668144 63:-0.668067 64:-0.667667 65:-0.667562 66:-0.667174 67:-0.667343 68:-0.666912 69:-0.666841 70:-0.66646 71:-0.6664 72:-0.666188 73:-0.66581 74:-0.665714 75:-0.665372 76:-0.665128 77:-0.665097 78:-0.664935 79:-0.66473 80:-0.664691 81:-0.664503 82:-0.664194 83:-0.663835 84:-0.661722 85:-0.659762 86:-0.657916 87:-0.656171 88:-0.654096 89:-0.652186 90:-0.650424 91:-0.648909 92:-0.646948 93:-0.645292 94:-0.643776 95:-0.642323 96:-0.640707 97:-0.639303 98:-0.637741 99:-0.636533 100:-0.635221 101:-0.633955 102:-0.632594 103:-0.631512 104:-0.632613 
7.811383073001037 1:-0.738919 2:-0.49477 3:-0.568764 4:-0.641568 5:-0.52902 6:-0.525527 7:-0.504107 8:-0.499111 9:-0.493883 10:-0.494342 11:-0.496285 12:-0.524845 13:-0.558221 14:-0.570358 15:-0.583714 16:-0.590289 17:-0.594028 18:-0.606266 19:-0.615542 20:-0.608147 21:-0.610267 22:-0.620374 23:-0.630453 24:-0.63578 25:-0.634474 26:-0.634483 27:-0.634584 28:-0.638621 29:-0.640874 30:-0.642003 31:-0.643507 32:-0.644043 33:-0.645392 34:-0.646653 35:-0.650459 36:-0.653029 37:-0.654917 38:-0.655321 39:-0.656335 40:-0.657134 41:-0.65694 42:-0.655842 43:-0.655976 44:-0.655756 45:-0.655379 46:-0.654808 47:-0.653735 48:-0.653428 49:-0.652473 50:-0.653047 51:-0.65399 52:-0.653158 53:-0.652848 54:-0.652109 55:-0.651963 56:-0.651284 57:-0.651293 58:-0.651101 59:-0.650648 60:-0.650562 61:-0.650277 62:-0.653981 63:-0.65488 64:-0.654442 65:-0.655124 66:-0.656144 67:-0.656064 68:-0.655623 69:-0.656703 70:-0.656593 71:-0.656323 72:-0.656827 73:-0.656539 74:-0.657101 75:-0.656682 76:-0.656412 77:-0.655661 78:-0.655414 79:-0.655156 80:-0.654725 81:-0.654717 82:-0.65419 83:-0.653699 84:-0.651104 85:-0.64954 86:-0.647463 87:-0.645388 88:-0.642955 89:-0.641278 90:-0.639325 91:-0.638068 92:-0.636466 93:-0.634782 94:-0.632888 95:-0.631349 96:-0.629316 97:-0.628721 98:-0.627158 99:-0.626189 100:-0.625477 101:-0.62401 102:-0.622488 103:-0.623258 104:-0.624955 
726.3005165703358 1:-0.934948 2:-0.83159 3:-0.907943 4:-0.94002 5:-0.781364 6:-0.784659 7:-0.788872 8:-0.785248 9:-0.785322 10:-0.788467 11:-0.793891 12:-0.826264 13:-0.852856 14:-0.866402 15:-0.879942 16:-0.883442 17:-0.875058 18:-0.87092 19:-0.864405 20:-0.860225 21:-0.866955 22:-0.878894 23:-0.887936 24:-0.895048 25:-0.896552 26:-0.897363 27:-0.899267 28:-0.903164 29:-0.90687 30:-0.910463 31:-0.913795 32:-0.916324 33:-0.919248 34:-0.922091 35:-0.924774 36:-0.926836 37:-0.928832 38:-0.931089 39:-0.932962 40:-0.934747 41:-0.935441 42:-0.935937 43:-0.936402 44:-0.936845 45:-0.937163 46:-0.937257 47:-0.937198 48:-0.937384 49:-0.937359 50:-0.937439 51:-0.937536 52:-0.937525 53:-0.937549 54:-0.93751 55:-0.937527 56:-0.937669 57:-0.939508 58:-0.939881 59:-0.939901 60:-0.939876 61:-0.940081 62:-0.940048 63:-0.9401 64:-0.940152 65:-0.940118 66:-0.940164 67:-0.940185 68:-0.940302 69:-0.9406 70:-0.940718 71:-0.94089 72:-0.940976 73:-0.941049 74:-0.941041 75:-0.940988 76:-0.941118 77:-0.940999 78:-0.94101 79:-0.940937 80:-0.941412 81:-0.941844 82:-0.942346 83:-0.942245 84:-0.94047 85:-0.938547 86:-0.936553 87:-0.934722 88:-0.932485 89:-0.930444 90:-0.928444 91:-0.926649 92:-0.924598 93:-0.922779 94:-0.920902 95:-0.919277 96:-0.917492 97:-0.915873 98:-0.91424 99:-0.912813 100:-0.911207 101:-0.909624 102:-0.908079 103:-0.906612 104:-0.907554 
458.5966929200591 1:-0.850672 2:-0.756276 3:-0.840451 4:-0.874826 5:-0.71191 6:-0.732108 7:-0.737442 8:-0.735654 9:-0.730568 10:-0.729662 11:-0.729394 12:-0.760882 13:-0.787316 14:-0.800026 15:-0.813301 16:-0.817174 17:-0.808961 18:-0.805027 19:-0.798771 20:-0.794195 21:-0.800729 22:-0.812358 23:-0.821183 24:-0.828295 25:-0.829764 26:-0.830419 27:-0.832567 28:-0.836149 29:-0.839966 30:-0.846705 31:-0.85092 32:-0.853471 33:-0.85604 34:-0.859945 35:-0.862162 36:-0.864056 37:-0.866671 38:-0.868842 39:-0.870649 40:-0.872617 41:-0.874253 42:-0.874414 43:-0.875074 44:-0.876493 45:-0.878994 46:-0.880121 47:-0.881815 48:-0.882401 49:-0.882304 50:-0.882417 51:-0.88327 52:-0.883111 53:-0.88288 54:-0.882913 55:-0.882734 56:-0.882514 57:-0.882418 58:-0.882148 59:-0.881924 60:-0.88158 61:-0.881714 62:-0.881371 63:-0.881502 64:-0.881483 65:-0.881348 66:-0.881229 67:-0.881274 68:-0.881144 69:-0.880832 70:-0.880526 71:-0.880844 72:-0.88071 73:-0.880411 74:-0.880133 75:-0.880149 76:-0.880116 77:-0.879848 78:-0.879594 79:-0.879626 80:-0.879575 81:-0.8798 82:-0.879544 83:-0.879058 84:-0.876739 85:-0.874446 86:-0.872327 87:-0.870218 88:-0.867917 89:-0.865819 90:-0.864069 91:-0.862282 92:-0.860493 93:-0.858646 94:-0.856876 95:-0.855365 96:-0.853496 97:-0.851933 98:-0.850239 99:-0.84923 100:-0.847906 101:-0.846357 102:-0.845108 103:-0.843882 104:-0.845418 
49.3379879360098 1:-0.811447 2:-0.664226 3:-0.713831 4:-0.840992 5:-0.689436 6:-0.693906 7:-0.700118 8:-0.694389 9:-0.690181 10:-0.689393 11:-0.689791 12:-0.72108 13:-0.746401 14:-0.759661 15:-0.772589 16:-0.776303 17:-0.768426 18:-0.764494 19:-0.758107 20:-0.754385 21:-0.760909 22:-0.77246 23:-0.781253 24:-0.790773 25:-0.794874 26:-0.796801 27:-0.797959 28:-0.801542 29:-0.805892 30:-0.809529 31:-0.812991 32:-0.815648 33:-0.823089 34:-0.827668 35:-0.830109 36:-0.832081 37:-0.834054 38:-0.836992 39:-0.83865 40:-0.839406 41:-0.839944 42:-0.840852 43:-0.840685 44:-0.84053 45:-0.840575 46:-0.841133 47:-0.840898 48:-0.840455 49:-0.840287 50:-0.840391 51:-0.840012 52:-0.840696 53:-0.840507 54:-0.840264 55:-0.840323 56:-0.840149 57:-0.840149 58:-0.841997 59:-0.841785 60:-0.841396 61:-0.841012 62:-0.841027 63:-0.841027 64:-0.841064 65:-0.840698 66:-0.840668 67:-0.840518 68:-0.841103 69:-0.841032 70:-0.840857 71:-0.84092 72:-0.840735 73:-0.840727 74:-0.84057 75:-0.840418 76:-0.840304 77:-0.840267 78:-0.839969 79:-0.839802 80:-0.839845 81:-0.839619 82:-0.839477 83:-0.838795 84:-0.836706 85:-0.835136 86:-0.833376 87:-0.833447 88:-0.831765 89:-0.831424 90:-0.830169 91:-0.830852 92:-0.829716 93:-0.83078 94:-0.830372 95:-0.829454 96:-0.82745 97:-0.825758 98:-0.823945 99:-0.822608 100:-0.820906 101:-0.819237 102:-0.817607 103:-0.81728 104:-0.81879 
236.44451570277 1:-0.952134 2:-0.866109 3:-0.916546 4:-0.949762 5:-0.800465 6:-0.801618 7:-0.793561 8:-0.792411 9:-0.790919 10:-0.792002 11:-0.798044 12:-0.834097 13:-0.863742 14:-0.877301 15:-0.890848 16:-0.893944 17:-0.885875 18:-0.88136 19:-0.874551 20:-0.870083 21:-0.877402 22:-0.889143 23:-0.897996 24:-0.905167 25:-0.906901 26:-0.907508 27:-0.909288 28:-0.91298 29:-0.917261 30:-0.920699 31:-0.923719 32:-0.926283 33:-0.929476 34:-0.932561 35:-0.934966 36:-0.936903 37:-0.939063 38:-0.941073 39:-0.943358 40:-0.94481 41:-0.945493 42:-0.945763 43:-0.946132 44:-0.946772 45:-0.947155 46:-0.947154 47:-0.94733 48:-0.94732 49:-0.94731 50:-0.947555 51:-0.947549 52:-0.947472 53:-0.947415 54:-0.94743 55:-0.947369 56:-0.947489 57:-0.947408 58:-0.947354 59:-0.947505 60:-0.947453 61:-0.947399 62:-0.947344 63:-0.947566 64:-0.947594 65:-0.947537 66:-0.947561 67:-0.948729 68:-0.948838 69:-0.94892 70:-0.948824 71:-0.948891 72:-0.948795 73:-0.948702 74:-0.948783 75:-0.948706 76:-0.948627 77:-0.948643 78:-0.948571 79:-0.948479 80:-0.948704 81:-0.948751 82:-0.949375 83:-0.949245 84:-0.946961 85:-0.944986 86:-0.942739 87:-0.940717 88:-0.938473 89:-0.936525 90:-0.934571 91:-0.932848 92:-0.930865 93:-0.929032 94:-0.927634 95:-0.926573 96:-0.924938 97:-0.923778 98:-0.922466 99:-0.921154 100:-0.919783 101:-0.918463 102:-0.91708 103:-0.916019 104:-0.91693 
23.06898536121952 1:-0.946599 2:-0.856695 3:-0.900594 4:-0.948928 5:-0.789852 6:-0.791286 7:-0.787404 8:-0.790507 9:-0.789038 10:-0.79373 11:-0.798154 12:-0.832616 13:-0.859021 14:-0.872844 15:-0.886202 16:-0.889904 17:-0.881671 18:-0.878141 19:-0.871423 20:-0.867457 21:-0.874027 22:-0.885838 23:-0.895231 24:-0.902212 25:-0.903578 26:-0.904871 27:-0.906706 28:-0.910594 29:-0.914541 30:-0.918184 31:-0.921394 32:-0.923991 33:-0.927097 34:-0.929685 35:-0.932266 36:-0.934371 37:-0.936549 38:-0.938576 39:-0.940623 40:-0.942223 41:-0.943049 42:-0.943334 43:-0.943836 44:-0.944313 45:-0.944662 46:-0.944786 47:-0.944866 48:-0.944899 49:-0.944974 50:-0.945079 51:-0.945184 52:-0.945212 53:-0.945164 54:-0.945148 55:-0.945096 56:-0.945224 57:-0.94515 58:-0.945316 59:-0.945385 60:-0.945337 61:-0.945288 62:-0.945237 63:-0.945427 64:-0.945384 65:-0.945569 66:-0.946865 67:-0.94687 68:-0.946789 69:-0.946698 70:-0.946607 71:-0.946654 72:-0.946564 73:-0.946643 74:-0.946699 75:-0.946814 76:-0.946813 77:-0.946737 78:-0.94682 79:-0.946892 80:-0.947322 81:-0.947514 82:-0.947478 83:-0.947016 84:-0.944841 85:-0.942617 86:-0.940379 87:-0.938338 88:-0.936265 89:-0.934225 90:-0.932278 91:-0.930536 92:-0.929176 93:-0.927928 94:-0.9262 95:-0.925082 96:-0.923564 97:-0.922484 98:-0.921046 99:-0.919823 100:-0.918628 101:-0.917095 102:-0.91604 103:-0.915356 104:-0.917061 
296.7010811466467 1:-0.998932 2:-0.991632 3:-0.996398 4:-0.999532 5:-0.832481 6:-0.840235 7:-0.838349 8:-0.838576 9:-0.838712 10:-0.839843 11:-0.841229 12:-0.876578 13:-0.90501 14:-0.919853 15:-0.934369 16:-0.938508 17:-0.930841 18:-0.926947 19:-0.920824 20:-0.916805 21:-0.923995 22:-0.936464 23:-0.945928 24:-0.953448 25:-0.955165 26:-0.956097 27:-0.958217 28:-0.962267 29:-0.966349 30:-0.970123 31:-0.973456 32:-0.976311 33:-0.979372 34:-0.982227 35:-0.984905 36:-0.987069 37:-0.989328 38:-0.991572 39:-0.993691 40:-0.995374 41:-0.996231 42:-0.996656 43:-0.997176 44:-0.99767 45:-0.998028 46:-0.998158 47:-0.998304 48:-0.998455 49:-0.998598 50:-0.99872 51:-0.998822 52:-0.998863 53:-0.998906 54:-0.998885 55:-0.998913 56:-0.998948 57:-0.998982 58:-0.999041 59:-0.999097 60:-0.999152 61:-0.999205 62:-0.999255 63:-0.999304 64:-0.999352 65:-0.999398 66:-0.999442 67:-0.999471 68:-0.999477 69:-0.999467 70:-0.999458 71:-0.999449 72:-0.99944 73:-0.999431 74:-0.999426 75:-0.99943 76:-0.999434 77:-0.999438 78:-0.999442 79:-0.999428 80:-0.999414 81:-0.9994 82:-0.999387 83:-0.998929 84:-0.996555 85:-0.994352 86:-0.992134 87:-0.989999 88:-0.987784 89:-0.98576 90:-0.983839 91:-0.982012 92:-0.979983 93:-0.978131 94:-0.976271 95:-0.974679 96:-0.97285 97:-0.971293 98:-0.96954 99:-0.967954 100:-0.966407 101:-0.964848 102:-0.963335 103:-0.9619 104:-0.962627 
113.4316908463752 1:-0.933977 2:-0.828452 3:-0.899608 4:-0.930705 5:-0.775925 6:-0.786078 7:-0.779384 8:-0.789037 9:-0.787088 10:-0.785523 11:-0.784223 12:-0.81752 13:-0.843403 14:-0.8564 15:-0.871119 16:-0.87414 17:-0.866413 18:-0.861887 19:-0.855005 20:-0.851094 21:-0.858145 22:-0.869833 23:-0.878555 24:-0.885825 25:-0.887283 26:-0.887857 27:-0.889589 28:-0.893784 29:-0.897449 30:-0.90118 31:-0.904133 32:-0.907121 33:-0.910005 34:-0.912511 35:-0.915165 36:-0.917205 37:-0.919177 38:-0.92141 39:-0.92326 40:-0.924797 41:-0.925714 42:-0.926065 43:-0.926404 44:-0.926956 45:-0.927269 46:-0.929901 47:-0.929984 48:-0.930419 49:-0.930596 50:-0.931183 51:-0.931085 52:-0.9312 53:-0.931598 54:-0.931475 55:-0.931549 56:-0.931399 57:-0.931433 58:-0.931704 59:-0.931876 60:-0.931733 61:-0.931832 62:-0.931686 63:-0.931709 64:-0.931733 65:-0.932244 66:-0.933354 67:-0.933663 68:-0.934082 69:-0.934451 70:-0.934467 71:-0.934413 72:-0.934225 73:-0.934208 74:-0.934129 75:-0.93436 76:-0.934615 77:-0.934689 78:-0.934586 79:-0.934403 80:-0.934251 81:-0.934212 82:-0.934452 83:-0.934161 84:-0.931768 85:-0.929489 86:-0.927303 87:-0.925195 88:-0.923448 89:-0.921561 90:-0.919609 91:-0.917836 92:-0.915804 93:-0.913928 94:-0.912245 95:-0.910562 96:-0.908746 97:-0.907098 98:-0.905415 99:-0.903804 100:-0.902235 101:-0.900603 102:-0.899125 103:-0.89761 104:-0.898595 
750.1282661338248 1:-0.925433 2:-0.844142 3:-0.891525 4:-0.930036 5:-0.844676 6:-0.825308 7:-0.804075 8:-0.79393 9:-0.796375 10:-0.793025 11:-0.791087 12:-0.822955 13:-0.84816 14:-0.861484 15:-0.875053 16:-0.878205 17:-0.869378 18:-0.864867 19:-0.858462 20:-0.853831 21:-0.860525 22:-0.871921 23:-0.880478 24:-0.887601 25:-0.889134 26:-0.889569 27:-0.891176 28:-0.895258 29:-0.89882 30:-0.902379 31:-0.905317 32:-0.908223 33:-0.910872 34:-0.913463 35:-0.915755 36:-0.917882 37:-0.919936 38:-0.921845 39:-0.92391 40:-0.925396 41:-0.926246 42:-0.926443 43:-0.92686 44:-0.9276 45:-0.927868 46:-0.927804 47:-0.927802 48:-0.927736 49:-0.927875 50:-0.927816 51:-0.92796 52:-0.92783 53:-0.928008 54:-0.928073 55:-0.928229 56:-0.928755 57:-0.928607 58:-0.928749 59:-0.928713 60:-0.92897 61:-0.928887 62:-0.92933 63:-0.929497 64:-0.929461 65:-0.929491 66:-0.92938 67:-0.929344 68:-0.929655 69:-0.929882 70:-0.929904 71:-0.929764 72:-0.929695 73:-0.929692 74:-0.929764 75:-0.929838 76:-0.929902 77:-0.930428 78:-0.930484 79:-0.93048 80:-0.930509 81:-0.930449 82:-0.930433 83:-0.929992 84:-0.927642 85:-0.925516 86:-0.923372 87:-0.921346 88:-0.919705 89:-0.918693 90:-0.916807 91:-0.914977 92:-0.91374 93:-0.911962 94:-0.910092 95:-0.908518 96:-0.906616 97:-0.90503 98:-0.903352 99:-0.902301 100:-0.901102 101:-0.899833 102:-0.898282 103:-0.896897 104:-0.898411 
1554.6536124637 1:-0.924171 2:-0.8159 3:-0.878657 4:-0.922785 5:-0.766716 6:-0.768763 7:-0.774421 8:-0.779223 9:-0.775421 10:-0.773628 11:-0.772773 12:-0.806519 13:-0.832724 14:-0.845798 15:-0.858953 16:-0.863142 17:-0.855747 18:-0.851346 19:-0.84454 20:-0.840687 21:-0.84813 22:-0.8597 23:-0.868427 24:-0.875245 25:-0.877077 26:-0.878211 27:-0.880128 28:-0.883747 29:-0.887424 30:-0.891339 31:-0.894718 32:-0.897521 33:-0.901972 34:-0.904418 35:-0.907165 36:-0.909013 37:-0.910937 38:-0.913195 39:-0.915194 40:-0.916553 41:-0.917485 42:-0.917694 43:-0.918295 44:-0.918582 45:-0.919515 46:-0.920017 47:-0.919891 48:-0.920002 49:-0.919925 50:-0.920108 51:-0.920045 52:-0.920145 53:-0.920214 54:-0.920499 55:-0.920379 56:-0.920483 57:-0.920331 58:-0.920219 59:-0.920285 60:-0.920181 61:-0.920278 62:-0.920168 63:-0.920267 64:-0.920172 65:-0.920067 66:-0.919975 67:-0.920575 68:-0.921097 69:-0.921107 70:-0.921498 71:-0.92136 72:-0.921434 73:-0.922303 74:-0.922383 75:-0.923306 76:-0.923676 77:-0.924172 78:-0.924452 79:-0.924337 80:-0.924197 81:-0.924013 82:-0.923856 83:-0.923425 84:-0.921196 85:-0.919878 86:-0.918447 87:-0.917045 88:-0.915282 89:-0.91318 90:-0.911223 91:-0.90938 92:-0.90791 93:-0.906417 94:-0.904772 95:-0.903124 96:-0.901197 97:-0.899729 98:-0.898262 99:-0.896776 100:-0.895167 101:-0.893539 102:-0.892332 103:-0.890937 104:-0.891829 
267.4362762449969 1:-0.896306 2:-0.808577 3:-0.874632 4:-0.915765 5:-0.755028 6:-0.764094 7:-0.770868 8:-0.772056 9:-0.767369 10:-0.767212 11:-0.766891 12:-0.799005 13:-0.826163 14:-0.839334 15:-0.853404 16:-0.856492 17:-0.849023 18:-0.844595 19:-0.838493 20:-0.834057 21:-0.840788 22:-0.85232 23:-0.861616 24:-0.868926 25:-0.870158 26:-0.871271 27:-0.873069 28:-0.878395 29:-0.882787 30:-0.886062 31:-0.889353 32:-0.89176 33:-0.894956 34:-0.897377 35:-0.900031 36:-0.901863 37:-0.904113 38:-0.906005 39:-0.907795 40:-0.909783 41:-0.910681 42:-0.911145 43:-0.911428 44:-0.911987 45:-0.91279 46:-0.912709 47:-0.912821 48:-0.913521 49:-0.913676 50:-0.913652 51:-0.913567 52:-0.913405 53:-0.913638 54:-0.913536 55:-0.913406 56:-0.913501 57:-0.913337 58:-0.913216 59:-0.913449 60:-0.91342 61:-0.913303 62:-0.913382 63:-0.913632 64:-0.914153 65:-0.914212 66:-0.914279 67:-0.91416 68:-0.914051 69:-0.914183 70:-0.914218 71:-0.914079 72:-0.914799 73:-0.915622 74:-0.916158 75:-0.916724 76:-0.917466 77:-0.917973 78:-0.918496 79:-0.918417 80:-0.918258 81:-0.918052 82:-0.918022 83:-0.917584 84:-0.915232 85:-0.913744 86:-0.91215 87:-0.909941 88:-0.907651 89:-0.905977 90:-0.904077 91:-0.902881 92:-0.901019 93:-0.899237 94:-0.897397 95:-0.895999 96:-0.894553 97:-0.89322 98:-0.891376 99:-0.889841 100:-0.888529 101:-0.887059 102:-0.885673 103:-0.884294 104:-0.88494 
107.0918693534478 1:-0.943201 2:-0.791841 3:-0.813609 4:-0.938014 5:-0.773645 6:-0.777653 7:-0.777913 8:-0.78601 9:-0.790071 10:-0.787618 11:-0.78631 12:-0.819119 13:-0.845078 14:-0.859257 15:-0.872294 16:-0.875398 17:-0.868192 18:-0.863687 19:-0.85683 20:-0.852378 21:-0.858822 22:-0.871118 23:-0.879891 24:-0.887862 25:-0.889215 26:-0.889799 27:-0.891935 28:-0.89556 29:-0.899244 30:-0.903082 31:-0.906048 32:-0.908802 33:-0.911548 34:-0.914077 35:-0.91683 36:-0.918745 37:-0.921086 38:-0.923183 39:-0.925047 40:-0.92679 41:-0.927635 42:-0.927886 43:-0.928531 44:-0.928856 45:-0.929229 46:-0.92954 47:-0.93133 48:-0.93126 49:-0.931449 50:-0.931527 51:-0.931468 52:-0.931576 53:-0.931466 54:-0.93152 55:-0.93141 56:-0.931652 57:-0.931949 58:-0.932368 59:-0.932437 60:-0.932323 61:-0.93229 62:-0.932564 63:-0.932454 64:-0.932541 65:-0.932426 66:-0.93329 67:-0.934027 68:-0.934561 69:-0.935213 70:-0.935486 71:-0.936176 72:-0.936838 73:-0.937138 74:-0.938123 75:-0.93958 76:-0.93958 77:-0.940136 78:-0.941014 79:-0.940774 80:-0.941925 81:-0.942392 82:-0.942915 83:-0.94368 84:-0.9417 85:-0.939358 86:-0.93696 87:-0.934791 88:-0.932405 89:-0.93102 90:-0.929144 91:-0.927146 92:-0.925335 93:-0.923699 94:-0.921855 95:-0.920455 96:-0.918499 97:-0.91745 98:-0.916739 99:-0.915423 100:-0.914067 101:-0.91277 102:-0.911976 103:-0.910549 104:-0.911301 
186.6092430767325 1:-0.962717 2:-0.911088 3:-0.939192 4:-0.955864 5:-0.799142 6:-0.80033 7:-0.795434 8:-0.798224 9:-0.805394 10:-0.806313 11:-0.807088 12:-0.840198 13:-0.866874 14:-0.880896 15:-0.894416 16:-0.8986 17:-0.890404 18:-0.886093 19:-0.879478 20:-0.875162 21:-0.881856 22:-0.893794 23:-0.903418 24:-0.910674 25:-0.912639 26:-0.913331 27:-0.915193 28:-0.918965 29:-0.922788 30:-0.926316 31:-0.92942 32:-0.932062 33:-0.935722 34:-0.938352 35:-0.940826 36:-0.94293 37:-0.945009 38:-0.947346 39:-0.949294 40:-0.950803 41:-0.951534 42:-0.952153 43:-0.952558 44:-0.952943 45:-0.953204 46:-0.953488 47:-0.953613 48:-0.953636 49:-0.953657 50:-0.953933 51:-0.953955 52:-0.953952 53:-0.953921 54:-0.953828 55:-0.953792 56:-0.953982 57:-0.953928 58:-0.953895 59:-0.954068 60:-0.954035 61:-0.954002 62:-0.953966 63:-0.954085 64:-0.954055 65:-0.954169 66:-0.954137 67:-0.954105 68:-0.954934 69:-0.955371 70:-0.955501 71:-0.955421 72:-0.955513 73:-0.955434 74:-0.955522 75:-0.955459 76:-0.955394 77:-0.955331 78:-0.955273 79:-0.955195 80:-0.955289 81:-0.955352 82:-0.955427 83:-0.954922 84:-0.952726 85:-0.950656 86:-0.948643 87:-0.946636 88:-0.944407 89:-0.942507 90:-0.940684 91:-0.939148 92:-0.937098 93:-0.935229 94:-0.933353 95:-0.931987 96:-0.930161 97:-0.928567 98:-0.927147 99:-0.925784 100:-0.924494 101:-0.923259 102:-0.921888 103:-0.920723 104:-0.921744 
33.38575422363299 1:-0.952522 2:-0.881799 3:-0.9339 4:-0.949944 5:-0.82388 6:-0.809342 7:-0.799226 8:-0.798338 9:-0.80333 10:-0.802486 11:-0.802328 12:-0.835197 13:-0.862176 14:-0.875565 15:-0.888972 16:-0.893827 17:-0.885522 18:-0.881124 19:-0.875167 20:-0.870858 21:-0.877684 22:-0.889482 23:-0.898386 24:-0.905947 25:-0.907287 26:-0.908639 27:-0.910623 28:-0.914315 29:-0.918062 30:-0.921521 31:-0.92456 32:-0.92755 33:-0.930417 34:-0.933155 35:-0.935584 36:-0.937542 37:-0.939862 38:-0.941888 39:-0.944064 40:-0.94566 41:-0.946356 42:-0.946638 43:-0.947314 44:-0.947838 45:-0.948067 46:-0.948076 47:-0.948049 48:-0.94826 49:-0.948258 50:-0.948559 51:-0.948559 52:-0.948488 53:-0.948531 54:-0.948419 55:-0.948364 56:-0.948666 57:-0.948588 58:-0.948536 59:-0.948642 60:-0.948674 61:-0.948621 62:-0.948568 63:-0.948522 64:-0.948703 65:-0.94865 66:-0.948603 67:-0.948699 68:-0.948639 69:-0.948638 70:-0.948566 71:-0.949363 72:-0.949846 73:-0.949848 74:-0.949766 75:-0.949882 76:-0.949984 77:-0.950044 78:-0.94997 79:-0.950059 80:-0.950047 81:-0.950298 82:-0.950431 83:-0.94991 84:-0.947719 85:-0.946016 86:-0.943771 87:-0.941668 88:-0.939428 89:-0.937384 90:-0.935536 91:-0.934161 92:-0.932386 93:-0.930553 94:-0.9291 95:-0.927457 96:-0.92563 97:-0.924117 98:-0.922625 99:-0.921033 100:-0.919496 101:-0.918078 102:-0.916559 103:-0.915118 104:-0.91605 
2048 1:-0.935822 2:-0.905858 3:-0.933308 4:-0.945711 5:-0.815429 6:-0.803145 7:-0.796437 8:-0.805553 9:-0.802535 10:-0.8004 11:-0.799947 12:-0.832548 13:-0.86131 14:-0.874347 15:-0.888197 16:-0.891257 17:-0.88369 18:-0.879118 19:-0.872254 20:-0.868447 21:-0.874889 22:-0.886587 23:-0.895869 24:-0.902758 25:-0.904039 26:-0.905155 27:-0.906902 28:-0.91103 29:-0.914729 30:-0.918143 31:-0.921139 32:-0.92409 33:-0.926855 34:-0.929481 35:-0.931882 36:-0.934175 37:-0.936183 38:-0.938184 39:-0.940075 40:-0.941848 41:-0.942645 42:-0.942908 43:-0.94327 44:-0.943616 45:-0.944121 46:-0.94428 47:-0.944236 48:-0.944226 49:-0.944471 50:-0.94446 51:-0.944454 52:-0.944612 53:-0.9448 54:-0.944974 55:-0.944901 56:-0.944833 57:-0.944997 58:-0.945143 59:-0.945069 60:-0.945515 61:-0.945441 62:-0.945763 63:-0.945885 64:-0.945902 65:-0.945822 66:-0.94575 67:-0.945863 68:-0.945812 69:-0.945853 70:-0.945757 71:-0.945743 72:-0.945737 73:-0.945803 74:-0.945717 75:-0.945639 76:-0.94556 77:-0.945641 78:-0.945567 79:-0.945473 80:-0.945405 81:-0.945453 82:-0.945831 83:-0.945865 84:-0.943861 85:-0.941814 86:-0.939894 87:-0.937735 88:-0.935973 89:-0.933975 90:-0.932017 91:-0.93016 92:-0.928099 93:-0.926346 94:-0.924825 95:-0.923185 96:-0.921741 97:-0.92013 98:-0.918337 99:-0.916993 100:-0.91541 101:-0.9139 102:-0.912518 103:-0.911076 104:-0.911783 
249.3244995688216 1:-0.942619 2:-0.864017 3:-0.92206 4:-0.945299 5:-0.801352 6:-0.81043 7:-0.798188 8:-0.800007 9:-0.801449 10:-0.799322 11:-0.798872 12:-0.831458 13:-0.858708 14:-0.871881 15:-0.885517 16:-0.888706 17:-0.880388 18:-0.87662 19:-0.869847 20:-0.866127 21:-0.87276 22:-0.884597 23:-0.894301 24:-0.901207 25:-0.902508 26:-0.903537 27:-0.905305 28:-0.90936 29:-0.913079 30:-0.916511 31:-0.919861 32:-0.922407 33:-0.92519 34:-0.928062 35:-0.930471 36:-0.932699 37:-0.934716 38:-0.936725 39:-0.939016 40:-0.940466 41:-0.941173 42:-0.941664 43:-0.942029 44:-0.942606 45:-0.942827 46:-0.943103 47:-0.943111 48:-0.9431 49:-0.943089 50:-0.943283 51:-0.943278 52:-0.943677 53:-0.943612 54:-0.943579 55:-0.943511 56:-0.943449 57:-0.944452 58:-0.944374 59:-0.944459 60:-0.944544 61:-0.944547 62:-0.944468 63:-0.944398 64:-0.944852 65:-0.94496 66:-0.944883 67:-0.945058 68:-0.944968 69:-0.944938 70:-0.944839 71:-0.944769 72:-0.944711 73:-0.944782 74:-0.945245 75:-0.945656 76:-0.945561 77:-0.945649 78:-0.946043 79:-0.946121 80:-0.946492 81:-0.946362 82:-0.94631 83:-0.945772 84:-0.943369 85:-0.941683 86:-0.939652 87:-0.937644 88:-0.935861 89:-0.933851 90:-0.931935 91:-0.930196 92:-0.928449 93:-0.926552 94:-0.924749 95:-0.923486 96:-0.921792 97:-0.920216 98:-0.918411 99:-0.916824 100:-0.915231 101:-0.91394 102:-0.912634 103:-0.911271 104:-0.912054 
393.10248352321 1:-0.940968 2:-0.851464 3:-0.917196 4:-0.942115 5:-0.81919 6:-0.804891 7:-0.79473 8:-0.801513 9:-0.797897 10:-0.795808 11:-0.796001 12:-0.828474 13:-0.855143 14:-0.868746 15:-0.881924 16:-0.885114 17:-0.877823 18:-0.873675 19:-0.866862 20:-0.862693 21:-0.869182 22:-0.880912 23:-0.890236 24:-0.897379 25:-0.899121 26:-0.899733 27:-0.90151 28:-0.90556 29:-0.909464 30:-0.912893 31:-0.91624 32:-0.918783 33:-0.921564 34:-0.92413 35:-0.927013 36:-0.929059 37:-0.931074 38:-0.933215 39:-0.935109 40:-0.936562 41:-0.937501 42:-0.938016 43:-0.9385 44:-0.938846 45:-0.939072 46:-0.939404 47:-0.939361 48:-0.939562 49:-0.939549 50:-0.939642 51:-0.939639 52:-0.940599 53:-0.941393 54:-0.941544 55:-0.941536 56:-0.941442 57:-0.941498 58:-0.941408 59:-0.941316 60:-0.941393 61:-0.941308 62:-0.941301 63:-0.941615 64:-0.941781 65:-0.941722 66:-0.941787 67:-0.941778 68:-0.941683 69:-0.941579 70:-0.941811 71:-0.94217 72:-0.942587 73:-0.942537 74:-0.942683 75:-0.94271 76:-0.942605 77:-0.942504 78:-0.94257 79:-0.942537 80:-0.943204 81:-0.943309 82:-0.94325 83:-0.943219 84:-0.941031 85:-0.938786 86:-0.936744 87:-0.934949 88:-0.932742 89:-0.930677 90:-0.928839 91:-0.927118 92:-0.925519 93:-0.923871 94:-0.921962 95:-0.920354 96:-0.918709 97:-0.917172 98:-0.915502 99:-0.914048 100:-0.912586 101:-0.911221 102:-0.909667 103:-0.908297 104:-0.909116 
275.6478328466156 1:-0.924657 2:-0.788703 3:-0.814318 4:-0.938864 5:-0.787759 6:-0.797484 7:-0.788275 8:-0.791359 9:-0.787555 10:-0.785683 11:-0.785986 12:-0.818394 13:-0.84502 14:-0.859039 15:-0.872178 16:-0.875742 17:-0.867435 18:-0.863689 19:-0.856893 20:-0.852492 21:-0.859772 22:-0.871442 23:-0.880721 24:-0.887593 25:-0.8889 26:-0.889951 27:-0.891727 28:-0.895965 29:-0.89967 30:-0.903088 31:-0.906592 32:-0.909119 33:-0.911887 34:-0.914819 35:-0.917425 36:-0.919351 37:-0.921353 38:-0.923751 39:-0.925626 40:-0.927059 41:-0.928051 42:-0.928493 43:-0.929108 44:-0.929649 45:-0.92986 46:-0.930069 47:-0.930384 48:-0.930357 49:-0.93033 50:-0.930647 51:-0.931362 52:-0.931251 53:-0.931402 54:-0.931255 55:-0.931491 56:-0.931402 57:-0.931286 58:-0.931205 59:-0.931329 60:-0.931372 61:-0.931292 62:-0.931404 63:-0.931334 64:-0.931263 65:-0.931184 66:-0.932389 67:-0.932577 68:-0.933276 69:-0.933852 70:-0.933991 71:-0.934517 72:-0.935747 73:-0.937636 74:-0.937697 75:-0.938174 76:-0.938647 77:-0.938465 78:-0.938661 79:-0.939046 80:-0.939787 81:-0.941369 82:-0.942461 83:-0.942479 84:-0.941386 85:-0.939359 86:-0.938145 87:-0.936569 88:-0.934801 89:-0.93355 90:-0.932365 91:-0.930433 92:-0.928307 93:-0.926314 94:-0.924989 95:-0.92333 96:-0.921348 97:-0.919635 98:-0.917743 99:-0.916025 100:-0.914572 101:-0.913424 102:-0.912234 103:-0.910993 104:-0.912122 
960.1197154738095 1:-0.951163 2:-0.912134 3:-0.941872 4:-0.956459 5:-0.799901 6:-0.803214 7:-0.798828 8:-0.80093 9:-0.804988 10:-0.805183 11:-0.809654 12:-0.84367 13:-0.870079 14:-0.883874 15:-0.897206 16:-0.900476 17:-0.892698 18:-0.888439 19:-0.88172 20:-0.877307 21:-0.884588 22:-0.89643 23:-0.905367 24:-0.912392 25:-0.913769 26:-0.915148 27:-0.916965 28:-0.920698 29:-0.924484 30:-0.92798 31:-0.931476 32:-0.934075 33:-0.936904 34:-0.939522 35:-0.942355 36:-0.94433 37:-0.946517 38:-0.948566 39:-0.950633 40:-0.952127 41:-0.952844 42:-0.953449 43:-0.953841 44:-0.954213 45:-0.954462 46:-0.95476 47:-0.954749 48:-0.954764 49:-0.955034 50:-0.955046 51:-0.955061 52:-0.955005 53:-0.955107 54:-0.955236 55:-0.955188 56:-0.955145 57:-0.955083 58:-0.955164 59:-0.955119 60:-0.955245 61:-0.955203 62:-0.95516 63:-0.955319 64:-0.955282 65:-0.955239 66:-0.955311 67:-0.955273 68:-0.955222 69:-0.95516 70:-0.955306 71:-0.955441 72:-0.955375 73:-0.955309 74:-0.955252 75:-0.955397 76:-0.955344 77:-0.955293 78:-0.955245 79:-0.955178 80:-0.955282 81:-0.95541 82:-0.955718 83:-0.955262 84:-0.953203 85:-0.951315 86:-0.949426 87:-0.947547 88:-0.94537 89:-0.943392 90:-0.941547 91:-0.939833 92:-0.937913 93:-0.93617 94:-0.934434 95:-0.932923 96:-0.931059 97:-0.929463 98:-0.927684 99:-0.926087 100:-0.924839 101:-0.923733 102:-0.922367 103:-0.921117 104:-0.922184 
2048 1:-0.998932 2:-0.991632 3:-0.996398 4:-0.999532 5:-0.832481 6:-0.840235 7:-0.838349 8:-0.838576 9:-0.838712 10:-0.839843 11:-0.841115 12:-0.876306 13:-0.904612 14:-0.919406 15:-0.933961 16:-0.938134 17:-0.930497 18:-0.926628 19:-0.920527 20:-0.916527 21:-0.923732 22:-0.936214 23:-0.945691 24:-0.953222 25:-0.954949 26:-0.955892 27:-0.95802 28:-0.962078 29:-0.966168 30:-0.969948 31:-0.973288 32:-0.976148 33:-0.979216 34:-0.982075 35:-0.984775 36:-0.986987 37:-0.989292 38:-0.991572 39:-0.993691 40:-0.995374 41:-0.996231 42:-0.996656 43:-0.997176 44:-0.99767 45:-0.998028 46:-0.998158 47:-0.998281 48:-0.9984 49:-0.998513 50:-0.998621 51:-0.998739 52:-0.998811 53:-0.998885 54:-0.998885 55:-0.998913 56:-0.998948 57:-0.998982 58:-0.999041 59:-0.999097 60:-0.999152 61:-0.999205 62:-0.999255 63:-0.999304 64:-0.999352 65:-0.999398 66:-0.999442 67:-0.999471 68:-0.999477 69:-0.999467 70:-0.999458 71:-0.999449 72:-0.99944 73:-0.999431 74:-0.999426 75:-0.99943 76:-0.999434 77:-0.999438 78:-0.999442 79:-0.999428 80:-0.999414 81:-0.9994 82:-0.999387 83:-0.998929 84:-0.996555 85:-0.994352 86:-0.992134 87:-0.989999 88:-0.987784 89:-0.98576 90:-0.983839 91:-0.982012 92:-0.979996 93:-0.97816 94:-0.976315 95:-0.974719 96:-0.972874 97:-0.971302 98:-0.96954 99:-0.967954 100:-0.966407 101:-0.964848 102:-0.963335 103:-0.9619 104:-0.962627 
103.5083371220771 1:-0.925336 2:-0.83159 3:-0.870404 4:-0.900108 5:-0.743243 6:-0.748057 7:-0.755431 8:-0.760363 9:-0.755723 10:-0.754226 11:-0.752945 12:-0.786015 13:-0.812165 14:-0.825607 15:-0.83868 16:-0.841634 17:-0.834128 18:-0.830846 19:-0.824123 20:-0.819614 21:-0.82634 22:-0.837843 23:-0.846995 24:-0.853824 25:-0.854988 26:-0.856057 27:-0.858213 28:-0.861889 29:-0.865917 30:-0.869449 31:-0.872304 32:-0.875202 33:-0.87785 34:-0.880654 35:-0.882928 36:-0.885132 37:-0.891538 38:-0.894757 39:-0.898686 40:-0.900458 41:-0.900928 42:-0.901552 43:-0.901953 44:-0.902624 45:-0.90285 46:-0.902613 47:-0.902743 48:-0.902772 49:-0.902799 50:-0.903123 51:-0.903051 52:-0.902762 53:-0.902701 54:-0.902397 55:-0.902165 56:-0.902381 57:-0.902185 58:-0.902167 59:-0.901956 60:-0.901954 61:-0.90175 62:-0.901743 63:-0.901555 64:-0.901697 65:-0.901516 66:-0.901523 67:-0.901529 68:-0.90134 69:-0.90135 70:-0.901157 71:-0.901136 72:-0.900946 73:-0.901053 74:-0.900879 75:-0.900713 76:-0.900705 77:-0.900629 78:-0.900628 79:-0.900449 80:-0.900468 81:-0.900387 82:-0.900226 83:-0.899799 84:-0.897546 85:-0.89537 86:-0.893264 87:-0.891188 88:-0.888947 89:-0.886905 90:-0.885082 91:-0.883355 92:-0.881305 93:-0.879547 94:-0.877736 95:-0.87673 96:-0.875758 97:-0.874983 98:-0.873633 99:-0.872089 100:-0.870605 101:-0.869232 102:-0.869397 103:-0.868403 104:-0.869282 
3.402478426645285 1:-0.833875 2:-0.626569 3:-0.688985 4:-0.857672 5:-0.68995 6:-0.71705 7:-0.715294 8:-0.708458 9:-0.703582 10:-0.703712 11:-0.704154 12:-0.735732 13:-0.761271 14:-0.77422 15:-0.787294 16:-0.791082 17:-0.783223 18:-0.779459 19:-0.772361 20:-0.768952 21:-0.775321 22:-0.786881 23:-0.795184 24:-0.801929 25:-0.803782 26:-0.810947 27:-0.816978 28:-0.820195 29:-0.824643 30:-0.828158 31:-0.830454 32:-0.83314 33:-0.836364 34:-0.838588 35:-0.840817 36:-0.84266 37:-0.844956 38:-0.848108 39:-0.850372 40:-0.851381 41:-0.851768 42:-0.852057 43:-0.852126 44:-0.852307 45:-0.852448 46:-0.852374 47:-0.852139 48:-0.852216 49:-0.852281 50:-0.852163 51:-0.852159 52:-0.852152 53:-0.852284 54:-0.85214 55:-0.852 56:-0.851857 57:-0.851739 58:-0.851733 59:-0.851462 60:-0.851342 61:-0.851987 62:-0.851919 63:-0.852944 64:-0.854885 65:-0.856326 66:-0.857975 67:-0.859704 68:-0.860751 69:-0.862241 70:-0.862304 71:-0.865921 72:-0.867469 73:-0.867117 74:-0.867133 75:-0.866988 76:-0.866521 77:-0.866223 78:-0.866561 79:-0.86625 80:-0.866931 81:-0.866627 82:-0.867075 83:-0.866378 84:-0.863893 85:-0.861579 86:-0.859367 87:-0.858457 88:-0.856586 89:-0.85589 90:-0.854239 91:-0.852298 92:-0.8514 93:-0.849758 94:-0.848948 95:-0.847176 96:-0.845191 97:-0.84346 98:-0.841646 99:-0.840633 100:-0.840181 101:-0.839133 102:-0.837823 103:-0.836255 104:-0.837271 
11.1716548561937 1:-0.8631 2:-0.624477 3:-0.665538 4:-0.850524 5:-0.683471 6:-0.70311 7:-0.706109 8:-0.700536 9:-0.697247 10:-0.696298 11:-0.696324 12:-0.727397 13:-0.753316 14:-0.766381 15:-0.778723 16:-0.782314 17:-0.775169 18:-0.771036 19:-0.764666 20:-0.760805 21:-0.767573 22:-0.7786 23:-0.787686 24:-0.793999 25:-0.797546 26:-0.799407 27:-0.801376 28:-0.805473 29:-0.811657 30:-0.816529 31:-0.819765 32:-0.82324 33:-0.826694 34:-0.829669 35:-0.831983 36:-0.834113 37:-0.835616 38:-0.837355 39:-0.83907 40:-0.840195 41:-0.840965 42:-0.840986 43:-0.841289 44:-0.841455 45:-0.842543 46:-0.84224 47:-0.842252 48:-0.842242 49:-0.842135 50:-0.842046 51:-0.841876 52:-0.841803 53:-0.841683 54:-0.841738 55:-0.8423 56:-0.842244 57:-0.842305 58:-0.842433 59:-0.845744 60:-0.849134 61:-0.849789 62:-0.851446 63:-0.8532 64:-0.855401 65:-0.856912 66:-0.858602 67:-0.860713 68:-0.862535 69:-0.864372 70:-0.863929 71:-0.863609 72:-0.86323 73:-0.863227 74:-0.86338 75:-0.863587 76:-0.863105 77:-0.863061 78:-0.863446 79:-0.863195 80:-0.862783 81:-0.862413 82:-0.863244 83:-0.862941 84:-0.860338 85:-0.85799 86:-0.855946 87:-0.85434 88:-0.852082 89:-0.850837 90:-0.849126 91:-0.846998 92:-0.84487 93:-0.843264 94:-0.841244 95:-0.839786 96:-0.83862 97:-0.837821 98:-0.836948 99:-0.836301 100:-0.835099 101:-0.833317 102:-0.831603 103:-0.830036 104:-0.831443 
197.198394189815 1:-0.919996 2:-0.825314 3:-0.881638 4:-0.908176 5:-0.763167 6:-0.760004 7:-0.753731 8:-0.765826 9:-0.764078 10:-0.762587 11:-0.762554 12:-0.794261 13:-0.819855 14:-0.833999 15:-0.847248 16:-0.85134 17:-0.842884 18:-0.839204 19:-0.833206 20:-0.828661 21:-0.834891 22:-0.847066 23:-0.856112 24:-0.863337 25:-0.864482 26:-0.865878 27:-0.867506 28:-0.871585 29:-0.875141 30:-0.878767 31:-0.881623 32:-0.884675 33:-0.887317 34:-0.889737 35:-0.892394 36:-0.894288 37:-0.896463 38:-0.898355 39:-0.900407 40:-0.903933 41:-0.904741 42:-0.905013 43:-0.905263 44:-0.90584 45:-0.905961 46:-0.906421 47:-0.906256 48:-0.906415 49:-0.906338 50:-0.908907 51:-0.908766 52:-0.908739 53:-0.908554 54:-0.908314 55:-0.908598 56:-0.908572 57:-0.908368 58:-0.908408 59:-0.908237 60:-0.908082 61:-0.908336 62:-0.908175 63:-0.908031 64:-0.907901 65:-0.907943 66:-0.907807 67:-0.907858 68:-0.907712 69:-0.907916 70:-0.90776 71:-0.907697 72:-0.908126 73:-0.907967 74:-0.907889 75:-0.907915 76:-0.907773 77:-0.907636 78:-0.907508 79:-0.907359 80:-0.907557 81:-0.907391 82:-0.907257 83:-0.906707 84:-0.904329 85:-0.902501 86:-0.90027 87:-0.898398 88:-0.896465 89:-0.895062 90:-0.893161 91:-0.891414 92:-0.889509 93:-0.888275 94:-0.886436 95:-0.884843 96:-0.883215 97:-0.881701 98:-0.879913 99:-0.878898 100:-0.878174 101:-0.877496 102:-0.876532 103:-0.875809 104:-0.876795 
75.37796427709888 1:-0.804068 2:-0.729079 3:-0.85768 4:-0.894395 5:-0.745557 6:-0.754484 7:-0.74683 8:-0.754031 9:-0.750243 10:-0.748622 11:-0.748484 12:-0.78041 13:-0.806683 14:-0.819654 15:-0.83314 16:-0.836375 17:-0.828581 18:-0.824685 19:-0.817929 20:-0.81397 21:-0.820881 22:-0.832405 23:-0.84134 24:-0.84812 25:-0.849666 26:-0.850766 27:-0.852562 28:-0.856216 29:-0.859922 30:-0.863337 31:-0.8665 32:-0.86936 33:-0.871973 34:-0.874513 35:-0.879602 36:-0.881828 37:-0.883831 38:-0.886269 39:-0.887942 40:-0.889555 41:-0.890784 42:-0.891127 43:-0.892352 44:-0.893936 45:-0.895485 46:-0.895374 47:-0.89582 48:-0.895794 49:-0.895876 50:-0.895765 51:-0.89585 52:-0.895666 53:-0.895608 54:-0.89576 55:-0.895707 56:-0.895565 57:-0.89541 58:-0.895334 59:-0.895279 60:-0.895157 61:-0.895034 62:-0.894983 63:-0.894948 64:-0.894843 65:-0.894866 66:-0.894834 67:-0.894658 68:-0.894614 69:-0.894492 70:-0.894371 71:-0.894313 72:-0.894319 73:-0.894389 74:-0.894342 75:-0.894299 76:-0.89419 77:-0.894022 78:-0.893988 79:-0.893868 80:-0.89391 81:-0.893772 82:-0.893838 83:-0.893366 84:-0.89104 85:-0.888985 86:-0.887085 87:-0.886397 88:-0.885212 89:-0.884253 90:-0.882517 91:-0.881529 92:-0.879667 93:-0.877837 94:-0.876145 95:-0.874704 96:-0.873451 97:-0.871928 98:-0.870184 99:-0.869022 100:-0.867754 101:-0.866145 102:-0.864574 103:-0.863391 104:-0.864255 
60.87405761486923 1:-0.905044 2:-0.701883 3:-0.832582 4:-0.89009 5:-0.748534 6:-0.742599 7:-0.752094 8:-0.753706 9:-0.748825 10:-0.745765 11:-0.745844 12:-0.777339 13:-0.80327 14:-0.815973 15:-0.82883 16:-0.832675 17:-0.824392 18:-0.820704 19:-0.813519 20:-0.8092 21:-0.816044 22:-0.827732 23:-0.836122 24:-0.842847 25:-0.844559 26:-0.845223 27:-0.847588 28:-0.851006 29:-0.854675 30:-0.858219 31:-0.861344 32:-0.863843 33:-0.866905 34:-0.873529 35:-0.876759 36:-0.878396 37:-0.880377 38:-0.884149 39:-0.885969 40:-0.887213 41:-0.888766 42:-0.890218 43:-0.890285 44:-0.890689 45:-0.891299 46:-0.891144 47:-0.891609 48:-0.891682 49:-0.891416 50:-0.891559 51:-0.891519 52:-0.891203 53:-0.891025 54:-0.891149 55:-0.89089 56:-0.890725 57:-0.89065 58:-0.890529 59:-0.890369 60:-0.890227 61:-0.890006 62:-0.89002 63:-0.890126 64:-0.889926 65:-0.889904 66:-0.889739 67:-0.889732 68:-0.889949 69:-0.889765 70:-0.889555 71:-0.889347 72:-0.889602 73:-0.889462 74:-0.889338 75:-0.889156 76:-0.889132 77:-0.889038 78:-0.889715 79:-0.889875 80:-0.890355 81:-0.890529 82:-0.89056 83:-0.890066 84:-0.888807 85:-0.887524 86:-0.885874 87:-0.884672 88:-0.88321 89:-0.881353 90:-0.879374 91:-0.877701 92:-0.876272 93:-0.875106 94:-0.873803 95:-0.872147 96:-0.870291 97:-0.869267 98:-0.867772 99:-0.866064 100:-0.864628 101:-0.863235 102:-0.862022 103:-0.860498 104:-0.861418 
165.6310418235617 1:-0.934657 2:-0.860879 3:-0.902526 4:-0.917824 5:-0.793945 6:-0.778171 7:-0.768234 8:-0.773738 9:-0.774552 10:-0.773057 11:-0.771795 12:-0.805215 13:-0.830924 14:-0.843814 15:-0.857829 16:-0.860872 17:-0.853384 18:-0.848905 19:-0.842774 20:-0.839 21:-0.845643 22:-0.857142 23:-0.867191 24:-0.873887 25:-0.875613 26:-0.876437 27:-0.878097 28:-0.881649 29:-0.885721 30:-0.889036 31:-0.892509 32:-0.894945 33:-0.898101 34:-0.900856 35:-0.903156 36:-0.905014 37:-0.906947 38:-0.909404 39:-0.911212 40:-0.912958 41:-0.913577 42:-0.914097 43:-0.914406 44:-0.91487 45:-0.915327 46:-0.915434 47:-0.915328 48:-0.915536 49:-0.916039 50:-0.916229 51:-0.918229 52:-0.919156 53:-0.918988 54:-0.918765 55:-0.919059 56:-0.919094 57:-0.918899 58:-0.918924 59:-0.919004 60:-0.918858 61:-0.918713 62:-0.918766 63:-0.918633 64:-0.918505 65:-0.918557 66:-0.918616 67:-0.918583 68:-0.918445 69:-0.918477 70:-0.918332 71:-0.91842 72:-0.918275 73:-0.9183 74:-0.918331 75:-0.918206 76:-0.918238 77:-0.918113 78:-0.917996 79:-0.918066 80:-0.918114 81:-0.917961 82:-0.917835 83:-0.917437 84:-0.915158 85:-0.913083 86:-0.910849 87:-0.908704 88:-0.906612 89:-0.904732 90:-0.902945 91:-0.902024 92:-0.900756 93:-0.899363 94:-0.897942 95:-0.896335 96:-0.89445 97:-0.893113 98:-0.891683 99:-0.890369 100:-0.88877 101:-0.887155 102:-0.885804 103:-0.884572 104:-0.885321 
363.588737988781 1:-0.925045 2:-0.823222 3:-0.853638 4:-0.917498 5:-0.840945 6:-0.828444 7:-0.81425 8:-0.804089 9:-0.799024 10:-0.798646 11:-0.793804 12:-0.822968 13:-0.851336 14:-0.862408 15:-0.873903 16:-0.875335 17:-0.865919 18:-0.861075 19:-0.853167 20:-0.847942 21:-0.854215 22:-0.865092 23:-0.873785 24:-0.880005 25:-0.881282 26:-0.881856 27:-0.883134 28:-0.88653 29:-0.890276 30:-0.893376 31:-0.895999 32:-0.898603 33:-0.901048 34:-0.903673 35:-0.905909 36:-0.907935 37:-0.909678 38:-0.911753 39:-0.913397 40:-0.914609 41:-0.915463 42:-0.91554 43:-0.916019 44:-0.916351 45:-0.916854 46:-0.916797 47:-0.916581 48:-0.916682 49:-0.916522 50:-0.91692 51:-0.917478 52:-0.917662 53:-0.917947 54:-0.919731 55:-0.919863 56:-0.919797 57:-0.919525 58:-0.919511 59:-0.919281 60:-0.919275 61:-0.919063 62:-0.919051 63:-0.91905 64:-0.918859 65:-0.91893 66:-0.918743 67:-0.918561 68:-0.91855 69:-0.918351 70:-0.918156 71:-0.917963 72:-0.917944 73:-0.917757 74:-0.917586 75:-0.917424 76:-0.917738 77:-0.917574 78:-0.917418 79:-0.917541 80:-0.917401 81:-0.917213 82:-0.9172 83:-0.916622 84:-0.91435 85:-0.912103 86:-0.90984 87:-0.907806 88:-0.905821 89:-0.90376 90:-0.901805 91:-0.900121 92:-0.898045 93:-0.896153 94:-0.894256 95:-0.892945 96:-0.891113 97:-0.889674 98:-0.889358 99:-0.888218 100:-0.887374 101:-0.886754 102:-0.885565 103:-0.885863 104:-0.887989 
97.2696803279139 1:-0.920773 2:-0.804393 3:-0.878292 4:-0.910884 5:-0.782995 6:-0.798874 7:-0.7795 8:-0.779252 9:-0.776255 10:-0.773802 11:-0.771244 12:-0.803672 13:-0.828828 14:-0.841059 15:-0.854742 16:-0.857323 17:-0.849601 18:-0.844792 19:-0.837611 20:-0.832938 21:-0.840889 22:-0.852151 23:-0.860844 24:-0.867402 25:-0.86902 26:-0.86945 27:-0.871501 28:-0.875434 29:-0.878943 30:-0.882426 31:-0.885573 32:-0.888005 33:-0.890716 34:-0.89356 35:-0.896093 36:-0.897896 37:-0.899773 38:-0.901647 39:-0.903928 40:-0.905499 41:-0.910321 42:-0.911411 43:-0.911563 44:-0.911938 45:-0.912301 46:-0.912116 47:-0.912149 48:-0.912122 49:-0.911945 50:-0.912033 51:-0.911927 52:-0.911888 53:-0.911691 54:-0.911439 55:-0.911265 56:-0.911425 57:-0.91138 58:-0.911206 59:-0.91103 60:-0.911077 61:-0.911186 62:-0.91102 63:-0.910871 64:-0.91092 65:-0.910946 66:-0.910988 67:-0.911017 68:-0.910861 69:-0.9107 70:-0.910714 71:-0.910916 72:-0.911091 73:-0.910987 74:-0.910836 75:-0.910856 76:-0.910868 77:-0.91089 78:-0.91082 79:-0.910661 80:-0.910544 81:-0.910522 82:-0.91102 83:-0.91107 84:-0.909254 85:-0.907087 86:-0.90526 87:-0.903249 88:-0.901729 89:-0.899658 90:-0.897677 91:-0.896103 92:-0.89462 93:-0.893033 94:-0.891478 95:-0.889853 96:-0.888386 97:-0.886918 98:-0.885581 99:-0.884109 100:-0.882537 101:-0.880904 102:-0.879844 103:-0.878638 104:-0.879753 
2048 1:-0.999515 2:-0.996862 3:-0.998563 4:-0.999746 5:-0.831452 6:-0.839233 7:-0.837328 8:-0.837826 9:-0.838181 10:-0.839459 11:-0.840836 12:-0.876101 13:-0.904466 14:-0.91931 15:-0.933905 16:-0.938112 17:-0.930503 18:-0.926659 19:-0.920579 20:-0.916598 21:-0.923819 22:-0.936317 23:-0.945807 24:-0.95335 25:-0.955089 26:-0.95604 27:-0.958178 28:-0.962244 29:-0.966342 30:-0.97013 31:-0.973475 32:-0.976342 33:-0.979415 34:-0.98228 35:-0.984968 36:-0.987141 37:-0.989409 38:-0.991661 39:-0.993788 40:-0.995478 41:-0.996343 42:-0.996774 43:-0.9973 44:-0.9978 45:-0.998164 46:-0.998299 47:-0.998427 48:-0.99855 49:-0.998668 50:-0.998781 51:-0.998889 52:-0.998935 53:-0.998985 54:-0.99897 55:-0.999002 56:-0.999042 57:-0.99908 58:-0.999118 59:-0.999153 60:-0.999188 61:-0.999221 62:-0.999253 63:-0.999284 64:-0.999314 65:-0.999343 66:-0.999371 67:-0.999398 68:-0.999411 69:-0.999408 70:-0.999404 71:-0.999401 72:-0.999398 73:-0.999396 74:-0.999396 75:-0.999406 76:-0.999415 77:-0.999424 78:-0.999434 79:-0.999432 80:-0.999432 81:-0.999431 82:-0.999431 83:-0.998986 84:-0.996625 85:-0.994434 86:-0.992228 87:-0.990104 88:-0.9879 89:-0.985888 90:-0.983976 91:-0.982161 92:-0.980134 93:-0.978285 94:-0.976427 95:-0.974827 96:-0.972985 97:-0.971415 98:-0.969655 99:-0.968072 100:-0.966527 101:-0.964967 102:-0.963443 103:-0.961996 104:-0.962712 
2048 1:-0.999029 2:-0.990586 3:-0.996034 4:-0.999533 5:-0.831086 6:-0.838877 7:-0.836965 8:-0.837463 9:-0.837817 10:-0.839098 11:-0.840476 12:-0.875736 13:-0.904097 14:-0.918939 15:-0.933532 16:-0.937739 17:-0.930131 18:-0.926288 19:-0.920208 20:-0.916227 21:-0.923448 22:-0.935943 23:-0.945432 24:-0.952975 25:-0.954713 26:-0.955665 27:-0.957802 28:-0.961868 29:-0.965965 30:-0.969752 31:-0.973098 32:-0.975964 33:-0.979037 34:-0.981901 35:-0.984589 36:-0.986762 37:-0.98903 38:-0.991281 39:-0.993408 40:-0.995104 41:-0.996008 42:-0.996477 43:-0.997039 44:-0.997573 45:-0.997968 46:-0.998135 47:-0.998292 48:-0.998443 49:-0.998587 50:-0.998725 51:-0.998858 52:-0.998928 53:-0.998973 54:-0.99895 55:-0.998976 56:-0.999009 57:-0.999041 58:-0.999072 59:-0.999101 60:-0.99913 61:-0.999158 62:-0.999184 63:-0.99921 64:-0.999235 65:-0.999259 66:-0.999282 67:-0.999305 68:-0.999313 69:-0.999305 70:-0.999298 71:-0.999291 72:-0.999284 73:-0.999277 74:-0.999274 75:-0.99928 76:-0.999286 77:-0.999292 78:-0.999298 79:-0.99929 80:-0.999297 81:-0.999304 82:-0.999307 83:-0.998864 84:-0.996509 85:-0.994325 86:-0.992113 87:-0.989978 88:-0.987762 89:-0.985748 90:-0.983843 91:-0.982034 92:-0.980013 93:-0.978161 94:-0.9763 95:-0.974703 96:-0.972874 97:-0.971317 98:-0.969566 99:-0.96798 100:-0.966432 101:-0.964871 102:-0.963359 103:-0.961924 104:-0.962651 
282.167519104698 1:-0.903199 2:-0.773013 3:-0.852161 4:-0.892961 5:-0.748427 6:-0.744525 7:-0.750454 8:-0.753425 9:-0.750735 10:-0.749008 11:-0.748887 12:-0.780811 13:-0.805859 14:-0.819407 15:-0.831935 16:-0.836007 17:-0.827433 18:-0.823813 19:-0.817293 20:-0.813407 21:-0.819597 22:-0.831085 23:-0.840126 24:-0.846646 25:-0.848493 26:-0.848959 27:-0.851344 28:-0.854972 29:-0.858654 30:-0.861871 31:-0.865497 32:-0.86784 33:-0.870755 34:-0.87312 35:-0.879812 36:-0.882232 37:-0.886444 38:-0.888978 39:-0.891697 40:-0.893381 41:-0.893864 42:-0.893837 43:-0.894333 44:-0.894403 45:-0.894856 46:-0.894881 47:-0.894567 48:-0.894781 49:-0.894941 50:-0.895391 51:-0.896269 52:-0.895942 53:-0.896785 54:-0.896429 55:-0.896373 56:-0.896225 57:-0.896125 58:-0.895861 59:-0.896015 60:-0.895874 61:-0.895707 62:-0.895658 63:-0.895429 64:-0.895834 65:-0.895594 66:-0.895447 67:-0.895232 68:-0.895367 69:-0.895527 70:-0.895293 71:-0.895233 72:-0.895004 73:-0.894947 74:-0.894946 75:-0.895409 76:-0.895195 77:-0.894989 78:-0.895104 79:-0.895048 80:-0.894877 81:-0.894933 82:-0.895089 83:-0.894983 84:-0.892988 85:-0.890857 86:-0.888567 87:-0.88637 88:-0.884226 89:-0.882451 90:-0.880454 91:-0.878692 92:-0.877125 93:-0.875829 94:-0.874406 95:-0.872715 96:-0.870922 97:-0.869862 98:-0.868497 99:-0.867549 100:-0.866377 101:-0.864764 102:-0.863399 103:-0.862502 104:-0.863136 
2048 1:-0.999417 2:-0.995816 3:-0.998544 4:-0.999743 5:-0.830075 6:-0.838908 7:-0.837341 8:-0.838011 9:-0.838469 10:-0.839815 11:-0.841138 12:-0.876366 13:-0.904702 14:-0.91952 15:-0.934095 16:-0.938284 17:-0.93066 18:-0.926802 19:-0.920711 20:-0.91672 21:-0.923933 22:-0.936423 23:-0.945907 24:-0.953445 25:-0.955177 26:-0.956124 27:-0.958257 28:-0.962319 29:-0.966412 30:-0.970196 31:-0.973539 32:-0.976403 33:-0.979473 34:-0.982335 35:-0.985021 36:-0.987191 37:-0.989457 38:-0.991707 39:-0.993832 40:-0.99552 41:-0.996382 42:-0.996812 43:-0.997337 44:-0.997835 45:-0.998197 46:-0.998331 47:-0.998458 48:-0.99858 49:-0.998696 50:-0.998808 51:-0.998915 52:-0.99896 53:-0.999009 54:-0.998992 55:-0.999024 56:-0.999063 57:-0.999101 58:-0.999137 59:-0.999172 60:-0.999205 61:-0.999238 62:-0.999269 63:-0.9993 64:-0.999329 65:-0.999357 66:-0.999384 67:-0.999411 68:-0.999423 69:-0.999419 70:-0.999416 71:-0.999412 72:-0.999409 73:-0.999405 74:-0.999405 75:-0.999414 76:-0.999423 77:-0.999432 78:-0.999441 79:-0.999431 80:-0.999422 81:-0.999422 82:-0.999422 83:-0.998978 84:-0.996617 85:-0.994426 86:-0.992221 87:-0.990098 88:-0.987894 89:-0.985882 90:-0.983971 91:-0.982156 92:-0.980136 93:-0.978287 94:-0.976428 95:-0.974828 96:-0.972986 97:-0.971416 98:-0.969656 99:-0.968072 100:-0.966527 101:-0.964967 102:-0.963442 103:-0.961995 104:-0.96271 
2048 1:-0.99932 2:-0.995816 3:-0.998544 4:-0.999741 5:-0.830077 6:-0.83891 7:-0.837344 8:-0.838014 9:-0.838472 10:-0.839814 11:-0.841135 12:-0.876364 13:-0.904699 14:-0.919518 15:-0.934093 16:-0.938282 17:-0.930658 18:-0.9268 19:-0.920709 20:-0.916717 21:-0.923931 22:-0.936421 23:-0.945904 24:-0.953442 25:-0.955175 26:-0.956121 27:-0.958254 28:-0.962316 29:-0.96641 30:-0.970194 31:-0.973536 32:-0.9764 33:-0.97947 34:-0.982333 35:-0.985018 36:-0.987189 37:-0.989455 38:-0.991704 39:-0.993829 40:-0.995517 41:-0.99638 42:-0.99681 43:-0.997334 44:-0.997833 45:-0.998195 46:-0.998329 47:-0.998455 48:-0.998577 49:-0.998694 50:-0.998805 51:-0.998912 52:-0.998958 53:-0.999006 54:-0.99899 55:-0.999022 56:-0.999061 57:-0.999098 58:-0.999134 59:-0.999169 60:-0.999203 61:-0.999236 62:-0.999267 63:-0.999297 64:-0.999326 65:-0.999355 66:-0.999382 67:-0.999409 68:-0.999421 69:-0.999417 70:-0.999413 71:-0.99941 72:-0.999406 73:-0.999403 74:-0.999402 75:-0.999412 76:-0.999421 77:-0.99943 78:-0.999438 79:-0.999429 80:-0.999419 81:-0.999418 82:-0.999419 83:-0.998974 84:-0.996613 85:-0.994423 86:-0.992217 87:-0.990094 88:-0.987891 89:-0.985878 90:-0.983968 91:-0.982152 92:-0.980133 93:-0.978284 94:-0.976426 95:-0.974826 96:-0.972983 97:-0.971413 98:-0.969653 99:-0.968069 100:-0.966524 101:-0.964964 102:-0.963439 103:-0.961993 104:-0.962708 
2048 1:-0.999126 2:-0.990586 3:-0.996378 4:-0.999532 5:-0.830418 6:-0.839242 7:-0.837682 8:-0.838037 9:-0.838277 10:-0.839478 11:-0.840801 12:-0.876024 13:-0.904356 14:-0.919173 15:-0.933746 16:-0.937935 17:-0.930311 18:-0.926455 19:-0.920363 20:-0.916373 21:-0.923585 22:-0.936074 23:-0.945556 24:-0.953092 25:-0.954825 26:-0.955772 27:-0.957905 28:-0.961966 29:-0.966059 30:-0.969843 31:-0.973188 32:-0.976103 33:-0.979222 34:-0.982129 35:-0.984813 36:-0.986979 37:-0.98924 38:-0.991485 39:-0.993606 40:-0.995291 41:-0.99615 42:-0.996576 43:-0.997098 44:-0.997593 45:-0.997952 46:-0.998084 47:-0.998243 48:-0.998395 49:-0.99854 50:-0.99868 51:-0.998813 52:-0.998884 53:-0.998957 54:-0.998964 55:-0.999018 56:-0.999054 57:-0.999085 58:-0.999115 59:-0.999164 60:-0.999218 61:-0.99927 62:-0.999303 63:-0.999327 64:-0.99935 65:-0.999385 66:-0.99943 67:-0.999473 68:-0.999492 69:-0.999481 70:-0.999471 71:-0.999462 72:-0.999452 73:-0.999443 74:-0.999437 75:-0.999441 76:-0.999445 77:-0.999448 78:-0.999452 79:-0.999438 80:-0.999423 81:-0.999409 82:-0.999395 83:-0.998937 84:-0.996562 85:-0.994359 86:-0.992141 87:-0.990006 88:-0.98779 89:-0.985766 90:-0.983844 91:-0.982017 92:-0.979987 93:-0.978136 94:-0.976275 95:-0.974678 96:-0.972849 97:-0.971293 98:-0.969543 99:-0.967956 100:-0.966409 101:-0.964848 102:-0.963336 103:-0.961901 104:-0.962628 
414.9197806144559 1:-0.885626 2:-0.851464 3:-0.885997 4:-0.900509 5:-0.75687 6:-0.772317 7:-0.758205 8:-0.760556 9:-0.760487 10:-0.757682 11:-0.758537 12:-0.789777 13:-0.815002 14:-0.828669 15:-0.842689 16:-0.845433 17:-0.837737 18:-0.833097 19:-0.826449 20:-0.822438 21:-0.828711 22:-0.840904 23:-0.849384 24:-0.856541 25:-0.858181 26:-0.858652 27:-0.860264 28:-0.864501 29:-0.86803 30:-0.871721 31:-0.87455 32:-0.877329 33:-0.879999 34:-0.882743 35:-0.885805 36:-0.887608 37:-0.88948 38:-0.891885 39:-0.893891 40:-0.896022 41:-0.897064 42:-0.897825 43:-0.898742 44:-0.900445 45:-0.902401 46:-0.90221 47:-0.902232 48:-0.902307 49:-0.902513 50:-0.902336 51:-0.902419 52:-0.902174 53:-0.902204 54:-0.90217 55:-0.902001 56:-0.902028 57:-0.901793 58:-0.901823 59:-0.901632 60:-0.901667 61:-0.901695 62:-0.901517 63:-0.901417 64:-0.901455 65:-0.901288 66:-0.901323 67:-0.901355 68:-0.901192 69:-0.901118 70:-0.90095 71:-0.901127 72:-0.900959 73:-0.901127 74:-0.901136 75:-0.901149 76:-0.900995 77:-0.900847 78:-0.900863 79:-0.900854 80:-0.900816 81:-0.900637 82:-0.900639 83:-0.90008 84:-0.897841 85:-0.895733 86:-0.893525 87:-0.891496 88:-0.889269 89:-0.887374 90:-0.88553 91:-0.883819 92:-0.881995 93:-0.881791 94:-0.880382 95:-0.879647 96:-0.877757 97:-0.876251 98:-0.874701 99:-0.873518 100:-0.872234 101:-0.870774 102:-0.869343 103:-0.868012 104:-0.868734 
134.080605730236 1:-0.895529 2:-0.682008 3:-0.727855 4:-0.879163 5:-0.741689 6:-0.745454 7:-0.732427 8:-0.725062 9:-0.723359 10:-0.723668 11:-0.722696 12:-0.755992 13:-0.782411 14:-0.79489 15:-0.809375 16:-0.812617 17:-0.80492 18:-0.80173 19:-0.795212 20:-0.790993 21:-0.797545 22:-0.809434 23:-0.817798 24:-0.82449 25:-0.826223 26:-0.82724 27:-0.8295 28:-0.83329 29:-0.836937 30:-0.840561 31:-0.844274 32:-0.847317 33:-0.850462 34:-0.857753 35:-0.860444 36:-0.862732 37:-0.864502 38:-0.866399 39:-0.86807 40:-0.869488 41:-0.870317 42:-0.870536 43:-0.870743 44:-0.871249 45:-0.87153 46:-0.871366 47:-0.871342 48:-0.871282 49:-0.871072 50:-0.871134 51:-0.871194 52:-0.871168 53:-0.871179 54:-0.870898 55:-0.871143 56:-0.871213 57:-0.870944 58:-0.870741 59:-0.870742 60:-0.87076 61:-0.870751 62:-0.870753 63:-0.870768 64:-0.870791 65:-0.870601 66:-0.870823 67:-0.871433 68:-0.873915 69:-0.875354 70:-0.876051 71:-0.877449 72:-0.878552 73:-0.880797 74:-0.881834 75:-0.882152 76:-0.882835 77:-0.88369 78:-0.886234 79:-0.887266 80:-0.889117 81:-0.889366 82:-0.888955 83:-0.88947 84:-0.886977 85:-0.884759 86:-0.882422 87:-0.881233 88:-0.879626 89:-0.877481 90:-0.875773 91:-0.873688 92:-0.871533 93:-0.869436 94:-0.867466 95:-0.865886 96:-0.863939 97:-0.862253 98:-0.860382 99:-0.859187 100:-0.858766 101:-0.857747 102:-0.856843 103:-0.855417 104:-0.856734 
39.41304597850242 1:-0.882616 2:-0.644351 3:-0.677345 4:-0.856344 5:-0.797116 6:-0.765249 7:-0.736516 8:-0.733368 9:-0.722234 10:-0.718823 11:-0.716478 12:-0.74669 13:-0.771386 14:-0.78228 15:-0.79468 16:-0.797491 17:-0.789654 18:-0.784464 19:-0.777506 20:-0.773222 21:-0.779886 22:-0.79047 23:-0.799436 24:-0.805997 25:-0.807018 26:-0.808016 27:-0.809773 28:-0.813809 29:-0.817422 30:-0.82498 31:-0.82976 32:-0.83177 33:-0.834299 34:-0.837152 35:-0.839304 36:-0.840701 37:-0.842169 38:-0.844329 39:-0.845714 40:-0.847623 41:-0.848201 42:-0.848189 43:-0.848766 44:-0.848866 45:-0.849232 46:-0.848982 47:-0.848786 48:-0.848737 49:-0.848781 50:-0.848549 51:-0.848725 52:-0.848605 53:-0.848297 54:-0.848327 55:-0.848311 56:-0.848245 57:-0.848094 58:-0.848564 59:-0.852688 60:-0.855498 61:-0.855912 62:-0.85753 63:-0.85936 64:-0.862224 65:-0.864593 66:-0.866313 67:-0.867842 68:-0.868251 69:-0.868522 70:-0.868133 71:-0.867717 72:-0.867892 73:-0.867611 74:-0.868008 75:-0.86766 76:-0.867687 77:-0.867488 78:-0.867081 79:-0.866582 80:-0.866757 81:-0.868037 82:-0.868056 83:-0.867351 84:-0.864827 85:-0.862473 86:-0.860107 87:-0.858688 88:-0.857407 89:-0.857059 90:-0.856783 91:-0.854762 92:-0.852588 93:-0.850424 94:-0.848391 95:-0.846725 96:-0.844718 97:-0.842971 98:-0.841464 99:-0.84104 100:-0.839947 101:-0.8385 102:-0.836911 103:-0.835523 104:-0.836636 
11.11652558273745 1:-0.942521 2:-0.868201 3:-0.90073 4:-0.926432 5:-0.767303 6:-0.771479 7:-0.780596 8:-0.780895 9:-0.787042 10:-0.784069 11:-0.78239 12:-0.816494 13:-0.84201 14:-0.854711 15:-0.868582 16:-0.871456 17:-0.863415 18:-0.858806 19:-0.852593 20:-0.848016 21:-0.854325 22:-0.865862 23:-0.875748 24:-0.882783 25:-0.883962 26:-0.884759 27:-0.886772 28:-0.890524 29:-0.894143 30:-0.897829 31:-0.900742 32:-0.903693 33:-0.906385 34:-0.908862 35:-0.911637 36:-0.913507 37:-0.915732 38:-0.917667 39:-0.919496 40:-0.921266 41:-0.921899 42:-0.922431 43:-0.922752 44:-0.923227 45:-0.923412 46:-0.923976 47:-0.925962 48:-0.927804 49:-0.927821 50:-0.927694 51:-0.927577 52:-0.927629 53:-0.927936 54:-0.927939 55:-0.928223 56:-0.928053 57:-0.927858 58:-0.927914 59:-0.928053 60:-0.927901 61:-0.928147 62:-0.92799 63:-0.928237 64:-0.928286 65:-0.928133 66:-0.927992 67:-0.927856 68:-0.927919 69:-0.927919 70:-0.927762 71:-0.927779 72:-0.927625 73:-0.927701 74:-0.927724 75:-0.92759 76:-0.927614 77:-0.9276 78:-0.927472 79:-0.927325 80:-0.927364 81:-0.927206 82:-0.927074 83:-0.926667 84:-0.924265 85:-0.922034 86:-0.920157 87:-0.917995 88:-0.915909 89:-0.913859 90:-0.912109 91:-0.91035 92:-0.908336 93:-0.906453 94:-0.904691 95:-0.90305 96:-0.901347 97:-0.899739 98:-0.898418 99:-0.897769 100:-0.896475 101:-0.895334 102:-0.894537 103:-0.893172 104:-0.894183 
121.6271202280457 1:-0.910578 2:-0.813808 3:-0.891239 4:-0.926069 5:-0.766364 6:-0.779407 7:-0.782501 8:-0.785257 9:-0.787079 10:-0.783945 11:-0.78277 12:-0.815601 13:-0.84161 14:-0.854254 15:-0.867844 16:-0.871073 17:-0.863168 18:-0.858509 19:-0.852099 20:-0.847772 21:-0.854302 22:-0.866037 23:-0.874906 24:-0.881856 25:-0.883032 26:-0.883768 27:-0.88584 28:-0.889778 29:-0.893569 30:-0.897065 31:-0.900137 32:-0.90275 33:-0.906209 34:-0.908946 35:-0.911261 36:-0.913398 37:-0.915458 38:-0.917372 39:-0.919821 40:-0.921428 41:-0.922155 42:-0.922471 43:-0.922883 44:-0.923547 45:-0.926764 46:-0.928224 47:-0.928494 48:-0.930329 49:-0.930216 50:-0.930214 51:-0.930555 52:-0.930606 53:-0.930455 54:-0.930248 55:-0.930122 56:-0.930144 57:-0.929978 58:-0.930351 59:-0.930336 60:-0.930529 61:-0.930585 62:-0.930522 63:-0.930485 64:-0.93035 65:-0.930222 66:-0.930179 67:-0.930351 68:-0.930221 69:-0.930083 70:-0.930017 71:-0.929868 72:-0.929915 73:-0.929943 74:-0.930075 75:-0.93008 76:-0.930182 77:-0.93009 78:-0.929977 79:-0.930023 80:-0.929981 81:-0.929861 82:-0.929776 83:-0.929406 84:-0.926955 85:-0.925168 86:-0.923033 87:-0.920876 88:-0.918636 89:-0.916752 90:-0.914746 91:-0.912999 92:-0.911438 93:-0.909607 94:-0.90767 95:-0.906179 96:-0.904309 97:-0.902753 98:-0.900968 99:-0.899353 100:-0.898106 101:-0.896512 102:-0.894957 103:-0.893524 104:-0.894395 
398.717552913988 1:-0.931065 2:-0.844142 3:-0.892278 4:-0.926017 5:-0.764075 6:-0.771497 7:-0.783144 8:-0.78157 9:-0.784808 10:-0.782794 11:-0.781791 12:-0.814975 13:-0.840599 14:-0.853341 15:-0.867232 16:-0.87014 17:-0.862656 18:-0.858038 19:-0.851815 20:-0.847349 21:-0.853642 22:-0.865911 23:-0.874551 24:-0.881733 25:-0.882917 26:-0.883971 27:-0.885737 28:-0.889304 29:-0.893477 30:-0.896803 31:-0.900054 32:-0.902509 33:-0.905523 34:-0.908379 35:-0.91076 36:-0.912628 37:-0.914922 38:-0.916917 39:-0.91874 40:-0.920504 41:-0.921132 42:-0.92166 43:-0.922033 44:-0.922447 45:-0.925159 46:-0.925423 47:-0.925272 48:-0.925378 49:-0.925275 50:-0.925726 51:-0.925877 52:-0.925876 53:-0.925965 54:-0.926062 55:-0.925913 56:-0.927542 57:-0.927556 58:-0.92828 59:-0.928094 60:-0.92813 61:-0.928113 62:-0.92794 63:-0.927978 64:-0.927936 65:-0.927962 66:-0.928127 67:-0.928046 68:-0.928062 69:-0.927888 70:-0.927891 71:-0.927979 72:-0.927808 73:-0.927642 74:-0.927652 75:-0.927506 76:-0.927358 77:-0.927486 78:-0.927347 79:-0.927496 80:-0.927368 81:-0.927199 82:-0.927166 83:-0.926746 84:-0.924475 85:-0.922229 86:-0.920126 87:-0.91809 88:-0.915968 89:-0.914087 90:-0.91235 91:-0.910622 92:-0.908543 93:-0.907143 94:-0.905629 95:-0.904568 96:-0.903158 97:-0.902058 98:-0.900566 99:-0.899142 100:-0.897571 101:-0.895937 102:-0.894479 103:-0.893185 104:-0.894279 
