svm_type c_svc
kernel_type rbf
gamma 0.5
nr_class 2
total_sv 121
rho 157.259
distance 329.296
label 42 -1
nr_sv 61 60
SV
2045.365228800364 1:-0.992718 2:-0.972803 3:-0.987451 4:-0.992876 5:-0.826191 6:-0.832982 7:-0.830575 8:-0.83292 9:-0.834523 10:-0.835185 11:-0.836122 12:-0.870971 13:-0.899007 14:-0.913599 15:-0.927988 16:-0.932041 17:-0.924322 18:-0.920388 19:-0.91421 20:-0.910164 21:-0.917293 22:-0.92973 23:-0.939339 24:-0.946795 25:-0.948471 26:-0.949375 27:-0.951463 28:-0.955586 29:-0.959983 30:-0.963708 31:-0.967067 32:-0.969877 33:-0.972898 34:-0.975863 35:-0.978499 36:-0.980627 37:-0.98294 38:-0.98558 39:-0.987652 40:-0.989287 41:-0.990106 42:-0.990495 43:-0.990981 44:-0.991442 45:-0.99177 46:-0.991871 47:-0.991963 48:-0.992055 49:-0.992143 50:-0.992227 51:-0.992309 52:-0.992348 53:-0.992447 54:-0.992406 55:-0.992416 56:-0.992433 57:-0.992445 58:-0.992461 59:-0.992475 60:-0.99249 61:-0.992504 62:-0.992595 63:-0.992608 64:-0.992703 65:-0.99285 66:-0.992857 67:-0.992864 68:-0.992929 69:-0.992975 70:-0.992951 71:-0.992928 72:-0.992905 73:-0.992883 74:-0.992865 75:-0.992857 76:-0.992848 77:-0.99284 78:-0.992832 79:-0.992807 80:-0.992784 81:-0.992757 82:-0.992733 83:-0.992267 84:-0.990064 85:-0.987961 86:-0.985738 87:-0.983598 88:-0.981377 89:-0.979349 90:-0.977422 91:-0.975591 92:-0.973557 93:-0.971701 94:-0.969836 95:-0.968279 96:-0.96643 97:-0.964854 98:-0.963088 99:-0.961498 100:-0.959947 101:-0.958382 102:-0.956883 103:-0.955593 104:-0.956409 
2048 1:-0.987961 2:-0.970711 3:-0.986742 4:-0.992621 5:-0.830299 6:-0.834836 7:-0.831736 8:-0.83425 9:-0.835101 10:-0.835615 11:-0.836448 12:-0.871222 13:-0.8992 14:-0.913743 15:-0.928723 16:-0.93284 17:-0.925033 18:-0.921025 19:-0.914785 20:-0.910961 21:-0.918028 22:-0.930374 23:-0.939733 24:-0.947381 25:-0.949016 26:-0.94988 27:-0.951933 28:-0.955915 29:-0.959935 30:-0.96365 31:-0.966928 32:-0.969732 33:-0.972747 34:-0.975555 35:-0.978209 36:-0.980868 37:-0.983079 38:-0.985271 39:-0.987342 40:-0.988978 41:-0.989796 42:-0.990185 43:-0.990671 44:-0.991132 45:-0.99146 46:-0.991562 47:-0.99176 48:-0.991849 49:-0.991935 50:-0.992017 51:-0.992193 52:-0.992209 53:-0.992231 54:-0.992189 55:-0.992196 56:-0.992211 57:-0.992222 58:-0.992236 59:-0.992249 60:-0.992263 61:-0.99244 62:-0.992523 63:-0.992531 64:-0.992539 65:-0.992695 66:-0.992699 67:-0.992704 68:-0.992694 69:-0.99267 70:-0.992646 71:-0.992623 72:-0.9926 73:-0.992578 74:-0.99256 75:-0.992552 76:-0.992543 77:-0.992597 78:-0.992589 79:-0.992562 80:-0.99276 81:-0.992742 82:-0.992714 83:-0.992244 84:-0.989865 85:-0.987657 86:-0.985442 87:-0.983349 88:-0.981128 89:-0.979099 90:-0.977171 91:-0.97534 92:-0.973305 93:-0.971449 94:-0.969634 95:-0.968027 96:-0.966178 97:-0.964601 98:-0.962871 99:-0.961456 100:-0.96001 101:-0.95844 102:-0.956906 103:-0.95545 104:-0.956194 
2048 1:-0.992912 2:-0.970711 3:-0.986359 4:-0.992581 5:-0.825829 6:-0.83263 7:-0.830217 8:-0.83322 9:-0.834991 10:-0.835514 11:-0.836352 12:-0.87113 13:-0.89911 14:-0.913655 15:-0.928006 16:-0.932027 17:-0.92428 18:-0.920323 19:-0.914126 20:-0.910062 21:-0.917175 22:-0.92981 23:-0.939194 24:-0.946638 25:-0.948304 26:-0.949199 27:-0.951715 28:-0.95576 29:-0.959783 30:-0.963548 31:-0.967013 32:-0.969811 33:-0.972979 34:-0.975777 35:-0.978403 36:-0.980522 37:-0.982795 38:-0.985071 39:-0.98728 40:-0.989266 41:-0.990088 42:-0.990468 43:-0.990945 44:-0.991398 45:-0.991717 46:-0.991811 47:-0.991895 48:-0.99198 49:-0.992061 50:-0.99214 51:-0.992312 52:-0.992324 53:-0.992342 54:-0.992296 55:-0.9923 56:-0.992312 57:-0.99232 58:-0.992331 59:-0.992341 60:-0.992351 61:-0.992361 62:-0.99237 63:-0.992379 64:-0.992437 65:-0.992556 66:-0.992699 67:-0.992703 68:-0.992692 69:-0.992783 70:-0.992781 71:-0.992754 72:-0.992729 73:-0.992704 74:-0.992683 75:-0.992672 76:-0.992661 77:-0.99265 78:-0.99264 79:-0.992611 80:-0.992587 81:-0.992558 82:-0.992532 83:-0.992063 84:-0.989776 85:-0.9877 86:-0.985476 87:-0.983335 88:-0.981113 89:-0.979084 90:-0.977156 91:-0.975324 92:-0.973289 93:-0.971432 94:-0.969568 95:-0.968009 96:-0.966159 97:-0.964582 98:-0.962816 99:-0.961225 100:-0.959673 101:-0.958153 102:-0.956667 103:-0.955309 104:-0.956177 
2048 1:-0.989126 2:-0.974895 3:-0.986762 4:-0.992322 5:-0.829417 6:-0.838835 7:-0.83581 8:-0.834658 9:-0.835474 10:-0.836807 11:-0.837423 12:-0.8726 13:-0.900405 14:-0.914804 15:-0.929033 16:-0.932949 17:-0.925111 18:-0.921075 19:-0.914812 20:-0.910689 21:-0.917752 22:-0.930096 23:-0.939452 24:-0.947099 25:-0.948732 26:-0.949596 27:-0.951647 28:-0.955628 29:-0.959687 30:-0.9637 31:-0.966965 32:-0.969756 33:-0.97276 34:-0.975557 35:-0.978183 36:-0.980488 37:-0.98306 38:-0.985244 39:-0.987468 40:-0.989303 41:-0.990104 42:-0.990477 43:-0.990947 44:-0.991394 45:-0.991708 46:-0.991796 47:-0.991875 48:-0.991955 49:-0.992031 50:-0.992105 51:-0.992179 52:-0.99228 53:-0.992294 54:-0.992244 55:-0.992244 56:-0.992253 57:-0.992257 58:-0.992265 59:-0.992271 60:-0.992279 61:-0.992286 62:-0.992291 63:-0.992299 64:-0.992524 65:-0.992601 66:-0.992603 67:-0.992813 68:-0.992797 69:-0.992766 70:-0.992737 71:-0.992707 72:-0.992679 73:-0.992651 74:-0.992627 75:-0.992614 76:-0.9926 77:-0.992587 78:-0.992574 79:-0.992604 80:-0.992576 81:-0.992544 82:-0.992515 83:-0.992044 84:-0.989664 85:-0.987454 86:-0.98523 87:-0.98309 88:-0.980868 89:-0.97884 90:-0.976912 91:-0.97508 92:-0.973045 93:-0.971239 94:-0.969373 95:-0.967766 96:-0.965917 97:-0.96434 98:-0.962574 99:-0.960983 100:-0.959432 101:-0.957865 102:-0.956374 103:-0.955016 104:-0.955888 
2048 1:-0.992621 2:-0.971757 3:-0.985344 4:-0.992314 5:-0.829906 6:-0.834454 7:-0.834335 8:-0.835542 9:-0.834712 10:-0.835952 11:-0.836681 12:-0.87138 13:-0.899298 14:-0.913792 15:-0.9281 16:-0.932086 17:-0.924309 18:-0.920326 19:-0.914106 20:-0.910023 21:-0.917118 22:-0.929488 23:-0.93887 24:-0.946539 25:-0.948193 26:-0.949489 27:-0.951663 28:-0.956068 29:-0.960066 30:-0.963935 31:-0.967187 32:-0.969968 33:-0.972961 34:-0.975748 35:-0.978365 36:-0.980475 37:-0.982877 38:-0.985589 39:-0.987829 40:-0.98944 41:-0.990235 42:-0.990601 43:-0.991066 44:-0.991508 45:-0.991816 46:-0.9919 47:-0.991974 48:-0.992049 49:-0.992121 50:-0.992191 51:-0.992258 52:-0.992263 53:-0.992275 54:-0.992224 55:-0.992223 56:-0.992318 57:-0.992319 58:-0.992408 59:-0.992411 60:-0.992521 61:-0.992657 62:-0.992655 63:-0.992653 64:-0.992729 65:-0.992725 66:-0.992723 67:-0.992981 68:-0.992982 69:-0.992947 70:-0.992913 71:-0.992879 72:-0.992847 73:-0.992815 74:-0.992788 75:-0.992771 76:-0.992753 77:-0.992737 78:-0.992721 79:-0.992687 80:-0.992656 81:-0.992622 82:-0.992591 83:-0.992118 84:-0.989735 85:-0.987523 86:-0.985297 87:-0.983155 88:-0.980931 89:-0.978901 90:-0.976971 91:-0.975137 92:-0.9731 93:-0.971293 94:-0.969425 95:-0.967816 96:-0.965965 97:-0.964387 98:-0.962619 99:-0.961027 100:-0.959554 101:-0.957996 102:-0.956547 103:-0.955268 104:-0.955968 
2048 1:-0.99233 2:-0.970711 3:-0.984902 4:-0.991692 5:-0.833662 6:-0.835966 7:-0.832159 8:-0.833157 9:-0.83416 10:-0.834665 11:-0.83549 12:-0.870242 13:-0.898202 14:-0.912734 15:-0.927074 16:-0.931089 17:-0.92334 18:-0.919382 19:-0.913181 20:-0.909395 21:-0.916487 22:-0.928852 23:-0.93823 24:-0.945669 25:-0.947333 26:-0.948227 27:-0.950305 28:-0.954842 29:-0.959063 30:-0.962769 31:-0.966039 32:-0.968835 33:-0.971844 34:-0.97494 35:-0.977847 36:-0.979951 37:-0.982152 38:-0.984552 39:-0.98692 40:-0.988537 41:-0.989338 42:-0.989711 43:-0.990181 44:-0.990628 45:-0.990941 46:-0.99103 47:-0.991108 48:-0.991188 49:-0.991264 50:-0.991437 51:-0.991506 52:-0.991513 53:-0.991527 54:-0.991477 55:-0.991478 56:-0.991486 57:-0.99149 58:-0.991583 59:-0.991797 60:-0.991838 61:-0.992075 62:-0.992072 63:-0.992069 64:-0.992067 65:-0.992063 66:-0.992191 67:-0.992313 68:-0.992293 69:-0.992278 70:-0.99225 71:-0.992285 72:-0.992251 73:-0.992219 74:-0.99219 75:-0.992172 76:-0.992154 77:-0.992136 78:-0.992119 79:-0.992084 80:-0.992053 81:-0.992018 82:-0.991986 83:-0.991512 84:-0.98913 85:-0.986918 86:-0.984747 87:-0.982603 88:-0.980379 89:-0.978348 90:-0.976417 91:-0.974583 92:-0.972545 93:-0.970686 94:-0.968819 95:-0.96721 96:-0.965359 97:-0.96378 98:-0.962013 99:-0.96042 100:-0.958867 101:-0.957299 102:-0.95579 103:-0.954477 104:-0.955362 
2048 1:-0.991844 2:-0.967573 3:-0.983907 4:-0.991646 5:-0.833556 6:-0.835862 7:-0.832349 8:-0.833205 9:-0.834054 10:-0.83456 11:-0.835385 12:-0.870135 13:-0.898095 14:-0.912626 15:-0.926965 16:-0.930981 17:-0.923232 18:-0.919274 19:-0.91337 20:-0.909287 21:-0.916378 22:-0.928743 23:-0.938121 24:-0.94556 25:-0.947224 26:-0.948118 27:-0.950909 28:-0.954933 29:-0.958944 30:-0.96265 31:-0.96592 32:-0.968863 33:-0.972031 34:-0.974822 35:-0.977442 36:-0.979556 37:-0.981764 38:-0.983959 39:-0.986033 40:-0.98767 41:-0.988491 42:-0.988884 43:-0.989372 44:-0.989962 45:-0.990713 46:-0.990804 47:-0.990885 48:-0.991176 49:-0.99125 50:-0.991321 51:-0.99139 52:-0.991398 53:-0.991411 54:-0.991362 55:-0.991362 56:-0.991645 57:-0.991679 58:-0.991801 59:-0.99212 60:-0.992114 61:-0.992108 62:-0.992102 63:-0.992097 64:-0.992092 65:-0.992161 66:-0.992155 67:-0.99215 68:-0.99213 69:-0.99212 70:-0.992138 71:-0.992339 72:-0.992328 73:-0.992292 74:-0.992261 75:-0.992241 76:-0.99222 77:-0.9922 78:-0.992181 79:-0.992143 80:-0.99211 81:-0.992073 82:-0.992038 83:-0.991675 84:-0.989289 85:-0.987073 86:-0.984844 87:-0.982697 88:-0.980471 89:-0.978437 90:-0.976504 91:-0.974667 92:-0.972628 93:-0.970766 94:-0.968897 95:-0.967291 96:-0.965481 97:-0.9639 98:-0.96213 99:-0.960535 100:-0.95898 101:-0.957409 102:-0.955875 103:-0.95449 104:-0.955376 
2048 1:-0.991456 2:-0.968619 3:-0.983868 4:-0.99151 5:-0.82901 6:-0.833582 7:-0.830459 8:-0.833459 9:-0.833916 10:-0.834423 11:-0.835249 12:-0.869997 13:-0.897955 14:-0.912485 15:-0.926824 16:-0.930839 17:-0.923091 18:-0.919134 19:-0.913083 20:-0.909147 21:-0.916238 22:-0.928602 23:-0.937979 24:-0.945417 25:-0.947081 26:-0.947975 27:-0.950818 28:-0.954791 29:-0.958801 30:-0.962507 31:-0.965777 32:-0.968573 33:-0.971582 34:-0.974383 35:-0.977076 36:-0.979412 37:-0.98162 38:-0.983815 39:-0.985889 40:-0.987526 41:-0.988347 42:-0.988739 43:-0.989345 44:-0.989914 45:-0.990569 46:-0.99066 47:-0.990741 48:-0.990927 49:-0.991004 50:-0.991077 51:-0.991149 52:-0.991158 53:-0.991174 54:-0.991218 55:-0.991218 56:-0.991227 57:-0.991515 58:-0.991621 59:-0.991918 60:-0.991974 61:-0.991968 62:-0.991962 63:-0.991957 64:-0.992029 65:-0.992022 66:-0.992016 67:-0.99201 68:-0.99199 69:-0.992048 70:-0.992193 71:-0.992156 72:-0.992188 73:-0.992152 74:-0.992121 75:-0.9921 76:-0.99208 77:-0.992059 78:-0.99204 79:-0.992003 80:-0.99197 81:-0.991932 82:-0.991898 83:-0.991422 84:-0.989094 85:-0.98688 86:-0.984651 87:-0.982506 88:-0.98028 89:-0.978247 90:-0.976315 91:-0.974479 92:-0.97244 93:-0.970579 94:-0.96871 95:-0.9671 96:-0.965247 97:-0.963667 98:-0.961898 99:-0.960305 100:-0.95875 101:-0.957181 102:-0.955655 103:-0.954351 104:-0.95524 
2048 1:-0.99 2:-0.964435 3:-0.982048 4:-0.991405 5:-0.833202 6:-0.835518 7:-0.8327 8:-0.835591 9:-0.834531 10:-0.83562 11:-0.836241 12:-0.870852 13:-0.898699 14:-0.913137 15:-0.927399 16:-0.931348 17:-0.923543 18:-0.919537 19:-0.913294 20:-0.909193 21:-0.916531 22:-0.928869 23:-0.938221 24:-0.945637 25:-0.94728 26:-0.948155 27:-0.950858 28:-0.954947 29:-0.958943 30:-0.962635 31:-0.965892 32:-0.968715 33:-0.971831 34:-0.974616 35:-0.977807 36:-0.980037 37:-0.982359 38:-0.984526 39:-0.986828 40:-0.988434 41:-0.989224 42:-0.989587 43:-0.990049 44:-0.990487 45:-0.990792 46:-0.990873 47:-0.990944 48:-0.991016 49:-0.991086 50:-0.991252 51:-0.991315 52:-0.991316 53:-0.991324 54:-0.991269 55:-0.991264 56:-0.991401 57:-0.991775 58:-0.991769 59:-0.991762 60:-0.991781 61:-0.991941 62:-0.992055 63:-0.992044 64:-0.992302 65:-0.992315 66:-0.992301 67:-0.992359 68:-0.992331 69:-0.992288 70:-0.992247 71:-0.992206 72:-0.992167 73:-0.992257 74:-0.992221 75:-0.992196 76:-0.992171 77:-0.992146 78:-0.992123 79:-0.992081 80:-0.992044 81:-0.992003 82:-0.991965 83:-0.991485 84:-0.989097 85:-0.98688 86:-0.984648 87:-0.9825 88:-0.980272 89:-0.978343 90:-0.976407 91:-0.974567 92:-0.972525 93:-0.970661 94:-0.968788 95:-0.967174 96:-0.965319 97:-0.963735 98:-0.961963 99:-0.960367 100:-0.95881 101:-0.957283 102:-0.955747 103:-0.954376 104:-0.955246 
2048 1:-0.984757 2:-0.959205 3:-0.975786 4:-0.98637 5:-0.818961 6:-0.834294 7:-0.829076 8:-0.82796 9:-0.82735 10:-0.828059 11:-0.829023 12:-0.863765 13:-0.891723 14:-0.906568 15:-0.921035 16:-0.92505 17:-0.917369 18:-0.914186 19:-0.90793 20:-0.903836 21:-0.910887 22:-0.923648 23:-0.933312 24:-0.940709 25:-0.943599 26:-0.944747 27:-0.946713 28:-0.95061 29:-0.954551 30:-0.958329 31:-0.96157 32:-0.964305 33:-0.967256 34:-0.970002 35:-0.97258 36:-0.974657 37:-0.976828 38:-0.978988 39:-0.981028 40:-0.98276 41:-0.983551 42:-0.983916 43:-0.984379 44:-0.984818 45:-0.985125 46:-0.985208 47:-0.985277 48:-0.985568 49:-0.986333 50:-0.986657 51:-0.986826 52:-0.986965 53:-0.987222 54:-0.987137 55:-0.987105 56:-0.987412 57:-0.987632 58:-0.987684 59:-0.987679 60:-0.988093 61:-0.988053 62:-0.988014 63:-0.987978 64:-0.987943 65:-0.987907 66:-0.987874 67:-0.987906 68:-0.987868 69:-0.987808 70:-0.98775 71:-0.987693 72:-0.987638 73:-0.98762 74:-0.9876 75:-0.987561 76:-0.987522 77:-0.987484 78:-0.987448 79:-0.987395 80:-0.987347 81:-0.987292 82:-0.987243 83:-0.986754 84:-0.984361 85:-0.982139 86:-0.980042 87:-0.977887 88:-0.975676 89:-0.973947 90:-0.972052 91:-0.970203 92:-0.968151 93:-0.966278 94:-0.964398 95:-0.962775 96:-0.96096 97:-0.959368 98:-0.957588 99:-0.955983 100:-0.954418 101:-0.952838 102:-0.951294 103:-0.949828 104:-0.950511 
832.8805587412247 1:-0.987475 2:-0.966527 3:-0.97996 4:-0.987538 5:-0.820385 6:-0.83365 7:-0.82911 8:-0.831501 9:-0.830465 10:-0.830872 11:-0.831625 12:-0.866253 13:-0.894118 14:-0.910579 15:-0.924692 16:-0.928526 17:-0.921499 18:-0.917354 19:-0.910985 20:-0.907313 21:-0.914255 22:-0.926481 23:-0.935736 24:-0.943062 25:-0.944631 26:-0.945441 27:-0.94744 28:-0.951369 29:-0.95552 30:-0.959182 31:-0.96241 32:-0.965168 33:-0.968141 34:-0.970907 35:-0.973504 36:-0.975836 37:-0.978064 38:-0.980366 39:-0.98241 40:-0.984394 41:-0.985181 42:-0.985853 43:-0.986901 44:-0.987314 45:-0.987596 46:-0.987655 47:-0.987702 48:-0.987755 49:-0.987804 50:-0.987853 51:-0.987998 52:-0.987982 53:-0.987973 54:-0.987903 55:-0.987884 56:-0.987873 57:-0.987857 58:-0.987847 59:-0.987836 60:-0.987853 61:-0.987978 62:-0.987966 63:-0.987955 64:-0.987945 65:-0.987934 66:-0.987924 67:-0.987914 68:-0.988028 69:-0.98813 70:-0.988159 71:-0.988118 72:-0.9882 73:-0.988359 74:-0.98832 75:-0.988291 76:-0.988263 77:-0.988235 78:-0.988209 79:-0.988164 80:-0.988126 81:-0.988081 82:-0.988099 83:-0.987617 84:-0.98523 85:-0.983014 86:-0.980784 87:-0.978638 88:-0.97641 89:-0.974377 90:-0.972443 91:-0.970606 92:-0.968668 93:-0.966805 94:-0.964934 95:-0.963321 96:-0.961467 97:-0.959884 98:-0.958114 99:-0.956518 100:-0.954962 101:-0.953391 102:-0.951855 103:-0.950473 104:-0.951442 
343.8717281048461 1:-0.989611 2:-0.966527 3:-0.97933 4:-0.987149 5:-0.817657 6:-0.834153 7:-0.830774 8:-0.831208 9:-0.830474 10:-0.830813 11:-0.831517 12:-0.867489 13:-0.896355 14:-0.910568 15:-0.924644 16:-0.928447 17:-0.920527 18:-0.916425 19:-0.91009 20:-0.905919 21:-0.912914 22:-0.925186 23:-0.934483 24:-0.942299 25:-0.943883 26:-0.944709 27:-0.946722 28:-0.950662 29:-0.954643 30:-0.958321 31:-0.96172 32:-0.965336 33:-0.968666 34:-0.971876 35:-0.974429 36:-0.976482 37:-0.978631 38:-0.98077 39:-0.982791 40:-0.984378 41:-0.985154 42:-0.985504 43:-0.985953 44:-0.986379 45:-0.986674 46:-0.986745 47:-0.98701 48:-0.987069 49:-0.987124 50:-0.987179 51:-0.987232 52:-0.987222 53:-0.987221 54:-0.987158 55:-0.987145 56:-0.98714 57:-0.98713 58:-0.987339 59:-0.987396 60:-0.987593 61:-0.987581 62:-0.987568 63:-0.987829 64:-0.987814 65:-0.98783 66:-0.987815 67:-0.987873 68:-0.988189 69:-0.98814 70:-0.988093 71:-0.988047 72:-0.988001 73:-0.987957 74:-0.987918 75:-0.98789 76:-0.987924 77:-0.987895 78:-0.987868 79:-0.987822 80:-0.987783 81:-0.987737 82:-0.987695 83:-0.987213 84:-0.984827 85:-0.982611 86:-0.980381 87:-0.978235 88:-0.976008 89:-0.974031 90:-0.972173 91:-0.970335 92:-0.968293 93:-0.96643 94:-0.964559 95:-0.962946 96:-0.961092 97:-0.959509 98:-0.957756 99:-0.956445 100:-0.954928 101:-0.953353 102:-0.951814 103:-0.950353 104:-0.951085 
2048 1:-0.993301 2:-0.978033 3:-0.988218 4:-0.992476 5:-0.825836 6:-0.832637 7:-0.830224 8:-0.833272 9:-0.834998 10:-0.835521 11:-0.836359 12:-0.871137 13:-0.899117 14:-0.913662 15:-0.928013 16:-0.932034 17:-0.924287 18:-0.920567 19:-0.914712 20:-0.910611 21:-0.917956 22:-0.930303 23:-0.939663 24:-0.947085 25:-0.948731 26:-0.949606 27:-0.951668 28:-0.955659 29:-0.959686 30:-0.963408 31:-0.967179 32:-0.969972 33:-0.972977 34:-0.975776 35:-0.978403 36:-0.980522 37:-0.982736 38:-0.984937 39:-0.987015 40:-0.988658 41:-0.989483 42:-0.989879 43:-0.990371 44:-0.990921 45:-0.991284 46:-0.991389 47:-0.991483 48:-0.991577 49:-0.991667 50:-0.991754 51:-0.991852 52:-0.991955 53:-0.991981 54:-0.991942 55:-0.991954 56:-0.991972 57:-0.991987 58:-0.992004 59:-0.99202 60:-0.992037 61:-0.992086 62:-0.992298 63:-0.992309 64:-0.99232 65:-0.992404 66:-0.992688 67:-0.992702 68:-0.992692 69:-0.992667 70:-0.992642 71:-0.992618 72:-0.992595 73:-0.992572 74:-0.992553 75:-0.992544 76:-0.992534 77:-0.992526 78:-0.992517 79:-0.992551 80:-0.992527 81:-0.992499 82:-0.992474 83:-0.992007 84:-0.98963 85:-0.987424 86:-0.985204 87:-0.983066 88:-0.980848 89:-0.978823 90:-0.976898 91:-0.975069 92:-0.973037 93:-0.971183 94:-0.969321 95:-0.967717 96:-0.965871 97:-0.964297 98:-0.962534 99:-0.960947 100:-0.959457 101:-0.957927 102:-0.956398 103:-0.955086 104:-0.955956 
2048 1:-0.992038 2:-0.969665 3:-0.986339 4:-0.992179 5:-0.834237 6:-0.840815 7:-0.835643 8:-0.83449 9:-0.834908 10:-0.835955 11:-0.836672 12:-0.871364 13:-0.899275 14:-0.913763 15:-0.928067 16:-0.932049 17:-0.924269 18:-0.920283 19:-0.914061 20:-0.909976 21:-0.91707 22:-0.929687 23:-0.939055 24:-0.946485 25:-0.948558 26:-0.949422 27:-0.951857 28:-0.955822 29:-0.959826 30:-0.963526 31:-0.966959 32:-0.969745 33:-0.973012 34:-0.976126 35:-0.978875 36:-0.980967 37:-0.983155 38:-0.985331 39:-0.987386 40:-0.989007 41:-0.989811 42:-0.990187 43:-0.990661 44:-0.991222 45:-0.991538 46:-0.991627 47:-0.991705 48:-0.991785 49:-0.991861 50:-0.991935 51:-0.992005 52:-0.992015 53:-0.99203 54:-0.991982 55:-0.991984 56:-0.991994 57:-0.992 58:-0.99201 59:-0.992018 60:-0.992026 61:-0.9921 62:-0.992199 63:-0.992205 64:-0.992362 65:-0.992364 66:-0.992366 67:-0.992411 68:-0.992634 69:-0.992603 70:-0.992573 71:-0.992543 72:-0.992515 73:-0.992487 74:-0.992463 75:-0.992449 76:-0.992435 77:-0.992422 78:-0.992409 79:-0.992379 80:-0.992351 81:-0.99232 82:-0.992292 83:-0.991821 84:-0.989499 85:-0.987289 86:-0.985065 87:-0.982925 88:-0.980703 89:-0.978675 90:-0.976747 91:-0.974915 92:-0.97288 93:-0.971024 94:-0.969209 95:-0.967602 96:-0.965752 97:-0.964175 98:-0.962409 99:-0.960819 100:-0.959267 101:-0.957701 102:-0.95617 103:-0.954893 104:-0.955769 
2048 1:-0.993301 2:-0.974895 3:-0.987796 4:-0.993318 5:-0.826655 6:-0.833434 7:-0.833189 8:-0.835595 9:-0.834984 10:-0.835643 11:-0.836579 12:-0.871434 13:-0.899969 14:-0.914517 15:-0.928869 16:-0.932889 17:-0.925138 18:-0.921177 19:-0.914979 20:-0.911291 21:-0.918538 22:-0.930901 23:-0.940725 24:-0.948592 25:-0.950207 26:-0.951052 27:-0.953088 28:-0.957056 29:-0.961063 30:-0.964766 31:-0.968033 32:-0.970826 33:-0.973832 34:-0.976631 35:-0.979258 36:-0.981378 37:-0.983593 38:-0.985794 39:-0.988003 40:-0.989643 41:-0.990465 42:-0.990857 43:-0.991346 44:-0.99181 45:-0.992141 46:-0.992354 47:-0.992446 48:-0.992538 49:-0.992625 50:-0.99271 51:-0.992791 52:-0.992811 53:-0.992836 54:-0.992797 55:-0.992808 56:-0.992827 57:-0.992862 58:-0.993112 59:-0.993123 60:-0.993135 61:-0.993395 62:-0.993462 63:-0.993468 64:-0.993473 65:-0.993477 66:-0.993482 67:-0.993486 68:-0.993477 69:-0.993452 70:-0.993429 71:-0.993405 72:-0.993383 73:-0.993361 74:-0.993348 75:-0.993398 76:-0.993389 77:-0.99338 78:-0.993372 79:-0.993345 80:-0.993321 81:-0.993294 82:-0.99327 83:-0.992802 84:-0.990426 85:-0.988219 86:-0.985998 87:-0.983861 88:-0.981642 89:-0.979616 90:-0.977691 91:-0.975862 92:-0.97383 93:-0.971976 94:-0.970114 95:-0.968509 96:-0.966663 97:-0.965089 98:-0.963325 99:-0.961738 100:-0.960189 101:-0.958659 102:-0.957285 103:-0.955985 104:-0.956838 
2048 1:-0.99233 2:-0.971757 3:-0.98498 4:-0.992767 5:-0.833485 6:-0.839164 7:-0.839267 8:-0.840284 9:-0.839465 10:-0.839235 11:-0.839544 12:-0.874691 13:-0.902667 14:-0.916886 15:-0.930966 16:-0.93475 17:-0.926796 18:-0.922659 19:-0.916314 20:-0.912115 21:-0.919119 22:-0.931412 23:-0.940939 24:-0.948779 25:-0.950349 26:-0.951154 27:-0.9534 28:-0.957812 29:-0.961759 30:-0.965408 31:-0.968624 32:-0.97137 33:-0.974332 34:-0.97709 35:-0.979679 36:-0.981762 37:-0.983943 38:-0.986112 39:-0.98816 40:-0.989775 41:-0.990646 42:-0.991177 43:-0.991638 44:-0.992077 45:-0.992382 46:-0.992463 47:-0.992535 48:-0.992607 49:-0.992677 50:-0.992744 51:-0.992809 52:-0.992812 53:-0.992822 54:-0.99286 55:-0.992855 56:-0.992858 57:-0.992858 58:-0.992861 59:-0.992992 60:-0.993184 61:-0.99318 62:-0.993177 63:-0.993174 64:-0.993172 65:-0.993244 66:-0.993355 67:-0.993518 68:-0.993497 69:-0.993461 70:-0.993425 71:-0.993391 72:-0.993358 73:-0.993325 74:-0.993297 75:-0.993278 76:-0.99326 77:-0.993243 78:-0.993226 79:-0.993192 80:-0.99316 81:-0.993125 82:-0.993093 83:-0.992677 84:-0.990292 85:-0.988078 86:-0.98585 87:-0.983706 88:-0.98148 89:-0.979448 90:-0.977516 91:-0.975681 92:-0.973643 93:-0.971783 94:-0.969914 95:-0.968304 96:-0.966452 97:-0.964873 98:-0.963152 99:-0.961558 100:-0.960047 101:-0.958481 102:-0.956947 103:-0.955586 104:-0.95645 
2048 1:-0.990485 2:-0.970711 3:-0.984597 4:-0.992539 5:-0.833736 6:-0.836774 7:-0.832983 8:-0.835437 9:-0.837467 10:-0.837539 11:-0.838061 12:-0.873177 13:-0.900933 14:-0.91616 15:-0.93028 16:-0.934223 17:-0.926521 18:-0.922387 19:-0.916043 20:-0.911845 21:-0.91885 22:-0.931142 23:-0.940452 24:-0.94783 25:-0.949433 26:-0.950268 27:-0.952893 28:-0.956988 29:-0.96098 30:-0.965141 31:-0.968365 32:-0.971253 33:-0.974526 34:-0.977269 35:-0.979844 36:-0.981914 37:-0.984082 38:-0.986239 39:-0.988277 40:-0.990009 41:-0.990793 42:-0.99115 43:-0.991605 44:-0.992038 45:-0.992338 46:-0.992413 47:-0.99248 48:-0.992548 49:-0.992613 50:-0.992676 51:-0.992737 52:-0.992736 53:-0.992836 54:-0.992777 55:-0.992768 56:-0.992768 57:-0.992765 58:-0.992765 59:-0.992764 60:-0.992764 61:-0.992763 62:-0.992763 63:-0.992954 64:-0.992991 65:-0.99302 66:-0.993224 67:-0.993334 68:-0.993311 69:-0.993274 70:-0.993238 71:-0.993202 72:-0.993168 73:-0.993134 74:-0.993105 75:-0.993086 76:-0.993067 77:-0.993048 78:-0.993031 79:-0.992995 80:-0.992963 81:-0.992935 82:-0.992953 83:-0.992477 84:-0.990092 85:-0.987878 86:-0.985649 87:-0.983504 88:-0.981278 89:-0.979245 90:-0.977313 91:-0.975478 92:-0.973439 93:-0.971578 94:-0.96971 95:-0.968099 96:-0.966247 97:-0.964667 98:-0.962898 99:-0.961305 100:-0.959751 101:-0.958229 102:-0.956831 103:-0.955546 104:-0.956242 
2048 1:-0.987863 2:-0.961297 3:-0.978159 4:-0.986212 5:-0.818947 6:-0.828496 7:-0.829062 8:-0.827946 9:-0.82821 10:-0.830178 11:-0.830831 12:-0.865369 13:-0.893163 14:-0.908698 15:-0.922924 16:-0.927649 17:-0.920006 18:-0.915868 19:-0.9095 20:-0.905303 21:-0.912271 22:-0.924517 23:-0.934028 24:-0.94136 25:-0.942939 26:-0.94376 27:-0.945768 28:-0.949703 29:-0.953679 30:-0.957352 31:-0.960591 32:-0.963684 33:-0.966656 34:-0.96942 35:-0.972016 36:-0.97411 37:-0.976297 38:-0.978472 39:-0.981151 40:-0.983374 41:-0.984396 42:-0.984738 43:-0.985179 44:-0.985598 45:-0.985886 46:-0.98595 47:-0.986002 48:-0.986163 49:-0.986215 50:-0.986266 51:-0.986316 52:-0.986303 53:-0.986299 54:-0.986324 55:-0.986307 56:-0.986299 57:-0.986284 58:-0.986275 59:-0.986266 60:-0.986259 61:-0.986251 62:-0.986243 63:-0.986237 64:-0.986231 65:-0.986532 66:-0.986724 67:-0.98671 68:-0.986754 69:-0.986848 70:-0.986805 71:-0.986861 72:-0.987023 73:-0.987131 74:-0.987089 75:-0.987121 76:-0.987088 77:-0.987056 78:-0.987025 79:-0.986977 80:-0.986935 81:-0.986886 82:-0.986841 83:-0.986389 84:-0.984026 85:-0.981808 86:-0.979576 87:-0.977428 88:-0.975199 89:-0.973163 90:-0.971228 91:-0.969389 92:-0.967347 93:-0.965484 94:-0.963713 95:-0.962098 96:-0.960242 97:-0.958658 98:-0.956886 99:-0.955289 100:-0.953731 101:-0.952159 102:-0.950622 103:-0.949299 104:-0.950205 
2048 1:-0.984077 2:-0.952929 3:-0.97498 4:-0.98561 5:-0.818151 6:-0.833504 7:-0.828272 8:-0.828249 9:-0.828294 10:-0.828708 11:-0.832578 12:-0.86729 13:-0.8948 14:-0.908975 15:-0.923428 16:-0.927177 17:-0.919215 18:-0.915078 19:-0.908709 20:-0.904791 21:-0.91174 22:-0.923968 23:-0.933226 24:-0.940781 25:-0.942348 26:-0.943159 27:-0.945158 28:-0.949272 29:-0.953232 30:-0.95689 31:-0.960116 32:-0.962871 33:-0.965842 34:-0.968605 35:-0.97193 36:-0.97495 37:-0.977088 38:-0.97935 39:-0.981356 40:-0.982928 41:-0.983692 42:-0.984152 43:-0.984586 44:-0.984999 45:-0.985393 46:-0.98545 47:-0.985494 48:-0.985543 49:-0.985591 50:-0.985638 51:-0.985735 52:-0.985762 53:-0.985753 54:-0.985681 55:-0.985661 56:-0.985648 57:-0.98563 58:-0.985788 59:-0.985773 60:-0.985759 61:-0.986034 62:-0.986271 63:-0.98625 64:-0.98623 65:-0.986209 66:-0.986263 67:-0.986598 68:-0.98677 69:-0.986714 70:-0.986729 71:-0.986743 72:-0.986947 73:-0.986891 74:-0.98684 75:-0.9868 76:-0.98676 77:-0.986721 78:-0.986684 79:-0.986629 80:-0.986641 81:-0.986585 82:-0.986534 83:-0.986043 84:-0.983649 85:-0.981426 86:-0.979189 87:-0.977036 88:-0.974803 89:-0.972763 90:-0.970925 91:-0.969081 92:-0.967033 93:-0.965165 94:-0.963288 95:-0.961669 96:-0.95981 97:-0.958222 98:-0.956464 99:-0.955176 100:-0.953651 101:-0.952071 102:-0.950527 103:-0.949061 104:-0.949788 
1472.342555336741 1:-0.986504 2:-0.965481 3:-0.982776 4:-0.990645 5:-0.83134 6:-0.834818 7:-0.834692 8:-0.837006 9:-0.83552 10:-0.835597 11:-0.836121 12:-0.871753 13:-0.899428 14:-0.913725 15:-0.927869 16:-0.931719 17:-0.923828 18:-0.919748 19:-0.913443 20:-0.909287 21:-0.916315 22:-0.928622 23:-0.937948 24:-0.945566 25:-0.947177 26:-0.948023 27:-0.950057 28:-0.95402 29:-0.958022 30:-0.961895 31:-0.965152 32:-0.967935 33:-0.970932 34:-0.973722 35:-0.97634 36:-0.978453 37:-0.980661 38:-0.982855 39:-0.984927 40:-0.986883 41:-0.987996 42:-0.988372 43:-0.988963 44:-0.989409 45:-0.989723 46:-0.990086 47:-0.990203 48:-0.990276 49:-0.990543 50:-0.990606 51:-0.990667 52:-0.990666 53:-0.990672 54:-0.990615 55:-0.990609 56:-0.990611 57:-0.990608 58:-0.990609 59:-0.99061 60:-0.990612 61:-0.990613 62:-0.990614 63:-0.990615 64:-0.990617 65:-0.990682 66:-0.990979 67:-0.991076 68:-0.991166 69:-0.991131 70:-0.991095 71:-0.991301 72:-0.991289 73:-0.991252 74:-0.99122 75:-0.991263 76:-0.99124 77:-0.991219 78:-0.991259 79:-0.99122 80:-0.991184 81:-0.991144 82:-0.991108 83:-0.99063 84:-0.988244 85:-0.986029 86:-0.9838 87:-0.981654 88:-0.979428 89:-0.977395 90:-0.975462 91:-0.973678 92:-0.971638 93:-0.969777 94:-0.967907 95:-0.966295 96:-0.964442 97:-0.962861 98:-0.961091 99:-0.959497 100:-0.957942 101:-0.956372 102:-0.954838 103:-0.953522 104:-0.954428 
2048 1:-0.991747 2:-0.967573 3:-0.982393 4:-0.989895 5:-0.832114 6:-0.836209 7:-0.831678 8:-0.832968 9:-0.832222 10:-0.832739 11:-0.833571 12:-0.868295 13:-0.896234 14:-0.910754 15:-0.925085 16:-0.929099 17:-0.921355 18:-0.917722 19:-0.911498 20:-0.90742 21:-0.914506 22:-0.926861 23:-0.936233 24:-0.943665 25:-0.945327 26:-0.946223 27:-0.9483 28:-0.952302 29:-0.956339 30:-0.960069 31:-0.963361 32:-0.966179 33:-0.969512 34:-0.972321 35:-0.974958 36:-0.977089 37:-0.979996 38:-0.982186 39:-0.984254 40:-0.985885 41:-0.986703 42:-0.987092 43:-0.987631 44:-0.988261 45:-0.988873 46:-0.98911 47:-0.989185 48:-0.989263 49:-0.989337 50:-0.989409 51:-0.989576 52:-0.989581 53:-0.989593 54:-0.989542 55:-0.989541 56:-0.989548 57:-0.98955 58:-0.989557 59:-0.989562 60:-0.989568 61:-0.989734 62:-0.98974 63:-0.989817 64:-0.990157 65:-0.990331 66:-0.990324 67:-0.990317 68:-0.990297 69:-0.990262 70:-0.990228 71:-0.990263 72:-0.990229 73:-0.990266 74:-0.990299 75:-0.990459 76:-0.990505 77:-0.990482 78:-0.990461 79:-0.990421 80:-0.990386 81:-0.990346 82:-0.990309 83:-0.989831 84:-0.987447 85:-0.985233 86:-0.983005 87:-0.98086 88:-0.978689 89:-0.976655 90:-0.974723 91:-0.972887 92:-0.970848 93:-0.968987 94:-0.967118 95:-0.965507 96:-0.963655 97:-0.962074 98:-0.960305 99:-0.958806 100:-0.957251 101:-0.95568 102:-0.954146 103:-0.952768 104:-0.95369 
1312.378102996097 1:-0.989805 2:-0.966527 3:-0.982354 4:-0.989588 5:-0.835805 6:-0.838052 7:-0.832827 8:-0.83386 9:-0.832788 10:-0.833157 11:-0.833885 12:-0.868535 13:-0.896415 14:-0.910886 15:-0.925177 16:-0.929157 17:-0.921384 18:-0.917408 19:-0.911184 20:-0.907107 21:-0.914454 22:-0.926795 23:-0.936153 24:-0.943572 25:-0.945224 26:-0.94611 27:-0.948179 28:-0.952172 29:-0.956201 30:-0.959924 31:-0.963537 32:-0.966337 33:-0.969349 34:-0.972229 35:-0.975364 36:-0.977521 37:-0.979813 38:-0.981998 39:-0.984062 40:-0.985834 41:-0.986745 42:-0.987125 43:-0.988064 44:-0.988505 45:-0.988814 46:-0.988897 47:-0.98897 48:-0.989149 49:-0.989218 50:-0.989286 51:-0.989351 52:-0.989354 53:-0.989364 54:-0.989311 55:-0.989309 56:-0.989314 57:-0.989315 58:-0.989404 59:-0.989406 60:-0.989522 61:-0.989942 62:-0.990036 63:-0.990029 64:-0.990022 65:-0.990013 66:-0.990007 67:-0.990072 68:-0.99005 69:-0.990015 70:-0.98998 71:-0.990097 72:-0.990307 73:-0.990269 74:-0.990235 75:-0.990211 76:-0.990188 77:-0.990165 78:-0.990143 79:-0.990103 80:-0.990068 81:-0.990087 82:-0.99005 83:-0.989571 84:-0.987186 85:-0.984972 86:-0.982743 87:-0.980598 88:-0.978373 89:-0.97634 90:-0.974408 91:-0.972572 92:-0.970533 93:-0.968673 94:-0.966804 95:-0.965193 96:-0.963341 97:-0.961761 98:-0.96013 99:-0.958771 100:-0.957213 101:-0.95564 102:-0.95413 103:-0.952688 104:-0.95338 
1075.413479206994 1:-0.986407 2:-0.963389 3:-0.978718 4:-0.983048 5:-0.815808 6:-0.831224 7:-0.825949 8:-0.824832 9:-0.824222 10:-0.824951 11:-0.825927 12:-0.861172 13:-0.88904 14:-0.903523 15:-0.918355 16:-0.922781 17:-0.914984 18:-0.910993 19:-0.904735 20:-0.900654 21:-0.90805 22:-0.920334 23:-0.929646 24:-0.937687 25:-0.939285 26:-0.941053 27:-0.944057 28:-0.947927 29:-0.951842 30:-0.95546 31:-0.958648 32:-0.96153 33:-0.964462 34:-0.967189 35:-0.96975 36:-0.971813 37:-0.973969 38:-0.976115 39:-0.978141 40:-0.979732 41:-0.980517 42:-0.980876 43:-0.981558 44:-0.982054 45:-0.98235 46:-0.982421 47:-0.98273 48:-0.983001 49:-0.983052 50:-0.983378 51:-0.983621 52:-0.983597 53:-0.983582 54:-0.983505 55:-0.983481 56:-0.983464 57:-0.983527 58:-0.98351 59:-0.983492 60:-0.983477 61:-0.983461 62:-0.983445 63:-0.983432 64:-0.983419 65:-0.983404 66:-0.983391 67:-0.983379 68:-0.983353 69:-0.98349 70:-0.983449 71:-0.983408 72:-0.983368 73:-0.983329 74:-0.983592 75:-0.983741 76:-0.983709 77:-0.983679 78:-0.983669 79:-0.983665 80:-0.983625 81:-0.983635 82:-0.983591 83:-0.983108 84:-0.980724 85:-0.978511 86:-0.976283 87:-0.97414 88:-0.971915 89:-0.969884 90:-0.967952 91:-0.966118 92:-0.96408 93:-0.96222 94:-0.960353 95:-0.958743 96:-0.957015 97:-0.955434 98:-0.953666 99:-0.952072 100:-0.950518 101:-0.948948 102:-0.947414 103:-0.946068 104:-0.946955 
2048 1:-0.98398 2:-0.953975 3:-0.976072 4:-0.982681 5:-0.832669 6:-0.834999 7:-0.831252 8:-0.83305 9:-0.830692 10:-0.830221 11:-0.830353 12:-0.865556 13:-0.89292 14:-0.906982 15:-0.920935 16:-0.924646 17:-0.91666 18:-0.913463 19:-0.907006 20:-0.902739 21:-0.909631 22:-0.921804 23:-0.931489 24:-0.938751 25:-0.940273 26:-0.941252 27:-0.944342 28:-0.948734 29:-0.952597 30:-0.956165 31:-0.959307 32:-0.961984 33:-0.964883 34:-0.96773 35:-0.970256 36:-0.972286 37:-0.974412 38:-0.976528 39:-0.978528 40:-0.980093 41:-0.980853 42:-0.981189 43:-0.981623 44:-0.982036 45:-0.982653 46:-0.982704 47:-0.983021 48:-0.983202 49:-0.983471 50:-0.983968 51:-0.984061 52:-0.984016 53:-0.983981 54:-0.983886 55:-0.983843 56:-0.983809 57:-0.983768 58:-0.983821 59:-0.983788 60:-0.983757 61:-0.983727 62:-0.983697 63:-0.98367 64:-0.983644 65:-0.983617 66:-0.983592 67:-0.983567 68:-0.98371 69:-0.983656 70:-0.983604 71:-0.983552 72:-0.983502 73:-0.983453 74:-0.983506 75:-0.983535 76:-0.983872 77:-0.983833 78:-0.983795 79:-0.983739 80:-0.983719 81:-0.983692 82:-0.983641 83:-0.98315 84:-0.980759 85:-0.978539 86:-0.976304 87:-0.974154 88:-0.971922 89:-0.969885 90:-0.967947 91:-0.966106 92:-0.964062 93:-0.962197 94:-0.960354 95:-0.958833 96:-0.956975 97:-0.955389 98:-0.953683 99:-0.952083 100:-0.950523 101:-0.948948 102:-0.947409 103:-0.945948 104:-0.946743 
2048 1:-0.983106 2:-0.964435 3:-0.978562 4:-0.982089 5:-0.814837 6:-0.828248 7:-0.823606 8:-0.822833 9:-0.82243 10:-0.823309 11:-0.825006 12:-0.861067 13:-0.888837 14:-0.903819 15:-0.918037 16:-0.921951 17:-0.914144 18:-0.910145 19:-0.903877 20:-0.899786 21:-0.906816 22:-0.919107 23:-0.929126 24:-0.936476 25:-0.938109 26:-0.940178 27:-0.942688 28:-0.946572 29:-0.9505 30:-0.954129 31:-0.957328 32:-0.96022 33:-0.963162 34:-0.965897 35:-0.968466 36:-0.970537 37:-0.972701 38:-0.974853 39:-0.976885 40:-0.978482 41:-0.979273 42:-0.979638 43:-0.980101 44:-0.98054 45:-0.981129 46:-0.981362 47:-0.982147 48:-0.982195 49:-0.982241 50:-0.982286 51:-0.982428 52:-0.982408 53:-0.98293 54:-0.982945 55:-0.982912 56:-0.982887 57:-0.982855 58:-0.982832 59:-0.982808 60:-0.982869 61:-0.982846 62:-0.982823 63:-0.982804 64:-0.982785 65:-0.982764 66:-0.982745 67:-0.982727 68:-0.982696 69:-0.982651 70:-0.982607 71:-0.982735 72:-0.98269 73:-0.982646 74:-0.982608 75:-0.982579 76:-0.982767 77:-0.982976 78:-0.982944 79:-0.982893 80:-0.98285 81:-0.982798 82:-0.98281 83:-0.982324 84:-0.979939 85:-0.977724 86:-0.975495 87:-0.97335 88:-0.971124 89:-0.969091 90:-0.967158 91:-0.965322 92:-0.963282 93:-0.961421 94:-0.959559 95:-0.958065 96:-0.956212 97:-0.95463 98:-0.95286 99:-0.951265 100:-0.949709 101:-0.948139 102:-0.946604 103:-0.945147 104:-0.945989 
2048 1:-0.985533 2:-0.966527 3:-0.980305 4:-0.988635 5:-0.825912 6:-0.83221 7:-0.833135 8:-0.831637 9:-0.830796 10:-0.832054 11:-0.832792 12:-0.867429 13:-0.897067 14:-0.912018 15:-0.926111 16:-0.930616 17:-0.922643 18:-0.918495 19:-0.912126 20:-0.907919 21:-0.914894 22:-0.927151 23:-0.936433 24:-0.943785 25:-0.945374 26:-0.946202 27:-0.948219 28:-0.952483 29:-0.956511 30:-0.96018 31:-0.963416 32:-0.967076 33:-0.970677 34:-0.973401 35:-0.975957 36:-0.978012 37:-0.980165 38:-0.982307 39:-0.98433 40:-0.98592 41:-0.986697 42:-0.987102 43:-0.987615 44:-0.98804 45:-0.988332 46:-0.988401 47:-0.988458 48:-0.98852 49:-0.988578 50:-0.988635 51:-0.988691 52:-0.988684 53:-0.988685 54:-0.988624 55:-0.988613 56:-0.98861 57:-0.988801 58:-0.988813 59:-0.988846 60:-0.98884 61:-0.988913 62:-0.989129 63:-0.98928 64:-0.989267 65:-0.989253 66:-0.98924 67:-0.9893 68:-0.989521 69:-0.989642 70:-0.989596 71:-0.989551 72:-0.989507 73:-0.989464 74:-0.989426 75:-0.989398 76:-0.98937 77:-0.989343 78:-0.989437 79:-0.989392 80:-0.989352 81:-0.989306 82:-0.989265 83:-0.988782 84:-0.986394 85:-0.984177 86:-0.981945 87:-0.979797 88:-0.977569 89:-0.975533 90:-0.973651 91:-0.971812 92:-0.96977 93:-0.967906 94:-0.966035 95:-0.964421 96:-0.962566 97:-0.960983 98:-0.959212 99:-0.957616 100:-0.956059 101:-0.954487 102:-0.952952 103:-0.951608 104:-0.952537 
2048 1:-0.989029 2:-0.961297 3:-0.977834 4:-0.988272 5:-0.820992 6:-0.834855 7:-0.83247 8:-0.83101 9:-0.831067 10:-0.832918 11:-0.835014 12:-0.869339 13:-0.896959 14:-0.911218 15:-0.92595 16:-0.930106 17:-0.922428 18:-0.918259 19:-0.911871 20:-0.907648 21:-0.914607 22:-0.92685 23:-0.93612 24:-0.943459 25:-0.945254 26:-0.946064 27:-0.948063 28:-0.951993 29:-0.956145 30:-0.96005 31:-0.964273 32:-0.967511 33:-0.970723 34:-0.973444 35:-0.975982 36:-0.97802 37:-0.980156 38:-0.982282 39:-0.984291 40:-0.985867 41:-0.986632 42:-0.986971 43:-0.987408 44:-0.987939 45:-0.988221 46:-0.988388 47:-0.988434 48:-0.988484 49:-0.988531 50:-0.988578 51:-0.988623 52:-0.988607 53:-0.988598 54:-0.988528 55:-0.988509 56:-0.988498 57:-0.988482 58:-0.988472 59:-0.988461 60:-0.988615 61:-0.988603 62:-0.988992 63:-0.98911 64:-0.989167 65:-0.989145 66:-0.989126 67:-0.989179 68:-0.989289 69:-0.989271 70:-0.989526 71:-0.989473 72:-0.989423 73:-0.989373 74:-0.989329 75:-0.989295 76:-0.989261 77:-0.989228 78:-0.989197 79:-0.989209 80:-0.989164 81:-0.989114 82:-0.989068 83:-0.988581 84:-0.986189 85:-0.983968 86:-0.981733 87:-0.979581 88:-0.97735 89:-0.975311 90:-0.973372 91:-0.971531 92:-0.969589 93:-0.967722 94:-0.965847 95:-0.964229 96:-0.962371 97:-0.960785 98:-0.95901 99:-0.957411 100:-0.955851 101:-0.954276 102:-0.952737 103:-0.951364 104:-0.952319 
2048 1:-0.981941 2:-0.955021 3:-0.974004 4:-0.988229 5:-0.838699 6:-0.840179 7:-0.836164 8:-0.837121 9:-0.835026 10:-0.835427 11:-0.835561 12:-0.869791 13:-0.897334 14:-0.91378 15:-0.927995 16:-0.931583 17:-0.923472 18:-0.919205 19:-0.912736 20:-0.90844 21:-0.915339 22:-0.927529 23:-0.93675 24:-0.944046 25:-0.945777 26:-0.946572 27:-0.948537 28:-0.952802 29:-0.95673 30:-0.960884 31:-0.964286 32:-0.967562 33:-0.970466 34:-0.973935 35:-0.977343 36:-0.979386 37:-0.981473 38:-0.983553 39:-0.985519 40:-0.987054 41:-0.987779 42:-0.98808 43:-0.988599 44:-0.988978 45:-0.989228 46:-0.989255 47:-0.989274 48:-0.989299 49:-0.989322 50:-0.989345 51:-0.989557 52:-0.989515 53:-0.989482 54:-0.989388 55:-0.989347 56:-0.989314 57:-0.989278 58:-0.989247 59:-0.989217 60:-0.989271 61:-0.989242 62:-0.989214 63:-0.989566 64:-0.989535 65:-0.989503 66:-0.989547 67:-0.989516 68:-0.98964 69:-0.989963 70:-0.9899 71:-0.989906 72:-0.989844 73:-0.989851 74:-0.989795 75:-0.989751 76:-0.989707 77:-0.989664 78:-0.989623 79:-0.989625 80:-0.989571 81:-0.989512 82:-0.989458 83:-0.988962 84:-0.986562 85:-0.984332 86:-0.982101 87:-0.979983 88:-0.977743 89:-0.975749 90:-0.973802 91:-0.971952 92:-0.969899 93:-0.968025 94:-0.966143 95:-0.964519 96:-0.962654 97:-0.96111 98:-0.959328 99:-0.957723 100:-0.956156 101:-0.954575 102:-0.95303 103:-0.951609 104:-0.952511 
2048 1:-0.99 2:-0.957113 3:-0.975363 4:-0.987995 5:-0.820566 6:-0.827506 7:-0.830668 8:-0.829552 9:-0.828942 10:-0.830365 11:-0.831217 12:-0.865913 13:-0.893833 14:-0.908344 15:-0.922668 16:-0.927627 17:-0.920209 18:-0.917206 19:-0.910859 20:-0.906954 21:-0.913926 22:-0.926179 23:-0.935459 24:-0.942807 25:-0.944397 26:-0.945226 27:-0.947243 28:-0.951376 29:-0.955353 30:-0.959028 31:-0.962584 32:-0.966341 33:-0.969802 34:-0.973303 35:-0.976384 36:-0.978396 37:-0.980507 38:-0.982611 39:-0.984598 40:-0.986153 41:-0.986898 42:-0.987339 43:-0.987756 44:-0.988152 45:-0.988418 46:-0.988461 47:-0.988495 48:-0.988533 49:-0.98857 50:-0.988606 51:-0.988641 52:-0.988615 53:-0.988598 54:-0.988518 55:-0.98858 56:-0.988559 57:-0.988534 58:-0.988515 59:-0.988495 60:-0.988683 61:-0.988817 62:-0.989143 63:-0.989115 64:-0.989089 65:-0.989282 66:-0.989253 67:-0.989225 68:-0.989199 69:-0.98954 70:-0.98948 71:-0.989442 72:-0.989433 73:-0.989377 74:-0.989326 75:-0.98935 76:-0.989309 77:-0.98927 78:-0.989232 79:-0.989177 80:-0.989127 81:-0.989071 82:-0.98902 83:-0.988529 84:-0.986132 85:-0.983906 86:-0.981666 87:-0.979594 88:-0.977382 89:-0.975338 90:-0.973394 91:-0.971547 92:-0.969497 93:-0.967626 94:-0.965748 95:-0.964127 96:-0.962361 97:-0.960797 98:-0.959017 99:-0.957413 100:-0.955872 101:-0.954292 102:-0.952749 103:-0.951283 104:-0.952189 
1850.867378116584 1:-0.982718 2:-0.965481 3:-0.979616 4:-0.985699 5:-0.818521 6:-0.831835 7:-0.82726 8:-0.826489 9:-0.82696 10:-0.827664 11:-0.828624 12:-0.863454 13:-0.892549 14:-0.909224 15:-0.923283 16:-0.92716 17:-0.919228 18:-0.915118 19:-0.90877 20:-0.904594 21:-0.911575 22:-0.923833 23:-0.933118 24:-0.940471 25:-0.94207 26:-0.943323 27:-0.945331 28:-0.949314 29:-0.954335 30:-0.958602 31:-0.96178 32:-0.964491 33:-0.967421 34:-0.970146 35:-0.972704 36:-0.974763 37:-0.977056 38:-0.979196 39:-0.981218 40:-0.982805 41:-0.983582 42:-0.983934 43:-0.984384 44:-0.984812 45:-0.985108 46:-0.985181 47:-0.985239 48:-0.985304 49:-0.985365 50:-0.985425 51:-0.985484 52:-0.98572 53:-0.985719 54:-0.985816 55:-0.986214 56:-0.986199 57:-0.986345 58:-0.986328 59:-0.986392 60:-0.986538 61:-0.986796 62:-0.986878 63:-0.986854 64:-0.98683 65:-0.986805 66:-0.986782 67:-0.98676 68:-0.986725 69:-0.986747 70:-0.986698 71:-0.98665 72:-0.986603 73:-0.986558 74:-0.986517 75:-0.986487 76:-0.986457 77:-0.986427 78:-0.9864 79:-0.986353 80:-0.986314 81:-0.986267 82:-0.986225 83:-0.985743 84:-0.983358 85:-0.981144 86:-0.978915 87:-0.97677 88:-0.974625 89:-0.972647 90:-0.970896 91:-0.969206 92:-0.967161 93:-0.965295 94:-0.963422 95:-0.961855 96:-0.959997 97:-0.958412 98:-0.956638 99:-0.955039 100:-0.95348 101:-0.951906 102:-0.950367 103:-0.948907 104:-0.949594 
2048 1:-0.986504 2:-0.964435 3:-0.978965 4:-0.984301 5:-0.81708 6:-0.830314 7:-0.82721 8:-0.826093 9:-0.826357 10:-0.828752 11:-0.829351 12:-0.863822 13:-0.891564 14:-0.906973 15:-0.921093 16:-0.924944 17:-0.917075 18:-0.91302 19:-0.906714 20:-0.90258 21:-0.909589 22:-0.921865 23:-0.93117 24:-0.93854 25:-0.94059 26:-0.941639 27:-0.943655 28:-0.947596 29:-0.951712 30:-0.956734 31:-0.960295 32:-0.963004 33:-0.965932 34:-0.968656 35:-0.971278 36:-0.973414 37:-0.975563 38:-0.977702 39:-0.979722 40:-0.981307 41:-0.982085 42:-0.982437 43:-0.982887 44:-0.983315 45:-0.983612 46:-0.983684 47:-0.983743 48:-0.983807 49:-0.983869 50:-0.983929 51:-0.984233 52:-0.984636 53:-0.984808 54:-0.984965 55:-0.984974 56:-0.984954 57:-0.985014 58:-0.985206 59:-0.985307 60:-0.98543 61:-0.985403 62:-0.985376 63:-0.985352 64:-0.985329 65:-0.985304 66:-0.985282 67:-0.98526 68:-0.985225 69:-0.985177 70:-0.985129 71:-0.985083 72:-0.985037 73:-0.984993 74:-0.984954 75:-0.984925 76:-0.984895 77:-0.984867 78:-0.98484 79:-0.984948 80:-0.985017 81:-0.985 82:-0.984955 83:-0.984471 84:-0.982085 85:-0.979919 86:-0.977914 87:-0.975764 88:-0.973534 89:-0.971498 90:-0.969663 91:-0.967822 92:-0.965778 93:-0.963912 94:-0.962039 95:-0.960423 96:-0.958566 97:-0.956981 98:-0.955209 99:-0.953611 100:-0.952052 101:-0.950479 102:-0.948942 103:-0.947482 104:-0.948213 
2048 1:-0.985727 2:-0.961297 3:-0.979252 4:-0.989006 5:-0.821815 6:-0.834055 7:-0.831906 8:-0.831885 9:-0.831055 10:-0.833043 11:-0.833814 12:-0.870422 13:-0.898025 14:-0.912266 15:-0.926365 16:-0.930182 17:-0.922267 18:-0.91852 19:-0.912438 20:-0.908231 21:-0.915207 22:-0.927465 23:-0.936749 24:-0.944101 25:-0.945906 26:-0.946724 27:-0.948732 28:-0.952669 29:-0.956647 30:-0.960324 31:-0.963565 32:-0.966336 33:-0.96932 34:-0.97225 35:-0.974852 36:-0.976952 37:-0.979145 38:-0.981691 39:-0.98447 40:-0.986488 41:-0.987376 42:-0.987717 43:-0.988158 44:-0.988577 45:-0.988864 46:-0.988927 47:-0.98898 48:-0.989037 49:-0.989091 50:-0.989243 51:-0.989292 52:-0.98928 53:-0.989275 54:-0.989208 55:-0.989192 56:-0.989184 57:-0.989172 58:-0.989165 59:-0.98924 60:-0.989232 61:-0.989224 62:-0.989215 63:-0.989286 64:-0.989278 65:-0.989269 66:-0.989261 67:-0.989254 68:-0.989304 69:-0.989267 70:-0.989469 71:-0.989662 72:-0.989621 73:-0.989581 74:-0.989546 75:-0.989521 76:-0.989643 77:-0.989691 78:-0.989806 79:-0.989887 80:-0.989844 81:-0.989797 82:-0.989753 83:-0.989268 84:-0.986877 85:-0.984657 86:-0.982423 87:-0.980273 88:-0.978096 89:-0.976057 90:-0.974119 91:-0.972278 92:-0.970234 93:-0.968368 94:-0.966495 95:-0.964879 96:-0.963071 97:-0.961485 98:-0.959712 99:-0.958113 100:-0.956554 101:-0.95498 102:-0.953488 103:-0.952039 104:-0.952979 
2048 1:-0.989708 2:-0.963389 3:-0.98063 4:-0.988679 5:-0.825976 6:-0.830628 7:-0.832562 8:-0.832734 9:-0.832561 10:-0.832802 11:-0.833439 12:-0.868012 13:-0.895831 14:-0.912053 15:-0.927317 16:-0.931034 17:-0.923033 18:-0.918861 19:-0.912472 20:-0.908525 21:-0.915469 22:-0.927701 23:-0.93696 24:-0.944386 25:-0.946073 26:-0.946872 27:-0.948863 28:-0.952784 29:-0.956748 30:-0.960585 31:-0.963808 32:-0.966561 33:-0.969529 34:-0.972292 35:-0.975032 36:-0.977118 37:-0.979299 38:-0.981467 39:-0.983516 40:-0.985129 41:-0.98593 42:-0.986899 43:-0.987601 44:-0.988213 45:-0.988503 46:-0.988569 47:-0.988625 48:-0.988684 49:-0.98874 50:-0.988795 51:-0.988946 52:-0.988935 53:-0.988932 54:-0.988867 55:-0.988943 56:-0.988935 57:-0.988922 58:-0.988915 59:-0.988907 60:-0.988901 61:-0.988894 62:-0.988919 63:-0.988959 64:-0.988952 65:-0.988944 66:-0.989011 67:-0.989003 68:-0.988982 69:-0.988947 70:-0.988912 71:-0.988878 72:-0.989112 73:-0.989077 74:-0.989045 75:-0.989088 76:-0.989189 77:-0.989323 78:-0.989383 79:-0.989339 80:-0.989301 81:-0.989256 82:-0.989216 83:-0.988735 84:-0.986349 85:-0.984133 86:-0.981955 87:-0.979811 88:-0.977583 89:-0.975548 90:-0.973613 91:-0.971776 92:-0.96974 93:-0.967974 94:-0.966102 95:-0.964488 96:-0.962682 97:-0.961098 98:-0.959327 99:-0.95773 100:-0.956173 101:-0.9546 102:-0.953064 103:-0.951614 104:-0.952561 
2048 1:-0.992524 2:-0.975941 3:-0.988869 4:-0.994209 5:-0.827614 6:-0.834367 7:-0.832239 8:-0.835705 9:-0.835934 10:-0.836588 11:-0.83752 12:-0.872389 13:-0.900441 14:-0.915041 15:-0.929437 16:-0.934219 17:-0.926438 18:-0.92245 19:-0.916803 20:-0.913228 21:-0.92027 22:-0.9326 23:-0.941942 24:-0.949349 25:-0.950975 26:-0.952035 27:-0.954071 28:-0.95804 29:-0.962048 30:-0.965752 31:-0.96902 32:-0.971815 33:-0.974821 34:-0.977622 35:-0.98025 36:-0.98237 37:-0.984585 38:-0.986864 39:-0.988998 40:-0.990638 41:-0.99146 42:-0.991853 43:-0.992341 44:-0.992806 45:-0.993136 46:-0.99324 47:-0.993334 48:-0.993429 49:-0.993519 50:-0.993605 51:-0.993688 52:-0.99371 53:-0.993737 54:-0.9937 55:-0.993712 56:-0.993732 57:-0.993749 58:-0.993852 59:-0.994106 60:-0.994128 61:-0.994139 62:-0.994231 63:-0.994314 64:-0.994322 65:-0.994328 66:-0.994335 67:-0.994341 68:-0.994334 69:-0.994312 70:-0.99429 71:-0.994268 72:-0.994247 73:-0.994227 74:-0.994211 75:-0.994204 76:-0.994197 77:-0.994191 78:-0.994185 79:-0.994161 80:-0.994139 81:-0.994194 82:-0.994322 83:-0.993854 84:-0.991475 85:-0.989267 86:-0.987044 87:-0.984904 88:-0.982684 89:-0.980656 90:-0.978729 91:-0.976899 92:-0.974865 93:-0.973009 94:-0.971145 95:-0.969589 96:-0.96774 97:-0.966164 98:-0.964399 99:-0.962809 100:-0.961258 101:-0.959692 102:-0.958228 103:-0.956869 104:-0.957678 
2048 1:-0.993204 2:-0.973849 3:-0.988524 4:-0.994209 5:-0.827593 6:-0.834347 7:-0.832259 8:-0.835726 9:-0.836741 10:-0.837252 11:-0.838084 12:-0.872887 13:-0.900887 14:-0.915443 15:-0.929801 16:-0.934519 17:-0.926742 18:-0.92273 19:-0.916824 20:-0.91347 21:-0.920498 22:-0.932814 23:-0.942145 24:-0.949542 25:-0.951157 26:-0.952003 27:-0.95404 28:-0.958009 29:-0.962017 30:-0.965722 31:-0.96899 32:-0.971785 33:-0.974791 34:-0.977592 35:-0.980221 36:-0.982483 37:-0.984695 38:-0.986893 39:-0.988969 40:-0.99061 41:-0.991432 42:-0.991824 43:-0.992313 44:-0.992778 45:-0.993108 46:-0.993212 47:-0.993307 48:-0.993401 49:-0.993491 50:-0.993578 51:-0.993662 52:-0.993683 53:-0.99371 54:-0.993673 55:-0.993686 56:-0.993706 57:-0.993809 58:-0.99391 59:-0.994091 60:-0.994102 61:-0.994113 62:-0.994249 63:-0.994288 64:-0.994296 65:-0.994302 66:-0.994309 67:-0.994316 68:-0.994309 69:-0.994356 70:-0.994334 71:-0.994311 72:-0.994289 73:-0.994268 74:-0.994251 75:-0.994243 76:-0.994236 77:-0.994228 78:-0.994222 79:-0.994197 80:-0.99422 81:-0.994328 82:-0.994356 83:-0.993887 84:-0.991507 85:-0.989298 86:-0.987075 87:-0.984934 88:-0.982714 89:-0.980685 90:-0.978758 91:-0.976927 92:-0.974892 93:-0.973036 94:-0.971171 95:-0.969565 96:-0.967716 97:-0.96614 98:-0.964422 99:-0.962832 100:-0.961281 101:-0.959715 102:-0.958258 103:-0.956891 104:-0.957699 
2048 1:-0.992427 2:-0.975941 3:-0.988888 4:-0.994123 5:-0.827529 6:-0.834285 7:-0.832323 8:-0.835789 9:-0.83585 10:-0.836504 11:-0.837437 12:-0.872304 13:-0.900356 14:-0.914955 15:-0.92935 16:-0.933876 17:-0.926352 18:-0.922364 19:-0.916325 20:-0.913058 21:-0.920184 22:-0.932513 23:-0.941855 24:-0.949263 25:-0.951104 26:-0.951948 27:-0.953985 28:-0.957954 29:-0.961961 30:-0.965665 31:-0.968933 32:-0.971728 33:-0.974734 34:-0.977534 35:-0.980162 36:-0.982282 37:-0.984498 38:-0.986731 39:-0.98891 40:-0.990551 41:-0.991372 42:-0.991765 43:-0.992253 44:-0.992718 45:-0.993048 46:-0.993152 47:-0.993247 48:-0.993341 49:-0.993431 50:-0.993517 51:-0.993601 52:-0.993622 53:-0.993742 54:-0.993704 55:-0.993714 56:-0.993732 57:-0.993747 58:-0.993764 59:-0.993949 60:-0.994041 61:-0.994051 62:-0.994087 63:-0.994227 64:-0.994234 65:-0.99424 66:-0.994247 67:-0.994254 68:-0.994246 69:-0.994224 70:-0.994202 71:-0.994181 72:-0.99416 73:-0.99414 74:-0.994123 75:-0.994117 76:-0.99411 77:-0.994103 78:-0.994159 79:-0.994134 80:-0.994111 81:-0.99411 82:-0.994235 83:-0.993767 84:-0.991388 85:-0.989179 86:-0.986957 87:-0.984817 88:-0.982597 89:-0.980569 90:-0.978643 91:-0.976812 92:-0.974778 93:-0.972923 94:-0.971059 95:-0.969453 96:-0.967605 97:-0.966029 98:-0.964265 99:-0.962676 100:-0.961126 101:-0.95956 102:-0.95809 103:-0.956753 104:-0.95759 
2048 1:-0.993592 2:-0.976987 3:-0.989252 4:-0.994053 5:-0.82748 6:-0.834237 7:-0.832371 8:-0.835379 9:-0.834975 10:-0.835771 11:-0.836804 12:-0.871736 13:-0.89984 14:-0.914588 15:-0.929445 16:-0.934103 17:-0.926321 18:-0.922332 19:-0.916922 20:-0.913108 21:-0.920149 22:-0.932477 23:-0.941818 24:-0.949225 25:-0.95085 26:-0.951704 27:-0.953749 28:-0.957725 29:-0.96174 30:-0.96545 31:-0.968724 32:-0.971524 33:-0.974535 34:-0.97734 35:-0.979973 36:-0.982097 37:-0.984455 38:-0.986656 39:-0.988736 40:-0.99038 41:-0.991205 42:-0.9916 43:-0.992092 44:-0.992559 45:-0.992892 46:-0.992999 47:-0.993096 48:-0.993192 49:-0.993284 50:-0.993373 51:-0.993458 52:-0.993482 53:-0.99351 54:-0.993475 55:-0.99349 56:-0.993511 57:-0.993697 58:-0.993832 59:-0.993896 60:-0.993909 61:-0.993981 62:-0.99409 63:-0.994099 64:-0.994108 65:-0.994115 66:-0.994123 67:-0.994131 68:-0.994125 69:-0.994104 70:-0.994083 71:-0.994063 72:-0.994043 73:-0.994023 74:-0.994008 75:-0.994002 76:-0.993996 77:-0.993991 78:-0.993986 79:-0.99399 80:-0.99415 81:-0.994148 82:-0.994123 83:-0.993656 84:-0.991278 85:-0.98907 86:-0.986848 87:-0.98471 88:-0.98249 89:-0.980463 90:-0.978538 91:-0.97676 92:-0.974726 93:-0.97287 94:-0.971006 95:-0.969401 96:-0.967553 97:-0.965978 98:-0.964213 99:-0.962624 100:-0.96112 101:-0.959585 102:-0.958192 103:-0.956794 104:-0.957496 
2048 1:-0.994272 2:-0.973849 3:-0.987145 4:-0.994007 5:-0.825007 6:-0.832959 7:-0.833212 8:-0.835686 9:-0.83519 10:-0.835924 11:-0.837531 12:-0.872363 13:-0.900386 14:-0.914962 15:-0.929815 16:-0.934853 17:-0.926999 18:-0.922948 19:-0.917234 20:-0.913349 21:-0.920367 22:-0.932809 23:-0.942473 24:-0.949841 25:-0.951429 26:-0.95225 27:-0.954264 28:-0.958213 29:-0.962202 30:-0.965889 31:-0.969142 32:-0.971921 33:-0.974914 34:-0.977702 35:-0.980318 36:-0.982426 37:-0.984631 38:-0.986823 39:-0.989024 40:-0.990656 41:-0.991469 42:-0.991853 43:-0.992334 44:-0.992791 45:-0.993115 46:-0.993212 47:-0.993301 48:-0.993389 49:-0.993473 50:-0.993554 51:-0.993632 52:-0.993649 53:-0.993671 54:-0.993721 55:-0.993727 56:-0.993741 57:-0.993752 58:-0.993914 59:-0.993986 60:-0.994071 61:-0.994192 62:-0.994196 63:-0.994211 64:-0.994358 65:-0.994358 66:-0.99436 67:-0.994361 68:-0.994349 69:-0.994322 70:-0.994295 71:-0.994269 72:-0.994244 73:-0.99422 74:-0.994199 75:-0.994188 76:-0.994178 77:-0.994168 78:-0.994158 79:-0.99413 80:-0.994105 81:-0.994136 82:-0.994237 83:-0.993862 84:-0.991479 85:-0.989267 86:-0.98704 87:-0.984897 88:-0.982673 89:-0.980642 90:-0.978712 91:-0.976879 92:-0.974841 93:-0.972983 94:-0.971116 95:-0.969507 96:-0.967656 97:-0.966078 98:-0.964358 99:-0.962766 100:-0.961213 101:-0.959645 102:-0.958112 103:-0.956785 104:-0.957578 
2048 1:-0.992427 2:-0.973849 3:-0.986762 4:-0.99387 5:-0.824847 6:-0.832803 7:-0.833371 8:-0.835527 9:-0.835031 10:-0.835767 11:-0.836756 12:-0.871655 13:-0.899732 14:-0.914354 15:-0.929592 16:-0.934295 17:-0.926473 18:-0.92245 19:-0.916798 20:-0.912645 21:-0.919693 22:-0.932736 23:-0.942296 24:-0.949665 25:-0.951254 26:-0.952074 27:-0.954089 28:-0.958038 29:-0.962028 30:-0.965715 31:-0.968968 32:-0.971747 33:-0.97474 34:-0.977528 35:-0.980144 36:-0.982395 37:-0.984596 38:-0.986784 39:-0.988851 40:-0.990483 41:-0.991296 42:-0.99168 43:-0.992162 44:-0.992619 45:-0.992942 46:-0.99304 47:-0.993129 48:-0.993217 49:-0.993301 50:-0.993383 51:-0.993461 52:-0.993477 53:-0.9935 54:-0.99355 55:-0.993556 56:-0.99357 57:-0.993581 58:-0.993594 59:-0.993716 60:-0.993984 61:-0.994026 62:-0.99403 63:-0.994137 64:-0.994192 65:-0.994193 66:-0.994194 67:-0.994195 68:-0.994183 69:-0.994156 70:-0.99413 71:-0.994104 72:-0.994078 73:-0.99412 74:-0.994098 75:-0.994087 76:-0.994075 77:-0.994064 78:-0.994054 79:-0.994025 80:-0.994059 81:-0.99417 82:-0.994174 83:-0.993702 84:-0.99132 85:-0.989108 86:-0.986881 87:-0.984738 88:-0.982515 89:-0.980484 90:-0.978554 91:-0.97672 92:-0.974683 93:-0.972825 94:-0.970958 95:-0.969349 96:-0.967498 97:-0.96592 98:-0.9642 99:-0.962608 100:-0.961055 101:-0.959601 102:-0.958108 103:-0.956764 104:-0.957463 
2048 1:-0.994369 2:-0.975941 3:-0.988907 4:-0.993859 5:-0.824965 6:-0.832918 7:-0.830894 8:-0.833385 9:-0.835148 10:-0.835883 11:-0.836872 12:-0.872322 13:-0.900344 14:-0.91492 15:-0.929296 16:-0.933334 17:-0.926214 18:-0.922285 19:-0.916056 20:-0.911959 21:-0.919215 22:-0.932353 23:-0.941731 24:-0.949132 25:-0.950752 26:-0.951601 27:-0.953642 28:-0.957614 29:-0.961625 30:-0.965332 31:-0.968603 32:-0.9714 33:-0.974409 34:-0.977211 35:-0.979841 36:-0.981963 37:-0.98418 38:-0.986518 39:-0.988596 40:-0.990238 41:-0.991061 42:-0.991455 43:-0.991945 44:-0.992411 45:-0.992742 46:-0.992848 47:-0.992944 48:-0.993039 49:-0.99313 50:-0.993218 51:-0.993302 52:-0.993325 53:-0.993352 54:-0.993316 55:-0.99333 56:-0.993351 57:-0.993368 58:-0.993504 59:-0.993738 60:-0.99375 61:-0.993761 62:-0.993772 63:-0.993938 64:-0.993946 65:-0.993953 66:-0.99396 67:-0.993968 68:-0.993961 69:-0.993939 70:-0.993918 71:-0.993897 72:-0.993876 73:-0.993857 74:-0.993841 75:-0.993834 76:-0.993828 77:-0.993822 78:-0.993816 79:-0.993793 80:-0.993856 81:-0.994014 82:-0.994008 83:-0.993539 84:-0.99116 85:-0.988952 86:-0.986729 87:-0.98459 88:-0.98237 89:-0.980342 90:-0.978415 91:-0.976585 92:-0.974551 93:-0.972695 94:-0.970881 95:-0.969275 96:-0.967426 97:-0.96585 98:-0.964085 99:-0.962495 100:-0.960945 101:-0.959379 102:-0.957849 103:-0.956523 104:-0.95732 
2048 1:-0.993883 2:-0.978033 3:-0.988927 4:-0.993713 5:-0.82482 6:-0.832777 7:-0.830751 8:-0.832494 9:-0.835005 10:-0.83574 11:-0.83673 12:-0.871628 13:-0.899705 14:-0.914327 15:-0.928741 16:-0.933366 17:-0.925776 18:-0.921803 19:-0.915596 20:-0.911708 21:-0.919639 22:-0.931987 23:-0.941333 24:-0.948745 25:-0.950376 26:-0.951236 27:-0.953286 28:-0.957267 29:-0.961285 30:-0.964999 31:-0.968339 32:-0.971242 33:-0.974251 34:-0.977053 35:-0.979683 36:-0.981805 37:-0.984023 38:-0.986226 39:-0.988308 40:-0.989953 41:-0.99078 42:-0.991178 43:-0.991671 44:-0.99214 45:-0.992475 46:-0.992583 47:-0.992681 48:-0.992779 49:-0.992873 50:-0.992963 51:-0.993049 52:-0.993074 53:-0.993104 54:-0.99307 55:-0.993193 56:-0.993284 57:-0.993299 58:-0.993423 59:-0.9935 60:-0.993514 61:-0.993607 62:-0.993618 63:-0.99378 64:-0.993788 65:-0.993795 66:-0.993803 67:-0.99381 68:-0.993803 69:-0.993782 70:-0.99376 71:-0.99374 72:-0.993719 73:-0.9937 74:-0.993684 75:-0.993678 76:-0.993672 77:-0.993666 78:-0.99366 79:-0.993697 80:-0.993675 81:-0.993824 82:-0.9938 83:-0.993332 84:-0.990954 85:-0.988747 86:-0.986525 87:-0.984386 88:-0.982167 89:-0.98014 90:-0.978214 91:-0.976384 92:-0.974351 93:-0.972496 94:-0.970633 95:-0.969028 96:-0.967276 97:-0.9657 98:-0.963935 99:-0.962345 100:-0.960795 101:-0.95923 102:-0.9577 103:-0.956326 104:-0.95717 
2048 1:-0.992427 2:-0.973849 3:-0.988543 4:-0.993703 5:-0.827086 6:-0.833854 7:-0.831464 8:-0.831973 9:-0.834961 10:-0.837438 11:-0.838172 12:-0.872902 13:-0.900844 14:-0.915352 15:-0.929672 16:-0.933662 17:-0.925884 18:-0.922519 19:-0.916261 20:-0.912138 21:-0.91921 22:-0.931966 23:-0.941851 24:-0.949236 25:-0.950841 26:-0.951678 27:-0.953706 28:-0.957667 29:-0.961668 30:-0.965365 31:-0.968627 32:-0.971416 33:-0.974417 34:-0.977212 35:-0.979836 36:-0.981951 37:-0.984163 38:-0.986495 39:-0.988567 40:-0.990204 41:-0.991023 42:-0.991412 43:-0.991898 44:-0.99236 45:-0.992688 46:-0.99279 47:-0.992882 48:-0.992974 49:-0.993123 50:-0.993246 51:-0.993325 52:-0.993343 53:-0.993366 54:-0.993417 55:-0.993425 56:-0.99344 57:-0.993451 58:-0.993465 59:-0.993622 60:-0.993655 61:-0.993664 62:-0.993673 63:-0.993753 64:-0.993843 65:-0.993849 66:-0.993854 67:-0.99386 68:-0.993852 69:-0.993828 70:-0.993806 71:-0.993783 72:-0.993762 73:-0.99374 74:-0.993723 75:-0.993716 76:-0.993708 77:-0.993701 78:-0.993739 79:-0.99373 80:-0.993707 81:-0.993837 82:-0.993888 83:-0.993418 84:-0.991038 85:-0.988829 86:-0.986605 87:-0.984465 88:-0.982244 89:-0.980216 90:-0.978288 91:-0.976457 92:-0.974422 93:-0.972566 94:-0.970701 95:-0.969095 96:-0.967246 97:-0.96567 98:-0.963905 99:-0.962315 100:-0.960811 101:-0.959252 102:-0.95776 103:-0.95642 104:-0.957183 
2048 1:-0.993106 2:-0.975941 3:-0.987835 4:-0.993693 5:-0.824733 6:-0.832693 7:-0.830664 8:-0.833615 9:-0.834919 10:-0.835655 11:-0.836645 12:-0.871542 13:-0.899617 14:-0.914239 15:-0.928652 16:-0.933435 17:-0.926358 18:-0.922335 19:-0.916087 20:-0.911974 21:-0.919316 22:-0.931662 23:-0.94102 24:-0.94858 25:-0.950841 26:-0.951947 27:-0.953962 28:-0.957912 29:-0.961902 30:-0.965589 31:-0.968842 32:-0.971622 33:-0.974615 34:-0.977403 35:-0.980019 36:-0.982128 37:-0.984333 38:-0.986525 39:-0.988595 40:-0.990231 41:-0.991172 42:-0.991556 43:-0.992038 44:-0.992495 45:-0.992819 46:-0.992917 47:-0.993005 48:-0.993094 49:-0.993178 50:-0.99326 51:-0.993338 52:-0.993355 53:-0.993377 54:-0.993336 55:-0.993344 56:-0.99336 57:-0.993372 58:-0.993435 59:-0.993484 60:-0.99351 61:-0.993749 62:-0.993755 63:-0.993763 64:-0.99377 65:-0.993925 66:-0.993929 67:-0.993933 68:-0.993923 69:-0.993898 70:-0.993874 71:-0.99385 72:-0.993827 73:-0.993804 74:-0.993786 75:-0.993777 76:-0.993768 77:-0.99376 78:-0.993752 79:-0.99375 80:-0.993762 81:-0.993735 82:-0.993739 83:-0.993412 84:-0.991032 85:-0.988822 86:-0.986598 87:-0.984458 88:-0.982236 89:-0.980208 90:-0.978291 91:-0.9765 92:-0.974465 93:-0.972607 94:-0.970742 95:-0.969134 96:-0.967285 97:-0.965708 98:-0.963942 99:-0.962351 100:-0.9608 101:-0.959234 102:-0.957703 103:-0.956371 104:-0.957216 
2048 1:-0.993786 2:-0.971757 3:-0.988446 4:-0.9935 5:-0.826877 6:-0.833649 7:-0.831256 8:-0.832239 9:-0.834422 10:-0.836078 11:-0.83748 12:-0.872262 13:-0.900244 14:-0.914788 15:-0.929138 16:-0.933154 17:-0.9254 18:-0.921592 19:-0.91583 20:-0.911722 21:-0.918805 22:-0.931195 23:-0.941346 24:-0.948855 25:-0.950468 26:-0.951312 27:-0.953347 28:-0.957314 29:-0.961319 30:-0.965021 31:-0.968288 32:-0.97108 33:-0.974085 34:-0.976884 35:-0.979511 36:-0.98163 37:-0.983844 38:-0.986044 39:-0.988123 40:-0.989893 41:-0.990714 42:-0.991106 43:-0.991595 44:-0.992058 45:-0.992388 46:-0.992492 47:-0.992586 48:-0.99268 49:-0.99277 50:-0.992856 51:-0.992939 52:-0.99296 53:-0.992987 54:-0.99295 55:-0.992962 56:-0.99307 57:-0.993084 58:-0.993101 59:-0.993358 60:-0.993377 61:-0.993388 62:-0.993398 63:-0.993527 64:-0.99357 65:-0.993577 66:-0.993583 67:-0.99359 68:-0.993582 69:-0.99356 70:-0.993538 71:-0.993584 72:-0.993562 73:-0.993541 74:-0.993523 75:-0.993516 76:-0.993508 77:-0.993501 78:-0.993552 79:-0.993529 80:-0.993506 81:-0.993605 82:-0.993628 83:-0.993159 84:-0.99078 85:-0.988572 86:-0.986349 87:-0.984209 88:-0.981989 89:-0.979961 90:-0.978034 91:-0.976204 92:-0.97417 93:-0.972365 94:-0.9705 95:-0.968894 96:-0.967045 97:-0.965469 98:-0.963704 99:-0.962114 100:-0.960563 101:-0.959082 102:-0.957628 103:-0.956282 104:-0.956982 
2048 1:-0.992524 2:-0.978033 3:-0.988199 4:-0.993471 5:-0.826833 6:-0.833607 7:-0.831556 8:-0.835386 9:-0.835987 10:-0.836503 11:-0.837338 12:-0.87213 13:-0.900121 14:-0.914673 15:-0.929675 16:-0.933778 17:-0.92597 18:-0.922559 19:-0.916866 20:-0.912687 21:-0.919713 22:-0.932027 23:-0.941355 24:-0.94875 25:-0.950366 26:-0.951212 27:-0.953249 28:-0.957218 29:-0.961226 30:-0.96493 31:-0.968198 32:-0.970992 33:-0.973998 34:-0.976798 35:-0.979426 36:-0.981624 37:-0.9839 38:-0.986098 39:-0.988173 40:-0.989814 41:-0.990636 42:-0.991149 43:-0.991635 44:-0.992097 45:-0.992425 46:-0.992527 47:-0.992619 48:-0.992711 49:-0.992799 50:-0.992883 51:-0.992965 52:-0.992985 53:-0.99301 54:-0.993246 55:-0.993252 56:-0.993265 57:-0.993447 58:-0.993456 59:-0.993465 60:-0.993473 61:-0.993482 62:-0.993489 63:-0.993497 64:-0.993505 65:-0.993511 66:-0.993518 67:-0.993525 68:-0.993518 69:-0.993496 70:-0.993474 71:-0.993507 72:-0.993499 73:-0.993478 74:-0.993659 75:-0.993707 76:-0.993696 77:-0.993685 78:-0.993675 79:-0.993647 80:-0.993622 81:-0.993593 82:-0.993567 83:-0.993098 84:-0.99072 85:-0.988511 86:-0.986289 87:-0.98415 88:-0.98193 89:-0.979955 90:-0.978028 91:-0.976197 92:-0.974163 93:-0.97234 94:-0.970641 95:-0.969078 96:-0.967227 97:-0.965648 98:-0.96388 99:-0.962288 100:-0.960735 101:-0.959167 102:-0.957634 103:-0.95618 104:-0.956968 
2048 1:-0.994272 2:-0.974895 3:-0.986781 4:-0.993399 5:-0.826675 6:-0.833453 7:-0.831056 8:-0.832439 9:-0.835003 10:-0.835663 11:-0.836598 12:-0.871453 13:-0.899496 14:-0.91409 15:-0.928481 16:-0.932955 17:-0.926154 18:-0.92212 19:-0.91586 20:-0.911737 21:-0.918807 22:-0.931158 23:-0.94105 24:-0.948742 25:-0.950635 26:-0.951872 27:-0.953874 28:-0.957811 29:-0.961789 30:-0.965465 31:-0.968708 32:-0.971479 33:-0.974463 34:-0.977243 35:-0.979851 36:-0.981953 37:-0.984152 38:-0.986337 39:-0.988532 40:-0.990159 41:-0.990967 42:-0.991347 43:-0.991823 44:-0.992276 45:-0.992596 46:-0.992689 47:-0.992774 48:-0.992859 49:-0.99294 50:-0.993018 51:-0.993093 52:-0.993107 53:-0.993126 54:-0.993082 55:-0.993088 56:-0.993101 57:-0.993111 58:-0.993124 59:-0.993135 60:-0.993288 61:-0.993526 62:-0.993632 63:-0.993635 64:-0.993637 65:-0.993691 66:-0.993789 67:-0.993788 68:-0.993775 69:-0.993746 70:-0.993718 71:-0.993691 72:-0.993664 73:-0.993638 74:-0.993616 75:-0.993605 76:-0.993593 77:-0.993608 78:-0.993632 79:-0.993602 80:-0.993575 81:-0.993545 82:-0.993605 83:-0.993272 84:-0.990889 85:-0.988676 86:-0.98645 87:-0.984306 88:-0.982082 89:-0.980051 90:-0.978121 91:-0.976287 92:-0.974249 93:-0.97239 94:-0.970523 95:-0.968914 96:-0.967112 97:-0.965533 98:-0.963765 99:-0.962172 100:-0.960619 101:-0.95905 102:-0.957518 103:-0.956176 104:-0.956982 
2048 1:-0.991941 2:-0.973849 3:-0.987067 4:-0.993038 5:-0.826331 6:-0.833118 7:-0.830714 8:-0.832781 9:-0.834661 10:-0.835323 11:-0.83626 12:-0.87111 13:-0.899148 14:-0.913741 15:-0.928299 16:-0.93366 17:-0.925823 18:-0.921788 19:-0.915527 20:-0.911404 21:-0.918472 22:-0.931542 23:-0.940867 24:-0.948711 25:-0.950304 26:-0.95113 27:-0.953148 28:-0.9571 29:-0.961091 30:-0.96478 31:-0.968034 32:-0.970816 33:-0.973901 34:-0.976751 35:-0.979363 36:-0.981469 37:-0.983671 38:-0.98586 39:-0.987927 40:-0.98956 41:-0.990375 42:-0.990761 43:-0.991243 44:-0.991702 45:-0.992027 46:-0.992126 47:-0.992215 48:-0.992408 49:-0.992491 50:-0.992571 51:-0.992649 52:-0.992664 53:-0.992685 54:-0.992643 55:-0.992711 56:-0.992929 57:-0.992935 58:-0.993114 59:-0.993119 60:-0.993124 61:-0.993171 62:-0.993366 63:-0.993367 64:-0.993369 65:-0.993369 66:-0.99337 67:-0.993371 68:-0.993358 69:-0.99333 70:-0.993303 71:-0.993277 72:-0.993251 73:-0.993226 74:-0.993205 75:-0.993258 76:-0.993246 77:-0.993235 78:-0.993359 79:-0.993374 80:-0.993345 81:-0.993313 82:-0.993284 83:-0.992813 84:-0.990431 85:-0.988221 86:-0.985996 87:-0.983854 88:-0.981632 89:-0.979602 90:-0.977673 91:-0.975862 92:-0.973856 93:-0.971998 94:-0.970132 95:-0.968524 96:-0.966722 97:-0.96522 98:-0.963558 99:-0.962015 100:-0.96046 101:-0.95889 102:-0.957355 103:-0.955899 104:-0.956598 
2048 1:-0.990291 2:-0.973849 3:-0.987106 4:-0.992437 5:-0.823431 6:-0.831424 7:-0.833665 8:-0.833087 9:-0.832798 10:-0.833686 11:-0.83478 12:-0.869724 13:-0.899045 14:-0.914234 15:-0.928527 16:-0.932873 17:-0.925053 18:-0.921408 19:-0.915942 20:-0.911755 21:-0.918769 22:-0.931069 23:-0.940387 24:-0.947771 25:-0.94938 26:-0.950222 27:-0.952254 28:-0.956217 29:-0.960219 30:-0.964092 31:-0.967349 32:-0.970132 33:-0.973129 34:-0.976072 35:-0.978686 36:-0.980794 37:-0.982998 38:-0.985188 39:-0.987257 40:-0.988891 41:-0.989708 42:-0.990095 43:-0.99058 44:-0.99104 45:-0.991366 46:-0.991576 47:-0.991663 48:-0.991752 49:-0.991836 50:-0.992111 51:-0.992186 52:-0.992354 53:-0.992403 54:-0.992355 55:-0.992356 56:-0.992365 57:-0.992371 58:-0.992379 59:-0.99247 60:-0.992477 61:-0.992483 62:-0.992488 63:-0.992494 64:-0.9925 65:-0.992505 66:-0.99251 67:-0.992588 68:-0.992788 69:-0.99276 70:-0.992733 71:-0.992706 72:-0.99268 73:-0.992654 74:-0.992633 75:-0.992622 76:-0.99261 77:-0.992599 78:-0.992588 79:-0.99256 80:-0.992534 81:-0.992564 82:-0.992537 83:-0.992068 84:-0.989748 85:-0.987752 86:-0.985638 87:-0.983493 88:-0.981269 89:-0.979237 90:-0.977306 91:-0.975471 92:-0.973433 93:-0.971574 94:-0.969733 95:-0.968145 96:-0.966293 97:-0.964714 98:-0.962945 99:-0.961352 100:-0.959798 101:-0.958229 102:-0.956696 103:-0.955241 104:-0.955985 
485.5096007483548 1:-0.988932 2:-0.960251 3:-0.977931 4:-0.988606 5:-0.821333 6:-0.828253 7:-0.831429 8:-0.830314 9:-0.829703 10:-0.830861 11:-0.833174 12:-0.867747 13:-0.895567 14:-0.909991 15:-0.924244 16:-0.928195 17:-0.922136 18:-0.918022 19:-0.911903 20:-0.9077 21:-0.914676 22:-0.926935 23:-0.936218 24:-0.943797 25:-0.945377 26:-0.946197 27:-0.948206 28:-0.952144 29:-0.956664 30:-0.961293 31:-0.96483 32:-0.9677 33:-0.970622 34:-0.973341 35:-0.975894 36:-0.977945 37:-0.980094 38:-0.982233 39:-0.984253 40:-0.98584 41:-0.986614 42:-0.987084 43:-0.987528 44:-0.98795 45:-0.98824 46:-0.988306 47:-0.988362 48:-0.988422 49:-0.988478 50:-0.988534 51:-0.988587 52:-0.988579 53:-0.988579 54:-0.988516 55:-0.988504 56:-0.9885 57:-0.988708 58:-0.9887 59:-0.988727 60:-0.988942 61:-0.989104 62:-0.989089 63:-0.989217 64:-0.989215 65:-0.989199 66:-0.989392 67:-0.989649 68:-0.98963 69:-0.989581 70:-0.989855 71:-0.989815 72:-0.989765 73:-0.989715 74:-0.989671 75:-0.989637 76:-0.989603 77:-0.989571 78:-0.98954 79:-0.989491 80:-0.989447 81:-0.989457 82:-0.989411 83:-0.988925 84:-0.986532 85:-0.984311 86:-0.982075 87:-0.979923 88:-0.977691 89:-0.975756 90:-0.973816 91:-0.971973 92:-0.969927 93:-0.968059 94:-0.966184 95:-0.964566 96:-0.962708 97:-0.961121 98:-0.959347 99:-0.957747 100:-0.956187 101:-0.954612 102:-0.953073 103:-0.951726 104:-0.952652 
2048 1:-0.987572 2:-0.962343 3:-0.979635 4:-0.987972 5:-0.820801 6:-0.827735 7:-0.830901 8:-0.829874 9:-0.830877 10:-0.833844 11:-0.835091 12:-0.869383 13:-0.897471 14:-0.911661 15:-0.926127 16:-0.929877 17:-0.921908 18:-0.917763 19:-0.911395 20:-0.907192 21:-0.914165 22:-0.926419 23:-0.9357 24:-0.943049 25:-0.944638 26:-0.945468 27:-0.948315 28:-0.952568 29:-0.956807 30:-0.96095 31:-0.964131 32:-0.966844 33:-0.969775 34:-0.972503 35:-0.975064 36:-0.977124 37:-0.979281 38:-0.981468 39:-0.983584 40:-0.985173 41:-0.985951 42:-0.986303 43:-0.986753 44:-0.98718 45:-0.987476 46:-0.987548 47:-0.987608 48:-0.987672 49:-0.987733 50:-0.987793 51:-0.987851 52:-0.987847 53:-0.98785 54:-0.987791 55:-0.987896 56:-0.988045 57:-0.988348 58:-0.988443 59:-0.988429 60:-0.988499 61:-0.988485 62:-0.988625 63:-0.98861 64:-0.988864 65:-0.989018 66:-0.988997 67:-0.98905 68:-0.989016 69:-0.988967 70:-0.98892 71:-0.988874 72:-0.988829 73:-0.988786 74:-0.988747 75:-0.988718 76:-0.98869 77:-0.988725 78:-0.988698 79:-0.988652 80:-0.988613 81:-0.988567 82:-0.988584 83:-0.988101 84:-0.985714 85:-0.983496 86:-0.981265 87:-0.979117 88:-0.976889 89:-0.974854 90:-0.972919 91:-0.971133 92:-0.969091 93:-0.967228 94:-0.965357 95:-0.963743 96:-0.961888 97:-0.960305 98:-0.958641 99:-0.957235 100:-0.955748 101:-0.954172 102:-0.952632 103:-0.951171 104:-0.951904 
2048 1:-0.983591 2:-0.956067 3:-0.978179 4:-0.983162 5:-0.81589 6:-0.833448 7:-0.827486 8:-0.826005 9:-0.826878 10:-0.828573 11:-0.829031 12:-0.86339 13:-0.891535 14:-0.90579 15:-0.919903 16:-0.924229 17:-0.918529 18:-0.91428 19:-0.908108 20:-0.904086 21:-0.91094 22:-0.923579 23:-0.932735 24:-0.939971 25:-0.941465 26:-0.942212 27:-0.94415 28:-0.94802 29:-0.952117 30:-0.955728 31:-0.958908 32:-0.961622 33:-0.964554 34:-0.967433 35:-0.969989 36:-0.972047 37:-0.974199 38:-0.97634 39:-0.978494 40:-0.980078 41:-0.980855 42:-0.981328 43:-0.981848 44:-0.983096 45:-0.983368 46:-0.983417 47:-0.983559 48:-0.9836 49:-0.98374 50:-0.984236 51:-0.984284 52:-0.984247 53:-0.984221 54:-0.984133 55:-0.984098 56:-0.984159 57:-0.984124 58:-0.984182 59:-0.984153 60:-0.984128 61:-0.984102 62:-0.984076 63:-0.984053 64:-0.984108 65:-0.984083 66:-0.98406 67:-0.984039 68:-0.984004 69:-0.983955 70:-0.983977 71:-0.983929 72:-0.983883 73:-0.983837 74:-0.984138 75:-0.98421 76:-0.984173 77:-0.984138 78:-0.984104 79:-0.984053 80:-0.984009 81:-0.983956 82:-0.983909 83:-0.983535 84:-0.981146 85:-0.978928 86:-0.976696 87:-0.974548 88:-0.972319 89:-0.970284 90:-0.968401 91:-0.966561 92:-0.964519 93:-0.962655 94:-0.960784 95:-0.959169 96:-0.957314 97:-0.955779 98:-0.954007 99:-0.95241 100:-0.950853 101:-0.949416 102:-0.947878 103:-0.946418 104:-0.947103 
2048 1:-0.980193 2:-0.953975 3:-0.977776 4:-0.982852 5:-0.815319 6:-0.828947 7:-0.827232 8:-0.825731 9:-0.824891 10:-0.825463 11:-0.827532 12:-0.862016 13:-0.889771 14:-0.904551 15:-0.919197 16:-0.92345 17:-0.917483 18:-0.913371 19:-0.907236 20:-0.90325 21:-0.91013 22:-0.922293 23:-0.931495 24:-0.938997 25:-0.940736 26:-0.941501 27:-0.943455 28:-0.947339 29:-0.951448 30:-0.955071 31:-0.958262 32:-0.960986 33:-0.964085 34:-0.966815 35:-0.969379 36:-0.971588 37:-0.973743 38:-0.975887 39:-0.977912 40:-0.979502 41:-0.980409 42:-0.980764 43:-0.981387 44:-0.982387 45:-0.982821 46:-0.982875 47:-0.982915 48:-0.982962 49:-0.983109 50:-0.983727 51:-0.983757 52:-0.983724 53:-0.983701 54:-0.983617 55:-0.983585 56:-0.983561 57:-0.983531 58:-0.983509 59:-0.983648 60:-0.983626 61:-0.983603 62:-0.98358 63:-0.98356 64:-0.983616 65:-0.983594 66:-0.983574 67:-0.983554 68:-0.983522 69:-0.983612 70:-0.983565 71:-0.983518 72:-0.983472 73:-0.983628 74:-0.983769 75:-0.983735 76:-0.9837 77:-0.983729 78:-0.983696 79:-0.983645 80:-0.983602 81:-0.983609 82:-0.983562 83:-0.983076 84:-0.980689 85:-0.978473 86:-0.976243 87:-0.974151 88:-0.971924 89:-0.969889 90:-0.967955 91:-0.966117 92:-0.9641 93:-0.962315 94:-0.960444 95:-0.958829 96:-0.956975 97:-0.955392 98:-0.953621 99:-0.952072 100:-0.950515 101:-0.948943 102:-0.94743 103:-0.946083 104:-0.946813 
2048 1:-0.981164 2:-0.956067 3:-0.976456 4:-0.982733 5:-0.815355 6:-0.830783 7:-0.825499 8:-0.824382 9:-0.823974 10:-0.825401 11:-0.826718 12:-0.861269 13:-0.889438 14:-0.906564 15:-0.92056 16:-0.924309 17:-0.916356 18:-0.912549 19:-0.906157 20:-0.90195 21:-0.908891 22:-0.921106 23:-0.930355 24:-0.9379 25:-0.941172 26:-0.942258 27:-0.944171 28:-0.948017 29:-0.95191 30:-0.955508 31:-0.958844 32:-0.96154 33:-0.964457 34:-0.967168 35:-0.969714 36:-0.971763 37:-0.973907 38:-0.976302 39:-0.97831 40:-0.979884 41:-0.980651 42:-0.980994 43:-0.981435 44:-0.981855 45:-0.982584 46:-0.982851 47:-0.982886 48:-0.98293 49:-0.983073 50:-0.983545 51:-0.983719 52:-0.983683 53:-0.983656 54:-0.983569 55:-0.983534 56:-0.983507 57:-0.98356 58:-0.983534 59:-0.983507 60:-0.983483 61:-0.983459 62:-0.983435 63:-0.983414 64:-0.983542 65:-0.983517 66:-0.983495 67:-0.983474 68:-0.983439 69:-0.983391 70:-0.983344 71:-0.983365 72:-0.983319 73:-0.983402 74:-0.983615 75:-0.983643 76:-0.983607 77:-0.983634 78:-0.9836 79:-0.983548 80:-0.983503 81:-0.983449 82:-0.983402 83:-0.982915 84:-0.980528 85:-0.978312 86:-0.976189 87:-0.974041 88:-0.971812 89:-0.96983 90:-0.967894 91:-0.966055 92:-0.964012 93:-0.962148 94:-0.960374 95:-0.958759 96:-0.956952 97:-0.955367 98:-0.953594 99:-0.951996 100:-0.950438 101:-0.948864 102:-0.947327 103:-0.945867 104:-0.946773 
2048 1:-0.98165 2:-0.955021 3:-0.977106 4:-0.982614 5:-0.828258 6:-0.83082 7:-0.830143 8:-0.828675 9:-0.82719 10:-0.827321 11:-0.827876 12:-0.862836 13:-0.890476 14:-0.905638 15:-0.920501 16:-0.924247 17:-0.916293 18:-0.912166 19:-0.905794 20:-0.901606 21:-0.909072 22:-0.921273 23:-0.931657 24:-0.939126 25:-0.94063 26:-0.941387 27:-0.943334 28:-0.94721 29:-0.951313 30:-0.955042 31:-0.958443 32:-0.96115 33:-0.964077 34:-0.966798 35:-0.9695 36:-0.971553 37:-0.973701 38:-0.975837 39:-0.977856 40:-0.979566 41:-0.98034 42:-0.980689 43:-0.981136 44:-0.98179 45:-0.982624 46:-0.982888 47:-0.982921 48:-0.982962 49:-0.983108 50:-0.983238 51:-0.983723 52:-0.983705 53:-0.983676 54:-0.983587 55:-0.98355 56:-0.983521 57:-0.983573 58:-0.983545 59:-0.983516 60:-0.98349 61:-0.983545 62:-0.983518 63:-0.983494 64:-0.983471 65:-0.983446 66:-0.983497 67:-0.983475 68:-0.983439 69:-0.983389 70:-0.983341 71:-0.983293 72:-0.983333 73:-0.98333 74:-0.983288 75:-0.983635 76:-0.983597 77:-0.983561 78:-0.983527 79:-0.983535 80:-0.98349 81:-0.983435 82:-0.983387 83:-0.982899 84:-0.980511 85:-0.978294 86:-0.976118 87:-0.97397 88:-0.971741 89:-0.969706 90:-0.96777 91:-0.965932 92:-0.96389 93:-0.962077 94:-0.960226 95:-0.958716 96:-0.956859 97:-0.955274 98:-0.953502 99:-0.95192 100:-0.950364 101:-0.94879 102:-0.947253 103:-0.945793 104:-0.946611 
2048 1:-0.979125 2:-0.951883 3:-0.977125 4:-0.981483 5:-0.814143 6:-0.829603 7:-0.824297 8:-0.823179 9:-0.822569 10:-0.82331 11:-0.824291 12:-0.860895 13:-0.889282 14:-0.903772 15:-0.918124 16:-0.921972 17:-0.914109 18:-0.910381 19:-0.904051 20:-0.899987 21:-0.907413 22:-0.919634 23:-0.930608 24:-0.937952 25:-0.939456 26:-0.940214 27:-0.942358 28:-0.946414 29:-0.95032 30:-0.953929 31:-0.957108 32:-0.95982 33:-0.962751 34:-0.965475 35:-0.968181 36:-0.970238 37:-0.972389 38:-0.974663 39:-0.976681 40:-0.978263 41:-0.979645 42:-0.980103 43:-0.980534 44:-0.981059 45:-0.981337 46:-0.981919 47:-0.981946 48:-0.981983 49:-0.982017 50:-0.982052 51:-0.982184 52:-0.982153 53:-0.982182 54:-0.982143 55:-0.982112 56:-0.982176 57:-0.982144 58:-0.982121 59:-0.982097 60:-0.982076 61:-0.982135 62:-0.982112 63:-0.98217 64:-0.98215 65:-0.982127 66:-0.982108 67:-0.98223 68:-0.982476 69:-0.982424 70:-0.982372 71:-0.98239 72:-0.982339 73:-0.982356 74:-0.982312 75:-0.982277 76:-0.982306 77:-0.982271 78:-0.982239 79:-0.982188 80:-0.982145 81:-0.982092 82:-0.982046 83:-0.981561 84:-0.979238 85:-0.977161 86:-0.974952 87:-0.972805 88:-0.970578 89:-0.968544 90:-0.966609 91:-0.964823 92:-0.962782 93:-0.960919 94:-0.959049 95:-0.957436 96:-0.955677 97:-0.954093 98:-0.952323 99:-0.950781 100:-0.949287 101:-0.947713 102:-0.946176 103:-0.944779 104:-0.945461 
2048 1:-0.987184 2:-0.962343 3:-0.97933 4:-0.988908 5:-0.837696 6:-0.841155 7:-0.834649 8:-0.83511 9:-0.835194 10:-0.835007 11:-0.835343 12:-0.869721 13:-0.897385 14:-0.911677 15:-0.925819 16:-0.929672 17:-0.922135 18:-0.918041 19:-0.911716 20:-0.90755 21:-0.914821 22:-0.927094 23:-0.93639 24:-0.943755 25:-0.945571 26:-0.946401 27:-0.948716 28:-0.952839 29:-0.956838 30:-0.960713 31:-0.963938 32:-0.966691 33:-0.96978 34:-0.972863 35:-0.975444 36:-0.977664 37:-0.979834 38:-0.982515 39:-0.984539 40:-0.986256 41:-0.987031 42:-0.987379 43:-0.988129 44:-0.988804 45:-0.989083 46:-0.989209 47:-0.989292 48:-0.989339 49:-0.989384 50:-0.989428 51:-0.989569 52:-0.989549 53:-0.989536 54:-0.989462 55:-0.989439 56:-0.989425 57:-0.989406 58:-0.989393 59:-0.989379 60:-0.989367 61:-0.989354 62:-0.989342 63:-0.989331 64:-0.989397 65:-0.989384 66:-0.989373 67:-0.989362 68:-0.989338 69:-0.989299 70:-0.989396 71:-0.989357 72:-0.989533 73:-0.989606 74:-0.989569 75:-0.989542 76:-0.989515 77:-0.989552 78:-0.989526 79:-0.989675 80:-0.989675 81:-0.989628 82:-0.989585 83:-0.989101 84:-0.986768 85:-0.984549 86:-0.982315 87:-0.980165 88:-0.977934 89:-0.975896 90:-0.97396 91:-0.972119 92:-0.970127 93:-0.968262 94:-0.966388 95:-0.964773 96:-0.962916 97:-0.961331 98:-0.959558 99:-0.957961 100:-0.956402 101:-0.954829 102:-0.953292 103:-0.951932 104:-0.952874 
1073.117016411404 1:-0.987184 2:-0.966527 3:-0.979577 4:-0.98714 5:-0.819963 6:-0.829064 7:-0.831527 8:-0.830705 9:-0.830093 10:-0.830495 11:-0.831243 12:-0.867245 13:-0.89576 14:-0.910646 15:-0.925274 16:-0.929024 17:-0.921057 18:-0.916915 19:-0.910546 20:-0.906345 21:-0.913315 22:-0.925565 23:-0.934843 24:-0.942189 25:-0.943778 26:-0.944813 27:-0.947018 28:-0.950946 29:-0.954915 30:-0.958582 31:-0.961816 32:-0.964579 33:-0.967557 34:-0.970327 35:-0.973076 36:-0.97517 37:-0.977672 38:-0.980549 39:-0.982626 40:-0.984437 41:-0.985211 42:-0.98556 43:-0.986124 44:-0.986545 45:-0.986836 46:-0.986902 47:-0.986956 48:-0.987016 49:-0.987072 50:-0.987127 51:-0.987181 52:-0.987173 53:-0.987172 54:-0.987109 55:-0.987098 56:-0.987094 57:-0.987084 58:-0.98708 59:-0.987075 60:-0.987263 61:-0.987271 62:-0.987263 63:-0.987257 64:-0.987364 65:-0.987355 66:-0.987711 67:-0.987698 68:-0.987672 69:-0.987631 70:-0.987591 71:-0.98762 72:-0.98774 73:-0.987992 74:-0.987952 75:-0.987923 76:-0.987893 77:-0.987864 78:-0.987837 79:-0.987792 80:-0.987753 81:-0.987707 82:-0.987716 83:-0.987241 84:-0.984854 85:-0.982638 86:-0.980408 87:-0.978261 88:-0.976034 89:-0.973999 90:-0.972065 91:-0.970228 92:-0.968188 93:-0.966326 94:-0.964456 95:-0.962942 96:-0.961088 97:-0.959505 98:-0.957735 99:-0.956139 100:-0.954582 101:-0.953011 102:-0.951475 103:-0.950084 104:-0.951062 
2048 1:-0.986116 2:-0.964435 3:-0.980286 4:-0.987427 5:-0.820294 6:-0.835535 7:-0.830398 8:-0.829283 9:-0.829547 10:-0.830097 11:-0.83095 12:-0.867315 13:-0.89696 14:-0.911147 15:-0.925203 16:-0.928987 17:-0.921048 18:-0.916931 19:-0.910584 20:-0.906401 21:-0.913388 22:-0.925902 23:-0.935181 24:-0.942528 25:-0.944118 26:-0.944947 27:-0.946964 28:-0.950908 29:-0.954892 30:-0.958574 31:-0.961821 32:-0.964595 33:-0.967584 34:-0.970748 35:-0.973347 36:-0.975512 37:-0.9777 38:-0.98011 39:-0.98272 40:-0.984502 41:-0.985555 42:-0.985903 43:-0.98635 44:-0.986774 45:-0.987067 46:-0.987245 47:-0.9873 48:-0.987359 49:-0.987416 50:-0.987471 51:-0.987525 52:-0.987516 53:-0.987515 54:-0.987452 55:-0.987441 56:-0.987436 57:-0.987427 58:-0.987423 59:-0.987418 60:-0.987415 61:-0.987613 62:-0.987606 63:-0.9876 64:-0.987707 65:-0.987697 66:-0.98769 67:-0.988041 68:-0.988014 69:-0.987973 70:-0.987934 71:-0.987963 72:-0.988145 73:-0.988205 74:-0.988167 75:-0.98814 76:-0.988112 77:-0.988085 78:-0.98806 79:-0.988016 80:-0.988038 81:-0.987993 82:-0.987952 83:-0.987471 84:-0.985085 85:-0.98287 86:-0.980641 87:-0.978495 88:-0.976269 89:-0.974235 90:-0.972302 91:-0.970466 92:-0.968426 93:-0.966565 94:-0.964696 95:-0.963209 96:-0.961355 97:-0.959845 98:-0.958074 99:-0.956478 100:-0.954921 101:-0.953349 102:-0.951813 103:-0.950384 104:-0.95131 
1624.707753846789 1:-0.984077 2:-0.965481 3:-0.978907 4:-0.986854 5:-0.819636 6:-0.836175 7:-0.831125 8:-0.829665 9:-0.830549 10:-0.830819 11:-0.831474 12:-0.866068 13:-0.895073 14:-0.910433 15:-0.92449 16:-0.928276 17:-0.920343 18:-0.91623 19:-0.909885 20:-0.905706 21:-0.912692 22:-0.924956 23:-0.93472 24:-0.942055 25:-0.943634 26:-0.944456 27:-0.946465 28:-0.950401 29:-0.954378 30:-0.958052 31:-0.961293 32:-0.964061 33:-0.967045 34:-0.969821 35:-0.972427 36:-0.974816 37:-0.977142 38:-0.979314 39:-0.981673 40:-0.983361 41:-0.984768 42:-0.985682 43:-0.986117 44:-0.98653 45:-0.986813 46:-0.986871 47:-0.986919 48:-0.986971 49:-0.987021 50:-0.98707 51:-0.987215 52:-0.987199 53:-0.987191 54:-0.987121 55:-0.987102 56:-0.987092 57:-0.987076 58:-0.987066 59:-0.987055 60:-0.987046 61:-0.987037 62:-0.987028 63:-0.987175 64:-0.987165 65:-0.987153 66:-0.987144 67:-0.987211 68:-0.987531 69:-0.987488 70:-0.987445 71:-0.987471 72:-0.987496 73:-0.987771 74:-0.987733 75:-0.987702 76:-0.987671 77:-0.987641 78:-0.987612 79:-0.987565 80:-0.987524 81:-0.987484 82:-0.987493 83:-0.987009 84:-0.984621 85:-0.982404 86:-0.980172 87:-0.978025 88:-0.975796 89:-0.973761 90:-0.971826 91:-0.969988 92:-0.967947 93:-0.966084 94:-0.964214 95:-0.962601 96:-0.960746 97:-0.95927 98:-0.957537 99:-0.95594 100:-0.954382 101:-0.95281 102:-0.951273 103:-0.949874 104:-0.950812 
2048 1:-0.98097 2:-0.958159 3:-0.975882 4:-0.985982 5:-0.818578 6:-0.833921 7:-0.828696 8:-0.82758 9:-0.828672 10:-0.830914 11:-0.831408 12:-0.867138 13:-0.894711 14:-0.908938 15:-0.923654 16:-0.927593 17:-0.919631 18:-0.915495 19:-0.909126 20:-0.90493 21:-0.912159 22:-0.92439 23:-0.933651 24:-0.940982 25:-0.94256 26:-0.943382 27:-0.945586 28:-0.949513 29:-0.95348 30:-0.957147 31:-0.960379 32:-0.963141 33:-0.966275 34:-0.969039 35:-0.971652 36:-0.974751 37:-0.976978 38:-0.97939 39:-0.981408 40:-0.982991 41:-0.983766 42:-0.984114 43:-0.984561 44:-0.984986 45:-0.98528 46:-0.985561 47:-0.985613 48:-0.98567 49:-0.985725 50:-0.985778 51:-0.985928 52:-0.985915 53:-0.985912 54:-0.985845 55:-0.985831 56:-0.985823 57:-0.98581 58:-0.985804 59:-0.985796 60:-0.985967 61:-0.986121 62:-0.98653 63:-0.986656 64:-0.986637 65:-0.986616 66:-0.986841 67:-0.98704 68:-0.987099 69:-0.987046 70:-0.986993 71:-0.986942 72:-0.986892 73:-0.986909 74:-0.987133 75:-0.987141 76:-0.987102 77:-0.987065 78:-0.987029 79:-0.986976 80:-0.986928 81:-0.986874 82:-0.986825 83:-0.986336 84:-0.983944 85:-0.981779 86:-0.979542 87:-0.97739 88:-0.975157 89:-0.973117 90:-0.97123 91:-0.969439 92:-0.967392 93:-0.965524 94:-0.963649 95:-0.96203 96:-0.960171 97:-0.958584 98:-0.956809 99:-0.955209 100:-0.953742 101:-0.952165 102:-0.950893 103:-0.949428 104:-0.950111 
2048 1:-0.987184 2:-0.961297 3:-0.977703 4:-0.9895 5:-0.822216 6:-0.829112 7:-0.831921 8:-0.83119 9:-0.830579 10:-0.831267 11:-0.832219 12:-0.867792 13:-0.895963 14:-0.91044 15:-0.924966 16:-0.930605 17:-0.922688 18:-0.918588 19:-0.912261 20:-0.908091 21:-0.915098 22:-0.927385 23:-0.936694 24:-0.944069 25:-0.946082 26:-0.947092 27:-0.949101 28:-0.953041 29:-0.957021 30:-0.960699 31:-0.96451 32:-0.967696 33:-0.97122 34:-0.97395 35:-0.976513 36:-0.978574 37:-0.980732 38:-0.982879 39:-0.984908 40:-0.986503 41:-0.987408 42:-0.98776 43:-0.98821 44:-0.988638 45:-0.988934 46:-0.989005 47:-0.989066 48:-0.989131 49:-0.989192 50:-0.989251 51:-0.989309 52:-0.989305 53:-0.989308 54:-0.989249 55:-0.98924 56:-0.98924 57:-0.989448 58:-0.989487 59:-0.989481 60:-0.989476 61:-0.989471 62:-0.989466 63:-0.989461 64:-0.989813 65:-0.990039 66:-0.990025 67:-0.990012 68:-0.989986 69:-0.989945 70:-0.989905 71:-0.989934 72:-0.990002 73:-0.990253 74:-0.990501 75:-0.990554 76:-0.990521 77:-0.990634 78:-0.990697 79:-0.990644 80:-0.990597 81:-0.990545 82:-0.990497 83:-0.990008 84:-0.987612 85:-0.985387 86:-0.983148 87:-0.980993 88:-0.978812 89:-0.976769 90:-0.974827 91:-0.972981 92:-0.970933 93:-0.969064 94:-0.967186 95:-0.965567 96:-0.963706 97:-0.962117 98:-0.960341 99:-0.958739 100:-0.957178 101:-0.955601 102:-0.954149 103:-0.952685 104:-0.953575 
-2048 1:-0.995631 2:-0.978033 3:-0.988927 4:-0.995344 5:-0.824349 6:-0.833333 7:-0.834954 8:-0.83555 9:-0.836102 10:-0.837713 11:-0.838641 12:-0.873526 13:-0.901591 14:-0.916198 15:-0.930985 16:-0.935028 17:-0.927271 18:-0.923304 19:-0.917107 20:-0.913034 21:-0.920156 22:-0.932555 23:-0.941961 24:-0.949427 25:-0.951411 26:-0.952612 27:-0.954674 28:-0.958667 29:-0.962698 30:-0.966423 31:-0.96971 32:-0.972523 33:-0.975546 34:-0.978363 35:-0.981006 36:-0.983139 37:-0.985368 38:-0.987582 39:-0.989674 40:-0.991329 41:-0.992178 42:-0.992876 43:-0.993654 44:-0.994214 45:-0.994538 46:-0.994637 47:-0.994727 48:-0.994817 49:-0.994902 50:-0.995064 51:-0.995378 52:-0.995456 53:-0.995471 54:-0.995423 55:-0.995514 56:-0.995522 57:-0.995527 58:-0.995701 59:-0.995786 60:-0.995788 61:-0.99579 62:-0.995792 63:-0.995794 64:-0.995797 65:-0.995798 66:-0.9958 67:-0.995802 68:-0.99579 69:-0.995763 70:-0.995737 71:-0.995711 72:-0.995687 73:-0.995662 74:-0.995642 75:-0.995632 76:-0.995622 77:-0.995612 78:-0.995603 79:-0.995575 80:-0.99555 81:-0.995522 82:-0.995497 83:-0.995029 84:-0.992648 85:-0.990438 86:-0.988214 87:-0.986073 88:-0.983852 89:-0.981822 90:-0.979947 91:-0.978115 92:-0.976079 93:-0.974222 94:-0.972386 95:-0.970798 96:-0.968947 97:-0.96737 98:-0.965603 99:-0.964012 100:-0.962459 101:-0.960892 102:-0.959361 103:-0.958016 104:-0.958828 
-2048 1:-0.996796 2:-0.987448 3:-0.995631 4:-0.997046 5:-0.830867 6:-0.837535 7:-0.835214 8:-0.83558 9:-0.836633 10:-0.837701 11:-0.838927 12:-0.874044 13:-0.902292 14:-0.917047 15:-0.93157 16:-0.935846 17:-0.928698 18:-0.92484 19:-0.918684 20:-0.914643 21:-0.92204 22:-0.934485 23:-0.943909 24:-0.951392 25:-0.953081 26:-0.95399 27:-0.956087 28:-0.960113 29:-0.964174 30:-0.967928 31:-0.971242 32:-0.974079 33:-0.977125 34:-0.979964 35:-0.982686 36:-0.984921 37:-0.987164 38:-0.989391 39:-0.991495 40:-0.993163 41:-0.994008 42:-0.994422 43:-0.994931 44:-0.995415 45:-0.995763 46:-0.995994 47:-0.996104 48:-0.996212 49:-0.996315 50:-0.996413 51:-0.996508 52:-0.996541 53:-0.996579 54:-0.996552 55:-0.996574 56:-0.996603 57:-0.99663 58:-0.996706 59:-0.996849 60:-0.996871 61:-0.996893 62:-0.996913 63:-0.996933 64:-0.996953 65:-0.996971 66:-0.996989 67:-0.997007 68:-0.99701 69:-0.996998 70:-0.996986 71:-0.996974 72:-0.996963 73:-0.996952 74:-0.996944 75:-0.996946 76:-0.996948 77:-0.99695 78:-0.996952 79:-0.996936 80:-0.996921 81:-0.996905 82:-0.996965 83:-0.996546 84:-0.994172 85:-0.991968 86:-0.98975 87:-0.987615 88:-0.985399 89:-0.983376 90:-0.981453 91:-0.979627 92:-0.977597 93:-0.975745 94:-0.973885 95:-0.972283 96:-0.970439 97:-0.968867 98:-0.967105 99:-0.96552 100:-0.963973 101:-0.962411 102:-0.960885 103:-0.959436 104:-0.960147 
-1261.434827632525 1:-0.98097 2:-0.967573 3:-0.978907 4:-0.9781 5:-0.83304 6:-0.828869 7:-0.822724 8:-0.822285 9:-0.82663 10:-0.831397 11:-0.830741 12:-0.864286 13:-0.891288 14:-0.905059 15:-0.919181 16:-0.922665 17:-0.914493 18:-0.910182 19:-0.903646 20:-0.899599 21:-0.906404 22:-0.918493 23:-0.927631 24:-0.934848 25:-0.936882 26:-0.937706 27:-0.939617 28:-0.943457 29:-0.947344 30:-0.950935 31:-0.954098 32:-0.956794 33:-0.959711 34:-0.962421 35:-0.964967 36:-0.967019 37:-0.969511 38:-0.971634 39:-0.973639 40:-0.975209 41:-0.975977 42:-0.976322 43:-0.976764 44:-0.977185 45:-0.977753 46:-0.977813 47:-0.977856 48:-0.977909 49:-0.977959 50:-0.97801 51:-0.978059 52:-0.978044 53:-0.97804 54:-0.977973 55:-0.977959 56:-0.977952 57:-0.978688 58:-0.978667 59:-0.978645 60:-0.978626 61:-0.978607 62:-0.978666 63:-0.978648 64:-0.978631 65:-0.978611 66:-0.978595 67:-0.978578 68:-0.978548 69:-0.978505 70:-0.978463 71:-0.978525 72:-0.978548 73:-0.9786 74:-0.978626 75:-0.978597 76:-0.978566 77:-0.978599 78:-0.978571 79:-0.978524 80:-0.978487 81:-0.978437 82:-0.978395 83:-0.977915 84:-0.975539 85:-0.973334 86:-0.971113 87:-0.969115 88:-0.966896 89:-0.96487 90:-0.962968 91:-0.961138 92:-0.959105 93:-0.95725 94:-0.955387 95:-0.953905 96:-0.952057 97:-0.95048 98:-0.948716 99:-0.947126 100:-0.945575 101:-0.944009 102:-0.942479 103:-0.94114 104:-0.941913 
-2048 1:-0.98563 2:-0.960251 3:-0.97297 4:-0.983782 5:-0.835105 6:-0.832467 7:-0.826928 8:-0.825668 9:-0.824972 10:-0.826364 11:-0.828394 12:-0.862865 13:-0.893097 14:-0.909282 15:-0.923122 16:-0.926732 17:-0.918654 18:-0.91442 19:-0.908261 20:-0.903972 21:-0.910851 22:-0.923533 23:-0.932814 24:-0.940062 25:-0.941568 26:-0.942326 27:-0.944274 28:-0.948422 29:-0.952335 30:-0.955951 31:-0.959137 32:-0.961854 33:-0.964791 34:-0.967521 35:-0.970085 36:-0.972151 37:-0.974544 38:-0.976797 39:-0.978817 40:-0.980401 41:-0.981179 42:-0.981532 43:-0.981982 44:-0.98241 45:-0.982708 46:-0.982781 47:-0.982839 48:-0.982904 49:-0.983207 50:-0.983262 51:-0.983317 52:-0.983308 53:-0.983307 54:-0.983245 55:-0.98346 56:-0.983452 57:-0.983437 58:-0.983429 59:-0.98342 60:-0.983705 61:-0.984344 62:-0.984431 63:-0.984408 64:-0.984386 65:-0.984362 66:-0.984341 67:-0.98432 68:-0.984286 69:-0.984375 70:-0.984326 71:-0.984278 72:-0.984232 73:-0.984186 74:-0.984146 75:-0.984116 76:-0.984268 77:-0.98424 78:-0.984209 79:-0.984161 80:-0.98412 81:-0.98407 82:-0.984026 83:-0.983542 84:-0.981301 85:-0.979219 86:-0.977094 87:-0.974945 88:-0.972715 89:-0.970679 90:-0.968795 91:-0.966954 92:-0.964962 93:-0.963169 94:-0.961565 95:-0.960036 96:-0.958226 97:-0.956636 98:-0.954858 99:-0.953255 100:-0.951709 101:-0.950295 102:-0.94875 103:-0.947284 104:-0.948053 
-2048 1:-0.996408 2:-0.987448 3:-0.992529 4:-0.996949 5:-0.830389 6:-0.837183 7:-0.834895 8:-0.835219 9:-0.83651 10:-0.838107 11:-0.83924 12:-0.874377 13:-0.903346 14:-0.918515 15:-0.932888 16:-0.936912 17:-0.929271 18:-0.925795 19:-0.919734 20:-0.916007 21:-0.923074 22:-0.935431 23:-0.944796 24:-0.952225 25:-0.953947 26:-0.95513 27:-0.957478 28:-0.961501 29:-0.965498 30:-0.969192 31:-0.972451 32:-0.975238 33:-0.978236 34:-0.98103 35:-0.983652 36:-0.985764 37:-0.987974 38:-0.990171 39:-0.992246 40:-0.993887 41:-0.994705 42:-0.995094 43:-0.99558 44:-0.996041 45:-0.996368 46:-0.996469 47:-0.996562 48:-0.996654 49:-0.996741 50:-0.996825 51:-0.996906 52:-0.996925 53:-0.99695 54:-0.99691 55:-0.99692 56:-0.996938 57:-0.996953 58:-0.99697 59:-0.996985 60:-0.997001 61:-0.997015 62:-0.997029 63:-0.997043 64:-0.997057 65:-0.997069 66:-0.997182 67:-0.997235 68:-0.99723 69:-0.997211 70:-0.997192 71:-0.997174 72:-0.997156 73:-0.997138 74:-0.997124 75:-0.99712 76:-0.997116 77:-0.997113 78:-0.997109 79:-0.997087 80:-0.997067 81:-0.997045 82:-0.997025 83:-0.996561 84:-0.994184 85:-0.991977 86:-0.989756 87:-0.987617 88:-0.985399 89:-0.983372 90:-0.981447 91:-0.979618 92:-0.977585 93:-0.975731 94:-0.973868 95:-0.972264 96:-0.970417 97:-0.968842 98:-0.96715 99:-0.965582 100:-0.964032 101:-0.962467 102:-0.960938 103:-0.959486 104:-0.960239 
-2048 1:-0.979805 2:-0.925732 3:-0.963173 4:-0.984084 5:-0.829747 6:-0.829723 7:-0.82643 8:-0.828504 9:-0.827186 10:-0.827427 11:-0.828059 12:-0.862533 13:-0.890278 14:-0.905103 15:-0.91928 16:-0.923559 17:-0.916719 18:-0.915239 19:-0.909767 20:-0.905362 21:-0.912148 22:-0.924538 23:-0.934292 24:-0.941458 25:-0.942884 26:-0.944086 27:-0.946237 28:-0.950024 29:-0.954226 30:-0.958109 31:-0.961542 32:-0.964534 33:-0.967486 34:-0.970415 35:-0.972879 36:-0.97485 37:-0.97719 38:-0.979382 39:-0.98165 40:-0.983151 41:-0.983847 42:-0.98418 43:-0.984555 44:-0.984911 45:-0.985251 46:-0.985256 47:-0.985251 48:-0.985358 49:-0.985359 50:-0.985361 51:-0.985364 52:-0.985402 53:-0.985352 54:-0.985243 55:-0.985186 56:-0.985227 57:-0.985173 58:-0.985194 59:-0.985292 60:-0.985247 61:-0.985203 62:-0.985192 63:-0.985151 64:-0.985112 65:-0.985071 66:-0.985324 67:-0.985366 68:-0.985511 69:-0.98544 70:-0.98537 71:-0.985303 72:-0.985297 73:-0.985238 74:-0.985179 75:-0.98513 76:-0.985081 77:-0.985159 78:-0.985153 79:-0.985227 80:-0.985288 81:-0.985294 82:-0.98543 83:-0.985116 84:-0.982763 85:-0.980524 86:-0.978382 87:-0.976322 88:-0.974124 89:-0.972066 90:-0.970109 91:-0.968249 92:-0.966237 93:-0.96444 94:-0.962561 95:-0.960926 96:-0.959051 97:-0.957448 98:-0.95575 99:-0.954151 100:-0.952695 101:-0.951213 102:-0.949683 103:-0.948204 104:-0.948961 
-2048 1:-0.979416 2:-0.948745 3:-0.967723 4:-0.983247 5:-0.830196 6:-0.839239 7:-0.840142 8:-0.83537 9:-0.832563 10:-0.831784 11:-0.831699 12:-0.866243 13:-0.893547 14:-0.907915 15:-0.921876 16:-0.925517 17:-0.917468 18:-0.913579 19:-0.90712 20:-0.902851 21:-0.909742 22:-0.921913 23:-0.931124 24:-0.938633 25:-0.940165 26:-0.940947 27:-0.943114 28:-0.947003 29:-0.950936 30:-0.954745 31:-0.957941 32:-0.960668 33:-0.963614 34:-0.966353 35:-0.969072 36:-0.971141 37:-0.973304 38:-0.975589 39:-0.977617 40:-0.979209 41:-0.980119 42:-0.980476 43:-0.980931 44:-0.981363 45:-0.981665 46:-0.981742 47:-0.981803 48:-0.981975 49:-0.982038 50:-0.9821 51:-0.98216 52:-0.982157 53:-0.982256 54:-0.982196 55:-0.982189 56:-0.982189 57:-0.98218 58:-0.98218 59:-0.982228 60:-0.982341 61:-0.982338 62:-0.982333 63:-0.982331 64:-0.982329 65:-0.982399 66:-0.982396 67:-0.98281 68:-0.983393 69:-0.983943 70:-0.984476 71:-0.98444 72:-0.984378 73:-0.984384 74:-0.984328 75:-0.984283 76:-0.984428 77:-0.984381 78:-0.984337 79:-0.984275 80:-0.984281 81:-0.984217 82:-0.98416 83:-0.983664 84:-0.981267 85:-0.979238 86:-0.976995 87:-0.974836 88:-0.972774 89:-0.97083 90:-0.968881 91:-0.967029 92:-0.964975 93:-0.963129 94:-0.961314 95:-0.959687 96:-0.957869 97:-0.956273 98:-0.95449 99:-0.952882 100:-0.951314 101:-0.949777 102:-0.948364 103:-0.946908 104:-0.947831 
-2048 1:-0.996505 2:-0.990586 3:-0.995689 4:-0.997685 5:-0.832369 6:-0.838595 7:-0.836159 8:-0.836396 9:-0.836595 10:-0.83778 11:-0.83909 12:-0.874273 13:-0.902574 14:-0.917371 15:-0.931928 16:-0.93611 17:-0.928486 18:-0.92463 19:-0.918534 20:-0.914545 21:-0.921748 22:-0.934225 23:-0.943698 24:-0.951226 25:-0.952955 26:-0.953902 27:-0.956135 28:-0.960279 29:-0.964362 30:-0.968135 31:-0.971468 32:-0.974322 33:-0.977384 34:-0.980237 35:-0.982915 36:-0.98508 37:-0.987339 38:-0.989582 39:-0.9917 40:-0.993382 41:-0.994241 42:-0.994667 43:-0.995188 44:-0.995683 45:-0.996042 46:-0.996173 47:-0.996296 48:-0.996415 49:-0.996529 50:-0.996684 51:-0.996902 52:-0.997053 53:-0.997203 54:-0.997263 55:-0.997284 56:-0.997313 57:-0.99734 58:-0.997367 59:-0.997392 60:-0.997462 61:-0.997522 62:-0.997543 63:-0.997564 64:-0.997585 65:-0.997605 66:-0.997624 67:-0.997642 68:-0.997646 69:-0.997635 70:-0.997624 71:-0.997613 72:-0.997603 73:-0.997593 74:-0.997586 75:-0.997589 76:-0.997592 77:-0.997657 78:-0.997659 79:-0.997643 80:-0.997627 81:-0.997611 82:-0.997595 83:-0.997136 84:-0.994763 85:-0.99256 86:-0.990342 87:-0.988208 88:-0.985993 89:-0.98397 90:-0.982048 91:-0.980222 92:-0.978193 93:-0.976342 94:-0.974482 95:-0.97288 96:-0.971036 97:-0.969465 98:-0.967704 99:-0.966118 100:-0.964572 101:-0.963011 102:-0.961485 103:-0.960037 104:-0.960793 
-2048 1:-0.985727 2:-0.964435 3:-0.97996 4:-0.986496 5:-0.820198 6:-0.828892 7:-0.825544 8:-0.828166 9:-0.829625 10:-0.830735 11:-0.831366 12:-0.867094 13:-0.8975 14:-0.911543 15:-0.925479 16:-0.929536 17:-0.921482 18:-0.917266 19:-0.910834 20:-0.906577 21:-0.913499 22:-0.925956 23:-0.935183 24:-0.942483 25:-0.944029 26:-0.94482 27:-0.946801 28:-0.950713 29:-0.954667 30:-0.95832 31:-0.961541 32:-0.964454 33:-0.967415 34:-0.97017 35:-0.972756 36:-0.974841 37:-0.977021 38:-0.979187 39:-0.981234 40:-0.982845 41:-0.983646 42:-0.98402 43:-0.984608 44:-0.985052 45:-0.985596 46:-0.985726 47:-0.985793 48:-0.985865 49:-0.985933 50:-0.986 51:-0.986252 52:-0.986307 53:-0.986312 54:-0.986254 55:-0.986248 56:-0.986319 57:-0.986312 58:-0.986311 59:-0.98631 60:-0.986309 61:-0.986309 62:-0.986307 63:-0.986307 64:-0.986307 65:-0.986306 66:-0.986491 67:-0.986487 68:-0.986501 69:-0.986469 70:-0.986438 71:-0.986407 72:-0.986377 73:-0.986347 74:-0.986323 75:-0.986308 76:-0.986292 77:-0.986293 78:-0.986383 79:-0.986349 80:-0.986321 81:-0.986286 82:-0.98643 83:-0.985957 84:-0.98378 85:-0.981739 86:-0.979514 87:-0.977371 88:-0.975149 89:-0.973119 90:-0.971416 91:-0.96958 92:-0.96754 93:-0.965818 94:-0.964058 95:-0.962444 96:-0.960589 97:-0.959006 98:-0.957282 99:-0.955745 100:-0.954221 101:-0.952647 102:-0.95111 103:-0.949695 104:-0.950384 
-2048 1:-0.98029 2:-0.960251 3:-0.978485 4:-0.977649 5:-0.816893 6:-0.829596 7:-0.824033 8:-0.822053 9:-0.820926 10:-0.822058 11:-0.822698 12:-0.857082 13:-0.884759 14:-0.899545 15:-0.913692 16:-0.917589 17:-0.909781 18:-0.906104 19:-0.899804 20:-0.895698 21:-0.902692 22:-0.914941 23:-0.924229 24:-0.931579 25:-0.933835 26:-0.934678 27:-0.936698 28:-0.940636 29:-0.944612 30:-0.948533 31:-0.951852 32:-0.954609 33:-0.957582 34:-0.960344 35:-0.962938 36:-0.965037 37:-0.967362 38:-0.969531 39:-0.971581 40:-0.973192 41:-0.974 42:-0.974384 43:-0.975159 44:-0.975656 45:-0.975972 46:-0.976063 47:-0.976134 48:-0.976214 49:-0.976495 50:-0.976566 51:-0.976636 52:-0.97664 53:-0.976654 54:-0.976697 55:-0.976698 56:-0.976706 57:-0.976702 58:-0.976709 59:-0.976713 60:-0.976838 61:-0.976962 62:-0.976962 63:-0.976965 64:-0.976968 65:-0.976967 66:-0.976999 67:-0.977115 68:-0.977101 69:-0.977072 70:-0.977044 71:-0.977015 72:-0.976987 73:-0.97696 74:-0.977003 75:-0.976989 76:-0.976974 77:-0.976959 78:-0.976947 79:-0.977068 80:-0.977072 81:-0.977034 82:-0.977003 83:-0.976535 84:-0.974172 85:-0.971979 86:-0.970005 87:-0.967913 88:-0.965809 89:-0.964098 90:-0.962234 91:-0.960408 92:-0.958377 93:-0.956526 94:-0.954666 95:-0.953161 96:-0.951317 97:-0.949883 98:-0.948213 99:-0.946623 100:-0.94512 101:-0.943554 102:-0.942024 103:-0.9407 104:-0.94148 
-2048 1:-0.985242 2:-0.947699 3:-0.971072 4:-0.9869 5:-0.816908 6:-0.829364 7:-0.827222 8:-0.827708 9:-0.828915 10:-0.833539 11:-0.83374 12:-0.867987 13:-0.896041 14:-0.910207 15:-0.924246 16:-0.928018 17:-0.920073 18:-0.916094 19:-0.909894 20:-0.905689 21:-0.912652 22:-0.924895 23:-0.934166 24:-0.941506 25:-0.943091 26:-0.944124 27:-0.946129 28:-0.950061 29:-0.954411 30:-0.959248 31:-0.963235 32:-0.965922 33:-0.968985 34:-0.971684 35:-0.974218 36:-0.976253 37:-0.978525 38:-0.980644 39:-0.982646 40:-0.984215 41:-0.984975 42:-0.98543 43:-0.98586 44:-0.986269 45:-0.986548 46:-0.986603 47:-0.986646 48:-0.986695 49:-0.986946 50:-0.987086 51:-0.987125 52:-0.987102 53:-0.987087 54:-0.987102 55:-0.987075 56:-0.987057 57:-0.987034 58:-0.987017 59:-0.986999 60:-0.98719 61:-0.987205 62:-0.987185 63:-0.987168 64:-0.987278 65:-0.987476 66:-0.987734 67:-0.987813 68:-0.987845 69:-0.98779 70:-0.987736 71:-0.987729 72:-0.98796 73:-0.987906 74:-0.987856 75:-0.987817 76:-0.987779 77:-0.987741 78:-0.987725 79:-0.987713 80:-0.987664 81:-0.98761 82:-0.98756 83:-0.98707 84:-0.984807 85:-0.982594 86:-0.980379 87:-0.978223 88:-0.975987 89:-0.973998 90:-0.972108 91:-0.970363 92:-0.968363 93:-0.966541 94:-0.96466 95:-0.963037 96:-0.961174 97:-0.959582 98:-0.957802 99:-0.956245 100:-0.954888 101:-0.953456 102:-0.951999 103:-0.950529 104:-0.951339 
-2048 1:-0.998641 2:-0.992678 3:-0.997451 4:-0.999158 5:-0.830728 6:-0.839544 7:-0.837423 8:-0.837729 9:-0.837969 10:-0.839172 11:-0.840496 12:-0.875715 13:-0.904043 14:-0.918858 15:-0.93343 16:-0.937618 17:-0.930057 18:-0.926344 19:-0.920347 20:-0.916337 21:-0.923533 22:-0.936007 23:-0.945476 24:-0.953 25:-0.954721 26:-0.955659 27:-0.957783 28:-0.961836 29:-0.965921 30:-0.969698 31:-0.973033 32:-0.975891 33:-0.978955 34:-0.981811 35:-0.984491 36:-0.986657 37:-0.988918 38:-0.991163 39:-0.993284 40:-0.994968 41:-0.995827 42:-0.996282 43:-0.996857 44:-0.997403 45:-0.997811 46:-0.997979 47:-0.998098 48:-0.998213 49:-0.998323 50:-0.998428 51:-0.998528 52:-0.998568 53:-0.99861 54:-0.998589 55:-0.998615 56:-0.998649 57:-0.998715 58:-0.998785 59:-0.998826 60:-0.998854 61:-0.998881 62:-0.998907 63:-0.998932 64:-0.998956 65:-0.998979 66:-0.999002 67:-0.999024 68:-0.999031 69:-0.999023 70:-0.999015 71:-0.999008 72:-0.999 73:-0.998993 74:-0.998989 75:-0.998995 76:-0.999 77:-0.999006 78:-0.999011 79:-0.998998 80:-0.998985 81:-0.998972 82:-0.99896 83:-0.998503 84:-0.996131 85:-0.993929 86:-0.991713 87:-0.98958 88:-0.987365 89:-0.985343 90:-0.983423 91:-0.981598 92:-0.979588 93:-0.977761 94:-0.97591 95:-0.97431 96:-0.972466 97:-0.970895 98:-0.969134 99:-0.967549 100:-0.966003 101:-0.964442 102:-0.962916 103:-0.961468 104:-0.962182 
-2048 1:-0.996699 2:-0.982218 3:-0.992757 4:-0.998138 5:-0.827628 6:-0.838671 7:-0.837828 8:-0.838094 9:-0.838001 10:-0.838985 11:-0.840152 12:-0.875247 13:-0.903477 14:-0.918373 15:-0.93328 16:-0.93737 17:-0.929665 18:-0.925739 19:-0.919586 20:-0.915544 21:-0.922706 22:-0.935148 23:-0.944589 24:-0.952088 25:-0.953788 26:-0.954708 27:-0.956815 28:-0.960851 29:-0.965076 30:-0.968858 31:-0.972174 32:-0.975012 33:-0.97806 34:-0.9809 35:-0.983565 36:-0.985826 37:-0.988121 38:-0.990491 39:-0.992698 40:-0.99436 41:-0.995242 42:-0.995727 43:-0.996281 44:-0.996817 45:-0.997154 46:-0.997265 47:-0.997369 48:-0.997469 49:-0.997565 50:-0.997657 51:-0.997746 52:-0.997773 53:-0.997805 54:-0.997772 55:-0.997788 56:-0.997812 57:-0.997835 58:-0.997942 59:-0.997961 60:-0.997981 61:-0.997999 62:-0.998017 63:-0.998067 64:-0.998164 65:-0.998217 66:-0.99823 67:-0.998243 68:-0.998241 69:-0.998225 70:-0.998209 71:-0.998193 72:-0.998178 73:-0.998163 74:-0.998175 75:-0.998241 76:-0.998275 77:-0.998272 78:-0.998269 79:-0.998248 80:-0.998227 81:-0.998207 82:-0.998187 83:-0.997723 84:-0.995345 85:-0.993157 86:-0.990993 87:-0.988885 88:-0.986664 89:-0.984666 90:-0.982761 91:-0.980929 92:-0.978893 93:-0.977036 94:-0.975171 95:-0.973564 96:-0.971715 97:-0.970138 98:-0.968372 99:-0.966808 100:-0.965277 101:-0.96371 102:-0.962179 103:-0.960726 104:-0.961434 
