svm_type c_svc
kernel_type rbf
gamma 2
nr_class 2
total_sv 309
rho 78.1602
distance 434.337
label 27 -1
nr_sv 149 160
SV
2048 1:-0.946017 2:-0.900628 3:-0.930518 4:-0.938829 5:-0.781304 6:-0.809828 7:-0.795997 8:-0.791751 9:-0.788401 10:-0.78827 11:-0.788605 12:-0.821602 13:-0.849445 14:-0.863109 15:-0.876551 16:-0.879979 17:-0.871891 18:-0.868491 19:-0.861856 20:-0.858282 21:-0.867172 22:-0.880349 23:-0.889096 24:-0.896382 25:-0.89762 26:-0.898393 27:-0.901279 28:-0.904866 29:-0.908698 30:-0.912059 31:-0.916503 32:-0.92051 33:-0.923146 34:-0.925729 35:-0.928454 36:-0.930267 37:-0.932716 38:-0.934602 39:-0.936385 40:-0.937734 41:-0.938637 42:-0.939114 43:-0.939387 44:-0.939647 45:-0.939792 46:-0.939994 47:-0.939879 48:-0.939802 49:-0.939985 50:-0.939993 51:-0.939929 52:-0.939793 53:-0.939683 54:-0.939661 55:-0.939859 56:-0.939749 57:-0.939858 58:-0.939965 59:-0.940063 60:-0.939987 61:-0.940151 62:-0.940241 63:-0.940401 64:-0.9403 65:-0.940193 66:-0.940281 67:-0.940183 68:-0.94072 69:-0.940592 70:-0.940466 71:-0.940341 72:-0.940389 73:-0.940267 74:-0.940247 75:-0.940397 76:-0.94029 77:-0.940186 78:-0.940243 79:-0.940124 80:-0.940032 81:-0.939906 82:-0.9398 83:-0.939269 84:-0.937166 85:-0.934942 86:-0.932826 87:-0.930673 88:-0.928574 89:-0.926668 90:-0.924719 91:-0.92287 92:-0.920947 93:-0.919074 94:-0.917461 95:-0.91583 96:-0.914089 97:-0.91264 98:-0.910859 99:-0.909342 100:-0.907887 101:-0.906612 102:-0.905561 103:-0.904165 104:-0.904958 
2048 1:-0.933298 2:-0.894351 3:-0.922454 4:-0.934116 5:-0.794333 6:-0.813748 7:-0.798199 8:-0.791003 9:-0.789834 10:-0.787867 11:-0.787785 12:-0.820218 13:-0.846369 14:-0.860891 15:-0.874037 16:-0.877227 17:-0.868945 18:-0.86458 19:-0.857847 20:-0.855389 21:-0.861826 22:-0.873494 23:-0.882296 24:-0.889758 25:-0.892424 26:-0.894608 27:-0.896646 28:-0.900196 29:-0.903992 30:-0.907321 31:-0.913335 32:-0.915857 33:-0.918462 34:-0.92131 35:-0.923556 36:-0.925351 37:-0.92793 38:-0.929921 39:-0.931678 40:-0.933001 41:-0.933573 42:-0.93374 43:-0.934602 44:-0.934938 45:-0.935064 46:-0.934976 47:-0.934848 48:-0.934814 49:-0.935191 50:-0.935106 51:-0.935114 52:-0.934964 53:-0.935077 54:-0.934892 55:-0.934996 56:-0.935307 57:-0.935371 58:-0.935248 59:-0.935123 60:-0.93501 61:-0.935303 62:-0.935414 63:-0.935326 64:-0.93522 65:-0.935107 66:-0.935004 67:-0.935087 68:-0.935512 69:-0.935381 70:-0.935494 71:-0.935362 72:-0.935403 73:-0.935502 74:-0.935382 75:-0.935272 76:-0.935159 77:-0.935209 78:-0.935105 79:-0.935134 80:-0.935039 81:-0.935298 82:-0.935182 83:-0.934642 84:-0.932391 85:-0.930447 86:-0.928209 87:-0.926052 88:-0.923812 89:-0.92177 90:-0.91982 91:-0.917971 92:-0.915917 93:-0.914181 94:-0.912604 95:-0.910971 96:-0.909107 97:-0.907508 98:-0.905729 99:-0.904286 100:-0.903414 101:-0.901951 102:-0.900515 103:-0.899416 104:-0.900661 
2048 1:-0.935434 2:-0.893305 3:-0.925245 4:-0.931967 5:-0.785869 6:-0.810387 7:-0.795255 8:-0.789392 9:-0.785071 10:-0.78432 11:-0.783738 12:-0.817344 13:-0.846048 14:-0.860207 15:-0.873299 16:-0.87638 17:-0.868698 18:-0.864206 19:-0.857959 20:-0.854591 21:-0.860954 22:-0.872803 23:-0.882006 24:-0.888808 25:-0.891313 26:-0.892649 27:-0.8943 28:-0.898048 29:-0.901665 30:-0.908381 31:-0.911996 32:-0.914491 33:-0.917533 34:-0.920277 35:-0.922559 36:-0.924679 37:-0.926724 38:-0.928559 39:-0.930295 40:-0.931918 41:-0.932645 42:-0.933086 43:-0.93332 44:-0.933833 45:-0.934248 46:-0.93413 47:-0.934241 48:-0.934122 49:-0.934259 50:-0.934219 51:-0.934541 52:-0.9346 53:-0.934557 54:-0.934572 55:-0.934416 56:-0.934488 57:-0.934385 58:-0.934455 59:-0.934307 60:-0.934172 61:-0.934238 62:-0.9343 63:-0.934173 64:-0.934051 65:-0.934034 66:-0.934101 67:-0.933983 68:-0.934034 69:-0.933958 70:-0.933873 71:-0.933854 72:-0.933717 73:-0.933748 74:-0.933788 75:-0.933995 76:-0.934129 77:-0.934007 78:-0.933891 79:-0.933909 80:-0.933803 81:-0.933687 82:-0.933712 83:-0.933165 84:-0.930909 85:-0.928731 86:-0.926483 87:-0.924462 88:-0.922219 89:-0.920198 90:-0.918244 91:-0.916522 92:-0.914463 93:-0.912709 94:-0.910825 95:-0.909191 96:-0.907448 97:-0.906012 98:-0.904229 99:-0.902975 100:-0.901747 101:-0.900227 102:-0.89874 103:-0.897393 104:-0.898305 
1981.125836684805 1:-0.938152 2:-0.901674 3:-0.930342 4:-0.931647 5:-0.778965 6:-0.809454 7:-0.79436 8:-0.788841 9:-0.785499 10:-0.783944 11:-0.783886 12:-0.816502 13:-0.843763 14:-0.85701 15:-0.870304 16:-0.873631 17:-0.865475 18:-0.861221 19:-0.856073 20:-0.852463 21:-0.858943 22:-0.870642 23:-0.880073 24:-0.88763 25:-0.890297 26:-0.892074 27:-0.893748 28:-0.897518 29:-0.901153 30:-0.906829 31:-0.910411 32:-0.912869 33:-0.915502 34:-0.918527 35:-0.920792 36:-0.922606 37:-0.925329 38:-0.927203 39:-0.929305 40:-0.930814 41:-0.931388 42:-0.931557 43:-0.932293 44:-0.932542 45:-0.932676 46:-0.932921 47:-0.932791 48:-0.932704 49:-0.932876 50:-0.933138 51:-0.933059 52:-0.933148 53:-0.93302 54:-0.933231 55:-0.933552 56:-0.933419 57:-0.933494 58:-0.933366 59:-0.933237 60:-0.933121 61:-0.933006 62:-0.93289 63:-0.932787 64:-0.933072 65:-0.93309 66:-0.932987 67:-0.932886 68:-0.932953 69:-0.932863 70:-0.932741 71:-0.93262 72:-0.93267 73:-0.933215 74:-0.933263 75:-0.933476 76:-0.93336 77:-0.93345 78:-0.933341 79:-0.933366 80:-0.933267 81:-0.933213 82:-0.933196 83:-0.932703 84:-0.930309 85:-0.928165 86:-0.925924 87:-0.923773 88:-0.921674 89:-0.91971 90:-0.917762 91:-0.916176 92:-0.914121 93:-0.912376 94:-0.910635 95:-0.909252 96:-0.907631 97:-0.906149 98:-0.904364 99:-0.902748 100:-0.901325 101:-0.899825 102:-0.898358 103:-0.89688 104:-0.897668 
2048 1:-0.929123 2:-0.900628 3:-0.928372 4:-0.92626 5:-0.778707 6:-0.784096 7:-0.793732 8:-0.786489 9:-0.781966 10:-0.780118 11:-0.780467 12:-0.814165 13:-0.840088 14:-0.853127 15:-0.867262 16:-0.870375 17:-0.862916 18:-0.858455 19:-0.851619 20:-0.847903 21:-0.85431 22:-0.866424 23:-0.876805 24:-0.883793 25:-0.884999 26:-0.886071 27:-0.88839 28:-0.895081 29:-0.899282 30:-0.902488 31:-0.905716 32:-0.908063 33:-0.910663 34:-0.913438 35:-0.915968 36:-0.917754 37:-0.919625 38:-0.921495 39:-0.923592 40:-0.924915 41:-0.925805 42:-0.926309 43:-0.926688 44:-0.926935 45:-0.927068 46:-0.926986 47:-0.926858 48:-0.926777 49:-0.927212 50:-0.927132 51:-0.927062 52:-0.926917 53:-0.927392 54:-0.927836 55:-0.927702 56:-0.927795 57:-0.928016 58:-0.927886 59:-0.927754 60:-0.927635 61:-0.927517 62:-0.927535 63:-0.927672 64:-0.927565 65:-0.92745 66:-0.927386 67:-0.927428 68:-0.927672 69:-0.927543 70:-0.927416 71:-0.927635 72:-0.927675 73:-0.927547 74:-0.927431 75:-0.927324 76:-0.927373 77:-0.927265 78:-0.927319 79:-0.927195 80:-0.927105 81:-0.926971 82:-0.927157 83:-0.926623 84:-0.924358 85:-0.922201 86:-0.919971 87:-0.91783 88:-0.915605 89:-0.913578 90:-0.911642 91:-0.909806 92:-0.907766 93:-0.906009 94:-0.904194 95:-0.902774 96:-0.901355 97:-0.899951 98:-0.898226 99:-0.896622 100:-0.895059 101:-0.893479 102:-0.892171 103:-0.891177 104:-0.892312 
2048 1:-0.924171 2:-0.872385 3:-0.915298 4:-0.918767 5:-0.787296 6:-0.784222 7:-0.788228 8:-0.780684 9:-0.776231 10:-0.774726 11:-0.774694 12:-0.807166 13:-0.833853 14:-0.846637 15:-0.861162 16:-0.864447 17:-0.855939 18:-0.851713 19:-0.845653 20:-0.841098 21:-0.848965 22:-0.860889 23:-0.86946 24:-0.876589 25:-0.881275 26:-0.881612 27:-0.884012 28:-0.888477 29:-0.892667 30:-0.896666 31:-0.899361 32:-0.901947 33:-0.90477 34:-0.907251 35:-0.91052 36:-0.912564 37:-0.91445 38:-0.916293 39:-0.91809 40:-0.91964 41:-0.920621 42:-0.921305 43:-0.921722 44:-0.922454 45:-0.923544 46:-0.923615 47:-0.923515 48:-0.923314 49:-0.923324 50:-0.924144 51:-0.924571 52:-0.924298 53:-0.924153 54:-0.92386 55:-0.923636 56:-0.923508 57:-0.923264 58:-0.923148 59:-0.92319 60:-0.923158 61:-0.922968 62:-0.922779 63:-0.922839 64:-0.922861 65:-0.922682 66:-0.922881 67:-0.922818 68:-0.922922 69:-0.922734 70:-0.922724 71:-0.922709 72:-0.922526 73:-0.922414 74:-0.922379 75:-0.922222 76:-0.922063 77:-0.922097 78:-0.921949 79:-0.921935 80:-0.921848 81:-0.921713 82:-0.921709 83:-0.921282 84:-0.918975 85:-0.916729 86:-0.914633 87:-0.912514 88:-0.910257 89:-0.908199 90:-0.906363 91:-0.904573 92:-0.902552 93:-0.900661 94:-0.898892 95:-0.897317 96:-0.895439 97:-0.893921 98:-0.892249 99:-0.890624 100:-0.889109 101:-0.887508 102:-0.885945 103:-0.884596 104:-0.885496 
463.2537980178545 1:-0.934366 2:-0.896444 3:-0.922488 4:-0.9165 5:-0.788758 6:-0.789229 7:-0.774286 8:-0.770835 9:-0.768016 10:-0.766921 11:-0.768111 12:-0.800794 13:-0.82695 14:-0.84134 15:-0.854558 16:-0.859153 17:-0.850933 18:-0.846636 19:-0.840654 20:-0.836714 21:-0.844447 22:-0.856505 23:-0.865798 24:-0.873119 25:-0.877466 26:-0.8783 27:-0.880665 28:-0.884776 29:-0.888881 30:-0.892253 31:-0.895041 32:-0.89739 33:-0.899992 34:-0.902765 35:-0.905501 36:-0.907287 37:-0.910197 38:-0.91237 39:-0.914812 40:-0.916081 41:-0.917239 42:-0.917803 43:-0.918016 44:-0.918508 45:-0.91876 46:-0.918629 47:-0.91845 48:-0.918586 49:-0.918803 50:-0.918681 51:-0.918571 52:-0.918386 53:-0.918469 54:-0.918256 55:-0.918411 56:-0.918484 57:-0.918735 58:-0.91934 59:-0.919384 60:-0.919231 61:-0.919278 62:-0.919508 63:-0.919362 64:-0.919222 65:-0.919262 66:-0.919233 67:-0.91928 68:-0.919669 69:-0.919682 70:-0.919593 71:-0.919429 72:-0.919269 73:-0.919373 74:-0.919227 75:-0.919089 76:-0.919001 77:-0.918972 78:-0.918843 79:-0.918902 80:-0.918939 81:-0.918775 82:-0.918642 83:-0.91823 84:-0.915978 85:-0.913855 86:-0.911633 87:-0.909478 88:-0.907376 89:-0.905463 90:-0.903509 91:-0.901658 92:-0.899731 93:-0.897856 94:-0.895975 95:-0.894343 96:-0.892604 97:-0.891142 98:-0.889483 99:-0.887871 100:-0.886418 101:-0.884868 102:-0.883432 103:-0.882022 104:-0.882751 
2048 1:-0.915142 2:-0.845188 3:-0.910375 4:-0.916353 5:-0.772091 6:-0.797957 7:-0.781343 8:-0.775942 9:-0.773606 10:-0.771386 11:-0.771464 12:-0.805031 13:-0.8321 14:-0.845671 15:-0.858785 16:-0.862078 17:-0.853892 18:-0.849925 19:-0.843504 20:-0.839475 21:-0.848046 22:-0.860101 23:-0.86904 24:-0.875824 25:-0.879791 26:-0.880277 27:-0.882119 28:-0.886895 29:-0.892238 30:-0.895445 31:-0.898249 32:-0.900766 33:-0.903533 34:-0.906922 35:-0.909467 36:-0.911517 37:-0.913473 38:-0.915594 39:-0.918492 40:-0.919633 41:-0.920168 42:-0.920303 43:-0.920661 44:-0.921571 45:-0.921653 46:-0.922373 47:-0.922505 48:-0.922367 49:-0.922235 50:-0.922266 51:-0.922288 52:-0.9221 53:-0.92185 54:-0.921639 55:-0.921584 56:-0.921354 57:-0.921184 58:-0.921055 59:-0.920922 60:-0.920805 61:-0.920664 62:-0.920548 63:-0.920542 64:-0.920516 65:-0.92033 66:-0.920417 67:-0.920281 68:-0.920239 69:-0.920187 70:-0.920068 71:-0.920086 72:-0.920036 73:-0.919919 74:-0.920069 75:-0.919969 76:-0.919803 77:-0.919783 78:-0.919792 79:-0.919677 80:-0.919659 81:-0.91959 82:-0.919548 83:-0.918969 84:-0.916607 85:-0.914415 86:-0.912313 87:-0.910246 88:-0.907986 89:-0.906111 90:-0.904262 91:-0.902442 92:-0.900416 93:-0.898571 94:-0.896771 95:-0.895118 96:-0.893285 97:-0.891763 98:-0.890014 99:-0.888479 100:-0.886937 101:-0.885449 102:-0.883944 103:-0.882498 104:-0.883345 
248.7108030052859 1:-0.930676 2:-0.89749 3:-0.919828 4:-0.915236 5:-0.808628 6:-0.78467 7:-0.772137 8:-0.768841 9:-0.765241 10:-0.765785 11:-0.766015 12:-0.798506 13:-0.825965 14:-0.839167 15:-0.853034 16:-0.856343 17:-0.84924 18:-0.844958 19:-0.840583 20:-0.838628 21:-0.845125 22:-0.856812 23:-0.865884 24:-0.87607 25:-0.87729 26:-0.877661 27:-0.881782 28:-0.885594 29:-0.889318 30:-0.892438 31:-0.895585 32:-0.897858 33:-0.900622 34:-0.903321 35:-0.905493 36:-0.90731 37:-0.909383 38:-0.911531 39:-0.913234 40:-0.9145 41:-0.91605 42:-0.91616 43:-0.916669 44:-0.916867 45:-0.917401 46:-0.917265 47:-0.91708 48:-0.917211 49:-0.918616 50:-0.918464 51:-0.918325 52:-0.918667 53:-0.918477 54:-0.918462 55:-0.918731 56:-0.918546 57:-0.918437 58:-0.918264 59:-0.918089 60:-0.917931 61:-0.917976 62:-0.917816 63:-0.918062 64:-0.918108 65:-0.918001 66:-0.917858 67:-0.917902 68:-0.917749 69:-0.917691 70:-0.917533 71:-0.917376 72:-0.917392 73:-0.9174 74:-0.917259 75:-0.917451 76:-0.917312 77:-0.917492 78:-0.917454 79:-0.917302 80:-0.917339 81:-0.917263 82:-0.917126 83:-0.916716 84:-0.914403 85:-0.91246 86:-0.910215 87:-0.908064 88:-0.905957 89:-0.903914 90:-0.902134 91:-0.900282 92:-0.898354 93:-0.89656 94:-0.894797 95:-0.893285 96:-0.891628 97:-0.890022 98:-0.888356 99:-0.88674 100:-0.885305 101:-0.883713 102:-0.882273 103:-0.880817 104:-0.88163 
2048 1:-0.9299 2:-0.885983 3:-0.920915 4:-0.914823 5:-0.783481 6:-0.784559 7:-0.776567 8:-0.772808 9:-0.770047 10:-0.769016 11:-0.769315 12:-0.801393 13:-0.82777 14:-0.84166 15:-0.854675 16:-0.85894 17:-0.850589 18:-0.8465 19:-0.840245 20:-0.836093 21:-0.844274 22:-0.855984 23:-0.865315 24:-0.872227 25:-0.877374 26:-0.878124 27:-0.880019 28:-0.883888 29:-0.887606 30:-0.890776 31:-0.893882 32:-0.89661 33:-0.900358 34:-0.903202 35:-0.906106 36:-0.908171 37:-0.910121 38:-0.911899 39:-0.913581 40:-0.915337 41:-0.915838 42:-0.916247 43:-0.917041 44:-0.91736 45:-0.917427 46:-0.917556 47:-0.917624 48:-0.917567 49:-0.917676 50:-0.918538 51:-0.918674 52:-0.918446 53:-0.918253 54:-0.918371 55:-0.918183 56:-0.918001 57:-0.918007 58:-0.917835 59:-0.917871 60:-0.917862 61:-0.9177 62:-0.917737 63:-0.917783 64:-0.917709 65:-0.918116 66:-0.917965 67:-0.917818 68:-0.918068 69:-0.917898 70:-0.917906 71:-0.9178 72:-0.917636 73:-0.917474 74:-0.917458 75:-0.917318 76:-0.917175 77:-0.917225 78:-0.917094 79:-0.916941 80:-0.917282 81:-0.917183 82:-0.917101 83:-0.916541 84:-0.914259 85:-0.912143 86:-0.909897 87:-0.907879 88:-0.905639 89:-0.90393 90:-0.901973 91:-0.900119 92:-0.898162 93:-0.896412 94:-0.894599 95:-0.892962 96:-0.891098 97:-0.889589 98:-0.887928 99:-0.886313 100:-0.884902 101:-0.883312 102:-0.881848 103:-0.880417 104:-0.881143 
2048 1:-0.915044 2:-0.873431 3:-0.913483 4:-0.912156 5:-0.799117 6:-0.785579 7:-0.773063 8:-0.766946 9:-0.763591 10:-0.763158 11:-0.764492 12:-0.796721 13:-0.822729 14:-0.837202 15:-0.850314 16:-0.854676 17:-0.846419 18:-0.842095 19:-0.838834 20:-0.836216 21:-0.842641 22:-0.854422 23:-0.865286 24:-0.874267 25:-0.875729 26:-0.876627 27:-0.880795 28:-0.884401 29:-0.887702 30:-0.890919 31:-0.893988 32:-0.896189 33:-0.899183 34:-0.901426 35:-0.903911 36:-0.906559 37:-0.908288 38:-0.910362 39:-0.912323 40:-0.913556 41:-0.91433 42:-0.914693 43:-0.915248 44:-0.916256 45:-0.916552 46:-0.916354 47:-0.916105 48:-0.916439 49:-0.916433 50:-0.916501 51:-0.916572 52:-0.916321 53:-0.916278 54:-0.916696 55:-0.916478 56:-0.916375 57:-0.916133 58:-0.915936 59:-0.915988 60:-0.915804 61:-0.915621 62:-0.915638 63:-0.915508 64:-0.915346 65:-0.915176 66:-0.915311 67:-0.915373 68:-0.915381 69:-0.915842 70:-0.915658 71:-0.915874 72:-0.91569 73:-0.915577 74:-0.915411 75:-0.915568 76:-0.915405 77:-0.915498 78:-0.915346 79:-0.91541 80:-0.915336 81:-0.91515 82:-0.914994 83:-0.914567 84:-0.912299 85:-0.910057 86:-0.907939 87:-0.905771 88:-0.9036 89:-0.901546 90:-0.899715 91:-0.897852 92:-0.895911 93:-0.894153 94:-0.89226 95:-0.890832 96:-0.888956 97:-0.887465 98:-0.885675 99:-0.884123 100:-0.882658 101:-0.881059 102:-0.879566 103:-0.878082 104:-0.878888 
1075.39417664451 1:-0.928346 2:-0.888075 3:-0.91793 4:-0.908573 5:-0.771996 6:-0.786199 7:-0.772374 8:-0.768104 9:-0.763547 10:-0.767317 11:-0.766411 12:-0.799076 13:-0.824469 14:-0.838246 15:-0.851131 16:-0.85512 17:-0.846565 18:-0.842306 19:-0.835593 20:-0.833516 21:-0.840376 22:-0.851707 23:-0.861125 24:-0.871635 25:-0.872514 26:-0.873803 27:-0.875586 28:-0.880697 29:-0.884461 30:-0.887492 31:-0.89054 32:-0.892737 33:-0.895198 34:-0.897836 35:-0.899951 36:-0.901638 37:-0.904447 38:-0.90619 39:-0.908168 40:-0.909693 41:-0.910476 42:-0.910546 43:-0.91125 44:-0.911406 45:-0.911737 46:-0.911842 47:-0.911959 48:-0.911784 49:-0.911872 50:-0.911856 51:-0.911708 52:-0.911485 53:-0.911297 54:-0.911595 55:-0.91141 56:-0.911231 57:-0.911019 58:-0.910853 59:-0.911522 60:-0.911767 61:-0.911619 62:-0.911645 63:-0.911877 64:-0.911718 65:-0.911785 66:-0.911629 67:-0.911477 68:-0.911529 69:-0.911358 70:-0.91119 71:-0.911023 72:-0.910994 73:-0.910961 74:-0.910943 75:-0.910962 76:-0.911025 77:-0.91088 78:-0.910929 79:-0.910769 80:-0.910803 81:-0.91063 82:-0.91078 83:-0.910218 84:-0.907969 85:-0.905743 86:-0.903662 87:-0.901509 88:-0.899408 89:-0.897368 90:-0.895549 91:-0.893798 92:-0.89187 93:-0.889995 94:-0.888115 95:-0.886649 96:-0.884786 97:-0.883306 98:-0.881528 99:-0.880155 100:-0.878598 101:-0.877008 102:-0.875572 103:-0.874098 104:-0.874972 
2048 1:-0.928152 2:-0.883891 3:-0.91358 4:-0.907439 5:-0.776016 6:-0.785476 7:-0.769966 8:-0.765232 9:-0.760723 10:-0.75928 11:-0.761132 12:-0.793146 13:-0.820003 14:-0.83314 15:-0.846165 16:-0.850288 17:-0.844713 18:-0.841732 19:-0.835244 20:-0.83092 21:-0.838906 22:-0.850444 23:-0.859151 24:-0.866637 25:-0.872024 26:-0.87246 27:-0.874941 28:-0.878661 29:-0.88199 30:-0.885498 31:-0.888238 32:-0.890463 33:-0.893347 34:-0.895614 35:-0.898864 36:-0.90103 37:-0.903122 38:-0.905198 39:-0.906833 40:-0.908675 41:-0.909758 42:-0.909864 43:-0.910021 44:-0.910172 45:-0.91106 46:-0.910903 47:-0.910933 48:-0.910903 49:-0.910722 50:-0.910808 51:-0.910688 52:-0.910661 53:-0.910461 54:-0.910377 55:-0.910414 56:-0.910227 57:-0.910006 58:-0.910046 59:-0.909866 60:-0.90991 61:-0.91045 62:-0.910273 63:-0.91027 64:-0.910153 65:-0.910174 66:-0.910207 67:-0.91042 68:-0.9104 69:-0.910225 70:-0.910052 71:-0.910278 72:-0.910172 73:-0.910067 74:-0.910303 75:-0.910313 76:-0.910289 77:-0.910291 78:-0.910144 79:-0.910241 80:-0.910112 81:-0.910107 82:-0.909953 83:-0.909384 84:-0.907128 85:-0.904896 86:-0.902787 87:-0.900813 88:-0.898568 89:-0.896522 90:-0.894565 91:-0.893085 92:-0.891021 93:-0.88914 94:-0.887255 95:-0.885741 96:-0.883873 97:-0.882525 98:-0.880861 99:-0.879265 100:-0.877688 101:-0.876094 102:-0.874716 103:-0.873237 104:-0.874086 
2048 1:-0.91854 2:-0.887029 3:-0.911148 4:-0.905526 5:-0.749612 6:-0.777485 7:-0.763859 8:-0.759047 9:-0.755368 10:-0.756681 11:-0.756152 12:-0.78985 13:-0.817018 14:-0.830025 15:-0.844158 16:-0.84733 17:-0.83954 18:-0.83596 19:-0.832926 20:-0.828345 21:-0.834803 22:-0.847892 23:-0.85937 24:-0.86605 25:-0.867659 26:-0.867995 27:-0.870661 28:-0.87401 29:-0.877892 30:-0.881032 31:-0.88487 32:-0.887545 33:-0.89085 34:-0.893126 35:-0.895645 36:-0.897688 37:-0.899814 38:-0.901783 39:-0.903452 40:-0.905325 41:-0.906129 42:-0.906523 43:-0.906712 44:-0.907527 45:-0.907584 46:-0.907704 47:-0.907489 48:-0.907593 49:-0.907951 50:-0.908051 51:-0.907909 52:-0.908171 53:-0.908214 54:-0.90824 55:-0.908052 56:-0.908091 57:-0.90787 58:-0.90791 59:-0.907731 60:-0.907957 61:-0.907945 62:-0.908218 63:-0.908253 64:-0.908288 65:-0.908118 66:-0.908335 67:-0.908256 68:-0.908093 69:-0.90792 70:-0.907925 71:-0.907754 72:-0.907586 73:-0.907649 74:-0.907788 75:-0.90764 76:-0.908133 77:-0.907979 78:-0.908144 79:-0.908127 80:-0.907999 81:-0.907815 82:-0.907794 83:-0.907372 84:-0.905117 85:-0.902886 86:-0.900639 87:-0.898621 88:-0.89638 89:-0.894565 90:-0.892608 91:-0.890884 92:-0.888857 93:-0.887074 94:-0.88519 95:-0.883677 96:-0.881812 97:-0.880533 98:-0.878866 99:-0.877367 100:-0.875789 101:-0.874195 102:-0.872755 103:-0.871359 104:-0.87229 
2048 1:-0.956697 2:-0.930962 3:-0.952183 4:-0.945598 5:-0.789831 6:-0.809918 7:-0.799988 8:-0.79564 9:-0.800583 10:-0.800445 11:-0.799506 12:-0.832281 13:-0.86347 14:-0.876851 15:-0.889841 16:-0.894203 17:-0.888521 18:-0.885652 19:-0.878423 20:-0.874592 21:-0.881838 22:-0.893238 23:-0.902017 24:-0.908671 25:-0.909722 26:-0.910105 27:-0.911682 28:-0.915756 29:-0.919312 30:-0.922594 31:-0.925973 32:-0.928384 33:-0.93104 34:-0.933493 35:-0.936171 36:-0.938006 37:-0.939931 38:-0.941855 39:-0.943674 40:-0.945059 41:-0.946564 42:-0.946751 43:-0.947041 44:-0.947317 45:-0.947476 46:-0.947417 47:-0.947858 48:-0.947789 49:-0.947721 50:-0.947761 51:-0.947706 52:-0.947582 53:-0.947715 54:-0.947551 55:-0.947447 56:-0.947349 57:-0.947232 58:-0.947142 59:-0.947388 60:-0.947402 61:-0.947313 62:-0.947223 63:-0.947338 64:-0.947294 65:-0.947283 66:-0.947204 67:-0.947127 68:-0.947181 69:-0.94708 70:-0.946981 71:-0.946882 72:-0.946786 73:-0.947019 74:-0.946929 75:-0.946849 76:-0.946767 77:-0.946688 78:-0.946769 79:-0.94676 80:-0.946688 81:-0.946643 82:-0.946556 83:-0.946042 84:-0.943834 85:-0.941621 86:-0.939449 87:-0.937308 88:-0.935084 89:-0.933056 90:-0.931255 91:-0.929419 92:-0.927378 93:-0.92552 94:-0.923871 95:-0.922254 96:-0.920402 97:-0.918962 98:-0.917242 99:-0.915643 100:-0.914086 101:-0.912604 102:-0.911066 103:-0.909605 104:-0.910511 
2048 1:-0.955435 2:-0.932008 3:-0.953906 4:-0.944419 5:-0.790674 6:-0.813158 7:-0.801832 8:-0.797849 9:-0.794654 10:-0.799421 11:-0.798481 12:-0.831236 13:-0.858879 14:-0.873737 15:-0.891533 16:-0.894309 17:-0.887311 18:-0.882464 19:-0.877922 20:-0.873039 21:-0.87922 22:-0.891321 23:-0.8999 24:-0.907149 25:-0.908219 26:-0.908621 27:-0.91071 28:-0.914211 29:-0.918223 30:-0.921503 31:-0.924375 32:-0.926802 33:-0.929473 34:-0.932546 35:-0.934848 36:-0.936831 37:-0.938757 38:-0.940816 39:-0.942763 40:-0.944141 41:-0.944754 42:-0.945263 43:-0.945613 44:-0.945897 45:-0.946063 46:-0.946012 47:-0.945927 48:-0.946138 49:-0.946082 50:-0.946034 51:-0.946321 52:-0.946202 53:-0.946106 54:-0.946183 55:-0.946084 56:-0.945991 57:-0.946174 58:-0.946082 59:-0.94599 60:-0.945907 61:-0.945985 62:-0.945898 63:-0.945822 64:-0.945941 65:-0.945859 66:-0.945785 67:-0.945896 68:-0.945809 69:-0.945842 70:-0.945745 71:-0.945648 72:-0.945554 73:-0.945628 74:-0.945543 75:-0.945622 76:-0.945542 77:-0.945621 78:-0.945547 79:-0.945481 80:-0.945412 81:-0.94531 82:-0.945373 83:-0.944861 84:-0.942483 85:-0.940417 86:-0.938192 87:-0.936104 88:-0.933883 89:-0.931991 90:-0.930058 91:-0.928224 92:-0.926186 93:-0.924441 94:-0.922633 95:-0.921018 96:-0.91917 97:-0.917709 98:-0.915944 99:-0.914349 100:-0.912794 101:-0.911378 102:-0.909843 103:-0.908475 104:-0.909206 
2048 1:-0.956114 2:-0.926778 3:-0.947125 4:-0.944081 5:-0.797894 6:-0.805 7:-0.79605 8:-0.792237 9:-0.795032 10:-0.798891 11:-0.797926 12:-0.834897 13:-0.861307 14:-0.875183 15:-0.890206 16:-0.897742 17:-0.88925 18:-0.884525 19:-0.877845 20:-0.8739 21:-0.879989 22:-0.892447 23:-0.90093 24:-0.907768 25:-0.909859 26:-0.910543 27:-0.912021 28:-0.915438 29:-0.919285 30:-0.922496 31:-0.925305 32:-0.928082 33:-0.930683 34:-0.93331 35:-0.935564 36:-0.937717 37:-0.9398 38:-0.941672 39:-0.943442 40:-0.944781 41:-0.945669 42:-0.946129 43:-0.946387 44:-0.946633 45:-0.946763 46:-0.946951 47:-0.946827 48:-0.946738 49:-0.946652 50:-0.946916 51:-0.946839 52:-0.946694 53:-0.946808 54:-0.94676 55:-0.946635 56:-0.946517 57:-0.946379 58:-0.946484 59:-0.94637 60:-0.946267 61:-0.946435 62:-0.946328 63:-0.946427 64:-0.946331 65:-0.94623 66:-0.946138 67:-0.946369 68:-0.946263 69:-0.946148 70:-0.946103 71:-0.94599 72:-0.945879 73:-0.945938 74:-0.945837 75:-0.945902 76:-0.945807 77:-0.945716 78:-0.945629 79:-0.945677 80:-0.945595 81:-0.94548 82:-0.945385 83:-0.94506 84:-0.942671 85:-0.940451 86:-0.938356 87:-0.936233 88:-0.934056 89:-0.932019 90:-0.930077 91:-0.928234 92:-0.926316 93:-0.924572 94:-0.922697 95:-0.921073 96:-0.919216 97:-0.917746 98:-0.915973 99:-0.914484 100:-0.91292 101:-0.911386 102:-0.909843 103:-0.908377 104:-0.909278 
2048 1:-0.956406 2:-0.932008 3:-0.950518 4:-0.943093 5:-0.789867 6:-0.810555 7:-0.798106 8:-0.794678 9:-0.791817 10:-0.795139 11:-0.799267 12:-0.832095 13:-0.858238 14:-0.871404 15:-0.885829 16:-0.889153 17:-0.880917 18:-0.877608 19:-0.872131 20:-0.869603 21:-0.876338 22:-0.88807 23:-0.897325 24:-0.904132 25:-0.90527 26:-0.905737 27:-0.907796 28:-0.911515 29:-0.915492 30:-0.918814 31:-0.921726 32:-0.924188 33:-0.927288 34:-0.929989 35:-0.933432 36:-0.935267 37:-0.937193 38:-0.939454 39:-0.941263 40:-0.943396 41:-0.943987 42:-0.944171 43:-0.944458 44:-0.94501 45:-0.94516 46:-0.945367 47:-0.945412 48:-0.945337 49:-0.945265 50:-0.9452 51:-0.945388 52:-0.945256 53:-0.945468 54:-0.945295 55:-0.945183 56:-0.945078 57:-0.944952 58:-0.945068 59:-0.945015 60:-0.945071 61:-0.944975 62:-0.94488 63:-0.944794 64:-0.944713 65:-0.944625 66:-0.94498 67:-0.944896 68:-0.9448 69:-0.944695 70:-0.944795 71:-0.944689 72:-0.944586 73:-0.944485 74:-0.944394 75:-0.944473 76:-0.944387 77:-0.944304 78:-0.944381 79:-0.944336 80:-0.944262 81:-0.944154 82:-0.944212 83:-0.943777 84:-0.941396 85:-0.939183 86:-0.936955 87:-0.934815 88:-0.932592 89:-0.9307 90:-0.928889 91:-0.927052 92:-0.925011 93:-0.92315 94:-0.921283 95:-0.919668 96:-0.918064 97:-0.916565 98:-0.914797 99:-0.913246 100:-0.911687 101:-0.910113 102:-0.90869 103:-0.907251 104:-0.908066 
2048 1:-0.942424 2:-0.912134 3:-0.944901 4:-0.942428 5:-0.793215 6:-0.810684 7:-0.799311 8:-0.799601 9:-0.801329 10:-0.799695 11:-0.798977 12:-0.83136 13:-0.858449 14:-0.871491 15:-0.885019 16:-0.888493 17:-0.880417 18:-0.882097 19:-0.876212 20:-0.871558 21:-0.877932 22:-0.889577 23:-0.898104 24:-0.904981 25:-0.907479 26:-0.908208 27:-0.909706 28:-0.913139 29:-0.917011 30:-0.920235 31:-0.923224 32:-0.925913 33:-0.928523 34:-0.930933 35:-0.933347 36:-0.935151 37:-0.937324 38:-0.939481 39:-0.941259 40:-0.942858 41:-0.943435 42:-0.943605 43:-0.943998 44:-0.944256 45:-0.944622 46:-0.944542 47:-0.944697 48:-0.944768 49:-0.944685 50:-0.944809 51:-0.944983 52:-0.944837 53:-0.94495 54:-0.94508 55:-0.944952 56:-0.94483 57:-0.944985 58:-0.944867 59:-0.944749 60:-0.944847 61:-0.944771 62:-0.94466 63:-0.944756 64:-0.944689 65:-0.944584 66:-0.944674 67:-0.944579 68:-0.944471 69:-0.944522 70:-0.944405 71:-0.944289 72:-0.944345 73:-0.944232 74:-0.944222 75:-0.944289 76:-0.944191 77:-0.944247 78:-0.944156 79:-0.944053 80:-0.944111 81:-0.944006 82:-0.944038 83:-0.943619 84:-0.941227 85:-0.939003 86:-0.936808 87:-0.934752 88:-0.932598 89:-0.930558 90:-0.928612 91:-0.926898 92:-0.924846 93:-0.922976 94:-0.921224 95:-0.919597 96:-0.917737 97:-0.916288 98:-0.914512 99:-0.912906 100:-0.911362 101:-0.909875 102:-0.908445 103:-0.907015 104:-0.907734 
2048 1:-0.930773 2:-0.880753 3:-0.941624 4:-0.942237 5:-0.801476 6:-0.818655 7:-0.804597 8:-0.798103 9:-0.802738 10:-0.800074 11:-0.799245 12:-0.83155 13:-0.861404 14:-0.874574 15:-0.887799 16:-0.890635 17:-0.884438 18:-0.881357 19:-0.87444 20:-0.870443 21:-0.87758 22:-0.890427 23:-0.899129 24:-0.905938 25:-0.907137 26:-0.907452 27:-0.909162 28:-0.91279 29:-0.916477 30:-0.919881 31:-0.922819 32:-0.925401 33:-0.928015 34:-0.930579 35:-0.933138 36:-0.934937 37:-0.937235 38:-0.939114 39:-0.94102 40:-0.942488 41:-0.943851 42:-0.944399 43:-0.94476 44:-0.945448 45:-0.945662 46:-0.945548 47:-0.945509 48:-0.945503 49:-0.945495 50:-0.945494 51:-0.945496 52:-0.945331 53:-0.945284 54:-0.945094 55:-0.945039 56:-0.945084 57:-0.945098 58:-0.945056 59:-0.945009 60:-0.945208 61:-0.945084 62:-0.945119 63:-0.945155 64:-0.945043 65:-0.945 66:-0.945178 67:-0.945068 68:-0.945018 69:-0.944887 70:-0.944893 71:-0.944764 72:-0.944705 73:-0.944709 74:-0.944594 75:-0.944488 76:-0.944445 77:-0.944466 78:-0.944366 79:-0.944307 80:-0.944273 81:-0.944206 82:-0.944097 83:-0.943621 84:-0.941336 85:-0.939107 86:-0.936918 87:-0.93476 88:-0.932629 89:-0.930584 90:-0.928686 91:-0.926939 92:-0.924882 93:-0.923058 94:-0.921176 95:-0.919645 96:-0.91778 97:-0.91623 98:-0.914497 99:-0.912935 100:-0.911411 101:-0.909825 102:-0.908367 103:-0.906896 104:-0.907742 
2048 1:-0.946502 2:-0.914226 3:-0.948061 4:-0.94205 5:-0.807387 6:-0.807153 7:-0.807555 8:-0.801466 9:-0.797005 10:-0.803014 11:-0.802402 12:-0.834928 13:-0.861608 14:-0.874778 15:-0.887596 16:-0.890841 17:-0.882908 18:-0.878191 19:-0.87206 20:-0.867665 21:-0.875752 22:-0.887475 23:-0.896117 24:-0.905669 25:-0.907466 26:-0.908026 27:-0.90972 28:-0.913145 29:-0.916828 30:-0.920226 31:-0.92304 32:-0.925737 33:-0.928347 34:-0.931059 35:-0.933316 36:-0.935115 37:-0.937283 38:-0.939167 39:-0.941277 40:-0.94267 41:-0.943247 42:-0.943772 43:-0.944038 44:-0.944291 45:-0.944539 46:-0.944566 47:-0.944447 48:-0.944366 49:-0.94449 50:-0.944416 51:-0.944594 52:-0.944588 53:-0.944561 54:-0.944381 55:-0.944263 56:-0.944373 57:-0.944364 58:-0.944254 59:-0.944143 60:-0.944249 61:-0.94426 62:-0.944155 63:-0.944216 64:-0.944123 65:-0.944024 66:-0.944155 67:-0.944065 68:-0.943963 69:-0.944028 70:-0.943916 71:-0.943905 72:-0.943795 73:-0.943687 74:-0.94372 75:-0.943629 76:-0.943537 77:-0.943636 78:-0.94355 79:-0.943444 80:-0.943365 81:-0.943402 82:-0.943393 83:-0.94287 84:-0.940485 85:-0.93827 86:-0.936205 87:-0.93406 88:-0.931832 89:-0.92996 90:-0.928019 91:-0.926179 92:-0.924134 93:-0.922398 94:-0.920601 95:-0.91898 96:-0.917223 97:-0.915633 98:-0.913862 99:-0.912261 100:-0.910819 101:-0.909241 102:-0.907809 103:-0.906459 104:-0.907156 
2048 1:-0.955726 2:-0.932008 3:-0.946688 4:-0.941989 5:-0.796602 6:-0.815457 7:-0.800994 8:-0.796513 9:-0.799126 10:-0.797096 11:-0.796096 12:-0.829693 13:-0.85593 14:-0.87524 15:-0.888007 16:-0.890833 17:-0.882202 18:-0.879938 19:-0.873156 20:-0.868403 21:-0.874672 22:-0.886215 23:-0.894892 24:-0.901677 25:-0.902865 26:-0.905111 27:-0.907928 28:-0.911421 29:-0.914984 30:-0.918272 31:-0.921152 32:-0.923994 33:-0.926658 34:-0.929485 35:-0.931787 36:-0.933989 37:-0.93591 38:-0.937829 39:-0.939643 40:-0.941706 41:-0.942305 42:-0.942497 43:-0.942792 44:-0.943073 45:-0.943236 46:-0.943731 47:-0.943629 48:-0.943563 49:-0.943683 50:-0.943873 51:-0.943815 52:-0.943687 53:-0.943582 54:-0.94342 55:-0.943544 56:-0.943444 57:-0.943516 58:-0.943656 59:-0.943763 60:-0.943668 61:-0.943866 62:-0.943766 63:-0.943676 64:-0.94359 65:-0.943498 66:-0.9436 67:-0.943517 68:-0.943601 69:-0.943579 70:-0.943472 71:-0.943365 72:-0.943261 73:-0.943159 74:-0.943067 75:-0.942984 76:-0.943059 77:-0.94312 78:-0.943039 79:-0.943056 80:-0.943016 81:-0.942906 82:-0.942963 83:-0.942444 84:-0.940063 85:-0.937852 86:-0.935625 87:-0.933486 88:-0.93162 89:-0.929723 90:-0.927784 91:-0.925945 92:-0.923902 93:-0.922315 94:-0.920443 95:-0.918822 96:-0.916968 97:-0.91538 98:-0.913731 99:-0.912408 100:-0.910863 101:-0.909283 102:-0.907832 103:-0.906457 104:-0.907179 
2048 1:-0.932812 2:-0.900628 3:-0.946585 4:-0.941396 5:-0.794383 6:-0.805601 7:-0.79555 8:-0.793387 9:-0.795238 10:-0.797096 11:-0.796008 12:-0.832866 13:-0.85987 14:-0.878855 15:-0.892595 16:-0.895433 17:-0.887721 18:-0.883841 19:-0.876425 20:-0.871698 21:-0.878272 22:-0.889597 23:-0.898074 24:-0.904678 25:-0.90591 26:-0.906256 27:-0.908292 28:-0.911743 29:-0.915268 30:-0.91896 31:-0.922215 32:-0.924589 33:-0.927568 34:-0.929976 35:-0.932536 36:-0.934336 37:-0.936773 38:-0.938648 39:-0.94093 40:-0.942257 41:-0.942824 42:-0.943226 43:-0.94372 44:-0.943962 45:-0.944087 46:-0.94421 47:-0.944082 48:-0.944095 49:-0.944107 50:-0.944222 51:-0.944143 52:-0.94409 53:-0.94415 54:-0.944055 55:-0.944018 56:-0.943896 57:-0.943926 58:-0.94381 59:-0.943777 60:-0.943751 61:-0.943724 62:-0.943693 63:-0.943594 64:-0.943651 65:-0.943547 66:-0.943527 67:-0.943506 68:-0.943472 69:-0.943427 70:-0.943381 71:-0.943266 72:-0.943221 73:-0.943176 74:-0.94314 75:-0.943111 76:-0.943016 77:-0.942986 78:-0.943022 79:-0.942913 80:-0.942891 81:-0.942833 82:-0.942794 83:-0.942327 84:-0.93994 85:-0.937835 86:-0.9356 87:-0.933508 88:-0.931332 89:-0.929351 90:-0.927409 91:-0.92562 92:-0.923676 93:-0.921809 94:-0.919987 95:-0.918414 96:-0.916606 97:-0.915016 98:-0.913292 99:-0.911737 100:-0.910221 101:-0.908689 102:-0.907192 103:-0.905773 104:-0.906582 
1397.462773350826 1:-0.954075 2:-0.924686 3:-0.947528 4:-0.940856 5:-0.794396 6:-0.802749 7:-0.792235 8:-0.789666 9:-0.796133 10:-0.795481 11:-0.799322 12:-0.832056 13:-0.860398 14:-0.87689 15:-0.892566 16:-0.89492 17:-0.885879 18:-0.881809 19:-0.875244 20:-0.870668 21:-0.877407 22:-0.890361 23:-0.898774 24:-0.905321 25:-0.906283 26:-0.907107 27:-0.90859 28:-0.912408 29:-0.915887 30:-0.919098 31:-0.922329 32:-0.924681 33:-0.927282 34:-0.929682 35:-0.932438 36:-0.934224 37:-0.936104 38:-0.938322 39:-0.940283 40:-0.941614 41:-0.942496 42:-0.942653 43:-0.942914 44:-0.943163 45:-0.943296 46:-0.943214 47:-0.943361 48:-0.943537 49:-0.943448 50:-0.943369 51:-0.943542 52:-0.943514 53:-0.943509 54:-0.943539 55:-0.943412 56:-0.943292 57:-0.943152 58:-0.943255 59:-0.943348 60:-0.94324 61:-0.943132 62:-0.943223 63:-0.943123 64:-0.943028 65:-0.943168 66:-0.943072 67:-0.943051 68:-0.942944 69:-0.943006 70:-0.94289 71:-0.942775 72:-0.942826 73:-0.942713 74:-0.942612 75:-0.942681 76:-0.942584 77:-0.94258 78:-0.942492 79:-0.942383 80:-0.942302 81:-0.942335 82:-0.942382 83:-0.941857 84:-0.939527 85:-0.937309 86:-0.935075 87:-0.933067 88:-0.930914 89:-0.928879 90:-0.926938 91:-0.925227 92:-0.923256 93:-0.921389 94:-0.919516 95:-0.918013 96:-0.916182 97:-0.914713 98:-0.912959 99:-0.911356 100:-0.909793 101:-0.90826 102:-0.906718 103:-0.905254 104:-0.905976 
240.2624197307499 1:-0.950192 2:-0.92364 3:-0.943717 4:-0.939888 5:-0.795598 6:-0.808135 7:-0.796715 8:-0.791636 9:-0.797077 10:-0.796844 11:-0.795556 12:-0.827996 13:-0.855344 14:-0.869308 15:-0.882376 16:-0.888089 17:-0.882031 18:-0.881388 19:-0.875563 20:-0.870507 21:-0.876521 22:-0.888339 23:-0.896787 24:-0.903364 25:-0.904903 26:-0.905217 27:-0.906728 28:-0.910628 29:-0.914127 30:-0.917356 31:-0.92018 32:-0.922971 33:-0.925587 34:-0.928369 35:-0.930629 36:-0.932433 37:-0.934328 38:-0.93656 39:-0.938341 40:-0.940166 41:-0.940929 42:-0.941095 43:-0.941364 44:-0.941621 45:-0.942043 46:-0.941961 47:-0.941843 48:-0.942026 49:-0.942199 50:-0.94212 51:-0.942178 52:-0.942241 53:-0.942385 54:-0.942199 55:-0.942075 56:-0.942146 57:-0.942035 58:-0.941923 59:-0.942068 60:-0.94196 61:-0.941934 62:-0.941826 63:-0.941729 64:-0.941827 65:-0.941725 66:-0.941818 67:-0.941794 68:-0.941689 69:-0.941574 70:-0.941635 71:-0.94152 72:-0.941408 73:-0.941446 74:-0.941528 75:-0.941512 76:-0.941414 77:-0.94132 78:-0.941387 79:-0.941277 80:-0.941343 81:-0.941223 82:-0.941124 83:-0.940744 84:-0.938357 85:-0.936139 86:-0.933906 87:-0.931897 88:-0.929668 89:-0.927634 90:-0.925827 91:-0.924101 92:-0.922068 93:-0.920536 94:-0.918659 95:-0.917034 96:-0.915175 97:-0.913592 98:-0.911929 99:-0.910325 100:-0.908878 101:-0.907382 102:-0.905844 103:-0.904463 104:-0.905225 
2048 1:-0.950386 2:-0.92364 3:-0.946032 4:-0.939886 5:-0.802166 6:-0.807046 7:-0.796027 8:-0.796667 9:-0.794919 10:-0.794834 11:-0.793862 12:-0.826512 13:-0.856105 14:-0.871818 15:-0.88509 16:-0.887976 17:-0.879748 18:-0.875101 19:-0.868755 20:-0.867659 21:-0.874568 22:-0.885995 23:-0.894804 24:-0.902362 25:-0.903629 26:-0.904409 27:-0.907943 28:-0.911343 29:-0.91482 30:-0.918469 31:-0.921424 32:-0.923769 33:-0.926759 34:-0.92914 35:-0.931381 36:-0.933167 37:-0.935388 38:-0.937256 39:-0.939023 40:-0.940677 41:-0.941243 42:-0.941818 43:-0.942073 44:-0.942316 45:-0.942444 46:-0.94263 47:-0.942552 48:-0.94246 49:-0.942372 50:-0.942292 51:-0.942794 52:-0.94264 53:-0.942787 54:-0.942596 55:-0.942467 56:-0.942567 57:-0.942419 58:-0.942515 59:-0.942394 60:-0.942443 61:-0.942331 62:-0.942254 63:-0.942313 64:-0.942213 65:-0.942295 66:-0.942263 67:-0.942165 68:-0.942056 69:-0.942115 70:-0.941996 71:-0.942021 72:-0.941993 73:-0.941878 74:-0.941773 75:-0.941677 76:-0.941766 77:-0.941669 78:-0.941733 79:-0.941621 80:-0.941564 81:-0.941444 82:-0.941491 83:-0.940963 84:-0.938575 85:-0.936493 86:-0.934257 87:-0.932247 88:-0.930015 89:-0.928005 90:-0.926062 91:-0.92435 92:-0.922302 93:-0.920434 94:-0.918687 95:-0.917108 96:-0.915299 97:-0.913707 98:-0.912054 99:-0.910561 100:-0.908996 101:-0.907415 102:-0.905917 103:-0.904451 104:-0.905081 
2048 1:-0.949124 2:-0.91841 3:-0.945401 4:-0.939374 5:-0.796482 6:-0.807733 7:-0.796304 8:-0.794572 9:-0.79754 10:-0.795336 11:-0.794829 12:-0.827299 13:-0.85446 14:-0.869311 15:-0.88234 16:-0.886153 17:-0.880628 18:-0.880189 19:-0.872873 20:-0.867966 21:-0.874609 22:-0.886251 23:-0.89478 24:-0.903138 25:-0.904668 26:-0.905097 27:-0.906594 28:-0.910213 29:-0.913711 30:-0.916939 31:-0.920187 32:-0.922631 33:-0.925639 34:-0.928037 35:-0.930798 36:-0.932583 37:-0.93446 38:-0.936676 39:-0.938504 40:-0.939836 41:-0.940627 42:-0.940938 43:-0.941435 44:-0.94168 45:-0.942652 46:-0.942544 47:-0.942404 48:-0.94273 49:-0.942724 50:-0.942624 51:-0.942532 52:-0.942612 53:-0.942605 54:-0.942406 55:-0.94227 56:-0.942361 57:-0.942248 58:-0.942123 59:-0.941998 60:-0.941884 61:-0.942012 62:-0.941895 63:-0.941789 64:-0.94188 65:-0.941955 66:-0.941852 67:-0.941934 68:-0.941819 69:-0.941862 70:-0.941739 71:-0.941616 72:-0.941496 73:-0.941545 74:-0.941437 75:-0.941368 76:-0.941267 77:-0.941169 78:-0.9412 79:-0.941326 80:-0.941237 81:-0.941113 82:-0.94101 83:-0.940628 84:-0.93826 85:-0.936038 86:-0.933801 87:-0.931652 88:-0.929421 89:-0.927644 90:-0.925699 91:-0.923854 92:-0.921805 93:-0.919937 94:-0.918063 95:-0.916514 96:-0.914869 97:-0.913324 98:-0.91169 99:-0.910083 100:-0.908518 101:-0.906982 102:-0.905437 103:-0.90397 104:-0.904599 
1655.951036915606 1:-0.949415 2:-0.917364 3:-0.94561 4:-0.939123 5:-0.796721 6:-0.806781 7:-0.794533 8:-0.79093 9:-0.7961 10:-0.800621 11:-0.799308 12:-0.831796 13:-0.857982 14:-0.871183 15:-0.88711 16:-0.890553 17:-0.881996 18:-0.878706 19:-0.872912 20:-0.869419 21:-0.876385 22:-0.888173 23:-0.896594 24:-0.903373 25:-0.904337 26:-0.905058 27:-0.906546 28:-0.909968 29:-0.913465 30:-0.917133 31:-0.920508 32:-0.922932 33:-0.925847 34:-0.928229 35:-0.930842 36:-0.932748 37:-0.934961 38:-0.937009 39:-0.938758 40:-0.940076 41:-0.941007 42:-0.941152 43:-0.941403 44:-0.94193 45:-0.942047 46:-0.941948 47:-0.942083 48:-0.942187 49:-0.942342 50:-0.942245 51:-0.942156 52:-0.941998 53:-0.942186 54:-0.94199 55:-0.941857 56:-0.941952 57:-0.941842 58:-0.94172 59:-0.941597 60:-0.941692 61:-0.941578 62:-0.941464 63:-0.941477 64:-0.941377 65:-0.941459 66:-0.941395 67:-0.941298 68:-0.94119 69:-0.941249 70:-0.941131 71:-0.941111 72:-0.940995 73:-0.941048 74:-0.940943 75:-0.940847 76:-0.940909 77:-0.940869 78:-0.940778 79:-0.940666 80:-0.940734 81:-0.94076 82:-0.940658 83:-0.940131 84:-0.937744 85:-0.935667 86:-0.933456 87:-0.931309 88:-0.929241 89:-0.927206 90:-0.925263 91:-0.923421 92:-0.921504 93:-0.919661 94:-0.917788 95:-0.91629 96:-0.914433 97:-0.912862 98:-0.91109 99:-0.909726 100:-0.908248 101:-0.906667 102:-0.905123 103:-0.903702 104:-0.904331 
2048 1:-0.980582 2:-0.936192 3:-0.961475 4:-0.981371 5:-0.813084 6:-0.824511 7:-0.820488 8:-0.82701 9:-0.830809 10:-0.829957 11:-0.830437 12:-0.864289 13:-0.891536 14:-0.905953 15:-0.919792 16:-0.923411 17:-0.916219 18:-0.911939 19:-0.905434 20:-0.901131 21:-0.907982 22:-0.92047 23:-0.929629 24:-0.936865 25:-0.938369 26:-0.939331 27:-0.942977 28:-0.946963 29:-0.950804 30:-0.954353 31:-0.957476 32:-0.960136 33:-0.963414 34:-0.966145 35:-0.968648 36:-0.970656 37:-0.972762 38:-0.974858 39:-0.976839 40:-0.978386 41:-0.97913 42:-0.979452 43:-0.979872 44:-0.98056 45:-0.980823 46:-0.980864 47:-0.980941 48:-0.980976 49:-0.981008 50:-0.981041 51:-0.981074 52:-0.981044 53:-0.981024 54:-0.981173 55:-0.981139 56:-0.981156 57:-0.981122 58:-0.981098 59:-0.981073 60:-0.981051 61:-0.981029 62:-0.981085 63:-0.981561 64:-0.981564 65:-0.981829 66:-0.981887 67:-0.98191 68:-0.981863 69:-0.981803 70:-0.981814 71:-0.981927 72:-0.98222 73:-0.982157 74:-0.9821 75:-0.982117 76:-0.982473 77:-0.982634 78:-0.982582 79:-0.982572 80:-0.982624 81:-0.982958 82:-0.982887 83:-0.982378 84:-0.979969 85:-0.977731 86:-0.97548 87:-0.973313 88:-0.971066 89:-0.969013 90:-0.96706 91:-0.965256 92:-0.963197 93:-0.961317 94:-0.95943 95:-0.9578 96:-0.95593 97:-0.954332 98:-0.952688 99:-0.951076 100:-0.949688 101:-0.948235 102:-0.946695 103:-0.945472 104:-0.946307 
2048 1:-0.979999 2:-0.932008 3:-0.957508 4:-0.981322 5:-0.812794 6:-0.824229 7:-0.820201 8:-0.829426 9:-0.833004 10:-0.831727 11:-0.83129 12:-0.86501 13:-0.892151 14:-0.906481 15:-0.920247 16:-0.923804 17:-0.916558 18:-0.912232 19:-0.907646 20:-0.903851 21:-0.910533 22:-0.922519 23:-0.931561 24:-0.938692 25:-0.940095 26:-0.941197 27:-0.943435 28:-0.947201 29:-0.951086 30:-0.954724 31:-0.957823 32:-0.96046 33:-0.963478 34:-0.966133 35:-0.968626 36:-0.970626 37:-0.972723 38:-0.974946 39:-0.976916 40:-0.978453 41:-0.979187 42:-0.979499 43:-0.97991 44:-0.980302 45:-0.980564 46:-0.980604 47:-0.980629 48:-0.980663 49:-0.981103 50:-0.981127 51:-0.981152 52:-0.981114 53:-0.981086 54:-0.980998 55:-0.980962 56:-0.980934 57:-0.980899 58:-0.980873 59:-0.980846 60:-0.981068 61:-0.981504 62:-0.981468 63:-0.981708 64:-0.981852 65:-0.981812 66:-0.981775 67:-0.981739 68:-0.981777 69:-0.981976 70:-0.982179 71:-0.982193 72:-0.982245 73:-0.982335 74:-0.982502 75:-0.982445 76:-0.982579 77:-0.982538 78:-0.982967 79:-0.982986 80:-0.982914 81:-0.982833 82:-0.98276 83:-0.982248 84:-0.979837 85:-0.977597 86:-0.975344 87:-0.973176 88:-0.971032 89:-0.968976 90:-0.967019 91:-0.965161 92:-0.9631 93:-0.961218 94:-0.959329 95:-0.957845 96:-0.955971 97:-0.954418 98:-0.952768 99:-0.951386 100:-0.949808 101:-0.948484 102:-0.947101 103:-0.945751 104:-0.9465 
2048 1:-0.979319 2:-0.932008 3:-0.956474 4:-0.981208 5:-0.810317 6:-0.822948 7:-0.819814 8:-0.830097 9:-0.831562 10:-0.830604 11:-0.831463 12:-0.865144 13:-0.892255 14:-0.906112 15:-0.920923 16:-0.925279 17:-0.917036 18:-0.912663 19:-0.906081 20:-0.901707 21:-0.908499 22:-0.922419 23:-0.931502 24:-0.938881 25:-0.940268 26:-0.941124 27:-0.942964 28:-0.946932 29:-0.950937 30:-0.954463 31:-0.957565 32:-0.960368 33:-0.963227 34:-0.965884 35:-0.96838 36:-0.970382 37:-0.972482 38:-0.974573 39:-0.976679 40:-0.978218 41:-0.978954 42:-0.979268 43:-0.979681 44:-0.980074 45:-0.980338 46:-0.980508 47:-0.980674 48:-0.980704 49:-0.980732 50:-0.980908 51:-0.980934 52:-0.980897 53:-0.980871 54:-0.980783 55:-0.980749 56:-0.980722 57:-0.980687 58:-0.980663 59:-0.980637 60:-0.981146 61:-0.9813 62:-0.981423 63:-0.981583 64:-0.981804 65:-0.981761 66:-0.981722 67:-0.981826 68:-0.982082 69:-0.982195 70:-0.982193 71:-0.982293 72:-0.982253 73:-0.982279 74:-0.982571 75:-0.982511 76:-0.982451 77:-0.982438 78:-0.9824 79:-0.982326 80:-0.982261 81:-0.982186 82:-0.982119 83:-0.981614 84:-0.97921 85:-0.976977 86:-0.97484 87:-0.972677 88:-0.970432 89:-0.968382 90:-0.966432 91:-0.964579 92:-0.962523 93:-0.960738 94:-0.959072 95:-0.957684 96:-0.956121 97:-0.954564 98:-0.952772 99:-0.951201 100:-0.949623 101:-0.948302 102:-0.946877 103:-0.945574 104:-0.946448 
2048 1:-0.979222 2:-0.92887 3:-0.956377 4:-0.981007 5:-0.81011 6:-0.822746 7:-0.821476 8:-0.831396 9:-0.829747 10:-0.828971 11:-0.828886 12:-0.86283 13:-0.890645 14:-0.904633 15:-0.918526 16:-0.923138 17:-0.915049 18:-0.910808 19:-0.904334 20:-0.901542 21:-0.908331 22:-0.920409 23:-0.929772 24:-0.936968 25:-0.938435 26:-0.939161 27:-0.941192 28:-0.945112 29:-0.948998 30:-0.952588 31:-0.95575 32:-0.958446 33:-0.961519 34:-0.964224 35:-0.966765 36:-0.968811 37:-0.97095 38:-0.973079 39:-0.97509 40:-0.976985 41:-0.977749 42:-0.978132 43:-0.978837 44:-0.979335 45:-0.980047 46:-0.98009 47:-0.980118 48:-0.980156 49:-0.980191 50:-0.980227 51:-0.980361 52:-0.980426 53:-0.980406 54:-0.980948 55:-0.980906 56:-0.98096 57:-0.981171 58:-0.981134 59:-0.981345 60:-0.981469 61:-0.981427 62:-0.981465 63:-0.981426 64:-0.981389 65:-0.98135 66:-0.981458 67:-0.981562 68:-0.981712 69:-0.982062 70:-0.981996 71:-0.981993 72:-0.981922 73:-0.982115 74:-0.982048 75:-0.982077 76:-0.982314 77:-0.982255 78:-0.982198 79:-0.982124 80:-0.98232 81:-0.982398 82:-0.982325 83:-0.981814 84:-0.979405 85:-0.977167 86:-0.975054 87:-0.9729 88:-0.970651 89:-0.968595 90:-0.966639 91:-0.964781 92:-0.96272 93:-0.960839 94:-0.95905 95:-0.957514 96:-0.955763 97:-0.954302 98:-0.952716 99:-0.951144 100:-0.949564 101:-0.948173 102:-0.946854 103:-0.945369 104:-0.94625 
2048 1:-0.979999 2:-0.935146 3:-0.957645 4:-0.980957 5:-0.812437 6:-0.823882 7:-0.819847 8:-0.829663 9:-0.827637 10:-0.827225 11:-0.827396 12:-0.861507 13:-0.888964 14:-0.903559 15:-0.918573 16:-0.922375 17:-0.915039 18:-0.910799 19:-0.904326 20:-0.900054 21:-0.907589 22:-0.919704 23:-0.930095 24:-0.93795 25:-0.93937 26:-0.940053 27:-0.942127 28:-0.946299 29:-0.950139 30:-0.953687 31:-0.956809 32:-0.959468 33:-0.962507 34:-0.965181 35:-0.967692 36:-0.969709 37:-0.971822 38:-0.973926 39:-0.975913 40:-0.977594 41:-0.978341 42:-0.978786 43:-0.979206 44:-0.979606 45:-0.979876 46:-0.979924 47:-0.979956 48:-0.980076 49:-0.980805 50:-0.98095 51:-0.980971 52:-0.980929 53:-0.980898 54:-0.980805 55:-0.980766 56:-0.980735 57:-0.980782 58:-0.980752 59:-0.980721 60:-0.980857 61:-0.980826 62:-0.981072 63:-0.981224 64:-0.981191 65:-0.981155 66:-0.981123 67:-0.981171 68:-0.981429 69:-0.981941 70:-0.981878 71:-0.981877 72:-0.981808 73:-0.981741 74:-0.982003 75:-0.982012 76:-0.982019 77:-0.981965 78:-0.981912 79:-0.981842 80:-0.981781 81:-0.981729 82:-0.981874 83:-0.981369 84:-0.978965 85:-0.976733 86:-0.974487 87:-0.972325 88:-0.970083 89:-0.968088 90:-0.966139 91:-0.964287 92:-0.962233 93:-0.960506 94:-0.959068 95:-0.957519 96:-0.955646 97:-0.954092 98:-0.952303 99:-0.950722 100:-0.949477 101:-0.948092 102:-0.946811 103:-0.945328 104:-0.946122 
2048 1:-0.979805 2:-0.925732 3:-0.956338 4:-0.980743 5:-0.812142 6:-0.823595 7:-0.819555 8:-0.829037 9:-0.830749 10:-0.829753 11:-0.830131 12:-0.8639 13:-0.891574 14:-0.905445 15:-0.921296 16:-0.924711 17:-0.916475 18:-0.912665 19:-0.906049 20:-0.901646 21:-0.908412 22:-0.920718 23:-0.929814 24:-0.936993 25:-0.938876 26:-0.939567 27:-0.941453 28:-0.945272 29:-0.94914 30:-0.952714 31:-0.956196 32:-0.958866 33:-0.961758 34:-0.964445 35:-0.96697 36:-0.969 37:-0.971124 38:-0.973239 39:-0.975566 40:-0.977182 41:-0.977932 42:-0.978259 43:-0.978685 44:-0.97909 45:-0.979365 46:-0.98006 47:-0.980081 48:-0.980113 49:-0.980143 50:-0.980174 51:-0.980302 52:-0.980611 53:-0.980789 54:-0.980692 55:-0.98065 56:-0.980791 57:-0.980745 58:-0.980806 59:-0.981085 60:-0.981103 61:-0.981327 62:-0.981282 63:-0.981241 64:-0.981202 65:-0.981161 66:-0.981124 67:-0.98116 68:-0.981445 69:-0.981663 70:-0.981823 71:-0.981795 72:-0.981723 73:-0.981719 74:-0.981777 75:-0.981917 76:-0.981907 77:-0.982001 78:-0.982296 79:-0.982449 80:-0.982376 81:-0.982294 82:-0.982218 83:-0.981705 84:-0.979293 85:-0.977109 86:-0.974854 87:-0.972684 88:-0.970434 89:-0.968377 90:-0.966421 91:-0.964562 92:-0.962501 93:-0.960746 94:-0.958855 95:-0.957245 96:-0.955372 97:-0.95394 98:-0.952403 99:-0.951057 100:-0.949475 101:-0.94815 102:-0.946587 103:-0.945236 104:-0.945984 
2048 1:-0.98029 2:-0.926778 3:-0.957144 4:-0.980727 5:-0.809875 6:-0.822517 7:-0.820297 8:-0.82924 9:-0.827031 10:-0.826684 11:-0.827518 12:-0.861586 13:-0.889008 14:-0.903127 15:-0.91895 16:-0.922564 17:-0.914502 18:-0.910285 19:-0.90383 20:-0.899807 21:-0.907122 22:-0.919864 23:-0.930443 24:-0.937822 25:-0.939237 26:-0.939914 27:-0.941787 28:-0.94579 29:-0.949815 30:-0.953366 31:-0.95649 32:-0.959152 33:-0.962193 34:-0.964868 35:-0.967381 36:-0.9694 37:-0.971514 38:-0.97362 39:-0.975609 40:-0.977163 41:-0.977915 42:-0.978244 43:-0.978968 44:-0.979416 45:-0.979685 46:-0.979731 47:-0.979762 48:-0.979802 49:-0.97984 50:-0.979879 51:-0.979917 52:-0.979892 53:-0.979877 54:-0.9798 55:-0.980002 56:-0.980555 57:-0.980711 58:-0.980716 59:-0.980681 60:-0.980855 61:-0.98082 62:-0.981001 63:-0.981097 64:-0.981061 65:-0.981024 66:-0.980989 67:-0.981238 68:-0.981188 69:-0.981371 70:-0.98155 71:-0.981735 72:-0.981732 73:-0.981729 74:-0.981664 75:-0.981715 76:-0.98182 77:-0.981936 78:-0.982 79:-0.981926 80:-0.98186 81:-0.982083 82:-0.982011 83:-0.981548 84:-0.979139 85:-0.976901 86:-0.974649 87:-0.972483 88:-0.970372 89:-0.968317 90:-0.966362 91:-0.964505 92:-0.962462 93:-0.960585 94:-0.958697 95:-0.957193 96:-0.955385 97:-0.954068 98:-0.952324 99:-0.950745 100:-0.949447 101:-0.948032 102:-0.946517 103:-0.945124 104:-0.945918 
2048 1:-0.979514 2:-0.933054 3:-0.955805 4:-0.980696 5:-0.812064 6:-0.825549 7:-0.822313 8:-0.82486 9:-0.832252 10:-0.831085 11:-0.830639 12:-0.86489 13:-0.891962 14:-0.905788 15:-0.920203 16:-0.924043 17:-0.916652 18:-0.913069 19:-0.906421 20:-0.901989 21:-0.908731 22:-0.920768 23:-0.929857 24:-0.937309 25:-0.938987 26:-0.93967 27:-0.941729 28:-0.945548 29:-0.949402 30:-0.952963 31:-0.956097 32:-0.958767 33:-0.962055 34:-0.96473 35:-0.967243 36:-0.969458 37:-0.971567 38:-0.973666 39:-0.97565 40:-0.9772 41:-0.977947 42:-0.978272 43:-0.978695 44:-0.979386 45:-0.979653 46:-0.979858 47:-0.979882 48:-0.979916 49:-0.979961 50:-0.980181 51:-0.98021 52:-0.980606 53:-0.981144 54:-0.981039 55:-0.981077 56:-0.981254 57:-0.981198 58:-0.981278 59:-0.98123 60:-0.981268 61:-0.981224 62:-0.981179 63:-0.981139 64:-0.981176 65:-0.981135 66:-0.981096 67:-0.981059 68:-0.981107 69:-0.981568 70:-0.981827 71:-0.981752 72:-0.98168 73:-0.981675 74:-0.98161 75:-0.981872 76:-0.98202 77:-0.982003 78:-0.98222 79:-0.98214 80:-0.982221 81:-0.982139 82:-0.982065 83:-0.981553 84:-0.979142 85:-0.977029 86:-0.974789 87:-0.972619 88:-0.970368 89:-0.968312 90:-0.966355 91:-0.964497 92:-0.962435 93:-0.96068 94:-0.958789 95:-0.957191 96:-0.955517 97:-0.953951 98:-0.95244 99:-0.95082 100:-0.949287 101:-0.947854 102:-0.946574 103:-0.94521 104:-0.945969 
2048 1:-0.976407 2:-0.9341 3:-0.959576 4:-0.98051 5:-0.812105 6:-0.823559 7:-0.819518 8:-0.827981 9:-0.828183 10:-0.827623 11:-0.827782 12:-0.862794 13:-0.890084 14:-0.905217 15:-0.919182 16:-0.923571 17:-0.916024 18:-0.911688 19:-0.905134 20:-0.900788 21:-0.9076 22:-0.919696 23:-0.92884 24:-0.936063 25:-0.937988 26:-0.938719 27:-0.940639 28:-0.94449 29:-0.948568 30:-0.952161 31:-0.955326 32:-0.958024 33:-0.960944 34:-0.964039 35:-0.966776 36:-0.968811 37:-0.97094 38:-0.973059 39:-0.975061 40:-0.976628 41:-0.977392 42:-0.977812 43:-0.978466 44:-0.978876 45:-0.979156 46:-0.979212 47:-0.979612 48:-0.979856 49:-0.979891 50:-0.979926 51:-0.979961 52:-0.979993 53:-0.980283 54:-0.980548 55:-0.980507 56:-0.980474 57:-0.980434 58:-0.980489 59:-0.980701 60:-0.980667 61:-0.980795 62:-0.981073 63:-0.981036 64:-0.980999 65:-0.981107 66:-0.98107 67:-0.981034 68:-0.980985 69:-0.980923 70:-0.980863 71:-0.981068 72:-0.981382 73:-0.981537 74:-0.98154 75:-0.981487 76:-0.981627 77:-0.981688 78:-0.981696 79:-0.981816 80:-0.981826 81:-0.98199 82:-0.981918 83:-0.981408 84:-0.979 85:-0.976763 86:-0.974512 87:-0.972346 88:-0.9701 89:-0.968048 90:-0.966095 91:-0.964241 92:-0.962311 93:-0.960431 94:-0.958543 95:-0.956913 96:-0.955043 97:-0.953628 98:-0.951888 99:-0.950441 100:-0.949023 101:-0.947431 102:-0.945967 103:-0.944743 104:-0.945549 
2048 1:-0.977766 2:-0.924686 3:-0.955688 4:-0.980484 5:-0.811843 6:-0.823304 7:-0.819258 8:-0.828241 9:-0.829578 10:-0.828735 11:-0.82922 12:-0.863053 13:-0.890287 14:-0.904249 15:-0.919574 16:-0.923938 17:-0.91574 18:-0.911405 19:-0.904852 20:-0.900509 21:-0.90732 22:-0.920044 23:-0.929259 24:-0.936448 25:-0.937911 26:-0.938633 27:-0.940546 28:-0.944389 29:-0.948279 30:-0.951873 31:-0.955038 32:-0.958308 33:-0.961208 34:-0.963903 35:-0.966434 36:-0.968471 37:-0.970703 38:-0.973035 39:-0.975029 40:-0.976589 41:-0.977347 42:-0.977682 43:-0.978349 44:-0.978755 45:-0.979031 46:-0.979617 47:-0.979642 48:-0.979676 49:-0.979709 50:-0.979743 51:-0.979874 52:-0.980393 53:-0.98036 54:-0.980358 55:-0.980315 56:-0.980281 57:-0.980543 58:-0.980791 59:-0.980748 60:-0.981035 61:-0.980991 62:-0.980947 63:-0.980907 64:-0.980868 65:-0.980828 66:-0.980791 67:-0.980827 68:-0.980982 69:-0.981054 70:-0.981452 71:-0.981524 72:-0.981452 73:-0.981513 74:-0.981512 75:-0.981455 76:-0.981525 77:-0.981715 78:-0.981658 79:-0.981583 80:-0.981517 81:-0.981442 82:-0.981432 83:-0.980925 84:-0.97852 85:-0.976286 86:-0.974039 87:-0.97193 88:-0.969686 89:-0.967636 90:-0.965685 91:-0.96386 92:-0.961905 93:-0.960027 94:-0.958383 95:-0.95702 96:-0.955244 97:-0.953782 98:-0.952158 99:-0.950562 100:-0.949026 101:-0.9477 102:-0.946331 103:-0.945014 104:-0.94576 
2048 1:-0.981067 2:-0.935146 3:-0.955391 4:-0.980473 5:-0.811815 6:-0.825421 7:-0.820687 8:-0.828269 9:-0.829597 10:-0.828745 11:-0.829225 12:-0.863054 13:-0.891304 14:-0.905168 15:-0.918957 16:-0.922538 17:-0.915328 18:-0.911649 19:-0.905078 20:-0.900718 21:-0.908388 22:-0.920428 23:-0.929521 24:-0.93707 25:-0.940028 26:-0.940651 27:-0.942475 28:-0.946238 29:-0.950055 30:-0.953582 31:-0.956684 32:-0.959325 33:-0.96219 34:-0.964852 35:-0.967723 36:-0.969788 37:-0.971879 38:-0.973962 39:-0.97593 40:-0.977465 41:-0.978199 42:-0.97851 43:-0.97892 44:-0.979599 45:-0.979854 46:-0.979887 47:-0.979904 48:-0.979933 49:-0.980081 50:-0.980578 51:-0.980593 52:-0.980545 53:-0.980725 54:-0.980623 55:-0.980662 56:-0.980623 57:-0.980915 58:-0.981063 59:-0.981074 60:-0.981029 61:-0.980984 62:-0.980939 63:-0.980976 64:-0.98096 65:-0.981082 66:-0.981071 67:-0.981282 68:-0.981533 69:-0.981458 70:-0.981559 71:-0.981585 72:-0.981682 73:-0.981829 74:-0.981758 75:-0.981697 76:-0.981796 77:-0.981736 78:-0.981704 79:-0.981884 80:-0.982148 81:-0.982064 82:-0.981988 83:-0.981473 84:-0.97906 85:-0.976819 86:-0.974564 87:-0.972393 88:-0.970143 89:-0.968086 90:-0.96613 91:-0.964271 92:-0.962338 93:-0.960454 94:-0.958563 95:-0.956929 96:-0.955175 97:-0.953571 98:-0.951829 99:-0.950566 100:-0.949003 101:-0.947658 102:-0.946331 103:-0.945004 104:-0.945768 
2048 1:-0.979514 2:-0.929916 3:-0.958906 4:-0.980447 5:-0.812001 6:-0.825488 7:-0.820794 8:-0.828084 9:-0.82808 10:-0.82752 11:-0.828204 12:-0.862171 13:-0.889512 14:-0.90541 15:-0.91987 16:-0.923391 17:-0.915248 18:-0.910962 19:-0.904449 20:-0.900141 21:-0.906982 22:-0.919733 23:-0.92887 24:-0.936194 25:-0.937677 26:-0.938417 27:-0.940346 28:-0.944393 29:-0.948289 30:-0.951889 31:-0.955059 32:-0.957763 33:-0.960687 34:-0.963787 35:-0.966545 36:-0.968583 37:-0.970716 38:-0.972838 39:-0.974843 40:-0.976413 41:-0.977179 42:-0.977523 43:-0.977964 44:-0.978383 45:-0.978673 46:-0.978791 47:-0.97971 48:-0.979747 49:-0.979782 50:-0.979818 51:-0.979853 52:-0.979825 53:-0.979807 54:-0.979769 55:-0.979791 56:-0.97977 57:-0.979741 58:-0.9803 59:-0.980514 60:-0.980482 61:-0.980732 62:-0.980695 63:-0.980662 64:-0.980959 65:-0.98092 66:-0.980884 67:-0.980922 68:-0.980873 69:-0.980882 70:-0.981158 71:-0.981093 72:-0.981265 73:-0.981584 74:-0.981624 75:-0.981568 76:-0.981575 77:-0.981643 78:-0.981711 79:-0.981699 80:-0.981633 81:-0.981623 82:-0.98181 83:-0.9813 84:-0.978893 85:-0.976797 86:-0.974586 87:-0.972417 88:-0.970169 89:-0.968114 90:-0.96616 91:-0.964303 92:-0.962243 93:-0.960362 94:-0.958474 95:-0.956902 96:-0.955096 97:-0.953519 98:-0.951779 99:-0.950352 100:-0.948958 101:-0.947416 102:-0.946034 103:-0.944681 104:-0.945525 
2048 1:-0.976115 2:-0.917364 3:-0.955916 4:-0.979965 5:-0.822255 6:-0.830166 7:-0.825215 8:-0.823177 9:-0.829042 10:-0.828676 11:-0.828483 12:-0.862338 13:-0.890083 14:-0.904016 15:-0.917863 16:-0.922224 17:-0.914123 18:-0.910677 19:-0.904139 20:-0.901214 21:-0.908252 22:-0.920273 23:-0.929348 24:-0.936509 25:-0.93816 26:-0.938848 27:-0.94073 28:-0.944545 29:-0.949047 30:-0.952667 31:-0.955785 32:-0.95844 33:-0.961476 34:-0.964145 35:-0.966653 36:-0.968809 37:-0.970915 38:-0.973012 39:-0.974993 40:-0.97654 41:-0.977285 42:-0.977849 43:-0.978265 44:-0.97866 45:-0.978926 46:-0.97897 47:-0.97921 48:-0.979243 49:-0.979478 50:-0.979506 51:-0.979533 52:-0.979593 53:-0.979567 54:-0.979479 55:-0.979534 56:-0.979505 57:-0.979554 58:-0.979611 59:-0.979951 60:-0.979918 61:-0.98007 62:-0.980033 63:-0.980077 64:-0.980273 65:-0.980362 66:-0.980415 67:-0.980377 68:-0.980398 69:-0.980677 70:-0.980678 71:-0.98061 72:-0.980787 73:-0.981066 74:-0.980999 75:-0.981007 76:-0.981172 77:-0.981328 78:-0.981331 79:-0.981314 80:-0.981548 81:-0.981693 82:-0.981616 83:-0.9811 84:-0.978686 85:-0.9765 86:-0.974243 87:-0.972072 88:-0.96982 89:-0.967762 90:-0.965906 91:-0.964045 92:-0.96198 93:-0.960096 94:-0.958204 95:-0.956618 96:-0.954744 97:-0.95314 98:-0.951398 99:-0.949971 100:-0.948666 101:-0.94707 102:-0.945741 103:-0.944442 104:-0.945218 
2048 1:-0.975339 2:-0.908996 3:-0.950916 4:-0.979471 5:-0.810304 6:-0.830133 7:-0.825093 8:-0.822882 9:-0.8293 10:-0.828935 11:-0.82859 12:-0.86288 13:-0.889985 14:-0.903844 15:-0.919196 16:-0.922649 17:-0.914451 18:-0.911057 19:-0.904439 20:-0.900318 21:-0.907063 22:-0.919098 23:-0.928424 24:-0.935586 25:-0.937025 26:-0.937728 27:-0.939818 28:-0.943635 29:-0.947501 30:-0.951246 31:-0.954384 32:-0.95722 33:-0.96011 34:-0.962796 35:-0.965688 36:-0.967767 37:-0.969878 38:-0.971979 39:-0.973965 40:-0.97577 41:-0.976513 42:-0.976834 43:-0.977371 44:-0.977767 45:-0.97836 46:-0.978619 47:-0.978741 48:-0.978765 49:-0.978789 50:-0.978912 51:-0.978935 52:-0.979084 53:-0.979051 54:-0.978957 55:-0.979095 56:-0.979346 57:-0.979518 58:-0.979474 59:-0.979514 60:-0.979473 61:-0.979432 62:-0.979482 63:-0.979825 64:-0.979849 65:-0.979878 66:-0.979908 67:-0.980105 68:-0.980301 69:-0.980361 70:-0.980423 71:-0.980683 72:-0.98067 73:-0.980657 74:-0.980748 75:-0.980714 76:-0.980649 77:-0.980833 78:-0.980769 79:-0.980749 80:-0.980677 81:-0.980653 82:-0.980578 83:-0.980065 84:-0.977655 85:-0.975417 86:-0.973164 87:-0.971008 88:-0.968802 89:-0.966748 90:-0.964793 91:-0.962988 92:-0.960978 93:-0.95938 94:-0.957721 95:-0.95615 96:-0.954394 97:-0.952949 98:-0.95132 99:-0.949729 100:-0.948361 101:-0.946901 102:-0.94564 103:-0.944199 104:-0.945023 
2048 1:-0.97728 2:-0.910042 3:-0.950955 4:-0.979334 5:-0.823387 6:-0.830494 7:-0.827924 8:-0.826027 9:-0.827826 10:-0.83025 11:-0.829693 12:-0.863843 13:-0.890836 14:-0.9046 15:-0.918308 16:-0.921823 17:-0.91368 18:-0.910295 19:-0.904207 20:-0.899814 21:-0.907241 22:-0.920087 23:-0.929446 24:-0.936554 25:-0.937941 26:-0.9388 27:-0.940642 28:-0.944419 29:-0.948249 30:-0.952475 31:-0.955564 32:-0.958191 33:-0.961201 34:-0.963846 35:-0.966331 36:-0.968325 37:-0.970415 38:-0.972631 39:-0.974595 40:-0.976125 41:-0.976978 42:-0.977283 43:-0.977805 44:-0.978187 45:-0.978441 46:-0.978473 47:-0.978488 48:-0.978828 49:-0.978846 50:-0.978866 51:-0.978887 52:-0.978844 53:-0.978906 54:-0.97922 55:-0.979289 56:-0.979422 57:-0.979368 58:-0.97941 59:-0.979531 60:-0.979891 61:-0.979841 62:-0.979791 63:-0.979822 64:-0.979777 65:-0.97973 66:-0.97975 67:-0.98 68:-0.980082 69:-0.980077 70:-0.980205 71:-0.980468 72:-0.980389 73:-0.980312 74:-0.980471 75:-0.980625 76:-0.980686 77:-0.980683 78:-0.981044 79:-0.980957 80:-0.980923 81:-0.980943 82:-0.980862 83:-0.980344 84:-0.977928 85:-0.975684 86:-0.973502 87:-0.971329 88:-0.969075 89:-0.967015 90:-0.965055 91:-0.963193 92:-0.961128 93:-0.959371 94:-0.957498 95:-0.955861 96:-0.954145 97:-0.9529 98:-0.951196 99:-0.949619 100:-0.948217 101:-0.946927 102:-0.945541 103:-0.94414 104:-0.944881 
2048 1:-0.978737 2:-0.946653 3:-0.975591 4:-0.983033 5:-0.826523 6:-0.828456 7:-0.827991 8:-0.827411 9:-0.829699 10:-0.829456 11:-0.829748 12:-0.863993 13:-0.892048 14:-0.906227 15:-0.920278 16:-0.924073 17:-0.916159 18:-0.912067 19:-0.906321 20:-0.902121 21:-0.909068 22:-0.921289 23:-0.930544 24:-0.937868 25:-0.940136 26:-0.94246 27:-0.944376 28:-0.948225 29:-0.952121 30:-0.955721 31:-0.959388 32:-0.962238 33:-0.965297 34:-0.967991 35:-0.97052 36:-0.972553 37:-0.974682 38:-0.976801 39:-0.979542 40:-0.981228 41:-0.982046 42:-0.982402 43:-0.982815 44:-0.983321 45:-0.983581 46:-0.983618 47:-0.983643 48:-0.983779 49:-0.983808 50:-0.983837 51:-0.983866 52:-0.983927 53:-0.983902 54:-0.983815 55:-0.983781 56:-0.983843 57:-0.983808 58:-0.983867 59:-0.983839 60:-0.983815 61:-0.983844 62:-0.983843 63:-0.98382 64:-0.983797 65:-0.983773 66:-0.983751 67:-0.98373 68:-0.983839 69:-0.983788 70:-0.983739 71:-0.983691 72:-0.983644 73:-0.983664 74:-0.983623 75:-0.983591 76:-0.98356 77:-0.983529 78:-0.9835 79:-0.983513 80:-0.983473 81:-0.983423 82:-0.983438 83:-0.982954 84:-0.980571 85:-0.978357 86:-0.976184 87:-0.97404 88:-0.971815 89:-0.969783 90:-0.96785 91:-0.966014 92:-0.964027 93:-0.962166 94:-0.960297 95:-0.958686 96:-0.956882 97:-0.955446 98:-0.953771 99:-0.952174 100:-0.950616 101:-0.949043 102:-0.947684 103:-0.946291 104:-0.947131 
2048 1:-0.983203 2:-0.961297 3:-0.977125 4:-0.982665 5:-0.815327 6:-0.826696 7:-0.826187 8:-0.827575 9:-0.826321 10:-0.82661 11:-0.827276 12:-0.862829 13:-0.890476 14:-0.904774 15:-0.918922 16:-0.922805 17:-0.914968 18:-0.911108 19:-0.904954 20:-0.900824 21:-0.907825 22:-0.920093 23:-0.929865 24:-0.938032 25:-0.941296 26:-0.94223 27:-0.944142 28:-0.947988 29:-0.951882 30:-0.955479 31:-0.958647 32:-0.961349 33:-0.964271 34:-0.967786 35:-0.970797 36:-0.972812 37:-0.974924 38:-0.977178 39:-0.979161 40:-0.980711 41:-0.981455 42:-0.981776 43:-0.982197 44:-0.982939 45:-0.983201 46:-0.98324 47:-0.983266 48:-0.9833 49:-0.983333 50:-0.983365 51:-0.983495 52:-0.983463 53:-0.983441 54:-0.983443 55:-0.983415 56:-0.98339 57:-0.983359 58:-0.983336 59:-0.983312 60:-0.983291 61:-0.98327 62:-0.983249 63:-0.98323 64:-0.983213 65:-0.983193 66:-0.983286 67:-0.983341 68:-0.983553 69:-0.983502 70:-0.983453 71:-0.983404 72:-0.983357 73:-0.983311 74:-0.98327 75:-0.983239 76:-0.983208 77:-0.983178 78:-0.98315 79:-0.983103 80:-0.983064 81:-0.983015 82:-0.982973 83:-0.982637 84:-0.980281 85:-0.978068 86:-0.97584 87:-0.973696 88:-0.971472 89:-0.96944 90:-0.967509 91:-0.965674 92:-0.963636 93:-0.961776 94:-0.959982 95:-0.958423 96:-0.956571 97:-0.95499 98:-0.953337 99:-0.951742 100:-0.950186 101:-0.948615 102:-0.947169 103:-0.945799 104:-0.946662 
2048 1:-0.984077 2:-0.959205 3:-0.976761 4:-0.982565 5:-0.812906 6:-0.825468 7:-0.825598 8:-0.826958 9:-0.825807 10:-0.826168 11:-0.826979 12:-0.862469 13:-0.890141 14:-0.90446 15:-0.918627 16:-0.922525 17:-0.914989 18:-0.911009 19:-0.904711 20:-0.90059 21:-0.907599 22:-0.919872 23:-0.929413 24:-0.937423 25:-0.940852 26:-0.942213 27:-0.944318 28:-0.948153 29:-0.952035 30:-0.955798 31:-0.958951 32:-0.961638 33:-0.964703 34:-0.967403 35:-0.969937 36:-0.971975 37:-0.974109 38:-0.976557 39:-0.978897 40:-0.980793 41:-0.981533 42:-0.981849 43:-0.982265 44:-0.98266 45:-0.982926 46:-0.983296 47:-0.983318 48:-0.983349 49:-0.98348 50:-0.983507 51:-0.983534 52:-0.983499 53:-0.983474 54:-0.983387 55:-0.983443 56:-0.983415 57:-0.983382 58:-0.983356 59:-0.98333 60:-0.983307 61:-0.983284 62:-0.98326 63:-0.983435 64:-0.983445 65:-0.983419 66:-0.983397 67:-0.983375 68:-0.98334 69:-0.983291 70:-0.983243 71:-0.9834 72:-0.983352 73:-0.983304 74:-0.983262 75:-0.98323 76:-0.983197 77:-0.983166 78:-0.983136 79:-0.983088 80:-0.983048 81:-0.982998 82:-0.982955 83:-0.982473 84:-0.980273 85:-0.978103 86:-0.975873 87:-0.973728 88:-0.971501 89:-0.969469 90:-0.967535 91:-0.965699 92:-0.963659 93:-0.961799 94:-0.95993 95:-0.958318 96:-0.95653 97:-0.955007 98:-0.953308 99:-0.951711 100:-0.950155 101:-0.948583 102:-0.947064 103:-0.945765 104:-0.946584 
2048 1:-0.983689 2:-0.957113 3:-0.975955 4:-0.982527 5:-0.815119 6:-0.826493 7:-0.825015 8:-0.827427 9:-0.826785 10:-0.827167 11:-0.827722 12:-0.862131 13:-0.890318 14:-0.90461 15:-0.918754 16:-0.922632 17:-0.914793 18:-0.911085 19:-0.904774 20:-0.900643 21:-0.907642 22:-0.919907 23:-0.929203 24:-0.937415 25:-0.940849 26:-0.942816 27:-0.94489 28:-0.948697 29:-0.952554 30:-0.956118 31:-0.959256 32:-0.961929 33:-0.964823 34:-0.967819 35:-0.970337 36:-0.972359 37:-0.974478 38:-0.976587 39:-0.97858 40:-0.98014 41:-0.981205 42:-0.981527 43:-0.981949 44:-0.982349 45:-0.98262 46:-0.98272 47:-0.982753 48:-0.982794 49:-0.982833 50:-0.982872 51:-0.983155 52:-0.983126 53:-0.983106 54:-0.983025 55:-0.982996 56:-0.982975 57:-0.982947 58:-0.983049 59:-0.983026 60:-0.983006 61:-0.982987 62:-0.982967 63:-0.982949 64:-0.982933 65:-0.982914 66:-0.982898 67:-0.982882 68:-0.98301 69:-0.982987 70:-0.982942 71:-0.982898 72:-0.982855 73:-0.982825 74:-0.982873 75:-0.982845 76:-0.982816 77:-0.982788 78:-0.982762 79:-0.982718 80:-0.982681 81:-0.982784 82:-0.982742 83:-0.982261 84:-0.97988 85:-0.977669 86:-0.975444 87:-0.973303 88:-0.971081 89:-0.969235 90:-0.967408 91:-0.965572 92:-0.963545 93:-0.961723 94:-0.959854 95:-0.958242 96:-0.956438 97:-0.954857 98:-0.953247 99:-0.951681 100:-0.950124 101:-0.948552 102:-0.947076 103:-0.945732 104:-0.946594 
2048 1:-0.9833 2:-0.961297 3:-0.975727 4:-0.982495 5:-0.812772 6:-0.825338 7:-0.828488 8:-0.826825 9:-0.825675 10:-0.826037 11:-0.827371 12:-0.861817 13:-0.889539 14:-0.903902 15:-0.918105 16:-0.922409 17:-0.914586 18:-0.910572 19:-0.904294 20:-0.90047 21:-0.907478 22:-0.919749 23:-0.929289 24:-0.938392 25:-0.941782 26:-0.942876 27:-0.94475 28:-0.948561 29:-0.952423 30:-0.956165 31:-0.9593 32:-0.96197 33:-0.964863 34:-0.967838 35:-0.970448 36:-0.97267 37:-0.974779 38:-0.976879 39:-0.978863 40:-0.980414 41:-0.98116 42:-0.981482 43:-0.981904 44:-0.982305 45:-0.982576 46:-0.982625 47:-0.982659 48:-0.982702 49:-0.982742 50:-0.983033 51:-0.983067 52:-0.98318 53:-0.983159 54:-0.983076 55:-0.983045 56:-0.983023 57:-0.982994 58:-0.982973 59:-0.982951 60:-0.982933 61:-0.982914 62:-0.982894 63:-0.982878 64:-0.982862 65:-0.982844 66:-0.982829 67:-0.982996 68:-0.982965 69:-0.983267 70:-0.983217 71:-0.983169 72:-0.983121 73:-0.983075 74:-0.983034 75:-0.983003 76:-0.982972 77:-0.982942 78:-0.982914 79:-0.982867 80:-0.982828 81:-0.982928 82:-0.982884 83:-0.982505 84:-0.98012 85:-0.977906 86:-0.975677 87:-0.973533 88:-0.971308 89:-0.969295 90:-0.967551 91:-0.965713 92:-0.963671 93:-0.961809 94:-0.959938 95:-0.958325 96:-0.956477 97:-0.954937 98:-0.953167 99:-0.95171 100:-0.950152 101:-0.948579 102:-0.947056 103:-0.945758 104:-0.946575 
2048 1:-0.983591 2:-0.958159 3:-0.976684 4:-0.982454 5:-0.81509 6:-0.826464 7:-0.826345 8:-0.827398 9:-0.826132 10:-0.826414 11:-0.827075 12:-0.862102 13:-0.889796 14:-0.904134 15:-0.918316 16:-0.922228 17:-0.914764 18:-0.910737 19:-0.904447 20:-0.900335 21:-0.907612 22:-0.919877 23:-0.929173 24:-0.936968 25:-0.940425 26:-0.941986 27:-0.943898 28:-0.947744 29:-0.951637 30:-0.955234 31:-0.958571 32:-0.961266 33:-0.964578 34:-0.967276 35:-0.969881 36:-0.971916 37:-0.974047 38:-0.976168 39:-0.978656 40:-0.980462 41:-0.981469 42:-0.981783 43:-0.982197 44:-0.98259 45:-0.982855 46:-0.983223 47:-0.983244 48:-0.983273 49:-0.9833 50:-0.983328 51:-0.983356 52:-0.983322 53:-0.983391 54:-0.983303 55:-0.983268 56:-0.983329 57:-0.983294 58:-0.983268 59:-0.983241 60:-0.983251 61:-0.983395 62:-0.983367 63:-0.983342 64:-0.983318 65:-0.983293 66:-0.98327 67:-0.983428 68:-0.983389 69:-0.983338 70:-0.983287 71:-0.983237 72:-0.983189 73:-0.983142 74:-0.9831 75:-0.983068 76:-0.983226 77:-0.983192 78:-0.98316 79:-0.98311 80:-0.983068 81:-0.983016 82:-0.98297 83:-0.982544 84:-0.980158 85:-0.977944 86:-0.975715 87:-0.97357 88:-0.971344 89:-0.969311 90:-0.967378 91:-0.965543 92:-0.963503 93:-0.961643 94:-0.9599 95:-0.958287 96:-0.956458 97:-0.954875 98:-0.953106 99:-0.95151 100:-0.950023 101:-0.948476 102:-0.946954 103:-0.945658 104:-0.946475 
2048 1:-0.983591 2:-0.960251 3:-0.976761 4:-0.982446 5:-0.815086 6:-0.826461 7:-0.826426 8:-0.827394 9:-0.826128 10:-0.826411 11:-0.82769 12:-0.862099 13:-0.889792 14:-0.904131 15:-0.918721 16:-0.922599 17:-0.91476 18:-0.910733 19:-0.904529 20:-0.90061 21:-0.907609 22:-0.919874 23:-0.92917 24:-0.936818 25:-0.940282 26:-0.942004 27:-0.943916 28:-0.94795 29:-0.951835 30:-0.955424 31:-0.958585 32:-0.96128 33:-0.964196 34:-0.96721 35:-0.969746 36:-0.971785 37:-0.974059 38:-0.976314 39:-0.978313 40:-0.979879 41:-0.980639 42:-0.980975 43:-0.981762 44:-0.982395 45:-0.982664 46:-0.983355 47:-0.983385 48:-0.983411 49:-0.983602 50:-0.983845 51:-0.984024 52:-0.983975 53:-0.983937 54:-0.983839 55:-0.983793 56:-0.983756 57:-0.983713 58:-0.983763 59:-0.983727 60:-0.983694 61:-0.983662 62:-0.983629 63:-0.9836 64:-0.983572 65:-0.983542 66:-0.983701 67:-0.983671 68:-0.983629 69:-0.983574 70:-0.983618 71:-0.983564 72:-0.98351 73:-0.983458 74:-0.983412 75:-0.983537 76:-0.983498 77:-0.983461 78:-0.983425 79:-0.983372 80:-0.983326 81:-0.983271 82:-0.983222 83:-0.982734 84:-0.980346 85:-0.978129 86:-0.975897 87:-0.97375 88:-0.971522 89:-0.969487 90:-0.967552 91:-0.965844 92:-0.963896 93:-0.962031 94:-0.960158 95:-0.958542 96:-0.956685 97:-0.9551 98:-0.953328 99:-0.95173 100:-0.950172 101:-0.948599 102:-0.947094 103:-0.945716 104:-0.946463 
2048 1:-0.983689 2:-0.959205 3:-0.977164 4:-0.982415 5:-0.815079 6:-0.826454 7:-0.826355 8:-0.827387 9:-0.826121 10:-0.826404 11:-0.827622 12:-0.862092 13:-0.889785 14:-0.904123 15:-0.918306 16:-0.922218 17:-0.914753 18:-0.910726 19:-0.904437 20:-0.900324 21:-0.907602 22:-0.919867 23:-0.929163 24:-0.937003 25:-0.940459 26:-0.941975 27:-0.943888 28:-0.947734 29:-0.951808 30:-0.956717 31:-0.959832 32:-0.962503 33:-0.965377 34:-0.968049 35:-0.970559 36:-0.972573 37:-0.974684 38:-0.976787 39:-0.978773 40:-0.98058 41:-0.981321 42:-0.981639 43:-0.982056 44:-0.982453 45:-0.98272 46:-0.982765 47:-0.982796 48:-0.982835 49:-0.982872 50:-0.98316 51:-0.983238 52:-0.983206 53:-0.983184 54:-0.9831 55:-0.983069 56:-0.983045 57:-0.983016 58:-0.982994 59:-0.982972 60:-0.982953 61:-0.982933 62:-0.982913 63:-0.98293 64:-0.983071 65:-0.983249 66:-0.983283 67:-0.98326 68:-0.983225 69:-0.983175 70:-0.983127 71:-0.98308 72:-0.983033 73:-0.983054 74:-0.983014 75:-0.982983 76:-0.982952 77:-0.982922 78:-0.982893 79:-0.982907 80:-0.982868 81:-0.982818 82:-0.982775 83:-0.982293 84:-0.979911 85:-0.9777 86:-0.975474 87:-0.973334 88:-0.971245 89:-0.96937 90:-0.967437 91:-0.9656 92:-0.96356 93:-0.961698 94:-0.959829 95:-0.958217 96:-0.956364 97:-0.954783 98:-0.953014 99:-0.951532 100:-0.949976 101:-0.948405 102:-0.946883 103:-0.945588 104:-0.946406 
2048 1:-0.979708 2:-0.956067 3:-0.977431 4:-0.982357 5:-0.815037 6:-0.826413 7:-0.825096 8:-0.827346 9:-0.82608 10:-0.826363 11:-0.827642 12:-0.862599 13:-0.890236 14:-0.904527 15:-0.918671 16:-0.922549 17:-0.91471 18:-0.911002 19:-0.904692 20:-0.90056 21:-0.907559 22:-0.920073 23:-0.929357 24:-0.936932 25:-0.940263 26:-0.941543 27:-0.943473 28:-0.947522 29:-0.951422 30:-0.955025 31:-0.958198 32:-0.960905 33:-0.963831 34:-0.967398 35:-0.970531 36:-0.972544 37:-0.974655 38:-0.976757 39:-0.978743 40:-0.980296 41:-0.981043 42:-0.981849 43:-0.98226 44:-0.982651 45:-0.983023 46:-0.983169 47:-0.983189 48:-0.983322 49:-0.983348 50:-0.983373 51:-0.983399 52:-0.983458 53:-0.98343 54:-0.98334 55:-0.983304 56:-0.983275 57:-0.98324 58:-0.983213 59:-0.983186 60:-0.98345 61:-0.983595 62:-0.983578 63:-0.983549 64:-0.983521 65:-0.983566 66:-0.983538 67:-0.983511 68:-0.98347 69:-0.983416 70:-0.983364 71:-0.98338 72:-0.983526 73:-0.983473 74:-0.983426 75:-0.983389 76:-0.983351 77:-0.983315 78:-0.983343 79:-0.983289 80:-0.983244 81:-0.983189 82:-0.983141 83:-0.982673 84:-0.980323 85:-0.978161 86:-0.975929 87:-0.97378 88:-0.971551 89:-0.969569 90:-0.967632 91:-0.965792 92:-0.963749 93:-0.961885 94:-0.960063 95:-0.958497 96:-0.956641 97:-0.955056 98:-0.953283 99:-0.951685 100:-0.950174 101:-0.9486 102:-0.947062 103:-0.945602 104:-0.946331 
2048 1:-0.984951 2:-0.958159 3:-0.976339 4:-0.982173 5:-0.814786 6:-0.826169 7:-0.826724 8:-0.827448 9:-0.826658 10:-0.826801 11:-0.827363 12:-0.862319 13:-0.889957 14:-0.904249 15:-0.918393 16:-0.922273 17:-0.914781 18:-0.910731 19:-0.904421 20:-0.900292 21:-0.907291 22:-0.919555 23:-0.92885 24:-0.936662 25:-0.939955 26:-0.94148 27:-0.943401 28:-0.947254 29:-0.951154 30:-0.954931 31:-0.958099 32:-0.9608 33:-0.963721 34:-0.966588 35:-0.969133 36:-0.971635 37:-0.974371 38:-0.976893 39:-0.978868 40:-0.98041 41:-0.981147 42:-0.981461 43:-0.981876 44:-0.982269 45:-0.982645 46:-0.982684 47:-0.98271 48:-0.982744 49:-0.982776 50:-0.982809 51:-0.983036 52:-0.983002 53:-0.982978 54:-0.982892 55:-0.982859 56:-0.982834 57:-0.982802 58:-0.982779 59:-0.982755 60:-0.982735 61:-0.982916 62:-0.982891 63:-0.982869 64:-0.982848 65:-0.982825 66:-0.98284 67:-0.98282 68:-0.982786 69:-0.982739 70:-0.982693 71:-0.982647 72:-0.982603 73:-0.98256 74:-0.982522 75:-0.982655 76:-0.982625 77:-0.982595 78:-0.982567 79:-0.98252 80:-0.982482 81:-0.982433 82:-0.982539 83:-0.982108 84:-0.979725 85:-0.977513 86:-0.975285 87:-0.973142 88:-0.970918 89:-0.968888 90:-0.966956 91:-0.965122 92:-0.963085 93:-0.961226 94:-0.959359 95:-0.957749 96:-0.955899 97:-0.954532 98:-0.952815 99:-0.951291 100:-0.949735 101:-0.948209 102:-0.946677 103:-0.945393 104:-0.94621 
2048 1:-0.982523 2:-0.956067 3:-0.974883 4:-0.982156 5:-0.8256 6:-0.829247 7:-0.827263 8:-0.826781 9:-0.828784 10:-0.828547 11:-0.828842 12:-0.863074 13:-0.891119 14:-0.905293 15:-0.919339 16:-0.923133 17:-0.915222 18:-0.911452 19:-0.905089 20:-0.90091 21:-0.90787 22:-0.9201 23:-0.929364 24:-0.936695 25:-0.939043 26:-0.941657 27:-0.944215 28:-0.948169 29:-0.952079 30:-0.955984 31:-0.95911 32:-0.961773 33:-0.964658 34:-0.967341 35:-0.96986 36:-0.972144 37:-0.974352 38:-0.976452 39:-0.978437 40:-0.980169 41:-0.980911 42:-0.981229 43:-0.981647 44:-0.982044 45:-0.982312 46:-0.982357 47:-0.982388 48:-0.982428 49:-0.982465 50:-0.982503 51:-0.98254 52:-0.982514 53:-0.982498 54:-0.982651 55:-0.982621 56:-0.982599 57:-0.98257 58:-0.98255 59:-0.98273 60:-0.982708 61:-0.982838 62:-0.983045 63:-0.983019 64:-0.982994 65:-0.982967 66:-0.982943 67:-0.982992 68:-0.982955 69:-0.982904 70:-0.983057 71:-0.983005 72:-0.982954 73:-0.982904 74:-0.98286 75:-0.982826 76:-0.982792 77:-0.982883 78:-0.98285 79:-0.982799 80:-0.982756 81:-0.982703 82:-0.982656 83:-0.982171 84:-0.979786 85:-0.977571 86:-0.975342 87:-0.973197 88:-0.970971 89:-0.969033 90:-0.967164 91:-0.965326 92:-0.963285 93:-0.961423 94:-0.959553 95:-0.957939 96:-0.956086 97:-0.954552 98:-0.95289 99:-0.951328 100:-0.949816 101:-0.948243 102:-0.946838 103:-0.945426 104:-0.946283 
2048 1:-0.981747 2:-0.955021 3:-0.975227 4:-0.98199 5:-0.825454 6:-0.827466 7:-0.827408 8:-0.826925 9:-0.828639 10:-0.828403 11:-0.828699 12:-0.863477 13:-0.890972 14:-0.905145 15:-0.91919 16:-0.922984 17:-0.915074 18:-0.911606 19:-0.905223 20:-0.901026 21:-0.907971 22:-0.920187 23:-0.929439 24:-0.93676 25:-0.938808 26:-0.94144 27:-0.944034 28:-0.947852 29:-0.951719 30:-0.955291 31:-0.958437 32:-0.961118 33:-0.96402 34:-0.967014 35:-0.969538 36:-0.971567 37:-0.973691 38:-0.975806 39:-0.977804 40:-0.979368 41:-0.980277 42:-0.980703 43:-0.981131 44:-0.981537 45:-0.981814 46:-0.981867 47:-0.981906 48:-0.981953 49:-0.981998 50:-0.982042 51:-0.982331 52:-0.982307 53:-0.982292 54:-0.982215 55:-0.982191 56:-0.982393 57:-0.982365 58:-0.982345 59:-0.982325 60:-0.982308 61:-0.98229 62:-0.982272 63:-0.982257 64:-0.982242 65:-0.982225 66:-0.982211 67:-0.982197 68:-0.982349 69:-0.982305 70:-0.982262 71:-0.982219 72:-0.982178 73:-0.982137 74:-0.982102 75:-0.982236 76:-0.982207 77:-0.98218 78:-0.982154 79:-0.98211 80:-0.982074 81:-0.982028 82:-0.982164 83:-0.98173 84:-0.97947 85:-0.977258 86:-0.975087 87:-0.972943 88:-0.970719 89:-0.968706 90:-0.966809 91:-0.965078 92:-0.963038 93:-0.961178 94:-0.959309 95:-0.957697 96:-0.955845 97:-0.954408 98:-0.952779 99:-0.951182 100:-0.949624 101:-0.948051 102:-0.94664 103:-0.945232 104:-0.946092 
2048 1:-0.982329 2:-0.955021 3:-0.973582 4:-0.981859 5:-0.816411 6:-0.826736 7:-0.826335 8:-0.827157 9:-0.825788 10:-0.826004 11:-0.826618 12:-0.861601 13:-0.88926 14:-0.903571 15:-0.917732 16:-0.922001 17:-0.914151 18:-0.910114 19:-0.903814 20:-0.899695 21:-0.9067 22:-0.918968 23:-0.928267 24:-0.937217 25:-0.940699 26:-0.9417 27:-0.94359 28:-0.947416 29:-0.95129 30:-0.955045 31:-0.958191 32:-0.961034 33:-0.96393 34:-0.966623 35:-0.969152 36:-0.971185 37:-0.973314 38:-0.975433 39:-0.977434 40:-0.979129 41:-0.980011 42:-0.980343 43:-0.980774 44:-0.981183 45:-0.981463 46:-0.981519 47:-0.98156 48:-0.981609 49:-0.981656 50:-0.981703 51:-0.981749 52:-0.981732 53:-0.981959 54:-0.982107 55:-0.98208 56:-0.982061 57:-0.982035 58:-0.982017 59:-0.981998 60:-0.982199 61:-0.982511 62:-0.982484 63:-0.982461 64:-0.982439 65:-0.982415 66:-0.982468 67:-0.982518 68:-0.982482 69:-0.982432 70:-0.982384 71:-0.982336 72:-0.982289 73:-0.982243 74:-0.982203 75:-0.982173 76:-0.982142 77:-0.98227 78:-0.982269 79:-0.98222 80:-0.98218 81:-0.982129 82:-0.982085 83:-0.981602 84:-0.979277 85:-0.977064 86:-0.974837 87:-0.972694 88:-0.970471 89:-0.96844 90:-0.966509 91:-0.964675 92:-0.962638 93:-0.96088 94:-0.959013 95:-0.957401 96:-0.955599 97:-0.954161 98:-0.952486 99:-0.95089 100:-0.949333 101:-0.947761 102:-0.946403 103:-0.9452 104:-0.946061 
2048 1:-0.982232 2:-0.953975 3:-0.975286 4:-0.981746 5:-0.814295 6:-0.827835 7:-0.825832 8:-0.827702 9:-0.826217 10:-0.826355 11:-0.827531 12:-0.861859 13:-0.889488 14:-0.903775 15:-0.917915 16:-0.921793 17:-0.9143 18:-0.91025 19:-0.903939 20:-0.900088 21:-0.907069 22:-0.919317 23:-0.928597 24:-0.936762 25:-0.940259 26:-0.940987 27:-0.942907 28:-0.946759 29:-0.950658 30:-0.954435 31:-0.957601 32:-0.960421 33:-0.964278 34:-0.966959 35:-0.970452 36:-0.972473 37:-0.974563 38:-0.976645 39:-0.978612 40:-0.980274 41:-0.981001 42:-0.981306 43:-0.981711 44:-0.982096 45:-0.982464 46:-0.982495 47:-0.982513 48:-0.98254 49:-0.982566 50:-0.982691 51:-0.982715 52:-0.982677 53:-0.982649 54:-0.98256 55:-0.982524 56:-0.982759 57:-0.982719 58:-0.982688 59:-0.982657 60:-0.982629 61:-0.982601 62:-0.982572 63:-0.982625 64:-0.982599 65:-0.982572 66:-0.982548 67:-0.982524 68:-0.982572 69:-0.982577 70:-0.982526 71:-0.982475 72:-0.982426 73:-0.982378 74:-0.982499 75:-0.982492 76:-0.982456 77:-0.982422 78:-0.982389 79:-0.982338 80:-0.982296 81:-0.982362 82:-0.982314 83:-0.981828 84:-0.979442 85:-0.977227 86:-0.974997 87:-0.972852 88:-0.970734 89:-0.9687 90:-0.966765 91:-0.964927 92:-0.962886 93:-0.961024 94:-0.959154 95:-0.957587 96:-0.955786 97:-0.954203 98:-0.95248 99:-0.950977 100:-0.949419 101:-0.947846 102:-0.946309 103:-0.945025 104:-0.945841 
2048 1:-0.978543 2:-0.9341 3:-0.968693 4:-0.981506 5:-0.832543 6:-0.844027 7:-0.836846 8:-0.83437 9:-0.834233 10:-0.834333 11:-0.836076 12:-0.869368 13:-0.896164 14:-0.909754 15:-0.923316 16:-0.927066 17:-0.918761 18:-0.914334 19:-0.907709 20:-0.903572 21:-0.910584 22:-0.922616 23:-0.9317 24:-0.938869 25:-0.940306 26:-0.941207 27:-0.943911 28:-0.949446 29:-0.953425 30:-0.956898 31:-0.959952 32:-0.962709 33:-0.965525 34:-0.968296 35:-0.97075 36:-0.972712 37:-0.974775 38:-0.976965 39:-0.978905 40:-0.980413 41:-0.981119 42:-0.981523 43:-0.981906 44:-0.982269 45:-0.982505 46:-0.982542 47:-0.982628 48:-0.982637 49:-0.982646 50:-0.982755 51:-0.982764 52:-0.982711 53:-0.982669 54:-0.982744 55:-0.982691 56:-0.982647 57:-0.982596 58:-0.982555 59:-0.982514 60:-0.982558 61:-0.98252 62:-0.982482 63:-0.982447 64:-0.98249 65:-0.982454 66:-0.98242 67:-0.982388 68:-0.982523 69:-0.982495 70:-0.982435 71:-0.982376 72:-0.982447 73:-0.982457 74:-0.982404 75:-0.982361 76:-0.982318 77:-0.982308 78:-0.982299 79:-0.98224 80:-0.98219 81:-0.98213 82:-0.982077 83:-0.981724 84:-0.97953 85:-0.977362 86:-0.975122 87:-0.972968 88:-0.970732 89:-0.968743 90:-0.966853 91:-0.965007 92:-0.962957 93:-0.961087 94:-0.959209 95:-0.957588 96:-0.955727 97:-0.954319 98:-0.952648 99:-0.951042 100:-0.949477 101:-0.947896 102:-0.946529 103:-0.945151 104:-0.946002 
2048 1:-0.983203 2:-0.957113 3:-0.977737 4:-0.984356 5:-0.817061 6:-0.828383 7:-0.827304 8:-0.829295 9:-0.82804 10:-0.828319 11:-0.829596 12:-0.864037 13:-0.891755 14:-0.906108 15:-0.920709 16:-0.92459 17:-0.916748 18:-0.912716 19:-0.906429 20:-0.902312 21:-0.909334 22:-0.921623 23:-0.931176 24:-0.938544 25:-0.940163 26:-0.942524 27:-0.946023 28:-0.949968 29:-0.953855 30:-0.957448 31:-0.960611 32:-0.963309 33:-0.966383 34:-0.969092 35:-0.971928 36:-0.973964 37:-0.976097 38:-0.978219 39:-0.980225 40:-0.981923 41:-0.982684 42:-0.983019 43:-0.983454 44:-0.983867 45:-0.98415 46:-0.984318 47:-0.984361 48:-0.984411 49:-0.984459 50:-0.984506 51:-0.984552 52:-0.984776 53:-0.984763 54:-0.984689 55:-0.984709 56:-0.984694 57:-0.984672 58:-0.984657 59:-0.984642 60:-0.984629 61:-0.984696 62:-0.984681 63:-0.984669 64:-0.984657 65:-0.984643 66:-0.984631 67:-0.984619 68:-0.984737 69:-0.984695 70:-0.984655 71:-0.984615 72:-0.984643 73:-0.984604 74:-0.984571 75:-0.984547 76:-0.984553 77:-0.984561 78:-0.984538 79:-0.984499 80:-0.984523 81:-0.984479 82:-0.984441 83:-0.984094 84:-0.981727 85:-0.979516 86:-0.977291 87:-0.975173 88:-0.972977 89:-0.97108 90:-0.969149 91:-0.967366 92:-0.965327 93:-0.963553 94:-0.961698 95:-0.960086 96:-0.958233 97:-0.956652 98:-0.955069 99:-0.953567 100:-0.952099 101:-0.950525 102:-0.949027 103:-0.947572 104:-0.948344 
2048 1:-0.984077 2:-0.957113 3:-0.978062 4:-0.984301 5:-0.817025 6:-0.828348 7:-0.827339 8:-0.829318 9:-0.828051 10:-0.828322 11:-0.828976 12:-0.864031 13:-0.891745 14:-0.906095 15:-0.920286 16:-0.924574 17:-0.91673 18:-0.912697 19:-0.906408 20:-0.902291 21:-0.90932 22:-0.921849 23:-0.931152 24:-0.938519 25:-0.940353 26:-0.942788 27:-0.94573 28:-0.949584 29:-0.953485 30:-0.957264 31:-0.960433 32:-0.963136 33:-0.966057 34:-0.969079 35:-0.971621 36:-0.973665 37:-0.975805 38:-0.977935 39:-0.979947 40:-0.981652 41:-0.982419 42:-0.982761 43:-0.983201 44:-0.983619 45:-0.983907 46:-0.984047 47:-0.98429 48:-0.984341 49:-0.984438 50:-0.984485 51:-0.984531 52:-0.984514 53:-0.984506 54:-0.984436 55:-0.984507 56:-0.984551 57:-0.984562 58:-0.984549 59:-0.984535 60:-0.984601 61:-0.984592 62:-0.984578 63:-0.984794 64:-0.984795 65:-0.985026 66:-0.985252 67:-0.98523 68:-0.985195 69:-0.985146 70:-0.985167 71:-0.985119 72:-0.985072 73:-0.985027 74:-0.984986 75:-0.984956 76:-0.984989 77:-0.985051 78:-0.985169 79:-0.985119 80:-0.985076 81:-0.985024 82:-0.984987 83:-0.984551 84:-0.982163 85:-0.979946 86:-0.977715 87:-0.975567 88:-0.973339 89:-0.971323 90:-0.969474 91:-0.967635 92:-0.965592 93:-0.963728 94:-0.961857 95:-0.960242 96:-0.958387 97:-0.956804 98:-0.955032 99:-0.953436 100:-0.951879 101:-0.950307 102:-0.948908 103:-0.947448 104:-0.948268 
2048 1:-0.98398 2:-0.961297 3:-0.978562 4:-0.984139 5:-0.816893 6:-0.83025 7:-0.828927 8:-0.830163 9:-0.828702 10:-0.828838 11:-0.829398 12:-0.863841 13:-0.892053 14:-0.90636 15:-0.920516 16:-0.924399 17:-0.916559 18:-0.912529 19:-0.906243 20:-0.902128 21:-0.90915 22:-0.921439 23:-0.930992 24:-0.93836 25:-0.94041 26:-0.942535 27:-0.945935 28:-0.949775 29:-0.953663 30:-0.957311 31:-0.960589 32:-0.963281 33:-0.96635 34:-0.969054 35:-0.971592 36:-0.973633 37:-0.97577 38:-0.978047 39:-0.98016 40:-0.981729 41:-0.982489 42:-0.982826 43:-0.983261 44:-0.983675 45:-0.984108 46:-0.984235 47:-0.984276 48:-0.984325 49:-0.98437 50:-0.984415 51:-0.98446 52:-0.984441 53:-0.984432 54:-0.984515 55:-0.984567 56:-0.984589 57:-0.984566 58:-0.98455 59:-0.984534 60:-0.98452 61:-0.984505 62:-0.984491 63:-0.984478 64:-0.984467 65:-0.984453 66:-0.984441 67:-0.98443 68:-0.984615 69:-0.984573 70:-0.984532 71:-0.984491 72:-0.984452 73:-0.984413 74:-0.98438 75:-0.984356 76:-0.984332 77:-0.984309 78:-0.984287 79:-0.984246 80:-0.984213 81:-0.984171 82:-0.984135 83:-0.983659 84:-0.981281 85:-0.979312 86:-0.97715 87:-0.975034 88:-0.972812 89:-0.970942 90:-0.96901 91:-0.967174 92:-0.965136 93:-0.963276 94:-0.961408 95:-0.959798 96:-0.957995 97:-0.956415 98:-0.954742 99:-0.953148 100:-0.951593 101:-0.950064 102:-0.948622 103:-0.947252 104:-0.948073 
2048 1:-0.983689 2:-0.956067 3:-0.977009 4:-0.984114 5:-0.829756 6:-0.830133 7:-0.829897 8:-0.829127 9:-0.831624 10:-0.831655 11:-0.831786 12:-0.865947 13:-0.893439 14:-0.908049 15:-0.922048 16:-0.925794 17:-0.917834 18:-0.9137 19:-0.907329 20:-0.903135 21:-0.910606 22:-0.922813 23:-0.932055 24:-0.939368 25:-0.940933 26:-0.941746 27:-0.944239 28:-0.949628 29:-0.953913 30:-0.957491 31:-0.960811 32:-0.963491 33:-0.966392 34:-0.969473 35:-0.971994 36:-0.974079 37:-0.976199 38:-0.97831 39:-0.980304 40:-0.981865 41:-0.982619 42:-0.982949 43:-0.983674 44:-0.984129 45:-0.984398 46:-0.984444 47:-0.984477 48:-0.984518 49:-0.984557 50:-0.984595 51:-0.984827 52:-0.984799 53:-0.98478 54:-0.984699 55:-0.98476 56:-0.984738 57:-0.984709 58:-0.984689 59:-0.984668 60:-0.984649 61:-0.98471 62:-0.98469 63:-0.984672 64:-0.984655 65:-0.984636 66:-0.98462 67:-0.984603 68:-0.984574 69:-0.984601 70:-0.984558 71:-0.984515 72:-0.984473 73:-0.984599 74:-0.984561 75:-0.984533 76:-0.984598 77:-0.98457 78:-0.984543 79:-0.984497 80:-0.984459 81:-0.984471 82:-0.984429 83:-0.983948 84:-0.981622 85:-0.979465 86:-0.977237 87:-0.975093 88:-0.972868 89:-0.970896 90:-0.969061 91:-0.967224 92:-0.965184 93:-0.963322 94:-0.961452 95:-0.95984 96:-0.958036 97:-0.956453 98:-0.954824 99:-0.953227 100:-0.95167 101:-0.950098 102:-0.948739 103:-0.947325 104:-0.948142 
2048 1:-0.983494 2:-0.965481 3:-0.978868 4:-0.983839 5:-0.81431 6:-0.826835 7:-0.826807 8:-0.828351 9:-0.8272 10:-0.827552 11:-0.828263 12:-0.863349 13:-0.891089 14:-0.905461 15:-0.919671 16:-0.923601 17:-0.915804 18:-0.91213 19:-0.905852 20:-0.901746 21:-0.908774 22:-0.921067 23:-0.930387 24:-0.93777 25:-0.939404 26:-0.941095 27:-0.944675 28:-0.94905 29:-0.952955 30:-0.95657 31:-0.959912 32:-0.962618 33:-0.965543 34:-0.968346 35:-0.971188 36:-0.973233 37:-0.975374 38:-0.977561 39:-0.979572 40:-0.981149 41:-0.981918 42:-0.982262 43:-0.982705 44:-0.983126 45:-0.983416 46:-0.983482 47:-0.983802 48:-0.983855 49:-0.983905 50:-0.983954 51:-0.984003 52:-0.983988 53:-0.983983 54:-0.983915 55:-0.983899 56:-0.984109 57:-0.98409 58:-0.984078 59:-0.984065 60:-0.984055 61:-0.984044 62:-0.984033 63:-0.984024 64:-0.984015 65:-0.984004 66:-0.983996 67:-0.98417 68:-0.98425 69:-0.98421 70:-0.98417 71:-0.984131 72:-0.984093 73:-0.984055 74:-0.984023 75:-0.984001 76:-0.983978 77:-0.983955 78:-0.983935 79:-0.983895 80:-0.983931 81:-0.983971 82:-0.983934 83:-0.983457 84:-0.981079 85:-0.978872 86:-0.97665 87:-0.974512 88:-0.97242 89:-0.970549 90:-0.968619 91:-0.966786 92:-0.96478 93:-0.962942 94:-0.961075 95:-0.959465 96:-0.957664 97:-0.956115 98:-0.954461 99:-0.952867 100:-0.951312 101:-0.949742 102:-0.948297 103:-0.946928 104:-0.947749 
2048 1:-0.985242 2:-0.961297 3:-0.977776 4:-0.983831 5:-0.816536 6:-0.827872 7:-0.827824 8:-0.829867 9:-0.828394 10:-0.828525 11:-0.829081 12:-0.863514 13:-0.89172 14:-0.906022 15:-0.920175 16:-0.924056 17:-0.916215 18:-0.912185 19:-0.905897 20:-0.901782 21:-0.909065 22:-0.921338 23:-0.930639 24:-0.938232 25:-0.940029 26:-0.942512 27:-0.945414 28:-0.94926 29:-0.953335 30:-0.956926 31:-0.960089 32:-0.962785 33:-0.965701 34:-0.968413 35:-0.971331 36:-0.973368 37:-0.975501 38:-0.97769 39:-0.979694 40:-0.981265 41:-0.982651 42:-0.982974 43:-0.983396 44:-0.983797 45:-0.984068 46:-0.984116 47:-0.984151 48:-0.984194 49:-0.984234 50:-0.984274 51:-0.984397 52:-0.984531 53:-0.984512 54:-0.984432 55:-0.984404 56:-0.984404 57:-0.984377 58:-0.984513 59:-0.9845 60:-0.98448 61:-0.98446 62:-0.98444 63:-0.9845 64:-0.984481 65:-0.984682 66:-0.98466 67:-0.98464 68:-0.984606 69:-0.984558 70:-0.984512 71:-0.984466 72:-0.984488 73:-0.984444 74:-0.984405 75:-0.98444 76:-0.984409 77:-0.98438 78:-0.984352 79:-0.984306 80:-0.984267 81:-0.984219 82:-0.984178 83:-0.983696 84:-0.981314 85:-0.979102 86:-0.977042 87:-0.974897 88:-0.972672 89:-0.97064 90:-0.968707 91:-0.967002 92:-0.964962 93:-0.9631 94:-0.961231 95:-0.959618 96:-0.957765 97:-0.956183 98:-0.95453 99:-0.952934 100:-0.951377 101:-0.949806 102:-0.948344 103:-0.946988 104:-0.947808 
2048 1:-0.983883 2:-0.960251 3:-0.978849 4:-0.983819 5:-0.816589 6:-0.827924 7:-0.827771 8:-0.828827 9:-0.827573 10:-0.827854 11:-0.828515 12:-0.863567 13:-0.89128 14:-0.90563 15:-0.919821 16:-0.92411 17:-0.916269 18:-0.912239 19:-0.906249 20:-0.902114 21:-0.909119 22:-0.921392 23:-0.930694 24:-0.93806 25:-0.939951 26:-0.942435 27:-0.945437 28:-0.949285 29:-0.95318 30:-0.956778 31:-0.960116 32:-0.962814 33:-0.965731 34:-0.968444 35:-0.971425 36:-0.973461 37:-0.975593 38:-0.977716 39:-0.979721 40:-0.981293 41:-0.982204 42:-0.982637 43:-0.983069 44:-0.983594 45:-0.983872 46:-0.983926 47:-0.983967 48:-0.984015 49:-0.98406 50:-0.984105 51:-0.98415 52:-0.984131 53:-0.984215 54:-0.984142 55:-0.984121 56:-0.984107 57:-0.984087 58:-0.984075 59:-0.984061 60:-0.984256 61:-0.984241 62:-0.984225 63:-0.984212 64:-0.9842 65:-0.984185 66:-0.984278 67:-0.984264 68:-0.984237 69:-0.984196 70:-0.984156 71:-0.984116 72:-0.984078 73:-0.98404 74:-0.984007 75:-0.983984 76:-0.983961 77:-0.984063 78:-0.984041 79:-0.983999 80:-0.983965 81:-0.983922 82:-0.983885 83:-0.983408 84:-0.981031 85:-0.978936 86:-0.97682 87:-0.974679 88:-0.972457 89:-0.970481 90:-0.968657 91:-0.966822 92:-0.964785 93:-0.962926 94:-0.961109 95:-0.959498 96:-0.957647 97:-0.956116 98:-0.954443 99:-0.952849 100:-0.951294 101:-0.949724 102:-0.948265 103:-0.946909 104:-0.94773 
2048 1:-0.98398 2:-0.963389 3:-0.978198 4:-0.983803 5:-0.814234 6:-0.826761 7:-0.827039 8:-0.828275 9:-0.827124 10:-0.827477 11:-0.828188 12:-0.862724 13:-0.890636 14:-0.905383 15:-0.919593 16:-0.923524 17:-0.915726 18:-0.911734 19:-0.905775 20:-0.901669 21:-0.908697 22:-0.920989 23:-0.930309 24:-0.937918 25:-0.940508 26:-0.942968 27:-0.945112 28:-0.949093 29:-0.953058 30:-0.95666 31:-0.959833 32:-0.962539 33:-0.965464 34:-0.968184 35:-0.970739 36:-0.972795 37:-0.975084 38:-0.977221 39:-0.979568 40:-0.981142 41:-0.981909 42:-0.982252 43:-0.98286 44:-0.983275 45:-0.98356 46:-0.98362 47:-0.983667 48:-0.983721 49:-0.983773 50:-0.983823 51:-0.983873 52:-0.98386 53:-0.983855 54:-0.983789 55:-0.983774 56:-0.983766 57:-0.983847 58:-0.983958 59:-0.983946 60:-0.983936 61:-0.983926 62:-0.983916 63:-0.984091 64:-0.98408 65:-0.984067 66:-0.984056 67:-0.984045 68:-0.984021 69:-0.983983 70:-0.983945 71:-0.983908 72:-0.983872 73:-0.983837 74:-0.983807 75:-0.983786 76:-0.983765 77:-0.983745 78:-0.983726 79:-0.983688 80:-0.983658 81:-0.983864 82:-0.983955 83:-0.983506 84:-0.981126 85:-0.978917 86:-0.976694 87:-0.974554 88:-0.972387 89:-0.970462 90:-0.968532 91:-0.966751 92:-0.964765 93:-0.962906 94:-0.961039 95:-0.959429 96:-0.957676 97:-0.956152 98:-0.954423 99:-0.952828 100:-0.951273 101:-0.949703 102:-0.948289 103:-0.946933 104:-0.947754 
2048 1:-0.982912 2:-0.957113 3:-0.97814 4:-0.983703 5:-0.816429 6:-0.827768 7:-0.826551 8:-0.828669 9:-0.827414 10:-0.827696 11:-0.828358 12:-0.863408 13:-0.891119 14:-0.905468 15:-0.920066 16:-0.923947 17:-0.916106 18:-0.912077 19:-0.905789 20:-0.901952 21:-0.908957 22:-0.921229 23:-0.93053 24:-0.937896 25:-0.93973 26:-0.942027 27:-0.94547 28:-0.949309 29:-0.953196 30:-0.956963 31:-0.96012 32:-0.962974 33:-0.96588 34:-0.968582 35:-0.971232 36:-0.973303 37:-0.975435 38:-0.977558 39:-0.979563 40:-0.981133 41:-0.981897 42:-0.982237 43:-0.98291 44:-0.98332 45:-0.9836 46:-0.983657 47:-0.9837 48:-0.983854 49:-0.9839 50:-0.983945 51:-0.983989 52:-0.98397 53:-0.983961 54:-0.98389 55:-0.98387 56:-0.983859 57:-0.984012 58:-0.983998 59:-0.983983 60:-0.983971 61:-0.983958 62:-0.984023 63:-0.98401 64:-0.983999 65:-0.983985 66:-0.983973 67:-0.983961 68:-0.984008 69:-0.983968 70:-0.983929 71:-0.98389 72:-0.983897 73:-0.984076 74:-0.984041 75:-0.984015 76:-0.983989 77:-0.983964 78:-0.98394 79:-0.984077 80:-0.98404 81:-0.983994 82:-0.983954 83:-0.983474 84:-0.981093 85:-0.978939 86:-0.976713 87:-0.974572 88:-0.972349 89:-0.97032 90:-0.968595 91:-0.966863 92:-0.964823 93:-0.962962 94:-0.961093 95:-0.959481 96:-0.957628 97:-0.956047 98:-0.954278 99:-0.952684 100:-0.951129 101:-0.949605 102:-0.948186 103:-0.946835 104:-0.947655 
2048 1:-0.984562 2:-0.964435 3:-0.978543 4:-0.983676 5:-0.815623 6:-0.828802 7:-0.825765 8:-0.829263 9:-0.827893 10:-0.828096 11:-0.828702 12:-0.863167 13:-0.891398 14:-0.905722 15:-0.919892 16:-0.923789 17:-0.915962 18:-0.912263 19:-0.905965 20:-0.901839 21:-0.908851 22:-0.92113 23:-0.930437 24:-0.937808 25:-0.939863 26:-0.941467 27:-0.944641 28:-0.948515 29:-0.952796 30:-0.956404 31:-0.959582 32:-0.962292 33:-0.965222 34:-0.967947 35:-0.970791 36:-0.973667 37:-0.975789 38:-0.977902 39:-0.979898 40:-0.98146 41:-0.982216 42:-0.98286 43:-0.98333 44:-0.98373 45:-0.984001 46:-0.984157 47:-0.98419 48:-0.984229 49:-0.984267 50:-0.984304 51:-0.984341 52:-0.984316 53:-0.9843 54:-0.984495 55:-0.98455 56:-0.984525 57:-0.984494 58:-0.984472 59:-0.984448 60:-0.984427 61:-0.984407 62:-0.984386 63:-0.984367 64:-0.98435 65:-0.984331 66:-0.984313 67:-0.984297 68:-0.9843 69:-0.984434 70:-0.984388 71:-0.984343 72:-0.984298 73:-0.984255 74:-0.984218 75:-0.98419 76:-0.984161 77:-0.984134 78:-0.984108 79:-0.984064 80:-0.984179 81:-0.984131 82:-0.984089 83:-0.983608 84:-0.981226 85:-0.979014 86:-0.976787 87:-0.974645 88:-0.972445 89:-0.970415 90:-0.968484 91:-0.96665 92:-0.964613 93:-0.962755 94:-0.960888 95:-0.959403 96:-0.957552 97:-0.955972 98:-0.954204 99:-0.952611 100:-0.951057 101:-0.949488 102:-0.948178 103:-0.946782 104:-0.947603 
2048 1:-0.984951 2:-0.961297 3:-0.977412 4:-0.983467 5:-0.815901 6:-0.830675 7:-0.826119 8:-0.83008 9:-0.828491 10:-0.828546 11:-0.829047 12:-0.863987 13:-0.891611 14:-0.905886 15:-0.920017 16:-0.92388 17:-0.916024 18:-0.911982 19:-0.905683 20:-0.901558 21:-0.909081 22:-0.921332 23:-0.930614 24:-0.937963 25:-0.939884 26:-0.94239 27:-0.945296 28:-0.949132 29:-0.953015 30:-0.956604 31:-0.959932 32:-0.96262 33:-0.965529 34:-0.96836 35:-0.971145 36:-0.973176 37:-0.975314 38:-0.977479 39:-0.979479 40:-0.981044 41:-0.981803 42:-0.982138 43:-0.982623 44:-0.983098 45:-0.983377 46:-0.983433 47:-0.983475 48:-0.983524 49:-0.983571 50:-0.983617 51:-0.983747 52:-0.983836 53:-0.983824 54:-0.98375 55:-0.983728 56:-0.983714 57:-0.983693 58:-0.983893 59:-0.983875 60:-0.983899 61:-0.984084 62:-0.984064 63:-0.984046 64:-0.984029 65:-0.984338 66:-0.984316 67:-0.984295 68:-0.98426 69:-0.984212 70:-0.984165 71:-0.984119 72:-0.984141 73:-0.984096 74:-0.984056 75:-0.984027 76:-0.983997 77:-0.983968 78:-0.983941 79:-0.984016 80:-0.983977 81:-0.983928 82:-0.983885 83:-0.98352 84:-0.981163 85:-0.978948 86:-0.976719 87:-0.974575 88:-0.972349 89:-0.970392 90:-0.968459 91:-0.966622 92:-0.964582 93:-0.962721 94:-0.960851 95:-0.959239 96:-0.957387 97:-0.955847 98:-0.95418 99:-0.952584 100:-0.951027 101:-0.949456 102:-0.947981 103:-0.946641 104:-0.94746 
2048 1:-0.983106 2:-0.962343 3:-0.978121 4:-0.983396 5:-0.813821 6:-0.826359 7:-0.827526 8:-0.827808 9:-0.826668 10:-0.827032 11:-0.828368 12:-0.862832 13:-0.89057 14:-0.904941 15:-0.919151 16:-0.923457 17:-0.915633 18:-0.911617 19:-0.905341 20:-0.901237 21:-0.908264 22:-0.920555 23:-0.929874 24:-0.937256 25:-0.939321 26:-0.941824 27:-0.945082 28:-0.948924 29:-0.952815 30:-0.956584 31:-0.959744 32:-0.962438 33:-0.965665 34:-0.968365 35:-0.9709 36:-0.972938 37:-0.975072 38:-0.977196 39:-0.979202 40:-0.981095 41:-0.981852 42:-0.982185 43:-0.982673 44:-0.983081 45:-0.98336 46:-0.983416 47:-0.983457 48:-0.983506 49:-0.983553 50:-0.983599 51:-0.983644 52:-0.98373 53:-0.983899 54:-0.983822 55:-0.983798 56:-0.983782 57:-0.983759 58:-0.983745 59:-0.983729 60:-0.983715 61:-0.983702 62:-0.983687 63:-0.983676 64:-0.983745 65:-0.983801 66:-0.983787 67:-0.983774 68:-0.983747 69:-0.983707 70:-0.983667 71:-0.983628 72:-0.98359 73:-0.983552 74:-0.983677 75:-0.983691 76:-0.983665 77:-0.98364 78:-0.983617 79:-0.983575 80:-0.983541 81:-0.983497 82:-0.983459 83:-0.98304 84:-0.980662 85:-0.978453 86:-0.976231 87:-0.974092 88:-0.971872 89:-0.969982 90:-0.968281 91:-0.966446 92:-0.964408 93:-0.962548 94:-0.960681 95:-0.959111 96:-0.957268 97:-0.955688 98:-0.954061 99:-0.952466 100:-0.950911 101:-0.94934 102:-0.947863 103:-0.946525 104:-0.947345 
2048 1:-0.984465 2:-0.958159 3:-0.976703 4:-0.983294 5:-0.826852 6:-0.828321 7:-0.828318 8:-0.827738 9:-0.830854 10:-0.830466 11:-0.830656 12:-0.864841 13:-0.892354 14:-0.906984 15:-0.920999 16:-0.924762 17:-0.91682 18:-0.912703 19:-0.906639 20:-0.902439 21:-0.909388 22:-0.921611 23:-0.930868 24:-0.938194 25:-0.939775 26:-0.940795 27:-0.944418 28:-0.949119 29:-0.952994 30:-0.956575 31:-0.959728 32:-0.962415 33:-0.965629 34:-0.968323 35:-0.970853 36:-0.972886 37:-0.975016 38:-0.977474 39:-0.97953 40:-0.981088 41:-0.98184 42:-0.982168 43:-0.982595 44:-0.983001 45:-0.983277 46:-0.98333 47:-0.983369 48:-0.983415 49:-0.983716 50:-0.983754 51:-0.983792 52:-0.983767 53:-0.983752 54:-0.983675 55:-0.98365 56:-0.983633 57:-0.98361 58:-0.983807 59:-0.983857 60:-0.983838 61:-0.983819 62:-0.983799 63:-0.983782 64:-0.983766 65:-0.983748 66:-0.983732 67:-0.983717 68:-0.983688 69:-0.983646 70:-0.983604 71:-0.983563 72:-0.983523 73:-0.983483 74:-0.983449 75:-0.983425 76:-0.9834 77:-0.983377 78:-0.983354 79:-0.983313 80:-0.98328 81:-0.983536 82:-0.983495 83:-0.983177 84:-0.980851 85:-0.978638 86:-0.97641 87:-0.974267 88:-0.972042 89:-0.970011 90:-0.968132 91:-0.966297 92:-0.964259 93:-0.962399 94:-0.960581 95:-0.95897 96:-0.957167 97:-0.955682 98:-0.954008 99:-0.952412 100:-0.950855 101:-0.949283 102:-0.947925 103:-0.946494 104:-0.947328 
2048 1:-0.981358 2:-0.952929 3:-0.975917 4:-0.983184 5:-0.828758 6:-0.829162 7:-0.831026 8:-0.830264 9:-0.829435 10:-0.83208 11:-0.832009 12:-0.86602 13:-0.893393 14:-0.907907 15:-0.921825 16:-0.925505 17:-0.91749 18:-0.91331 19:-0.906896 20:-0.90321 21:-0.910105 22:-0.922282 23:-0.931496 24:-0.938783 25:-0.940328 26:-0.941328 27:-0.944383 28:-0.949392 29:-0.953249 30:-0.957327 31:-0.960446 32:-0.963102 33:-0.96598 34:-0.968657 35:-0.971178 36:-0.973474 37:-0.97558 38:-0.977678 39:-0.979661 40:-0.98121 41:-0.981953 42:-0.982274 43:-0.982693 44:-0.983321 45:-0.983584 46:-0.983625 47:-0.983653 48:-0.983689 49:-0.983723 50:-0.983757 51:-0.983791 52:-0.983763 53:-0.98389 54:-0.983846 55:-0.983814 56:-0.983791 57:-0.98376 58:-0.983738 59:-0.983925 60:-0.983901 61:-0.983878 62:-0.983854 63:-0.983947 64:-0.983925 65:-0.983902 66:-0.98388 67:-0.983859 68:-0.983826 69:-0.983848 70:-0.983801 71:-0.983754 72:-0.983708 73:-0.983663 74:-0.983751 75:-0.98372 76:-0.983689 77:-0.983658 78:-0.98363 79:-0.983583 80:-0.983543 81:-0.983495 82:-0.983452 83:-0.983086 84:-0.980816 85:-0.978601 86:-0.976372 87:-0.974226 88:-0.972 89:-0.969968 90:-0.968087 91:-0.966251 92:-0.964313 93:-0.962501 94:-0.96063 95:-0.959016 96:-0.957211 97:-0.955627 98:-0.953951 99:-0.952354 100:-0.950796 101:-0.949223 102:-0.947863 103:-0.946433 104:-0.947265 
2048 1:-0.980096 2:-0.948745 3:-0.976281 4:-0.983171 5:-0.815784 6:-0.829285 7:-0.825735 8:-0.829179 9:-0.827694 10:-0.827822 11:-0.828375 12:-0.863343 13:-0.890988 14:-0.905284 15:-0.919431 16:-0.923309 17:-0.915469 18:-0.911759 19:-0.905448 20:-0.901593 21:-0.908579 22:-0.920834 23:-0.93012 24:-0.937698 25:-0.939555 26:-0.942095 27:-0.944807 28:-0.948646 29:-0.952532 30:-0.956124 31:-0.959424 32:-0.962269 33:-0.96537 34:-0.968067 35:-0.970746 36:-0.972777 37:-0.974905 38:-0.977157 39:-0.979154 40:-0.980844 41:-0.981598 42:-0.981928 43:-0.982356 44:-0.982878 45:-0.983153 46:-0.983313 47:-0.983349 48:-0.983392 49:-0.983433 50:-0.983473 51:-0.983514 52:-0.983586 53:-0.983571 54:-0.983494 55:-0.98347 56:-0.983453 57:-0.983515 58:-0.983583 59:-0.983563 60:-0.983546 61:-0.983529 62:-0.983511 63:-0.983496 64:-0.983482 65:-0.98354 66:-0.983599 67:-0.983582 68:-0.983696 69:-0.98365 70:-0.983606 71:-0.983562 72:-0.983519 73:-0.983478 74:-0.983506 75:-0.983479 76:-0.983451 77:-0.983424 78:-0.983399 79:-0.983416 80:-0.983379 81:-0.983391 82:-0.98335 83:-0.98287 84:-0.980489 85:-0.978279 86:-0.976109 87:-0.973968 88:-0.971745 89:-0.969977 90:-0.968149 91:-0.966363 92:-0.964322 93:-0.962459 94:-0.960589 95:-0.958975 96:-0.95717 97:-0.955588 98:-0.953958 99:-0.95236 100:-0.950802 101:-0.949345 102:-0.947828 103:-0.946411 104:-0.947229 
1594.140521081415 1:-0.965047 2:-0.90272 3:-0.937338 4:-0.966104 5:-0.802826 6:-0.807077 7:-0.803109 8:-0.803957 9:-0.803659 10:-0.805881 11:-0.810159 12:-0.848434 13:-0.875414 14:-0.889212 15:-0.903361 16:-0.90692 17:-0.898859 18:-0.894656 19:-0.88846 20:-0.884203 21:-0.891 22:-0.903192 23:-0.91264 24:-0.919808 25:-0.921297 26:-0.922063 27:-0.924001 28:-0.927852 29:-0.932204 30:-0.935784 31:-0.938935 32:-0.941849 33:-0.945323 34:-0.948037 35:-0.950841 36:-0.952859 37:-0.954964 38:-0.957427 39:-0.961637 40:-0.964725 41:-0.965491 42:-0.965715 43:-0.96616 44:-0.966468 45:-0.966654 46:-0.96673 47:-0.966674 48:-0.967396 49:-0.96768 50:-0.967826 51:-0.967773 52:-0.967898 53:-0.967932 54:-0.967768 55:-0.967684 56:-0.967827 57:-0.967714 58:-0.967618 59:-0.967524 60:-0.967436 61:-0.96735 62:-0.967265 63:-0.967382 64:-0.967304 65:-0.967223 66:-0.967327 67:-0.967252 68:-0.967165 69:-0.967067 70:-0.96704 71:-0.966944 72:-0.966851 73:-0.96676 74:-0.966734 75:-0.966854 76:-0.966778 77:-0.966766 78:-0.967089 79:-0.967078 80:-0.967058 81:-0.967167 82:-0.967339 83:-0.966812 84:-0.964444 85:-0.962601 86:-0.960615 87:-0.958492 88:-0.956678 89:-0.954847 90:-0.952978 91:-0.951206 92:-0.949425 93:-0.947521 94:-0.945611 95:-0.943957 96:-0.942066 97:-0.940446 98:-0.93864 99:-0.937009 100:-0.935536 101:-0.934036 102:-0.932562 103:-0.931242 104:-0.932267 
