svm_type c_svc
kernel_type rbf
gamma 2
nr_class 2
total_sv 52
rho 24.7775
distance 210.251
label 97 -1
nr_sv 30 22
SV
452.0487156630337 1:-0.923006 2:-0.801255 3:-0.88973 4:-0.93985 5:-0.780885 6:-0.805724 7:-0.810694 8:-0.80131 9:-0.80421 10:-0.803928 11:-0.801145 12:-0.833099 13:-0.859351 14:-0.872921 15:-0.886304 16:-0.889171 17:-0.881268 18:-0.876578 19:-0.870183 20:-0.865549 21:-0.871907 22:-0.883274 23:-0.892269 24:-0.899115 25:-0.900151 26:-0.901148 27:-0.902688 28:-0.909154 29:-0.913181 30:-0.91733 31:-0.920211 32:-0.922959 33:-0.925615 34:-0.928066 35:-0.930373 36:-0.932641 37:-0.934565 38:-0.936352 39:-0.938172 40:-0.939556 41:-0.94018 42:-0.940396 43:-0.940713 44:-0.941013 45:-0.942385 46:-0.943164 47:-0.94345 48:-0.943459 49:-0.943466 50:-0.943384 51:-0.94331 52:-0.943167 53:-0.943048 54:-0.942872 55:-0.942932 56:-0.94325 57:-0.943617 58:-0.943661 59:-0.944026 60:-0.943904 61:-0.943783 62:-0.943705 63:-0.944014 64:-0.943826 65:-0.943785 66:-0.943677 67:-0.943645 68:-0.94381 69:-0.94361 70:-0.943622 71:-0.943494 72:-0.94337 73:-0.943249 74:-0.943138 75:-0.943037 76:-0.943266 77:-0.943325 78:-0.943287 79:-0.943285 80:-0.943304 81:-0.943174 82:-0.943123 83:-0.942587 84:-0.940299 85:-0.93807 86:-0.935933 87:-0.93372 88:-0.931481 89:-0.929438 90:-0.927541 91:-0.926285 92:-0.924327 93:-0.922446 94:-0.920899 95:-0.919259 96:-0.917387 97:-0.915781 98:-0.914084 99:-0.912923 100:-0.911438 101:-0.910376 102:-0.908853 103:-0.907625 104:-0.908498 
2048 1:-0.949415 2:-0.855649 3:-0.897187 4:-0.937057 5:-0.777978 6:-0.78683 7:-0.803439 8:-0.797407 9:-0.793856 10:-0.791425 11:-0.790136 12:-0.825082 13:-0.857717 14:-0.870436 15:-0.882883 16:-0.885457 17:-0.877498 18:-0.872598 19:-0.866179 20:-0.862079 21:-0.8683 22:-0.879717 23:-0.888286 24:-0.89497 25:-0.89757 26:-0.900235 27:-0.901796 28:-0.905385 29:-0.908855 30:-0.912057 31:-0.914856 32:-0.917215 33:-0.920376 34:-0.923097 35:-0.926546 36:-0.928649 37:-0.930478 38:-0.932309 39:-0.934041 40:-0.935981 41:-0.93661 42:-0.937039 43:-0.937262 44:-0.937763 45:-0.937855 46:-0.937734 47:-0.937845 48:-0.937985 49:-0.938025 50:-0.937909 51:-0.937804 52:-0.937868 53:-0.937755 54:-0.937546 55:-0.937399 56:-0.937481 57:-0.937314 58:-0.937181 59:-0.937047 60:-0.937078 61:-0.93759 62:-0.937456 63:-0.937334 64:-0.937695 65:-0.937639 66:-0.937518 67:-0.937401 68:-0.937453 69:-0.937863 70:-0.938018 71:-0.937938 72:-0.937793 73:-0.937651 74:-0.937521 75:-0.937562 76:-0.937615 77:-0.938269 78:-0.939096 79:-0.939235 80:-0.939254 81:-0.939085 82:-0.939228 83:-0.938653 84:-0.936222 85:-0.933961 86:-0.931826 87:-0.929776 88:-0.927679 89:-0.925603 90:-0.923621 91:-0.921741 92:-0.919811 93:-0.91859 94:-0.916688 95:-0.915392 96:-0.913649 97:-0.912012 98:-0.910941 99:-0.909335 100:-0.908308 101:-0.907021 102:-0.905798 103:-0.904632 104:-0.905202 
2048 1:-0.952522 2:-0.860879 3:-0.903852 4:-0.95205 5:-0.793415 6:-0.79464 7:-0.812069 8:-0.812841 9:-0.807563 10:-0.80531 11:-0.805361 12:-0.838471 13:-0.864655 14:-0.883625 15:-0.898943 16:-0.901498 17:-0.892605 18:-0.888019 19:-0.880873 20:-0.876091 21:-0.883039 22:-0.894579 23:-0.904059 24:-0.910799 25:-0.912139 26:-0.912575 27:-0.914204 28:-0.918236 29:-0.921842 30:-0.925749 31:-0.928645 32:-0.931257 33:-0.933942 34:-0.939101 35:-0.942318 36:-0.944077 37:-0.946073 38:-0.948191 39:-0.949938 40:-0.951258 41:-0.951819 42:-0.952195 43:-0.95244 44:-0.952673 45:-0.95279 46:-0.952965 47:-0.952833 48:-0.952734 49:-0.952894 50:-0.952801 51:-0.952715 52:-0.952564 53:-0.95267 54:-0.952479 55:-0.952553 56:-0.952778 57:-0.953473 58:-0.953419 59:-0.953279 60:-0.953151 61:-0.953024 62:-0.953097 63:-0.954262 64:-0.954518 65:-0.954374 66:-0.954424 67:-0.954393 68:-0.95439 69:-0.954581 70:-0.954422 71:-0.954596 72:-0.954654 73:-0.954676 74:-0.954537 75:-0.9544 76:-0.954424 77:-0.954448 78:-0.954604 79:-0.954727 80:-0.955091 81:-0.954927 82:-0.954781 83:-0.954207 84:-0.951904 85:-0.949627 86:-0.947337 87:-0.945136 88:-0.943135 89:-0.941046 90:-0.939053 91:-0.937395 92:-0.935473 93:-0.933657 94:-0.932024 95:-0.93035 96:-0.928735 97:-0.927537 98:-0.926045 99:-0.924494 100:-0.923102 101:-0.921824 102:-0.920312 103:-0.918875 104:-0.920035 
496.2053539920844 1:-0.94893 2:-0.83159 3:-0.87074 4:-0.9401 5:-0.779193 6:-0.783054 7:-0.8048 8:-0.802985 9:-0.798188 10:-0.79601 11:-0.795137 12:-0.8271 13:-0.852871 14:-0.870806 15:-0.888068 16:-0.890336 17:-0.881236 18:-0.876163 19:-0.868856 20:-0.863972 21:-0.870762 22:-0.882585 23:-0.891688 24:-0.898288 25:-0.899318 26:-0.90162 27:-0.903099 28:-0.906508 29:-0.911292 30:-0.917085 31:-0.919759 32:-0.922402 33:-0.925052 34:-0.927554 35:-0.929699 36:-0.931396 37:-0.933226 38:-0.935256 39:-0.937595 40:-0.938969 41:-0.940937 42:-0.941265 43:-0.942009 44:-0.942141 45:-0.942443 46:-0.942247 47:-0.942187 48:-0.942262 49:-0.942077 50:-0.941906 51:-0.94208 52:-0.941847 53:-0.941642 54:-0.941614 55:-0.941416 56:-0.941358 57:-0.941147 58:-0.940971 59:-0.940795 60:-0.941272 61:-0.941101 62:-0.941011 63:-0.940854 64:-0.940703 65:-0.941114 66:-0.942116 67:-0.942559 68:-0.942475 69:-0.943171 70:-0.943102 71:-0.9429 72:-0.942704 73:-0.942512 74:-0.942333 75:-0.942166 76:-0.942369 77:-0.942202 78:-0.942043 79:-0.941866 80:-0.94177 81:-0.942036 82:-0.942041 83:-0.941735 84:-0.939855 85:-0.937976 86:-0.935961 87:-0.9339 88:-0.931837 89:-0.930528 90:-0.92929 91:-0.927421 92:-0.925996 93:-0.924602 94:-0.922827 95:-0.92182 96:-0.919907 97:-0.918213 98:-0.91634 99:-0.914759 100:-0.913121 101:-0.911448 102:-0.90993 103:-0.908859 104:-0.909917 
288.9787127132959 1:-0.9566 2:-0.833682 3:-0.838251 4:-0.955483 5:-0.796352 6:-0.795813 7:-0.815738 8:-0.835218 9:-0.846766 10:-0.839127 11:-0.832962 12:-0.862656 13:-0.887056 14:-0.898063 15:-0.911919 16:-0.913583 17:-0.912202 18:-0.912186 19:-0.903407 20:-0.898113 21:-0.903904 22:-0.914352 23:-0.922015 24:-0.927891 25:-0.928184 26:-0.928471 27:-0.929388 28:-0.932782 29:-0.9358 30:-0.938835 31:-0.941241 32:-0.943233 33:-0.945495 34:-0.947969 35:-0.949925 36:-0.952042 37:-0.957067 38:-0.961915 39:-0.966494 40:-0.969361 41:-0.970022 42:-0.969671 43:-0.969487 44:-0.96936 45:-0.969052 46:-0.968591 47:-0.968318 48:-0.968307 49:-0.967851 50:-0.96806 51:-0.969334 52:-0.969388 53:-0.968901 54:-0.968554 55:-0.968634 56:-0.968671 57:-0.968433 58:-0.968004 59:-0.967588 60:-0.9678 61:-0.96831 62:-0.967916 63:-0.967689 64:-0.967394 65:-0.967217 66:-0.966864 67:-0.966522 68:-0.966346 69:-0.965996 70:-0.966003 71:-0.965837 72:-0.965506 73:-0.96587 74:-0.965585 75:-0.965447 76:-0.96515 77:-0.964892 78:-0.964613 79:-0.964474 80:-0.964231 81:-0.963944 82:-0.963675 83:-0.963123 84:-0.960547 85:-0.95828 86:-0.955868 87:-0.953823 88:-0.951421 89:-0.949352 90:-0.947248 91:-0.945624 92:-0.943603 93:-0.941707 94:-0.940379 95:-0.938841 96:-0.9369 97:-0.935468 98:-0.933904 99:-0.93256 100:-0.930843 101:-0.929558 102:-0.928217 103:-0.926601 104:-0.927549 
574.3244302793345 1:-0.953105 2:-0.811715 3:-0.827047 4:-0.955247 5:-0.833856 6:-0.824473 7:-0.824556 8:-0.832972 9:-0.827583 10:-0.821661 11:-0.825562 12:-0.858182 13:-0.887612 14:-0.902726 15:-0.916883 16:-0.919627 17:-0.909191 18:-0.904562 19:-0.896752 20:-0.89085 21:-0.896232 22:-0.907274 23:-0.915925 24:-0.92639 25:-0.92816 26:-0.927793 27:-0.928899 28:-0.931803 29:-0.934825 30:-0.938054 31:-0.940456 32:-0.943341 33:-0.94557 34:-0.94906 35:-0.952234 36:-0.953642 37:-0.956303 38:-0.961198 39:-0.964213 40:-0.965431 41:-0.965843 42:-0.965883 43:-0.96574 44:-0.966533 45:-0.966274 46:-0.967072 47:-0.96836 48:-0.968097 49:-0.96788 50:-0.967621 51:-0.96775 52:-0.96797 53:-0.968434 54:-0.968143 55:-0.967673 56:-0.968227 57:-0.967797 58:-0.967577 59:-0.967305 60:-0.967553 61:-0.967767 62:-0.967362 63:-0.966975 64:-0.967752 65:-0.967719 66:-0.967841 67:-0.968067 68:-0.967791 69:-0.967436 70:-0.967565 71:-0.967414 72:-0.967047 73:-0.966823 74:-0.966481 75:-0.966156 76:-0.966267 77:-0.965952 78:-0.965894 79:-0.965573 80:-0.965335 81:-0.965141 82:-0.964846 83:-0.96418 84:-0.961836 85:-0.959408 86:-0.956971 87:-0.954625 88:-0.952596 89:-0.950503 90:-0.94848 91:-0.94667 92:-0.944442 93:-0.942497 94:-0.940576 95:-0.938785 96:-0.937209 97:-0.935961 98:-0.934481 99:-0.932929 100:-0.931571 101:-0.929825 102:-0.928557 103:-0.927106 104:-0.927996 
1002.110597914564 1:-0.95427 2:-0.805439 3:-0.839949 4:-0.95442 5:-0.812308 6:-0.843195 7:-0.833664 8:-0.828834 9:-0.820061 10:-0.815411 11:-0.812575 12:-0.848841 13:-0.877036 14:-0.895491 15:-0.907463 16:-0.911071 17:-0.90217 18:-0.896485 19:-0.889822 20:-0.884363 21:-0.89238 22:-0.904166 23:-0.914719 24:-0.922904 25:-0.924487 26:-0.924768 27:-0.925834 28:-0.928856 29:-0.932303 30:-0.935182 31:-0.938018 32:-0.940796 33:-0.944088 34:-0.946927 35:-0.949032 36:-0.950676 37:-0.953678 38:-0.958068 39:-0.959496 40:-0.961132 41:-0.963042 42:-0.963666 43:-0.963811 44:-0.964013 45:-0.964237 46:-0.963827 47:-0.963764 48:-0.964446 49:-0.964079 50:-0.965381 51:-0.966566 52:-0.966094 53:-0.966085 54:-0.966142 55:-0.965709 56:-0.965956 57:-0.965903 58:-0.965912 59:-0.965516 60:-0.965139 61:-0.964773 62:-0.964417 63:-0.964212 64:-0.9639 65:-0.963953 66:-0.963847 67:-0.963537 68:-0.963762 69:-0.963452 70:-0.963135 71:-0.963159 72:-0.963186 73:-0.963484 74:-0.963187 75:-0.962907 76:-0.962779 77:-0.962509 78:-0.962668 79:-0.962801 80:-0.96275 81:-0.963045 82:-0.963303 83:-0.962768 84:-0.960185 85:-0.957778 86:-0.95536 87:-0.953034 88:-0.950631 89:-0.948829 90:-0.94672 91:-0.944845 92:-0.942718 93:-0.940694 94:-0.938817 95:-0.937045 96:-0.935432 97:-0.934154 98:-0.932693 99:-0.930941 100:-0.929494 101:-0.928221 102:-0.926938 103:-0.925414 104:-0.926364 
701.0040345601936 1:-0.952716 2:-0.85251 3:-0.903832 4:-0.953426 5:-0.785981 6:-0.793837 7:-0.8094 8:-0.813116 9:-0.808057 10:-0.807354 11:-0.806097 12:-0.840131 13:-0.867004 14:-0.881442 15:-0.899628 16:-0.903316 17:-0.894388 18:-0.889449 19:-0.8826 20:-0.877792 21:-0.884066 22:-0.895632 23:-0.904918 24:-0.91169 25:-0.913362 26:-0.913806 27:-0.915639 28:-0.919198 29:-0.923203 30:-0.927032 31:-0.930103 32:-0.933571 33:-0.937801 34:-0.940206 35:-0.942468 36:-0.944552 37:-0.946846 38:-0.948723 39:-0.950496 40:-0.951841 41:-0.952727 42:-0.952885 43:-0.953149 44:-0.95357 45:-0.953811 46:-0.953831 47:-0.95441 48:-0.955447 49:-0.95552 50:-0.955997 51:-0.956945 52:-0.95734 53:-0.957142 54:-0.956981 55:-0.956878 56:-0.956696 57:-0.956587 58:-0.956501 59:-0.956414 60:-0.956572 61:-0.95649 62:-0.956408 63:-0.956257 64:-0.956339 65:-0.956188 66:-0.956047 67:-0.956164 68:-0.956182 69:-0.956196 70:-0.956199 71:-0.956106 72:-0.955949 73:-0.955961 74:-0.955816 75:-0.955773 76:-0.955861 77:-0.956029 78:-0.9564 79:-0.956362 80:-0.956287 81:-0.956424 82:-0.956672 83:-0.956236 84:-0.95378 85:-0.951496 86:-0.949198 87:-0.947225 88:-0.944986 89:-0.94289 90:-0.940943 91:-0.939147 92:-0.937044 93:-0.93565 94:-0.93378 95:-0.932225 96:-0.930431 97:-0.929284 98:-0.92795 99:-0.926308 100:-0.924863 101:-0.923405 102:-0.922248 103:-0.920761 104:-0.921435 
322.3258673259077 1:-0.92553 2:-0.857741 3:-0.890575 4:-0.916576 5:-0.781106 6:-0.790652 7:-0.817085 8:-0.800333 9:-0.792095 10:-0.786534 11:-0.784881 12:-0.815207 13:-0.840668 14:-0.853561 15:-0.865732 16:-0.867953 17:-0.859555 18:-0.854973 19:-0.848296 20:-0.843337 21:-0.849546 22:-0.861363 23:-0.869827 24:-0.876298 25:-0.878337 26:-0.879234 27:-0.880881 28:-0.886109 29:-0.896896 30:-0.90205 31:-0.904579 32:-0.906686 33:-0.908906 34:-0.911323 35:-0.91344 36:-0.915344 37:-0.917258 38:-0.91883 39:-0.92051 40:-0.92189 41:-0.922272 42:-0.922204 43:-0.922843 44:-0.922973 45:-0.924024 46:-0.923784 47:-0.923647 48:-0.924404 49:-0.92426 50:-0.923974 51:-0.923707 52:-0.923613 53:-0.923631 54:-0.923273 55:-0.922985 56:-0.92293 57:-0.922753 58:-0.922491 59:-0.922441 60:-0.922231 61:-0.922151 62:-0.92191 63:-0.921843 64:-0.921627 65:-0.921783 66:-0.921631 67:-0.92182 68:-0.921876 69:-0.921883 70:-0.921655 71:-0.921442 72:-0.921277 73:-0.921361 74:-0.92125 75:-0.921055 76:-0.920859 77:-0.92092 78:-0.920737 79:-0.920535 80:-0.920492 81:-0.920431 82:-0.920248 83:-0.91979 84:-0.917348 85:-0.915189 86:-0.912942 87:-0.910843 88:-0.908586 89:-0.906505 90:-0.904805 91:-0.903141 92:-0.901146 93:-0.899231 94:-0.897753 95:-0.896127 96:-0.894222 97:-0.8928 98:-0.89119 99:-0.889584 100:-0.88802 101:-0.886509 102:-0.884987 103:-0.883736 104:-0.884786 
331.2490378279006 1:-0.923297 2:-0.827406 3:-0.866371 4:-0.915168 5:-0.773587 6:-0.809955 7:-0.845412 8:-0.831971 9:-0.815958 10:-0.807641 11:-0.800647 12:-0.829084 13:-0.85249 14:-0.864036 15:-0.875652 16:-0.877909 17:-0.867822 18:-0.862558 19:-0.854744 20:-0.849462 21:-0.854895 22:-0.866882 23:-0.875042 24:-0.881123 25:-0.881728 26:-0.882257 27:-0.883728 28:-0.88732 29:-0.890592 30:-0.893883 31:-0.896428 32:-0.899823 33:-0.902485 34:-0.904931 35:-0.911203 36:-0.913865 37:-0.915383 38:-0.91726 39:-0.918898 40:-0.921676 41:-0.922022 42:-0.921883 43:-0.922158 44:-0.922132 45:-0.922007 46:-0.921678 47:-0.921879 48:-0.92156 49:-0.921768 50:-0.922141 51:-0.922106 52:-0.921945 53:-0.921852 54:-0.92147 55:-0.92116 56:-0.921075 57:-0.920966 58:-0.921128 59:-0.920838 60:-0.920775 61:-0.920508 62:-0.920758 63:-0.9207 64:-0.920553 65:-0.920511 66:-0.920272 67:-0.92004 68:-0.92016 69:-0.920776 70:-0.921312 71:-0.921924 72:-0.922159 73:-0.923035 74:-0.922829 75:-0.92257 76:-0.922557 77:-0.92266 78:-0.922845 79:-0.922636 80:-0.922406 81:-0.92231 82:-0.922122 83:-0.921517 84:-0.919128 85:-0.916852 86:-0.914562 87:-0.912417 88:-0.910136 89:-0.907999 90:-0.906058 91:-0.90417 92:-0.902114 93:-0.900219 94:-0.898255 95:-0.896687 96:-0.894743 97:-0.893187 98:-0.891581 99:-0.88994 100:-0.888341 101:-0.886681 102:-0.885196 103:-0.883832 104:-0.884839 
851.8850560399998 1:-0.919899 2:-0.872385 3:-0.892328 4:-0.914951 5:-0.781871 6:-0.772736 7:-0.785715 8:-0.803527 9:-0.793474 10:-0.787425 11:-0.78481 12:-0.814954 13:-0.840527 14:-0.853261 15:-0.865122 16:-0.867264 17:-0.858995 18:-0.854 19:-0.847295 20:-0.842305 21:-0.848856 22:-0.859993 23:-0.868672 24:-0.875362 25:-0.87647 26:-0.877345 27:-0.879005 28:-0.882371 29:-0.886177 30:-0.889337 31:-0.892929 32:-0.895223 33:-0.89808 34:-0.903622 35:-0.909204 36:-0.912581 37:-0.91418 38:-0.916038 39:-0.918722 40:-0.919785 41:-0.921057 42:-0.92098 43:-0.921018 44:-0.922164 45:-0.922072 46:-0.921775 47:-0.921672 48:-0.92139 49:-0.92112 50:-0.922025 51:-0.921766 52:-0.921679 53:-0.921518 54:-0.921172 55:-0.921121 56:-0.92085 57:-0.920764 58:-0.92051 59:-0.920467 60:-0.92023 61:-0.919997 62:-0.920261 63:-0.920161 64:-0.919976 65:-0.919772 66:-0.919923 67:-0.919718 68:-0.919506 69:-0.919622 70:-0.919404 71:-0.919189 72:-0.919149 73:-0.91897 74:-0.918942 75:-0.918757 76:-0.918852 77:-0.918669 78:-0.918665 79:-0.918609 80:-0.918451 81:-0.918406 82:-0.918228 83:-0.917779 84:-0.915527 85:-0.913364 86:-0.911082 87:-0.909151 88:-0.906874 89:-0.904797 90:-0.902942 91:-0.901187 92:-0.899096 93:-0.897316 94:-0.895536 95:-0.893939 96:-0.892107 97:-0.89054 98:-0.888948 99:-0.887304 100:-0.885703 101:-0.884353 102:-0.882771 103:-0.881933 104:-0.883027 
124.682683536809 1:-0.923589 2:-0.828452 3:-0.861279 4:-0.9149 5:-0.777652 6:-0.773918 7:-0.795379 8:-0.789722 9:-0.783377 10:-0.783931 11:-0.784868 12:-0.814765 13:-0.840536 14:-0.851966 15:-0.864984 16:-0.87022 17:-0.860698 18:-0.857482 19:-0.849666 20:-0.8444 21:-0.853255 22:-0.864687 23:-0.874089 24:-0.88102 25:-0.881601 26:-0.881592 27:-0.88411 28:-0.888098 29:-0.891877 30:-0.895162 31:-0.897807 32:-0.900816 33:-0.90326 34:-0.905661 35:-0.911298 36:-0.913013 37:-0.915723 38:-0.918112 39:-0.920685 40:-0.923854 41:-0.924338 42:-0.924729 43:-0.925085 44:-0.925633 45:-0.925624 46:-0.925194 47:-0.925002 48:-0.92524 49:-0.924941 50:-0.924563 51:-0.924493 52:-0.924068 53:-0.923683 54:-0.924484 55:-0.924102 56:-0.923735 57:-0.923987 58:-0.924062 59:-0.924142 60:-0.92449 61:-0.924147 62:-0.923883 63:-0.923805 64:-0.923572 65:-0.92326 66:-0.923152 67:-0.922964 68:-0.922669 69:-0.922549 70:-0.923098 71:-0.923111 72:-0.922814 73:-0.92272 74:-0.922445 75:-0.922473 76:-0.922208 77:-0.922109 78:-0.922388 79:-0.922116 80:-0.922061 81:-0.921785 82:-0.921538 83:-0.921546 84:-0.919035 85:-0.916838 86:-0.914623 87:-0.912361 88:-0.910235 89:-0.908197 90:-0.906144 91:-0.904351 92:-0.902199 93:-0.900332 94:-0.89851 95:-0.896787 96:-0.894836 97:-0.893296 98:-0.891481 99:-0.889788 100:-0.888369 101:-0.886702 102:-0.885074 103:-0.883659 104:-0.88488 
2.10428486498197 1:-0.890674 2:-0.769874 3:-0.854837 4:-0.913703 5:-0.771656 6:-0.763906 7:-0.794537 8:-0.816079 9:-0.811967 10:-0.802881 11:-0.797359 12:-0.826867 13:-0.850581 14:-0.861346 15:-0.872995 16:-0.87456 17:-0.864914 18:-0.859709 19:-0.852235 20:-0.846979 21:-0.852421 22:-0.863913 23:-0.871865 24:-0.878662 25:-0.879277 26:-0.880111 27:-0.881692 28:-0.884986 29:-0.888545 30:-0.891827 31:-0.894699 32:-0.897587 33:-0.900091 34:-0.90419 35:-0.912515 36:-0.918835 37:-0.922692 38:-0.924444 39:-0.925879 40:-0.926776 41:-0.927307 42:-0.927089 43:-0.927334 44:-0.927465 45:-0.927154 46:-0.92729 47:-0.92685 48:-0.926575 49:-0.926466 50:-0.9264 51:-0.926779 52:-0.926648 53:-0.927202 54:-0.927005 55:-0.92663 56:-0.92627 57:-0.926395 58:-0.926137 59:-0.925822 60:-0.925644 61:-0.925252 62:-0.925025 63:-0.924816 64:-0.924907 65:-0.924696 66:-0.924426 67:-0.924237 68:-0.923967 69:-0.924109 70:-0.923974 71:-0.923705 72:-0.923509 73:-0.923252 74:-0.923203 75:-0.923035 76:-0.922863 77:-0.9227 78:-0.922484 79:-0.922311 80:-0.922115 81:-0.921876 82:-0.921723 83:-0.921037 84:-0.918627 85:-0.91633 86:-0.914075 87:-0.911855 88:-0.909555 89:-0.907912 90:-0.905896 91:-0.904036 92:-0.90192 93:-0.900039 94:-0.898103 95:-0.896465 96:-0.894549 97:-0.892898 98:-0.891071 99:-0.889413 100:-0.887844 101:-0.886212 102:-0.884664 103:-0.883148 104:-0.884058 
476.8652803331192 1:-0.917763 2:-0.771967 3:-0.81489 4:-0.920064 5:-0.793434 6:-0.813449 7:-0.821992 8:-0.838752 9:-0.84715 10:-0.851955 11:-0.839354 12:-0.864542 13:-0.883889 14:-0.892346 15:-0.901262 16:-0.900819 17:-0.890086 18:-0.882976 19:-0.874229 20:-0.867512 21:-0.872568 22:-0.883256 23:-0.890466 24:-0.89637 25:-0.899859 26:-0.907638 27:-0.914267 28:-0.917258 29:-0.91936 30:-0.921646 31:-0.92326 32:-0.924832 33:-0.926399 34:-0.927985 35:-0.930069 36:-0.93279 37:-0.935799 38:-0.937721 39:-0.939132 40:-0.939914 41:-0.93972 42:-0.940098 43:-0.939656 44:-0.940102 45:-0.940205 46:-0.940478 47:-0.939726 48:-0.939352 49:-0.938794 50:-0.938614 51:-0.938243 52:-0.937953 53:-0.937607 54:-0.937401 55:-0.936809 56:-0.936418 57:-0.935878 58:-0.93561 59:-0.935208 60:-0.934917 61:-0.934627 62:-0.93415 63:-0.933894 64:-0.933644 65:-0.933206 66:-0.93279 67:-0.932751 68:-0.932472 69:-0.932319 70:-0.932105 71:-0.931871 72:-0.931843 73:-0.931568 74:-0.931569 75:-0.931276 76:-0.931305 77:-0.931314 78:-0.931333 79:-0.931096 80:-0.931012 81:-0.93077 82:-0.930669 83:-0.929976 84:-0.927547 85:-0.925233 86:-0.922961 87:-0.920672 88:-0.918358 89:-0.916294 90:-0.914212 91:-0.912301 92:-0.910129 93:-0.908102 94:-0.906151 95:-0.904413 96:-0.902495 97:-0.900795 98:-0.898918 99:-0.897213 100:-0.895551 101:-0.894454 102:-0.89329 103:-0.892154 104:-0.892975 
0.8991331139337951 1:-0.933201 2:-0.83682 3:-0.882487 4:-0.920002 5:-0.750939 6:-0.775235 7:-0.799596 8:-0.788066 9:-0.783075 10:-0.784279 11:-0.781663 12:-0.816725 13:-0.842418 14:-0.855631 15:-0.867696 16:-0.871318 17:-0.863074 18:-0.858747 19:-0.851278 20:-0.846309 21:-0.853375 22:-0.864782 23:-0.876705 24:-0.884167 25:-0.88533 26:-0.885446 27:-0.887252 28:-0.890564 29:-0.894327 30:-0.897359 31:-0.9 32:-0.902768 33:-0.905223 34:-0.907859 35:-0.910182 36:-0.911853 37:-0.914028 38:-0.915781 39:-0.917768 40:-0.918984 41:-0.919774 42:-0.920156 43:-0.920334 44:-0.920504 45:-0.921117 46:-0.920953 47:-0.921012 48:-0.92085 49:-0.920782 50:-0.920889 51:-0.920752 52:-0.920542 53:-0.920601 54:-0.920452 55:-0.920506 56:-0.920336 57:-0.920354 58:-0.920406 59:-0.920476 60:-0.920732 61:-0.920571 62:-0.920608 63:-0.920515 64:-0.9204 65:-0.92059 66:-0.920447 67:-0.920489 68:-0.920516 69:-0.920421 70:-0.920435 71:-0.920306 72:-0.920147 73:-0.919992 74:-0.920015 75:-0.920343 76:-0.9202 77:-0.920218 78:-0.920177 79:-0.920381 80:-0.920411 81:-0.920241 82:-0.92103 83:-0.920457 84:-0.918388 85:-0.916574 86:-0.914797 87:-0.912667 88:-0.910399 89:-0.908329 90:-0.90635 91:-0.904731 92:-0.902648 93:-0.901195 94:-0.899285 95:-0.897897 96:-0.896266 97:-0.89473 98:-0.893251 99:-0.892202 100:-0.891312 101:-0.890047 102:-0.888494 103:-0.88742 104:-0.888765 
35.63165875391865 1:-0.933783 2:-0.820084 3:-0.865827 4:-0.918246 5:-0.776714 6:-0.777302 7:-0.795716 8:-0.814593 9:-0.80497 10:-0.797219 11:-0.79341 12:-0.824969 13:-0.848472 14:-0.860643 15:-0.873009 16:-0.875369 17:-0.866066 18:-0.860515 19:-0.853493 20:-0.848325 21:-0.854792 22:-0.865722 23:-0.877552 24:-0.88646 25:-0.886963 26:-0.887685 27:-0.891411 28:-0.894853 29:-0.89833 30:-0.901452 31:-0.903841 32:-0.906227 33:-0.9087 34:-0.91113 35:-0.913413 36:-0.914895 37:-0.916828 38:-0.918609 39:-0.920951 40:-0.922305 41:-0.922986 42:-0.923145 43:-0.923469 44:-0.923727 45:-0.92425 46:-0.924218 47:-0.924234 48:-0.924127 49:-0.923989 50:-0.923713 51:-0.923945 52:-0.92385 53:-0.923546 54:-0.923424 55:-0.923363 56:-0.923177 57:-0.923089 58:-0.923037 59:-0.922924 60:-0.922674 61:-0.92263 62:-0.922384 63:-0.922352 64:-0.922322 65:-0.922125 66:-0.922201 67:-0.921988 68:-0.921767 69:-0.921823 70:-0.921598 71:-0.921716 72:-0.921495 73:-0.921446 74:-0.921469 75:-0.921338 76:-0.921511 77:-0.921315 78:-0.921129 79:-0.921231 80:-0.921172 81:-0.921253 82:-0.921209 83:-0.920597 84:-0.918147 85:-0.916008 86:-0.913806 87:-0.9116 88:-0.909448 89:-0.907358 90:-0.905491 91:-0.90369 92:-0.901884 93:-0.900012 94:-0.898085 95:-0.896657 96:-0.895118 97:-0.894318 98:-0.892904 99:-0.891879 100:-0.890545 101:-0.889363 102:-0.88801 103:-0.886886 104:-0.888002 
481.8876793378012 1:-0.923491 2:-0.770921 3:-0.80074 4:-0.917669 5:-0.79857 6:-0.828365 7:-0.811602 8:-0.802748 9:-0.794005 10:-0.791785 11:-0.79734 12:-0.826873 13:-0.857261 14:-0.867894 15:-0.878229 16:-0.880861 17:-0.874398 18:-0.86913 19:-0.862286 20:-0.859953 21:-0.867871 22:-0.881479 23:-0.889677 24:-0.896825 25:-0.901008 26:-0.904731 27:-0.905859 28:-0.908205 29:-0.910892 30:-0.91302 31:-0.915159 32:-0.916579 33:-0.919498 34:-0.921375 35:-0.922824 36:-0.924231 37:-0.925399 38:-0.927068 39:-0.928199 40:-0.929248 41:-0.929876 42:-0.929524 43:-0.929387 44:-0.929143 45:-0.929097 46:-0.928925 47:-0.92836 48:-0.928122 49:-0.927638 50:-0.928281 51:-0.928072 52:-0.927554 53:-0.92708 54:-0.926877 55:-0.926605 56:-0.926173 57:-0.925942 58:-0.925538 59:-0.925769 60:-0.925597 61:-0.925219 62:-0.925048 63:-0.925087 64:-0.924816 65:-0.924853 66:-0.925268 67:-0.925166 68:-0.925362 69:-0.925265 70:-0.924918 71:-0.924879 72:-0.924935 73:-0.925367 74:-0.925172 75:-0.925021 76:-0.924709 77:-0.924564 78:-0.924658 79:-0.924804 80:-0.924525 81:-0.924655 82:-0.924655 83:-0.924085 84:-0.921639 85:-0.919255 86:-0.916924 87:-0.914773 88:-0.912526 89:-0.910574 90:-0.908901 91:-0.907054 92:-0.905258 93:-0.904377 94:-0.902953 95:-0.901842 96:-0.90021 97:-0.898924 98:-0.897127 99:-0.895408 100:-0.894096 101:-0.892586 102:-0.891536 103:-0.890561 104:-0.891408 
2048 1:-0.942521 2:-0.856695 3:-0.898104 4:-0.946707 5:-0.783303 6:-0.786941 7:-0.807654 8:-0.809992 9:-0.805307 10:-0.806151 11:-0.804077 12:-0.837579 13:-0.864011 14:-0.881579 15:-0.894744 16:-0.897162 17:-0.888168 18:-0.884119 19:-0.876846 20:-0.871964 21:-0.87814 22:-0.890106 23:-0.898686 24:-0.906265 25:-0.907324 26:-0.907716 27:-0.909301 28:-0.913746 29:-0.917952 30:-0.923088 31:-0.925862 32:-0.928359 33:-0.931096 34:-0.933472 35:-0.935709 36:-0.937847 37:-0.939776 38:-0.941638 39:-0.943399 40:-0.944983 41:-0.945855 42:-0.946002 43:-0.946254 44:-0.947071 45:-0.947323 46:-0.947244 47:-0.947345 48:-0.947235 49:-0.947131 50:-0.947536 51:-0.947438 52:-0.947495 53:-0.94735 54:-0.947148 55:-0.947008 56:-0.947098 57:-0.94707 58:-0.947155 59:-0.947022 60:-0.947099 61:-0.947177 62:-0.947246 63:-0.947706 64:-0.949084 65:-0.948932 66:-0.94879 67:-0.948884 68:-0.948786 69:-0.948836 70:-0.949018 71:-0.949027 72:-0.948866 73:-0.948709 74:-0.948725 75:-0.948588 76:-0.948523 77:-0.948475 78:-0.948684 79:-0.948685 80:-0.948558 81:-0.948473 82:-0.948562 83:-0.948334 84:-0.946293 85:-0.944265 86:-0.941975 87:-0.939773 88:-0.937673 89:-0.935586 90:-0.933594 91:-0.931807 92:-0.929712 93:-0.928422 94:-0.926565 95:-0.92494 96:-0.923402 97:-0.922168 98:-0.920553 99:-0.919169 100:-0.91783 101:-0.916627 102:-0.915286 103:-0.913874 104:-0.914956 
1981.794643297751 1:-0.951842 2:-0.851464 3:-0.893449 4:-0.944584 5:-0.782999 6:-0.786113 7:-0.809678 8:-0.817858 9:-0.812547 10:-0.811753 11:-0.809053 12:-0.840192 13:-0.865295 14:-0.878934 15:-0.891323 16:-0.893822 17:-0.885773 18:-0.88079 19:-0.873575 20:-0.868756 21:-0.875631 22:-0.887553 23:-0.89613 24:-0.902825 25:-0.903929 26:-0.904367 27:-0.906485 28:-0.911579 29:-0.915291 30:-0.920302 31:-0.923085 32:-0.925987 33:-0.928719 34:-0.931089 35:-0.933321 36:-0.935096 37:-0.937313 38:-0.939173 39:-0.941171 40:-0.942821 41:-0.943373 42:-0.943823 43:-0.944068 44:-0.944464 45:-0.944577 46:-0.944476 47:-0.94467 48:-0.944769 49:-0.944664 50:-0.94482 51:-0.944727 52:-0.944567 53:-0.944431 54:-0.944469 55:-0.944482 56:-0.944351 57:-0.944958 58:-0.944823 59:-0.944897 60:-0.94477 61:-0.944995 62:-0.945258 63:-0.94678 64:-0.946631 65:-0.946479 66:-0.946522 67:-0.946382 68:-0.946584 69:-0.94642 70:-0.946272 71:-0.946667 72:-0.946639 73:-0.946645 74:-0.946494 75:-0.946506 76:-0.946863 77:-0.946718 78:-0.94658 79:-0.946485 80:-0.946506 81:-0.946343 82:-0.9462 83:-0.945631 84:-0.943508 85:-0.941628 86:-0.939451 87:-0.937469 88:-0.935188 89:-0.933103 90:-0.931512 91:-0.929887 92:-0.927788 93:-0.926003 94:-0.924567 95:-0.923203 96:-0.92129 97:-0.92003 98:-0.918422 99:-0.91735 100:-0.916092 101:-0.914564 102:-0.913114 103:-0.912069 104:-0.913083 
2048 1:-0.942521 2:-0.889121 3:-0.916576 4:-0.924939 5:-0.762359 6:-0.802095 7:-0.787113 8:-0.780306 9:-0.777999 10:-0.776494 11:-0.775845 12:-0.809802 13:-0.83664 14:-0.849795 15:-0.863016 16:-0.867247 17:-0.859006 18:-0.855489 19:-0.848709 20:-0.846448 21:-0.852812 22:-0.864396 23:-0.873131 24:-0.880527 25:-0.882329 26:-0.88291 27:-0.884801 28:-0.888978 29:-0.892634 30:-0.896007 31:-0.899388 32:-0.90215 33:-0.906951 34:-0.909391 35:-0.91227 36:-0.914597 37:-0.91701 38:-0.918943 39:-0.920721 40:-0.922061 41:-0.922658 42:-0.922852 43:-0.923738 44:-0.924005 45:-0.924158 46:-0.924094 47:-0.924519 48:-0.924443 49:-0.924369 50:-0.924858 51:-0.924791 52:-0.924649 53:-0.924536 54:-0.924366 55:-0.924258 56:-0.924155 57:-0.924022 58:-0.923927 59:-0.924706 60:-0.925818 61:-0.926282 62:-0.926636 63:-0.926508 64:-0.92646 65:-0.927082 66:-0.927136 67:-0.927006 68:-0.927044 69:-0.926892 70:-0.926917 71:-0.926766 72:-0.926619 73:-0.926641 74:-0.926656 75:-0.926529 76:-0.92656 77:-0.926523 78:-0.926526 79:-0.926384 80:-0.926428 81:-0.926275 82:-0.926148 83:-0.9256 84:-0.923509 85:-0.921281 86:-0.919246 87:-0.917685 88:-0.915604 89:-0.913552 90:-0.911616 91:-0.909918 92:-0.907853 93:-0.905969 94:-0.904278 95:-0.902865 96:-0.901427 97:-0.89986 98:-0.898067 99:-0.896561 100:-0.894976 101:-0.893375 102:-0.891918 103:-0.890725 104:-0.891693 
1701.323647751313 1:-0.949318 2:-0.893305 3:-0.919527 4:-0.924725 5:-0.762323 6:-0.785902 7:-0.780105 8:-0.775039 9:-0.773779 10:-0.772994 11:-0.774409 12:-0.807139 13:-0.834243 14:-0.847621 15:-0.861027 16:-0.86542 17:-0.857321 18:-0.853123 19:-0.846498 20:-0.844384 21:-0.851917 22:-0.863545 23:-0.872917 24:-0.880321 25:-0.881661 26:-0.882476 27:-0.884227 28:-0.88977 29:-0.893395 30:-0.896738 31:-0.899667 32:-0.902966 33:-0.905662 34:-0.908143 35:-0.911513 36:-0.913369 37:-0.915303 38:-0.917496 39:-0.919573 40:-0.920942 41:-0.922192 42:-0.922397 43:-0.922703 44:-0.922995 45:-0.923172 46:-0.923131 47:-0.92304 48:-0.922997 49:-0.922954 50:-0.922921 51:-0.924283 52:-0.92415 53:-0.924047 54:-0.923886 55:-0.924231 56:-0.924128 57:-0.923994 58:-0.923899 59:-0.9238 60:-0.924984 61:-0.925882 62:-0.925833 63:-0.925717 64:-0.925607 65:-0.925488 66:-0.925381 67:-0.925277 68:-0.925521 69:-0.925392 70:-0.925265 71:-0.925138 72:-0.925015 73:-0.924893 74:-0.925669 75:-0.925722 76:-0.925763 77:-0.925805 78:-0.925694 79:-0.925562 80:-0.925466 81:-0.925623 82:-0.925797 83:-0.925253 84:-0.922864 85:-0.920785 86:-0.918813 87:-0.916716 88:-0.91459 89:-0.912577 90:-0.910963 91:-0.909111 92:-0.907055 93:-0.905181 94:-0.903816 95:-0.902776 96:-0.900951 97:-0.899341 98:-0.897553 99:-0.895934 100:-0.894473 101:-0.892878 102:-0.891652 103:-0.890344 104:-0.891295 
622.2662481496216 1:-0.922326 2:-0.833682 3:-0.849692 4:-0.917654 5:-0.759348 6:-0.837449 7:-0.846414 8:-0.831471 9:-0.814972 10:-0.806686 11:-0.800035 12:-0.828488 13:-0.852698 14:-0.863844 15:-0.874795 16:-0.877087 17:-0.867689 18:-0.861902 19:-0.854681 20:-0.849216 21:-0.855401 22:-0.866211 23:-0.874245 24:-0.881303 25:-0.882007 26:-0.882591 27:-0.883833 28:-0.887286 29:-0.897424 30:-0.903214 31:-0.905479 32:-0.907983 33:-0.910108 34:-0.912055 35:-0.914333 36:-0.915878 37:-0.918079 38:-0.919584 39:-0.921337 40:-0.922496 41:-0.922762 42:-0.922946 43:-0.922937 44:-0.923213 45:-0.923098 46:-0.923053 47:-0.922771 48:-0.922745 49:-0.922447 50:-0.922812 51:-0.922784 52:-0.922918 53:-0.92274 54:-0.92237 55:-0.922298 56:-0.924379 57:-0.926039 58:-0.92618 59:-0.926035 60:-0.92611 61:-0.926551 62:-0.926297 63:-0.925975 64:-0.925856 65:-0.92573 66:-0.925801 67:-0.925552 68:-0.925249 69:-0.925121 70:-0.924988 71:-0.924691 72:-0.92457 73:-0.924384 74:-0.924336 75:-0.924426 76:-0.924164 77:-0.923909 78:-0.923976 79:-0.923997 80:-0.923768 81:-0.923645 82:-0.923402 83:-0.922741 84:-0.920489 85:-0.91844 86:-0.916231 87:-0.914304 88:-0.911962 89:-0.910186 90:-0.908132 91:-0.906445 92:-0.90429 93:-0.902459 94:-0.9009 95:-0.89917 96:-0.897335 97:-0.895643 98:-0.893994 99:-0.892434 100:-0.891301 101:-0.889706 102:-0.888599 103:-0.887205 104:-0.88839 
1756.03918415674 1:-0.931841 2:-0.846234 3:-0.89038 4:-0.916525 5:-0.750272 6:-0.787169 7:-0.774422 8:-0.768772 9:-0.76596 10:-0.764884 11:-0.767643 12:-0.800848 13:-0.826771 14:-0.839846 15:-0.854031 16:-0.858044 17:-0.849856 18:-0.847098 19:-0.840393 20:-0.835943 21:-0.843086 22:-0.854848 23:-0.863753 24:-0.870504 25:-0.875003 26:-0.875711 27:-0.87731 28:-0.881282 29:-0.885095 30:-0.888693 31:-0.8917 32:-0.895479 33:-0.898073 34:-0.900836 35:-0.903444 36:-0.905227 37:-0.907437 38:-0.909626 39:-0.911485 40:-0.912784 41:-0.91335 42:-0.913517 43:-0.914081 44:-0.914331 45:-0.914956 46:-0.915296 47:-0.915412 48:-0.915308 49:-0.915207 50:-0.915459 51:-0.915618 52:-0.915691 53:-0.915551 54:-0.915355 55:-0.91562 56:-0.916378 57:-0.917033 58:-0.917516 59:-0.917346 60:-0.917378 61:-0.917626 62:-0.917463 63:-0.917511 64:-0.917468 65:-0.9175 66:-0.917359 67:-0.917327 68:-0.917662 69:-0.917725 70:-0.917742 71:-0.918089 72:-0.917918 73:-0.917957 74:-0.917801 75:-0.917815 76:-0.917758 77:-0.91786 78:-0.917899 79:-0.917887 80:-0.9181 81:-0.918187 82:-0.918145 83:-0.917604 84:-0.915191 85:-0.913116 86:-0.910993 87:-0.909223 88:-0.907092 89:-0.905163 90:-0.903321 91:-0.901544 92:-0.899646 93:-0.898131 94:-0.896224 95:-0.89469 96:-0.892852 97:-0.891348 98:-0.889894 99:-0.888255 100:-0.886985 101:-0.885769 102:-0.884477 103:-0.883648 104:-0.884746 
601.7918417757992 1:-0.931259 2:-0.851464 3:-0.893715 4:-0.916201 5:-0.741337 6:-0.78705 7:-0.772089 8:-0.771404 9:-0.768322 10:-0.77009 11:-0.769277 12:-0.802863 13:-0.828567 14:-0.842585 15:-0.856506 16:-0.860222 17:-0.851748 18:-0.847234 19:-0.841193 20:-0.836962 21:-0.843515 22:-0.854999 23:-0.864127 24:-0.870854 25:-0.872617 26:-0.873456 27:-0.877981 28:-0.881634 29:-0.885341 30:-0.888934 31:-0.891759 32:-0.894142 33:-0.897082 34:-0.899491 35:-0.902056 36:-0.904596 37:-0.906853 38:-0.908716 39:-0.910994 40:-0.912302 41:-0.912878 42:-0.913357 43:-0.913627 44:-0.914391 45:-0.914805 46:-0.914716 47:-0.914573 48:-0.91481 49:-0.914946 50:-0.914861 51:-0.91498 52:-0.914823 53:-0.914698 54:-0.914747 55:-0.915201 56:-0.91606 57:-0.917601 58:-0.917431 59:-0.917305 60:-0.917268 61:-0.918072 62:-0.918098 63:-0.918328 64:-0.918234 65:-0.918065 66:-0.918096 67:-0.917942 68:-0.917959 69:-0.918187 70:-0.918011 71:-0.917838 72:-0.918053 73:-0.918002 74:-0.918008 75:-0.917856 76:-0.91786 77:-0.917842 78:-0.917875 79:-0.917709 80:-0.917713 81:-0.917555 82:-0.917406 83:-0.916976 84:-0.91457 85:-0.912768 86:-0.910511 87:-0.908619 88:-0.906366 89:-0.904566 90:-0.902598 91:-0.900732 92:-0.898662 93:-0.896775 94:-0.895228 95:-0.893773 96:-0.891943 97:-0.890788 98:-0.88911 99:-0.887651 100:-0.886386 101:-0.884984 102:-0.883964 103:-0.883111 104:-0.884213 
1461.021724336974 1:-0.934074 2:-0.839958 3:-0.844969 4:-0.915886 5:-0.75729 6:-0.837537 7:-0.81489 8:-0.798097 9:-0.789615 10:-0.783908 11:-0.781852 12:-0.812896 13:-0.843423 14:-0.860207 15:-0.871971 16:-0.873379 17:-0.864471 18:-0.85923 19:-0.851297 20:-0.845922 21:-0.852178 22:-0.863877 23:-0.874161 24:-0.889872 25:-0.891472 26:-0.891523 27:-0.892286 28:-0.895028 29:-0.897898 30:-0.900543 31:-0.903978 32:-0.906131 33:-0.908245 34:-0.910789 35:-0.913624 36:-0.914981 37:-0.916989 38:-0.92021 39:-0.921884 40:-0.922806 41:-0.923006 42:-0.923128 43:-0.923059 44:-0.922995 45:-0.922833 46:-0.922469 47:-0.923402 48:-0.923821 49:-0.923571 50:-0.923472 51:-0.923141 52:-0.923461 53:-0.923089 54:-0.922669 55:-0.923646 56:-0.924329 57:-0.925023 58:-0.924836 59:-0.924909 60:-0.924555 61:-0.92421 62:-0.923872 63:-0.923555 64:-0.92325 65:-0.922943 66:-0.923025 67:-0.922739 68:-0.922447 69:-0.922153 70:-0.922125 71:-0.921927 72:-0.921647 73:-0.921945 74:-0.922884 75:-0.922615 76:-0.922348 77:-0.922089 78:-0.921997 79:-0.921883 80:-0.921655 81:-0.921382 82:-0.921435 83:-0.921537 84:-0.919385 85:-0.917041 86:-0.914686 87:-0.912423 88:-0.910215 89:-0.908404 90:-0.906348 91:-0.904397 92:-0.902373 93:-0.900573 94:-0.898724 95:-0.897122 96:-0.895224 97:-0.893992 98:-0.892397 99:-0.891231 100:-0.890254 101:-0.888915 102:-0.887508 103:-0.886384 104:-0.886882 
2048 1:-0.941939 2:-0.895397 3:-0.911139 4:-0.925445 5:-0.758172 6:-0.805768 7:-0.788476 8:-0.783511 9:-0.778904 10:-0.78275 11:-0.781912 12:-0.815217 13:-0.840827 14:-0.853607 15:-0.867508 16:-0.870443 17:-0.865437 18:-0.860654 19:-0.854307 20:-0.849598 21:-0.8558 22:-0.867493 23:-0.880866 24:-0.888198 25:-0.889106 26:-0.889384 27:-0.890848 28:-0.894232 29:-0.897694 30:-0.900886 31:-0.904809 32:-0.90712 33:-0.909686 34:-0.912045 35:-0.914756 36:-0.916745 37:-0.918726 38:-0.921866 39:-0.924215 40:-0.925595 41:-0.926726 42:-0.927122 43:-0.927864 44:-0.928413 45:-0.930095 46:-0.930215 47:-0.931042 48:-0.930822 49:-0.930867 50:-0.930916 51:-0.930723 52:-0.930462 53:-0.930812 54:-0.930519 55:-0.93052 56:-0.930299 57:-0.930056 58:-0.930065 59:-0.930012 60:-0.930024 61:-0.92983 62:-0.929638 63:-0.929657 64:-0.929485 65:-0.929495 66:-0.929418 67:-0.929253 68:-0.929259 69:-0.929076 70:-0.928897 71:-0.928891 72:-0.928716 73:-0.928544 74:-0.928551 75:-0.928401 76:-0.928249 77:-0.928367 78:-0.92869 79:-0.928676 80:-0.92854 81:-0.928795 82:-0.928638 83:-0.928061 84:-0.925636 85:-0.923523 86:-0.921252 87:-0.919071 88:-0.917095 89:-0.915079 90:-0.913102 91:-0.911357 92:-0.909277 93:-0.907695 94:-0.905789 95:-0.904181 96:-0.902391 97:-0.900767 98:-0.898965 99:-0.897332 100:-0.895741 101:-0.89425 102:-0.893096 103:-0.891701 104:-0.89254 
127.5156197718864 1:-0.935531 2:-0.890167 3:-0.910503 4:-0.925197 5:-0.753479 6:-0.817999 7:-0.811712 8:-0.799839 9:-0.791908 10:-0.788104 11:-0.786896 12:-0.818225 13:-0.84474 14:-0.857783 15:-0.870304 16:-0.872983 17:-0.86515 18:-0.860522 19:-0.853405 20:-0.849437 21:-0.855631 22:-0.867909 23:-0.876467 24:-0.883135 25:-0.885118 26:-0.885567 27:-0.887183 28:-0.891081 29:-0.894653 30:-0.898471 31:-0.901338 32:-0.903758 33:-0.907055 34:-0.909489 35:-0.915378 36:-0.918128 37:-0.920059 38:-0.921852 39:-0.923932 40:-0.925806 41:-0.926967 42:-0.9286 43:-0.929338 44:-0.930102 45:-0.931195 46:-0.93096 47:-0.931301 48:-0.931068 49:-0.930929 50:-0.930836 51:-0.930884 52:-0.930613 53:-0.930846 54:-0.930547 55:-0.93051 56:-0.930395 57:-0.930253 58:-0.930165 59:-0.929951 60:-0.929753 61:-0.929799 62:-0.929603 63:-0.929617 64:-0.92944 65:-0.929806 66:-0.929628 67:-0.929456 68:-0.929453 69:-0.929363 70:-0.929175 71:-0.928989 72:-0.928977 73:-0.928798 74:-0.928728 75:-0.928733 76:-0.928573 77:-0.928438 78:-0.928424 79:-0.928256 80:-0.928122 81:-0.928096 82:-0.928087 83:-0.927803 84:-0.925522 85:-0.923313 86:-0.921059 87:-0.918877 88:-0.916749 89:-0.914681 90:-0.912705 91:-0.911116 92:-0.909267 93:-0.907365 94:-0.905585 95:-0.904016 96:-0.902127 97:-0.900503 98:-0.898821 99:-0.897187 100:-0.895595 101:-0.894147 102:-0.892884 103:-0.891611 104:-0.892328 
982.9779905437816 1:-0.928346 2:-0.794979 3:-0.839216 4:-0.918792 5:-0.857947 6:-0.828789 7:-0.820388 8:-0.802605 9:-0.793702 10:-0.796266 11:-0.792319 12:-0.822258 13:-0.846418 14:-0.860506 15:-0.874237 16:-0.876057 17:-0.866621 18:-0.861276 19:-0.853684 20:-0.849302 21:-0.859302 22:-0.870133 23:-0.878243 24:-0.88472 25:-0.885471 26:-0.886323 27:-0.887875 28:-0.891287 29:-0.894774 30:-0.897641 31:-0.900521 32:-0.907469 33:-0.910564 34:-0.912669 35:-0.915357 36:-0.918184 37:-0.920464 38:-0.922257 39:-0.924051 40:-0.926222 41:-0.927401 42:-0.928802 43:-0.930476 44:-0.93099 45:-0.932378 46:-0.933015 47:-0.932709 48:-0.933231 49:-0.932713 50:-0.932417 51:-0.932241 52:-0.931712 53:-0.931319 54:-0.930788 55:-0.930598 56:-0.930157 57:-0.92987 58:-0.929459 59:-0.929916 60:-0.929521 61:-0.929399 62:-0.929154 63:-0.929038 64:-0.929046 65:-0.928839 66:-0.928639 67:-0.928454 68:-0.928295 69:-0.928052 70:-0.927716 71:-0.927592 72:-0.927269 73:-0.92702 74:-0.926722 75:-0.926566 76:-0.926442 77:-0.92625 78:-0.926138 79:-0.925943 80:-0.925696 81:-0.925641 82:-0.92538 83:-0.924874 84:-0.922352 85:-0.92017 86:-0.917972 87:-0.91586 88:-0.913504 89:-0.911349 90:-0.90975 91:-0.907918 92:-0.905922 93:-0.903939 94:-0.902053 95:-0.900317 96:-0.898549 97:-0.896849 98:-0.895117 99:-0.894333 100:-0.892977 101:-0.891611 102:-0.890239 103:-0.889089 104:-0.89019 
541.4748417394395 1:-0.910287 2:-0.839958 3:-0.883982 4:-0.911074 5:-0.764109 6:-0.793075 7:-0.774281 8:-0.768868 9:-0.763997 10:-0.765836 11:-0.764517 12:-0.797999 13:-0.823553 14:-0.836783 15:-0.849663 16:-0.853347 17:-0.84576 18:-0.841275 19:-0.835112 20:-0.831047 21:-0.837324 22:-0.849297 23:-0.859206 24:-0.86877 25:-0.869807 26:-0.870743 27:-0.872587 28:-0.876024 29:-0.879571 30:-0.883462 31:-0.886265 32:-0.888951 33:-0.891557 34:-0.893945 35:-0.896568 36:-0.898373 37:-0.900727 38:-0.902993 39:-0.907199 40:-0.91056 41:-0.911929 42:-0.912276 43:-0.91242 44:-0.912836 45:-0.913052 46:-0.913226 47:-0.914051 48:-0.914084 49:-0.913976 50:-0.913994 51:-0.913848 52:-0.914005 53:-0.914494 54:-0.914427 55:-0.914195 56:-0.914184 57:-0.914143 58:-0.913928 59:-0.913712 60:-0.913954 61:-0.913751 62:-0.91355 63:-0.913562 64:-0.913383 65:-0.913196 66:-0.913194 67:-0.913148 68:-0.912967 69:-0.912958 70:-0.912773 71:-0.912761 72:-0.912598 73:-0.912586 74:-0.912584 75:-0.912587 76:-0.912628 77:-0.912468 78:-0.912472 79:-0.912298 80:-0.912166 81:-0.912359 82:-0.912348 83:-0.911917 84:-0.909666 85:-0.907644 86:-0.905578 87:-0.903431 88:-0.901311 89:-0.899565 90:-0.897852 91:-0.895978 92:-0.894354 93:-0.89265 94:-0.890956 95:-0.889419 96:-0.887528 97:-0.886017 98:-0.884305 99:-0.8829 100:-0.881791 101:-0.880349 102:-0.879234 103:-0.87832 104:-0.879597 
1543.287111209316 1:-0.908733 2:-0.835774 3:-0.894074 4:-0.910637 5:-0.746892 6:-0.786809 7:-0.77088 8:-0.766853 9:-0.76242 10:-0.762425 11:-0.762247 12:-0.795455 13:-0.821779 14:-0.835618 15:-0.849023 16:-0.853235 17:-0.84722 18:-0.846312 19:-0.839376 20:-0.835189 21:-0.841508 22:-0.853028 23:-0.861715 24:-0.868495 25:-0.869984 26:-0.870813 27:-0.872567 28:-0.876012 29:-0.87989 30:-0.88364 31:-0.886779 32:-0.889129 33:-0.891891 34:-0.894427 35:-0.89667 36:-0.898905 37:-0.900775 38:-0.90489 39:-0.908194 40:-0.910775 41:-0.911411 42:-0.911474 43:-0.91223 44:-0.913242 45:-0.91361 46:-0.913412 47:-0.913271 48:-0.913284 49:-0.913096 50:-0.913176 51:-0.913551 52:-0.913374 53:-0.913161 54:-0.913169 55:-0.913145 56:-0.913032 57:-0.913016 58:-0.912866 59:-0.912673 60:-0.912661 61:-0.912721 62:-0.91254 63:-0.912455 64:-0.91245 65:-0.912281 66:-0.912492 67:-0.912337 68:-0.912494 69:-0.912318 70:-0.912378 71:-0.912512 72:-0.912364 73:-0.912449 74:-0.912288 75:-0.912264 76:-0.912108 77:-0.912082 78:-0.911938 79:-0.911987 80:-0.911862 81:-0.911999 82:-0.911847 83:-0.911453 84:-0.909195 85:-0.90696 86:-0.904734 87:-0.902899 88:-0.90072 89:-0.898917 90:-0.897006 91:-0.895197 92:-0.89313 93:-0.891596 94:-0.889704 95:-0.888207 96:-0.886332 97:-0.885144 98:-0.883352 99:-0.882138 100:-0.880667 101:-0.879669 102:-0.878234 103:-0.877394 104:-0.878534 
-2036.127825273178 1:-0.953881 2:-0.84205 3:-0.846139 4:-0.94578 5:-0.795913 6:-0.810317 7:-0.83886 8:-0.833354 9:-0.825266 10:-0.819083 11:-0.814548 12:-0.844862 13:-0.869303 14:-0.881946 15:-0.893918 16:-0.896059 17:-0.887504 18:-0.882452 19:-0.876019 20:-0.870934 21:-0.876925 22:-0.888223 23:-0.896677 24:-0.90326 25:-0.905303 26:-0.906117 27:-0.907589 28:-0.910996 29:-0.914481 30:-0.917697 31:-0.920758 32:-0.92401 33:-0.931128 34:-0.937754 35:-0.941526 36:-0.942993 37:-0.944576 38:-0.947988 39:-0.950453 40:-0.951477 41:-0.951748 42:-0.951868 43:-0.951861 44:-0.952283 45:-0.955229 46:-0.955104 47:-0.954726 48:-0.95471 49:-0.954345 50:-0.95425 51:-0.953917 52:-0.953529 53:-0.953404 54:-0.953921 55:-0.954237 56:-0.954015 57:-0.953869 58:-0.953748 59:-0.953418 60:-0.953106 61:-0.953175 62:-0.952929 63:-0.953065 64:-0.953311 65:-0.954971 66:-0.954663 67:-0.954612 68:-0.954443 69:-0.954307 70:-0.954 71:-0.953699 72:-0.953407 73:-0.95329 74:-0.953078 75:-0.95288 76:-0.952624 77:-0.952377 78:-0.952293 79:-0.952038 80:-0.952018 81:-0.952599 82:-0.952717 83:-0.952041 84:-0.949888 85:-0.947514 86:-0.945129 87:-0.942856 88:-0.9406 89:-0.938693 90:-0.937093 91:-0.93511 92:-0.932927 93:-0.930928 94:-0.929051 95:-0.927576 96:-0.925838 97:-0.924122 98:-0.922422 99:-0.92113 100:-0.919982 101:-0.918985 102:-0.917449 103:-0.916171 104:-0.917201 
-559.637590624938 1:-0.951745 2:-0.817992 3:-0.876691 4:-0.954264 5:-0.84546 6:-0.857159 7:-0.851222 8:-0.848343 9:-0.841233 10:-0.834007 11:-0.828748 12:-0.862589 13:-0.887785 14:-0.898837 15:-0.91618 16:-0.921315 17:-0.910897 18:-0.904995 19:-0.896768 20:-0.891545 21:-0.897005 22:-0.907868 23:-0.916148 24:-0.922356 25:-0.922964 26:-0.923339 27:-0.924529 28:-0.927738 29:-0.934302 30:-0.937188 31:-0.941136 32:-0.943173 33:-0.945873 34:-0.948218 35:-0.950204 36:-0.951738 37:-0.953737 38:-0.95545 39:-0.957342 40:-0.95848 41:-0.959062 42:-0.959121 43:-0.959204 44:-0.959571 45:-0.959533 46:-0.959614 47:-0.959846 48:-0.960167 49:-0.960021 50:-0.959884 51:-0.959987 52:-0.962004 53:-0.962074 54:-0.961706 55:-0.961673 56:-0.961381 57:-0.961084 58:-0.960899 59:-0.960686 60:-0.960696 61:-0.960729 62:-0.960664 63:-0.960658 64:-0.960425 65:-0.960834 66:-0.960612 67:-0.960675 68:-0.96044 69:-0.960199 70:-0.959964 71:-0.959802 72:-0.959712 73:-0.959558 74:-0.959513 75:-0.959339 76:-0.959144 77:-0.959079 78:-0.958894 79:-0.958694 80:-0.958633 81:-0.958432 82:-0.958249 83:-0.957916 84:-0.955427 85:-0.953659 86:-0.951323 87:-0.949076 88:-0.946804 89:-0.944674 90:-0.942748 91:-0.940817 92:-0.938831 93:-0.937383 94:-0.93542 95:-0.934011 96:-0.932393 97:-0.930997 98:-0.929552 99:-0.928142 100:-0.926939 101:-0.92554 102:-0.924128 103:-0.922864 104:-0.923951 
-2048 1:-0.929802 2:-0.906904 3:-0.938673 4:-0.916539 5:-0.764086 6:-0.780757 7:-0.778996 8:-0.77431 9:-0.770095 10:-0.770233 11:-0.771063 12:-0.803289 13:-0.82929 14:-0.843507 15:-0.856617 16:-0.860776 17:-0.852495 18:-0.848937 19:-0.842112 20:-0.838436 21:-0.845725 22:-0.858526 23:-0.867766 24:-0.874745 25:-0.87593 26:-0.877093 27:-0.878762 28:-0.8828 29:-0.886405 30:-0.889979 31:-0.892883 32:-0.895339 33:-0.898198 34:-0.900676 35:-0.903011 36:-0.90526 37:-0.907279 38:-0.909223 39:-0.911061 40:-0.912583 41:-0.913236 42:-0.913486 43:-0.913833 44:-0.914164 45:-0.915054 46:-0.915033 47:-0.915225 48:-0.915194 49:-0.915475 50:-0.915457 51:-0.915436 52:-0.915575 53:-0.915499 54:-0.9155 55:-0.915515 56:-0.91544 57:-0.915548 58:-0.915475 59:-0.915599 60:-0.91553 61:-0.915662 62:-0.915584 63:-0.915521 64:-0.915725 65:-0.915724 66:-0.915659 67:-0.915777 68:-0.915803 69:-0.915712 70:-0.915797 71:-0.915704 72:-0.915612 73:-0.915522 74:-0.915667 75:-0.915593 76:-0.915673 77:-0.915747 78:-0.915674 79:-0.915701 80:-0.915642 81:-0.915709 82:-0.915624 83:-0.916183 84:-0.913938 85:-0.911749 86:-0.909543 87:-0.907591 88:-0.905528 89:-0.90365 90:-0.901827 91:-0.900007 92:-0.897982 93:-0.896265 94:-0.894414 95:-0.892934 96:-0.891222 97:-0.88971 98:-0.88798 99:-0.886555 100:-0.885009 101:-0.883627 102:-0.882144 103:-0.880783 104:-0.881798 
-1564.937852366321 1:-0.93155 2:-0.808577 3:-0.840411 4:-0.928426 5:-0.765652 6:-0.786572 7:-0.777658 8:-0.788666 9:-0.794056 10:-0.810398 11:-0.806193 12:-0.835232 13:-0.860116 14:-0.871382 15:-0.882628 16:-0.884691 17:-0.877207 18:-0.871773 19:-0.864139 20:-0.858984 21:-0.864846 22:-0.876004 23:-0.88458 24:-0.890816 25:-0.891751 26:-0.891845 27:-0.893638 28:-0.896933 29:-0.900597 30:-0.903628 31:-0.906774 32:-0.90913 33:-0.911886 34:-0.914128 35:-0.916389 36:-0.918202 37:-0.924079 38:-0.930693 39:-0.935918 40:-0.936946 41:-0.937599 42:-0.93814 43:-0.938604 44:-0.938469 45:-0.938475 46:-0.938039 47:-0.937851 48:-0.937494 49:-0.937615 50:-0.938324 51:-0.937943 52:-0.937503 53:-0.937101 54:-0.937115 55:-0.937293 56:-0.936914 57:-0.936792 58:-0.939139 59:-0.939176 60:-0.939669 61:-0.939793 62:-0.940244 63:-0.940058 64:-0.939776 65:-0.939406 66:-0.93924 67:-0.939853 68:-0.940159 69:-0.939785 70:-0.940118 71:-0.940609 72:-0.940578 73:-0.940413 74:-0.94013 75:-0.939796 76:-0.939531 77:-0.939211 78:-0.939088 79:-0.938856 80:-0.938886 81:-0.938559 82:-0.938406 83:-0.937685 84:-0.935192 85:-0.932932 86:-0.930519 87:-0.928199 88:-0.926036 89:-0.92397 90:-0.921864 91:-0.919994 92:-0.917791 93:-0.915921 94:-0.913899 95:-0.912279 96:-0.910424 97:-0.908692 98:-0.906869 99:-0.905187 100:-0.903493 101:-0.901878 102:-0.900474 103:-0.898929 104:-0.89991 
-1240.700945885774 1:-0.942424 2:-0.833682 3:-0.846367 4:-0.923678 5:-0.774 6:-0.811119 7:-0.833134 8:-0.813468 9:-0.803479 10:-0.796683 11:-0.792312 12:-0.824003 13:-0.84808 14:-0.859593 15:-0.872481 16:-0.874518 17:-0.866432 18:-0.861161 19:-0.853634 20:-0.848606 21:-0.854522 22:-0.868896 23:-0.884532 24:-0.899355 25:-0.907851 26:-0.913031 27:-0.913412 28:-0.915635 29:-0.918028 30:-0.920674 31:-0.922957 32:-0.924566 33:-0.926339 34:-0.928348 35:-0.929869 36:-0.93098 37:-0.932565 38:-0.933834 39:-0.935034 40:-0.935832 41:-0.936214 42:-0.936202 43:-0.936008 44:-0.936112 45:-0.936109 46:-0.935896 47:-0.936059 48:-0.939537 49:-0.940025 50:-0.939536 51:-0.939276 52:-0.93895 53:-0.938612 54:-0.938043 55:-0.937777 56:-0.937301 57:-0.936815 58:-0.936588 59:-0.936312 60:-0.935899 61:-0.935497 62:-0.935302 63:-0.935315 64:-0.935125 65:-0.934757 66:-0.934633 67:-0.935075 68:-0.935208 69:-0.935111 70:-0.935084 71:-0.934794 72:-0.934444 73:-0.934103 74:-0.933781 75:-0.933473 76:-0.933328 77:-0.933346 78:-0.933056 79:-0.932751 80:-0.932482 81:-0.932327 82:-0.932478 83:-0.931891 84:-0.929339 85:-0.926962 86:-0.924712 87:-0.922415 88:-0.920038 89:-0.917862 90:-0.915781 91:-0.913804 92:-0.912002 93:-0.910004 94:-0.908004 95:-0.906456 96:-0.904756 97:-0.903042 98:-0.901247 99:-0.899713 100:-0.898081 101:-0.896388 102:-0.894735 103:-0.893276 104:-0.894718 
-1021.374604757159 1:-0.949318 2:-0.873431 3:-0.92109 4:-0.953292 5:-0.793167 6:-0.811402 7:-0.831382 8:-0.826846 9:-0.821027 10:-0.816835 11:-0.81556 12:-0.848365 13:-0.874791 14:-0.892391 15:-0.905391 16:-0.909492 17:-0.901419 18:-0.896344 19:-0.888804 20:-0.884487 21:-0.890442 22:-0.901736 23:-0.910648 24:-0.917426 25:-0.918351 26:-0.919419 27:-0.920854 28:-0.924241 29:-0.92807 30:-0.931257 31:-0.934211 32:-0.936552 33:-0.939454 34:-0.941949 35:-0.944514 36:-0.94628 37:-0.948421 38:-0.950281 39:-0.95217 40:-0.953496 41:-0.954299 42:-0.954441 43:-0.95469 44:-0.955041 45:-0.95527 46:-0.955168 47:-0.955663 48:-0.955554 49:-0.955651 50:-0.95555 51:-0.955456 52:-0.955383 53:-0.956443 54:-0.956748 55:-0.956754 56:-0.957022 57:-0.956925 58:-0.956766 59:-0.956609 60:-0.957034 61:-0.95688 62:-0.956729 63:-0.956784 64:-0.956759 65:-0.956616 66:-0.956557 67:-0.956709 68:-0.956635 69:-0.956551 70:-0.956506 71:-0.956718 72:-0.957349 73:-0.957189 74:-0.957104 75:-0.95703 76:-0.956891 77:-0.956818 78:-0.956689 79:-0.956541 80:-0.956476 81:-0.956444 82:-0.956481 83:-0.95603 84:-0.953646 85:-0.951543 86:-0.949257 87:-0.947113 88:-0.944887 89:-0.942803 90:-0.940869 91:-0.938981 92:-0.937193 93:-0.935528 94:-0.933657 95:-0.932038 96:-0.930136 97:-0.928599 98:-0.926829 99:-0.925184 100:-0.923663 101:-0.922416 102:-0.920965 103:-0.919589 104:-0.920239 
-615.3684641864944 1:-0.960678 2:-0.846234 3:-0.864703 4:-0.961963 5:-0.819304 6:-0.810937 7:-0.802905 8:-0.801684 9:-0.800145 10:-0.800415 11:-0.802279 12:-0.837514 13:-0.865816 14:-0.879656 15:-0.895552 16:-0.906898 17:-0.905068 18:-0.90649 19:-0.901799 20:-0.89957 21:-0.910526 22:-0.922231 23:-0.929942 24:-0.936092 25:-0.936395 26:-0.936065 27:-0.937409 28:-0.94035 29:-0.94377 30:-0.947014 31:-0.949864 32:-0.952285 33:-0.954531 34:-0.956764 35:-0.958715 36:-0.960212 37:-0.961832 38:-0.963738 39:-0.965278 40:-0.966406 41:-0.967 42:-0.96696 43:-0.967028 44:-0.967321 45:-0.967269 46:-0.969047 47:-0.97097 48:-0.971684 49:-0.97134 50:-0.971113 51:-0.971549 52:-0.972187 53:-0.971814 54:-0.971394 55:-0.97113 56:-0.970795 57:-0.970459 58:-0.970148 59:-0.970091 60:-0.969799 61:-0.969516 62:-0.96924 63:-0.969109 64:-0.968878 65:-0.968626 66:-0.968555 67:-0.968335 68:-0.968123 69:-0.967874 70:-0.967632 71:-0.967596 72:-0.967363 73:-0.967275 74:-0.967113 75:-0.967592 76:-0.967569 77:-0.967363 78:-0.967226 79:-0.967417 80:-0.96787 81:-0.967922 82:-0.967884 83:-0.967238 84:-0.964768 85:-0.963099 86:-0.961695 87:-0.959397 88:-0.957076 89:-0.954898 90:-0.952979 91:-0.951002 92:-0.948824 93:-0.94683 94:-0.944931 95:-0.943189 96:-0.941336 97:-0.939772 98:-0.937951 99:-0.93633 100:-0.934961 101:-0.933622 102:-0.932224 103:-0.931071 104:-0.932513 
-1088.501038688334 1:-0.914947 2:-0.819038 3:-0.846362 4:-0.907154 5:-0.761602 6:-0.83334 7:-0.842899 8:-0.817778 9:-0.804513 10:-0.795541 11:-0.789631 12:-0.819008 13:-0.84223 14:-0.853511 15:-0.865181 16:-0.871501 17:-0.863457 18:-0.857557 19:-0.849447 20:-0.843923 21:-0.849637 22:-0.860382 23:-0.868363 24:-0.874732 25:-0.881301 26:-0.890452 27:-0.896844 28:-0.89903 29:-0.90174 30:-0.904073 31:-0.906233 32:-0.907998 33:-0.90974 34:-0.911785 35:-0.913271 36:-0.914922 37:-0.916395 38:-0.917755 39:-0.919639 40:-0.921374 41:-0.921456 42:-0.921355 43:-0.921218 44:-0.921204 45:-0.920978 46:-0.920663 47:-0.920096 48:-0.919802 49:-0.919424 50:-0.91932 51:-0.918884 52:-0.918518 53:-0.918339 54:-0.917927 55:-0.917678 56:-0.917438 57:-0.916998 58:-0.916864 59:-0.916478 60:-0.91636 61:-0.916083 62:-0.916186 63:-0.917422 64:-0.917071 65:-0.917854 66:-0.917503 67:-0.917307 68:-0.917103 69:-0.916754 70:-0.916551 71:-0.916351 72:-0.916223 73:-0.915899 74:-0.915724 75:-0.915559 76:-0.915265 77:-0.915168 78:-0.914893 79:-0.91478 80:-0.91459 81:-0.91441 82:-0.914259 83:-0.913577 84:-0.911231 85:-0.908888 86:-0.906695 87:-0.90454 88:-0.902601 89:-0.900459 90:-0.898502 91:-0.896599 92:-0.894541 93:-0.892668 94:-0.890691 95:-0.889061 96:-0.887106 97:-0.88556 98:-0.883693 99:-0.882135 100:-0.88057 101:-0.878898 102:-0.877447 103:-0.876197 104:-0.87792 
-243.2361294175737 1:-0.915142 2:-0.872385 3:-0.915434 4:-0.893059 5:-0.743071 6:-0.779258 7:-0.769729 8:-0.759722 9:-0.75638 10:-0.753332 11:-0.75313 12:-0.784255 13:-0.811577 14:-0.823857 15:-0.836362 16:-0.840262 17:-0.832346 18:-0.828491 19:-0.821332 20:-0.816731 21:-0.823775 22:-0.837351 23:-0.846294 24:-0.852728 25:-0.854273 26:-0.855579 27:-0.857067 28:-0.860711 29:-0.864331 30:-0.867492 31:-0.870252 32:-0.872736 33:-0.875708 34:-0.878049 35:-0.880517 36:-0.882405 37:-0.884521 38:-0.886693 39:-0.888418 40:-0.890019 41:-0.89058 42:-0.89105 43:-0.891472 44:-0.891831 45:-0.891964 46:-0.892156 47:-0.891999 48:-0.892172 49:-0.892369 50:-0.892284 51:-0.89221 52:-0.892429 53:-0.892484 54:-0.892388 55:-0.892266 56:-0.892367 57:-0.892199 58:-0.892084 59:-0.892247 60:-0.892344 61:-0.89242 62:-0.892457 63:-0.892352 64:-0.892444 65:-0.892327 66:-0.892407 67:-0.892488 68:-0.892473 69:-0.892348 70:-0.892431 71:-0.892303 72:-0.892347 73:-0.892319 74:-0.89237 75:-0.892357 76:-0.893211 77:-0.893505 78:-0.893385 79:-0.89339 80:-0.893445 81:-0.893311 82:-0.893184 83:-0.892819 84:-0.890749 85:-0.888839 86:-0.886641 87:-0.884641 88:-0.882432 89:-0.880422 90:-0.878703 91:-0.876879 92:-0.875142 93:-0.873353 94:-0.871697 95:-0.870082 96:-0.868365 97:-0.867378 98:-0.86584 99:-0.864472 100:-0.863004 101:-0.861516 102:-0.859973 103:-0.858598 104:-0.859354 
-1078.386628512625 1:-0.961843 2:-0.84728 3:-0.880193 4:-0.960953 5:-0.810887 6:-0.806803 7:-0.816724 8:-0.833962 9:-0.844365 10:-0.839098 11:-0.834684 12:-0.864899 13:-0.889244 14:-0.908057 15:-0.919365 16:-0.920866 17:-0.911893 18:-0.906098 19:-0.898747 20:-0.893276 21:-0.899314 22:-0.910452 23:-0.918739 24:-0.925181 25:-0.925995 26:-0.927353 27:-0.928677 28:-0.931969 29:-0.93535 30:-0.939655 31:-0.942506 32:-0.944751 33:-0.947249 34:-0.949561 35:-0.951735 36:-0.953446 37:-0.955263 38:-0.957086 39:-0.958809 40:-0.960108 41:-0.960632 42:-0.960749 43:-0.960974 44:-0.961477 45:-0.961567 46:-0.961992 47:-0.961986 48:-0.964006 49:-0.965974 50:-0.965977 51:-0.965871 52:-0.965608 53:-0.965382 54:-0.965352 55:-0.965853 56:-0.965665 57:-0.965509 58:-0.96529 59:-0.965367 60:-0.966078 61:-0.965936 62:-0.965783 63:-0.965734 64:-0.965534 65:-0.965769 66:-0.966075 67:-0.966188 68:-0.965978 69:-0.966065 70:-0.965849 71:-0.965842 72:-0.966033 73:-0.966086 74:-0.965885 75:-0.965698 76:-0.965886 77:-0.965702 78:-0.965586 79:-0.965392 80:-0.965218 81:-0.965137 82:-0.964966 83:-0.964357 84:-0.961869 85:-0.959695 86:-0.957924 87:-0.955676 88:-0.953726 89:-0.951685 90:-0.949648 91:-0.947764 92:-0.945626 93:-0.943669 94:-0.941709 95:-0.940004 96:-0.938187 97:-0.936744 98:-0.935254 99:-0.934059 100:-0.932687 101:-0.931296 102:-0.929963 103:-0.92925 104:-0.930536 
-965.9101848664295 1:-0.92922 2:-0.823222 3:-0.8777 4:-0.919711 5:-0.767747 6:-0.767737 7:-0.778201 8:-0.780305 9:-0.783345 10:-0.781119 11:-0.779933 12:-0.811652 13:-0.837892 14:-0.850248 15:-0.863717 16:-0.866302 17:-0.857543 18:-0.85404 19:-0.846843 20:-0.842126 21:-0.848804 22:-0.860791 23:-0.869294 24:-0.876007 25:-0.87765 26:-0.878093 27:-0.880184 28:-0.883667 29:-0.887218 30:-0.890492 31:-0.893782 32:-0.896907 33:-0.899538 34:-0.902338 35:-0.904674 36:-0.906856 37:-0.908745 38:-0.910632 39:-0.912416 40:-0.913759 41:-0.914907 42:-0.917137 43:-0.918323 44:-0.918529 45:-0.918905 46:-0.91878 47:-0.918925 48:-0.918797 49:-0.919504 50:-0.919474 51:-0.92047 52:-0.920275 53:-0.920433 54:-0.920306 55:-0.920125 56:-0.920172 57:-0.919965 58:-0.919799 59:-0.919633 60:-0.919843 61:-0.919687 62:-0.919686 63:-0.919902 64:-0.92079 65:-0.920958 66:-0.921908 67:-0.921736 68:-0.921625 69:-0.921436 70:-0.921251 71:-0.921068 72:-0.92089 73:-0.921048 74:-0.920883 75:-0.920727 76:-0.920729 77:-0.920773 78:-0.920625 79:-0.920457 80:-0.920395 81:-0.920448 82:-0.920443 83:-0.920015 84:-0.917796 85:-0.915929 86:-0.914176 87:-0.912657 88:-0.910921 89:-0.909199 90:-0.907924 91:-0.906584 92:-0.904574 93:-0.902694 94:-0.900759 95:-0.899532 96:-0.897738 97:-0.896552 98:-0.895094 99:-0.893469 100:-0.892162 101:-0.890557 102:-0.88944 103:-0.887908 104:-0.888762 
-2048 1:-0.944658 2:-0.848326 3:-0.880702 4:-0.938532 5:-0.790736 6:-0.786057 7:-0.796565 8:-0.812369 9:-0.804219 10:-0.800807 11:-0.798215 12:-0.830262 13:-0.860575 14:-0.87452 15:-0.887489 16:-0.889723 17:-0.880595 18:-0.8755 19:-0.868172 20:-0.864986 21:-0.871366 22:-0.882821 23:-0.891857 24:-0.8984 25:-0.899576 26:-0.900116 27:-0.901813 28:-0.905233 29:-0.908729 30:-0.914062 31:-0.918079 32:-0.920344 33:-0.923266 34:-0.926341 35:-0.928863 36:-0.930586 37:-0.93307 38:-0.934842 39:-0.936883 40:-0.938121 41:-0.938607 42:-0.939053 43:-0.939237 44:-0.939702 45:-0.939758 46:-0.939603 47:-0.939415 48:-0.939526 49:-0.93938 50:-0.939246 51:-0.939122 52:-0.93917 53:-0.939 54:-0.938911 55:-0.938747 56:-0.93859 57:-0.93888 58:-0.940053 59:-0.939959 60:-0.939794 61:-0.939631 62:-0.939669 63:-0.939555 64:-0.939601 65:-0.939448 66:-0.939306 67:-0.93935 68:-0.939379 69:-0.939241 70:-0.939936 71:-0.939767 72:-0.939808 73:-0.93986 74:-0.940438 75:-0.940283 76:-0.940128 77:-0.9401 78:-0.94053 79:-0.941329 80:-0.941824 81:-0.941844 82:-0.942105 83:-0.941644 84:-0.939284 85:-0.937528 86:-0.935351 87:-0.933189 88:-0.931155 89:-0.929479 90:-0.927454 91:-0.925531 92:-0.923406 93:-0.921766 94:-0.920081 95:-0.918505 96:-0.916834 97:-0.915214 98:-0.913486 99:-0.911808 100:-0.910173 101:-0.908681 102:-0.907628 103:-0.906631 104:-0.907712 
-2048 1:-0.94592 2:-0.870293 3:-0.907337 4:-0.932118 5:-0.778042 6:-0.79071 7:-0.793776 8:-0.786953 9:-0.783805 10:-0.782392 11:-0.78337 12:-0.816193 13:-0.842422 14:-0.855703 15:-0.869026 16:-0.873323 17:-0.866299 18:-0.861917 19:-0.855162 20:-0.850802 21:-0.85732 22:-0.86905 23:-0.87851 24:-0.885427 25:-0.88678 26:-0.887465 27:-0.890288 28:-0.89397 29:-0.898958 30:-0.902358 31:-0.90534 32:-0.907869 33:-0.910638 34:-0.913188 35:-0.91559 36:-0.917536 37:-0.920254 38:-0.922584 39:-0.924741 40:-0.926165 41:-0.926961 42:-0.927223 43:-0.927817 44:-0.928214 45:-0.928431 46:-0.928704 47:-0.928915 48:-0.928895 49:-0.929011 50:-0.928995 51:-0.929012 52:-0.92914 53:-0.929208 54:-0.929173 55:-0.929105 56:-0.92904 57:-0.929163 58:-0.929099 59:-0.929031 60:-0.929179 61:-0.929117 62:-0.929251 63:-0.929293 64:-0.929237 65:-0.930338 66:-0.930624 67:-0.930972 68:-0.931089 69:-0.93098 70:-0.931011 71:-0.931306 72:-0.931786 73:-0.932757 74:-0.932768 75:-0.932813 76:-0.932693 77:-0.932734 78:-0.932622 79:-0.932543 80:-0.932442 81:-0.932451 82:-0.932333 83:-0.931791 84:-0.929398 85:-0.927423 86:-0.925739 87:-0.923982 88:-0.921787 89:-0.920796 90:-0.919047 91:-0.917274 92:-0.915195 93:-0.913425 94:-0.911522 95:-0.909993 96:-0.908231 97:-0.906609 98:-0.904809 99:-0.903467 100:-0.902196 101:-0.900863 102:-0.899711 103:-0.898537 104:-0.899558 
-1277.152466509913 1:-0.931938 2:-0.82636 3:-0.84043 4:-0.906749 5:-0.75226 6:-0.833096 7:-0.800616 8:-0.785864 9:-0.776209 10:-0.77453 11:-0.770963 12:-0.80262 13:-0.841472 14:-0.869836 15:-0.879203 16:-0.879211 17:-0.869793 18:-0.863018 19:-0.854947 20:-0.849797 21:-0.854874 22:-0.86506 23:-0.872532 24:-0.879035 25:-0.883854 26:-0.891621 27:-0.891959 28:-0.894663 29:-0.897159 30:-0.899458 31:-0.901843 32:-0.903407 33:-0.905276 34:-0.907026 35:-0.911188 36:-0.912316 37:-0.914194 38:-0.915462 39:-0.916659 40:-0.917449 41:-0.917528 42:-0.917233 43:-0.91736 44:-0.917194 45:-0.916935 46:-0.916837 47:-0.917005 48:-0.916561 49:-0.916136 50:-0.916044 51:-0.915852 52:-0.915674 53:-0.915975 54:-0.917117 55:-0.919526 56:-0.91931 57:-0.92034 58:-0.92057 59:-0.920185 60:-0.919742 61:-0.91931 62:-0.918888 63:-0.918881 64:-0.918492 65:-0.918103 66:-0.917735 67:-0.917378 68:-0.917018 69:-0.916658 70:-0.916481 71:-0.916648 72:-0.916393 73:-0.916055 74:-0.915737 75:-0.915431 76:-0.915288 77:-0.914992 78:-0.915062 79:-0.914905 80:-0.914643 81:-0.914333 82:-0.914057 83:-0.913367 84:-0.911277 85:-0.909311 86:-0.90694 87:-0.904662 88:-0.902305 89:-0.900283 90:-0.898349 91:-0.896636 92:-0.894469 93:-0.892487 94:-0.890503 95:-0.889017 96:-0.887054 97:-0.885495 98:-0.883957 99:-0.882367 100:-0.880714 101:-0.879538 102:-0.877937 103:-0.876811 104:-0.877872 
-86.21540638673692 1:-0.920773 2:-0.845188 3:-0.888454 4:-0.899677 5:-0.848032 6:-0.835153 7:-0.811069 8:-0.796762 9:-0.784979 10:-0.779247 11:-0.77441 12:-0.803782 13:-0.828985 14:-0.840129 15:-0.855292 16:-0.858662 17:-0.848993 18:-0.844267 19:-0.836405 20:-0.831843 21:-0.838163 22:-0.848964 23:-0.857605 24:-0.863771 25:-0.865646 26:-0.868327 27:-0.869845 28:-0.872917 29:-0.876545 30:-0.879883 31:-0.88239 32:-0.884476 33:-0.886836 34:-0.888993 35:-0.892028 36:-0.893899 37:-0.89597 38:-0.897764 39:-0.899331 40:-0.900785 41:-0.901198 42:-0.901742 43:-0.902156 44:-0.902263 45:-0.902268 46:-0.90263 47:-0.902625 48:-0.902411 49:-0.902453 50:-0.902261 51:-0.902468 52:-0.902206 53:-0.902264 54:-0.901984 55:-0.902 56:-0.901791 57:-0.901546 58:-0.901789 59:-0.901795 60:-0.901608 61:-0.901422 62:-0.90158 63:-0.901407 64:-0.901241 65:-0.901442 66:-0.901409 67:-0.901318 68:-0.901143 69:-0.900964 70:-0.901136 71:-0.900955 72:-0.900779 73:-0.900912 74:-0.900915 75:-0.900911 76:-0.90091 77:-0.900779 78:-0.900631 79:-0.900644 80:-0.900518 81:-0.900508 82:-0.900355 83:-0.90008 84:-0.897734 85:-0.895653 86:-0.893494 87:-0.891343 88:-0.889244 89:-0.887379 90:-0.885436 91:-0.883587 92:-0.881735 93:-0.879963 94:-0.878386 95:-0.87679 96:-0.875024 97:-0.873798 98:-0.872487 99:-0.870912 100:-0.869424 101:-0.868508 102:-0.867249 103:-0.866114 104:-0.867737 
-1936.123637722338 1:-0.93524 2:-0.870293 3:-0.891697 4:-0.927366 5:-0.776034 6:-0.825101 7:-0.803046 8:-0.793584 9:-0.787102 10:-0.78563 11:-0.783778 12:-0.818345 13:-0.843823 14:-0.860083 15:-0.872498 16:-0.876022 17:-0.867158 18:-0.862754 19:-0.855557 20:-0.851512 21:-0.858039 22:-0.869409 23:-0.877946 24:-0.885166 25:-0.886571 26:-0.886999 27:-0.888621 28:-0.893026 29:-0.898847 30:-0.902025 31:-0.905225 32:-0.908219 33:-0.910773 34:-0.913505 35:-0.915706 36:-0.917674 37:-0.919511 38:-0.921619 39:-0.923679 40:-0.924966 41:-0.925511 42:-0.926067 43:-0.926305 44:-0.926531 45:-0.926927 46:-0.926819 47:-0.926826 48:-0.926719 49:-0.926871 50:-0.926816 51:-0.926727 52:-0.926565 53:-0.926667 54:-0.926545 55:-0.92656 56:-0.926431 57:-0.926274 58:-0.926367 59:-0.926443 60:-0.926327 61:-0.926211 62:-0.92641 63:-0.926301 64:-0.926197 65:-0.926235 66:-0.926132 67:-0.926214 68:-0.9261 69:-0.926151 70:-0.926028 71:-0.925905 72:-0.925953 73:-0.926166 74:-0.926136 75:-0.926193 76:-0.926292 77:-0.926965 78:-0.928956 79:-0.928873 80:-0.928865 81:-0.929127 82:-0.929202 83:-0.928626 84:-0.926392 85:-0.924334 86:-0.922134 87:-0.91995 88:-0.918056 89:-0.91656 90:-0.914573 91:-0.91304 92:-0.911046 93:-0.910537 94:-0.909467 95:-0.907774 96:-0.9059 97:-0.904247 98:-0.902529 99:-0.900931 100:-0.899306 101:-0.897783 102:-0.896182 103:-0.894659 104:-0.895686 
-2048 1:-0.934754 2:-0.828452 3:-0.886433 4:-0.931796 5:-0.778564 6:-0.783342 7:-0.792013 8:-0.789077 9:-0.785656 10:-0.784007 11:-0.783591 12:-0.816479 13:-0.842997 14:-0.856957 15:-0.874136 16:-0.877534 17:-0.869218 18:-0.865144 19:-0.858068 20:-0.853699 21:-0.860488 22:-0.871968 23:-0.881076 24:-0.888362 25:-0.890023 26:-0.890896 27:-0.895386 28:-0.899171 29:-0.902822 30:-0.906189 31:-0.909802 32:-0.912956 33:-0.915881 34:-0.918591 35:-0.921685 36:-0.923676 37:-0.928422 38:-0.930866 39:-0.932463 40:-0.935152 41:-0.936112 42:-0.936868 43:-0.937921 44:-0.939204 45:-0.939393 46:-0.939141 47:-0.939077 48:-0.938787 49:-0.938757 50:-0.938492 51:-0.938535 52:-0.938217 53:-0.938167 54:-0.937865 55:-0.937592 56:-0.937595 57:-0.937311 58:-0.937064 59:-0.937481 60:-0.937243 61:-0.937009 62:-0.936937 63:-0.936721 64:-0.936817 65:-0.93679 66:-0.93704 67:-0.93706 68:-0.936842 69:-0.936795 70:-0.936738 71:-0.93733 72:-0.937288 73:-0.937389 74:-0.937432 75:-0.937227 76:-0.937023 77:-0.936982 78:-0.937002 79:-0.936791 80:-0.937278 81:-0.93721 82:-0.937009 83:-0.936532 84:-0.934053 85:-0.931827 86:-0.929891 87:-0.928032 88:-0.925766 89:-0.92375 90:-0.921773 91:-0.919898 92:-0.91782 93:-0.916123 94:-0.914169 95:-0.912505 96:-0.910632 97:-0.909014 98:-0.907312 99:-0.905636 100:-0.904049 101:-0.902401 102:-0.90088 103:-0.899348 104:-0.900512 
-1608.886732644818 1:-0.940094 2:-0.89749 3:-0.942489 4:-0.940797 5:-0.765446 6:-0.782184 7:-0.779844 8:-0.780282 9:-0.779747 10:-0.780813 11:-0.782604 12:-0.8166 13:-0.845922 14:-0.86084 15:-0.875235 16:-0.879646 17:-0.872133 18:-0.869361 19:-0.863143 20:-0.863503 21:-0.870222 22:-0.882158 23:-0.891194 24:-0.898077 25:-0.899579 26:-0.900784 27:-0.902721 28:-0.906365 29:-0.910425 30:-0.913825 31:-0.916978 32:-0.919665 33:-0.922422 34:-0.925119 35:-0.927943 36:-0.930142 37:-0.932253 38:-0.934248 39:-0.936249 40:-0.937805 41:-0.938468 42:-0.939043 43:-0.94245 44:-0.943161 45:-0.943285 46:-0.943303 47:-0.943176 48:-0.94319 49:-0.943202 50:-0.94312 51:-0.943241 52:-0.943093 53:-0.943156 54:-0.943064 55:-0.94294 56:-0.942998 57:-0.942856 58:-0.942994 59:-0.942876 60:-0.943052 61:-0.942981 62:-0.943102 63:-0.942998 64:-0.942974 65:-0.942867 66:-0.942918 67:-0.942821 68:-0.942713 69:-0.942979 70:-0.942858 71:-0.942771 72:-0.942653 73:-0.942604 74:-0.942499 75:-0.942403 76:-0.942369 77:-0.942273 78:-0.942184 79:-0.942136 80:-0.942053 81:-0.941935 82:-0.941838 83:-0.941373 84:-0.939045 85:-0.936829 86:-0.934597 87:-0.93256 88:-0.930332 89:-0.928396 90:-0.926495 91:-0.924655 92:-0.922687 93:-0.920823 94:-0.91897 95:-0.917432 96:-0.915912 97:-0.914511 98:-0.913062 99:-0.911684 100:-0.910161 101:-0.908574 102:-0.90707 103:-0.905599 104:-0.906224 
-1474.383114350109 1:-0.942716 2:-0.883891 3:-0.91925 4:-0.927658 5:-0.773823 6:-0.809031 7:-0.802777 8:-0.800819 9:-0.795481 10:-0.798497 11:-0.796277 12:-0.826924 13:-0.852138 14:-0.864118 15:-0.876364 16:-0.879734 17:-0.870895 18:-0.866703 19:-0.859377 20:-0.854507 21:-0.860594 22:-0.871945 23:-0.880463 24:-0.888513 25:-0.889537 26:-0.889919 27:-0.89149 28:-0.895427 29:-0.898952 30:-0.902643 31:-0.905472 32:-0.907858 33:-0.910494 34:-0.913302 35:-0.915575 36:-0.917399 37:-0.919913 38:-0.921888 39:-0.923669 40:-0.925519 41:-0.926228 42:-0.926406 43:-0.92676 44:-0.927243 45:-0.927389 46:-0.927319 47:-0.927204 48:-0.927134 49:-0.927579 50:-0.927638 51:-0.927575 52:-0.927677 53:-0.927976 54:-0.92798 55:-0.927948 56:-0.928007 57:-0.927944 58:-0.928706 59:-0.929333 60:-0.929441 61:-0.929306 62:-0.929171 63:-0.929245 64:-0.929238 65:-0.929109 66:-0.929177 67:-0.929061 68:-0.929113 69:-0.929068 70:-0.929271 71:-0.929173 72:-0.929145 73:-0.929326 74:-0.92945 75:-0.929325 76:-0.929199 77:-0.929235 78:-0.929119 79:-0.929408 80:-0.929499 81:-0.929495 82:-0.929451 83:-0.929235 84:-0.926885 85:-0.924648 86:-0.922535 87:-0.92037 88:-0.918259 89:-0.916341 90:-0.914379 91:-0.912638 92:-0.910572 93:-0.908816 94:-0.906926 95:-0.905941 96:-0.90425 97:-0.902633 98:-0.901054 99:-0.899426 100:-0.898 101:-0.896395 102:-0.894829 103:-0.893432 104:-0.894293 
-2048 1:-0.919996 2:-0.833682 3:-0.892748 4:-0.912776 5:-0.746656 6:-0.778182 7:-0.768547 8:-0.764091 9:-0.760624 10:-0.761319 11:-0.762213 12:-0.796263 13:-0.823489 14:-0.839866 15:-0.8534 16:-0.856329 17:-0.848235 18:-0.844367 19:-0.838153 20:-0.834296 21:-0.840526 22:-0.851965 23:-0.861177 24:-0.868432 25:-0.87021 26:-0.871234 27:-0.873559 28:-0.877371 29:-0.881644 30:-0.884888 31:-0.88823 32:-0.890769 33:-0.893393 34:-0.896183 35:-0.89844 36:-0.900261 37:-0.902768 38:-0.904642 39:-0.906414 40:-0.908064 41:-0.909279 42:-0.909913 43:-0.910457 44:-0.911214 45:-0.912265 46:-0.91215 47:-0.913242 48:-0.914289 49:-0.914663 50:-0.914604 51:-0.915225 52:-0.915364 53:-0.915348 54:-0.915121 55:-0.914921 56:-0.915117 57:-0.915144 58:-0.914953 59:-0.914971 60:-0.915192 61:-0.915645 62:-0.916107 63:-0.916086 64:-0.916197 65:-0.916222 66:-0.916187 67:-0.916079 68:-0.91617 69:-0.91597 70:-0.915774 71:-0.91558 72:-0.915627 73:-0.915439 74:-0.915429 75:-0.915263 76:-0.915255 77:-0.915111 78:-0.91511 79:-0.914933 80:-0.914796 81:-0.914814 82:-0.914713 83:-0.914251 84:-0.911894 85:-0.909706 86:-0.907501 87:-0.90544 88:-0.903239 89:-0.901288 90:-0.899372 91:-0.897689 92:-0.89584 93:-0.893998 94:-0.892692 95:-0.891035 96:-0.889769 97:-0.888189 98:-0.886983 99:-0.885386 100:-0.883923 101:-0.882528 102:-0.881345 103:-0.880101 104:-0.880789 
-75.53394067559181 1:-0.933783 2:-0.800209 3:-0.880132 4:-0.935871 5:-0.784569 6:-0.800469 7:-0.788903 8:-0.785949 9:-0.782548 10:-0.781699 11:-0.782136 12:-0.815097 13:-0.842917 14:-0.856365 15:-0.871203 16:-0.874557 17:-0.866421 18:-0.862986 19:-0.856303 20:-0.852003 21:-0.859729 22:-0.871457 23:-0.880713 24:-0.887934 25:-0.889487 26:-0.890351 27:-0.892154 28:-0.895851 29:-0.900057 30:-0.903499 31:-0.906921 32:-0.909473 33:-0.913362 34:-0.917536 35:-0.9206 36:-0.922601 37:-0.924677 38:-0.92708 39:-0.929462 40:-0.931316 41:-0.933122 42:-0.935361 43:-0.936545 44:-0.938741 45:-0.939522 46:-0.940165 47:-0.941142 48:-0.941592 49:-0.941439 50:-0.94181 51:-0.941741 52:-0.94323 53:-0.942964 54:-0.942695 55:-0.943216 56:-0.944153 57:-0.944418 58:-0.944354 59:-0.944047 60:-0.94384 61:-0.943637 62:-0.943358 63:-0.943292 64:-0.943036 65:-0.943005 66:-0.94276 67:-0.942522 68:-0.942457 69:-0.942402 70:-0.942356 71:-0.94228 72:-0.942037 73:-0.9418 74:-0.941797 75:-0.941584 76:-0.941372 77:-0.941167 78:-0.941152 79:-0.940936 80:-0.940902 81:-0.940707 82:-0.94051 83:-0.939948 84:-0.937527 85:-0.935521 86:-0.933401 87:-0.93126 88:-0.928997 89:-0.926877 90:-0.92506 91:-0.923135 92:-0.921111 93:-0.919459 94:-0.917753 95:-0.916344 96:-0.914407 97:-0.913019 98:-0.911259 99:-0.909624 100:-0.908398 101:-0.906919 102:-0.905343 103:-0.904072 104:-0.905042 
-589.218816121175 1:-0.938249 2:-0.839958 3:-0.886997 4:-0.934659 5:-0.783063 6:-0.823709 7:-0.805399 8:-0.796362 9:-0.790719 10:-0.789056 11:-0.787689 12:-0.821575 13:-0.847406 14:-0.861242 15:-0.875233 16:-0.878185 17:-0.870535 18:-0.866253 19:-0.859299 20:-0.855852 21:-0.862167 22:-0.873725 23:-0.883139 24:-0.889908 25:-0.89176 26:-0.892276 27:-0.894157 28:-0.897738 29:-0.901744 30:-0.905091 31:-0.908026 32:-0.910997 33:-0.913708 34:-0.91697 35:-0.919407 36:-0.921277 37:-0.923644 38:-0.925579 39:-0.927408 40:-0.929053 41:-0.929685 42:-0.930157 43:-0.930588 44:-0.93089 45:-0.93141 46:-0.931368 47:-0.931283 48:-0.931448 49:-0.931401 50:-0.931562 51:-0.931526 52:-0.931416 53:-0.931518 54:-0.93155 55:-0.931462 56:-0.931599 57:-0.931519 58:-0.931437 59:-0.931351 60:-0.931521 61:-0.931441 62:-0.93136 63:-0.931522 64:-0.931451 65:-0.931372 66:-0.931524 67:-0.931453 68:-0.931492 69:-0.931488 70:-0.931393 71:-0.931298 72:-0.931406 73:-0.931312 74:-0.931393 75:-0.931943 76:-0.932119 77:-0.932577 78:-0.933442 79:-0.934721 80:-0.934609 81:-0.934574 82:-0.934504 83:-0.93493 84:-0.933123 85:-0.931007 86:-0.929113 87:-0.927159 88:-0.924886 89:-0.92305 90:-0.92144 91:-0.919552 92:-0.91756 93:-0.915649 94:-0.913833 95:-0.913063 96:-0.911447 97:-0.910103 98:-0.908938 99:-0.907345 100:-0.905951 101:-0.904493 102:-0.903387 103:-0.902477 104:-0.903389 
