svm_type c_svc
kernel_type rbf
gamma 2
nr_class 2
total_sv 18
rho 8.55579
distance 77.7493
label 92 -1
nr_sv 10 8
SV
246.9479312459374 1:-0.954852 2:-0.882845 3:-0.916829 4:-0.951973 5:-0.814741 6:-0.805365 7:-0.79968 8:-0.796464 9:-0.795478 10:-0.79542 11:-0.798557 12:-0.835766 13:-0.864271 14:-0.877707 15:-0.891018 16:-0.895231 17:-0.887057 18:-0.882615 19:-0.875875 20:-0.871462 21:-0.878048 22:-0.890511 23:-0.899743 24:-0.906721 25:-0.908071 26:-0.908729 27:-0.910555 28:-0.914291 29:-0.918613 30:-0.922529 31:-0.925569 32:-0.92815 33:-0.930965 34:-0.933567 35:-0.936364 36:-0.938472 37:-0.940518 38:-0.942555 39:-0.94448 40:-0.946184 41:-0.947615 42:-0.947911 43:-0.948285 44:-0.949352 45:-0.950172 46:-0.950537 47:-0.950478 48:-0.950448 49:-0.95042 50:-0.95114 51:-0.951276 52:-0.951169 53:-0.951177 54:-0.951031 55:-0.950944 56:-0.950863 57:-0.950764 58:-0.950902 59:-0.950862 60:-0.95079 61:-0.950718 62:-0.950696 63:-0.950776 64:-0.950712 65:-0.951398 66:-0.951819 67:-0.95181 68:-0.951788 69:-0.95182 70:-0.951919 71:-0.951811 72:-0.951707 73:-0.951605 74:-0.951676 75:-0.951622 76:-0.951598 77:-0.951864 78:-0.951851 79:-0.951807 80:-0.951724 81:-0.951613 82:-0.951519 83:-0.951111 84:-0.949457 85:-0.947576 86:-0.945489 87:-0.943375 88:-0.941178 89:-0.939123 90:-0.937163 91:-0.935355 92:-0.933291 93:-0.931469 94:-0.929644 95:-0.928006 96:-0.926206 97:-0.9246 98:-0.923304 99:-0.922408 100:-0.921231 101:-0.920113 102:-0.919243 103:-0.91817 104:-0.91916 
359.519005684463 1:-0.956891 2:-0.885983 3:-0.921479 4:-0.951763 5:-0.808341 6:-0.802294 7:-0.796246 8:-0.793909 9:-0.792578 10:-0.794482 11:-0.799252 12:-0.833145 13:-0.864293 14:-0.877589 15:-0.891325 16:-0.894579 17:-0.887166 18:-0.883177 19:-0.876406 20:-0.871964 21:-0.878528 22:-0.890972 23:-0.89986 24:-0.90804 25:-0.909875 26:-0.910454 27:-0.91221 28:-0.915882 29:-0.920069 30:-0.923495 31:-0.926926 32:-0.929464 33:-0.932448 34:-0.935005 35:-0.937411 36:-0.939347 37:-0.941718 38:-0.943923 39:-0.945813 40:-0.947265 41:-0.947947 42:-0.948519 43:-0.94888 44:-0.949393 45:-0.94961 46:-0.949608 47:-0.949571 48:-0.949827 49:-0.950188 50:-0.951105 51:-0.951832 52:-0.951716 53:-0.951714 54:-0.951559 55:-0.951643 56:-0.95155 57:-0.95144 58:-0.951439 59:-0.951351 60:-0.951271 61:-0.951353 62:-0.95127 63:-0.951197 64:-0.951356 65:-0.951647 66:-0.952278 67:-0.952191 68:-0.952165 69:-0.952055 70:-0.951948 71:-0.952014 72:-0.95194 73:-0.951836 74:-0.951871 75:-0.951785 76:-0.95176 77:-0.951831 78:-0.951748 79:-0.95179 80:-0.951769 81:-0.951658 82:-0.951787 83:-0.951606 84:-0.949752 85:-0.947571 86:-0.945374 87:-0.943262 88:-0.941014 89:-0.938977 90:-0.937058 91:-0.935201 92:-0.933139 93:-0.931459 94:-0.92957 95:-0.927934 96:-0.926112 97:-0.92491 98:-0.923996 99:-0.922642 100:-0.921154 101:-0.919546 102:-0.918459 103:-0.917624 104:-0.918661 
1136.127892520984 1:-0.953396 2:-0.884937 3:-0.916959 4:-0.950791 5:-0.802922 6:-0.799049 7:-0.793629 8:-0.791636 9:-0.791387 10:-0.791843 11:-0.797441 12:-0.83349 13:-0.861608 14:-0.875925 15:-0.889283 16:-0.8926 17:-0.884722 18:-0.88037 19:-0.8737 20:-0.870057 21:-0.876653 22:-0.888493 23:-0.898261 24:-0.905249 25:-0.906612 26:-0.907283 27:-0.909514 28:-0.913243 29:-0.917024 30:-0.920953 31:-0.924254 32:-0.926839 33:-0.929657 34:-0.933409 35:-0.935823 36:-0.937768 37:-0.940091 38:-0.942105 39:-0.944009 40:-0.945794 41:-0.94648 42:-0.94704 43:-0.947701 44:-0.948319 45:-0.948531 46:-0.948524 47:-0.948482 48:-0.948733 49:-0.949316 50:-0.949914 51:-0.949881 52:-0.949779 53:-0.949697 54:-0.949557 55:-0.949702 56:-0.949752 57:-0.949651 58:-0.949575 59:-0.949497 60:-0.949428 61:-0.9496 62:-0.949525 63:-0.949615 64:-0.950099 65:-0.950633 66:-0.950551 67:-0.950613 68:-0.950519 69:-0.950486 70:-0.950383 71:-0.950281 72:-0.950262 73:-0.950349 74:-0.950446 75:-0.950425 76:-0.950338 77:-0.950469 78:-0.95071 79:-0.950604 80:-0.950935 81:-0.951391 82:-0.951285 83:-0.950808 84:-0.948403 85:-0.946336 86:-0.94414 87:-0.941975 88:-0.939782 89:-0.937731 90:-0.935775 91:-0.934023 92:-0.931961 93:-0.930081 94:-0.928321 95:-0.926685 96:-0.92517 97:-0.92443 98:-0.923031 99:-0.921519 100:-0.919927 101:-0.91887 102:-0.917718 103:-0.916813 104:-0.91795 
0.4550246654903886 1:-0.920579 2:0.00941423 3:0.908684 4:-0.913407 5:-0.676532 6:-0.676008 7:-0.682524 8:-0.675419 9:-0.670393 10:-0.669394 11:-0.668833 12:-0.701138 13:-0.727075 14:-0.73936 15:-0.751896 16:-0.754977 17:-0.74758 18:-0.743031 19:-0.742351 20:-0.737484 21:-0.74344 22:-0.753875 23:-0.762515 24:-0.76911 25:-0.771152 26:-0.771695 27:-0.773681 28:-0.777443 29:-0.780497 30:-0.783925 31:-0.787256 32:-0.789307 33:-0.794852 34:-0.798326 35:-0.800616 36:-0.804492 37:-0.806089 38:-0.80769 39:-0.809275 40:-0.81039 41:-0.811488 42:-0.811917 43:-0.812178 44:-0.812939 45:-0.816042 46:-0.815835 47:-0.816691 48:-0.819054 49:-0.825479 50:-0.833963 51:-0.842096 52:-0.849786 53:-0.857203 54:-0.864168 55:-0.870745 56:-0.876884 57:-0.882909 58:-0.888846 59:-0.894394 60:-0.899755 61:-0.905001 62:-0.910287 63:-0.915102 64:-0.919904 65:-0.924244 66:-0.92888 67:-0.933018 68:-0.937216 69:-0.941379 70:-0.945159 71:-0.948943 72:-0.952641 73:-0.956101 74:-0.95953 75:-0.962933 76:-0.966051 77:-0.969261 78:-0.972464 79:-0.975431 80:-0.978329 81:-0.981084 82:-0.983853 83:-0.986008 84:-0.986433 85:-0.98679 86:-0.987114 87:-0.987298 88:-0.987498 89:-0.987796 90:-0.988046 91:-0.988434 92:-0.988561 93:-0.98874 94:-0.989055 95:-0.989437 96:-0.989449 97:-0.989842 98:-0.989921 99:-0.990093 100:-0.990444 101:-0.990533 102:-0.990718 103:-0.990916 104:-0.991941 
325.1947624541248 1:-0.925627 2:-0.827406 3:-0.877322 4:-0.912573 5:-0.762203 6:-0.759409 7:-0.753241 8:-0.757747 9:-0.76304 10:-0.766636 11:-0.767179 12:-0.798885 13:-0.824475 14:-0.839471 15:-0.852221 16:-0.855151 17:-0.846717 18:-0.843848 19:-0.837096 20:-0.83256 21:-0.839482 22:-0.850909 23:-0.860078 24:-0.867326 25:-0.868486 26:-0.869733 27:-0.871875 28:-0.875388 29:-0.878967 30:-0.882265 31:-0.88604 32:-0.889091 33:-0.893943 34:-0.896676 35:-0.89888 36:-0.90065 37:-0.902878 38:-0.904714 39:-0.90645 40:-0.908067 41:-0.90925 42:-0.909395 43:-0.909643 44:-0.910358 45:-0.910696 46:-0.910866 47:-0.910699 48:-0.91059 49:-0.910485 50:-0.910665 51:-0.911018 52:-0.910844 53:-0.911963 54:-0.911935 55:-0.911775 56:-0.912105 57:-0.912031 58:-0.911961 59:-0.912135 60:-0.912069 61:-0.91192 62:-0.911771 63:-0.912546 64:-0.913072 65:-0.912984 66:-0.912835 67:-0.91269 68:-0.912534 69:-0.912727 70:-0.912618 71:-0.91298 72:-0.913267 73:-0.913294 74:-0.913262 75:-0.913872 76:-0.914388 77:-0.914344 78:-0.914183 79:-0.914184 80:-0.914042 81:-0.913998 82:-0.913833 83:-0.913338 84:-0.910923 85:-0.908818 86:-0.906555 87:-0.904659 88:-0.9024 89:-0.900609 90:-0.898744 91:-0.896873 92:-0.894797 93:-0.892904 94:-0.891006 95:-0.88939 96:-0.888052 97:-0.886478 98:-0.88468 99:-0.88358 100:-0.883031 101:-0.882351 102:-0.880803 103:-0.880314 104:-0.88153 
737.2628899704372 1:-0.913491 2:-0.809623 3:-0.877414 4:-0.912298 5:-0.770274 6:-0.772784 7:-0.767152 8:-0.762695 9:-0.764007 10:-0.767741 11:-0.768438 12:-0.801273 13:-0.828732 14:-0.842275 15:-0.855166 16:-0.858203 17:-0.850194 18:-0.845441 19:-0.838609 20:-0.834236 21:-0.840649 22:-0.8525 23:-0.861488 24:-0.868656 25:-0.870059 26:-0.870711 27:-0.872696 28:-0.87759 29:-0.881275 30:-0.88534 31:-0.888532 32:-0.891231 33:-0.89379 34:-0.896727 35:-0.89892 36:-0.90164 37:-0.905343 38:-0.907347 39:-0.909737 40:-0.911976 41:-0.912422 42:-0.912597 43:-0.91299 44:-0.913136 45:-0.913176 46:-0.913332 47:-0.913209 48:-0.913348 49:-0.913277 50:-0.913117 51:-0.913069 52:-0.913131 53:-0.912937 54:-0.912849 55:-0.912868 56:-0.912775 57:-0.912559 58:-0.912559 59:-0.912551 60:-0.91239 61:-0.912391 62:-0.912374 63:-0.912238 64:-0.912249 65:-0.912095 66:-0.912103 67:-0.912247 68:-0.91221 69:-0.9125 70:-0.912586 71:-0.912418 72:-0.912322 73:-0.912327 74:-0.912373 75:-0.912382 76:-0.912234 77:-0.912521 78:-0.912381 79:-0.912402 80:-0.912352 81:-0.912458 82:-0.912885 83:-0.912601 84:-0.910303 85:-0.908487 86:-0.90691 87:-0.905781 88:-0.904093 89:-0.902142 90:-0.900221 91:-0.898458 92:-0.896433 93:-0.895457 94:-0.894007 95:-0.892549 96:-0.890965 97:-0.889307 98:-0.887613 99:-0.886066 100:-0.884691 101:-0.883094 102:-0.881578 103:-0.880075 104:-0.881245 
6.470690979323341 1:-0.908831 2:0.572176 3:1 4:-0.90541 5:-0.668101 6:-0.663396 7:-0.675073 8:-0.664751 9:-0.659592 10:-0.659847 11:-0.657718 12:-0.691738 13:-0.715817 14:-0.72892 15:-0.741266 16:-0.744257 17:-0.736845 18:-0.732113 19:-0.729878 20:-0.730166 21:-0.742112 22:-0.75403 23:-0.761408 24:-0.767058 25:-0.767038 26:-0.76761 27:-0.771779 28:-0.774931 29:-0.777448 30:-0.780195 31:-0.782143 32:-0.785435 33:-0.787807 34:-0.789857 35:-0.793252 36:-0.797049 37:-0.798488 38:-0.800359 39:-0.803762 40:-0.806426 41:-0.806704 42:-0.808612 43:-0.808646 44:-0.809601 45:-0.810136 46:-0.810029 47:-0.81101 48:-0.81064 49:-0.816908 50:-0.825886 51:-0.834491 52:-0.842537 53:-0.850391 54:-0.857361 55:-0.864401 56:-0.871108 57:-0.877325 58:-0.883724 59:-0.889234 60:-0.894882 61:-0.900305 62:-0.905652 63:-0.910936 64:-0.915966 65:-0.92066 66:-0.925375 67:-0.929791 68:-0.934219 69:-0.93844 70:-0.942412 71:-0.945801 72:-0.949881 73:-0.953427 74:-0.957122 75:-0.960543 76:-0.9642 77:-0.967389 78:-0.970701 79:-0.973917 80:-0.976849 81:-0.979918 82:-0.9828 83:-0.984717 84:-0.985335 85:-0.98589 86:-0.986204 87:-0.98681 88:-0.987025 89:-0.987493 90:-0.987213 91:-0.987163 92:-0.987017 93:-0.98744 94:-0.987042 95:-0.986894 96:-0.987181 97:-0.987347 98:-0.987585 99:-0.987517 100:-0.987775 101:-0.98762 102:-0.988083 103:-0.988162 104:-0.989414 
35.4478658160012 1:-0.926016 2:-0.57113 3:-0.421202 4:-0.919178 5:-0.749804 6:-0.745308 7:-0.735271 8:-0.746405 9:-0.753175 10:-0.755062 11:-0.753767 12:-0.787077 13:-0.811515 14:-0.827183 15:-0.83964 16:-0.842206 17:-0.834192 18:-0.82913 19:-0.824285 20:-0.82224 21:-0.829124 22:-0.84014 23:-0.848623 24:-0.855438 25:-0.857218 26:-0.857467 27:-0.859101 28:-0.862711 29:-0.86592 30:-0.869738 31:-0.872781 32:-0.878062 33:-0.880429 34:-0.882491 35:-0.884951 36:-0.886832 37:-0.889166 38:-0.890754 39:-0.892585 40:-0.893648 41:-0.894319 42:-0.894286 43:-0.895166 44:-0.895222 45:-0.895801 46:-0.895536 47:-0.895693 48:-0.895471 49:-0.895423 50:-0.895624 51:-0.895943 52:-0.895813 53:-0.895818 54:-0.89567 55:-0.895587 56:-0.896526 57:-0.897561 58:-0.898399 59:-0.899382 60:-0.900844 61:-0.902288 62:-0.902084 63:-0.901981 64:-0.902387 65:-0.902044 66:-0.902013 67:-0.901696 68:-0.901374 69:-0.901052 70:-0.900963 71:-0.900825 72:-0.900686 73:-0.901118 74:-0.901262 75:-0.901163 76:-0.901 77:-0.900717 78:-0.900691 79:-0.900701 80:-0.901373 81:-0.903438 82:-0.906152 83:-0.908435 84:-0.908756 85:-0.909229 86:-0.909614 87:-0.91002 88:-0.910222 89:-0.910612 90:-0.910952 91:-0.911339 92:-0.911244 93:-0.911576 94:-0.911849 95:-0.91232 96:-0.912387 97:-0.912684 98:-0.912867 99:-0.913058 100:-0.913365 101:-0.913326 102:-0.913576 103:-0.913865 104:-0.916225 
5.736800905181544 1:-0.918928 2:0.0115063 3:0.891977 4:-0.91637 5:-0.678539 6:-0.674022 7:-0.695214 8:-0.685361 9:-0.677807 10:-0.676292 11:-0.676197 12:-0.70739 13:-0.731942 14:-0.744807 15:-0.758267 16:-0.760715 17:-0.752567 18:-0.752798 19:-0.746514 20:-0.742447 21:-0.752426 22:-0.763259 23:-0.772031 24:-0.778086 25:-0.782734 26:-0.785005 27:-0.786663 28:-0.790684 29:-0.793767 30:-0.798271 31:-0.800575 32:-0.802472 33:-0.805065 34:-0.808571 35:-0.810822 36:-0.812117 37:-0.81403 38:-0.815595 39:-0.817073 40:-0.818167 41:-0.818303 42:-0.819354 43:-0.821457 44:-0.821453 45:-0.821363 46:-0.826227 47:-0.832263 48:-0.840473 49:-0.848603 50:-0.85649 51:-0.863952 52:-0.871101 53:-0.87695 54:-0.883064 55:-0.889447 56:-0.895045 57:-0.900908 58:-0.906347 59:-0.911496 60:-0.916381 61:-0.921493 62:-0.926209 63:-0.930788 64:-0.934989 65:-0.939088 66:-0.943401 67:-0.947479 68:-0.951175 69:-0.95488 70:-0.957804 71:-0.961495 72:-0.964177 73:-0.967001 74:-0.970005 75:-0.97268 76:-0.975758 77:-0.978802 78:-0.981792 79:-0.98452 80:-0.987266 81:-0.989474 82:-0.992088 83:-0.994178 84:-0.994022 85:-0.994388 86:-0.99424 87:-0.994545 88:-0.99455 89:-0.994709 90:-0.994761 91:-0.99466 92:-0.994789 93:-0.994643 94:-0.994715 95:-0.994964 96:-0.995084 97:-0.995313 98:-0.995313 99:-0.995041 100:-0.995295 101:-0.995494 102:-0.995689 103:-0.99447 104:-0.993928 
169.8646875085028 1:-0.93087 2:-0.851464 3:-0.887289 4:-0.914215 5:-0.775094 6:-0.769036 7:-0.764726 8:-0.762588 9:-0.767321 10:-0.768452 11:-0.768778 12:-0.801857 13:-0.828381 14:-0.841494 15:-0.854276 16:-0.857225 17:-0.851174 18:-0.84653 19:-0.839496 20:-0.835765 21:-0.841979 22:-0.853904 23:-0.86308 24:-0.870872 25:-0.872465 26:-0.873123 27:-0.875217 28:-0.878771 29:-0.882309 30:-0.886407 31:-0.889231 32:-0.891613 33:-0.894755 34:-0.898143 35:-0.900376 36:-0.902592 37:-0.90673 38:-0.908524 39:-0.91022 40:-0.912296 41:-0.914795 42:-0.914854 43:-0.915906 44:-0.916044 45:-0.916075 46:-0.916733 47:-0.916486 48:-0.916298 49:-0.916373 50:-0.916202 51:-0.916844 52:-0.916596 53:-0.916619 54:-0.916349 55:-0.916146 56:-0.916335 57:-0.916103 58:-0.916084 59:-0.915892 60:-0.915923 61:-0.915747 62:-0.915845 63:-0.915682 64:-0.915717 65:-0.915548 66:-0.91558 67:-0.915745 68:-0.915577 69:-0.915636 70:-0.915467 71:-0.915466 72:-0.915464 73:-0.915294 74:-0.915587 75:-0.915477 76:-0.915322 77:-0.915297 78:-0.915153 79:-0.91499 80:-0.914867 81:-0.914693 82:-0.914844 83:-0.914868 84:-0.912587 85:-0.910347 86:-0.908091 87:-0.905927 88:-0.903679 89:-0.90163 90:-0.900199 91:-0.898723 92:-0.897374 93:-0.895475 94:-0.893698 95:-0.89212 96:-0.890277 97:-0.888703 98:-0.886903 99:-0.885271 100:-0.883799 101:-0.882809 102:-0.882096 103:-0.881502 104:-0.882588 
-270.9546196418622 1:-0.944852 2:-0.757322 3:-0.837001 4:-0.943453 5:-0.788855 6:-0.786256 7:-0.7809 8:-0.790692 9:-0.789064 10:-0.788637 11:-0.788144 12:-0.821897 13:-0.848573 14:-0.862438 15:-0.876629 16:-0.879957 17:-0.872127 18:-0.867827 19:-0.86174 20:-0.85768 21:-0.864238 22:-0.876505 23:-0.885619 24:-0.892569 25:-0.894352 26:-0.895019 27:-0.897039 28:-0.900751 29:-0.904869 30:-0.908503 31:-0.911536 32:-0.914428 33:-0.918914 34:-0.922625 35:-0.92582 36:-0.927964 37:-0.930038 38:-0.932101 39:-0.934052 40:-0.935558 41:-0.936177 42:-0.93651 43:-0.937055 44:-0.937345 45:-0.937953 46:-0.938642 47:-0.938637 48:-0.939176 49:-0.93909 50:-0.939213 51:-0.939141 52:-0.939885 53:-0.940072 54:-0.941756 55:-0.942394 56:-0.94323 57:-0.943529 58:-0.943418 59:-0.943781 60:-0.94359 61:-0.943518 62:-0.943374 63:-0.943355 64:-0.943261 65:-0.943161 66:-0.942996 67:-0.943032 68:-0.943513 69:-0.943382 70:-0.944142 71:-0.944139 72:-0.943951 73:-0.943956 74:-0.943776 75:-0.943671 76:-0.943948 77:-0.943779 78:-0.943964 79:-0.94378 80:-0.944327 81:-0.944131 82:-0.944525 83:-0.944778 84:-0.942392 85:-0.94047 86:-0.938262 87:-0.937046 88:-0.935008 89:-0.933377 90:-0.931557 91:-0.930402 92:-0.928529 93:-0.927084 94:-0.925783 95:-0.924572 96:-0.923324 97:-0.921833 98:-0.920466 99:-0.919181 100:-0.917922 101:-0.916856 102:-0.915641 103:-0.91436 104:-0.915396 
-278.950664811819 1:-0.877955 2:-0.82113 3:-0.886069 4:-0.902547 5:-0.746872 6:-0.757795 7:-0.761633 8:-0.755161 9:-0.752236 10:-0.751172 11:-0.752635 12:-0.78478 13:-0.811974 14:-0.828109 15:-0.845056 16:-0.854971 17:-0.848408 18:-0.844596 19:-0.841777 20:-0.838376 21:-0.844404 22:-0.857548 23:-0.865312 24:-0.872396 25:-0.873238 26:-0.874141 27:-0.875666 28:-0.879196 29:-0.882233 30:-0.885721 31:-0.888121 32:-0.890516 33:-0.893164 34:-0.895492 35:-0.897785 36:-0.899341 37:-0.900928 38:-0.902867 39:-0.904819 40:-0.906205 41:-0.907081 42:-0.907492 43:-0.90788 44:-0.908257 45:-0.908845 46:-0.909294 47:-0.909039 48:-0.908946 49:-0.908855 50:-0.909585 51:-0.909577 52:-0.909503 53:-0.909188 54:-0.909606 55:-0.909404 56:-0.909281 57:-0.909208 58:-0.909007 59:-0.908889 60:-0.908786 61:-0.908602 62:-0.908497 63:-0.908408 64:-0.908246 65:-0.908076 66:-0.90792 67:-0.907842 68:-0.907751 69:-0.907582 70:-0.907938 71:-0.908042 72:-0.907999 73:-0.907899 74:-0.90799 75:-0.908023 76:-0.907929 77:-0.907838 78:-0.907693 79:-0.907589 80:-0.907526 81:-0.907347 82:-0.9072 83:-0.906696 84:-0.904362 85:-0.90214 86:-0.899957 87:-0.897808 88:-0.895576 89:-0.893596 90:-0.89165 91:-0.88991 92:-0.887911 93:-0.886044 94:-0.884271 95:-0.882643 96:-0.880789 97:-0.879243 98:-0.877474 99:-0.875918 100:-0.874402 101:-0.872868 102:-0.87128 103:-0.869861 104:-0.870801 
-489.8454607512264 1:-0.932812 2:-0.791841 3:-0.840089 4:-0.925956 5:-0.769905 6:-0.770738 7:-0.772867 8:-0.786634 9:-0.780647 10:-0.778821 11:-0.777329 12:-0.811976 13:-0.841216 14:-0.854099 15:-0.866614 16:-0.870243 17:-0.861484 18:-0.857523 19:-0.850367 20:-0.846732 21:-0.852866 22:-0.86455 23:-0.873268 24:-0.880809 25:-0.881879 26:-0.882519 27:-0.88411 28:-0.887779 29:-0.891624 30:-0.894892 31:-0.899333 32:-0.902842 33:-0.905417 34:-0.908165 35:-0.9105 36:-0.912632 37:-0.914804 38:-0.91664 39:-0.918375 40:-0.919929 41:-0.920483 42:-0.920636 43:-0.921188 44:-0.921426 45:-0.922098 46:-0.921995 47:-0.922606 48:-0.923408 49:-0.923275 50:-0.924776 51:-0.924631 52:-0.924655 53:-0.924466 54:-0.925584 55:-0.925605 56:-0.925442 57:-0.925215 58:-0.925028 59:-0.925051 60:-0.924876 61:-0.924975 62:-0.925035 63:-0.925409 64:-0.925748 65:-0.925655 66:-0.926202 67:-0.926451 68:-0.926439 69:-0.926649 70:-0.926749 71:-0.927956 72:-0.928732 73:-0.928883 74:-0.92914 75:-0.929574 76:-0.929799 77:-0.93033 78:-0.930526 79:-0.930342 80:-0.930446 81:-0.931034 82:-0.931031 83:-0.930934 84:-0.928932 85:-0.926901 86:-0.924701 87:-0.922532 88:-0.921193 89:-0.919159 90:-0.917183 91:-0.915714 92:-0.913886 93:-0.912478 94:-0.91057 95:-0.909063 96:-0.907212 97:-0.90549 98:-0.903687 99:-0.90222 100:-0.900629 101:-0.899345 102:-0.897846 103:-0.896615 104:-0.897419 
-56.37844970761434 1:-0.925045 2:-0.857741 3:-0.842223 4:-0.939002 5:-0.805331 6:-0.838858 7:-0.816695 8:-0.804922 9:-0.815002 10:-0.808721 11:-0.806282 12:-0.836657 13:-0.861883 14:-0.874756 15:-0.886709 16:-0.888857 17:-0.87966 18:-0.876203 19:-0.868709 20:-0.863661 21:-0.870223 22:-0.883432 23:-0.891892 24:-0.898342 25:-0.900849 26:-0.901876 27:-0.903222 28:-0.90698 29:-0.910335 30:-0.916459 31:-0.924445 32:-0.929853 33:-0.933204 34:-0.935489 35:-0.940097 36:-0.945955 37:-0.951668 38:-0.956825 39:-0.96071 40:-0.961628 41:-0.96143 42:-0.960864 43:-0.96044 44:-0.960466 45:-0.960113 46:-0.959425 47:-0.96035 48:-0.959804 49:-0.959164 50:-0.958556 51:-0.957977 52:-0.957355 53:-0.956773 54:-0.956152 55:-0.955608 56:-0.956581 57:-0.956148 58:-0.955836 59:-0.955549 60:-0.955151 61:-0.954685 62:-0.954232 63:-0.953996 64:-0.953576 65:-0.953162 66:-0.952768 67:-0.952385 68:-0.95292 69:-0.95259 70:-0.9522 71:-0.951819 72:-0.951449 73:-0.951089 74:-0.95091 75:-0.950582 76:-0.950259 77:-0.950102 78:-0.949797 79:-0.949479 80:-0.949469 81:-0.949152 82:-0.948859 83:-0.948312 84:-0.945732 85:-0.943326 86:-0.94091 87:-0.938801 88:-0.936397 89:-0.934193 90:-0.932245 91:-0.930318 92:-0.928288 93:-0.926317 94:-0.924389 95:-0.922906 96:-0.92095 97:-0.919214 98:-0.917393 99:-0.915883 100:-0.914393 101:-0.913057 102:-0.911377 103:-0.909824 104:-0.910551 
-675.2722656221898 1:-0.958056 2:-0.938285 3:-0.961989 4:-0.95317 5:-0.804568 6:-0.802338 7:-0.797103 8:-0.795848 9:-0.794896 10:-0.795588 11:-0.79895 12:-0.832809 13:-0.860089 14:-0.874174 15:-0.888157 16:-0.892943 17:-0.885094 18:-0.88122 19:-0.874839 20:-0.870743 21:-0.878268 22:-0.890315 23:-0.899443 24:-0.906638 25:-0.908729 26:-0.910458 27:-0.913907 28:-0.918274 29:-0.92207 30:-0.925749 31:-0.928823 32:-0.931437 33:-0.934588 34:-0.937209 35:-0.939675 36:-0.941951 37:-0.944018 38:-0.946076 39:-0.94802 40:-0.94978 41:-0.950502 42:-0.950809 43:-0.951509 44:-0.951887 45:-0.952195 46:-0.952225 47:-0.952223 48:-0.952509 49:-0.952526 50:-0.952787 51:-0.952805 52:-0.952753 53:-0.952812 54:-0.952715 55:-0.952675 56:-0.95286 57:-0.952838 58:-0.9528 59:-0.95276 60:-0.95287 61:-0.952894 62:-0.952854 63:-0.952822 64:-0.953318 65:-0.953511 66:-0.953541 67:-0.953498 68:-0.953794 69:-0.953721 70:-0.953718 71:-0.953645 72:-0.953574 73:-0.953504 74:-0.953442 75:-0.953571 76:-0.953525 77:-0.95347 78:-0.953418 79:-0.953412 80:-0.953448 81:-0.953368 82:-0.953304 83:-0.952955 84:-0.950586 85:-0.948441 86:-0.946225 87:-0.944096 88:-0.942021 89:-0.940002 90:-0.938209 91:-0.936382 92:-0.934351 93:-0.9325 94:-0.930743 95:-0.929136 96:-0.927294 97:-0.925719 98:-0.924053 99:-0.922493 100:-0.921013 101:-0.919827 102:-0.918363 103:-0.916953 104:-0.917607 
-624.6532697832001 1:-0.951066 2:-0.884937 3:-0.915692 4:-0.930359 5:-0.772146 6:-0.784158 7:-0.78431 8:-0.785587 9:-0.782463 10:-0.781073 11:-0.780511 12:-0.813782 13:-0.841357 14:-0.854611 15:-0.867912 16:-0.871252 17:-0.863982 18:-0.859937 19:-0.853977 20:-0.849615 21:-0.856124 22:-0.867844 23:-0.876698 24:-0.883635 25:-0.88501 26:-0.885718 27:-0.887571 28:-0.891309 29:-0.895984 30:-0.902043 31:-0.904989 32:-0.907484 33:-0.910221 34:-0.912741 35:-0.915485 36:-0.917394 37:-0.919379 38:-0.921357 39:-0.923227 40:-0.925617 41:-0.926577 42:-0.926815 43:-0.927151 44:-0.927473 45:-0.927676 46:-0.92821 47:-0.928402 48:-0.928793 49:-0.92895 50:-0.928907 51:-0.928871 52:-0.928761 53:-0.928677 54:-0.928534 55:-0.928905 56:-0.928819 57:-0.929139 58:-0.929107 59:-0.929015 60:-0.92914 61:-0.929056 62:-0.928969 63:-0.928895 64:-0.928825 65:-0.928745 66:-0.929047 67:-0.928973 68:-0.928887 69:-0.928792 70:-0.928872 71:-0.929024 72:-0.929094 73:-0.929152 74:-0.929127 75:-0.929044 76:-0.928957 77:-0.928874 78:-0.929108 79:-0.929006 80:-0.928936 81:-0.928824 82:-0.929234 83:-0.929339 84:-0.92737 85:-0.925746 86:-0.924034 87:-0.922156 88:-0.920081 89:-0.918176 90:-0.916296 91:-0.914441 92:-0.912382 93:-0.910505 94:-0.908875 95:-0.907499 96:-0.905629 97:-0.904024 98:-0.90224 99:-0.900998 100:-0.89942 101:-0.898188 102:-0.897137 103:-0.896031 104:-0.897257 
-266.0302708466789 1:-0.918248 2:-0.820084 3:-0.867589 4:-0.896061 5:-0.806336 6:-0.787417 7:-0.765146 8:-0.75701 9:-0.753084 10:-0.75063 11:-0.751141 12:-0.789552 13:-0.82258 14:-0.834727 15:-0.846304 16:-0.849019 17:-0.841468 18:-0.836701 19:-0.832721 20:-0.827388 21:-0.833703 22:-0.844455 23:-0.85317 24:-0.859731 25:-0.860955 26:-0.86134 27:-0.862782 28:-0.866407 29:-0.86963 30:-0.872858 31:-0.875767 32:-0.877903 33:-0.880781 34:-0.883347 35:-0.885746 36:-0.888087 37:-0.89001 38:-0.89203 39:-0.893611 40:-0.895073 41:-0.895502 42:-0.895543 43:-0.895986 44:-0.896405 45:-0.896541 46:-0.896353 47:-0.896372 48:-0.896942 49:-0.896746 50:-0.896819 51:-0.896693 52:-0.896446 53:-0.896696 54:-0.896657 55:-0.896454 56:-0.896255 57:-0.896363 58:-0.896453 59:-0.896255 60:-0.896283 61:-0.896102 62:-0.89592 63:-0.89648 64:-0.896313 65:-0.896323 66:-0.896159 67:-0.895999 68:-0.896009 69:-0.896135 70:-0.895956 71:-0.895939 72:-0.895931 73:-0.895922 74:-0.896056 75:-0.896558 76:-0.896547 77:-0.89638 78:-0.896378 79:-0.89628 80:-0.896298 81:-0.896245 82:-0.896082 83:-0.895508 84:-0.893403 85:-0.891177 86:-0.889073 87:-0.887669 88:-0.885422 89:-0.883375 90:-0.88186 91:-0.880599 92:-0.879029 93:-0.87763 94:-0.875842 95:-0.874375 96:-0.872485 97:-0.870857 98:-0.869196 99:-0.867796 100:-0.866422 101:-0.86557 102:-0.864918 103:-0.864007 104:-0.865341 
-360.9425505858553 1:-0.954464 2:-0.881799 3:-0.924692 4:-0.963587 5:-0.816576 6:-0.812169 7:-0.806938 8:-0.804921 9:-0.808834 10:-0.811333 11:-0.811722 12:-0.845173 13:-0.872875 14:-0.886786 15:-0.900433 16:-0.904329 17:-0.896217 18:-0.891973 19:-0.88603 20:-0.881723 21:-0.888462 22:-0.900693 23:-0.909759 24:-0.917346 25:-0.918789 26:-0.919518 27:-0.921616 28:-0.925423 29:-0.929278 30:-0.933186 31:-0.936305 32:-0.938962 33:-0.941845 34:-0.944898 35:-0.947467 36:-0.949482 37:-0.951584 38:-0.953675 39:-0.955651 40:-0.957508 41:-0.958312 42:-0.958636 43:-0.959057 44:-0.959573 45:-0.959845 46:-0.959895 47:-0.959915 48:-0.960269 49:-0.960301 50:-0.960336 51:-0.960372 52:-0.96053 53:-0.960509 54:-0.961207 55:-0.96154 56:-0.961888 57:-0.961821 58:-0.961772 59:-0.961837 60:-0.961791 61:-0.961745 62:-0.961699 63:-0.961891 64:-0.961848 65:-0.961801 66:-0.96176 67:-0.961757 68:-0.962023 69:-0.962093 70:-0.962021 71:-0.96195 72:-0.961948 73:-0.961879 74:-0.961818 75:-0.961928 76:-0.961903 77:-0.961849 78:-0.96186 79:-0.962445 80:-0.963086 81:-0.962993 82:-0.963061 83:-0.96292 84:-0.960663 85:-0.958892 86:-0.956845 87:-0.954677 88:-0.952428 89:-0.950508 90:-0.948574 91:-0.946976 92:-0.94515 93:-0.943754 94:-0.942221 95:-0.940761 96:-0.939503 97:-0.937975 98:-0.936228 99:-0.934897 100:-0.933342 101:-0.931968 102:-0.930597 103:-0.92934 104:-0.930485 
