svm_type c_svc
kernel_type rbf
gamma 0.5
nr_class 2
total_sv 108
rho 132.805
distance 334.042
label 44 -1
nr_sv 55 53
SV
2048 1:-0.986698 2:-0.953975 3:-0.975747 4:-0.986345 5:-0.816634 6:-0.829619 7:-0.82838 8:-0.827436 9:-0.828405 10:-0.830528 11:-0.831154 12:-0.869434 13:-0.897685 14:-0.911668 15:-0.927143 16:-0.930652 17:-0.922477 18:-0.918156 19:-0.911637 20:-0.907302 21:-0.914421 22:-0.926558 23:-0.935732 24:-0.943211 25:-0.944703 26:-0.945443 27:-0.947378 28:-0.951437 29:-0.955345 30:-0.959471 31:-0.962635 32:-0.965332 33:-0.968248 34:-0.970962 35:-0.973509 36:-0.9757 37:-0.977841 38:-0.980106 39:-0.982115 40:-0.983817 41:-0.984821 42:-0.985152 43:-0.985582 44:-0.986394 45:-0.986921 46:-0.98696 47:-0.987096 48:-0.987128 49:-0.987159 50:-0.987189 51:-0.987367 52:-0.987374 53:-0.987348 54:-0.98726 55:-0.9874 56:-0.98737 57:-0.987335 58:-0.987307 59:-0.987279 60:-0.987254 61:-0.987229 62:-0.987204 63:-0.987258 64:-0.987235 65:-0.987211 66:-0.987189 67:-0.987168 68:-0.987133 69:-0.987182 70:-0.987176 71:-0.98726 72:-0.987211 73:-0.987163 74:-0.98712 75:-0.987088 76:-0.987056 77:-0.987084 78:-0.987056 79:-0.987007 80:-0.986965 81:-0.986915 82:-0.986871 83:-0.986386 84:-0.984055 85:-0.981837 86:-0.979604 87:-0.977533 88:-0.975334 89:-0.973297 90:-0.97136 91:-0.969519 92:-0.967476 93:-0.965611 94:-0.963739 95:-0.962123 96:-0.960414 97:-0.958918 98:-0.95715 99:-0.955597 100:-0.954036 101:-0.95246 102:-0.950993 103:-0.94976 104:-0.950488 
2048 1:-0.988932 2:-0.950837 3:-0.974693 4:-0.986491 5:-0.8404 6:-0.842812 7:-0.834881 8:-0.834631 9:-0.833432 10:-0.833104 11:-0.834245 12:-0.869742 13:-0.8971 14:-0.911145 15:-0.926518 16:-0.932099 17:-0.925077 18:-0.920568 19:-0.913894 20:-0.909415 21:-0.916158 22:-0.92821 23:-0.937306 24:-0.944715 25:-0.946138 26:-0.946815 27:-0.948891 28:-0.952702 29:-0.956564 30:-0.960132 31:-0.963274 32:-0.966114 33:-0.969006 34:-0.971698 35:-0.974224 36:-0.976252 37:-0.978379 38:-0.980496 39:-0.982626 40:-0.98419 41:-0.984944 42:-0.985274 43:-0.985703 44:-0.986225 45:-0.986499 46:-0.98655 47:-0.98659 48:-0.986635 49:-0.986678 50:-0.987014 51:-0.987238 52:-0.987208 53:-0.987187 54:-0.987196 55:-0.987653 56:-0.987994 57:-0.988035 58:-0.98808 59:-0.988039 60:-0.988001 61:-0.988044 62:-0.988006 63:-0.987971 64:-0.987937 65:-0.987902 66:-0.987944 67:-0.987911 68:-0.987866 69:-0.987807 70:-0.98775 71:-0.987694 72:-0.987746 73:-0.987715 74:-0.987665 75:-0.987626 76:-0.987587 77:-0.987549 78:-0.987513 79:-0.987459 80:-0.987411 81:-0.987416 82:-0.987366 83:-0.986876 84:-0.984482 85:-0.982393 86:-0.980184 87:-0.978029 88:-0.975793 89:-0.97375 90:-0.971808 91:-0.970015 92:-0.967966 93:-0.966096 94:-0.964218 95:-0.962598 96:-0.960737 97:-0.959148 98:-0.957371 99:-0.955861 100:-0.954298 101:-0.95272 102:-0.951258 103:-0.949975 104:-0.950702 
1702.977817042133 1:-0.986116 2:-0.950837 3:-0.974635 4:-0.986254 5:-0.836165 6:-0.834227 7:-0.831041 8:-0.83002 9:-0.828961 10:-0.830851 11:-0.834923 12:-0.868982 13:-0.89639 14:-0.910924 15:-0.924859 16:-0.928542 17:-0.921453 18:-0.919401 19:-0.913085 20:-0.909728 21:-0.916438 22:-0.928462 23:-0.937533 24:-0.944693 25:-0.946321 26:-0.947011 27:-0.949036 28:-0.952831 29:-0.956678 30:-0.960233 31:-0.963362 32:-0.966027 33:-0.968914 34:-0.9716 35:-0.974121 36:-0.976145 37:-0.978405 38:-0.980514 39:-0.982637 40:-0.984193 41:-0.984941 42:-0.985264 43:-0.985686 44:-0.986104 45:-0.986471 46:-0.986517 47:-0.986551 48:-0.986592 49:-0.98663 50:-0.986669 51:-0.986706 52:-0.986682 53:-0.98676 54:-0.986759 55:-0.987354 56:-0.987411 57:-0.987458 58:-0.987424 59:-0.987391 60:-0.987529 61:-0.987642 62:-0.987685 63:-0.987651 64:-0.987619 65:-0.987585 66:-0.987554 67:-0.987524 68:-0.987552 69:-0.987494 70:-0.987438 71:-0.987451 72:-0.987396 73:-0.987343 74:-0.987295 75:-0.987258 76:-0.98722 77:-0.987184 78:-0.987211 79:-0.987158 80:-0.987228 81:-0.987231 82:-0.987181 83:-0.98669 84:-0.984295 85:-0.982127 86:-0.979889 87:-0.977789 88:-0.975553 89:-0.973511 90:-0.971569 91:-0.969724 92:-0.967676 93:-0.965806 94:-0.963961 95:-0.962359 96:-0.960499 97:-0.95891 98:-0.957181 99:-0.955579 100:-0.954016 101:-0.952438 102:-0.950967 103:-0.949772 104:-0.950464 
1113.997948603829 1:-0.982815 2:-0.958159 3:-0.977184 4:-0.986598 5:-0.816975 6:-0.829287 7:-0.827261 8:-0.828809 9:-0.828095 10:-0.832892 11:-0.833287 12:-0.867917 13:-0.895694 14:-0.9099 15:-0.923971 16:-0.928146 17:-0.921492 18:-0.918519 19:-0.913395 20:-0.909008 21:-0.91579 22:-0.927876 23:-0.937004 24:-0.944215 25:-0.945676 26:-0.946593 27:-0.948493 28:-0.952333 29:-0.95622 30:-0.959813 31:-0.962977 32:-0.965675 33:-0.968749 34:-0.971458 35:-0.974148 36:-0.976188 37:-0.978325 38:-0.980586 39:-0.982592 40:-0.984164 41:-0.984961 42:-0.985385 43:-0.985819 44:-0.98634 45:-0.987369 46:-0.987412 47:-0.987438 48:-0.987471 49:-0.987502 50:-0.987532 51:-0.98766 52:-0.987627 53:-0.987603 54:-0.987787 55:-0.987748 56:-0.987718 57:-0.987684 58:-0.987656 59:-0.987628 60:-0.987603 61:-0.987658 62:-0.987631 63:-0.987607 64:-0.987584 65:-0.98756 66:-0.987538 67:-0.987517 68:-0.987554 69:-0.987504 70:-0.987456 71:-0.987409 72:-0.987362 73:-0.987317 74:-0.987278 75:-0.987312 76:-0.987282 77:-0.987337 78:-0.987405 79:-0.987356 80:-0.987314 81:-0.987264 82:-0.98722 83:-0.986735 84:-0.984347 85:-0.982142 86:-0.980008 87:-0.977858 88:-0.975628 89:-0.973591 90:-0.971654 91:-0.969814 92:-0.967771 93:-0.965906 94:-0.964034 95:-0.962469 96:-0.960612 97:-0.959076 98:-0.957398 99:-0.955799 100:-0.95424 101:-0.952665 102:-0.951127 103:-0.949802 104:-0.950657 
2048 1:-0.987281 2:-0.955021 3:-0.975747 4:-0.985879 5:-0.818467 6:-0.829079 7:-0.828664 8:-0.827528 9:-0.827601 10:-0.83039 11:-0.830944 12:-0.868102 13:-0.897427 14:-0.91172 15:-0.926431 16:-0.929958 17:-0.9218 18:-0.917494 19:-0.910986 20:-0.906662 21:-0.913788 22:-0.925929 23:-0.935108 24:-0.942591 25:-0.944088 26:-0.944834 27:-0.946774 28:-0.950648 29:-0.954748 30:-0.958363 31:-0.961547 32:-0.964264 33:-0.967199 34:-0.970082 35:-0.972641 36:-0.9747 37:-0.976855 38:-0.978999 39:-0.981024 40:-0.982742 41:-0.983519 42:-0.983872 43:-0.984322 44:-0.984864 45:-0.985158 46:-0.985378 47:-0.985678 48:-0.985959 49:-0.986005 50:-0.98605 51:-0.986191 52:-0.986171 53:-0.986341 54:-0.986798 55:-0.986936 56:-0.986905 57:-0.98687 58:-0.986841 59:-0.986813 60:-0.986868 61:-0.986841 62:-0.986814 63:-0.986789 64:-0.986766 65:-0.986816 66:-0.986792 67:-0.986769 68:-0.986733 69:-0.986683 70:-0.986634 71:-0.986723 72:-0.986674 73:-0.986627 74:-0.98665 75:-0.986722 76:-0.986831 77:-0.986795 78:-0.986762 79:-0.98671 80:-0.986665 81:-0.986613 82:-0.986679 83:-0.986191 84:-0.983799 85:-0.981578 86:-0.979343 87:-0.977192 88:-0.975014 89:-0.972975 90:-0.971036 91:-0.969194 92:-0.967149 93:-0.965283 94:-0.963459 95:-0.961872 96:-0.960032 97:-0.958511 98:-0.956766 99:-0.955165 100:-0.953604 101:-0.952028 102:-0.950545 103:-0.949332 104:-0.950014 
2048 1:-0.986213 2:-0.956067 3:-0.976839 4:-0.986524 5:-0.81688 6:-0.829264 7:-0.827168 8:-0.828774 9:-0.829045 10:-0.830086 11:-0.831405 12:-0.868552 13:-0.896657 14:-0.911495 15:-0.927007 16:-0.930549 17:-0.922401 18:-0.918104 19:-0.911605 20:-0.907287 21:-0.914159 22:-0.926323 23:-0.935759 24:-0.943024 25:-0.944536 26:-0.945296 27:-0.947248 28:-0.951134 29:-0.955065 30:-0.958696 31:-0.961897 32:-0.965415 33:-0.968337 34:-0.971056 35:-0.973609 36:-0.975662 37:-0.977812 38:-0.979951 39:-0.981971 40:-0.983558 41:-0.984834 42:-0.985971 43:-0.986387 44:-0.986782 45:-0.987159 46:-0.987199 47:-0.987228 48:-0.987263 49:-0.987352 50:-0.987429 51:-0.98746 52:-0.987429 53:-0.987407 54:-0.987323 55:-0.987381 56:-0.987357 57:-0.987495 58:-0.987469 59:-0.987443 60:-0.987419 61:-0.987395 62:-0.987372 63:-0.987351 64:-0.98733 65:-0.987309 66:-0.987289 67:-0.98727 68:-0.987381 69:-0.987332 70:-0.987285 71:-0.987239 72:-0.987194 73:-0.98715 74:-0.987111 75:-0.987082 76:-0.987054 77:-0.987026 78:-0.986999 79:-0.986955 80:-0.986916 81:-0.986871 82:-0.986977 83:-0.986522 84:-0.984303 85:-0.982085 86:-0.979852 87:-0.977703 88:-0.975474 89:-0.973438 90:-0.971502 91:-0.969662 92:-0.96762 93:-0.965756 94:-0.963885 95:-0.962271 96:-0.960513 97:-0.958929 98:-0.957252 99:-0.955654 100:-0.954095 101:-0.952521 102:-0.950983 103:-0.949704 104:-0.950603 
2048 1:-0.98631 2:-0.956067 3:-0.975383 4:-0.985757 5:-0.818323 6:-0.829219 7:-0.828443 8:-0.829454 9:-0.83012 10:-0.830248 11:-0.830802 12:-0.865815 13:-0.896386 14:-0.911914 15:-0.926692 16:-0.930185 17:-0.921998 18:-0.917667 19:-0.911138 20:-0.907073 21:-0.913905 22:-0.926032 23:-0.935198 24:-0.942444 25:-0.94394 26:-0.944686 27:-0.94677 28:-0.950688 29:-0.9546 30:-0.958214 31:-0.961399 32:-0.964278 33:-0.967207 34:-0.969933 35:-0.972491 36:-0.974551 37:-0.976705 38:-0.978849 39:-0.980874 40:-0.982465 41:-0.983246 42:-0.983601 43:-0.984055 44:-0.984486 45:-0.984785 46:-0.985134 47:-0.985458 48:-0.985735 49:-0.986449 50:-0.986481 51:-0.986512 52:-0.986577 53:-0.986597 54:-0.986707 55:-0.986702 56:-0.986673 57:-0.986639 58:-0.986919 59:-0.986995 60:-0.986964 61:-0.986932 62:-0.986901 63:-0.98695 64:-0.986921 65:-0.986891 66:-0.986864 67:-0.986837 68:-0.986798 69:-0.986744 70:-0.986692 71:-0.986642 72:-0.986592 73:-0.986544 74:-0.986538 75:-0.986593 76:-0.986558 77:-0.986707 78:-0.986674 79:-0.986622 80:-0.986576 81:-0.986523 82:-0.986668 83:-0.986379 84:-0.983983 85:-0.981757 86:-0.979518 87:-0.977363 88:-0.975127 89:-0.973085 90:-0.971195 91:-0.96935 92:-0.967301 93:-0.965431 94:-0.963553 95:-0.961933 96:-0.960073 97:-0.958484 98:-0.956707 99:-0.955105 100:-0.953543 101:-0.952056 102:-0.95056 103:-0.949095 104:-0.949913 
2048 1:-0.981844 2:-0.953975 3:-0.973334 4:-0.986001 5:-0.818444 6:-0.826956 7:-0.827184 8:-0.826412 9:-0.829086 10:-0.82972 11:-0.830369 12:-0.867033 13:-0.894602 14:-0.908825 15:-0.922911 16:-0.927101 17:-0.919168 18:-0.915057 19:-0.909006 20:-0.904809 21:-0.911774 22:-0.924975 23:-0.934437 24:-0.94195 25:-0.944946 26:-0.946032 27:-0.947919 28:-0.951746 29:-0.955621 30:-0.959202 31:-0.962356 32:-0.965044 33:-0.968074 34:-0.970809 35:-0.973344 36:-0.975381 37:-0.977515 38:-0.979639 39:-0.981646 40:-0.983219 41:-0.984224 42:-0.984557 43:-0.985279 44:-0.986496 45:-0.986866 46:-0.986894 47:-0.986912 48:-0.986936 49:-0.986959 50:-0.986983 51:-0.987006 52:-0.987244 53:-0.98721 54:-0.987115 55:-0.987072 56:-0.987117 57:-0.987217 58:-0.987182 59:-0.987146 60:-0.987389 61:-0.987352 62:-0.987316 63:-0.987282 64:-0.98725 65:-0.987217 66:-0.987186 67:-0.987156 68:-0.987114 69:-0.987058 70:-0.987003 71:-0.986949 72:-0.986897 73:-0.986846 74:-0.9868 75:-0.986927 76:-0.986889 77:-0.986853 78:-0.986818 79:-0.986766 80:-0.986805 81:-0.986751 82:-0.986701 83:-0.986212 84:-0.98382 85:-0.981598 86:-0.979363 87:-0.977211 88:-0.974979 89:-0.97294 90:-0.971001 91:-0.969159 92:-0.967114 93:-0.965376 94:-0.963522 95:-0.961903 96:-0.960093 97:-0.958533 98:-0.956966 99:-0.955362 100:-0.953799 101:-0.952266 102:-0.950723 103:-0.949419 104:-0.950287 
2048 1:-0.984368 2:-0.952929 3:-0.972892 4:-0.985861 5:-0.818276 6:-0.82915 7:-0.827018 8:-0.826246 9:-0.826717 10:-0.830051 11:-0.832059 12:-0.866674 13:-0.897807 14:-0.912556 15:-0.926302 16:-0.929824 17:-0.921661 18:-0.917352 19:-0.910841 20:-0.906514 21:-0.913637 22:-0.925775 23:-0.934951 24:-0.942206 25:-0.943712 26:-0.944466 27:-0.946414 28:-0.950294 29:-0.9544 30:-0.95802 31:-0.96121 32:-0.963931 33:-0.966871 34:-0.969605 35:-0.972173 36:-0.974755 37:-0.977087 38:-0.979219 39:-0.981357 40:-0.983255 41:-0.984187 42:-0.984517 43:-0.984945 44:-0.985353 45:-0.98563 46:-0.985792 47:-0.985831 48:-0.985876 49:-0.985919 50:-0.986397 51:-0.986567 52:-0.986534 53:-0.986605 54:-0.986652 55:-0.986748 56:-0.986717 57:-0.986681 58:-0.986737 59:-0.986707 60:-0.986679 61:-0.986652 62:-0.986625 63:-0.9866 64:-0.986577 65:-0.986552 66:-0.986529 67:-0.986509 68:-0.986543 69:-0.986493 70:-0.986444 71:-0.986665 72:-0.986615 73:-0.986565 74:-0.986521 75:-0.986487 76:-0.986453 77:-0.986421 78:-0.98639 79:-0.986401 80:-0.986358 81:-0.986307 82:-0.986261 83:-0.985775 84:-0.983387 85:-0.981169 86:-0.979004 87:-0.976927 88:-0.974696 89:-0.972659 90:-0.970722 91:-0.968881 92:-0.966962 93:-0.965096 94:-0.963222 95:-0.961605 96:-0.959797 97:-0.958468 98:-0.956851 99:-0.955247 100:-0.953811 101:-0.952283 102:-0.950903 103:-0.949492 104:-0.950171 
765.7064441423335 1:-0.986795 2:-0.957113 3:-0.973965 4:-0.986016 5:-0.831715 6:-0.831925 7:-0.830227 8:-0.828709 9:-0.827856 10:-0.831851 11:-0.834031 12:-0.868154 13:-0.895615 14:-0.909748 15:-0.923759 16:-0.928237 17:-0.920218 18:-0.91789 19:-0.913366 20:-0.909167 21:-0.915892 22:-0.927928 23:-0.93701 24:-0.944406 25:-0.945819 26:-0.946486 27:-0.948356 28:-0.952167 29:-0.956028 30:-0.959596 31:-0.962737 32:-0.965576 33:-0.968468 34:-0.971159 35:-0.973685 36:-0.975713 37:-0.977839 38:-0.979956 39:-0.982284 40:-0.983842 41:-0.984591 42:-0.984915 43:-0.985398 44:-0.986194 45:-0.986902 46:-0.98696 47:-0.986978 48:-0.987002 49:-0.987025 50:-0.987048 51:-0.987071 52:-0.987219 53:-0.987186 54:-0.987093 55:-0.987051 56:-0.987019 57:-0.986982 58:-0.986952 59:-0.986922 60:-0.986894 61:-0.987069 62:-0.987039 63:-0.987011 64:-0.986984 65:-0.986956 66:-0.986931 67:-0.986906 68:-0.986868 69:-0.986816 70:-0.986766 71:-0.986717 72:-0.987007 73:-0.986977 74:-0.98693 75:-0.986894 76:-0.986858 77:-0.986822 78:-0.986851 79:-0.986916 80:-0.986911 81:-0.986874 82:-0.986937 83:-0.986446 84:-0.984051 85:-0.981827 86:-0.979589 87:-0.977435 88:-0.9752 89:-0.973159 90:-0.971218 91:-0.969374 92:-0.967327 93:-0.965459 94:-0.963709 95:-0.962089 96:-0.960229 97:-0.958711 98:-0.956982 99:-0.955379 100:-0.953815 101:-0.952237 102:-0.950799 103:-0.949537 104:-0.950263 
1472.742927421196 1:-0.987475 2:-0.965481 3:-0.977281 4:-0.986163 5:-0.818844 6:-0.828711 7:-0.829038 8:-0.827903 9:-0.827281 10:-0.830801 11:-0.831348 12:-0.868186 13:-0.896531 14:-0.910915 15:-0.926837 16:-0.930362 17:-0.922202 18:-0.917894 19:-0.911385 20:-0.907058 21:-0.914185 22:-0.926327 23:-0.935507 24:-0.942765 25:-0.944272 26:-0.945027 27:-0.946976 28:-0.950857 29:-0.954784 30:-0.958412 31:-0.961946 32:-0.964662 33:-0.967993 34:-0.970711 35:-0.973263 36:-0.975315 37:-0.977464 38:-0.979601 39:-0.981621 40:-0.983207 41:-0.984821 42:-0.985892 43:-0.986301 44:-0.986689 45:-0.986947 46:-0.986983 47:-0.987009 48:-0.987144 49:-0.987172 50:-0.9872 51:-0.987228 52:-0.987194 53:-0.987169 54:-0.987083 55:-0.987049 56:-0.987024 57:-0.986993 58:-0.98697 59:-0.986946 60:-0.986925 61:-0.98703 62:-0.98708 63:-0.987058 64:-0.987036 65:-0.987014 66:-0.986993 67:-0.986973 68:-0.986939 69:-0.986892 70:-0.986846 71:-0.986801 72:-0.986757 73:-0.986714 74:-0.986741 75:-0.986834 76:-0.986838 77:-0.986808 78:-0.986779 79:-0.986733 80:-0.986693 81:-0.986645 82:-0.986603 83:-0.98612 84:-0.983734 85:-0.981519 86:-0.979289 87:-0.977143 88:-0.974917 89:-0.972884 90:-0.97095 91:-0.969114 92:-0.967074 93:-0.965213 94:-0.963344 95:-0.961953 96:-0.960165 97:-0.958723 98:-0.956949 99:-0.95535 100:-0.953791 101:-0.952217 102:-0.950751 103:-0.949524 104:-0.950209 
1109.438778776659 1:-0.982912 2:-0.959205 3:-0.97297 4:-0.986101 5:-0.832083 6:-0.842329 7:-0.834389 8:-0.835065 9:-0.832987 10:-0.832654 11:-0.833495 12:-0.869277 13:-0.896627 14:-0.910666 15:-0.925566 16:-0.931816 17:-0.924555 18:-0.920049 19:-0.913375 20:-0.908899 21:-0.915641 22:-0.927691 23:-0.937023 24:-0.944194 25:-0.945618 26:-0.946295 27:-0.948175 28:-0.951994 29:-0.955863 30:-0.959438 31:-0.962586 32:-0.965269 33:-0.968172 34:-0.970873 35:-0.973409 36:-0.975731 37:-0.977857 38:-0.979974 39:-0.981974 40:-0.983541 41:-0.984298 42:-0.984631 43:-0.985064 44:-0.985474 45:-0.985754 46:-0.985811 47:-0.986124 48:-0.986168 49:-0.98621 50:-0.986266 51:-0.986878 52:-0.987149 53:-0.987119 54:-0.987027 55:-0.986988 56:-0.986957 57:-0.987139 58:-0.987106 59:-0.987074 60:-0.987044 61:-0.987015 62:-0.986986 63:-0.986959 64:-0.986934 65:-0.986907 66:-0.986883 67:-0.986859 68:-0.986822 69:-0.986772 70:-0.986723 71:-0.986802 72:-0.986796 73:-0.986933 74:-0.986888 75:-0.986977 76:-0.987063 77:-0.987026 78:-0.987145 79:-0.987172 80:-0.987122 81:-0.987064 82:-0.987012 83:-0.986564 84:-0.984268 85:-0.982041 86:-0.979801 87:-0.977644 88:-0.975407 89:-0.973364 90:-0.97142 91:-0.969574 92:-0.967525 93:-0.965655 94:-0.963777 95:-0.962227 96:-0.960365 97:-0.958823 98:-0.95714 99:-0.955536 100:-0.953971 101:-0.952391 102:-0.950847 103:-0.949544 104:-0.95041 
2048 1:-0.987281 2:-0.950837 3:-0.975727 4:-0.986148 5:-0.816436 6:-0.827667 7:-0.825348 8:-0.825112 9:-0.826853 10:-0.831057 11:-0.831554 12:-0.866426 13:-0.894191 14:-0.910298 15:-0.926941 16:-0.93045 17:-0.922275 18:-0.917956 19:-0.911436 20:-0.907101 21:-0.913957 22:-0.926356 23:-0.935767 24:-0.943008 25:-0.944499 26:-0.94524 27:-0.947175 28:-0.951045 29:-0.95496 30:-0.958578 31:-0.961935 32:-0.964649 33:-0.967581 34:-0.970309 35:-0.972871 36:-0.974932 37:-0.977228 38:-0.97937 39:-0.981393 40:-0.983224 41:-0.984374 42:-0.984711 43:-0.985226 44:-0.985785 45:-0.986303 46:-0.986652 47:-0.986683 48:-0.98672 49:-0.986755 50:-0.98679 51:-0.986824 52:-0.986797 53:-0.986779 54:-0.986877 55:-0.986845 56:-0.986908 57:-0.986985 58:-0.987022 59:-0.986995 60:-0.986971 61:-0.986947 62:-0.987002 63:-0.987057 64:-0.987034 65:-0.98701 66:-0.986988 67:-0.986966 68:-0.986932 69:-0.986953 70:-0.986905 71:-0.986858 72:-0.986942 73:-0.986895 74:-0.986854 75:-0.987011 76:-0.98704 77:-0.987128 78:-0.987094 79:-0.987042 80:-0.986996 81:-0.987003 82:-0.986955 83:-0.986524 84:-0.984131 85:-0.98191 86:-0.979674 87:-0.977522 88:-0.975289 89:-0.973303 90:-0.971364 91:-0.969521 92:-0.967475 93:-0.965608 94:-0.963733 95:-0.962158 96:-0.960307 97:-0.958768 98:-0.957041 99:-0.95544 100:-0.953879 101:-0.952302 102:-0.950789 103:-0.949596 104:-0.950289 
1988.436167936532 1:-0.982426 2:-0.948745 3:-0.9716 4:-0.985007 5:-0.819731 6:-0.834806 7:-0.828884 8:-0.830689 9:-0.830083 10:-0.830053 11:-0.830592 12:-0.867556 13:-0.894947 14:-0.909025 15:-0.925969 16:-0.929906 17:-0.923045 18:-0.918565 19:-0.911909 20:-0.907453 21:-0.914204 22:-0.92626 23:-0.935361 24:-0.942548 25:-0.94441 26:-0.945088 27:-0.946966 28:-0.950783 29:-0.95465 30:-0.958223 31:-0.961369 32:-0.96405 33:-0.966952 34:-0.969651 35:-0.972186 36:-0.974365 37:-0.976494 38:-0.978613 39:-0.980615 40:-0.982184 41:-0.982945 42:-0.983281 43:-0.984012 44:-0.984418 45:-0.984694 46:-0.984746 47:-0.984837 48:-0.984883 49:-0.984926 50:-0.985219 51:-0.98545 52:-0.986146 53:-0.986251 54:-0.986152 55:-0.986106 56:-0.986068 57:-0.986026 58:-0.986076 59:-0.986249 60:-0.986212 61:-0.986366 62:-0.986633 63:-0.986592 64:-0.986552 65:-0.986512 66:-0.986547 67:-0.986509 68:-0.986459 69:-0.986395 70:-0.986333 71:-0.986272 72:-0.986297 73:-0.986321 74:-0.986267 75:-0.986223 76:-0.986179 77:-0.986167 78:-0.986126 79:-0.986249 80:-0.986308 81:-0.986245 82:-0.986188 83:-0.985691 84:-0.983291 85:-0.981063 86:-0.97882 87:-0.976662 88:-0.974423 89:-0.972532 90:-0.970717 91:-0.968866 92:-0.966811 93:-0.965104 94:-0.963219 95:-0.961592 96:-0.959724 97:-0.958129 98:-0.956345 99:-0.954737 100:-0.953169 101:-0.951585 102:-0.950038 103:-0.948615 104:-0.949382 
2048 1:-0.987087 2:-0.961297 3:-0.976839 4:-0.985881 5:-0.818535 6:-0.829012 7:-0.828731 8:-0.827595 9:-0.827534 10:-0.831982 11:-0.832313 12:-0.866634 13:-0.896397 14:-0.911675 15:-0.926201 16:-0.929753 17:-0.921616 18:-0.917329 19:-0.910837 20:-0.906526 21:-0.913401 22:-0.925816 23:-0.935004 24:-0.942269 25:-0.943785 26:-0.944548 27:-0.94694 28:-0.951314 29:-0.95521 30:-0.959489 31:-0.962636 32:-0.965317 33:-0.968682 34:-0.971519 35:-0.974035 36:-0.976782 37:-0.979102 38:-0.981183 39:-0.98315 40:-0.984813 41:-0.985537 42:-0.985837 43:-0.986239 44:-0.98662 45:-0.986984 46:-0.987012 47:-0.987029 48:-0.987053 49:-0.987076 50:-0.987099 51:-0.987122 52:-0.987083 53:-0.987055 54:-0.986964 55:-0.986926 56:-0.986897 57:-0.986863 58:-0.986921 59:-0.986892 60:-0.986866 61:-0.98684 62:-0.986814 63:-0.986791 64:-0.98696 65:-0.986933 66:-0.986909 67:-0.986885 68:-0.986848 69:-0.986797 70:-0.986748 71:-0.9867 72:-0.986652 73:-0.986606 74:-0.986565 75:-0.986535 76:-0.986504 77:-0.986474 78:-0.986446 79:-0.986399 80:-0.986359 81:-0.986453 82:-0.986408 83:-0.985924 84:-0.983537 85:-0.981321 86:-0.97909 87:-0.976943 88:-0.974715 89:-0.972681 90:-0.970879 91:-0.96904 92:-0.966997 93:-0.965133 94:-0.963262 95:-0.961648 96:-0.959793 97:-0.95839 98:-0.956644 99:-0.95514 100:-0.95358 101:-0.952005 102:-0.950465 103:-0.949077 104:-0.949949 
1722.624006090608 1:-0.984077 2:-0.960251 3:-0.975994 4:-0.985634 5:-0.818236 6:-0.829303 7:-0.826978 8:-0.827299 9:-0.829579 10:-0.831002 11:-0.832053 12:-0.86992 13:-0.897767 14:-0.91167 15:-0.925897 16:-0.931144 17:-0.923048 18:-0.918633 19:-0.912273 20:-0.90785 21:-0.914633 22:-0.926719 23:-0.935846 24:-0.943057 25:-0.944736 26:-0.945442 27:-0.947345 28:-0.951186 29:-0.955074 30:-0.958668 31:-0.962484 32:-0.965512 33:-0.968671 34:-0.971346 35:-0.973857 36:-0.975871 37:-0.977985 38:-0.980089 39:-0.982208 40:-0.98376 41:-0.984504 42:-0.984824 43:-0.985243 44:-0.985642 45:-0.985911 46:-0.985957 47:-0.985991 48:-0.986032 49:-0.98607 50:-0.986109 51:-0.986146 52:-0.986122 53:-0.986106 54:-0.98626 55:-0.98623 56:-0.986334 57:-0.986526 58:-0.986612 59:-0.986591 60:-0.986647 61:-0.986619 62:-0.986592 63:-0.986567 64:-0.986543 65:-0.986518 66:-0.986495 67:-0.986612 68:-0.986618 69:-0.986566 70:-0.986515 71:-0.986466 72:-0.986418 73:-0.98637 74:-0.986329 75:-0.986297 76:-0.986542 77:-0.986508 78:-0.986598 79:-0.986545 80:-0.986559 81:-0.986505 82:-0.986457 83:-0.985968 84:-0.983633 85:-0.981412 86:-0.979176 87:-0.977024 88:-0.974792 89:-0.972753 90:-0.970814 91:-0.968972 92:-0.966927 93:-0.96506 94:-0.963186 95:-0.96157 96:-0.959835 97:-0.958248 98:-0.956473 99:-0.954943 100:-0.953382 101:-0.951806 102:-0.950266 103:-0.948875 104:-0.94975 
2048 1:-0.984757 2:-0.956067 3:-0.973946 4:-0.985625 5:-0.818103 6:-0.829433 7:-0.826846 8:-0.826074 9:-0.829074 10:-0.829346 11:-0.831238 12:-0.865625 13:-0.893299 14:-0.909481 15:-0.926082 16:-0.929607 17:-0.921448 18:-0.917143 19:-0.910633 20:-0.906309 21:-0.913433 22:-0.925572 23:-0.934749 24:-0.942004 25:-0.943511 26:-0.944266 27:-0.946215 28:-0.950096 29:-0.954021 30:-0.957823 31:-0.961013 32:-0.963735 33:-0.966675 34:-0.96941 35:-0.971978 36:-0.974046 37:-0.976548 38:-0.978698 39:-0.980721 40:-0.982309 41:-0.983088 42:-0.983442 43:-0.983894 44:-0.984323 45:-0.984621 46:-0.984694 47:-0.984754 48:-0.984974 49:-0.985033 50:-0.985091 51:-0.985296 52:-0.985979 53:-0.986056 54:-0.985977 55:-0.986125 56:-0.986103 57:-0.986075 58:-0.986054 59:-0.986033 60:-0.98622 61:-0.986198 62:-0.986175 63:-0.986155 64:-0.986136 65:-0.986116 66:-0.986097 67:-0.986079 68:-0.986048 69:-0.986003 70:-0.985959 71:-0.985916 72:-0.985873 73:-0.985872 74:-0.98605 75:-0.98624 76:-0.986271 77:-0.986238 78:-0.986207 79:-0.986218 80:-0.986175 81:-0.986124 82:-0.986079 83:-0.985629 84:-0.983373 85:-0.981153 86:-0.978919 87:-0.976769 88:-0.974538 89:-0.972501 90:-0.970616 91:-0.968775 92:-0.966731 93:-0.964865 94:-0.962992 95:-0.961376 96:-0.959617 97:-0.958125 98:-0.956491 99:-0.954981 100:-0.953418 101:-0.95184 102:-0.950298 103:-0.948948 104:-0.949866 
813.2656768020906 1:-0.98563 2:-0.955021 3:-0.972892 4:-0.985299 5:-0.830931 6:-0.831163 7:-0.830638 8:-0.830117 9:-0.828828 10:-0.830451 11:-0.833327 12:-0.867432 13:-0.895372 14:-0.910252 15:-0.927183 16:-0.930895 17:-0.923463 18:-0.918979 19:-0.912322 20:-0.907863 21:-0.914614 22:-0.926671 23:-0.935773 24:-0.943186 25:-0.944618 26:-0.945305 27:-0.947191 28:-0.951015 29:-0.954889 30:-0.958468 31:-0.96162 32:-0.964307 33:-0.967214 34:-0.969918 35:-0.972457 36:-0.974497 37:-0.976634 38:-0.9791 39:-0.981287 40:-0.982848 41:-0.983602 42:-0.983932 43:-0.98436 44:-0.984768 45:-0.985045 46:-0.985098 47:-0.98514 48:-0.985187 49:-0.985233 50:-0.985277 51:-0.985321 52:-0.985303 53:-0.985528 54:-0.986107 55:-0.986164 56:-0.986133 57:-0.986097 58:-0.986068 59:-0.98604 60:-0.986014 61:-0.985988 62:-0.985962 63:-0.986016 64:-0.985993 65:-0.985968 66:-0.985945 67:-0.985923 68:-0.985888 69:-0.98584 70:-0.985792 71:-0.986071 72:-0.986038 73:-0.985988 74:-0.986108 75:-0.986072 76:-0.986177 77:-0.986247 78:-0.986338 79:-0.986282 80:-0.986241 81:-0.986234 82:-0.986182 83:-0.985836 84:-0.983439 85:-0.981213 86:-0.978974 87:-0.976818 88:-0.974582 89:-0.972539 90:-0.970597 91:-0.968752 92:-0.966703 93:-0.964961 94:-0.963082 95:-0.961555 96:-0.959692 97:-0.958123 98:-0.956418 99:-0.954813 100:-0.953248 101:-0.951668 102:-0.950152 103:-0.948921 104:-0.9496 
2048 1:-0.980679 2:-0.959205 3:-0.97749 4:-0.985287 5:-0.817979 6:-0.829439 7:-0.826723 8:-0.828079 9:-0.828692 10:-0.830633 11:-0.831201 12:-0.868129 13:-0.895535 14:-0.909623 15:-0.923596 16:-0.92769 17:-0.919674 18:-0.915491 19:-0.909082 20:-0.904851 21:-0.911786 22:-0.924002 23:-0.933487 24:-0.940795 25:-0.942352 26:-0.943156 27:-0.945147 28:-0.949065 29:-0.953207 30:-0.95686 31:-0.96008 32:-0.96283 33:-0.965796 34:-0.968555 35:-0.971439 36:-0.97352 37:-0.975694 38:-0.978049 39:-0.980688 40:-0.982482 41:-0.983501 42:-0.98384 43:-0.984278 44:-0.984695 45:-0.98498 46:-0.985151 47:-0.985197 48:-0.98525 49:-0.9853 50:-0.985349 51:-0.985398 52:-0.985479 53:-0.985471 54:-0.985401 55:-0.985473 56:-0.985519 57:-0.986131 58:-0.986255 59:-0.986228 60:-0.986285 61:-0.98642 62:-0.986391 63:-0.986365 64:-0.986341 65:-0.986315 66:-0.986291 67:-0.986268 68:-0.986303 69:-0.986252 70:-0.986202 71:-0.986153 72:-0.986106 73:-0.986059 74:-0.986018 75:-0.986115 76:-0.986082 77:-0.986051 78:-0.98602 79:-0.985972 80:-0.98593 81:-0.985881 82:-0.985837 83:-0.98541 84:-0.983023 85:-0.980806 86:-0.978575 87:-0.976609 88:-0.97462 89:-0.972581 90:-0.970641 91:-0.968798 92:-0.966803 93:-0.964936 94:-0.96306 95:-0.961442 96:-0.959583 97:-0.957996 98:-0.956222 99:-0.954669 100:-0.953108 101:-0.951533 102:-0.949993 103:-0.948531 104:-0.949306 
2048 1:-0.988155 2:-0.957113 3:-0.974693 4:-0.985286 5:-0.815509 6:-0.830032 7:-0.825807 8:-0.825227 9:-0.82782 10:-0.828695 11:-0.831089 12:-0.868087 13:-0.896499 14:-0.911732 15:-0.925567 16:-0.929111 17:-0.920971 18:-0.916681 19:-0.910183 20:-0.906149 21:-0.913003 22:-0.925148 23:-0.934332 24:-0.941592 25:-0.943105 26:-0.943867 27:-0.946017 28:-0.949894 29:-0.953816 30:-0.95744 31:-0.960633 32:-0.963442 33:-0.966459 34:-0.969191 35:-0.971756 36:-0.973822 37:-0.975983 38:-0.978267 39:-0.980294 40:-0.981885 41:-0.982668 42:-0.983026 43:-0.983481 44:-0.984027 45:-0.984326 46:-0.9844 47:-0.98446 48:-0.984526 49:-0.984716 50:-0.98551 51:-0.985723 52:-0.985975 53:-0.985954 54:-0.985992 55:-0.986048 56:-0.986025 57:-0.9863 58:-0.98647 59:-0.986436 60:-0.986405 61:-0.986374 62:-0.986344 63:-0.986316 64:-0.986366 65:-0.986337 66:-0.98631 67:-0.986284 68:-0.986245 69:-0.986193 70:-0.986142 71:-0.986091 72:-0.986173 73:-0.986123 74:-0.986079 75:-0.986045 76:-0.986011 77:-0.98604 78:-0.986251 79:-0.986198 80:-0.986151 81:-0.986097 82:-0.986048 83:-0.985559 84:-0.983225 85:-0.981003 86:-0.978768 87:-0.976616 88:-0.974384 89:-0.972346 90:-0.970407 91:-0.968566 92:-0.966572 93:-0.964705 94:-0.962831 95:-0.961214 96:-0.959405 97:-0.957867 98:-0.95614 99:-0.954539 100:-0.952978 101:-0.951403 102:-0.949939 103:-0.94875 104:-0.949476 
2048 1:-0.983786 2:-0.952929 3:-0.974596 4:-0.986158 5:-0.831895 6:-0.838535 7:-0.83332 8:-0.832167 9:-0.832407 10:-0.832199 11:-0.832519 12:-0.866834 13:-0.895409 14:-0.910449 15:-0.924416 16:-0.928127 17:-0.921349 18:-0.918693 19:-0.913033 20:-0.908589 21:-0.915357 22:-0.927431 23:-0.936547 24:-0.943748 25:-0.945416 26:-0.94611 27:-0.948004 28:-0.951837 29:-0.955718 30:-0.95948 31:-0.962632 32:-0.965319 33:-0.968226 34:-0.970931 35:-0.97347 36:-0.975552 37:-0.977786 38:-0.97991 39:-0.981916 40:-0.983489 41:-0.984252 42:-0.984591 43:-0.985028 44:-0.985444 45:-0.985846 46:-0.986008 47:-0.986052 48:-0.986205 49:-0.986559 50:-0.987294 51:-0.987469 52:-0.987427 53:-0.987394 54:-0.987391 55:-0.987347 56:-0.987313 57:-0.987274 58:-0.987407 59:-0.987372 60:-0.987545 61:-0.98751 62:-0.987479 63:-0.987638 64:-0.987664 65:-0.987628 66:-0.987595 67:-0.987562 68:-0.987517 69:-0.987458 70:-0.987401 71:-0.987345 72:-0.987425 73:-0.987369 74:-0.98732 75:-0.98728 76:-0.987241 77:-0.987203 78:-0.987167 79:-0.987113 80:-0.987065 81:-0.987011 82:-0.986961 83:-0.986472 84:-0.984079 85:-0.981857 86:-0.97976 87:-0.977633 88:-0.975398 89:-0.973356 90:-0.971415 91:-0.969571 92:-0.967523 93:-0.965705 94:-0.963829 95:-0.962259 96:-0.960398 97:-0.958857 98:-0.957128 99:-0.955573 100:-0.954009 101:-0.95243 102:-0.950888 103:-0.949504 104:-0.950368 
2048 1:-0.98165 2:-0.953975 3:-0.974596 4:-0.9855 5:-0.826594 6:-0.8292 7:-0.829674 8:-0.828175 9:-0.827334 10:-0.827891 11:-0.829121 12:-0.864979 13:-0.894225 14:-0.908441 15:-0.923454 16:-0.928592 17:-0.921761 18:-0.917426 19:-0.910892 20:-0.906545 21:-0.913388 22:-0.925774 23:-0.934936 24:-0.942178 25:-0.943888 26:-0.944622 27:-0.946551 28:-0.950415 29:-0.954324 30:-0.957937 31:-0.96112 32:-0.964629 33:-0.967536 34:-0.97033 35:-0.973352 36:-0.975517 37:-0.977634 38:-0.979742 39:-0.981864 40:-0.984187 41:-0.984999 42:-0.9853 43:-0.985701 44:-0.986083 45:-0.986335 46:-0.986365 47:-0.986492 48:-0.986516 49:-0.986538 50:-0.986561 51:-0.986584 52:-0.986641 53:-0.986611 54:-0.986519 55:-0.986479 56:-0.986448 57:-0.986412 58:-0.986384 59:-0.986355 60:-0.986329 61:-0.986303 62:-0.986435 63:-0.986409 64:-0.986384 65:-0.986358 66:-0.986387 67:-0.986383 68:-0.986346 69:-0.986295 70:-0.986245 71:-0.986196 72:-0.986149 73:-0.986102 74:-0.986061 75:-0.98603 76:-0.985999 77:-0.985968 78:-0.98594 79:-0.986046 80:-0.986004 81:-0.985954 82:-0.98591 83:-0.985511 84:-0.983122 85:-0.980905 86:-0.978673 87:-0.976525 88:-0.974297 89:-0.972261 90:-0.970326 91:-0.968488 92:-0.966446 93:-0.964583 94:-0.962712 95:-0.961099 96:-0.959484 97:-0.957959 98:-0.956313 99:-0.954713 100:-0.953152 101:-0.951576 102:-0.950036 103:-0.948822 104:-0.9497 
2048 1:-0.985048 2:-0.947699 3:-0.973295 4:-0.98419 5:-0.816626 6:-0.82999 7:-0.82538 8:-0.824608 9:-0.824205 10:-0.825072 11:-0.826762 12:-0.861466 13:-0.889396 14:-0.90459 15:-0.919472 16:-0.923419 17:-0.916976 18:-0.912896 19:-0.906865 20:-0.903244 21:-0.911255 22:-0.92383 23:-0.933937 24:-0.941154 25:-0.942629 26:-0.943356 27:-0.945278 28:-0.949133 29:-0.953217 30:-0.956816 31:-0.959986 32:-0.962689 33:-0.965612 34:-0.968482 35:-0.971029 36:-0.973079 37:-0.975362 38:-0.977492 39:-0.979505 40:-0.98121 41:-0.981977 42:-0.98232 43:-0.982879 44:-0.983295 45:-0.984015 46:-0.984279 47:-0.984312 48:-0.984353 49:-0.985047 50:-0.985587 51:-0.9856 52:-0.985552 53:-0.985515 54:-0.985416 55:-0.98546 56:-0.985421 57:-0.985463 58:-0.985426 59:-0.985388 60:-0.985354 61:-0.98532 62:-0.985286 63:-0.985256 64:-0.985226 65:-0.985196 66:-0.985167 67:-0.98514 68:-0.985171 69:-0.985116 70:-0.985095 71:-0.985142 72:-0.985089 73:-0.985037 74:-0.984991 75:-0.985114 76:-0.985105 77:-0.985067 78:-0.985093 79:-0.985038 80:-0.984991 81:-0.984935 82:-0.984885 83:-0.984396 84:-0.982062 85:-0.979841 86:-0.977606 87:-0.975509 88:-0.973277 89:-0.971238 90:-0.969352 91:-0.967509 92:-0.965515 93:-0.963647 94:-0.961772 95:-0.960154 96:-0.958296 97:-0.956851 98:-0.955144 99:-0.953568 100:-0.952005 101:-0.950428 102:-0.948886 103:-0.947724 104:-0.948448 
2048 1:-0.98563 2:-0.957113 3:-0.972053 4:-0.984083 5:-0.816442 6:-0.829811 7:-0.825199 8:-0.824426 9:-0.826299 10:-0.82767 11:-0.828338 12:-0.862843 13:-0.890613 14:-0.905011 15:-0.919242 16:-0.92392 17:-0.916083 18:-0.912056 19:-0.90637 20:-0.902962 21:-0.911721 22:-0.923853 23:-0.933025 24:-0.940276 25:-0.941783 26:-0.942541 27:-0.94449 28:-0.948558 29:-0.952656 30:-0.956269 31:-0.959451 32:-0.962166 33:-0.9651 34:-0.967828 35:-0.97039 36:-0.972454 37:-0.974611 38:-0.976758 39:-0.978785 40:-0.980377 41:-0.981162 42:-0.981825 43:-0.982273 44:-0.9827 45:-0.982996 46:-0.98312 47:-0.983176 48:-0.983238 49:-0.983404 50:-0.984258 51:-0.984361 52:-0.984684 53:-0.985128 54:-0.985033 55:-0.985255 56:-0.985217 57:-0.985173 58:-0.985138 59:-0.985102 60:-0.985233 61:-0.985197 62:-0.985163 63:-0.985212 64:-0.985368 65:-0.985332 66:-0.985299 67:-0.985266 68:-0.985221 69:-0.985162 70:-0.985105 71:-0.985049 72:-0.984994 73:-0.984941 74:-0.985057 75:-0.985053 76:-0.985032 77:-0.984992 78:-0.984955 79:-0.9849 80:-0.985003 81:-0.984944 82:-0.985039 83:-0.984844 84:-0.982614 85:-0.980384 86:-0.978139 87:-0.975979 88:-0.973738 89:-0.971691 90:-0.969744 91:-0.967946 92:-0.965893 93:-0.964019 94:-0.962137 95:-0.960513 96:-0.958648 97:-0.957055 98:-0.955275 99:-0.953669 100:-0.952103 101:-0.950523 102:-0.948978 103:-0.947626 104:-0.948415 
700.880979722741 1:-0.984951 2:-0.956067 3:-0.972261 4:-0.984079 5:-0.816451 6:-0.831041 7:-0.826587 8:-0.82547 9:-0.826562 10:-0.826994 11:-0.827762 12:-0.862948 13:-0.891398 14:-0.905913 15:-0.920067 16:-0.92395 17:-0.91611 18:-0.912082 19:-0.9079 20:-0.904064 21:-0.91201 22:-0.924611 23:-0.933746 24:-0.940963 25:-0.942438 26:-0.943166 27:-0.945285 28:-0.949133 29:-0.953028 30:-0.956627 31:-0.959797 32:-0.962501 33:-0.965423 34:-0.968142 35:-0.970694 36:-0.972748 37:-0.975174 38:-0.977304 39:-0.979317 40:-0.980895 41:-0.981666 42:-0.982012 43:-0.982457 44:-0.982879 45:-0.983171 46:-0.983238 47:-0.983291 48:-0.983352 49:-0.983612 50:-0.983664 51:-0.983843 52:-0.984417 53:-0.985148 54:-0.985317 55:-0.98527 56:-0.985231 57:-0.985187 58:-0.985152 59:-0.985199 60:-0.985165 61:-0.985131 62:-0.985097 63:-0.985144 64:-0.985114 65:-0.985082 66:-0.985053 67:-0.985024 68:-0.984983 69:-0.984928 70:-0.984936 71:-0.984958 72:-0.984905 73:-0.984871 74:-0.985135 75:-0.985256 76:-0.985228 77:-0.985186 78:-0.985146 79:-0.985088 80:-0.985038 81:-0.985038 82:-0.985098 83:-0.984604 84:-0.982208 85:-0.979983 86:-0.977744 87:-0.975589 88:-0.973353 89:-0.971311 90:-0.969369 91:-0.967525 92:-0.965579 93:-0.963709 94:-0.961831 95:-0.96021 96:-0.958349 97:-0.95676 98:-0.954983 99:-0.953381 100:-0.951819 101:-0.950333 102:-0.949029 103:-0.947623 104:-0.948399 
2048 1:-0.983883 2:-0.955021 3:-0.970519 4:-0.983982 5:-0.824825 6:-0.827478 7:-0.82792 8:-0.82642 9:-0.825579 10:-0.826148 11:-0.82701 12:-0.86164 13:-0.889547 14:-0.904439 15:-0.918702 16:-0.922681 17:-0.916797 18:-0.91285 19:-0.906499 20:-0.902605 21:-0.909562 22:-0.921965 23:-0.933143 24:-0.941849 25:-0.943272 26:-0.943953 27:-0.945832 28:-0.949649 29:-0.953515 30:-0.957088 31:-0.960234 32:-0.962915 33:-0.965973 34:-0.968667 35:-0.971196 36:-0.973228 37:-0.975357 38:-0.977476 39:-0.979519 40:-0.981173 41:-0.982242 42:-0.982568 43:-0.982992 44:-0.983396 45:-0.983669 46:-0.98372 47:-0.983757 48:-0.983802 49:-0.983845 50:-0.984137 51:-0.984173 52:-0.984229 53:-0.98421 54:-0.984558 55:-0.985224 56:-0.985358 57:-0.985308 58:-0.985351 59:-0.985307 60:-0.985268 61:-0.985228 62:-0.985189 63:-0.985154 64:-0.98519 65:-0.985273 66:-0.985237 67:-0.985202 68:-0.985155 69:-0.985094 70:-0.985035 71:-0.984977 72:-0.98508 73:-0.985022 74:-0.98497 75:-0.984929 76:-0.984888 77:-0.984848 78:-0.984809 79:-0.984753 80:-0.984704 81:-0.984656 82:-0.984999 83:-0.984503 84:-0.982217 85:-0.979989 86:-0.977747 87:-0.97559 88:-0.973352 89:-0.971307 90:-0.969363 91:-0.967516 92:-0.965586 93:-0.963722 94:-0.961842 95:-0.960219 96:-0.958355 97:-0.956787 98:-0.9551 99:-0.953542 100:-0.951976 101:-0.950394 102:-0.948849 103:-0.947498 104:-0.948407 
2048 1:-0.983786 2:-0.952929 3:-0.971208 4:-0.983929 5:-0.816237 6:-0.83125 7:-0.826452 8:-0.827443 9:-0.82661 10:-0.82823 11:-0.828787 12:-0.863216 13:-0.890925 14:-0.905719 15:-0.91987 16:-0.923751 17:-0.915911 18:-0.911997 19:-0.908118 20:-0.904239 21:-0.912301 22:-0.924392 23:-0.933527 24:-0.940743 25:-0.942218 26:-0.942946 27:-0.945065 28:-0.948912 29:-0.952807 30:-0.956406 31:-0.959576 32:-0.962279 33:-0.965202 34:-0.96792 35:-0.970472 36:-0.972526 37:-0.974767 38:-0.977075 39:-0.979087 40:-0.980707 41:-0.98156 42:-0.981903 43:-0.982345 44:-0.982764 45:-0.983053 46:-0.983118 47:-0.983169 48:-0.983227 49:-0.983282 50:-0.983535 51:-0.984112 52:-0.98486 53:-0.985101 54:-0.985003 55:-0.984957 56:-0.98492 57:-0.984878 58:-0.984929 59:-0.985102 60:-0.985066 61:-0.98503 62:-0.984995 63:-0.984962 64:-0.984931 65:-0.984898 66:-0.984939 67:-0.985153 68:-0.985106 69:-0.985046 70:-0.984987 71:-0.984929 72:-0.984873 73:-0.984819 74:-0.98477 75:-0.984731 76:-0.984692 77:-0.984749 78:-0.984774 79:-0.984747 80:-0.984932 81:-0.984872 82:-0.984818 83:-0.984324 84:-0.981929 85:-0.979828 86:-0.97777 87:-0.975612 88:-0.973374 89:-0.971329 90:-0.969384 91:-0.967536 92:-0.965486 93:-0.963614 94:-0.961735 95:-0.960113 96:-0.958251 97:-0.95666 98:-0.954882 99:-0.953398 100:-0.951873 101:-0.950481 102:-0.949058 103:-0.947634 104:-0.94831 
2048 1:-0.983494 2:-0.948745 3:-0.96864 4:-0.983874 5:-0.830171 6:-0.84013 7:-0.832071 8:-0.831665 9:-0.829731 10:-0.829549 11:-0.829883 12:-0.864164 13:-0.891753 14:-0.906447 15:-0.920516 16:-0.924325 17:-0.91664 18:-0.913633 19:-0.907747 20:-0.903479 21:-0.910375 22:-0.923398 23:-0.934393 24:-0.941999 25:-0.944134 26:-0.944764 27:-0.946598 28:-0.950374 29:-0.954204 30:-0.957742 31:-0.960856 32:-0.963507 33:-0.966381 34:-0.969053 35:-0.97171 36:-0.973719 37:-0.975826 38:-0.977925 39:-0.979908 40:-0.981458 41:-0.982202 42:-0.982522 43:-0.982942 44:-0.983341 45:-0.983611 46:-0.983932 47:-0.983959 48:-0.983994 49:-0.984027 50:-0.98406 51:-0.984232 52:-0.984199 53:-0.984177 54:-0.984605 55:-0.985299 56:-0.98566 57:-0.9856 58:-0.985549 59:-0.985498 60:-0.98545 61:-0.985404 62:-0.985437 63:-0.985393 64:-0.985351 65:-0.985308 66:-0.985268 67:-0.985229 68:-0.985178 69:-0.985113 70:-0.98505 71:-0.984988 72:-0.984928 73:-0.985066 74:-0.985012 75:-0.984967 76:-0.984922 77:-0.985036 78:-0.984992 79:-0.98493 80:-0.985027 81:-0.98501 82:-0.984952 83:-0.984511 84:-0.982111 85:-0.979882 86:-0.977745 87:-0.975618 88:-0.973376 89:-0.971329 90:-0.96942 91:-0.967606 92:-0.965552 93:-0.963677 94:-0.961795 95:-0.96017 96:-0.958305 97:-0.956867 98:-0.955121 99:-0.953513 100:-0.951944 101:-0.950361 102:-0.948816 103:-0.947673 104:-0.948413 
2048 1:-0.984174 2:-0.956067 3:-0.970766 4:-0.983732 5:-0.824825 6:-0.828896 7:-0.826308 8:-0.825152 9:-0.824518 10:-0.825231 11:-0.826194 12:-0.860885 13:-0.888806 14:-0.903331 15:-0.918076 16:-0.922087 17:-0.915702 18:-0.911991 19:-0.906562 20:-0.903929 21:-0.911957 22:-0.92444 23:-0.93356 24:-0.940764 25:-0.942244 26:-0.94315 27:-0.945053 28:-0.948892 29:-0.952778 30:-0.956369 31:-0.959532 32:-0.96239 33:-0.965301 34:-0.968008 35:-0.97055 36:-0.972595 37:-0.974735 38:-0.976864 39:-0.979205 40:-0.980774 41:-0.981536 42:-0.981873 43:-0.98231 44:-0.982888 45:-0.983168 46:-0.983225 47:-0.983268 48:-0.983318 49:-0.983366 50:-0.983413 51:-0.983838 52:-0.984285 53:-0.984261 54:-0.984266 55:-0.984231 56:-0.984204 57:-0.98417 58:-0.984145 59:-0.984173 60:-0.984302 61:-0.984276 62:-0.984249 63:-0.984675 64:-0.98497 65:-0.984933 66:-0.984899 67:-0.984866 68:-0.98482 69:-0.984761 70:-0.984759 71:-0.984713 72:-0.984656 73:-0.984935 74:-0.9851 75:-0.985054 76:-0.985021 77:-0.984989 78:-0.984945 79:-0.984884 80:-0.984831 81:-0.984769 82:-0.984806 83:-0.984333 84:-0.981935 85:-0.979708 86:-0.977467 87:-0.975311 88:-0.973073 89:-0.971164 90:-0.969218 91:-0.96737 92:-0.965319 93:-0.963447 94:-0.961567 95:-0.959945 96:-0.958082 97:-0.956491 98:-0.954828 99:-0.953271 100:-0.951705 101:-0.950124 102:-0.948579 103:-0.947438 104:-0.948138 
2048 1:-0.984271 2:-0.950837 3:-0.969368 4:-0.98371 5:-0.832356 6:-0.834614 7:-0.831642 8:-0.830991 9:-0.829172 10:-0.829069 11:-0.82946 12:-0.863775 13:-0.891393 14:-0.906111 15:-0.9202 16:-0.924027 17:-0.916141 18:-0.914238 19:-0.908053 20:-0.903759 21:-0.910633 22:-0.923041 23:-0.932225 24:-0.940394 25:-0.94351 26:-0.944964 27:-0.946785 28:-0.95055 29:-0.954368 30:-0.957897 31:-0.961001 32:-0.963643 33:-0.966509 34:-0.969326 35:-0.971824 36:-0.973826 37:-0.975927 38:-0.97802 39:-0.979997 40:-0.981542 41:-0.982281 42:-0.982596 43:-0.983012 44:-0.983695 45:-0.983953 46:-0.983989 47:-0.984012 48:-0.984043 49:-0.984073 50:-0.984103 51:-0.984133 52:-0.984337 53:-0.984309 54:-0.98422 55:-0.984351 56:-0.985012 57:-0.985376 58:-0.985455 59:-0.985535 60:-0.985553 61:-0.985503 62:-0.985454 63:-0.985408 64:-0.985364 65:-0.985319 66:-0.985277 67:-0.985381 68:-0.985326 69:-0.985257 70:-0.985191 71:-0.985125 72:-0.985161 73:-0.985166 74:-0.985108 75:-0.98506 76:-0.985012 77:-0.984965 78:-0.984921 79:-0.984859 80:-0.984805 81:-0.984754 82:-0.984832 83:-0.984384 84:-0.982152 85:-0.979921 86:-0.977676 87:-0.97557 88:-0.973328 89:-0.97128 90:-0.969333 91:-0.967482 92:-0.965428 93:-0.963554 94:-0.961672 95:-0.960047 96:-0.958183 97:-0.956711 98:-0.954929 99:-0.953342 100:-0.951775 101:-0.950192 102:-0.948646 103:-0.947482 104:-0.948201 
2048 1:-0.978931 2:-0.955021 3:-0.971475 4:-0.983666 5:-0.815989 6:-0.82937 7:-0.824749 8:-0.823977 9:-0.825828 10:-0.827986 11:-0.828544 12:-0.864352 13:-0.891918 14:-0.906147 15:-0.920238 16:-0.924227 17:-0.91633 18:-0.912251 19:-0.90772 20:-0.904153 21:-0.911041 22:-0.924402 23:-0.933523 24:-0.940727 25:-0.942191 26:-0.942909 27:-0.944822 28:-0.948668 29:-0.952744 30:-0.956335 31:-0.959498 32:-0.962195 33:-0.965111 34:-0.967824 35:-0.970371 36:-0.972576 37:-0.974841 38:-0.976967 39:-0.978975 40:-0.980869 41:-0.981628 42:-0.981963 43:-0.982396 44:-0.982808 45:-0.983089 46:-0.983385 47:-0.984153 48:-0.985038 49:-0.985208 50:-0.985214 51:-0.985319 52:-0.985263 53:-0.985218 54:-0.985112 55:-0.985059 56:-0.985015 57:-0.984967 58:-0.984926 59:-0.984886 60:-0.98493 61:-0.984892 62:-0.984855 63:-0.98482 64:-0.984787 65:-0.984753 66:-0.984721 67:-0.984691 68:-0.984647 69:-0.98459 70:-0.984535 71:-0.984616 72:-0.984561 73:-0.984507 74:-0.984459 75:-0.984421 76:-0.984383 77:-0.984504 78:-0.984466 79:-0.984411 80:-0.984364 81:-0.984307 82:-0.984386 83:-0.983913 84:-0.981521 85:-0.979406 86:-0.977169 87:-0.975016 88:-0.972782 89:-0.970742 90:-0.968802 91:-0.966958 92:-0.964912 93:-0.963045 94:-0.96117 95:-0.959551 96:-0.95788 97:-0.956345 98:-0.954568 99:-0.95306 100:-0.951497 101:-0.949918 102:-0.948375 103:-0.947157 104:-0.948027 
2048 1:-0.991844 2:-0.973849 3:-0.983621 4:-0.991766 5:-0.816353 6:-0.82758 7:-0.826489 8:-0.8275 9:-0.828166 10:-0.83186 11:-0.83345 12:-0.868913 13:-0.898732 14:-0.914929 15:-0.929086 16:-0.932941 17:-0.925052 18:-0.920972 19:-0.914671 20:-0.910515 21:-0.917549 22:-0.929865 23:-0.939198 24:-0.946596 25:-0.94822 26:-0.949076 27:-0.951121 28:-0.955284 29:-0.959288 30:-0.962989 31:-0.966254 32:-0.969208 33:-0.972592 34:-0.975382 35:-0.978192 36:-0.980789 37:-0.983179 38:-0.985339 39:-0.98738 40:-0.988986 41:-0.989777 42:-0.990141 43:-0.990602 44:-0.99104 45:-0.991346 46:-0.991427 47:-0.991766 48:-0.991833 49:-0.991896 50:-0.991958 51:-0.992017 52:-0.992016 53:-0.992021 54:-0.991963 55:-0.991955 56:-0.991956 57:-0.991953 58:-0.991953 59:-0.991953 60:-0.991954 61:-0.991954 62:-0.992012 63:-0.99215 64:-0.992148 65:-0.992144 66:-0.992142 67:-0.992187 68:-0.99217 69:-0.992138 70:-0.992108 71:-0.992078 72:-0.992048 73:-0.99202 74:-0.991995 75:-0.991981 76:-0.991967 77:-0.992015 78:-0.992001 79:-0.991969 80:-0.99194 81:-0.991908 82:-0.991878 83:-0.991406 84:-0.989026 85:-0.986817 86:-0.984593 87:-0.982453 88:-0.980231 89:-0.978203 90:-0.976371 91:-0.974599 92:-0.972662 93:-0.970803 94:-0.968935 95:-0.967325 96:-0.965474 97:-0.96393 98:-0.962174 99:-0.960581 100:-0.959027 101:-0.957466 102:-0.956034 103:-0.954766 104:-0.955516 
2048 1:-0.992524 2:-0.970711 3:-0.981456 4:-0.991323 5:-0.83304 6:-0.838468 7:-0.833674 8:-0.833252 9:-0.833099 10:-0.833694 11:-0.834741 12:-0.87075 13:-0.899609 14:-0.91465 15:-0.93059 16:-0.934298 17:-0.926251 18:-0.922036 19:-0.915622 20:-0.911364 21:-0.918312 22:-0.930553 23:-0.939817 24:-0.94738 25:-0.948936 26:-0.949729 27:-0.951717 28:-0.95564 29:-0.959604 30:-0.963268 31:-0.966922 32:-0.969899 33:-0.972852 34:-0.975601 35:-0.978182 36:-0.980258 37:-0.982432 38:-0.984594 39:-0.986636 40:-0.988244 41:-0.989037 42:-0.989403 43:-0.989866 44:-0.990306 45:-0.990614 46:-0.990696 47:-0.990769 48:-0.990843 49:-0.990914 50:-0.991085 51:-0.991539 52:-0.991534 53:-0.991615 54:-0.991552 55:-0.99154 56:-0.991536 57:-0.991528 58:-0.991524 59:-0.99152 60:-0.991517 61:-0.991513 62:-0.991509 63:-0.991507 64:-0.991504 65:-0.991616 66:-0.99188 67:-0.99199 68:-0.991966 69:-0.991998 70:-0.991959 71:-0.991922 72:-0.991885 73:-0.991964 74:-0.992071 75:-0.992047 76:-0.992022 77:-0.991998 78:-0.991976 79:-0.991935 80:-0.991898 81:-0.991857 82:-0.99182 83:-0.991341 84:-0.988954 85:-0.986737 86:-0.984506 87:-0.982359 88:-0.980131 89:-0.978149 90:-0.976215 91:-0.974386 92:-0.972386 93:-0.970523 94:-0.968651 95:-0.967038 96:-0.965182 97:-0.9636 98:-0.961828 99:-0.960232 100:-0.958702 101:-0.957196 102:-0.955696 103:-0.954438 104:-0.955198 
2048 1:-0.991262 2:-0.968619 3:-0.980422 4:-0.991116 5:-0.826217 6:-0.835458 7:-0.831544 8:-0.831071 9:-0.830844 10:-0.83203 11:-0.833535 12:-0.868811 13:-0.898689 14:-0.913706 15:-0.928995 16:-0.933929 17:-0.925891 18:-0.921685 19:-0.915276 20:-0.911024 21:-0.917976 22:-0.930469 23:-0.939723 24:-0.947051 25:-0.94861 26:-0.949407 27:-0.951397 28:-0.955321 29:-0.959288 30:-0.962953 31:-0.966353 32:-0.969244 33:-0.972474 34:-0.975227 35:-0.97781 36:-0.979951 37:-0.982125 38:-0.984288 39:-0.986332 40:-0.987941 41:-0.988735 42:-0.989101 43:-0.989565 44:-0.990006 45:-0.990314 46:-0.990398 47:-0.990471 48:-0.990546 49:-0.990618 50:-0.990687 51:-0.990754 52:-0.990759 53:-0.990771 54:-0.99072 55:-0.990719 56:-0.991001 57:-0.991163 58:-0.991161 59:-0.991229 60:-0.991227 61:-0.991224 62:-0.99122 63:-0.991218 64:-0.991402 65:-0.991738 66:-0.991853 67:-0.99184 68:-0.991814 69:-0.991774 70:-0.991735 71:-0.991765 72:-0.991726 73:-0.991689 74:-0.991656 75:-0.991634 76:-0.991611 77:-0.991589 78:-0.991568 79:-0.99159 80:-0.991555 81:-0.991515 82:-0.991479 83:-0.991001 84:-0.988615 85:-0.986455 86:-0.984225 87:-0.982078 88:-0.979851 89:-0.977817 90:-0.975883 91:-0.974046 92:-0.972006 93:-0.970144 94:-0.968274 95:-0.966725 96:-0.965029 97:-0.963445 98:-0.961673 99:-0.96029 100:-0.958805 101:-0.95723 102:-0.955735 103:-0.954361 104:-0.955051 
1146.527236025784 1:-0.988446 2:-0.971757 3:-0.980441 4:-0.98957 5:-0.836108 6:-0.838125 7:-0.832844 8:-0.831662 9:-0.831884 10:-0.832392 11:-0.833218 12:-0.867929 13:-0.89754 14:-0.913577 15:-0.929419 16:-0.93304 17:-0.924951 18:-0.921021 19:-0.914551 20:-0.910249 21:-0.917152 22:-0.92935 23:-0.938576 24:-0.945878 25:-0.947416 26:-0.948196 27:-0.95017 28:-0.954078 29:-0.958028 30:-0.96168 31:-0.964898 32:-0.968056 33:-0.971007 34:-0.973753 35:-0.976331 36:-0.978406 37:-0.980578 38:-0.982738 39:-0.985107 40:-0.986705 41:-0.987488 42:-0.987902 43:-0.988401 44:-0.988831 45:-0.989129 46:-0.989202 47:-0.989265 48:-0.989332 49:-0.989395 50:-0.989456 51:-0.989515 52:-0.989513 53:-0.989517 54:-0.989459 55:-0.989452 56:-0.989453 57:-0.989666 58:-0.989884 59:-0.989907 60:-0.989908 61:-0.990002 62:-0.989992 63:-0.990077 64:-0.990287 65:-0.990545 66:-0.990527 67:-0.990511 68:-0.990552 69:-0.990507 70:-0.990463 71:-0.990419 72:-0.990377 73:-0.990336 74:-0.9903 75:-0.990274 76:-0.990248 77:-0.990223 78:-0.990199 79:-0.990157 80:-0.99012 81:-0.990078 82:-0.990039 83:-0.98956 84:-0.987174 85:-0.984958 86:-0.982728 87:-0.980582 88:-0.978356 89:-0.976441 90:-0.974521 91:-0.972683 92:-0.970641 93:-0.968778 94:-0.966907 95:-0.965294 96:-0.96344 97:-0.961964 98:-0.960205 99:-0.958608 100:-0.95705 101:-0.955649 102:-0.954205 103:-0.952744 104:-0.953479 
2048 1:-0.989611 2:-0.970711 3:-0.980825 4:-0.98953 5:-0.827463 6:-0.831789 7:-0.828534 8:-0.828424 9:-0.828417 10:-0.832066 11:-0.833831 12:-0.871374 13:-0.899631 14:-0.913786 15:-0.927814 16:-0.931566 17:-0.923593 18:-0.919444 19:-0.913077 20:-0.908869 21:-0.915848 22:-0.928361 23:-0.937635 24:-0.94498 25:-0.94656 26:-0.947378 27:-0.949387 28:-0.953325 29:-0.957305 30:-0.961422 31:-0.964649 32:-0.967406 33:-0.970378 34:-0.973144 35:-0.975741 36:-0.977833 37:-0.980021 38:-0.982197 39:-0.984252 40:-0.985871 41:-0.986677 42:-0.987055 43:-0.98753 44:-0.987981 45:-0.9883 46:-0.988393 47:-0.988474 48:-0.988558 49:-0.988638 50:-0.988715 51:-0.989054 52:-0.989274 53:-0.989283 54:-0.989229 55:-0.989226 56:-0.989365 57:-0.989574 58:-0.990019 59:-0.990235 60:-0.990221 61:-0.990207 62:-0.990193 63:-0.990181 64:-0.990245 65:-0.990231 66:-0.990219 67:-0.990207 68:-0.990181 69:-0.990141 70:-0.990103 71:-0.990065 72:-0.990028 73:-0.989991 74:-0.98996 75:-0.989939 76:-0.989917 77:-0.989896 78:-0.989877 79:-0.989839 80:-0.989806 81:-0.989767 82:-0.989732 83:-0.989257 84:-0.986874 85:-0.984663 86:-0.982576 87:-0.980432 88:-0.978207 89:-0.976175 90:-0.974243 91:-0.972408 92:-0.970446 93:-0.968585 94:-0.966716 95:-0.965105 96:-0.963253 97:-0.961672 98:-0.960024 99:-0.958493 100:-0.956937 101:-0.955571 102:-0.954094 103:-0.952661 104:-0.953414 
1527.685567906411 1:-0.984854 2:-0.968619 3:-0.980097 4:-0.989471 5:-0.828609 6:-0.832291 7:-0.828837 8:-0.83075 9:-0.830254 10:-0.831021 11:-0.833585 12:-0.869567 13:-0.89995 14:-0.914666 15:-0.928607 16:-0.932283 17:-0.924244 18:-0.920039 19:-0.913625 20:-0.909374 21:-0.916318 22:-0.928551 23:-0.937809 24:-0.94514 25:-0.946707 26:-0.948031 27:-0.950286 28:-0.954184 29:-0.958306 30:-0.961942 31:-0.965146 32:-0.967881 33:-0.970833 34:-0.97358 35:-0.976307 36:-0.978378 37:-0.980546 38:-0.982703 39:-0.984741 40:-0.986344 41:-0.987445 42:-0.9878 43:-0.988253 44:-0.988683 45:-0.988981 46:-0.989055 47:-0.989118 48:-0.989184 49:-0.989248 50:-0.989309 51:-0.989369 52:-0.989366 53:-0.989371 54:-0.989314 55:-0.989378 56:-0.989625 57:-0.990076 58:-0.990074 59:-0.99006 60:-0.990047 61:-0.990034 62:-0.9901 63:-0.990088 64:-0.990076 65:-0.990062 66:-0.990051 67:-0.990112 68:-0.990086 69:-0.990046 70:-0.990007 71:-0.989968 72:-0.989931 73:-0.989894 74:-0.989862 75:-0.989841 76:-0.989819 77:-0.989798 78:-0.989778 79:-0.98974 80:-0.989707 81:-0.989668 82:-0.989633 83:-0.989157 84:-0.986774 85:-0.984563 86:-0.982336 87:-0.980194 88:-0.977971 89:-0.975998 90:-0.974218 91:-0.972384 92:-0.970345 93:-0.968484 94:-0.966615 95:-0.965004 96:-0.963152 97:-0.961671 98:-0.959988 99:-0.958421 100:-0.957066 101:-0.955531 102:-0.954043 103:-0.95262 104:-0.953399 
2048 1:-0.988155 2:-0.970711 3:-0.980097 4:-0.989293 5:-0.827181 6:-0.83366 7:-0.829712 8:-0.829237 9:-0.829011 10:-0.83116 11:-0.834835 12:-0.870712 13:-0.899347 14:-0.9135 15:-0.927527 16:-0.931279 17:-0.923306 18:-0.919158 19:-0.912792 20:-0.908863 21:-0.915825 22:-0.928074 23:-0.937347 24:-0.944691 25:-0.946957 26:-0.948585 27:-0.950814 28:-0.954683 29:-0.958779 30:-0.962391 31:-0.965573 32:-0.968287 33:-0.971219 34:-0.973948 35:-0.97651 36:-0.97857 37:-0.980727 38:-0.982874 39:-0.98492 40:-0.986623 41:-0.987401 42:-0.987752 43:-0.988201 44:-0.988629 45:-0.988924 46:-0.988995 47:-0.989056 48:-0.989119 49:-0.98918 50:-0.989239 51:-0.989297 52:-0.989292 53:-0.989295 54:-0.989236 55:-0.989227 56:-0.989226 57:-0.98922 58:-0.989219 59:-0.989217 60:-0.989216 61:-0.989215 62:-0.989214 63:-0.989408 64:-0.989405 65:-0.989462 66:-0.989856 67:-0.990237 68:-0.990238 69:-0.990193 70:-0.990149 71:-0.990106 72:-0.990064 73:-0.990056 74:-0.990052 75:-0.990026 76:-0.989999 77:-0.989973 78:-0.989948 79:-0.989905 80:-0.989868 81:-0.989824 82:-0.989785 83:-0.989305 84:-0.986919 85:-0.984703 86:-0.982473 87:-0.980326 88:-0.978099 89:-0.976065 90:-0.974132 91:-0.972295 92:-0.970254 93:-0.96852 94:-0.966649 95:-0.965036 96:-0.963181 97:-0.961598 98:-0.959827 99:-0.958254 100:-0.956698 101:-0.955126 102:-0.953681 103:-0.952417 104:-0.953218 
2048 1:-0.986893 2:-0.966527 3:-0.978621 4:-0.989193 5:-0.832189 6:-0.839795 7:-0.833817 8:-0.832271 9:-0.8314 10:-0.832635 11:-0.835397 12:-0.870678 13:-0.900088 14:-0.914672 15:-0.92858 16:-0.932228 17:-0.924166 18:-0.91994 19:-0.913509 20:-0.909244 21:-0.916174 22:-0.928394 23:-0.937641 24:-0.945187 25:-0.946734 26:-0.947523 27:-0.949504 28:-0.953418 29:-0.957556 30:-0.961205 31:-0.964422 32:-0.96717 33:-0.970133 34:-0.97289 35:-0.975479 36:-0.977565 37:-0.980095 38:-0.982848 39:-0.984951 40:-0.986808 41:-0.987576 42:-0.98822 43:-0.988653 44:-0.989064 45:-0.989399 46:-0.989856 47:-0.990114 48:-0.990149 49:-0.990183 50:-0.990216 51:-0.990248 52:-0.99022 53:-0.990199 54:-0.990117 55:-0.990087 56:-0.990144 57:-0.990127 58:-0.990105 59:-0.990083 60:-0.990064 61:-0.990044 62:-0.990025 63:-0.990007 64:-0.99001 65:-0.990047 66:-0.99003 67:-0.990013 68:-0.989983 69:-0.989939 70:-0.989965 71:-0.989921 72:-0.989879 73:-0.989838 74:-0.989802 75:-0.989776 76:-0.98975 77:-0.989725 78:-0.989701 79:-0.989659 80:-0.989622 81:-0.989728 82:-0.989688 83:-0.989344 84:-0.986954 85:-0.984735 86:-0.982502 87:-0.980353 88:-0.978124 89:-0.976087 90:-0.974151 91:-0.972311 92:-0.970269 93:-0.968405 94:-0.966534 95:-0.965067 96:-0.96321 97:-0.961625 98:-0.959851 99:-0.958253 100:-0.956741 101:-0.955167 102:-0.953629 103:-0.952405 104:-0.953208 
2048 1:-0.982426 2:-0.959205 3:-0.97613 4:-0.989046 5:-0.835271 6:-0.835216 7:-0.833443 8:-0.831916 9:-0.832206 10:-0.833712 11:-0.834234 12:-0.868734 13:-0.898027 14:-0.913566 15:-0.927542 16:-0.931865 17:-0.923808 18:-0.919587 19:-0.913159 20:-0.909176 21:-0.916092 22:-0.928549 23:-0.938234 24:-0.945511 25:-0.947028 26:-0.947789 27:-0.949746 28:-0.953826 29:-0.957754 30:-0.961559 31:-0.964752 32:-0.967477 33:-0.970419 34:-0.973157 35:-0.975728 36:-0.977796 37:-0.979961 38:-0.982204 39:-0.98428 40:-0.985876 41:-0.98666 42:-0.987018 43:-0.987473 44:-0.987906 45:-0.9886 46:-0.988912 47:-0.989409 48:-0.989828 49:-0.989862 50:-0.989895 51:-0.989928 52:-0.9899 53:-0.990201 54:-0.99012 55:-0.990207 56:-0.990177 57:-0.990144 58:-0.990116 59:-0.990172 60:-0.990145 61:-0.990119 62:-0.990092 63:-0.990069 64:-0.990122 65:-0.990097 66:-0.990073 67:-0.990115 68:-0.990087 69:-0.990106 70:-0.990056 71:-0.990007 72:-0.989959 73:-0.989912 74:-0.98987 75:-0.989839 76:-0.989808 77:-0.98984 78:-0.989811 79:-0.989763 80:-0.98972 81:-0.989673 82:-0.989629 83:-0.989257 84:-0.986926 85:-0.984756 86:-0.982519 87:-0.980365 88:-0.978132 89:-0.976092 90:-0.974152 91:-0.972309 92:-0.970263 93:-0.968446 94:-0.96657 95:-0.964952 96:-0.963142 97:-0.961555 98:-0.959779 99:-0.958226 100:-0.956664 101:-0.955088 102:-0.953614 103:-0.952405 104:-0.953211 
2048 1:-0.990291 2:-0.968619 3:-0.979674 4:-0.988695 5:-0.835133 6:-0.835081 7:-0.830471 8:-0.830744 9:-0.830093 10:-0.831042 11:-0.835335 12:-0.870719 13:-0.900196 14:-0.914206 15:-0.928114 16:-0.931764 17:-0.923704 18:-0.919481 19:-0.913051 20:-0.908788 21:-0.915717 22:-0.927935 23:-0.937182 24:-0.944501 25:-0.946275 26:-0.947269 27:-0.949242 28:-0.953148 29:-0.957229 30:-0.961186 31:-0.964387 32:-0.967529 33:-0.970992 34:-0.973852 35:-0.976396 36:-0.97844 37:-0.980581 38:-0.982713 39:-0.984727 40:-0.986307 41:-0.987076 42:-0.987419 43:-0.98786 44:-0.98828 45:-0.988568 46:-0.988639 47:-0.989222 48:-0.989267 49:-0.98931 50:-0.989353 51:-0.989394 52:-0.989525 53:-0.989658 54:-0.989578 55:-0.98955 56:-0.98953 57:-0.989506 58:-0.989488 59:-0.989469 60:-0.989452 61:-0.989436 62:-0.989419 63:-0.989404 64:-0.98939 65:-0.989375 66:-0.989361 67:-0.98942 68:-0.989392 69:-0.98935 70:-0.989309 71:-0.989269 72:-0.98923 73:-0.989192 74:-0.989158 75:-0.989135 76:-0.989112 77:-0.989089 78:-0.989068 79:-0.989051 80:-0.989145 81:-0.989102 82:-0.989064 83:-0.988585 84:-0.986201 85:-0.983987 86:-0.981758 87:-0.979613 88:-0.977468 89:-0.975434 90:-0.973501 91:-0.971665 92:-0.969625 93:-0.967764 94:-0.965895 95:-0.964408 96:-0.962623 97:-0.961041 98:-0.959269 99:-0.957673 100:-0.956116 101:-0.954785 102:-0.953318 103:-0.951902 104:-0.952636 
2048 1:-0.984659 2:-0.968619 3:-0.978699 4:-0.987522 5:-0.833898 6:-0.836024 7:-0.83216 8:-0.830612 9:-0.829742 10:-0.832088 11:-0.834145 12:-0.871611 13:-0.898926 14:-0.912931 15:-0.926835 16:-0.930486 17:-0.922431 18:-0.918214 19:-0.911784 20:-0.907525 21:-0.914451 22:-0.926913 23:-0.936144 24:-0.943448 25:-0.945538 26:-0.946304 27:-0.948263 28:-0.952594 29:-0.956514 30:-0.960136 31:-0.963328 32:-0.966051 33:-0.968993 34:-0.971729 35:-0.974299 36:-0.976367 37:-0.978531 38:-0.980684 39:-0.982717 40:-0.984316 41:-0.985104 42:-0.985465 43:-0.985924 44:-0.986522 45:-0.986945 46:-0.987018 47:-0.987078 48:-0.987143 49:-0.987205 50:-0.987633 51:-0.988048 52:-0.988379 53:-0.988362 54:-0.988282 55:-0.988255 56:-0.988235 57:-0.988211 58:-0.988194 59:-0.988175 60:-0.988159 61:-0.988143 62:-0.988127 63:-0.988112 64:-0.988099 65:-0.988083 66:-0.98807 67:-0.988057 68:-0.988031 69:-0.98799 70:-0.988029 71:-0.988084 72:-0.988043 73:-0.988004 74:-0.987969 75:-0.987945 76:-0.98792 77:-0.987896 78:-0.987874 79:-0.987833 80:-0.987798 81:-0.987756 82:-0.987719 83:-0.987242 84:-0.984859 85:-0.982648 86:-0.980422 87:-0.978279 88:-0.976056 89:-0.974026 90:-0.972246 91:-0.97049 92:-0.96845 93:-0.966604 94:-0.96477 95:-0.963158 96:-0.961369 97:-0.959846 98:-0.958134 99:-0.956547 100:-0.955215 101:-0.953684 102:-0.952234 103:-0.950772 104:-0.951504 
2048 1:-0.983203 2:-0.955021 3:-0.973048 4:-0.985244 5:-0.815367 6:-0.830008 7:-0.827201 8:-0.826237 9:-0.825719 10:-0.827223 11:-0.828789 12:-0.864951 13:-0.892646 14:-0.909139 15:-0.923128 16:-0.926862 17:-0.918889 18:-0.914743 19:-0.908364 20:-0.904703 21:-0.911629 22:-0.923836 23:-0.933077 24:-0.940388 25:-0.941951 26:-0.943707 27:-0.946647 28:-0.950492 29:-0.954385 30:-0.957982 31:-0.961151 32:-0.963853 33:-0.966931 34:-0.969643 35:-0.97219 36:-0.974238 37:-0.976382 38:-0.978515 39:-0.980531 40:-0.982112 41:-0.982885 42:-0.983233 43:-0.983679 44:-0.984103 45:-0.984395 46:-0.984464 47:-0.984626 48:-0.984946 49:-0.984997 50:-0.985633 51:-0.986165 52:-0.986128 53:-0.986101 54:-0.986012 55:-0.986066 56:-0.986036 57:-0.986002 58:-0.985975 59:-0.985947 60:-0.985922 61:-0.985898 62:-0.985873 63:-0.985851 64:-0.98583 65:-0.985807 66:-0.986113 67:-0.986132 68:-0.986093 69:-0.986041 70:-0.98599 71:-0.98594 72:-0.985891 73:-0.985843 74:-0.985911 75:-0.985891 76:-0.986153 77:-0.986179 78:-0.986143 79:-0.986089 80:-0.986041 81:-0.985987 82:-0.985937 83:-0.985506 84:-0.983114 85:-0.980892 86:-0.978656 87:-0.976504 88:-0.974272 89:-0.972233 90:-0.970294 91:-0.968452 92:-0.966407 93:-0.964541 94:-0.962803 95:-0.961196 96:-0.959484 97:-0.957895 98:-0.956259 99:-0.954655 100:-0.953091 101:-0.951513 102:-0.949995 103:-0.948822 104:-0.949534 
2048 1:-0.978057 2:-0.950837 3:-0.973965 4:-0.984949 5:-0.817427 6:-0.830091 7:-0.826175 8:-0.825403 9:-0.828077 10:-0.828679 11:-0.829337 12:-0.863853 13:-0.893888 14:-0.908729 15:-0.924021 16:-0.929272 17:-0.921087 18:-0.916759 19:-0.910229 20:-0.905889 21:-0.912733 22:-0.925119 23:-0.934282 24:-0.941524 25:-0.94302 26:-0.943767 27:-0.945707 28:-0.949768 29:-0.953678 30:-0.957466 31:-0.960643 32:-0.963353 33:-0.966439 34:-0.969158 35:-0.971711 36:-0.974043 37:-0.976184 38:-0.97845 39:-0.98046 40:-0.982035 41:-0.982803 42:-0.983447 43:-0.984296 44:-0.984996 45:-0.985662 46:-0.985838 47:-0.985855 48:-0.98588 49:-0.985907 50:-0.986026 51:-0.986145 52:-0.986103 53:-0.986071 54:-0.985978 55:-0.986027 56:-0.985993 57:-0.98604 58:-0.986007 59:-0.985974 60:-0.985944 61:-0.985914 62:-0.985963 63:-0.98613 64:-0.986151 65:-0.986175 66:-0.986144 67:-0.986115 68:-0.986143 69:-0.986086 70:-0.98603 71:-0.986043 72:-0.985989 73:-0.985936 74:-0.985888 75:-0.985915 76:-0.985877 77:-0.98584 78:-0.985805 79:-0.985752 80:-0.985706 81:-0.985711 82:-0.985662 83:-0.985173 84:-0.982838 85:-0.980617 86:-0.978382 87:-0.97623 88:-0.974053 89:-0.972013 90:-0.970074 91:-0.968232 92:-0.966186 93:-0.96432 94:-0.962446 95:-0.960878 96:-0.95902 97:-0.957482 98:-0.955803 99:-0.954202 100:-0.952731 101:-0.951154 102:-0.949612 103:-0.948289 104:-0.949178 
2048 1:-0.981941 2:-0.953975 3:-0.971878 4:-0.985287 5:-0.82181 6:-0.826687 7:-0.827765 8:-0.826649 9:-0.826913 10:-0.82748 11:-0.828343 12:-0.862997 13:-0.890885 14:-0.905825 15:-0.920097 16:-0.924078 17:-0.916321 18:-0.913621 19:-0.907611 20:-0.903732 21:-0.911118 22:-0.925214 23:-0.935113 24:-0.942433 25:-0.943897 26:-0.944613 27:-0.946525 28:-0.950374 29:-0.954269 30:-0.958044 31:-0.961208 32:-0.963906 33:-0.966824 34:-0.969538 35:-0.972086 36:-0.974136 37:-0.976281 38:-0.978417 39:-0.980433 40:-0.982016 41:-0.98279 42:-0.983139 43:-0.983882 44:-0.984299 45:-0.984586 46:-0.984649 47:-0.984698 48:-0.984755 49:-0.984808 50:-0.985096 51:-0.985143 52:-0.985126 53:-0.98517 54:-0.985761 55:-0.985903 56:-0.985876 57:-0.98593 58:-0.986068 59:-0.986038 60:-0.98601 61:-0.985983 62:-0.985956 63:-0.985932 64:-0.985909 65:-0.985884 66:-0.985861 67:-0.98584 68:-0.985805 69:-0.985756 70:-0.985709 71:-0.985662 72:-0.985785 73:-0.985739 74:-0.985697 75:-0.985666 76:-0.985724 77:-0.985912 78:-0.985959 79:-0.985911 80:-0.985866 81:-0.985813 82:-0.985765 83:-0.985278 84:-0.982945 85:-0.980725 86:-0.97849 87:-0.97634 88:-0.97411 89:-0.972072 90:-0.970135 91:-0.968294 92:-0.966251 93:-0.964386 94:-0.962547 95:-0.961058 96:-0.959516 97:-0.957976 98:-0.956338 99:-0.95478 100:-0.953215 101:-0.951634 102:-0.95009 103:-0.948768 104:-0.94965 
2048 1:-0.984951 2:-0.956067 3:-0.975422 4:-0.985252 5:-0.817819 6:-0.82971 7:-0.826564 8:-0.825792 9:-0.825389 10:-0.827657 11:-0.828519 12:-0.863175 13:-0.891066 14:-0.906685 15:-0.920899 16:-0.924829 17:-0.917155 18:-0.913162 19:-0.907761 20:-0.903709 21:-0.912188 22:-0.924547 23:-0.933759 24:-0.941498 25:-0.943773 26:-0.944503 27:-0.946429 28:-0.950289 29:-0.954195 30:-0.957955 31:-0.961527 32:-0.964228 33:-0.967141 34:-0.969851 35:-0.972542 36:-0.974726 37:-0.97686 38:-0.978984 39:-0.98099 40:-0.982563 41:-0.983328 42:-0.983667 43:-0.984401 44:-0.98481 45:-0.985089 46:-0.985144 47:-0.985187 48:-0.985236 49:-0.985283 50:-0.985329 51:-0.985374 52:-0.985357 53:-0.98581 54:-0.98573 55:-0.985702 56:-0.985682 57:-0.985795 58:-0.986076 59:-0.986057 60:-0.986115 61:-0.986089 62:-0.986063 63:-0.98604 64:-0.986018 65:-0.985995 66:-0.985974 67:-0.985953 68:-0.985919 69:-0.986048 70:-0.985999 71:-0.985951 72:-0.985904 73:-0.985858 74:-0.985817 75:-0.985787 76:-0.985756 77:-0.986088 78:-0.986088 79:-0.986158 80:-0.986111 81:-0.986057 82:-0.986009 83:-0.985521 84:-0.98313 85:-0.98091 86:-0.978675 87:-0.976579 88:-0.974348 89:-0.97231 90:-0.970371 91:-0.96853 92:-0.966485 93:-0.96462 94:-0.962746 95:-0.96113 96:-0.959273 97:-0.957688 98:-0.956036 99:-0.954456 100:-0.952896 101:-0.951321 102:-0.949782 103:-0.948514 104:-0.949397 
2048 1:-0.986213 2:-0.959205 3:-0.975077 4:-0.985132 5:-0.815377 6:-0.830018 7:-0.828668 8:-0.827341 9:-0.826604 10:-0.827234 11:-0.828141 12:-0.862824 13:-0.890737 14:-0.905501 15:-0.919985 16:-0.92398 17:-0.916236 18:-0.913712 19:-0.907795 20:-0.90363 21:-0.910879 22:-0.923125 23:-0.932925 24:-0.941533 25:-0.944047 26:-0.944759 27:-0.946668 28:-0.950513 29:-0.954406 30:-0.958003 31:-0.961171 32:-0.963872 33:-0.96695 34:-0.969662 35:-0.972209 36:-0.974256 37:-0.9764 38:-0.978534 39:-0.980549 40:-0.98213 41:-0.982903 42:-0.98325 43:-0.983696 44:-0.98412 45:-0.984412 46:-0.984481 47:-0.984536 48:-0.984597 49:-0.984655 50:-0.984911 51:-0.984963 52:-0.985191 53:-0.985184 54:-0.985122 55:-0.985747 56:-0.985724 57:-0.985863 58:-0.985964 59:-0.986059 60:-0.986271 61:-0.986318 62:-0.986286 63:-0.986257 64:-0.986229 65:-0.9862 66:-0.986174 67:-0.986148 68:-0.986109 69:-0.986057 70:-0.986006 71:-0.985955 72:-0.985906 73:-0.986025 74:-0.98598 75:-0.985973 76:-0.985938 77:-0.986076 78:-0.986054 79:-0.986107 80:-0.986075 81:-0.98602 82:-0.98597 83:-0.985481 84:-0.983089 85:-0.980868 86:-0.978632 87:-0.976481 88:-0.974249 89:-0.972211 90:-0.970272 91:-0.968431 92:-0.966386 93:-0.96452 94:-0.962647 95:-0.96103 96:-0.959173 97:-0.95771 98:-0.956003 99:-0.954403 100:-0.952842 101:-0.951267 102:-0.949752 103:-0.948582 104:-0.949296 
2048 1:-0.98631 2:-0.956067 3:-0.975461 4:-0.985075 5:-0.82622 6:-0.828835 7:-0.829303 8:-0.827804 9:-0.826963 10:-0.827522 11:-0.82838 12:-0.863029 13:-0.890915 14:-0.905852 15:-0.920122 16:-0.924101 17:-0.916343 18:-0.912583 19:-0.907896 20:-0.903721 21:-0.910699 22:-0.923201 23:-0.93247 24:-0.941056 25:-0.943898 26:-0.945189 27:-0.947077 28:-0.950903 29:-0.954778 30:-0.958359 31:-0.961512 32:-0.9642 33:-0.967108 34:-0.969965 35:-0.9725 36:-0.974537 37:-0.976671 38:-0.978795 39:-0.980932 40:-0.982501 41:-0.983262 42:-0.983599 43:-0.984034 44:-0.984562 45:-0.984842 46:-0.984899 47:-0.984943 48:-0.984994 49:-0.985144 50:-0.985189 51:-0.985233 52:-0.985215 53:-0.985206 54:-0.985134 55:-0.985289 56:-0.985274 57:-0.985368 58:-0.9859 59:-0.986037 60:-0.986091 61:-0.986219 62:-0.986188 63:-0.98616 64:-0.986132 65:-0.986179 66:-0.986152 67:-0.986125 68:-0.986086 69:-0.986033 70:-0.985981 71:-0.985999 72:-0.985948 73:-0.985899 74:-0.985855 75:-0.985822 76:-0.985851 77:-0.985818 78:-0.985786 79:-0.985736 80:-0.985693 81:-0.985791 82:-0.985821 83:-0.985333 84:-0.982964 85:-0.980778 86:-0.978544 87:-0.976393 88:-0.974161 89:-0.972123 90:-0.970185 91:-0.968344 92:-0.9663 93:-0.964435 94:-0.962562 95:-0.961042 96:-0.959184 97:-0.957598 98:-0.95592 99:-0.95432 100:-0.952759 101:-0.951184 102:-0.949711 103:-0.948487 104:-0.949214 
2048 1:-0.981844 2:-0.963389 3:-0.975441 4:-0.984877 5:-0.817444 6:-0.830074 7:-0.826192 8:-0.82542 9:-0.825017 10:-0.828426 11:-0.829123 12:-0.863665 13:-0.891464 14:-0.905883 15:-0.920131 16:-0.924981 17:-0.917137 18:-0.913104 19:-0.906817 20:-0.903361 21:-0.911972 22:-0.924841 23:-0.934312 24:-0.941554 25:-0.943049 26:-0.943796 27:-0.945932 28:-0.949796 29:-0.953706 30:-0.957319 31:-0.960502 32:-0.963217 33:-0.966151 34:-0.96888 35:-0.971443 36:-0.973728 37:-0.97594 38:-0.978079 39:-0.9801 40:-0.981686 41:-0.982463 42:-0.982815 43:-0.983265 44:-0.983693 45:-0.98399 46:-0.984062 47:-0.984121 48:-0.984185 49:-0.984247 50:-0.984307 51:-0.984366 52:-0.984362 53:-0.984471 54:-0.984538 55:-0.984854 56:-0.985331 57:-0.985305 58:-0.985286 59:-0.985267 60:-0.985284 61:-0.985388 62:-0.985368 63:-0.985351 64:-0.985334 65:-0.985315 66:-0.985299 67:-0.985465 68:-0.985433 69:-0.985387 70:-0.985342 71:-0.985298 72:-0.985255 73:-0.985213 74:-0.985176 75:-0.985149 76:-0.985272 77:-0.985365 78:-0.985437 79:-0.98553 80:-0.985547 81:-0.985495 82:-0.985449 83:-0.984963 84:-0.982575 85:-0.980408 86:-0.978265 87:-0.976116 88:-0.973886 89:-0.971849 90:-0.969912 91:-0.968072 92:-0.966029 93:-0.964164 94:-0.962418 95:-0.960841 96:-0.958987 97:-0.957446 98:-0.955672 99:-0.954073 100:-0.952513 101:-0.950938 102:-0.949445 103:-0.948211 104:-0.949015 
2048 1:-0.976795 2:-0.950837 3:-0.973276 4:-0.984718 5:-0.817154 6:-0.830357 7:-0.827289 8:-0.83048 9:-0.829007 10:-0.829134 11:-0.829687 12:-0.86413 13:-0.892342 14:-0.906648 15:-0.921598 16:-0.925413 17:-0.917513 18:-0.913431 19:-0.907103 20:-0.90369 21:-0.912189 22:-0.924867 23:-0.934028 24:-0.942362 25:-0.943806 26:-0.944503 27:-0.946399 28:-0.950232 29:-0.954113 30:-0.957874 31:-0.961026 32:-0.963712 33:-0.966619 34:-0.969323 35:-0.971862 36:-0.974045 37:-0.976565 38:-0.978825 39:-0.980816 40:-0.982374 41:-0.983125 42:-0.983452 43:-0.983995 44:-0.984397 45:-0.984669 46:-0.984718 47:-0.984754 48:-0.984798 49:-0.984941 50:-0.984979 51:-0.985017 52:-0.985088 53:-0.985071 54:-0.984992 55:-0.985055 56:-0.985035 57:-0.985008 58:-0.985214 59:-0.985617 60:-0.985588 61:-0.98556 62:-0.985531 63:-0.985583 64:-0.985557 65:-0.985589 66:-0.985579 67:-0.985554 68:-0.985515 69:-0.985464 70:-0.985413 71:-0.985363 72:-0.985382 73:-0.985333 74:-0.985291 75:-0.985383 76:-0.985524 77:-0.985655 78:-0.985821 79:-0.985764 80:-0.985714 81:-0.985656 82:-0.985604 83:-0.985112 84:-0.982775 85:-0.980551 86:-0.978313 87:-0.976159 88:-0.973925 89:-0.971937 90:-0.969996 91:-0.968152 92:-0.966149 93:-0.964286 94:-0.962409 95:-0.960789 96:-0.958929 97:-0.957341 98:-0.955565 99:-0.954011 100:-0.952449 101:-0.951012 102:-0.949577 103:-0.948171 104:-0.948986 
2048 1:-0.983397 2:-0.956067 3:-0.973276 4:-0.984606 5:-0.814741 6:-0.829285 7:-0.825046 8:-0.826593 9:-0.826915 10:-0.828353 11:-0.829007 12:-0.863515 13:-0.892976 14:-0.907213 15:-0.921311 16:-0.925143 17:-0.917945 18:-0.913825 19:-0.907464 20:-0.903545 21:-0.910511 22:-0.922989 23:-0.93318 24:-0.941519 25:-0.942997 26:-0.944917 27:-0.946791 28:-0.950604 29:-0.954467 30:-0.958036 31:-0.961179 32:-0.963857 33:-0.966802 34:-0.969604 35:-0.972131 36:-0.97416 37:-0.976425 38:-0.979216 39:-0.981298 40:-0.982841 41:-0.983576 42:-0.983889 43:-0.984301 44:-0.984693 45:-0.985067 46:-0.985104 47:-0.985129 48:-0.985162 49:-0.985193 50:-0.985224 51:-0.985255 52:-0.985363 53:-0.985388 54:-0.985301 55:-0.985266 56:-0.98524 57:-0.985208 58:-0.985184 59:-0.985242 60:-0.985428 61:-0.985587 62:-0.98569 63:-0.985679 64:-0.98565 65:-0.98562 66:-0.985592 67:-0.985677 68:-0.985664 69:-0.985609 70:-0.985554 71:-0.985501 72:-0.985449 73:-0.985398 74:-0.985353 75:-0.985382 76:-0.985346 77:-0.985312 78:-0.985434 79:-0.98538 80:-0.985533 81:-0.985477 82:-0.985426 83:-0.984935 84:-0.982599 85:-0.980377 86:-0.97814 87:-0.975987 88:-0.973754 89:-0.971714 90:-0.969774 91:-0.967932 92:-0.965958 93:-0.964117 94:-0.962241 95:-0.960623 96:-0.958764 97:-0.957176 98:-0.955401 99:-0.953801 100:-0.95224 101:-0.950711 102:-0.94917 103:-0.948012 104:-0.948872 
2048 1:-0.978834 2:-0.955021 3:-0.976781 4:-0.985507 5:-0.818157 6:-0.829151 7:-0.826899 8:-0.826128 9:-0.828801 10:-0.829399 11:-0.831168 12:-0.869279 13:-0.896588 14:-0.911964 15:-0.925751 16:-0.929308 17:-0.921177 18:-0.916896 19:-0.910406 20:-0.906378 21:-0.913502 22:-0.92564 23:-0.934817 24:-0.942072 25:-0.943578 26:-0.944333 27:-0.946463 28:-0.95035 29:-0.954268 30:-0.957888 31:-0.961078 32:-0.963799 33:-0.966739 34:-0.969474 35:-0.972188 36:-0.974252 37:-0.976548 38:-0.978692 39:-0.980716 40:-0.982388 41:-0.983211 42:-0.983563 43:-0.984012 44:-0.98444 45:-0.984736 46:-0.984809 47:-0.984867 48:-0.985134 49:-0.985191 50:-0.985246 51:-0.985398 52:-0.986027 53:-0.986294 54:-0.986211 55:-0.986181 56:-0.986159 57:-0.986131 58:-0.986195 59:-0.986334 60:-0.986311 61:-0.986288 62:-0.98665 63:-0.986623 64:-0.986597 65:-0.986687 66:-0.986692 67:-0.986665 68:-0.986626 69:-0.986573 70:-0.986521 71:-0.986538 72:-0.986487 73:-0.986438 74:-0.986394 75:-0.98636 76:-0.986327 77:-0.986294 78:-0.986324 79:-0.986394 80:-0.986408 81:-0.986354 82:-0.986307 83:-0.985819 84:-0.983682 85:-0.981459 86:-0.979242 87:-0.977089 88:-0.974854 89:-0.972814 90:-0.970926 91:-0.969081 92:-0.967034 93:-0.965216 94:-0.963339 95:-0.96172 96:-0.95986 97:-0.958272 98:-0.956543 99:-0.954942 100:-0.95338 101:-0.951803 102:-0.950262 103:-0.948799 104:-0.949573 
2048 1:-0.986116 2:-0.957113 3:-0.975038 4:-0.985192 5:-0.817735 6:-0.825616 7:-0.826481 8:-0.82893 9:-0.828756 10:-0.829022 11:-0.829673 12:-0.867762 13:-0.897183 14:-0.91109 15:-0.92573 16:-0.929252 17:-0.921093 18:-0.916787 19:-0.910276 20:-0.905952 21:-0.912811 22:-0.925211 23:-0.934386 24:-0.941639 25:-0.94336 26:-0.944106 27:-0.946045 28:-0.949916 29:-0.954015 30:-0.957628 31:-0.960811 32:-0.963527 33:-0.966461 34:-0.96919 35:-0.971752 36:-0.973815 37:-0.975973 38:-0.97812 39:-0.980148 40:-0.982122 41:-0.982896 42:-0.983245 43:-0.983692 44:-0.984116 45:-0.98441 46:-0.98448 47:-0.984536 48:-0.984598 49:-0.984758 50:-0.984814 51:-0.984868 52:-0.985545 53:-0.986131 54:-0.986043 55:-0.986007 56:-0.986092 57:-0.986206 58:-0.986176 59:-0.986146 60:-0.986118 61:-0.986091 62:-0.986064 63:-0.986297 64:-0.986284 65:-0.986255 66:-0.986228 67:-0.986229 68:-0.986189 69:-0.986136 70:-0.986084 71:-0.986102 72:-0.986051 73:-0.986002 74:-0.985958 75:-0.985924 76:-0.98589 77:-0.985857 78:-0.985966 79:-0.986132 80:-0.986085 81:-0.98603 82:-0.985981 83:-0.985552 84:-0.983265 85:-0.981151 86:-0.978913 87:-0.976758 88:-0.974523 89:-0.972481 90:-0.97054 91:-0.968696 92:-0.966777 93:-0.964907 94:-0.963029 95:-0.961409 96:-0.959548 97:-0.957959 98:-0.956182 99:-0.954606 100:-0.953128 101:-0.95155 102:-0.950053 103:-0.948633 104:-0.94936 
2048 1:-0.986601 2:-0.961297 3:-0.973718 4:-0.984979 5:-0.817442 6:-0.82864 7:-0.824734 8:-0.825418 9:-0.827056 10:-0.828048 11:-0.830624 12:-0.869152 13:-0.896832 14:-0.911539 15:-0.925431 16:-0.928954 17:-0.920795 18:-0.91649 19:-0.909979 20:-0.905715 21:-0.912777 22:-0.924912 23:-0.934086 24:-0.941338 25:-0.942844 26:-0.943599 27:-0.945547 28:-0.949615 29:-0.953532 30:-0.957152 31:-0.960341 32:-0.963062 33:-0.966204 34:-0.969117 35:-0.971672 36:-0.973728 37:-0.97588 38:-0.97802 39:-0.980042 40:-0.981629 41:-0.982408 42:-0.982762 43:-0.983214 44:-0.983643 45:-0.9841 46:-0.984169 47:-0.984225 48:-0.984288 49:-0.984347 50:-0.984405 51:-0.984965 52:-0.985669 53:-0.985812 54:-0.985725 55:-0.985689 56:-0.985662 57:-0.985716 58:-0.985689 59:-0.985662 60:-0.985638 61:-0.985614 62:-0.98583 63:-0.985959 64:-0.985931 65:-0.985903 66:-0.985877 67:-0.985852 68:-0.985813 69:-0.985761 70:-0.985711 71:-0.985661 72:-0.985733 73:-0.985684 74:-0.98564 75:-0.985607 76:-0.985573 77:-0.985541 78:-0.985788 79:-0.985736 80:-0.985772 81:-0.985717 82:-0.985668 83:-0.98518 84:-0.982953 85:-0.980731 86:-0.978494 87:-0.976341 88:-0.974108 89:-0.972068 90:-0.970226 91:-0.968387 92:-0.96634 93:-0.964472 94:-0.962596 95:-0.960977 96:-0.959118 97:-0.957531 98:-0.955755 99:-0.954155 100:-0.952712 101:-0.951367 102:-0.949931 103:-0.948499 104:-0.949224 
2048 1:-0.983786 2:-0.957113 3:-0.974596 4:-0.984841 5:-0.817356 6:-0.828129 7:-0.826105 8:-0.82579 9:-0.827553 10:-0.829411 11:-0.829953 12:-0.868111 13:-0.896327 14:-0.910754 15:-0.925388 16:-0.928906 17:-0.920745 18:-0.916437 19:-0.909924 20:-0.905599 21:-0.912455 22:-0.924851 23:-0.934023 24:-0.941274 25:-0.942994 26:-0.943739 27:-0.945677 28:-0.949547 29:-0.953464 30:-0.957082 31:-0.96027 32:-0.962991 33:-0.965929 34:-0.968662 35:-0.971228 36:-0.973295 37:-0.975457 38:-0.977945 39:-0.98003 40:-0.981615 41:-0.982392 42:-0.982744 43:-0.983193 44:-0.983621 45:-0.983917 46:-0.983989 47:-0.984047 48:-0.984373 49:-0.984742 50:-0.985499 51:-0.985547 52:-0.985595 53:-0.985572 54:-0.985487 55:-0.985454 56:-0.98543 57:-0.985401 58:-0.985378 59:-0.985355 60:-0.985417 61:-0.985395 62:-0.985373 63:-0.985354 64:-0.985335 65:-0.985315 66:-0.985297 67:-0.98528 68:-0.985249 69:-0.985205 70:-0.985161 71:-0.985118 72:-0.985246 73:-0.985202 74:-0.98532 75:-0.985292 76:-0.985266 77:-0.985597 78:-0.985687 79:-0.985696 80:-0.985649 81:-0.985595 82:-0.985546 83:-0.985058 84:-0.982667 85:-0.980448 86:-0.978269 87:-0.976118 88:-0.973887 89:-0.971849 90:-0.969911 91:-0.96807 92:-0.966026 93:-0.964161 94:-0.962287 95:-0.960671 96:-0.958815 97:-0.957359 98:-0.955694 99:-0.95414 100:-0.952579 101:-0.951003 102:-0.949462 103:-0.948184 104:-0.94903 
-2048 1:-0.989417 2:-0.964435 3:-0.980936 4:-0.988437 5:-0.830158 6:-0.832555 7:-0.83014 8:-0.831536 9:-0.830683 10:-0.831211 11:-0.832049 12:-0.866749 13:-0.894672 14:-0.909183 15:-0.923506 16:-0.927519 17:-0.91978 18:-0.916151 19:-0.909927 20:-0.905853 21:-0.912933 22:-0.925281 23:-0.934647 24:-0.942073 25:-0.943735 26:-0.944632 27:-0.947092 28:-0.951076 29:-0.955097 30:-0.958812 31:-0.96209 32:-0.964895 33:-0.968254 34:-0.971469 35:-0.974081 36:-0.976188 37:-0.97839 38:-0.980839 39:-0.982899 40:-0.984769 41:-0.986055 42:-0.986419 43:-0.98688 44:-0.987319 45:-0.987625 46:-0.987707 47:-0.987776 48:-0.98785 49:-0.987919 50:-0.987987 51:-0.988053 52:-0.988056 53:-0.988067 54:-0.988194 55:-0.988282 56:-0.988591 57:-0.988682 58:-0.988701 59:-0.988693 60:-0.988686 61:-0.988679 62:-0.988672 63:-0.988666 64:-0.98866 65:-0.988653 66:-0.988648 67:-0.988642 68:-0.988623 69:-0.988776 70:-0.988899 71:-0.988862 72:-0.988825 73:-0.98879 74:-0.988993 75:-0.989029 76:-0.989004 77:-0.989003 78:-0.988979 79:-0.988938 80:-0.988902 81:-0.98886 82:-0.988822 83:-0.988343 84:-0.985959 85:-0.983745 86:-0.981573 87:-0.979428 88:-0.977202 89:-0.97517 90:-0.973237 91:-0.971402 92:-0.969363 93:-0.967503 94:-0.965634 95:-0.964023 96:-0.962171 97:-0.960591 98:-0.958823 99:-0.957229 100:-0.955683 101:-0.954198 102:-0.952759 103:-0.951518 104:-0.952296 
-2048 1:-0.983786 2:-0.946653 3:-0.967912 4:-0.986776 5:-0.818893 6:-0.830166 7:-0.82625 8:-0.832802 9:-0.83156 10:-0.831533 11:-0.83198 12:-0.866383 13:-0.894068 14:-0.910102 15:-0.925146 16:-0.929723 17:-0.921617 18:-0.917356 19:-0.910886 20:-0.906595 21:-0.913487 22:-0.925918 23:-0.93512 24:-0.942398 25:-0.943925 26:-0.944698 27:-0.94686 28:-0.950748 29:-0.954681 30:-0.958315 31:-0.961941 32:-0.965046 33:-0.968432 34:-0.971391 35:-0.974807 36:-0.976813 37:-0.978919 38:-0.981017 39:-0.982999 40:-0.984676 41:-0.985413 42:-0.985727 43:-0.986141 44:-0.986823 45:-0.987121 46:-0.987154 47:-0.987652 48:-0.987779 49:-0.987827 50:-0.987841 51:-0.987856 52:-0.98781 53:-0.987774 54:-0.987768 55:-0.987722 56:-0.987684 57:-0.987642 58:-0.987608 59:-0.987573 60:-0.987541 61:-0.98751 62:-0.987558 63:-0.987528 64:-0.987499 65:-0.98747 66:-0.987442 67:-0.987461 68:-0.987556 69:-0.9875 70:-0.987794 71:-0.987815 72:-0.987757 73:-0.9877 74:-0.987649 75:-0.987608 76:-0.987567 77:-0.987528 78:-0.987491 79:-0.987435 80:-0.987446 81:-0.987389 82:-0.987338 83:-0.986847 84:-0.984565 85:-0.982395 86:-0.980261 87:-0.978268 88:-0.976028 89:-0.973981 90:-0.972087 91:-0.970237 92:-0.968183 93:-0.966309 94:-0.964478 95:-0.963102 96:-0.961316 97:-0.959866 98:-0.958123 99:-0.956605 100:-0.955032 101:-0.953564 102:-0.952076 103:-0.950601 104:-0.951407 
-2048 1:-0.983203 2:-0.959205 3:-0.972892 4:-0.982288 5:-0.8168 6:-0.831403 7:-0.825709 8:-0.830822 9:-0.828796 10:-0.830362 11:-0.832723 12:-0.868977 13:-0.896425 14:-0.910098 15:-0.923728 16:-0.92716 17:-0.91893 18:-0.914885 19:-0.908296 20:-0.90391 21:-0.910703 22:-0.922789 23:-0.931921 24:-0.939134 25:-0.94061 26:-0.941342 27:-0.943266 28:-0.947498 29:-0.951385 30:-0.954977 31:-0.95814 32:-0.960837 33:-0.963754 34:-0.966466 35:-0.969013 36:-0.971063 37:-0.973556 38:-0.97568 39:-0.977686 40:-0.979258 41:-0.980024 42:-0.980366 43:-0.980806 44:-0.981225 45:-0.981513 46:-0.981578 47:-0.981885 48:-0.981936 49:-0.981985 50:-0.982033 51:-0.982081 52:-0.982065 53:-0.982059 54:-0.98199 55:-0.981974 56:-0.981965 57:-0.981948 58:-0.982253 59:-0.982414 60:-0.982453 61:-0.983068 62:-0.983195 63:-0.983178 64:-0.983442 65:-0.983408 66:-0.983377 67:-0.983347 68:-0.983304 69:-0.983425 70:-0.983367 71:-0.98331 72:-0.983255 73:-0.983201 74:-0.983153 75:-0.983115 76:-0.983077 77:-0.98304 78:-0.983216 79:-0.98316 80:-0.983112 81:-0.983054 82:-0.983003 83:-0.982513 84:-0.980124 85:-0.977905 86:-0.975671 87:-0.973522 88:-0.971293 89:-0.969256 90:-0.96732 91:-0.965611 92:-0.963566 93:-0.961701 94:-0.959827 95:-0.958281 96:-0.956424 97:-0.954838 98:-0.953065 99:-0.951466 100:-0.95 101:-0.948628 102:-0.947281 103:-0.945816 104:-0.946539 
-2048 1:-0.983883 2:-0.959205 3:-0.975747 4:-0.983144 5:-0.824537 6:-0.833402 7:-0.827401 8:-0.827435 9:-0.829338 10:-0.829632 11:-0.831528 12:-0.867039 13:-0.894303 14:-0.908279 15:-0.92216 16:-0.925808 17:-0.917764 18:-0.913879 19:-0.907425 20:-0.903159 21:-0.910317 22:-0.92248 23:-0.931682 24:-0.938958 25:-0.940492 26:-0.941276 27:-0.943247 28:-0.947147 29:-0.951089 30:-0.954732 31:-0.957942 32:-0.960683 33:-0.964037 34:-0.966775 35:-0.969416 36:-0.971486 37:-0.97365 38:-0.975802 39:-0.977835 40:-0.979432 41:-0.980222 42:-0.980586 43:-0.981048 44:-0.981487 45:-0.981794 46:-0.982151 47:-0.982212 48:-0.982279 49:-0.982344 50:-0.982407 51:-0.982469 52:-0.982467 53:-0.982473 54:-0.982417 55:-0.982635 56:-0.982633 57:-0.982624 58:-0.982787 59:-0.983025 60:-0.983588 61:-0.983779 62:-0.983984 63:-0.984037 64:-0.984013 65:-0.983987 66:-0.983963 67:-0.98394 68:-0.983904 69:-0.983855 70:-0.983806 71:-0.983759 72:-0.983843 73:-0.983795 74:-0.983754 75:-0.983722 76:-0.98369 77:-0.983658 78:-0.983629 79:-0.983581 80:-0.983541 81:-0.983551 82:-0.983507 83:-0.983024 84:-0.980641 85:-0.978428 86:-0.9762 87:-0.974194 88:-0.971968 89:-0.969935 90:-0.968002 91:-0.966166 92:-0.964126 93:-0.962287 94:-0.960418 95:-0.958806 96:-0.957163 97:-0.955979 98:-0.954203 99:-0.952603 100:-0.951041 101:-0.949465 102:-0.947924 103:-0.946462 104:-0.947234 
-296.1447649043394 1:-0.978931 2:-0.919456 3:-0.950688 4:-0.980321 5:-0.821047 6:-0.827573 7:-0.825585 8:-0.82401 9:-0.822692 10:-0.822962 11:-0.823612 12:-0.858019 13:-0.886675 14:-0.900935 15:-0.915055 16:-0.921974 17:-0.91609 18:-0.911699 19:-0.905395 20:-0.900988 21:-0.907747 22:-0.919797 23:-0.928899 24:-0.936083 25:-0.937823 26:-0.939611 27:-0.943347 28:-0.947662 29:-0.951407 30:-0.955041 31:-0.958076 32:-0.960653 33:-0.963459 34:-0.966522 35:-0.969104 36:-0.971403 37:-0.973434 38:-0.975779 39:-0.977816 40:-0.979543 41:-0.98045 42:-0.98069 43:-0.981626 44:-0.982036 45:-0.98222 46:-0.982235 47:-0.982248 48:-0.982213 49:-0.982281 50:-0.982248 51:-0.982218 52:-0.982223 53:-0.982237 54:-0.982096 55:-0.982011 56:-0.982023 57:-0.982079 58:-0.982207 59:-0.982374 60:-0.982298 61:-0.982223 62:-0.98215 63:-0.982082 64:-0.982092 65:-0.982024 66:-0.98196 67:-0.981899 68:-0.981825 69:-0.981809 70:-0.981724 71:-0.981709 72:-0.981627 73:-0.981548 74:-0.981638 75:-0.981574 76:-0.9816 77:-0.981536 78:-0.981537 79:-0.981637 80:-0.981564 81:-0.982059 82:-0.982204 83:-0.981739 84:-0.979318 85:-0.97718 86:-0.974914 87:-0.972872 88:-0.970839 89:-0.968776 90:-0.96704 91:-0.965165 92:-0.963088 93:-0.96119 94:-0.959404 95:-0.957852 96:-0.955963 97:-0.954347 98:-0.952591 99:-0.951056 100:-0.94948 101:-0.947997 102:-0.946564 103:-0.945073 104:-0.945901 
-2048 1:-0.982232 2:-0.953975 3:-0.972125 4:-0.981593 5:-0.813715 6:-0.831101 7:-0.825641 8:-0.82943 9:-0.827531 10:-0.832065 11:-0.832001 12:-0.866661 13:-0.894902 14:-0.908642 15:-0.922328 16:-0.925811 17:-0.917629 18:-0.913625 19:-0.907068 20:-0.902713 21:-0.90979 22:-0.921879 23:-0.931015 24:-0.938231 25:-0.939713 26:-0.94045 27:-0.942378 28:-0.946237 29:-0.950504 30:-0.954099 31:-0.957264 32:-0.959963 33:-0.962883 34:-0.965596 35:-0.968145 36:-0.970482 37:-0.97262 38:-0.974747 39:-0.976757 40:-0.978331 41:-0.979101 42:-0.979447 43:-0.97989 44:-0.980312 45:-0.980748 46:-0.980945 47:-0.981042 48:-0.981094 49:-0.981144 50:-0.981193 51:-0.981242 52:-0.981227 53:-0.981222 54:-0.981155 55:-0.981365 56:-0.981829 57:-0.9818 58:-0.981864 59:-0.981841 60:-0.982476 61:-0.982653 62:-0.982618 63:-0.982586 64:-0.982631 65:-0.982598 66:-0.982567 67:-0.982537 68:-0.982495 69:-0.982439 70:-0.982384 71:-0.982399 72:-0.982345 73:-0.982293 74:-0.982247 75:-0.98221 76:-0.982174 77:-0.982138 78:-0.98226 79:-0.982206 80:-0.98216 81:-0.982105 82:-0.982056 83:-0.981569 84:-0.979266 85:-0.977049 86:-0.974818 87:-0.972671 88:-0.970773 89:-0.969161 90:-0.967283 91:-0.965435 92:-0.963383 93:-0.961511 94:-0.959632 95:-0.958058 96:-0.956195 97:-0.954604 98:-0.952825 99:-0.95122 100:-0.949656 101:-0.948076 102:-0.946533 103:-0.945068 104:-0.94588 
-1615.231607751294 1:-0.996602 2:-0.988494 3:-0.995306 4:-0.997057 5:-0.828558 6:-0.836416 7:-0.834458 8:-0.836048 9:-0.836184 10:-0.837331 11:-0.838613 12:-0.873766 13:-0.902044 14:-0.916824 15:-0.931367 16:-0.936011 17:-0.928849 18:-0.924986 19:-0.918821 20:-0.914771 21:-0.921923 22:-0.934602 23:-0.944021 24:-0.951499 25:-0.953183 26:-0.954088 27:-0.956182 28:-0.960205 29:-0.964263 30:-0.968013 31:-0.971325 32:-0.97416 33:-0.977203 34:-0.98004 35:-0.982759 36:-0.984993 37:-0.987234 38:-0.98946 39:-0.991562 40:-0.993228 41:-0.994072 42:-0.994485 43:-0.994993 44:-0.995475 45:-0.995822 46:-0.995943 47:-0.996055 48:-0.996164 49:-0.996268 50:-0.996368 51:-0.996464 52:-0.996498 53:-0.996537 54:-0.996511 55:-0.996534 56:-0.996646 57:-0.996678 58:-0.996757 59:-0.996813 60:-0.996836 61:-0.996858 62:-0.99688 63:-0.9969 64:-0.996921 65:-0.99694 66:-0.996959 67:-0.996977 68:-0.996981 69:-0.996969 70:-0.996958 71:-0.996947 72:-0.996936 73:-0.996926 74:-0.996919 75:-0.996921 76:-0.996924 77:-0.996926 78:-0.996929 79:-0.996913 80:-0.996959 81:-0.996942 82:-0.996985 83:-0.996524 84:-0.994151 85:-0.991948 86:-0.98973 87:-0.987595 88:-0.98538 89:-0.983386 90:-0.981488 91:-0.979661 92:-0.977631 93:-0.975779 94:-0.973918 95:-0.972316 96:-0.970471 97:-0.968899 98:-0.967137 99:-0.965551 100:-0.964004 101:-0.962442 102:-0.960916 103:-0.959467 104:-0.960178 
-2048 1:-0.982718 2:-0.937238 3:-0.963712 4:-0.984808 5:-0.819875 6:-0.829577 7:-0.825124 8:-0.827655 9:-0.826656 10:-0.827113 11:-0.827898 12:-0.862484 13:-0.890319 14:-0.904998 15:-0.919841 16:-0.923763 17:-0.916403 18:-0.914891 19:-0.910004 20:-0.905632 21:-0.912447 22:-0.924925 23:-0.934543 24:-0.941736 25:-0.943186 26:-0.943891 27:-0.946228 28:-0.950911 29:-0.955204 30:-0.958731 31:-0.961835 32:-0.965077 33:-0.968392 34:-0.971175 35:-0.973641 36:-0.975612 37:-0.978099 38:-0.980154 39:-0.982095 40:-0.98386 41:-0.984558 42:-0.984834 43:-0.985212 44:-0.985795 45:-0.986021 46:-0.986135 47:-0.986128 48:-0.986337 49:-0.986334 50:-0.986331 51:-0.986379 52:-0.986364 53:-0.986311 54:-0.986306 55:-0.986407 56:-0.98661 57:-0.986545 58:-0.986658 59:-0.986761 60:-0.986704 61:-0.986647 62:-0.986592 63:-0.98654 64:-0.98649 65:-0.986494 66:-0.986466 67:-0.986419 68:-0.98636 69:-0.986358 70:-0.986287 71:-0.986217 72:-0.986149 73:-0.986082 74:-0.986022 75:-0.985972 76:-0.985923 77:-0.985937 78:-0.985945 79:-0.98598 80:-0.98592 81:-0.985854 82:-0.985793 83:-0.98543 84:-0.983026 85:-0.981057 86:-0.978817 87:-0.976651 88:-0.974536 89:-0.972615 90:-0.97066 91:-0.968802 92:-0.966741 93:-0.96491 94:-0.96302 95:-0.961484 96:-0.959611 97:-0.958058 98:-0.956364 99:-0.954796 100:-0.953311 101:-0.951766 102:-0.950299 103:-0.948821 104:-0.949664 
-2048 1:-0.996019 2:-0.988494 3:-0.995306 4:-0.99705 5:-0.828551 6:-0.83641 7:-0.834451 8:-0.836041 9:-0.836177 10:-0.837324 11:-0.838606 12:-0.873759 13:-0.902037 14:-0.916817 15:-0.93136 16:-0.936018 17:-0.928856 18:-0.924979 19:-0.918814 20:-0.914764 21:-0.921915 22:-0.934595 23:-0.944014 24:-0.951492 25:-0.953176 26:-0.954081 27:-0.956174 28:-0.960197 29:-0.964255 30:-0.968006 31:-0.971318 32:-0.974152 33:-0.977196 34:-0.980032 35:-0.982751 36:-0.984986 37:-0.987227 38:-0.989452 39:-0.991555 40:-0.993221 41:-0.994065 42:-0.994477 43:-0.994985 44:-0.995468 45:-0.995815 46:-0.995935 47:-0.996047 48:-0.996156 49:-0.996261 50:-0.996361 51:-0.996457 52:-0.996491 53:-0.996529 54:-0.996504 55:-0.996527 56:-0.996557 57:-0.996671 58:-0.996746 59:-0.996806 60:-0.996829 61:-0.996851 62:-0.996872 63:-0.996893 64:-0.996913 65:-0.996932 66:-0.996951 67:-0.996969 68:-0.996973 69:-0.996962 70:-0.996951 71:-0.99694 72:-0.996929 73:-0.996918 74:-0.996911 75:-0.996914 76:-0.996917 77:-0.996919 78:-0.996922 79:-0.996906 80:-0.996951 81:-0.996934 82:-0.996977 83:-0.996517 84:-0.994144 85:-0.991941 86:-0.989723 87:-0.987641 88:-0.985427 89:-0.983403 90:-0.98148 91:-0.979654 92:-0.977623 93:-0.975772 94:-0.973911 95:-0.972309 96:-0.970464 97:-0.968892 98:-0.96713 99:-0.965544 100:-0.963997 101:-0.962435 102:-0.960909 103:-0.95946 104:-0.960171 
-2048 1:-0.982912 2:-0.956067 3:-0.973179 4:-0.982602 5:-0.815026 6:-0.828432 7:-0.830299 8:-0.830438 9:-0.829425 10:-0.829131 11:-0.832832 12:-0.867381 13:-0.894532 14:-0.910178 15:-0.92383 16:-0.92728 17:-0.919065 18:-0.914714 19:-0.908157 20:-0.90462 21:-0.911392 22:-0.92346 23:-0.932576 24:-0.939775 25:-0.941236 26:-0.941953 27:-0.943864 28:-0.947709 29:-0.9516 30:-0.955545 31:-0.9587 32:-0.961389 33:-0.964298 34:-0.967004 35:-0.969544 36:-0.971588 37:-0.974075 38:-0.976193 39:-0.978194 40:-0.979762 41:-0.980523 42:-0.980918 43:-0.981353 44:-0.981766 45:-0.982049 46:-0.982108 47:-0.982152 48:-0.982205 49:-0.982323 50:-0.982555 51:-0.982598 52:-0.982578 53:-0.982568 54:-0.982539 55:-0.982518 56:-0.982505 57:-0.982484 58:-0.982471 59:-0.982508 60:-0.982854 61:-0.982939 62:-0.9836 63:-0.984241 64:-0.984397 65:-0.984353 66:-0.984386 67:-0.984344 68:-0.984291 69:-0.984224 70:-0.984159 71:-0.984163 72:-0.9841 73:-0.984039 74:-0.983983 75:-0.983938 76:-0.983892 77:-0.983849 78:-0.98393 79:-0.983869 80:-0.983815 81:-0.983753 82:-0.983697 83:-0.983203 84:-0.980808 85:-0.978583 86:-0.976345 87:-0.974191 88:-0.971956 89:-0.970049 90:-0.968131 91:-0.966285 92:-0.964236 93:-0.962366 94:-0.960488 95:-0.958867 96:-0.957006 97:-0.955417 98:-0.95364 99:-0.952038 100:-0.950569 101:-0.948991 102:-0.947448 103:-0.945984 104:-0.94684 
-2048 1:-0.981067 2:-0.937238 3:-0.957917 4:-0.984296 5:-0.815801 6:-0.825583 7:-0.827321 8:-0.825859 9:-0.827763 10:-0.833899 11:-0.838705 12:-0.87638 13:-0.902705 14:-0.915894 15:-0.929309 16:-0.932573 17:-0.923999 18:-0.919338 19:-0.912825 20:-0.909481 21:-0.917375 22:-0.929183 23:-0.938057 24:-0.945266 25:-0.946507 26:-0.947622 27:-0.949323 28:-0.952979 29:-0.956697 30:-0.960134 31:-0.963321 32:-0.965878 33:-0.968978 34:-0.971559 35:-0.973983 36:-0.975914 37:-0.978088 38:-0.980115 39:-0.982161 40:-0.983644 41:-0.984323 42:-0.984581 43:-0.984942 44:-0.985285 45:-0.985501 46:-0.985496 47:-0.985589 48:-0.985629 49:-0.985675 50:-0.985667 51:-0.985661 52:-0.985594 53:-0.985631 54:-0.986268 55:-0.986909 56:-0.986826 57:-0.98674 58:-0.986663 59:-0.986587 60:-0.986516 61:-0.986446 62:-0.986457 63:-0.986392 64:-0.986329 65:-0.986266 66:-0.98628 67:-0.986222 68:-0.986151 69:-0.986068 70:-0.986056 71:-0.985975 72:-0.985897 73:-0.985821 74:-0.985751 75:-0.985756 76:-0.985697 77:-0.985844 78:-0.986298 79:-0.986222 80:-0.986147 81:-0.986125 82:-0.98639 83:-0.986095 84:-0.98367 85:-0.981417 86:-0.97915 87:-0.976969 88:-0.974707 89:-0.972847 90:-0.970878 91:-0.969007 92:-0.966933 93:-0.965039 94:-0.963137 95:-0.961637 96:-0.959751 97:-0.958139 98:-0.956339 99:-0.954714 100:-0.953312 101:-0.951761 102:-0.950235 103:-0.948749 104:-0.949499 
-2048 1:-0.993495 2:-0.973849 3:-0.98431 4:-0.994773 5:-0.836704 6:-0.843919 7:-0.838578 8:-0.837313 9:-0.83712 10:-0.837921 11:-0.838702 12:-0.87421 13:-0.903156 14:-0.917728 15:-0.93192 16:-0.935794 17:-0.927912 18:-0.924159 19:-0.918299 20:-0.914757 21:-0.921733 22:-0.934005 23:-0.943479 24:-0.950881 25:-0.95245 26:-0.953251 27:-0.955409 28:-0.95955 29:-0.963512 30:-0.967174 31:-0.970571 32:-0.973323 33:-0.976289 34:-0.979053 35:-0.981647 36:-0.983734 37:-0.985919 38:-0.988092 39:-0.990145 40:-0.991764 41:-0.992564 42:-0.992935 43:-0.993405 44:-0.993884 45:-0.994274 46:-0.994373 47:-0.994748 48:-0.99511 49:-0.995178 50:-0.995236 51:-0.995291 52:-0.995286 53:-0.995286 54:-0.995225 55:-0.995258 56:-0.995469 57:-0.995459 58:-0.995452 59:-0.995606 60:-0.995678 61:-0.995667 62:-0.995714 63:-0.995796 64:-0.995784 65:-0.995813 66:-0.995834 67:-0.995821 68:-0.995796 69:-0.995756 70:-0.995717 71:-0.995679 72:-0.995642 73:-0.995606 74:-0.995574 75:-0.995553 76:-0.995532 77:-0.995547 78:-0.995553 79:-0.995515 80:-0.995479 81:-0.995441 82:-0.995406 83:-0.994928 84:-0.992538 85:-0.990319 86:-0.988086 87:-0.985937 88:-0.983707 89:-0.981669 90:-0.979734 91:-0.977894 92:-0.975946 93:-0.974088 94:-0.972215 95:-0.9706 96:-0.968742 97:-0.967158 98:-0.965385 99:-0.963787 100:-0.962229 101:-0.960655 102:-0.959118 103:-0.957707 104:-0.958531 
-2048 1:-0.975921 2:-0.917364 3:-0.951018 4:-0.979413 5:-0.820977 6:-0.82283 7:-0.819966 8:-0.819038 9:-0.818544 10:-0.819387 11:-0.820437 12:-0.856739 13:-0.888417 14:-0.904888 15:-0.919378 16:-0.922817 17:-0.914951 18:-0.910582 19:-0.904575 20:-0.900168 21:-0.907184 22:-0.919213 23:-0.928298 24:-0.935692 25:-0.937342 26:-0.938031 27:-0.939912 28:-0.944227 29:-0.950009 30:-0.955354 31:-0.959474 32:-0.962134 33:-0.964859 34:-0.967392 35:-0.970351 36:-0.972225 37:-0.974603 38:-0.976981 39:-0.979213 40:-0.980624 41:-0.982344 42:-0.98282 43:-0.983086 44:-0.98334 45:-0.983582 46:-0.983494 47:-0.983399 48:-0.98339 49:-0.983341 50:-0.983265 51:-0.983291 52:-0.98316 53:-0.983043 54:-0.982868 55:-0.982839 56:-0.98273 57:-0.982617 58:-0.982686 59:-0.982622 60:-0.982998 61:-0.983321 62:-0.983214 63:-0.983189 64:-0.98309 65:-0.983022 66:-0.982971 67:-0.983023 68:-0.982918 69:-0.982872 70:-0.982757 71:-0.982645 72:-0.982603 73:-0.982496 74:-0.982397 75:-0.982309 76:-0.982222 77:-0.982137 78:-0.982118 79:-0.982019 80:-0.98193 81:-0.98195 82:-0.98199 83:-0.981668 84:-0.979458 85:-0.977195 86:-0.974919 87:-0.972728 88:-0.970458 89:-0.968435 90:-0.966459 91:-0.964633 92:-0.962552 93:-0.960651 94:-0.958757 95:-0.957143 96:-0.955253 97:-0.953635 98:-0.951878 99:-0.950432 100:-0.94884 101:-0.947266 102:-0.94571 103:-0.944219 104:-0.944958 
-2048 1:-0.994369 2:-0.975941 3:-0.988907 4:-0.993859 5:-0.824965 6:-0.832918 7:-0.830894 8:-0.833385 9:-0.835148 10:-0.835883 11:-0.836872 12:-0.872322 13:-0.900344 14:-0.91492 15:-0.929296 16:-0.933334 17:-0.926214 18:-0.922285 19:-0.916056 20:-0.911959 21:-0.919215 22:-0.932353 23:-0.941731 24:-0.949132 25:-0.950752 26:-0.951601 27:-0.953642 28:-0.957614 29:-0.961625 30:-0.965332 31:-0.968603 32:-0.9714 33:-0.974409 34:-0.977211 35:-0.979841 36:-0.981963 37:-0.98418 38:-0.986518 39:-0.988596 40:-0.990238 41:-0.991061 42:-0.991455 43:-0.991945 44:-0.992411 45:-0.992742 46:-0.992848 47:-0.992944 48:-0.993039 49:-0.99313 50:-0.993218 51:-0.993302 52:-0.993325 53:-0.993352 54:-0.993316 55:-0.99333 56:-0.993351 57:-0.993368 58:-0.993504 59:-0.993738 60:-0.99375 61:-0.993761 62:-0.993772 63:-0.993938 64:-0.993946 65:-0.993953 66:-0.99396 67:-0.993968 68:-0.993961 69:-0.993939 70:-0.993918 71:-0.993897 72:-0.993876 73:-0.993857 74:-0.993841 75:-0.993834 76:-0.993828 77:-0.993822 78:-0.993816 79:-0.993793 80:-0.993856 81:-0.994014 82:-0.994008 83:-0.993539 84:-0.99116 85:-0.988952 86:-0.986729 87:-0.98459 88:-0.98237 89:-0.980342 90:-0.978415 91:-0.976585 92:-0.974551 93:-0.972695 94:-0.970881 95:-0.969275 96:-0.967426 97:-0.96585 98:-0.964085 99:-0.962495 100:-0.960945 101:-0.959379 102:-0.957849 103:-0.956523 104:-0.95732 
-1524.732227199586 1:-0.985048 2:-0.939331 3:-0.969174 4:-0.987599 5:-0.819794 6:-0.831044 7:-0.827144 8:-0.826717 9:-0.828269 10:-0.828957 11:-0.833581 12:-0.868869 13:-0.896403 14:-0.910592 15:-0.92465 16:-0.928811 17:-0.920847 18:-0.916709 19:-0.910342 20:-0.906144 21:-0.913115 22:-0.925366 23:-0.934644 24:-0.942217 25:-0.943796 26:-0.944617 27:-0.946626 28:-0.950563 29:-0.954539 30:-0.958418 31:-0.962745 32:-0.966525 33:-0.969651 34:-0.972349 35:-0.975028 36:-0.977056 37:-0.979321 38:-0.981448 39:-0.983693 40:-0.985251 41:-0.985998 42:-0.986321 43:-0.986744 44:-0.987145 45:-0.987417 46:-0.987465 47:-0.987609 48:-0.987649 49:-0.987688 50:-0.987726 51:-0.987763 52:-0.987929 53:-0.987909 54:-0.987828 55:-0.987888 56:-0.988041 57:-0.98801 58:-0.987986 59:-0.987961 60:-0.987939 61:-0.987917 62:-0.987895 63:-0.987876 64:-0.987857 65:-0.987911 66:-0.988307 67:-0.988368 68:-0.988539 69:-0.988482 70:-0.988496 71:-0.988508 72:-0.988588 73:-0.988648 74:-0.988613 75:-0.988571 76:-0.98853 77:-0.988491 78:-0.988576 79:-0.988518 80:-0.988467 81:-0.988409 82:-0.988357 83:-0.987979 84:-0.98558 85:-0.983352 86:-0.98111 87:-0.978952 88:-0.976713 89:-0.974668 90:-0.972821 91:-0.97098 92:-0.968979 93:-0.967255 94:-0.965372 95:-0.963747 96:-0.961881 97:-0.960336 98:-0.958553 99:-0.957024 100:-0.955759 101:-0.954246 102:-0.952829 103:-0.951376 104:-0.952166 
-2048 1:-0.986698 2:-0.969665 3:-0.982451 4:-0.988939 5:-0.821941 6:-0.833932 7:-0.830653 8:-0.829882 9:-0.829479 10:-0.830311 11:-0.832091 12:-0.867284 13:-0.895219 14:-0.909738 15:-0.924069 16:-0.928086 17:-0.920348 18:-0.916402 19:-0.910201 20:-0.906451 21:-0.914283 22:-0.926596 23:-0.936166 24:-0.943552 25:-0.945933 26:-0.947621 27:-0.949595 28:-0.953503 29:-0.957454 30:-0.961105 31:-0.964324 32:-0.967072 33:-0.970036 34:-0.972795 35:-0.975385 36:-0.977472 37:-0.979654 38:-0.981824 39:-0.984004 40:-0.985615 41:-0.986413 42:-0.986784 43:-0.987252 44:-0.987696 45:-0.988008 46:-0.988313 47:-0.988383 48:-0.988457 49:-0.988527 50:-0.988595 51:-0.988661 52:-0.988664 53:-0.988675 54:-0.988622 55:-0.988657 56:-0.989061 57:-0.989054 58:-0.989051 59:-0.989292 60:-0.989289 61:-0.989569 62:-0.989653 63:-0.989718 64:-0.989705 65:-0.989691 66:-0.989679 67:-0.989666 68:-0.989641 69:-0.989601 70:-0.989562 71:-0.989524 72:-0.989487 73:-0.989451 74:-0.989419 75:-0.98946 76:-0.98944 77:-0.989418 78:-0.989397 79:-0.989359 80:-0.989325 81:-0.989285 82:-0.98925 83:-0.988774 84:-0.986391 85:-0.984179 86:-0.982064 87:-0.97992 88:-0.977695 89:-0.975663 90:-0.973732 91:-0.971897 92:-0.969859 93:-0.967999 94:-0.966132 95:-0.964522 96:-0.96267 97:-0.961091 98:-0.959536 99:-0.958103 100:-0.956545 101:-0.954972 102:-0.953436 103:-0.951977 104:-0.952714 
-2048 1:-0.996602 2:-0.987448 3:-0.995286 4:-0.997038 5:-0.828539 6:-0.836397 7:-0.834439 8:-0.836028 9:-0.836165 10:-0.837312 11:-0.838593 12:-0.873747 13:-0.902025 14:-0.916942 15:-0.931755 16:-0.936011 17:-0.92885 18:-0.924983 19:-0.918817 20:-0.914766 21:-0.922158 22:-0.934595 23:-0.944014 24:-0.951491 25:-0.953175 26:-0.954079 27:-0.956172 28:-0.960194 29:-0.964252 30:-0.968002 31:-0.971313 32:-0.974148 33:-0.977191 34:-0.980027 35:-0.982764 36:-0.984981 37:-0.987221 38:-0.989447 39:-0.991549 40:-0.993215 41:-0.994058 42:-0.994471 43:-0.994978 44:-0.995461 45:-0.995808 46:-0.995928 47:-0.99604 48:-0.996149 49:-0.996253 50:-0.996353 51:-0.996449 52:-0.996483 53:-0.996521 54:-0.996496 55:-0.996518 56:-0.996549 57:-0.996576 58:-0.996692 59:-0.996797 60:-0.99682 61:-0.996842 62:-0.996863 63:-0.996884 64:-0.996904 65:-0.996923 66:-0.996942 67:-0.99696 68:-0.996964 69:-0.996953 70:-0.996941 71:-0.99693 72:-0.996919 73:-0.996909 74:-0.996902 75:-0.996904 76:-0.996907 77:-0.996909 78:-0.996912 79:-0.996896 80:-0.996881 81:-0.996896 82:-0.996967 83:-0.996507 84:-0.994134 85:-0.99193 86:-0.989713 87:-0.987578 88:-0.985363 89:-0.983339 90:-0.981418 91:-0.979592 92:-0.977562 93:-0.975711 94:-0.973851 95:-0.972249 96:-0.970433 97:-0.968882 98:-0.96712 99:-0.965534 100:-0.963987 101:-0.962425 102:-0.960898 103:-0.95945 104:-0.96016 
-2048 1:-0.989611 2:-0.967573 3:-0.983179 4:-0.987768 5:-0.820811 6:-0.835032 7:-0.830911 8:-0.829796 9:-0.829185 10:-0.829882 11:-0.830839 12:-0.865609 13:-0.893587 14:-0.908146 15:-0.92251 16:-0.927078 17:-0.920067 18:-0.91606 19:-0.909805 20:-0.905706 21:-0.912966 22:-0.925667 23:-0.934985 24:-0.942368 25:-0.94399 26:-0.94485 27:-0.946894 28:-0.950863 29:-0.95487 30:-0.958748 31:-0.962008 32:-0.964795 33:-0.968526 34:-0.972058 35:-0.974633 36:-0.976795 37:-0.979014 38:-0.981168 39:-0.983202 40:-0.984802 41:-0.98559 42:-0.985952 43:-0.986528 44:-0.986962 45:-0.987263 46:-0.98734 47:-0.987405 48:-0.987474 49:-0.98754 50:-0.987604 51:-0.987667 52:-0.987666 53:-0.987698 54:-0.987709 55:-0.987703 56:-0.987704 57:-0.9877 58:-0.987701 59:-0.9877 60:-0.987865 61:-0.987956 62:-0.988017 63:-0.988091 64:-0.988086 65:-0.988241 66:-0.98843 67:-0.988419 68:-0.988395 69:-0.988357 70:-0.988319 71:-0.988329 72:-0.988314 73:-0.988278 74:-0.988246 75:-0.988225 76:-0.988203 77:-0.988183 78:-0.988163 79:-0.988125 80:-0.988093 81:-0.988054 82:-0.988078 83:-0.987602 84:-0.985221 85:-0.98301 86:-0.980785 87:-0.978644 88:-0.976422 89:-0.974393 90:-0.972526 91:-0.970763 92:-0.968726 93:-0.966867 94:-0.965007 95:-0.963415 96:-0.961564 97:-0.959985 98:-0.958378 99:-0.956859 100:-0.955304 101:-0.953733 102:-0.952198 103:-0.950742 104:-0.951479 
-2048 1:-0.985825 2:-0.949791 3:-0.970669 4:-0.987487 5:-0.817472 6:-0.829913 7:-0.826376 8:-0.82614 9:-0.830057 10:-0.832763 11:-0.833157 12:-0.86754 13:-0.896072 14:-0.912095 15:-0.926022 16:-0.929695 17:-0.921661 18:-0.917462 19:-0.911641 20:-0.907358 21:-0.914262 22:-0.926454 23:-0.935679 24:-0.943429 25:-0.944951 26:-0.945719 27:-0.94768 28:-0.951574 29:-0.955511 30:-0.959193 31:-0.962525 32:-0.965518 33:-0.969287 34:-0.971996 35:-0.97454 36:-0.976583 37:-0.978862 38:-0.980989 39:-0.982998 40:-0.984574 41:-0.985464 42:-0.985801 43:-0.986237 44:-0.986651 45:-0.986934 46:-0.986994 47:-0.987042 48:-0.987096 49:-0.987146 50:-0.987196 51:-0.987295 52:-0.987417 53:-0.987408 54:-0.987498 55:-0.987717 56:-0.987794 57:-0.987787 58:-0.987767 59:-0.988157 60:-0.988131 61:-0.988186 62:-0.988238 63:-0.988213 64:-0.988294 65:-0.988376 66:-0.988433 67:-0.988406 68:-0.988436 69:-0.988451 70:-0.988528 71:-0.988514 72:-0.988459 73:-0.988406 74:-0.988451 75:-0.988412 76:-0.988373 77:-0.988335 78:-0.988299 79:-0.988246 80:-0.988198 81:-0.988203 82:-0.988153 83:-0.987663 84:-0.985268 85:-0.983138 86:-0.980914 87:-0.978876 88:-0.976789 89:-0.974743 90:-0.972797 91:-0.970949 92:-0.968898 93:-0.967076 94:-0.965195 95:-0.963572 96:-0.961708 97:-0.960159 98:-0.958384 99:-0.956871 100:-0.955584 101:-0.954034 102:-0.952576 103:-0.951208 104:-0.95196 
