svm_type c_svc
kernel_type rbf
gamma 0.5
nr_class 2
total_sv 26
rho 43.5459
distance 126.982
label 44 -1
nr_sv 14 12
SV
2048 1:-0.976989 2:-0.942469 3:-0.968562 4:-0.978404 5:-0.817049 6:-0.827357 7:-0.821586 8:-0.820256 9:-0.822387 10:-0.822743 11:-0.823304 12:-0.858394 13:-0.885956 14:-0.900198 15:-0.915096 16:-0.91889 17:-0.910992 18:-0.906917 19:-0.900574 20:-0.896427 21:-0.903653 22:-0.915862 23:-0.92535 24:-0.932656 25:-0.935084 26:-0.937455 27:-0.939564 28:-0.943861 29:-0.947719 30:-0.951283 31:-0.954642 32:-0.957307 33:-0.960195 34:-0.96303 35:-0.965546 36:-0.967569 37:-0.969824 38:-0.971928 39:-0.973915 40:-0.975595 41:-0.976344 42:-0.97691 43:-0.977329 44:-0.977727 45:-0.978107 46:-0.978151 47:-0.978178 48:-0.978478 49:-0.978508 50:-0.978769 51:-0.97904 52:-0.978998 53:-0.978967 54:-0.979105 55:-0.979133 56:-0.979096 57:-0.979051 58:-0.979102 59:-0.979065 60:-0.979114 61:-0.97908 62:-0.979046 63:-0.979016 64:-0.979063 65:-0.979031 66:-0.979002 67:-0.979046 68:-0.979003 69:-0.979084 70:-0.979231 71:-0.979172 72:-0.979115 73:-0.979316 74:-0.97952 75:-0.979472 76:-0.979425 77:-0.979379 78:-0.979358 79:-0.979334 80:-0.979282 81:-0.979277 82:-0.979219 83:-0.978724 84:-0.976333 85:-0.974366 86:-0.972128 87:-0.970104 88:-0.967922 89:-0.965879 90:-0.963935 91:-0.962089 92:-0.960039 93:-0.95822 94:-0.956342 95:-0.95472 96:-0.952859 97:-0.951317 98:-0.949539 99:-0.947958 100:-0.946608 101:-0.945061 102:-0.943516 103:-0.942082 104:-0.942856 
2048 1:-0.974368 2:-0.948745 3:-0.968276 4:-0.97827 5:-0.814791 6:-0.828319 7:-0.822182 8:-0.82066 9:-0.819809 10:-0.820407 11:-0.821285 12:-0.856374 13:-0.885365 14:-0.900259 15:-0.914342 16:-0.918184 17:-0.910328 18:-0.90629 19:-0.899977 20:-0.895858 21:-0.902842 22:-0.915338 23:-0.925061 24:-0.932372 25:-0.936163 26:-0.937776 27:-0.939661 28:-0.943477 29:-0.947343 30:-0.950914 31:-0.954058 32:-0.956899 33:-0.959795 34:-0.962485 35:-0.965012 36:-0.967323 37:-0.969442 38:-0.971551 39:-0.973544 40:-0.975102 41:-0.975859 42:-0.976193 43:-0.976625 44:-0.977036 45:-0.977318 46:-0.977376 47:-0.977416 48:-0.977729 49:-0.977772 50:-0.977815 51:-0.977858 52:-0.977836 53:-0.977825 54:-0.977983 55:-0.977958 56:-0.978011 57:-0.977983 58:-0.977966 59:-0.977947 60:-0.977931 61:-0.977915 62:-0.977898 63:-0.977885 64:-0.977872 65:-0.977856 66:-0.977843 67:-0.978229 68:-0.978965 69:-0.979057 70:-0.978998 71:-0.97918 72:-0.979152 73:-0.979092 74:-0.979039 75:-0.978997 76:-0.978953 77:-0.978915 78:-0.979027 79:-0.978967 80:-0.978917 81:-0.978855 82:-0.978859 83:-0.978449 84:-0.976059 85:-0.97384 86:-0.971608 87:-0.96978 88:-0.9676 89:-0.965662 90:-0.963772 91:-0.961926 92:-0.959876 93:-0.958006 94:-0.956129 95:-0.954606 96:-0.952745 97:-0.951154 98:-0.949377 99:-0.947773 100:-0.94621 101:-0.944678 102:-0.943181 103:-0.941938 104:-0.942737 
123.399121509099 1:-0.975144 2:-0.950837 3:-0.969368 4:-0.978231 5:-0.810412 6:-0.823941 7:-0.820674 8:-0.819536 9:-0.818914 10:-0.819671 11:-0.823067 12:-0.857411 13:-0.885056 14:-0.899369 15:-0.913532 16:-0.917443 17:-0.909648 18:-0.906283 19:-0.899972 20:-0.895855 21:-0.902841 22:-0.915333 23:-0.925063 24:-0.932524 25:-0.935614 26:-0.936787 27:-0.938716 28:-0.943513 29:-0.947568 30:-0.951132 31:-0.954269 32:-0.956942 33:-0.959837 34:-0.962527 35:-0.965424 36:-0.967445 37:-0.969562 38:-0.971826 39:-0.973812 40:-0.975364 41:-0.976114 42:-0.976442 43:-0.976869 44:-0.977389 45:-0.977662 46:-0.977713 47:-0.977746 48:-0.977791 49:-0.977941 50:-0.978125 51:-0.978162 52:-0.978375 53:-0.978353 54:-0.978501 55:-0.978572 56:-0.978543 57:-0.978505 58:-0.978479 59:-0.978451 60:-0.978427 61:-0.978402 62:-0.978377 63:-0.978356 64:-0.978528 65:-0.978501 66:-0.978478 67:-0.978456 68:-0.978684 69:-0.978745 70:-0.978691 71:-0.978771 72:-0.978717 73:-0.979114 74:-0.979125 75:-0.979082 76:-0.979037 77:-0.978995 78:-0.978954 79:-0.978896 80:-0.978847 81:-0.978786 82:-0.978791 83:-0.978416 84:-0.97615 85:-0.973974 86:-0.971739 87:-0.969753 88:-0.967624 89:-0.965583 90:-0.963642 91:-0.961797 92:-0.95975 93:-0.957882 94:-0.956006 95:-0.954387 96:-0.952651 97:-0.951061 98:-0.949285 99:-0.947706 100:-0.946144 101:-0.944567 102:-0.943116 103:-0.941652 104:-0.942631 
2048 1:-0.978446 2:-0.951883 3:-0.96862 4:-0.977806 5:-0.809941 6:-0.825627 7:-0.820207 8:-0.822915 9:-0.821524 10:-0.821754 11:-0.822374 12:-0.85752 13:-0.885102 14:-0.899362 15:-0.913482 16:-0.917357 17:-0.909532 18:-0.906142 19:-0.899808 20:-0.895673 21:-0.902641 22:-0.914867 23:-0.924832 24:-0.933332 25:-0.935573 26:-0.936726 27:-0.938636 28:-0.942606 29:-0.946543 30:-0.950566 31:-0.953705 32:-0.95638 33:-0.959278 34:-0.961969 35:-0.964497 36:-0.966892 37:-0.96912 38:-0.971225 39:-0.973214 40:-0.974768 41:-0.975769 42:-0.977202 43:-0.977763 44:-0.978134 45:-0.978377 46:-0.978399 47:-0.978405 48:-0.978423 49:-0.97844 50:-0.978459 51:-0.978478 52:-0.978719 53:-0.978681 54:-0.978582 55:-0.978536 56:-0.978498 57:-0.978453 58:-0.978418 59:-0.978382 60:-0.978351 61:-0.978521 62:-0.978486 63:-0.978569 64:-0.978537 65:-0.978679 66:-0.978657 67:-0.978624 68:-0.978578 69:-0.978519 70:-0.978462 71:-0.978405 72:-0.978703 73:-0.978643 74:-0.97859 75:-0.978774 76:-0.978754 77:-0.978708 78:-0.978665 79:-0.978604 80:-0.978553 81:-0.978489 82:-0.978434 83:-0.978086 84:-0.975696 85:-0.973476 86:-0.971429 87:-0.969277 88:-0.967044 89:-0.965017 90:-0.963167 91:-0.961637 92:-0.959586 93:-0.957714 94:-0.955835 95:-0.954212 96:-0.95235 97:-0.950759 98:-0.948982 99:-0.947378 100:-0.945932 101:-0.944352 102:-0.942809 103:-0.941396 104:-0.942245 
2048 1:-0.979222 2:-0.946653 3:-0.967567 4:-0.977664 5:-0.813906 6:-0.827571 7:-0.82146 8:-0.819957 9:-0.819117 10:-0.819727 11:-0.821232 12:-0.855697 13:-0.88344 14:-0.897837 15:-0.91207 16:-0.916045 17:-0.908978 18:-0.904994 19:-0.898722 20:-0.894644 21:-0.901657 22:-0.915142 23:-0.925307 24:-0.932966 25:-0.935958 26:-0.936903 27:-0.938797 28:-0.943486 29:-0.947551 30:-0.951089 31:-0.954202 32:-0.956852 33:-0.959726 34:-0.962396 35:-0.965051 36:-0.967062 37:-0.969422 38:-0.971535 39:-0.973509 40:-0.975049 41:-0.975789 42:-0.976227 43:-0.976641 44:-0.977035 45:-0.9773 46:-0.977343 47:-0.977368 48:-0.977405 49:-0.97744 50:-0.977726 51:-0.977756 52:-0.977723 53:-0.977701 54:-0.977617 55:-0.977586 56:-0.978006 57:-0.977965 58:-0.977935 59:-0.977924 60:-0.977897 61:-0.977869 62:-0.977842 63:-0.977818 64:-0.977795 65:-0.977808 66:-0.977932 67:-0.977907 68:-0.977869 69:-0.977924 70:-0.97827 71:-0.978423 72:-0.978549 73:-0.978489 74:-0.978435 75:-0.978391 76:-0.978347 77:-0.978304 78:-0.978264 79:-0.978266 80:-0.978216 81:-0.978154 82:-0.978101 83:-0.977609 84:-0.975409 85:-0.973285 86:-0.97105 87:-0.969007 88:-0.966934 89:-0.964894 90:-0.963005 91:-0.961161 92:-0.959114 93:-0.957245 94:-0.95537 95:-0.95375 96:-0.951892 97:-0.9504 98:-0.948624 99:-0.947189 100:-0.945733 101:-0.9442 102:-0.942655 103:-0.941189 104:-0.942165 
857.8342393076979 1:-0.974853 2:-0.950837 3:-0.967339 4:-0.969195 5:-0.811838 6:-0.815001 7:-0.815116 8:-0.817841 9:-0.822124 10:-0.821726 11:-0.823378 12:-0.858915 13:-0.88538 14:-0.898731 15:-0.912099 16:-0.915724 17:-0.907347 18:-0.902868 19:-0.896162 20:-0.891713 21:-0.898382 22:-0.910332 23:-0.919353 24:-0.927127 25:-0.928509 26:-0.929171 27:-0.93102 28:-0.934795 29:-0.938621 30:-0.942156 31:-0.945265 32:-0.947912 33:-0.95118 34:-0.953832 35:-0.956324 36:-0.95833 37:-0.960427 38:-0.962515 39:-0.964939 40:-0.966807 41:-0.967772 42:-0.968685 43:-0.969101 44:-0.969463 45:-0.969699 46:-0.969714 47:-0.969708 48:-0.969719 49:-0.969729 50:-0.969742 51:-0.969756 52:-0.969705 53:-0.969668 54:-0.96957 55:-0.969527 56:-0.96949 57:-0.969442 58:-0.969408 59:-0.969373 60:-0.969754 61:-0.969716 62:-0.969678 63:-0.969644 64:-0.969612 65:-0.969765 66:-0.969731 67:-0.969885 68:-0.970011 69:-0.969946 70:-0.969973 71:-0.969908 72:-0.969846 73:-0.969785 74:-0.969731 75:-0.969811 76:-0.969764 77:-0.969718 78:-0.969675 79:-0.969613 80:-0.969565 81:-0.9695 82:-0.969445 83:-0.9691 84:-0.966721 85:-0.964653 86:-0.962566 87:-0.960424 88:-0.9582 89:-0.95617 90:-0.954304 91:-0.952469 92:-0.950585 93:-0.94877 94:-0.946901 95:-0.945286 96:-0.943434 97:-0.941851 98:-0.940082 99:-0.938487 100:-0.937072 101:-0.935637 102:-0.934099 103:-0.93264 104:-0.933569 
2048 1:-0.973688 2:-0.939331 3:-0.968256 4:-0.969149 5:-0.809722 6:-0.816046 7:-0.814396 8:-0.816323 9:-0.816181 10:-0.819527 11:-0.823314 12:-0.856489 13:-0.883204 14:-0.897211 15:-0.910713 16:-0.914081 17:-0.906182 18:-0.901791 19:-0.895457 20:-0.891056 21:-0.897763 22:-0.909996 23:-0.919035 24:-0.926385 25:-0.927804 26:-0.928499 27:-0.930575 28:-0.93437 29:-0.938214 30:-0.942774 31:-0.946049 32:-0.948815 33:-0.951658 34:-0.954295 35:-0.956921 36:-0.95891 37:-0.960991 38:-0.963332 39:-0.965283 40:-0.966799 41:-0.967647 42:-0.967948 43:-0.968349 44:-0.968845 45:-0.969097 46:-0.969128 47:-0.969136 48:-0.969265 49:-0.969286 50:-0.969559 51:-0.96962 52:-0.969572 53:-0.969538 54:-0.969535 55:-0.969493 56:-0.969458 57:-0.969411 58:-0.969463 59:-0.969427 60:-0.969397 61:-0.969366 62:-0.969413 63:-0.969384 64:-0.969505 65:-0.969472 66:-0.969443 67:-0.969415 68:-0.969445 69:-0.969567 70:-0.96951 71:-0.969453 72:-0.969553 73:-0.969497 74:-0.969447 75:-0.969407 76:-0.969366 77:-0.969447 78:-0.969409 79:-0.969351 80:-0.969307 81:-0.969304 82:-0.969762 83:-0.969384 84:-0.967001 85:-0.964789 86:-0.962561 87:-0.960419 88:-0.958249 89:-0.956219 90:-0.954286 91:-0.952451 92:-0.950413 93:-0.948604 94:-0.946885 95:-0.94532 96:-0.943468 97:-0.941885 98:-0.940116 99:-0.938521 100:-0.936965 101:-0.93544 102:-0.933905 103:-0.932623 104:-0.933466 
2048 1:-0.958153 2:-0.933054 3:-0.96628 4:-0.968933 5:-0.812165 6:-0.817527 7:-0.81682 8:-0.817078 9:-0.820518 10:-0.820791 11:-0.824524 12:-0.85752 13:-0.88409 14:-0.897976 15:-0.91138 16:-0.914662 17:-0.906688 18:-0.902235 19:-0.895846 20:-0.891676 21:-0.898327 22:-0.910262 23:-0.920685 24:-0.928111 25:-0.929647 26:-0.93024 27:-0.932028 28:-0.935937 29:-0.939706 30:-0.943361 31:-0.946415 32:-0.949172 33:-0.952225 34:-0.9549 35:-0.957495 36:-0.959454 37:-0.961646 38:-0.963824 39:-0.96575 40:-0.967243 41:-0.967946 42:-0.96835 43:-0.968849 44:-0.969431 45:-0.96966 46:-0.969776 47:-0.969761 48:-0.969867 49:-0.97007 50:-0.970068 51:-0.970165 52:-0.970194 53:-0.97014 54:-0.970025 55:-0.969966 56:-0.970003 57:-0.970021 58:-0.969974 59:-0.970005 60:-0.969958 61:-0.96991 62:-0.969941 63:-0.969897 64:-0.969932 65:-0.969885 66:-0.969917 67:-0.969876 68:-0.969892 69:-0.969825 70:-0.969827 71:-0.96976 72:-0.969695 73:-0.969631 74:-0.969639 75:-0.969591 76:-0.969606 77:-0.969557 78:-0.969574 79:-0.969509 80:-0.969458 81:-0.969448 82:-0.969537 83:-0.969187 84:-0.966848 85:-0.964632 86:-0.962403 87:-0.960313 88:-0.958086 89:-0.956054 90:-0.954119 91:-0.952386 92:-0.950344 93:-0.948609 94:-0.946954 95:-0.945335 96:-0.943527 97:-0.94194 98:-0.940167 99:-0.938567 100:-0.937147 101:-0.93557 102:-0.93403 103:-0.932567 104:-0.933367 
522.908277694464 1:-0.973494 2:-0.951883 3:-0.96563 4:-0.968839 5:-0.812063 6:-0.814553 7:-0.815417 8:-0.816525 9:-0.816894 10:-0.821899 11:-0.824493 12:-0.857475 13:-0.884035 14:-0.897467 15:-0.910902 16:-0.914586 17:-0.906264 18:-0.901832 19:-0.895164 20:-0.890751 21:-0.898108 22:-0.910402 23:-0.919395 24:-0.926476 25:-0.927867 26:-0.928537 27:-0.930393 28:-0.934174 29:-0.938005 30:-0.941544 31:-0.944658 32:-0.947309 33:-0.950492 34:-0.953236 35:-0.956102 36:-0.95823 37:-0.960315 38:-0.962392 39:-0.964355 40:-0.965881 41:-0.967875 42:-0.968801 43:-0.969167 44:-0.969516 45:-0.969739 46:-0.96985 47:-0.96983 48:-0.969828 49:-0.969825 50:-0.969825 51:-0.970073 52:-0.970005 53:-0.969952 54:-0.969839 55:-0.970006 56:-0.969952 57:-0.970103 58:-0.970048 59:-0.970103 60:-0.970051 61:-0.97 62:-0.969948 63:-0.969902 64:-0.969858 65:-0.96981 66:-0.969768 67:-0.969909 68:-0.969852 69:-0.969782 70:-0.969714 71:-0.969647 72:-0.969581 73:-0.969517 74:-0.96946 75:-0.969736 76:-0.969683 77:-0.969632 78:-0.969666 79:-0.969598 80:-0.969544 81:-0.969473 82:-0.969412 83:-0.968916 84:-0.966677 85:-0.964462 86:-0.962233 87:-0.960222 88:-0.957995 89:-0.955962 90:-0.954026 91:-0.952189 92:-0.950277 93:-0.948414 94:-0.946544 95:-0.945098 96:-0.943479 97:-0.94189 98:-0.940117 99:-0.938516 100:-0.936955 101:-0.935379 102:-0.933839 103:-0.932513 104:-0.933312 
829.1740415129927 1:-0.970484 2:-0.944561 3:-0.966664 4:-0.96854 5:-0.812771 6:-0.814322 7:-0.814429 8:-0.815435 9:-0.819997 10:-0.82185 11:-0.821136 12:-0.854464 13:-0.881796 14:-0.895416 15:-0.909414 16:-0.912828 17:-0.904971 18:-0.900618 19:-0.894014 20:-0.889939 21:-0.896666 22:-0.908913 23:-0.917966 24:-0.925102 25:-0.926762 26:-0.927471 27:-0.929362 28:-0.933552 29:-0.937688 30:-0.943145 31:-0.946192 32:-0.948781 33:-0.951756 34:-0.954365 35:-0.956817 36:-0.958928 37:-0.960986 38:-0.963036 39:-0.965104 40:-0.966604 41:-0.967313 42:-0.967693 43:-0.968229 44:-0.968595 45:-0.968946 46:-0.968962 47:-0.968956 48:-0.968968 49:-0.969401 50:-0.969442 51:-0.969447 52:-0.969387 53:-0.969563 54:-0.969453 55:-0.969398 56:-0.96935 57:-0.969291 58:-0.969416 59:-0.969367 60:-0.969324 61:-0.969442 62:-0.969395 63:-0.969354 64:-0.969315 65:-0.969348 66:-0.969309 67:-0.969271 68:-0.96922 69:-0.969297 70:-0.969232 71:-0.969169 72:-0.969107 73:-0.969178 74:-0.969122 75:-0.969076 76:-0.969029 77:-0.969108 78:-0.969064 79:-0.969 80:-0.969102 81:-0.969062 82:-0.969003 83:-0.96851 84:-0.966232 85:-0.964194 86:-0.961965 87:-0.959822 88:-0.957597 89:-0.955567 90:-0.953739 91:-0.951902 92:-0.949862 93:-0.948393 94:-0.946573 95:-0.944954 96:-0.943098 97:-0.941511 98:-0.939739 99:-0.938235 100:-0.936675 101:-0.935099 102:-0.93356 103:-0.932189 104:-0.932945 
768.4182517540584 1:-0.977572 2:-0.945607 3:-0.960655 4:-0.972267 5:-0.809162 6:-0.819636 7:-0.814142 8:-0.823644 9:-0.821795 10:-0.820987 11:-0.825543 12:-0.860483 13:-0.887487 14:-0.902568 15:-0.915851 16:-0.919906 17:-0.911406 18:-0.90682 19:-0.900033 20:-0.895501 21:-0.902119 22:-0.914529 23:-0.923487 24:-0.930538 25:-0.931891 26:-0.932521 27:-0.934344 28:-0.938099 29:-0.941907 30:-0.947107 31:-0.950315 32:-0.952885 33:-0.955686 34:-0.958285 35:-0.960727 36:-0.962683 37:-0.964736 38:-0.966782 39:-0.968715 40:-0.970536 41:-0.971234 42:-0.971513 43:-0.971893 44:-0.972254 45:-0.972489 46:-0.972503 47:-0.972857 48:-0.97286 49:-0.972862 50:-0.972866 51:-0.972872 52:-0.972814 53:-0.97277 54:-0.972664 55:-0.972614 56:-0.972571 57:-0.972517 58:-0.972478 59:-0.972437 60:-0.972483 61:-0.973405 62:-0.973796 63:-0.973739 64:-0.973684 65:-0.973815 66:-0.97376 67:-0.973706 68:-0.97364 69:-0.973562 70:-0.973485 71:-0.97341 72:-0.973336 73:-0.973264 74:-0.9732 75:-0.973145 76:-0.973249 77:-0.973525 78:-0.973468 79:-0.973393 80:-0.97333 81:-0.973252 82:-0.973184 83:-0.972681 84:-0.970287 85:-0.968063 86:-0.965825 87:-0.963673 88:-0.96152 89:-0.959534 90:-0.957815 91:-0.956172 92:-0.954118 93:-0.952244 94:-0.950489 95:-0.948862 96:-0.946997 97:-0.945402 98:-0.943621 99:-0.94207 100:-0.940563 101:-0.939067 102:-0.937519 103:-0.936088 104:-0.937102 
1186.846812943979 1:-0.967668 2:-0.944561 3:-0.961878 4:-0.971178 5:-0.81018 6:-0.816615 7:-0.814589 8:-0.816324 9:-0.818337 10:-0.824393 11:-0.824619 12:-0.857851 13:-0.88461 14:-0.898649 15:-0.912177 16:-0.915562 17:-0.907672 18:-0.903289 19:-0.896667 20:-0.89229 21:-0.899552 22:-0.911536 23:-0.920587 24:-0.927721 25:-0.929157 26:-0.929866 27:-0.931759 28:-0.93605 29:-0.939896 30:-0.943532 31:-0.946655 32:-0.949315 33:-0.952199 34:-0.954875 35:-0.95739 36:-0.959776 37:-0.961883 38:-0.963979 39:-0.966114 40:-0.96782 41:-0.968563 42:-0.968885 43:-0.969735 44:-0.971512 45:-0.972032 46:-0.972032 47:-0.972151 48:-0.973005 49:-0.97298 50:-0.973209 51:-0.973185 52:-0.973151 53:-0.973078 54:-0.972946 55:-0.972869 56:-0.972801 57:-0.973247 58:-0.973243 59:-0.973169 60:-0.973183 61:-0.973114 62:-0.973046 63:-0.973257 64:-0.973221 65:-0.973154 66:-0.973166 67:-0.973105 68:-0.973211 69:-0.973124 70:-0.973038 71:-0.973051 72:-0.972967 73:-0.972885 74:-0.972811 75:-0.972747 76:-0.972872 77:-0.972808 78:-0.972746 79:-0.972666 80:-0.972599 81:-0.972517 82:-0.972592 83:-0.972083 84:-0.969684 85:-0.967456 86:-0.965214 87:-0.963137 88:-0.960898 89:-0.958853 90:-0.956907 91:-0.955058 92:-0.953006 93:-0.951262 94:-0.949381 95:-0.947756 96:-0.945892 97:-0.944416 98:-0.942636 99:-0.941029 100:-0.939463 101:-0.937909 102:-0.936381 103:-0.935038 104:-0.93592 
2048 1:-0.970096 2:-0.939331 3:-0.959062 4:-0.966452 5:-0.81509 6:-0.81398 7:-0.815584 8:-0.815766 9:-0.818711 10:-0.819971 11:-0.823242 12:-0.856223 13:-0.882597 14:-0.895882 15:-0.909604 16:-0.912785 17:-0.904387 18:-0.899893 19:-0.893462 20:-0.888983 21:-0.895611 22:-0.908003 23:-0.916964 24:-0.924016 25:-0.926021 26:-0.926675 27:-0.931711 28:-0.936921 29:-0.940531 30:-0.943865 31:-0.946957 32:-0.949425 33:-0.952131 34:-0.95464 35:-0.957226 36:-0.959164 37:-0.961134 38:-0.963102 39:-0.965224 40:-0.966646 41:-0.967282 42:-0.967504 43:-0.967829 44:-0.968138 45:-0.968325 46:-0.968728 47:-0.968666 48:-0.968624 49:-0.968584 50:-0.968648 51:-0.968614 52:-0.968516 53:-0.968435 54:-0.968294 55:-0.968479 56:-0.968398 57:-0.968306 58:-0.968445 59:-0.968366 60:-0.968294 61:-0.968222 62:-0.968339 63:-0.968271 64:-0.968206 65:-0.968138 66:-0.968262 67:-0.968233 68:-0.968157 69:-0.96807 70:-0.968159 71:-0.968072 72:-0.968079 73:-0.967995 74:-0.967918 75:-0.968014 76:-0.967944 77:-0.967877 78:-0.967814 79:-0.967732 80:-0.967751 81:-0.967665 82:-0.96759 83:-0.967082 84:-0.964832 85:-0.962631 86:-0.960391 87:-0.958237 88:-0.956001 89:-0.95396 90:-0.952119 91:-0.950273 92:-0.948223 93:-0.946481 94:-0.944602 95:-0.942978 96:-0.941117 97:-0.93956 98:-0.937869 99:-0.936305 100:-0.934739 101:-0.933159 102:-0.931615 103:-0.930161 104:-0.931288 
2048 1:-0.964756 2:-0.940377 3:-0.960421 4:-0.965095 5:-0.809682 6:-0.810591 7:-0.814016 8:-0.815041 9:-0.816433 10:-0.819452 11:-0.819746 12:-0.852753 13:-0.879829 14:-0.893246 15:-0.907078 16:-0.91036 17:-0.90379 18:-0.899771 19:-0.894012 20:-0.890077 21:-0.896567 22:-0.908353 23:-0.917465 24:-0.924428 25:-0.925716 26:-0.926706 27:-0.92846 28:-0.93262 29:-0.936345 30:-0.939859 31:-0.943302 32:-0.94585 33:-0.948846 34:-0.951417 35:-0.953834 36:-0.95577 37:-0.958077 38:-0.960094 39:-0.962 40:-0.963532 41:-0.964405 42:-0.964668 43:-0.965806 44:-0.966531 45:-0.966892 46:-0.966862 47:-0.966812 48:-0.966782 49:-0.966957 50:-0.966928 51:-0.966903 52:-0.966813 53:-0.966975 54:-0.966881 55:-0.966799 56:-0.966726 57:-0.96664 58:-0.966605 59:-0.966669 60:-0.966604 61:-0.966539 62:-0.966673 63:-0.966626 64:-0.966585 65:-0.966523 66:-0.966465 67:-0.966592 68:-0.966522 69:-0.96661 70:-0.966526 71:-0.966444 72:-0.966498 73:-0.966418 74:-0.966475 75:-0.966411 76:-0.966345 77:-0.966345 78:-0.966284 79:-0.966266 80:-0.966202 81:-0.966177 82:-0.966105 83:-0.965599 84:-0.963353 85:-0.961132 86:-0.958895 87:-0.956769 88:-0.954537 89:-0.9525 90:-0.950559 91:-0.948717 92:-0.946672 93:-0.944806 94:-0.943034 95:-0.941505 96:-0.939704 97:-0.938115 98:-0.936461 99:-0.935096 100:-0.933539 101:-0.931958 102:-0.930503 103:-0.929036 104:-0.929825 
-1719.351640755024 1:-0.982232 2:-0.948745 3:-0.973276 4:-0.984186 5:-0.833538 6:-0.831899 7:-0.826676 8:-0.825578 9:-0.82498 10:-0.827845 11:-0.830333 12:-0.864637 13:-0.892244 14:-0.906506 15:-0.920624 16:-0.924475 17:-0.916952 18:-0.913192 19:-0.906843 20:-0.90413 21:-0.912177 22:-0.924296 23:-0.933693 24:-0.940922 25:-0.942407 26:-0.94335 27:-0.945272 28:-0.949127 29:-0.953029 30:-0.956635 31:-0.959811 32:-0.96284 33:-0.965762 34:-0.968475 35:-0.971023 36:-0.973072 37:-0.975217 38:-0.977613 39:-0.98038 40:-0.982909 41:-0.983631 42:-0.983929 43:-0.984446 44:-0.984878 45:-0.985294 46:-0.985527 47:-0.985739 48:-0.985747 49:-0.985755 50:-0.985764 51:-0.98587 52:-0.985817 53:-0.985773 54:-0.985669 55:-0.985618 56:-0.985576 57:-0.985542 58:-0.985575 59:-0.985535 60:-0.985498 61:-0.985541 62:-0.985504 63:-0.985469 64:-0.985436 65:-0.985402 66:-0.985444 67:-0.985412 68:-0.985367 69:-0.985309 70:-0.985322 71:-0.985418 72:-0.985471 73:-0.985542 74:-0.985488 75:-0.985445 76:-0.985402 77:-0.98536 78:-0.98532 79:-0.985323 80:-0.985331 81:-0.985271 82:-0.985217 83:-0.984723 84:-0.982328 85:-0.980159 86:-0.97792 87:-0.975765 88:-0.973529 89:-0.97154 90:-0.969597 91:-0.967751 92:-0.965731 93:-0.963883 94:-0.962005 95:-0.960384 96:-0.958523 97:-0.956934 98:-0.955157 99:-0.953785 100:-0.952313 101:-0.950732 102:-0.949187 103:-0.94772 104:-0.948444 
-2048 1:-0.971067 2:-0.944561 3:-0.970649 4:-0.970791 5:-0.811607 6:-0.823462 7:-0.824461 8:-0.820546 9:-0.818258 10:-0.817914 11:-0.818743 12:-0.852651 13:-0.879953 14:-0.894 15:-0.907945 16:-0.912441 17:-0.904465 18:-0.900951 19:-0.894494 20:-0.890267 21:-0.897125 22:-0.90949 23:-0.918649 24:-0.925882 25:-0.92783 26:-0.928607 27:-0.930561 28:-0.934432 29:-0.938528 30:-0.942137 31:-0.945315 32:-0.948027 33:-0.95096 34:-0.953976 35:-0.956524 36:-0.958582 37:-0.960728 38:-0.962862 39:-0.964879 40:-0.966777 41:-0.967728 42:-0.969127 43:-0.969879 44:-0.970268 45:-0.970642 46:-0.971103 47:-0.971215 48:-0.971234 49:-0.971252 50:-0.971272 51:-0.971293 52:-0.971344 53:-0.971311 54:-0.971218 55:-0.971178 56:-0.971146 57:-0.971319 58:-0.97157 59:-0.971696 60:-0.971902 61:-0.971858 62:-0.971894 63:-0.971854 64:-0.971816 65:-0.971775 66:-0.971738 67:-0.971702 68:-0.971653 69:-0.971592 70:-0.971532 71:-0.971644 72:-0.971583 73:-0.971621 74:-0.971567 75:-0.971523 76:-0.971478 77:-0.971434 78:-0.971393 79:-0.971333 80:-0.971437 81:-0.971372 82:-0.971317 83:-0.970966 84:-0.968641 85:-0.966429 86:-0.964202 87:-0.96206 88:-0.95989 89:-0.95786 90:-0.95598 91:-0.954197 92:-0.952158 93:-0.950298 94:-0.94843 95:-0.946818 96:-0.945065 97:-0.943483 98:-0.941715 99:-0.940167 100:-0.938612 101:-0.937041 102:-0.935552 103:-0.93414 104:-0.934989 
-2048 1:-0.982329 2:-0.953975 3:-0.972873 4:-0.980107 5:-0.813074 6:-0.825979 7:-0.822751 8:-0.821933 9:-0.824395 10:-0.824553 11:-0.827298 12:-0.863772 13:-0.891007 14:-0.904968 15:-0.918839 16:-0.922863 17:-0.914801 18:-0.910584 19:-0.90413 20:-0.899875 21:-0.906762 22:-0.918924 23:-0.928127 24:-0.935404 25:-0.937379 26:-0.938157 27:-0.94012 28:-0.944008 29:-0.94794 30:-0.951573 31:-0.954774 32:-0.957573 33:-0.960853 34:-0.963582 35:-0.966145 36:-0.968212 37:-0.970372 38:-0.972519 39:-0.974548 40:-0.97614 41:-0.976928 42:-0.977464 43:-0.97792 44:-0.978354 45:-0.978656 46:-0.978735 47:-0.978796 48:-0.978865 49:-0.978932 50:-0.978997 51:-0.979061 52:-0.97906 53:-0.979069 54:-0.979015 55:-0.979013 56:-0.979017 57:-0.979012 58:-0.979443 59:-0.979437 60:-0.979434 61:-0.979429 62:-0.979424 63:-0.979422 64:-0.97942 65:-0.979414 66:-0.979411 67:-0.979412 68:-0.979591 69:-0.979558 70:-0.979524 71:-0.979491 72:-0.979628 73:-0.979622 74:-0.979592 75:-0.979573 76:-0.979552 77:-0.979532 78:-0.979513 79:-0.979476 80:-0.979448 81:-0.979408 82:-0.979374 83:-0.978903 84:-0.976534 85:-0.974336 86:-0.972122 87:-0.970071 88:-0.967995 89:-0.965975 90:-0.964053 91:-0.962228 92:-0.960299 93:-0.958449 94:-0.95659 95:-0.955468 96:-0.953712 97:-0.952182 98:-0.950556 99:-0.948962 100:-0.947454 101:-0.94624 102:-0.944753 103:-0.943505 104:-0.944323 
-2048 1:-0.980776 2:-0.949791 3:-0.967164 4:-0.974144 5:-0.819164 6:-0.821967 7:-0.820848 8:-0.818617 9:-0.818214 10:-0.82022 11:-0.8208 12:-0.85487 13:-0.886521 14:-0.901214 15:-0.914825 16:-0.91827 17:-0.910078 18:-0.905755 19:-0.899193 20:-0.895138 21:-0.901911 22:-0.913962 23:-0.92307 24:-0.930258 25:-0.932278 26:-0.932997 27:-0.934901 28:-0.938731 29:-0.942608 30:-0.946273 31:-0.949423 32:-0.952108 33:-0.955378 34:-0.958098 35:-0.960621 36:-0.962655 37:-0.96478 38:-0.966894 39:-0.968892 40:-0.970453 41:-0.971217 42:-0.971927 43:-0.972885 44:-0.973281 45:-0.974389 46:-0.974414 47:-0.97442 48:-0.974441 49:-0.97446 50:-0.97448 51:-0.974502 52:-0.974459 53:-0.974429 54:-0.974568 55:-0.974716 56:-0.974678 57:-0.974629 58:-0.974594 59:-0.974557 60:-0.974525 61:-0.974573 62:-0.974539 63:-0.974509 64:-0.974481 65:-0.974449 66:-0.974483 67:-0.974577 68:-0.974534 69:-0.974478 70:-0.974423 71:-0.974369 72:-0.974316 73:-0.974431 74:-0.974383 75:-0.974344 76:-0.974305 77:-0.974387 78:-0.97435 79:-0.974447 80:-0.974587 81:-0.974704 82:-0.974661 83:-0.974168 84:-0.971783 85:-0.969568 86:-0.967394 87:-0.965249 88:-0.963023 89:-0.96099 90:-0.959056 91:-0.957219 92:-0.955179 93:-0.953318 94:-0.951576 95:-0.949961 96:-0.948108 97:-0.946525 98:-0.944756 99:-0.94328 100:-0.941968 101:-0.940551 102:-0.939188 103:-0.937723 104:-0.938612 
-235.453278502391 1:-0.96961 2:-0.912134 3:-0.942183 4:-0.968402 5:-0.809595 6:-0.81378 7:-0.825056 8:-0.822346 9:-0.819759 10:-0.819208 11:-0.818655 12:-0.852062 13:-0.879458 14:-0.893137 15:-0.906778 16:-0.910648 17:-0.902839 18:-0.898529 19:-0.891955 20:-0.888176 21:-0.894906 22:-0.906903 23:-0.915969 24:-0.923342 25:-0.924791 26:-0.925917 27:-0.927804 28:-0.931612 29:-0.935468 30:-0.939203 31:-0.942331 32:-0.944995 33:-0.947884 34:-0.950563 35:-0.953367 36:-0.956003 37:-0.959642 38:-0.961682 39:-0.963671 40:-0.965551 41:-0.966243 42:-0.966518 43:-0.967179 44:-0.967818 45:-0.968036 46:-0.968034 47:-0.968279 48:-0.968462 49:-0.968447 50:-0.968436 51:-0.968428 52:-0.968354 53:-0.968297 54:-0.968362 55:-0.968296 56:-0.968238 57:-0.968167 58:-0.968327 59:-0.968308 60:-0.968255 61:-0.968201 62:-0.968148 63:-0.9681 64:-0.968112 65:-0.968344 66:-0.968295 67:-0.968247 68:-0.968186 69:-0.968113 70:-0.968883 71:-0.968799 72:-0.968785 73:-0.968834 74:-0.968759 75:-0.968952 76:-0.969106 77:-0.969064 78:-0.968998 79:-0.968913 80:-0.969064 81:-0.96922 82:-0.969427 83:-0.96902 84:-0.966726 85:-0.964587 86:-0.962616 87:-0.960551 88:-0.958559 89:-0.956857 90:-0.954991 91:-0.953477 92:-0.951499 93:-0.949851 94:-0.947946 95:-0.946418 96:-0.944538 97:-0.942917 98:-0.941111 99:-0.939527 100:-0.937935 101:-0.936347 102:-0.934851 103:-0.93358 104:-0.934306 
-2048 1:-0.966989 2:-0.906904 3:-0.938503 4:-0.967228 5:-0.806324 6:-0.8107 7:-0.818903 8:-0.821687 9:-0.821152 10:-0.821885 11:-0.822563 12:-0.856454 13:-0.883739 14:-0.896869 15:-0.913137 16:-0.916922 17:-0.909025 18:-0.904152 19:-0.89711 20:-0.892365 21:-0.898776 22:-0.910495 23:-0.919906 24:-0.927131 25:-0.928332 26:-0.929444 27:-0.931115 28:-0.934728 29:-0.938585 30:-0.942323 31:-0.945284 32:-0.947793 33:-0.950694 34:-0.953234 35:-0.95562 36:-0.957788 37:-0.959809 38:-0.961801 39:-0.963683 40:-0.96555 41:-0.967614 42:-0.967934 43:-0.968532 44:-0.969388 45:-0.969569 46:-0.969495 47:-0.969404 48:-0.969335 49:-0.969524 50:-0.969457 51:-0.969621 52:-0.970308 53:-0.970373 54:-0.970183 55:-0.970271 56:-0.970274 57:-0.97031 58:-0.970189 59:-0.97007 60:-0.969958 61:-0.969929 62:-0.970019 63:-0.969914 64:-0.969814 65:-0.969964 66:-0.969864 67:-0.969768 68:-0.96966 69:-0.969542 70:-0.969601 71:-0.96981 72:-0.97005 73:-0.969996 74:-0.970233 75:-0.970448 76:-0.970616 77:-0.970693 78:-0.970737 79:-0.970642 80:-0.970529 81:-0.970401 82:-0.970285 83:-0.969848 84:-0.967411 85:-0.965145 86:-0.962865 87:-0.960779 88:-0.958505 89:-0.95656 90:-0.954711 91:-0.952923 92:-0.950835 93:-0.948928 94:-0.94714 95:-0.945481 96:-0.943585 97:-0.94196 98:-0.940218 99:-0.93861 100:-0.937078 101:-0.935649 102:-0.934161 103:-0.932663 104:-0.933338 
-1592.332736476498 1:-0.951939 2:-0.930962 3:-0.961397 4:-0.95596 5:-0.808923 6:-0.807937 7:-0.80364 8:-0.802189 9:-0.800511 10:-0.801866 11:-0.802485 12:-0.836291 13:-0.864017 14:-0.878009 15:-0.89232 16:-0.896426 17:-0.888515 18:-0.884767 19:-0.878337 20:-0.874465 21:-0.881547 22:-0.893582 23:-0.902933 24:-0.911842 25:-0.913279 26:-0.914213 27:-0.916298 28:-0.920088 29:-0.924107 30:-0.927643 31:-0.930922 32:-0.933565 33:-0.936592 34:-0.939244 35:-0.941737 36:-0.944039 37:-0.94613 38:-0.948211 39:-0.950569 40:-0.952085 41:-0.952946 42:-0.953263 43:-0.953678 44:-0.954187 45:-0.954565 46:-0.954607 47:-0.954616 48:-0.954858 49:-0.954886 50:-0.954916 51:-0.955143 52:-0.955101 53:-0.955076 54:-0.955174 55:-0.95514 56:-0.955111 57:-0.955198 58:-0.955207 59:-0.955174 60:-0.955148 61:-0.955281 62:-0.955616 63:-0.956274 64:-0.956232 65:-0.95626 66:-0.956432 67:-0.956458 68:-0.956471 69:-0.9564 70:-0.956399 71:-0.956328 72:-0.956259 73:-0.956191 74:-0.956327 75:-0.956273 76:-0.956218 77:-0.956164 78:-0.956238 79:-0.956167 80:-0.956116 81:-0.956039 82:-0.956152 83:-0.955656 84:-0.953286 85:-0.951085 86:-0.949035 87:-0.946903 88:-0.944688 89:-0.942668 90:-0.940743 91:-0.939021 92:-0.936989 93:-0.935138 94:-0.933279 95:-0.931798 96:-0.929978 97:-0.928402 98:-0.926642 99:-0.925054 100:-0.923692 101:-0.92266 102:-0.921169 103:-0.919711 104:-0.920479 
-800.6475157133032 1:-0.990291 2:-0.976987 3:-0.987776 4:-0.99025 5:-0.823578 6:-0.830438 7:-0.832276 8:-0.831506 9:-0.834506 10:-0.834742 11:-0.835996 12:-0.870533 13:-0.898322 14:-0.912713 15:-0.927964 16:-0.931958 17:-0.92404 18:-0.919938 19:-0.913614 20:-0.909442 21:-0.916717 22:-0.928999 23:-0.938302 24:-0.945672 25:-0.947274 26:-0.948111 27:-0.950137 28:-0.954093 29:-0.958088 30:-0.961781 31:-0.965206 32:-0.967984 33:-0.971586 34:-0.974352 35:-0.976948 36:-0.979182 37:-0.981365 38:-0.983536 39:-0.985586 40:-0.987202 41:-0.988003 42:-0.988376 43:-0.988847 44:-0.989294 45:-0.989608 46:-0.989697 47:-0.989775 48:-0.989856 49:-0.989932 50:-0.990006 51:-0.990078 52:-0.990087 53:-0.990103 54:-0.990056 55:-0.990059 56:-0.99007 57:-0.990293 58:-0.990298 59:-0.990343 60:-0.990348 61:-0.990352 62:-0.990355 63:-0.99036 64:-0.990364 65:-0.990367 66:-0.990371 67:-0.990375 68:-0.990364 69:-0.990339 70:-0.990315 71:-0.990291 72:-0.990267 73:-0.990244 74:-0.990226 75:-0.99026 76:-0.990367 77:-0.990356 78:-0.990345 79:-0.990316 80:-0.990292 81:-0.990262 82:-0.990236 83:-0.989768 84:-0.987393 85:-0.985188 86:-0.982969 87:-0.980834 88:-0.978617 89:-0.976593 90:-0.974669 91:-0.972842 92:-0.970811 93:-0.968959 94:-0.967098 95:-0.965542 96:-0.963829 97:-0.962339 98:-0.960575 99:-0.958985 100:-0.957435 101:-0.95587 102:-0.95434 103:-0.952888 104:-0.95372 
-2048 1:-0.965532 2:-0.922594 3:-0.953334 4:-0.966886 5:-0.808749 6:-0.814988 7:-0.825817 8:-0.828782 9:-0.825588 10:-0.828006 11:-0.826049 12:-0.858524 13:-0.88517 14:-0.898223 15:-0.911344 16:-0.914764 17:-0.906218 18:-0.901596 19:-0.895059 20:-0.890555 21:-0.897297 22:-0.909374 23:-0.918273 24:-0.925495 25:-0.926801 26:-0.92961 27:-0.931828 28:-0.936099 29:-0.941225 30:-0.944538 31:-0.947441 32:-0.950845 33:-0.953507 34:-0.956128 35:-0.958443 36:-0.960374 37:-0.962578 38:-0.964636 39:-0.96673 40:-0.968151 41:-0.96875 42:-0.96917 43:-0.969455 44:-0.969727 45:-0.970158 46:-0.970131 47:-0.970039 48:-0.969969 49:-0.969901 50:-0.969938 51:-0.969879 52:-0.969856 53:-0.970021 54:-0.97012 55:-0.970271 56:-0.970158 57:-0.970035 58:-0.96993 59:-0.969992 60:-0.969974 61:-0.970077 62:-0.969976 63:-0.969883 64:-0.969792 65:-0.9697 66:-0.969615 67:-0.96978 68:-0.969681 69:-0.969642 70:-0.969534 71:-0.969428 72:-0.969325 73:-0.969224 74:-0.969262 75:-0.969178 76:-0.969158 77:-0.969076 78:-0.968998 79:-0.968902 80:-0.968881 81:-0.968953 82:-0.968925 83:-0.968625 84:-0.966212 85:-0.963969 86:-0.961768 87:-0.959652 88:-0.957399 89:-0.955395 90:-0.953435 91:-0.951573 92:-0.949509 93:-0.947726 94:-0.945833 95:-0.944196 96:-0.94237 97:-0.940765 98:-0.939023 99:-0.937407 100:-0.93583 101:-0.934238 102:-0.932683 103:-0.931207 104:-0.932081 
-2048 1:-0.97796 2:-0.948745 3:-0.96916 4:-0.975909 5:-0.805772 6:-0.814233 7:-0.811857 8:-0.813437 9:-0.813576 10:-0.81487 11:-0.816854 12:-0.851604 13:-0.879579 14:-0.894175 15:-0.908923 16:-0.913072 17:-0.905442 18:-0.901921 19:-0.895741 20:-0.891753 21:-0.898829 22:-0.911145 23:-0.920495 24:-0.928336 25:-0.930229 26:-0.931132 27:-0.933398 28:-0.93834 29:-0.9433 30:-0.94863 31:-0.953047 32:-0.955677 33:-0.958532 34:-0.961336 35:-0.963879 36:-0.966178 37:-0.968258 38:-0.970332 39:-0.97229 40:-0.973816 41:-0.974836 42:-0.975135 43:-0.975533 44:-0.975916 45:-0.976498 46:-0.976519 47:-0.976524 48:-0.976645 49:-0.976659 50:-0.976675 51:-0.976789 52:-0.97674 53:-0.97689 54:-0.977219 55:-0.977957 56:-0.978065 57:-0.977991 58:-0.978014 59:-0.977951 60:-0.977893 61:-0.977836 62:-0.977779 63:-0.977956 64:-0.977902 65:-0.977847 66:-0.977796 67:-0.977746 68:-0.977706 69:-0.97775 70:-0.977744 71:-0.977669 72:-0.977597 73:-0.977526 74:-0.977461 75:-0.977407 76:-0.977353 77:-0.977301 78:-0.977251 79:-0.977365 80:-0.977306 81:-0.977233 82:-0.977228 83:-0.976727 84:-0.974331 85:-0.972106 86:-0.969867 87:-0.967713 88:-0.965478 89:-0.963437 90:-0.961494 91:-0.959781 92:-0.957804 93:-0.955933 94:-0.954055 95:-0.952432 96:-0.950571 97:-0.949029 98:-0.947251 99:-0.945648 100:-0.944084 101:-0.942505 102:-0.940963 103:-0.939498 104:-0.940283 
-2048 1:-0.966212 2:-0.947699 3:-0.96747 4:-0.970731 5:-0.81576 6:-0.816508 7:-0.811644 8:-0.812994 9:-0.815617 10:-0.81782 11:-0.82191 12:-0.860064 13:-0.890207 14:-0.903259 15:-0.916377 16:-0.919405 17:-0.911201 18:-0.906867 19:-0.900001 20:-0.8954 21:-0.901956 22:-0.913812 23:-0.922981 24:-0.929999 25:-0.931741 26:-0.932325 27:-0.934107 28:-0.937823 29:-0.941595 30:-0.94508 31:-0.948311 32:-0.950909 33:-0.953893 34:-0.956511 35:-0.958971 36:-0.960945 37:-0.96329 38:-0.965343 39:-0.967283 40:-0.968789 41:-0.969502 42:-0.970037 43:-0.970425 44:-0.970794 45:-0.97126 46:-0.971276 47:-0.971271 48:-0.971283 49:-0.971294 50:-0.971407 51:-0.97142 52:-0.971463 53:-0.971422 54:-0.971321 55:-0.971274 56:-0.971235 57:-0.971356 58:-0.971317 59:-0.971276 60:-0.971403 61:-0.971364 62:-0.971325 63:-0.97129 64:-0.971257 65:-0.971388 66:-0.971374 67:-0.971444 68:-0.971395 69:-0.971404 70:-0.971342 71:-0.971282 72:-0.97129 73:-0.971231 74:-0.971179 75:-0.971136 76:-0.971219 77:-0.971175 78:-0.971134 79:-0.971074 80:-0.971028 81:-0.971083 82:-0.971028 83:-0.970537 84:-0.968215 85:-0.966005 86:-0.963781 87:-0.961709 88:-0.959528 89:-0.9575 90:-0.955569 91:-0.953736 92:-0.951901 93:-0.950042 94:-0.948274 95:-0.946661 96:-0.944956 97:-0.943372 98:-0.941603 99:-0.940007 100:-0.938497 101:-0.936925 102:-0.935434 103:-0.933976 104:-0.935122 
-1988.795573275077 1:-0.968057 2:-0.961297 3:-0.973582 4:-0.968406 5:-0.819971 6:-0.839624 7:-0.830845 8:-0.825887 9:-0.822098 10:-0.820735 11:-0.820228 12:-0.854247 13:-0.881143 14:-0.894856 15:-0.908525 16:-0.91204 17:-0.904793 18:-0.900477 19:-0.89403 20:-0.889696 21:-0.896455 22:-0.908482 23:-0.917574 24:-0.924744 25:-0.926221 26:-0.927488 27:-0.929392 28:-0.933217 29:-0.93709 30:-0.941106 31:-0.944382 32:-0.947045 33:-0.949934 34:-0.952613 35:-0.95513 36:-0.957161 37:-0.959281 38:-0.961728 39:-0.963905 40:-0.965446 41:-0.966195 42:-0.966524 43:-0.967185 44:-0.967585 45:-0.967858 46:-0.967908 47:-0.967934 48:-0.967977 49:-0.968017 50:-0.968309 51:-0.968346 52:-0.968316 53:-0.968437 54:-0.968357 55:-0.96833 56:-0.968309 57:-0.968275 58:-0.968256 59:-0.968366 60:-0.968424 61:-0.968402 62:-0.968492 63:-0.968472 64:-0.968454 65:-0.968431 66:-0.968412 67:-0.968489 68:-0.968541 69:-0.968493 70:-0.968446 71:-0.968399 72:-0.96852 73:-0.968472 74:-0.968431 75:-0.968464 76:-0.96843 77:-0.968397 78:-0.968367 79:-0.968317 80:-0.968281 81:-0.968405 82:-0.968359 83:-0.967936 84:-0.965567 85:-0.963369 86:-0.961155 87:-0.959027 88:-0.956816 89:-0.954799 90:-0.95288 91:-0.951188 92:-0.949282 93:-0.947432 94:-0.945575 95:-0.943972 96:-0.942131 97:-0.940559 98:-0.938801 99:-0.937289 100:-0.935789 101:-0.934232 102:-0.932722 103:-0.931274 104:-0.932384 
