svm_type c_svc
kernel_type rbf
gamma 2
nr_class 2
total_sv 123
rho 26.1625
distance 298.891
label 19 -1
nr_sv 68 55
SV
1388.509594418475 1:-0.869702 2:-0.752092 3:-0.851549 4:-0.89442 5:-0.803789 6:-0.780883 7:-0.765501 8:-0.783809 9:-0.773994 10:-0.769386 11:-0.771714 12:-0.800996 13:-0.825143 14:-0.836332 15:-0.84834 16:-0.849912 17:-0.84138 18:-0.836508 19:-0.828947 20:-0.824249 21:-0.830318 22:-0.84159 23:-0.849592 24:-0.856196 25:-0.857344 26:-0.857879 27:-0.859352 28:-0.862904 29:-0.866336 30:-0.869846 31:-0.872426 32:-0.874905 33:-0.877947 34:-0.880282 35:-0.882633 36:-0.886878 37:-0.890282 38:-0.892902 39:-0.895157 40:-0.896313 41:-0.896634 42:-0.896692 43:-0.89674 44:-0.896901 45:-0.897727 46:-0.898343 47:-0.898713 48:-0.898855 49:-0.898555 50:-0.899141 51:-0.899059 52:-0.89904 53:-0.899579 54:-0.899288 55:-0.899247 56:-0.899376 57:-0.899958 58:-0.899734 59:-0.899592 60:-0.899386 61:-0.899304 62:-0.899517 63:-0.899402 64:-0.899292 65:-0.89924 66:-0.899631 67:-0.899662 68:-0.899534 69:-0.8994 70:-0.899198 71:-0.899195 72:-0.899194 73:-0.898997 74:-0.898882 75:-0.898845 76:-0.89909 77:-0.899514 78:-0.899339 79:-0.899789 80:-0.899869 81:-0.899657 82:-0.899503 83:-0.899133 84:-0.896909 85:-0.894713 86:-0.892768 87:-0.890908 88:-0.888745 89:-0.886783 90:-0.8848 91:-0.883282 92:-0.881195 93:-0.879492 94:-0.877756 95:-0.876208 96:-0.874601 97:-0.873062 98:-0.871672 99:-0.870025 100:-0.868375 101:-0.866755 102:-0.865351 103:-0.863935 104:-0.864656 
2048 1:-1 2:-0.995816 3:-0.997146 4:-1 5:-0.833216 6:-0.840336 7:-0.838243 8:-0.838637 9:-0.838929 10:-0.840161 11:-0.841506 12:-0.876759 13:-0.905114 14:-0.919947 15:-0.934533 16:-0.938731 17:-0.931112 18:-0.927259 19:-0.921173 20:-0.917185 21:-0.924404 22:-0.9369 23:-0.946388 24:-0.95393 25:-0.955666 26:-0.956614 27:-0.95875 28:-0.962814 29:-0.96691 30:-0.970697 31:-0.974041 32:-0.976907 33:-0.979979 34:-0.982843 35:-0.98553 36:-0.987702 37:-0.989969 38:-0.99222 39:-0.994343 40:-0.996024 41:-0.996879 42:-0.997301 43:-0.997818 44:-0.99831 45:-0.998665 46:-0.998793 47:-0.998915 48:-0.999031 49:-0.999142 50:-0.999249 51:-0.99935 52:-0.999391 53:-0.999435 54:-0.999415 55:-0.999442 56:-0.999477 57:-0.999511 58:-0.999544 59:-0.999575 60:-0.999605 61:-0.999634 62:-0.999662 63:-0.99969 64:-0.999716 65:-0.999741 66:-0.999769 67:-0.999798 68:-0.999812 69:-0.999811 70:-0.999809 71:-0.999808 72:-0.999807 73:-0.999805 74:-0.999807 75:-0.999818 76:-0.999829 77:-0.99984 78:-0.999851 79:-0.999843 80:-0.999835 81:-0.999827 82:-0.999819 83:-0.999367 84:-0.996998 85:-0.994799 86:-0.992587 87:-0.990456 88:-0.988245 89:-0.986226 90:-0.984308 91:-0.982486 92:-0.98046 93:-0.978613 94:-0.976756 95:-0.975159 96:-0.973318 97:-0.97175 98:-0.969992 99:-0.96841 100:-0.966866 101:-0.965308 102:-0.963785 103:-0.96234 104:-0.963057 
2048 1:-0.99932 2:-0.995816 3:-0.996456 4:-0.999451 5:-0.821203 6:-0.834045 7:-0.833668 8:-0.834978 9:-0.835821 10:-0.837438 11:-0.839053 12:-0.874466 13:-0.902952 14:-0.917897 15:-0.932577 16:-0.936859 17:-0.929317 18:-0.925531 19:-0.919498 20:-0.915561 21:-0.922816 22:-0.935342 23:-0.944858 24:-0.952425 25:-0.954186 26:-0.955161 27:-0.957318 28:-0.961402 29:-0.965515 30:-0.969317 31:-0.972677 32:-0.975556 33:-0.978641 34:-0.981517 35:-0.984227 36:-0.986458 37:-0.988781 38:-0.991084 39:-0.993259 40:-0.994995 41:-0.995903 42:-0.996352 43:-0.996878 44:-0.997378 45:-0.997741 46:-0.997877 47:-0.998005 48:-0.998128 49:-0.998245 50:-0.998358 51:-0.998466 52:-0.998513 53:-0.998562 54:-0.998547 55:-0.99858 56:-0.99862 57:-0.998658 58:-0.998695 59:-0.998731 60:-0.998775 61:-0.998835 62:-0.998894 63:-0.99895 64:-0.999005 65:-0.999057 66:-0.999108 67:-0.999157 68:-0.999168 69:-0.999162 70:-0.999156 71:-0.99915 72:-0.999145 73:-0.99914 74:-0.999137 75:-0.999145 76:-0.999152 77:-0.999159 78:-0.999166 79:-0.999155 80:-0.999144 81:-0.999132 82:-0.999126 83:-0.99869 84:-0.996338 85:-0.994156 86:-0.991959 87:-0.989845 88:-0.987649 89:-0.985642 90:-0.983721 91:-0.981896 92:-0.979867 93:-0.978016 94:-0.976156 95:-0.974556 96:-0.972712 97:-0.971153 98:-0.969408 99:-0.967839 100:-0.966308 101:-0.964763 102:-0.963252 103:-0.961818 104:-0.962541 
2048 1:-0.999417 2:-0.998954 3:-0.999636 4:-0.999431 5:-0.822625 6:-0.834815 7:-0.834244 8:-0.83545 9:-0.83623 10:-0.837804 11:-0.839387 12:-0.874783 13:-0.903254 14:-0.918187 15:-0.932856 16:-0.937129 17:-0.929579 18:-0.925785 19:-0.919746 20:-0.915803 21:-0.923054 22:-0.935576 23:-0.945089 24:-0.952654 25:-0.954412 26:-0.955384 27:-0.957539 28:-0.96162 29:-0.965732 30:-0.969532 31:-0.97289 32:-0.975768 33:-0.978851 34:-0.981726 35:-0.984423 36:-0.986605 37:-0.988881 38:-0.99114 39:-0.993274 40:-0.994971 41:-0.995842 42:-0.99628 43:-0.996812 44:-0.997318 45:-0.997686 46:-0.997827 47:-0.99796 48:-0.998088 49:-0.99821 50:-0.998327 51:-0.998439 52:-0.99849 53:-0.998543 54:-0.998532 55:-0.998568 56:-0.998612 57:-0.998653 58:-0.998693 59:-0.998732 60:-0.99877 61:-0.998806 62:-0.99884 63:-0.998874 64:-0.998907 65:-0.998938 66:-0.998968 67:-0.998998 68:-0.999013 69:-0.999012 70:-0.999011 71:-0.99901 72:-0.999009 73:-0.999008 74:-0.99901 75:-0.999022 76:-0.999033 77:-0.999044 78:-0.999055 79:-0.999047 80:-0.999039 81:-0.999032 82:-0.999024 83:-0.998572 84:-0.996205 85:-0.994007 86:-0.991795 87:-0.989666 88:-0.987456 89:-0.985438 90:-0.983521 91:-0.9817 92:-0.979676 93:-0.977829 94:-0.975974 95:-0.974377 96:-0.972537 97:-0.97097 98:-0.969213 99:-0.967631 100:-0.966089 101:-0.96454 102:-0.96303 103:-0.961597 104:-0.962326 
2048 1:-0.999223 2:-1 3:-1 4:-0.999226 5:-0.822441 6:-0.834636 7:-0.834062 8:-0.835268 9:-0.836048 10:-0.837622 11:-0.839206 12:-0.8746 13:-0.903069 14:-0.918001 15:-0.932669 16:-0.936942 17:-0.929392 18:-0.925599 19:-0.91956 20:-0.915617 21:-0.922868 22:-0.935389 23:-0.944901 24:-0.952465 25:-0.954224 26:-0.955195 27:-0.95735 28:-0.961431 29:-0.965543 30:-0.969343 31:-0.972701 32:-0.975578 33:-0.978662 34:-0.981536 35:-0.984233 36:-0.986415 37:-0.98869 38:-0.99095 39:-0.993083 40:-0.99478 41:-0.995651 42:-0.996089 43:-0.996621 44:-0.997127 45:-0.997496 46:-0.997636 47:-0.997769 48:-0.997897 49:-0.998019 50:-0.998137 51:-0.998249 52:-0.998299 53:-0.998353 54:-0.998341 55:-0.998378 56:-0.998421 57:-0.998462 58:-0.998503 59:-0.998541 60:-0.998579 61:-0.998615 62:-0.99865 63:-0.998684 64:-0.998716 65:-0.998748 66:-0.998778 67:-0.998808 68:-0.998822 69:-0.998822 70:-0.998821 71:-0.99882 72:-0.998819 73:-0.998818 74:-0.99882 75:-0.998831 76:-0.998843 77:-0.998854 78:-0.998864 79:-0.998857 80:-0.998849 81:-0.998841 82:-0.998834 83:-0.998382 84:-0.996015 85:-0.993818 86:-0.991606 87:-0.989477 88:-0.987267 89:-0.985249 90:-0.983333 91:-0.981512 92:-0.979488 93:-0.977641 94:-0.975786 95:-0.974189 96:-0.972349 97:-0.970783 98:-0.969025 99:-0.967444 100:-0.965902 101:-0.964345 102:-0.962822 103:-0.961378 104:-0.962095 
220.1326393034598 1:-0.905724 2:-0.835774 3:-0.866866 4:-0.890624 5:-0.742569 6:-0.771997 7:-0.754301 8:-0.747501 9:-0.746957 10:-0.757768 11:-0.787642 12:-0.821231 13:-0.842018 14:-0.851742 15:-0.861739 16:-0.861957 17:-0.852227 18:-0.846507 19:-0.838516 20:-0.832457 21:-0.838033 22:-0.848621 23:-0.856121 24:-0.862487 25:-0.86331 26:-0.863024 27:-0.86395 28:-0.867462 29:-0.870417 30:-0.873577 31:-0.875913 32:-0.882788 33:-0.885131 34:-0.886984 35:-0.888882 36:-0.890872 37:-0.892772 38:-0.894628 39:-0.896078 40:-0.896999 41:-0.897715 42:-0.897547 43:-0.897791 44:-0.89889 45:-0.898723 46:-0.898894 47:-0.900063 48:-0.899662 49:-0.899769 50:-0.899651 51:-0.8993 52:-0.898879 53:-0.898638 54:-0.898215 55:-0.897869 56:-0.897796 57:-0.897421 58:-0.897487 59:-0.897166 60:-0.896874 61:-0.897308 62:-0.897246 63:-0.896965 64:-0.896922 65:-0.89664 66:-0.896564 67:-0.896672 68:-0.896609 69:-0.896335 70:-0.896066 71:-0.895971 72:-0.895879 73:-0.895775 74:-0.895534 75:-0.895302 76:-0.895259 77:-0.895274 78:-0.895055 79:-0.895122 80:-0.895098 81:-0.894842 82:-0.894772 83:-0.894142 84:-0.891985 85:-0.88972 86:-0.887566 87:-0.88585 88:-0.8841 89:-0.882003 90:-0.880126 91:-0.878396 92:-0.876285 93:-0.874486 94:-0.873094 95:-0.871569 96:-0.869897 97:-0.868516 98:-0.866681 99:-0.865132 100:-0.863506 101:-0.861933 102:-0.86051 103:-0.859029 104:-0.859858 
451.6449219035351 1:-0.887762 2:-0.832636 3:-0.865546 4:-0.890066 5:-0.74567 6:-0.77095 7:-0.757683 8:-0.748795 9:-0.746124 10:-0.750478 11:-0.780884 12:-0.814519 13:-0.838529 14:-0.847652 15:-0.860623 16:-0.860948 17:-0.851103 18:-0.845074 19:-0.836415 20:-0.831289 21:-0.836232 22:-0.846943 23:-0.855253 24:-0.860963 25:-0.861931 26:-0.863234 27:-0.864737 28:-0.867734 29:-0.871016 30:-0.87369 31:-0.876423 32:-0.878704 33:-0.881262 34:-0.887094 35:-0.888968 36:-0.890794 37:-0.892262 38:-0.894095 39:-0.895437 40:-0.896357 41:-0.897068 42:-0.8969 43:-0.897441 44:-0.897802 45:-0.897637 46:-0.898643 47:-0.899814 48:-0.899405 49:-0.899269 50:-0.899134 51:-0.899165 52:-0.898973 53:-0.899076 54:-0.898632 55:-0.89849 56:-0.898431 57:-0.898033 58:-0.897906 59:-0.897768 60:-0.897449 61:-0.897338 62:-0.897063 63:-0.896774 64:-0.896496 65:-0.89651 66:-0.89624 67:-0.895979 68:-0.895889 69:-0.89572 70:-0.895625 71:-0.8957 72:-0.895946 73:-0.895678 74:-0.895593 75:-0.895535 76:-0.89529 77:-0.89521 78:-0.895133 79:-0.894945 80:-0.894807 81:-0.894547 82:-0.894472 83:-0.893979 84:-0.891529 85:-0.889362 86:-0.887206 87:-0.885002 88:-0.88309 89:-0.881155 90:-0.879684 91:-0.878083 92:-0.876071 93:-0.87419 94:-0.872601 95:-0.871153 96:-0.869233 97:-0.868142 98:-0.866446 99:-0.864774 100:-0.863263 101:-0.861637 102:-0.860077 103:-0.858637 104:-0.859372 
2048 1:-1 2:-0.996862 3:-0.997854 4:-0.999999 5:-0.832937 6:-0.840065 7:-0.837967 8:-0.838361 9:-0.838652 10:-0.839887 11:-0.841232 12:-0.876481 13:-0.904833 14:-0.919664 15:-0.934249 16:-0.938447 17:-0.930829 18:-0.926976 19:-0.920891 20:-0.916903 21:-0.924121 22:-0.936616 23:-0.946103 24:-0.953644 25:-0.955379 26:-0.956328 27:-0.958464 28:-0.962528 29:-0.966623 30:-0.970409 31:-0.973754 32:-0.976619 33:-0.979691 34:-0.982554 35:-0.985241 36:-0.987413 37:-0.98968 38:-0.991931 39:-0.994057 40:-0.995747 41:-0.99661 42:-0.997044 43:-0.997576 44:-0.998081 45:-0.998449 46:-0.998589 47:-0.998722 48:-0.998849 49:-0.998971 50:-0.999087 51:-0.999199 52:-0.999249 53:-0.999302 54:-0.999289 55:-0.999325 56:-0.999368 57:-0.999409 58:-0.999449 59:-0.999487 60:-0.999524 61:-0.99956 62:-0.999594 63:-0.999628 64:-0.99966 65:-0.999691 66:-0.999721 67:-0.99975 68:-0.999765 69:-0.999763 70:-0.999762 71:-0.999761 72:-0.999759 73:-0.999758 74:-0.99976 75:-0.999771 76:-0.999782 77:-0.999793 78:-0.999804 79:-0.999796 80:-0.999788 81:-0.99978 82:-0.999772 83:-0.99932 84:-0.996951 85:-0.994753 86:-0.99254 87:-0.99041 88:-0.988199 89:-0.98618 90:-0.984262 91:-0.98244 92:-0.980415 93:-0.978567 94:-0.976711 95:-0.975113 96:-0.973272 97:-0.971705 98:-0.969946 99:-0.968364 100:-0.966821 101:-0.965263 102:-0.96374 103:-0.962295 104:-0.963012 
2048 1:-0.999515 2:-0.99477 3:-0.99749 4:-0.999629 5:-0.823028 6:-0.835551 7:-0.835111 8:-0.836375 9:-0.83704 10:-0.838486 11:-0.83998 12:-0.875319 13:-0.903744 14:-0.918638 15:-0.933276 16:-0.93752 17:-0.929945 18:-0.926129 19:-0.920072 20:-0.916113 21:-0.923351 22:-0.935863 23:-0.945366 24:-0.952921 25:-0.954671 26:-0.955634 27:-0.957781 28:-0.961856 29:-0.965962 30:-0.969757 31:-0.973109 32:-0.975982 33:-0.979061 34:-0.981931 35:-0.984625 36:-0.986803 37:-0.989075 38:-0.991331 39:-0.993462 40:-0.995156 41:-0.996024 42:-0.996459 43:-0.996989 44:-0.997492 45:-0.997859 46:-0.997997 47:-0.998128 48:-0.998254 49:-0.998374 50:-0.998489 51:-0.9986 52:-0.998666 53:-0.998739 54:-0.998746 55:-0.998801 56:-0.998862 57:-0.99892 58:-0.998977 59:-0.999031 60:-0.999084 61:-0.999135 62:-0.999183 63:-0.999212 64:-0.999243 65:-0.999288 66:-0.999331 67:-0.999373 68:-0.9994 69:-0.99941 70:-0.999421 71:-0.999431 72:-0.99944 73:-0.99945 74:-0.999462 75:-0.999483 76:-0.999504 77:-0.999516 78:-0.999521 79:-0.999509 80:-0.999496 81:-0.999487 82:-0.999489 83:-0.999039 84:-0.996666 85:-0.994463 86:-0.992246 87:-0.990112 88:-0.987897 89:-0.985874 90:-0.983953 91:-0.982127 92:-0.980098 93:-0.978247 94:-0.976387 95:-0.974787 96:-0.972943 97:-0.971372 98:-0.969611 99:-0.968025 100:-0.966479 101:-0.964918 102:-0.963392 103:-0.961945 104:-0.962659 
927.1098479053398 1:-0.999223 2:-0.995816 3:-0.997471 4:-0.999358 5:-0.820355 6:-0.833621 7:-0.833373 8:-0.83475 9:-0.835634 10:-0.83728 11:-0.838914 12:-0.87434 13:-0.902835 14:-0.917789 15:-0.932476 16:-0.936765 17:-0.929229 18:-0.925448 19:-0.919419 20:-0.915485 21:-0.922743 22:-0.935271 23:-0.944789 24:-0.952358 25:-0.954122 26:-0.955137 27:-0.957364 28:-0.961511 29:-0.965638 30:-0.969435 31:-0.972789 32:-0.975664 33:-0.978744 34:-0.981616 35:-0.98431 36:-0.98649 37:-0.988763 38:-0.99102 39:-0.993152 40:-0.994847 41:-0.995716 42:-0.996152 43:-0.996683 44:-0.997187 45:-0.997554 46:-0.997694 47:-0.997825 48:-0.997952 49:-0.998073 50:-0.998189 51:-0.9983 52:-0.998349 53:-0.998402 54:-0.998389 55:-0.998425 56:-0.998467 57:-0.998508 58:-0.998547 59:-0.9986 60:-0.998665 61:-0.998728 62:-0.998788 63:-0.998847 64:-0.998903 65:-0.998958 66:-0.999002 67:-0.999028 68:-0.99904 69:-0.999035 70:-0.999031 71:-0.999027 72:-0.999023 73:-0.999019 74:-0.999018 75:-0.999027 76:-0.999035 77:-0.999044 78:-0.999052 79:-0.999042 80:-0.999032 81:-0.999022 82:-0.999012 83:-0.998558 84:-0.996188 85:-0.993989 86:-0.991775 87:-0.989643 88:-0.987431 89:-0.985411 90:-0.983493 91:-0.98167 92:-0.979644 93:-0.977795 94:-0.975938 95:-0.974352 96:-0.972528 97:-0.970976 98:-0.969233 99:-0.967666 100:-0.966138 101:-0.964594 102:-0.963085 103:-0.961654 104:-0.962384 
1311.47568773122 1:-0.909704 2:-0.817992 3:-0.880652 4:-0.897297 5:-0.788335 6:-0.77108 7:-0.759077 8:-0.777271 9:-0.768812 10:-0.765425 11:-0.7622 12:-0.79396 13:-0.819058 14:-0.833878 15:-0.846121 16:-0.849019 17:-0.839888 18:-0.835144 19:-0.833109 20:-0.828755 21:-0.834324 22:-0.845892 23:-0.854168 24:-0.860346 25:-0.861094 26:-0.862256 27:-0.86355 28:-0.866754 29:-0.87179 30:-0.875446 31:-0.878002 32:-0.880783 33:-0.883322 34:-0.885492 35:-0.887541 36:-0.889877 37:-0.891568 38:-0.893534 39:-0.895394 40:-0.897058 41:-0.89749 42:-0.899034 43:-0.899441 44:-0.89954 45:-0.899711 46:-0.900671 47:-0.900459 48:-0.900747 49:-0.901609 50:-0.901369 51:-0.902387 52:-0.902399 53:-0.902329 54:-0.901987 55:-0.901944 56:-0.901852 57:-0.902014 58:-0.901756 59:-0.901499 60:-0.901344 61:-0.90111 62:-0.900878 63:-0.901195 64:-0.900983 65:-0.901025 66:-0.900992 67:-0.901607 68:-0.902105 69:-0.901865 70:-0.902033 71:-0.901862 72:-0.901628 73:-0.901399 74:-0.901253 75:-0.90105 76:-0.900908 77:-0.901017 78:-0.901303 79:-0.90147 80:-0.902021 81:-0.901778 82:-0.902022 83:-0.901455 84:-0.899453 85:-0.89717 86:-0.895198 87:-0.893098 88:-0.891333 89:-0.889234 90:-0.887276 91:-0.885369 92:-0.883259 93:-0.881435 94:-0.879505 95:-0.877871 96:-0.875962 97:-0.874315 98:-0.872775 99:-0.87121 100:-0.869595 101:-0.86801 102:-0.866418 103:-0.865216 104:-0.865795 
744.1463447547012 1:-0.917666 2:-0.835774 3:-0.870351 4:-0.900165 5:-0.797941 6:-0.77293 7:-0.771056 8:-0.771739 9:-0.776608 10:-0.770802 11:-0.76831 12:-0.799668 13:-0.823946 14:-0.835501 15:-0.848627 16:-0.851509 17:-0.842357 18:-0.838077 19:-0.830724 20:-0.825789 21:-0.832446 22:-0.843502 23:-0.857943 24:-0.864855 25:-0.865501 26:-0.866653 27:-0.868352 28:-0.871548 29:-0.875203 30:-0.879709 31:-0.882197 32:-0.886038 33:-0.888322 34:-0.890865 35:-0.892821 36:-0.895074 37:-0.896682 38:-0.898705 39:-0.900227 40:-0.902908 41:-0.903245 42:-0.90415 43:-0.904189 44:-0.904789 45:-0.904714 46:-0.905798 47:-0.905436 48:-0.905658 49:-0.905365 50:-0.905094 51:-0.904842 52:-0.905088 53:-0.904798 54:-0.904516 55:-0.904332 56:-0.904065 57:-0.905142 58:-0.904869 59:-0.905613 60:-0.905345 61:-0.905553 62:-0.905284 63:-0.905231 64:-0.905026 65:-0.905906 66:-0.905657 67:-0.905792 68:-0.905537 69:-0.905486 70:-0.90523 71:-0.905589 72:-0.906599 73:-0.906331 74:-0.906363 75:-0.906675 76:-0.90667 77:-0.907122 78:-0.906878 79:-0.906784 80:-0.906566 81:-0.907067 82:-0.907093 83:-0.906634 84:-0.904431 85:-0.902237 86:-0.899955 87:-0.897711 88:-0.895385 89:-0.893314 90:-0.891279 91:-0.889349 92:-0.887318 93:-0.885369 94:-0.883517 95:-0.881907 96:-0.879975 97:-0.878306 98:-0.876652 99:-0.875094 100:-0.873525 101:-0.871874 102:-0.870308 103:-0.868776 104:-0.869344 
642.1788851852987 1:-0.901257 2:-0.829498 3:-0.862861 4:-0.875341 5:-0.752026 6:-0.740022 7:-0.748843 8:-0.753032 9:-0.743967 10:-0.749042 11:-0.74497 12:-0.776838 13:-0.800383 14:-0.812724 15:-0.82486 16:-0.827754 17:-0.819628 18:-0.814788 19:-0.807417 20:-0.808853 21:-0.815152 22:-0.82716 23:-0.835478 24:-0.841394 25:-0.842449 26:-0.842694 27:-0.843804 28:-0.847744 29:-0.850825 30:-0.854502 31:-0.857455 32:-0.859449 33:-0.86489 34:-0.86724 35:-0.869089 36:-0.871991 37:-0.873834 38:-0.876005 39:-0.877916 40:-0.878874 41:-0.880527 42:-0.880691 43:-0.880658 44:-0.880793 45:-0.880667 46:-0.880613 47:-0.880578 48:-0.880517 49:-0.880201 50:-0.880339 51:-0.880305 52:-0.879943 53:-0.879922 54:-0.87995 55:-0.879876 56:-0.879687 57:-0.879562 58:-0.879494 59:-0.880332 60:-0.880057 61:-0.879975 62:-0.880264 63:-0.880077 64:-0.880047 65:-0.879998 66:-0.880464 67:-0.880938 68:-0.880664 69:-0.880764 70:-0.880488 71:-0.880284 72:-0.880017 73:-0.879756 74:-0.87981 75:-0.879736 76:-0.879495 77:-0.880137 78:-0.880353 79:-0.880554 80:-0.881216 81:-0.88124 82:-0.881366 83:-0.880707 84:-0.878676 85:-0.876526 86:-0.874409 87:-0.872189 88:-0.870017 89:-0.867914 90:-0.865897 91:-0.86427 92:-0.862152 93:-0.860219 94:-0.858453 95:-0.85676 96:-0.854846 97:-0.853288 98:-0.851462 99:-0.849895 100:-0.84855 101:-0.846958 102:-0.845359 103:-0.843972 104:-0.844567 
448.8950942058357 1:-0.878344 2:-0.800209 3:-0.833191 4:-0.854834 5:-0.73801 6:-0.73155 7:-0.747249 8:-0.7328 9:-0.725095 10:-0.722141 11:-0.729706 12:-0.75926 13:-0.782579 14:-0.794553 15:-0.805592 16:-0.808718 17:-0.79923 18:-0.7939 19:-0.787601 20:-0.783375 21:-0.788787 22:-0.799993 23:-0.815775 24:-0.822386 25:-0.822917 26:-0.822728 27:-0.824667 28:-0.830202 29:-0.836784 30:-0.839699 31:-0.841805 32:-0.846889 33:-0.848939 34:-0.851414 35:-0.853383 36:-0.85491 37:-0.856207 38:-0.857867 39:-0.859769 40:-0.860738 41:-0.860872 42:-0.86064 43:-0.860941 44:-0.860825 45:-0.860906 46:-0.860695 47:-0.860478 48:-0.860086 49:-0.860373 50:-0.861014 51:-0.860903 52:-0.860624 53:-0.860471 54:-0.860263 55:-0.859901 56:-0.860285 57:-0.860518 58:-0.860163 59:-0.860004 60:-0.859676 61:-0.859353 62:-0.859342 63:-0.859104 64:-0.85921 65:-0.859427 66:-0.85949 67:-0.859386 68:-0.859269 69:-0.859148 70:-0.859017 71:-0.860369 72:-0.860451 73:-0.86014 74:-0.859851 75:-0.859733 76:-0.859606 77:-0.859486 78:-0.859377 79:-0.859397 80:-0.860527 81:-0.860923 82:-0.860698 83:-0.860576 84:-0.859098 85:-0.85706 86:-0.855144 87:-0.852902 88:-0.850577 89:-0.848882 90:-0.846971 91:-0.845034 92:-0.843152 93:-0.841255 94:-0.839296 95:-0.83758 96:-0.835743 97:-0.834187 98:-0.83234 99:-0.830658 100:-0.829179 101:-0.827522 102:-0.826132 103:-0.824988 104:-0.82554 
529.5511910280792 1:-0.885917 2:-0.800209 3:-0.840681 4:-0.84823 5:-0.745059 6:-0.740076 7:-0.723359 8:-0.734321 9:-0.726383 10:-0.724862 11:-0.72032 12:-0.750601 13:-0.774856 14:-0.786681 15:-0.797831 16:-0.801485 17:-0.792364 18:-0.787718 19:-0.780662 20:-0.775581 21:-0.782173 22:-0.79974 23:-0.80762 24:-0.813755 25:-0.81469 26:-0.815088 27:-0.817685 28:-0.82164 29:-0.82502 30:-0.828655 31:-0.830923 32:-0.834069 33:-0.836187 34:-0.83886 35:-0.840645 36:-0.842598 37:-0.844413 38:-0.845884 39:-0.847607 40:-0.848874 41:-0.849155 42:-0.849796 43:-0.849797 44:-0.849801 45:-0.850331 46:-0.851124 47:-0.850924 48:-0.850698 49:-0.851323 50:-0.852023 51:-0.851724 52:-0.851578 53:-0.851246 54:-0.851168 55:-0.851088 56:-0.850781 57:-0.850714 58:-0.850424 59:-0.850459 60:-0.850189 61:-0.849922 62:-0.849653 63:-0.851438 64:-0.851697 65:-0.851409 66:-0.852216 67:-0.852126 68:-0.852024 69:-0.85174 70:-0.851635 71:-0.851355 72:-0.851742 73:-0.851656 74:-0.852536 75:-0.852335 76:-0.852224 77:-0.852237 78:-0.851985 79:-0.85236 80:-0.853488 81:-0.853879 82:-0.853826 83:-0.853266 84:-0.850815 85:-0.848674 86:-0.846596 87:-0.844391 88:-0.842101 89:-0.840248 90:-0.838239 91:-0.836339 92:-0.834364 93:-0.832571 94:-0.830838 95:-0.829277 96:-0.827496 97:-0.825936 98:-0.824355 99:-0.822697 100:-0.821355 101:-0.820019 102:-0.818801 103:-0.817808 104:-0.818366 
409.3588023178757 1:-0.808049 2:-0.783473 3:-0.836462 4:-0.843361 5:-0.743857 6:-0.726093 7:-0.730674 8:-0.717559 9:-0.709785 10:-0.707194 11:-0.712298 12:-0.743285 13:-0.766464 14:-0.778603 15:-0.791355 16:-0.793972 17:-0.785638 18:-0.780499 19:-0.774673 20:-0.770198 21:-0.776311 22:-0.793014 23:-0.801083 24:-0.81024 25:-0.812916 26:-0.813179 27:-0.814149 28:-0.816928 29:-0.82165 30:-0.824356 31:-0.827854 32:-0.829635 33:-0.833084 34:-0.835158 35:-0.837764 36:-0.840273 37:-0.842336 38:-0.844048 39:-0.845341 40:-0.847161 41:-0.847344 42:-0.847465 43:-0.848403 44:-0.848597 45:-0.848411 46:-0.848025 47:-0.84772 48:-0.847457 49:-0.847358 50:-0.847027 51:-0.846958 52:-0.846801 53:-0.846458 54:-0.846299 55:-0.846675 56:-0.847236 57:-0.847056 58:-0.846828 59:-0.847132 60:-0.846827 61:-0.84712 62:-0.847178 63:-0.847085 64:-0.846806 65:-0.847266 66:-0.847356 67:-0.847137 68:-0.84685 69:-0.846742 70:-0.846633 71:-0.846623 72:-0.846449 73:-0.846561 74:-0.846497 75:-0.84712 76:-0.847591 77:-0.847719 78:-0.848209 79:-0.848753 80:-0.849295 81:-0.848962 82:-0.848682 83:-0.848169 84:-0.846282 85:-0.844137 86:-0.841833 87:-0.839952 88:-0.837658 89:-0.836087 90:-0.834092 91:-0.832184 92:-0.830424 93:-0.828621 94:-0.826709 95:-0.825217 96:-0.82361 97:-0.821949 98:-0.820191 99:-0.818525 100:-0.816904 101:-0.815427 102:-0.814565 103:-0.813214 104:-0.813675 
917.8606847123713 1:-0.865722 2:-0.721757 3:-0.835831 4:-0.838328 5:-0.721425 6:-0.762017 7:-0.73249 8:-0.718764 9:-0.710622 10:-0.707097 11:-0.705576 12:-0.73569 13:-0.760529 14:-0.77204 15:-0.784334 16:-0.787459 17:-0.779739 18:-0.774992 19:-0.767934 20:-0.763984 21:-0.776952 22:-0.787457 23:-0.79599 24:-0.801934 25:-0.803049 26:-0.80362 27:-0.805449 28:-0.8091 29:-0.81297 30:-0.816035 31:-0.819703 32:-0.822326 33:-0.824634 34:-0.826867 35:-0.82926 36:-0.831114 37:-0.832738 38:-0.834629 39:-0.836418 40:-0.837626 41:-0.838047 42:-0.838448 43:-0.838588 44:-0.838831 45:-0.839367 46:-0.839533 47:-0.839242 48:-0.839256 49:-0.839273 50:-0.839298 51:-0.839145 52:-0.839178 53:-0.83916 54:-0.838996 55:-0.838905 56:-0.838719 57:-0.838636 58:-0.838626 59:-0.839082 60:-0.838829 61:-0.839652 62:-0.839533 63:-0.839365 64:-0.839573 65:-0.839603 66:-0.840157 67:-0.839983 68:-0.840485 69:-0.840429 70:-0.840297 71:-0.840163 72:-0.840288 73:-0.840473 74:-0.840839 75:-0.841611 76:-0.84153 77:-0.841512 78:-0.841445 79:-0.841292 80:-0.841388 81:-0.841633 82:-0.841747 83:-0.842105 84:-0.840008 85:-0.837742 86:-0.835516 87:-0.833495 88:-0.831748 89:-0.829725 90:-0.827728 91:-0.826045 92:-0.824151 93:-0.82229 94:-0.820618 95:-0.819376 96:-0.817765 97:-0.816164 98:-0.814399 99:-0.813576 100:-0.812186 101:-0.810998 102:-0.809575 103:-0.808094 104:-0.808598 
501.3219188547685 1:-0.815913 2:-0.790795 3:-0.833841 4:-0.837868 5:-0.727784 6:-0.728309 7:-0.708983 8:-0.699884 9:-0.711273 10:-0.707913 11:-0.706117 12:-0.73638 13:-0.76049 14:-0.771497 15:-0.785022 16:-0.78757 17:-0.779234 18:-0.774362 19:-0.76746 20:-0.763258 21:-0.771677 22:-0.78579 23:-0.794313 24:-0.800434 25:-0.801497 26:-0.802024 27:-0.803298 28:-0.806752 29:-0.811633 30:-0.815413 31:-0.817745 32:-0.820488 33:-0.823102 34:-0.825442 35:-0.827287 36:-0.828763 37:-0.830996 38:-0.832687 39:-0.834786 40:-0.836249 41:-0.836879 42:-0.836819 43:-0.837458 44:-0.837746 45:-0.838012 46:-0.838011 47:-0.837902 48:-0.837721 49:-0.837709 50:-0.837462 51:-0.837483 52:-0.837565 53:-0.837522 54:-0.837426 55:-0.837477 56:-0.83744 57:-0.837238 58:-0.837207 59:-0.837154 60:-0.83713 61:-0.837011 62:-0.836972 63:-0.836948 64:-0.838177 65:-0.839221 66:-0.840431 67:-0.840536 68:-0.840419 69:-0.841532 70:-0.841413 71:-0.84112 72:-0.841172 73:-0.840892 74:-0.840958 75:-0.841294 76:-0.841675 77:-0.84156 78:-0.841588 79:-0.841602 80:-0.841842 81:-0.842374 82:-0.843115 83:-0.842734 84:-0.840432 85:-0.838153 86:-0.836277 87:-0.834212 88:-0.831982 89:-0.83003 90:-0.828096 91:-0.826197 92:-0.824523 93:-0.822727 94:-0.820927 95:-0.819829 96:-0.817918 97:-0.816382 98:-0.8147 99:-0.813156 100:-0.811653 101:-0.810013 102:-0.808562 103:-0.807706 104:-0.808252 
2048 1:-0.84174 2:-0.741632 3:-0.820442 4:-0.837255 5:-0.732594 6:-0.727425 7:-0.705402 8:-0.708547 9:-0.706348 10:-0.710973 11:-0.707041 12:-0.737285 13:-0.761266 14:-0.773369 15:-0.785744 16:-0.78785 17:-0.779612 18:-0.774727 19:-0.767846 20:-0.763661 21:-0.777982 22:-0.78887 23:-0.796389 24:-0.802649 25:-0.80363 26:-0.803679 27:-0.806366 28:-0.812712 29:-0.816101 30:-0.820791 31:-0.82337 32:-0.825524 33:-0.82789 34:-0.829708 35:-0.832672 36:-0.834917 37:-0.836903 38:-0.838215 39:-0.839721 40:-0.841149 41:-0.841418 42:-0.841502 43:-0.841669 44:-0.841674 45:-0.84159 46:-0.841467 47:-0.841228 48:-0.842456 49:-0.842562 50:-0.842261 51:-0.842193 52:-0.841982 53:-0.841903 54:-0.842002 55:-0.841855 56:-0.842044 57:-0.842031 58:-0.842095 59:-0.84217 60:-0.842099 61:-0.841752 62:-0.841642 63:-0.841586 64:-0.841621 65:-0.841516 66:-0.84121 67:-0.84124 68:-0.84165 69:-0.841343 70:-0.841169 71:-0.840857 72:-0.840817 73:-0.841162 74:-0.841662 75:-0.841978 76:-0.841835 77:-0.842057 78:-0.84268 79:-0.842514 80:-0.842355 81:-0.842015 82:-0.842358 83:-0.841901 84:-0.839735 85:-0.837742 86:-0.835677 87:-0.833603 88:-0.831327 89:-0.829545 90:-0.82814 91:-0.826324 92:-0.824252 93:-0.822664 94:-0.820917 95:-0.819531 96:-0.817723 97:-0.816053 98:-0.814266 99:-0.812592 100:-0.811284 101:-0.810226 102:-0.808699 103:-0.807206 104:-0.808451 
1123.176452543946 1:-0.875916 2:-0.781381 3:-0.830758 4:-0.835944 5:-0.73584 6:-0.732844 7:-0.707398 8:-0.726784 9:-0.714746 10:-0.708614 11:-0.71046 12:-0.738588 13:-0.762615 14:-0.773205 15:-0.785356 16:-0.788877 17:-0.779816 18:-0.775503 19:-0.768226 20:-0.763138 21:-0.775776 22:-0.786279 23:-0.794384 24:-0.800606 25:-0.801629 26:-0.801532 27:-0.803071 28:-0.80741 29:-0.810752 30:-0.815201 31:-0.818119 32:-0.819952 33:-0.822481 34:-0.825049 35:-0.827205 36:-0.828973 37:-0.830785 38:-0.83259 39:-0.833971 40:-0.83491 41:-0.835204 42:-0.835519 43:-0.83643 44:-0.836491 45:-0.836405 46:-0.836746 47:-0.836613 48:-0.836316 49:-0.836383 50:-0.836396 51:-0.836148 52:-0.836047 53:-0.838573 54:-0.838201 55:-0.838117 56:-0.838025 57:-0.838082 58:-0.837781 59:-0.837813 60:-0.837738 61:-0.838315 62:-0.838619 63:-0.838687 64:-0.838798 65:-0.838744 66:-0.838472 67:-0.83839 68:-0.838475 69:-0.838196 70:-0.839158 71:-0.839977 72:-0.839742 73:-0.840111 74:-0.839829 75:-0.839941 76:-0.840453 77:-0.841027 78:-0.841371 79:-0.841332 80:-0.84221 81:-0.842007 82:-0.841714 83:-0.841143 84:-0.83906 85:-0.836914 86:-0.834609 87:-0.832501 88:-0.830449 89:-0.828357 90:-0.826673 91:-0.824897 92:-0.822783 93:-0.821126 94:-0.819419 95:-0.817986 96:-0.816196 97:-0.814536 98:-0.81278 99:-0.811115 100:-0.809728 101:-0.808949 102:-0.807521 103:-0.805989 104:-0.806485 
1153.403521336147 1:-0.887762 2:-0.740586 3:-0.857069 4:-0.872924 5:-0.751593 6:-0.743131 7:-0.764858 8:-0.750876 9:-0.743444 10:-0.740176 11:-0.738249 12:-0.768637 13:-0.794159 14:-0.806132 15:-0.819416 16:-0.824283 17:-0.82042 18:-0.815252 19:-0.807664 20:-0.802997 21:-0.808973 22:-0.819883 23:-0.828276 24:-0.835 25:-0.836314 26:-0.836626 27:-0.8398 28:-0.84305 29:-0.846382 30:-0.850303 31:-0.856378 32:-0.859581 33:-0.862385 34:-0.865352 35:-0.868259 36:-0.869704 37:-0.871317 38:-0.872805 39:-0.874344 40:-0.875446 41:-0.875858 42:-0.875886 43:-0.878547 44:-0.878614 45:-0.878767 46:-0.878518 47:-0.878345 48:-0.878008 49:-0.877786 50:-0.877585 51:-0.877305 52:-0.877131 53:-0.876999 54:-0.876724 55:-0.876523 56:-0.876323 57:-0.87599 58:-0.875887 59:-0.875698 60:-0.875736 61:-0.875747 62:-0.875648 63:-0.875485 64:-0.875336 65:-0.875361 66:-0.875307 67:-0.875161 68:-0.875005 69:-0.874774 70:-0.87542 71:-0.87599 72:-0.876599 73:-0.877052 74:-0.877448 75:-0.877648 76:-0.877829 77:-0.877827 78:-0.87777 79:-0.877569 80:-0.877365 81:-0.877376 82:-0.877199 83:-0.876558 84:-0.874258 85:-0.87229 86:-0.870384 87:-0.868508 88:-0.866483 89:-0.865023 90:-0.863322 91:-0.861769 92:-0.859701 93:-0.857767 94:-0.855928 95:-0.85438 96:-0.852463 97:-0.851021 98:-0.849255 99:-0.847959 100:-0.846423 101:-0.844826 102:-0.843222 103:-0.841742 104:-0.842465 
45.7316577780668 1:-0.735133 2:-0.75 3:-0.800063 4:-0.780681 5:-0.691787 6:-0.701796 7:-0.689904 8:-0.671925 9:-0.662122 10:-0.657809 11:-0.655068 12:-0.700859 13:-0.723498 14:-0.732447 15:-0.752492 16:-0.75527 17:-0.749072 18:-0.741942 19:-0.733015 20:-0.7266 21:-0.731791 22:-0.742511 23:-0.750662 24:-0.756336 25:-0.756573 26:-0.755886 27:-0.758719 28:-0.761816 29:-0.764781 30:-0.76692 31:-0.769392 32:-0.771215 33:-0.772952 34:-0.775848 35:-0.777567 36:-0.781115 37:-0.782891 38:-0.784711 39:-0.786383 40:-0.787309 41:-0.787901 42:-0.788153 43:-0.788461 44:-0.788363 45:-0.788292 46:-0.789653 47:-0.790103 48:-0.79035 49:-0.790519 50:-0.790301 51:-0.790026 52:-0.789886 53:-0.7896 54:-0.790048 55:-0.789759 56:-0.790335 57:-0.789941 58:-0.79008 59:-0.790355 60:-0.790069 61:-0.790297 62:-0.790401 63:-0.790456 64:-0.79026 65:-0.790015 66:-0.789764 67:-0.789872 68:-0.789967 69:-0.790213 70:-0.790151 71:-0.790033 72:-0.789766 73:-0.789504 74:-0.789352 75:-0.788958 76:-0.788868 77:-0.788786 78:-0.788569 79:-0.788316 80:-0.788168 81:-0.788039 82:-0.787926 83:-0.78719 84:-0.784885 85:-0.782685 86:-0.780547 87:-0.778346 88:-0.776274 89:-0.774191 90:-0.772443 91:-0.770771 92:-0.768883 93:-0.767134 94:-0.765333 95:-0.76376 96:-0.761979 97:-0.760558 98:-0.758861 99:-0.757315 100:-0.755813 101:-0.754378 102:-0.752893 103:-0.751613 104:-0.752187 
19.92823972122397 1:-0.799505 2:-0.759414 3:-0.794807 4:-0.767749 5:-0.674567 6:-0.693152 7:-0.675427 8:-0.658802 9:-0.648988 10:-0.644029 11:-0.658184 12:-0.688276 13:-0.710554 14:-0.720044 15:-0.730624 16:-0.734643 17:-0.728065 18:-0.723435 19:-0.714961 20:-0.709582 21:-0.714405 22:-0.725192 23:-0.732515 24:-0.738 25:-0.737909 26:-0.738634 27:-0.740101 28:-0.743008 29:-0.746073 30:-0.750583 31:-0.755439 32:-0.75848 33:-0.760174 34:-0.761651 35:-0.763499 36:-0.765314 37:-0.76679 38:-0.768099 39:-0.76984 40:-0.773594 41:-0.773852 42:-0.773473 43:-0.775013 44:-0.77596 45:-0.775857 46:-0.775553 47:-0.775254 48:-0.775624 49:-0.77609 50:-0.775803 51:-0.775402 52:-0.775999 53:-0.775692 54:-0.775107 55:-0.775654 56:-0.776033 57:-0.776147 58:-0.776792 59:-0.77627 60:-0.776367 61:-0.776089 62:-0.775805 63:-0.776124 64:-0.775689 65:-0.775422 66:-0.775324 67:-0.775093 68:-0.774852 69:-0.775152 70:-0.774908 71:-0.77449 72:-0.774912 73:-0.774833 74:-0.774827 75:-0.774444 76:-0.774374 77:-0.774151 78:-0.774143 79:-0.77406 80:-0.774227 81:-0.774091 82:-0.773757 83:-0.773316 84:-0.77103 85:-0.768765 86:-0.766901 87:-0.764913 88:-0.762774 89:-0.761038 90:-0.759166 91:-0.757535 92:-0.755447 93:-0.753534 94:-0.751875 95:-0.750313 96:-0.748723 97:-0.747073 98:-0.74563 99:-0.743975 100:-0.742604 101:-0.741089 102:-0.739698 103:-0.738316 104:-0.739363 
84.76936906338689 1:-0.774358 2:-0.74477 3:-0.794267 4:-0.761638 5:-0.672342 6:-0.693131 7:-0.671197 8:-0.653607 9:-0.64319 10:-0.64062 11:-0.655546 12:-0.680263 13:-0.702321 14:-0.710841 15:-0.730046 16:-0.731111 17:-0.721158 18:-0.714696 19:-0.706838 20:-0.703719 21:-0.708791 22:-0.718371 23:-0.725102 24:-0.738211 25:-0.738771 26:-0.739034 27:-0.739359 28:-0.742156 29:-0.744483 30:-0.747051 31:-0.749255 32:-0.75106 33:-0.753447 34:-0.755615 35:-0.757013 36:-0.759188 37:-0.761001 38:-0.763815 39:-0.765873 40:-0.767385 41:-0.76922 42:-0.768794 43:-0.769081 44:-0.768781 45:-0.769243 46:-0.771707 47:-0.771473 48:-0.772623 49:-0.772245 50:-0.772952 51:-0.773333 52:-0.773646 53:-0.773257 54:-0.772878 55:-0.77231 56:-0.771966 57:-0.771969 58:-0.771431 59:-0.771592 60:-0.771362 61:-0.771263 62:-0.771128 63:-0.771084 64:-0.771032 65:-0.770623 66:-0.770178 67:-0.770104 68:-0.769663 69:-0.769232 70:-0.76935 71:-0.76892 72:-0.768959 73:-0.768708 74:-0.768606 75:-0.768253 76:-0.768149 77:-0.767767 78:-0.767622 79:-0.767472 80:-0.767393 81:-0.767247 82:-0.767195 83:-0.766475 84:-0.764347 85:-0.762094 86:-0.760246 87:-0.758128 88:-0.756129 89:-0.754206 90:-0.752394 91:-0.750514 92:-0.748877 93:-0.746974 94:-0.745559 95:-0.744003 96:-0.742231 97:-0.740871 98:-0.739306 99:-0.737796 100:-0.736191 101:-0.735085 102:-0.733512 103:-0.73227 104:-0.733184 
41.96249960338172 1:-0.842614 2:-0.767782 3:-0.792458 4:-0.759055 5:-0.669643 6:-0.696708 7:-0.66089 8:-0.647883 9:-0.636747 10:-0.639369 11:-0.652664 12:-0.678751 13:-0.701383 14:-0.712261 15:-0.726457 16:-0.728635 17:-0.72127 18:-0.714779 19:-0.705556 20:-0.701632 21:-0.70637 22:-0.716196 23:-0.723486 24:-0.729768 25:-0.730174 26:-0.730708 27:-0.732264 28:-0.73464 29:-0.738062 30:-0.740762 31:-0.744313 32:-0.749021 33:-0.751113 34:-0.752959 35:-0.7548 36:-0.756597 37:-0.757704 38:-0.759341 39:-0.760666 40:-0.764553 41:-0.76576 42:-0.765352 43:-0.765951 44:-0.76566 45:-0.766087 46:-0.765845 47:-0.765143 48:-0.764866 49:-0.765112 50:-0.764866 51:-0.765202 52:-0.765939 53:-0.765983 54:-0.765641 55:-0.765162 56:-0.765732 57:-0.765363 58:-0.76511 59:-0.765053 60:-0.764952 61:-0.765389 62:-0.765331 63:-0.765305 64:-0.765415 65:-0.765166 66:-0.765135 67:-0.764922 68:-0.765102 69:-0.76523 70:-0.765157 71:-0.764748 72:-0.764349 73:-0.764897 74:-0.765337 75:-0.764959 76:-0.765301 77:-0.765077 78:-0.765025 79:-0.764635 80:-0.764658 81:-0.765037 82:-0.76483 83:-0.76425 84:-0.76189 85:-0.759999 86:-0.75814 87:-0.755962 88:-0.753831 89:-0.752326 90:-0.750547 91:-0.748658 92:-0.747079 93:-0.745197 94:-0.743413 95:-0.741727 96:-0.739839 97:-0.738683 98:-0.737001 99:-0.735419 100:-0.733812 101:-0.732412 102:-0.730825 103:-0.729537 104:-0.730669 
1074.138891760571 1:-0.890966 2:-0.811715 3:-0.844569 4:-0.851731 5:-0.735586 6:-0.72762 7:-0.73795 8:-0.725222 9:-0.719006 10:-0.714878 11:-0.71382 12:-0.746415 13:-0.774 14:-0.791404 15:-0.810634 16:-0.81166 17:-0.803127 18:-0.798938 19:-0.790643 20:-0.786486 21:-0.792882 22:-0.805 23:-0.813398 24:-0.819924 25:-0.820779 26:-0.820575 27:-0.822211 28:-0.825519 29:-0.828902 30:-0.832015 31:-0.834305 32:-0.836598 33:-0.83916 34:-0.841484 35:-0.843312 36:-0.845517 37:-0.847015 38:-0.849203 39:-0.850944 40:-0.85232 41:-0.852613 42:-0.854051 43:-0.854043 44:-0.855057 45:-0.855067 46:-0.85489 47:-0.855015 48:-0.854935 49:-0.854755 50:-0.854661 51:-0.854388 52:-0.854028 53:-0.853724 54:-0.853473 55:-0.853324 56:-0.853048 57:-0.853151 58:-0.852888 59:-0.85283 60:-0.853112 61:-0.853948 62:-0.853875 63:-0.854565 64:-0.854505 65:-0.854341 66:-0.85428 67:-0.854036 68:-0.853784 69:-0.85371 70:-0.853459 71:-0.853404 72:-0.853326 73:-0.853305 74:-0.853636 75:-0.853735 76:-0.854686 77:-0.854743 78:-0.85545 79:-0.856098 80:-0.856686 81:-0.856676 82:-0.856604 83:-0.856524 84:-0.85455 85:-0.852265 86:-0.850105 87:-0.848169 88:-0.846148 89:-0.844054 90:-0.842175 91:-0.840401 92:-0.838418 93:-0.836492 94:-0.834564 95:-0.833039 96:-0.831132 97:-0.829945 98:-0.828122 99:-0.82658 100:-0.825347 101:-0.823844 102:-0.822243 103:-0.820812 104:-0.821687 
2048 1:-0.866401 2:-0.737448 3:-0.845642 4:-0.850086 5:-0.738408 6:-0.731169 7:-0.743352 8:-0.731068 9:-0.722914 10:-0.719301 11:-0.716492 12:-0.747442 13:-0.771977 14:-0.789424 15:-0.807862 16:-0.811522 17:-0.801844 18:-0.797187 19:-0.790137 20:-0.785938 21:-0.793269 22:-0.803891 23:-0.812176 24:-0.81894 25:-0.819641 26:-0.819621 27:-0.820751 28:-0.824417 29:-0.827923 30:-0.830744 31:-0.833515 32:-0.835553 33:-0.838002 34:-0.840642 35:-0.842877 36:-0.846058 37:-0.847629 38:-0.849208 39:-0.850573 40:-0.852078 41:-0.852991 42:-0.852859 43:-0.853252 44:-0.853665 45:-0.853967 46:-0.853984 47:-0.854177 48:-0.854146 49:-0.854693 50:-0.854565 51:-0.85473 52:-0.854705 53:-0.854633 54:-0.854855 55:-0.85566 56:-0.856338 57:-0.856686 58:-0.856651 59:-0.856609 60:-0.85659 61:-0.85656 62:-0.856675 63:-0.85643 64:-0.856195 65:-0.856059 66:-0.855784 67:-0.855563 68:-0.855539 69:-0.855306 70:-0.855075 71:-0.855045 72:-0.855088 73:-0.854903 74:-0.854695 75:-0.854745 76:-0.854472 77:-0.855083 78:-0.854981 79:-0.854819 80:-0.854836 81:-0.85453 82:-0.854481 83:-0.853827 84:-0.851758 85:-0.849491 86:-0.847726 87:-0.845642 88:-0.843603 89:-0.841597 90:-0.839699 91:-0.838068 92:-0.836003 93:-0.834383 94:-0.832563 95:-0.831507 96:-0.829937 97:-0.828695 98:-0.827212 99:-0.825581 100:-0.823968 101:-0.822374 102:-0.820862 103:-0.819384 104:-0.819949 
1028.560758871207 1:-0.883489 2:-0.770921 3:-0.85974 4:-0.872218 5:-0.74847 6:-0.747284 7:-0.7692 8:-0.753993 9:-0.74495 10:-0.742055 11:-0.740636 12:-0.774165 13:-0.798103 14:-0.810091 15:-0.822338 16:-0.828389 17:-0.827689 18:-0.82194 19:-0.815031 20:-0.81039 21:-0.815671 22:-0.825958 23:-0.834271 24:-0.840473 25:-0.840867 26:-0.841136 27:-0.842952 28:-0.845862 29:-0.849061 30:-0.85217 31:-0.854882 32:-0.857159 33:-0.859397 34:-0.862105 35:-0.864484 36:-0.8661 37:-0.86768 38:-0.869516 39:-0.87113 40:-0.874877 41:-0.875288 42:-0.875316 43:-0.876352 44:-0.876345 45:-0.876573 46:-0.876261 47:-0.876188 48:-0.876286 49:-0.87609 50:-0.876012 51:-0.87604 52:-0.875789 53:-0.875585 54:-0.875466 55:-0.876368 56:-0.87744 57:-0.877411 58:-0.877435 59:-0.877124 60:-0.877208 61:-0.876955 62:-0.877058 63:-0.877161 64:-0.876898 65:-0.877124 66:-0.876865 67:-0.877279 68:-0.877008 69:-0.876941 70:-0.876672 71:-0.876692 72:-0.876558 73:-0.876621 74:-0.876463 75:-0.876391 76:-0.876519 77:-0.876342 78:-0.876177 79:-0.876082 80:-0.875917 81:-0.875916 82:-0.875827 83:-0.875342 84:-0.873399 85:-0.871769 86:-0.869589 87:-0.867391 88:-0.8653 89:-0.863549 90:-0.861547 91:-0.859857 92:-0.858256 93:-0.856533 94:-0.854656 95:-0.853215 96:-0.851306 97:-0.849844 98:-0.848022 99:-0.846922 100:-0.845577 101:-0.843983 102:-0.842382 103:-0.840993 104:-0.841583 
2048 1:-0.908151 2:-0.770921 3:-0.877681 4:-0.900884 5:-0.724709 6:-0.745939 7:-0.738754 8:-0.738544 9:-0.747752 10:-0.747823 11:-0.75584 12:-0.793791 13:-0.819076 14:-0.832101 15:-0.844812 16:-0.8488 17:-0.840311 18:-0.835781 19:-0.82911 20:-0.824631 21:-0.831159 22:-0.849326 23:-0.858776 24:-0.865139 25:-0.866043 26:-0.86654 27:-0.868194 28:-0.873726 29:-0.877249 30:-0.880321 31:-0.884159 32:-0.886527 33:-0.888836 34:-0.891242 35:-0.893665 36:-0.896057 37:-0.898035 38:-0.899963 39:-0.901869 40:-0.903203 41:-0.904046 42:-0.90437 43:-0.904552 44:-0.905063 45:-0.905451 46:-0.905182 47:-0.905075 48:-0.905222 49:-0.905164 50:-0.905216 51:-0.905182 52:-0.905521 53:-0.905703 54:-0.905455 55:-0.905629 56:-0.905448 57:-0.90523 58:-0.905637 59:-0.905455 60:-0.905528 61:-0.905325 62:-0.905734 63:-0.905499 64:-0.905435 65:-0.905483 66:-0.905694 67:-0.905684 68:-0.90552 69:-0.905838 70:-0.905733 71:-0.905559 72:-0.905457 73:-0.90548 74:-0.90539 75:-0.905178 76:-0.905522 77:-0.905614 78:-0.905407 79:-0.905241 80:-0.90506 81:-0.905173 82:-0.905025 83:-0.904797 84:-0.902347 85:-0.900124 86:-0.89783 87:-0.896054 88:-0.894234 89:-0.892399 90:-0.890389 91:-0.888587 92:-0.886525 93:-0.884599 94:-0.882719 95:-0.881036 96:-0.879414 97:-0.877889 98:-0.876081 99:-0.874423 100:-0.872855 101:-0.871487 102:-0.870437 103:-0.869047 104:-0.869624 
1687.29816120373 1:-0.917472 2:-0.854603 3:-0.881769 4:-0.892608 5:-0.761775 6:-0.770949 7:-0.768996 8:-0.7767 9:-0.766568 10:-0.762087 11:-0.760262 12:-0.790547 13:-0.816015 14:-0.827626 15:-0.840604 16:-0.842821 17:-0.84341 18:-0.837753 19:-0.830113 20:-0.826187 21:-0.831625 22:-0.842963 23:-0.851678 24:-0.858305 25:-0.860553 26:-0.86053 27:-0.862189 28:-0.866753 29:-0.870312 30:-0.873152 31:-0.875615 32:-0.878303 33:-0.881 34:-0.883086 35:-0.885798 36:-0.888052 37:-0.889817 38:-0.891424 39:-0.893274 40:-0.894995 41:-0.895664 42:-0.895629 43:-0.896017 44:-0.896372 45:-0.896743 46:-0.896632 47:-0.896582 48:-0.896591 49:-0.896742 50:-0.896506 51:-0.896777 52:-0.896472 53:-0.896383 54:-0.896526 55:-0.896349 56:-0.896322 57:-0.896159 58:-0.895923 59:-0.895685 60:-0.895674 61:-0.895457 62:-0.895738 63:-0.895533 64:-0.895528 65:-0.895319 66:-0.895498 67:-0.895742 68:-0.895534 69:-0.8955 70:-0.895463 71:-0.895423 72:-0.895491 73:-0.895282 74:-0.895255 75:-0.895231 76:-0.895985 77:-0.895825 78:-0.895639 79:-0.896235 80:-0.896623 81:-0.896387 82:-0.896482 83:-0.896655 84:-0.89479 85:-0.892953 86:-0.890841 87:-0.88877 88:-0.886477 89:-0.884514 90:-0.882508 91:-0.880607 92:-0.878631 93:-0.87671 94:-0.874911 95:-0.87323 96:-0.871467 97:-0.869822 98:-0.868124 99:-0.866471 100:-0.864927 101:-0.863365 102:-0.861847 103:-0.860336 104:-0.860961 
2048 1:-0.882227 2:-0.816946 3:-0.879326 4:-0.87829 5:-0.713951 6:-0.7214 7:-0.714646 8:-0.714873 9:-0.724305 10:-0.725439 11:-0.737208 12:-0.769101 13:-0.794864 14:-0.807453 15:-0.820219 16:-0.824016 17:-0.815719 18:-0.811388 19:-0.810289 20:-0.806142 21:-0.814744 22:-0.826351 23:-0.8348 24:-0.841696 25:-0.843535 26:-0.844239 27:-0.845461 28:-0.849147 29:-0.853062 30:-0.855972 31:-0.859004 32:-0.8615 33:-0.86424 34:-0.866749 35:-0.869104 36:-0.870687 37:-0.872759 38:-0.874412 39:-0.876305 40:-0.877857 41:-0.878893 42:-0.879001 43:-0.879414 44:-0.879808 45:-0.880126 46:-0.879909 47:-0.87989 48:-0.880137 49:-0.880178 50:-0.880478 51:-0.880495 52:-0.880306 53:-0.880069 54:-0.879781 55:-0.879745 56:-0.87953 57:-0.879268 58:-0.879282 59:-0.879198 60:-0.879415 61:-0.879907 62:-0.87995 63:-0.879957 64:-0.879961 65:-0.879761 66:-0.879952 67:-0.880118 68:-0.879993 69:-0.880322 70:-0.880116 71:-0.879911 72:-0.880029 73:-0.879828 74:-0.879738 75:-0.879561 76:-0.879539 77:-0.879672 78:-0.879927 79:-0.879748 80:-0.880258 81:-0.880671 82:-0.880885 83:-0.880284 84:-0.877995 85:-0.875759 86:-0.873618 87:-0.872521 88:-0.870316 89:-0.868258 90:-0.866336 91:-0.864526 92:-0.863146 93:-0.861297 94:-0.859395 95:-0.857785 96:-0.855903 97:-0.854328 98:-0.852814 99:-0.851272 100:-0.849726 101:-0.848116 102:-0.8468 103:-0.845851 104:-0.846555 
298.431102475118 1:-0.898927 2:-0.837866 3:-0.886069 4:-0.878156 5:-0.772928 6:-0.758577 7:-0.769246 8:-0.755899 9:-0.748847 10:-0.744349 11:-0.743113 12:-0.786766 13:-0.816032 14:-0.828404 15:-0.839995 16:-0.841052 17:-0.831078 18:-0.826078 19:-0.817949 20:-0.812511 21:-0.817861 22:-0.82889 23:-0.838207 24:-0.84416 25:-0.844749 26:-0.844791 27:-0.846 28:-0.849486 29:-0.853129 30:-0.856486 31:-0.859634 32:-0.861708 33:-0.864061 34:-0.866201 35:-0.868594 36:-0.870201 37:-0.872085 38:-0.874441 39:-0.876011 40:-0.877463 41:-0.877893 42:-0.877938 43:-0.878461 44:-0.878597 45:-0.878913 46:-0.879638 47:-0.88051 48:-0.88147 49:-0.881975 50:-0.882505 51:-0.883434 52:-0.883913 53:-0.883634 54:-0.883278 55:-0.882999 56:-0.882725 57:-0.883089 58:-0.882823 59:-0.882556 60:-0.882313 61:-0.882274 62:-0.88203 63:-0.882005 64:-0.881791 65:-0.88192 66:-0.881852 67:-0.881644 68:-0.881427 69:-0.881208 70:-0.881337 71:-0.881186 72:-0.881037 73:-0.880957 74:-0.880891 75:-0.88083 76:-0.880794 77:-0.880604 78:-0.88058 79:-0.880733 80:-0.880642 81:-0.880596 82:-0.880411 83:-0.879965 84:-0.877711 85:-0.8757 86:-0.873999 87:-0.871975 88:-0.869837 89:-0.867855 90:-0.865994 91:-0.864263 92:-0.862448 93:-0.860928 94:-0.859159 95:-0.857625 96:-0.85594 97:-0.854415 98:-0.852858 99:-0.851273 100:-0.849683 101:-0.848192 102:-0.846737 103:-0.845335 104:-0.846004 
34.7695164834474 1:-0.902325 2:-0.82636 3:-0.877706 4:-0.876187 5:-0.716386 6:-0.719366 7:-0.715448 8:-0.726425 9:-0.725165 10:-0.738417 11:-0.73631 12:-0.76748 13:-0.793653 14:-0.805687 15:-0.819021 16:-0.82255 17:-0.814472 18:-0.817471 19:-0.810043 20:-0.804965 21:-0.81059 22:-0.821425 23:-0.831134 24:-0.837291 25:-0.838627 26:-0.842619 27:-0.84485 28:-0.8479 29:-0.852117 30:-0.854975 31:-0.857453 32:-0.859513 33:-0.862166 34:-0.864283 35:-0.867766 36:-0.869319 37:-0.870948 38:-0.872585 39:-0.874963 40:-0.876171 41:-0.876878 42:-0.876884 43:-0.87751 44:-0.877894 45:-0.878865 46:-0.878624 47:-0.878313 48:-0.878345 49:-0.878119 50:-0.878291 51:-0.878831 52:-0.878778 53:-0.878583 54:-0.878279 55:-0.878274 56:-0.878173 57:-0.877894 58:-0.877892 59:-0.877668 60:-0.877507 61:-0.877307 62:-0.877701 63:-0.877707 64:-0.877717 65:-0.877517 66:-0.877336 67:-0.87716 68:-0.877367 69:-0.87718 70:-0.877213 71:-0.877687 72:-0.877952 73:-0.878203 74:-0.878177 75:-0.878583 76:-0.878691 77:-0.879286 78:-0.879817 79:-0.879713 80:-0.879602 81:-0.879358 82:-0.879304 83:-0.87906 84:-0.877364 85:-0.875249 86:-0.872976 87:-0.870872 88:-0.868926 89:-0.866993 90:-0.865028 91:-0.86315 92:-0.861268 93:-0.859418 94:-0.857708 95:-0.856044 96:-0.854157 97:-0.85253 98:-0.850875 99:-0.84924 100:-0.848142 101:-0.847012 102:-0.845451 103:-0.843993 104:-0.844516 
2048 1:-0.900092 2:-0.828452 3:-0.875541 4:-0.875026 5:-0.702777 6:-0.728777 7:-0.752271 8:-0.742276 9:-0.736366 10:-0.735252 11:-0.734201 12:-0.764917 13:-0.793472 14:-0.806778 15:-0.818886 16:-0.829712 17:-0.821225 18:-0.816281 19:-0.80865 20:-0.803592 21:-0.809888 22:-0.820695 23:-0.830006 24:-0.836728 25:-0.839081 26:-0.839423 27:-0.842686 28:-0.846251 29:-0.849417 30:-0.852771 31:-0.856133 32:-0.8587 33:-0.861422 34:-0.863523 35:-0.865868 36:-0.867443 37:-0.86944 38:-0.871085 39:-0.872643 40:-0.873761 41:-0.874814 42:-0.874877 43:-0.875307 44:-0.875717 45:-0.876295 46:-0.876087 47:-0.876504 48:-0.876289 49:-0.876082 50:-0.875896 51:-0.875972 52:-0.876194 53:-0.875972 54:-0.875809 55:-0.875606 56:-0.875404 57:-0.875589 58:-0.875821 59:-0.87607 60:-0.876084 61:-0.876917 62:-0.877043 63:-0.876846 64:-0.876961 65:-0.878073 66:-0.878034 67:-0.877916 68:-0.878154 69:-0.877929 70:-0.877707 71:-0.877829 72:-0.877776 73:-0.877558 74:-0.877358 75:-0.877247 76:-0.877546 77:-0.877412 78:-0.877382 79:-0.877325 80:-0.877323 81:-0.877801 82:-0.878229 83:-0.878017 84:-0.875602 85:-0.873498 86:-0.871313 87:-0.869303 88:-0.867709 89:-0.865644 90:-0.863663 91:-0.861909 92:-0.859827 93:-0.857931 94:-0.856031 95:-0.854764 96:-0.853127 97:-0.851499 98:-0.849821 99:-0.848241 100:-0.847285 101:-0.84594 102:-0.844359 103:-0.842856 104:-0.843468 
878.2330958876777 1:-0.841352 2:-0.828452 3:-0.876361 4:-0.871741 5:-0.715164 6:-0.716588 7:-0.710622 8:-0.710195 9:-0.719282 10:-0.729029 11:-0.732398 12:-0.763995 13:-0.78854 14:-0.801884 15:-0.814954 16:-0.81787 17:-0.810208 18:-0.807322 19:-0.804888 20:-0.800141 21:-0.80643 22:-0.817841 23:-0.825877 24:-0.832619 25:-0.833413 26:-0.836132 27:-0.838892 28:-0.842779 29:-0.846399 30:-0.849293 31:-0.852859 32:-0.854913 33:-0.857643 34:-0.860133 35:-0.862485 36:-0.864416 37:-0.866397 38:-0.8683 39:-0.870165 40:-0.871573 41:-0.872278 42:-0.872586 43:-0.872773 44:-0.87316 45:-0.873153 46:-0.873736 47:-0.873427 48:-0.873204 49:-0.873245 50:-0.873296 51:-0.873844 52:-0.873797 53:-0.873694 54:-0.873396 55:-0.873172 56:-0.873172 57:-0.872899 58:-0.872879 59:-0.873247 60:-0.873249 61:-0.873043 62:-0.873034 63:-0.873041 64:-0.873705 65:-0.8741 66:-0.874392 67:-0.87419 68:-0.874158 69:-0.874118 70:-0.873902 71:-0.873686 72:-0.873645 73:-0.873436 74:-0.873429 75:-0.874092 76:-0.873891 77:-0.874196 78:-0.874844 79:-0.874683 80:-0.874636 81:-0.874545 82:-0.874493 83:-0.874326 84:-0.872794 85:-0.870645 86:-0.868505 87:-0.86633 88:-0.864283 89:-0.862459 90:-0.860478 91:-0.858604 92:-0.856749 93:-0.85503 94:-0.853127 95:-0.851467 96:-0.84975 97:-0.848125 98:-0.84633 99:-0.844792 100:-0.843843 101:-0.842454 102:-0.840968 103:-0.839468 104:-0.840079 
2048 1:-0.886985 2:-0.82636 3:-0.872686 4:-0.871583 5:-0.707059 6:-0.714575 7:-0.709111 8:-0.719228 9:-0.718154 10:-0.730216 11:-0.72969 12:-0.761821 13:-0.788202 14:-0.800252 15:-0.813603 16:-0.81622 17:-0.809491 18:-0.806667 19:-0.805651 20:-0.801104 21:-0.807845 22:-0.820085 23:-0.828698 24:-0.835286 25:-0.836025 26:-0.83639 27:-0.838933 28:-0.842013 29:-0.846101 30:-0.849808 31:-0.852284 32:-0.85516 33:-0.857471 34:-0.860533 35:-0.862754 36:-0.864303 37:-0.865925 38:-0.868645 39:-0.870158 40:-0.871234 41:-0.872248 42:-0.872241 43:-0.873448 44:-0.873518 45:-0.874054 46:-0.873807 47:-0.873487 48:-0.873513 49:-0.873502 50:-0.873287 51:-0.873336 52:-0.87305 53:-0.873667 54:-0.873361 55:-0.873354 56:-0.873121 57:-0.872839 58:-0.872998 59:-0.872771 60:-0.872774 61:-0.872972 62:-0.873165 63:-0.873343 64:-0.873339 65:-0.873477 66:-0.873306 67:-0.873296 68:-0.873092 69:-0.872885 70:-0.873125 71:-0.873381 72:-0.873366 73:-0.873482 74:-0.873598 75:-0.873974 76:-0.873831 77:-0.87449 78:-0.87499 79:-0.875413 80:-0.875912 81:-0.875709 82:-0.875489 83:-0.874866 84:-0.872778 85:-0.870663 86:-0.868389 87:-0.86621 88:-0.864236 89:-0.862274 90:-0.860423 91:-0.858544 92:-0.856684 93:-0.855009 94:-0.853102 95:-0.851437 96:-0.849618 97:-0.847989 98:-0.846191 99:-0.844881 100:-0.843928 101:-0.842534 102:-0.840951 103:-0.839582 104:-0.840143 
223.2472276766392 1:-0.899316 2:-0.792887 3:-0.873459 4:-0.883483 5:-0.743483 6:-0.747752 7:-0.771629 8:-0.761693 9:-0.753525 10:-0.749704 11:-0.749216 12:-0.779821 13:-0.804986 14:-0.817136 15:-0.829512 16:-0.832577 17:-0.824307 18:-0.819991 19:-0.817463 20:-0.812627 21:-0.819035 22:-0.830089 23:-0.83854 24:-0.844989 25:-0.846603 26:-0.84737 27:-0.848673 28:-0.852238 29:-0.857839 30:-0.861888 31:-0.866334 32:-0.868509 33:-0.87111 34:-0.873486 35:-0.875582 36:-0.877122 37:-0.878881 38:-0.880641 39:-0.88243 40:-0.884258 41:-0.885227 42:-0.885204 43:-0.885409 44:-0.88549 45:-0.885866 46:-0.885905 47:-0.886053 48:-0.886374 49:-0.8863 50:-0.886269 51:-0.886058 52:-0.885862 53:-0.886031 54:-0.886022 55:-0.885871 56:-0.885721 57:-0.885657 58:-0.885761 59:-0.885558 60:-0.885552 61:-0.885368 62:-0.885385 63:-0.885189 64:-0.885521 65:-0.885387 66:-0.885577 67:-0.88594 68:-0.886211 69:-0.886443 70:-0.886417 71:-0.886218 72:-0.885998 73:-0.886621 74:-0.887091 75:-0.887141 76:-0.887601 77:-0.887445 78:-0.887299 79:-0.887071 80:-0.887477 81:-0.887633 82:-0.887477 83:-0.886912 84:-0.884705 85:-0.882496 86:-0.880271 87:-0.878275 88:-0.876001 89:-0.873998 90:-0.872576 91:-0.870817 92:-0.86884 93:-0.866978 94:-0.865062 95:-0.863584 96:-0.861736 97:-0.860192 98:-0.858429 99:-0.857204 100:-0.856274 101:-0.854643 102:-0.853096 103:-0.851582 104:-0.852193 
397.6261237593441 1:-0.885917 2:-0.794979 3:-0.858895 4:-0.866611 5:-0.747673 6:-0.74402 7:-0.762272 8:-0.747387 9:-0.738541 10:-0.73654 11:-0.733032 12:-0.76406 13:-0.791623 14:-0.803871 15:-0.816366 16:-0.818257 17:-0.815128 18:-0.809902 19:-0.801949 20:-0.797418 21:-0.804808 22:-0.816079 23:-0.82446 24:-0.830376 25:-0.832422 26:-0.833239 27:-0.834357 28:-0.837373 29:-0.842469 30:-0.84526 31:-0.848101 32:-0.850088 33:-0.852362 34:-0.854422 35:-0.857796 36:-0.859309 37:-0.861244 38:-0.863168 39:-0.864666 40:-0.866935 41:-0.867589 42:-0.867545 43:-0.867902 44:-0.867959 45:-0.868362 46:-0.868324 47:-0.869253 48:-0.868977 49:-0.868711 50:-0.868468 51:-0.868247 52:-0.86794 53:-0.868718 54:-0.86862 55:-0.86896 56:-0.869129 57:-0.869642 58:-0.869587 59:-0.869754 60:-0.8703 61:-0.870892 62:-0.870609 63:-0.870658 64:-0.871666 65:-0.872058 66:-0.871859 67:-0.871959 68:-0.87168 69:-0.871402 70:-0.871303 71:-0.871029 72:-0.870968 73:-0.871351 74:-0.871098 75:-0.870919 76:-0.870734 77:-0.870494 78:-0.870268 79:-0.870081 80:-0.87013 81:-0.869863 82:-0.8697 83:-0.86946 84:-0.868035 85:-0.866205 86:-0.863918 87:-0.86178 88:-0.859502 89:-0.857427 90:-0.85554 91:-0.853653 92:-0.85202 93:-0.85021 94:-0.848659 95:-0.847591 96:-0.845927 97:-0.844447 98:-0.842716 99:-0.841079 100:-0.83983 101:-0.83842 102:-0.836914 103:-0.835393 104:-0.835935 
1089.85982476973 1:-0.897179 2:-0.735356 3:-0.855977 4:-0.88466 5:-0.777636 6:-0.756948 7:-0.767568 8:-0.766087 9:-0.757055 10:-0.753364 11:-0.75115 12:-0.781548 13:-0.807095 14:-0.819028 15:-0.831655 16:-0.834175 17:-0.83506 18:-0.82965 19:-0.822197 20:-0.817058 21:-0.82296 22:-0.834069 23:-0.842166 24:-0.848679 25:-0.849871 26:-0.850685 27:-0.852231 28:-0.856568 29:-0.86056 30:-0.863735 31:-0.866339 32:-0.868832 33:-0.872185 34:-0.874378 35:-0.876596 36:-0.878249 37:-0.880116 38:-0.881977 39:-0.883738 40:-0.885613 41:-0.887069 42:-0.887583 43:-0.887728 44:-0.887868 45:-0.887819 46:-0.887733 47:-0.887719 48:-0.888328 49:-0.889622 50:-0.889524 51:-0.889531 52:-0.889456 53:-0.889229 54:-0.889036 55:-0.888826 56:-0.889217 57:-0.889045 58:-0.888927 59:-0.88872 60:-0.889591 61:-0.889917 62:-0.889857 63:-0.889964 64:-0.890141 65:-0.890445 66:-0.891195 67:-0.891837 68:-0.891679 69:-0.891656 70:-0.891696 71:-0.891461 72:-0.891557 73:-0.891776 74:-0.892074 75:-0.891983 76:-0.891951 77:-0.891796 78:-0.891771 79:-0.891544 80:-0.891487 81:-0.891247 82:-0.890987 83:-0.890378 84:-0.8879 85:-0.885649 86:-0.883327 87:-0.881421 88:-0.87932 89:-0.877311 90:-0.875434 91:-0.873561 92:-0.871483 93:-0.869787 94:-0.867935 95:-0.866279 96:-0.864399 97:-0.862731 98:-0.86094 99:-0.859313 100:-0.857683 101:-0.856533 102:-0.855322 103:-0.853962 104:-0.854462 
99.21753946275105 1:-0.856789 2:-0.808577 3:-0.847516 4:-0.869574 5:-0.736737 6:-0.735747 7:-0.753037 8:-0.742117 9:-0.736106 10:-0.732313 11:-0.729743 12:-0.761424 13:-0.787005 14:-0.800146 15:-0.812964 16:-0.815331 17:-0.807575 18:-0.814696 19:-0.81043 20:-0.810065 21:-0.814899 22:-0.826909 23:-0.834708 24:-0.840263 25:-0.840501 26:-0.840435 27:-0.841344 28:-0.845123 29:-0.84803 30:-0.850705 31:-0.853147 32:-0.855043 33:-0.859208 34:-0.862471 35:-0.864987 36:-0.866351 37:-0.868154 38:-0.869611 39:-0.870992 40:-0.871942 41:-0.873052 42:-0.872927 43:-0.873211 44:-0.873194 45:-0.873468 46:-0.873146 47:-0.872755 48:-0.872714 49:-0.873156 50:-0.873369 51:-0.873457 52:-0.873331 53:-0.873597 54:-0.873249 55:-0.873529 56:-0.87322 57:-0.874304 58:-0.874305 59:-0.875188 60:-0.875515 61:-0.875603 62:-0.875844 63:-0.875999 64:-0.877006 65:-0.877464 66:-0.878073 67:-0.878031 68:-0.878413 69:-0.878635 70:-0.878376 71:-0.878432 72:-0.878158 73:-0.878016 74:-0.877964 75:-0.877656 76:-0.877667 77:-0.877414 78:-0.877125 79:-0.876971 80:-0.87681 81:-0.876488 82:-0.876312 83:-0.875647 84:-0.87317 85:-0.871004 86:-0.868708 87:-0.866617 88:-0.864577 89:-0.862685 90:-0.860786 91:-0.858861 92:-0.856856 93:-0.854911 94:-0.853165 95:-0.851459 96:-0.849534 97:-0.847963 98:-0.846247 99:-0.84501 100:-0.843375 101:-0.841724 102:-0.840113 103:-0.838717 104:-0.839645 
762.0937466202095 1:-0.872421 2:-0.776151 3:-0.836078 4:-0.852717 5:-0.719378 6:-0.718892 7:-0.73582 8:-0.723742 9:-0.717415 10:-0.715772 11:-0.713768 12:-0.745858 13:-0.769824 14:-0.782593 15:-0.795517 16:-0.801462 17:-0.802559 18:-0.797824 19:-0.78972 20:-0.785018 21:-0.7902 22:-0.801424 23:-0.811889 24:-0.818175 25:-0.819136 26:-0.819822 27:-0.821334 28:-0.824859 29:-0.828545 30:-0.831251 31:-0.83401 32:-0.836332 33:-0.838919 34:-0.840884 35:-0.843118 36:-0.844948 37:-0.847175 38:-0.8488 39:-0.850567 40:-0.851877 41:-0.855052 42:-0.854921 43:-0.855121 44:-0.855101 45:-0.855262 46:-0.854954 47:-0.854552 48:-0.85425 49:-0.854102 50:-0.853945 51:-0.854073 52:-0.85373 53:-0.854148 54:-0.855073 55:-0.855468 56:-0.85516 57:-0.855016 58:-0.85494 59:-0.855063 60:-0.854788 61:-0.854809 62:-0.854609 63:-0.854704 64:-0.854649 65:-0.855681 66:-0.855679 67:-0.85658 68:-0.85717 69:-0.857541 70:-0.857499 71:-0.85771 72:-0.857814 73:-0.858295 74:-0.858699 75:-0.858661 76:-0.858364 77:-0.858233 78:-0.858114 79:-0.858276 80:-0.858041 81:-0.857787 82:-0.857665 83:-0.856996 84:-0.854548 85:-0.852436 86:-0.850304 87:-0.848585 88:-0.846292 89:-0.844202 90:-0.842728 91:-0.841431 92:-0.839505 93:-0.837659 94:-0.835723 95:-0.834026 96:-0.832236 97:-0.830666 98:-0.829394 99:-0.828372 100:-0.826856 101:-0.825766 102:-0.82424 103:-0.822701 104:-0.823211 
1733.639302451619 1:-0.820768 2:-0.705021 3:-0.822849 4:-0.858811 5:-0.744419 6:-0.735375 7:-0.743331 8:-0.731792 9:-0.724085 10:-0.722209 11:-0.72063 12:-0.752067 13:-0.776493 14:-0.78894 15:-0.80365 16:-0.811084 17:-0.802362 18:-0.798701 19:-0.793307 20:-0.788563 21:-0.794654 22:-0.805374 23:-0.815445 24:-0.821494 25:-0.822663 26:-0.823054 27:-0.824318 28:-0.828578 29:-0.831624 30:-0.834865 31:-0.837922 32:-0.840553 33:-0.846433 34:-0.848948 35:-0.850884 36:-0.85243 37:-0.853906 38:-0.855531 39:-0.857702 40:-0.858916 41:-0.859675 42:-0.861108 43:-0.862346 44:-0.86318 45:-0.863665 46:-0.863912 47:-0.863967 48:-0.864391 49:-0.863997 50:-0.864025 51:-0.863775 52:-0.863346 53:-0.863067 54:-0.863093 55:-0.862799 56:-0.863182 57:-0.86303 58:-0.863606 59:-0.863584 60:-0.863572 61:-0.863633 62:-0.863608 63:-0.863529 64:-0.863602 65:-0.863576 66:-0.863812 67:-0.864141 68:-0.864707 69:-0.864872 70:-0.864663 71:-0.864664 72:-0.864643 73:-0.865028 74:-0.864879 75:-0.864642 76:-0.864488 77:-0.864294 78:-0.864314 79:-0.864538 80:-0.864502 81:-0.864313 82:-0.864491 83:-0.864413 84:-0.862492 85:-0.860979 86:-0.859204 87:-0.857697 88:-0.856041 89:-0.854307 90:-0.852287 91:-0.850376 92:-0.84836 93:-0.846477 94:-0.844641 95:-0.842948 96:-0.841036 97:-0.839334 98:-0.837557 99:-0.835898 100:-0.834237 101:-0.832695 102:-0.831148 103:-0.829605 104:-0.830217 
470.3776794206786 1:-0.886305 2:-0.777197 3:-0.835865 4:-0.858356 5:-0.750986 6:-0.73269 7:-0.740036 8:-0.728304 9:-0.720483 10:-0.719277 11:-0.718492 12:-0.749942 13:-0.788607 14:-0.801965 15:-0.812702 16:-0.815198 17:-0.805486 18:-0.799958 19:-0.796295 20:-0.79082 21:-0.798825 22:-0.809102 23:-0.817408 24:-0.823156 25:-0.824159 26:-0.825144 27:-0.826192 28:-0.831557 29:-0.834511 30:-0.837646 31:-0.839966 32:-0.843177 33:-0.846062 34:-0.847992 35:-0.852426 36:-0.853792 37:-0.855376 38:-0.856834 39:-0.858216 40:-0.859163 41:-0.859443 42:-0.860054 43:-0.861943 44:-0.862399 45:-0.862582 46:-0.862444 47:-0.862276 48:-0.862287 49:-0.861948 50:-0.861886 51:-0.861731 52:-0.861454 53:-0.861487 54:-0.861105 55:-0.861027 56:-0.861029 57:-0.860886 58:-0.86201 59:-0.86211 60:-0.862018 61:-0.861922 62:-0.861675 63:-0.861402 64:-0.861292 65:-0.861014 66:-0.860834 67:-0.860586 68:-0.862003 69:-0.862065 70:-0.862637 71:-0.863669 72:-0.864257 73:-0.864366 74:-0.864071 75:-0.86406 76:-0.863768 77:-0.863644 78:-0.863618 79:-0.863326 80:-0.863691 81:-0.863689 82:-0.863562 83:-0.862894 84:-0.860519 85:-0.858231 86:-0.856067 87:-0.853937 88:-0.851643 89:-0.849659 90:-0.84765 91:-0.846057 92:-0.844095 93:-0.842371 94:-0.840442 95:-0.838901 96:-0.837608 97:-0.836046 98:-0.834356 99:-0.83342 100:-0.832262 101:-0.830684 102:-0.829226 103:-0.82769 104:-0.828956 
455.5722838238367 1:-0.849896 2:-0.698745 3:-0.84283 4:-0.862527 5:-0.760137 6:-0.763908 7:-0.750196 8:-0.757078 9:-0.746161 10:-0.740569 11:-0.736965 12:-0.766088 13:-0.790136 14:-0.802236 15:-0.814192 16:-0.816208 17:-0.807808 18:-0.803078 19:-0.796429 20:-0.798216 21:-0.803536 22:-0.814332 23:-0.822403 24:-0.828833 25:-0.830293 26:-0.830561 27:-0.832159 28:-0.835415 29:-0.838587 30:-0.841837 31:-0.844351 32:-0.846607 33:-0.84928 34:-0.851417 35:-0.855149 36:-0.857285 37:-0.859187 38:-0.860677 39:-0.86248 40:-0.8637 41:-0.864111 42:-0.864376 43:-0.864623 44:-0.864745 45:-0.864993 46:-0.864911 47:-0.864843 48:-0.86486 49:-0.865649 50:-0.867154 51:-0.867079 52:-0.866783 53:-0.866723 54:-0.866778 55:-0.866994 56:-0.867349 57:-0.867719 58:-0.867972 59:-0.868126 60:-0.868126 61:-0.867884 62:-0.867716 63:-0.867873 64:-0.867733 65:-0.867719 66:-0.867793 67:-0.867723 68:-0.867429 69:-0.867207 70:-0.866987 71:-0.866897 72:-0.866614 73:-0.866403 74:-0.866147 75:-0.865964 76:-0.865835 77:-0.865896 78:-0.866021 79:-0.866236 80:-0.867446 81:-0.86759 82:-0.867869 83:-0.867429 84:-0.865754 85:-0.864051 86:-0.862552 87:-0.860689 88:-0.858471 89:-0.856401 90:-0.854414 91:-0.852534 92:-0.850449 93:-0.848498 94:-0.846743 95:-0.845081 96:-0.843293 97:-0.841618 98:-0.839964 99:-0.83833 100:-0.836784 101:-0.835175 102:-0.833695 103:-0.832158 104:-0.832769 
2048 1:-1 2:-0.996862 3:-0.99751 4:-1 5:-0.833194 6:-0.840315 7:-0.838222 8:-0.838615 9:-0.838907 10:-0.84014 11:-0.841484 12:-0.876737 13:-0.905091 14:-0.919924 15:-0.934511 16:-0.938708 17:-0.93109 18:-0.927236 19:-0.921151 20:-0.917162 21:-0.924381 22:-0.936877 23:-0.946365 24:-0.953908 25:-0.955643 26:-0.956592 27:-0.958727 28:-0.962791 29:-0.966887 30:-0.970674 31:-0.974018 32:-0.976884 33:-0.979956 34:-0.98282 35:-0.985507 36:-0.987679 37:-0.989946 38:-0.992197 39:-0.994324 40:-0.996013 41:-0.996877 42:-0.997307 43:-0.997833 44:-0.998332 45:-0.998694 46:-0.998829 47:-0.998956 48:-0.999079 49:-0.999196 50:-0.999308 51:-0.999415 52:-0.999461 53:-0.99951 54:-0.999494 55:-0.999526 56:-0.999565 57:-0.999603 58:-0.99964 59:-0.999675 60:-0.999709 61:-0.999742 62:-0.999773 63:-0.999804 64:-0.999833 65:-0.999862 66:-0.999889 67:-0.999916 68:-0.999928 69:-0.999925 70:-0.999921 71:-0.999918 72:-0.999915 73:-0.999911 74:-0.999907 75:-0.999912 76:-0.999918 77:-0.999923 78:-0.999928 79:-0.999915 80:-0.999902 81:-0.999889 82:-0.999877 83:-0.99942 84:-0.997046 85:-0.994844 86:-0.992626 87:-0.990492 88:-0.988276 89:-0.986253 90:-0.984332 91:-0.982506 92:-0.980476 93:-0.978625 94:-0.976765 95:-0.975164 96:-0.97332 97:-0.971749 98:-0.969987 99:-0.968402 100:-0.966856 101:-0.965294 102:-0.963768 103:-0.96232 104:-0.963035 
2048 1:-1 2:-0.997908 3:-0.998238 4:-1 5:-0.83315 6:-0.840272 7:-0.838178 8:-0.838572 9:-0.838864 10:-0.840096 11:-0.841441 12:-0.876693 13:-0.905047 14:-0.91988 15:-0.934466 16:-0.938663 17:-0.931045 18:-0.927192 19:-0.921106 20:-0.917118 21:-0.924337 22:-0.936832 23:-0.94632 24:-0.953863 25:-0.955598 26:-0.956547 27:-0.958682 28:-0.962746 29:-0.966842 30:-0.970628 31:-0.973973 32:-0.976839 33:-0.97991 34:-0.982774 35:-0.985462 36:-0.987634 37:-0.989901 38:-0.992152 39:-0.994278 40:-0.995968 41:-0.996831 42:-0.997261 43:-0.997787 44:-0.998286 45:-0.998648 46:-0.998783 47:-0.99891 48:-0.999033 49:-0.99915 50:-0.999262 51:-0.999369 52:-0.999415 53:-0.999464 54:-0.999448 55:-0.99948 56:-0.99952 57:-0.999557 58:-0.999594 59:-0.999627 60:-0.999657 61:-0.999687 62:-0.999715 63:-0.999743 64:-0.999769 65:-0.999795 66:-0.99982 67:-0.999844 68:-0.999853 69:-0.999847 70:-0.999841 71:-0.999836 72:-0.99983 73:-0.999825 74:-0.999822 75:-0.99983 76:-0.999837 77:-0.999844 78:-0.999851 79:-0.999839 80:-0.999828 81:-0.999817 82:-0.999806 83:-0.99935 84:-0.996978 85:-0.994777 86:-0.992561 87:-0.990428 88:-0.988214 89:-0.986192 90:-0.984272 91:-0.982447 92:-0.980419 93:-0.978569 94:-0.97671 95:-0.97511 96:-0.973267 97:-0.971697 98:-0.969937 99:-0.968352 100:-0.966807 101:-0.965247 102:-0.963722 103:-0.962275 104:-0.96299 
2048 1:-0.999709 2:-0.996862 3:-0.99749 4:-0.999874 5:-0.825601 6:-0.836697 7:-0.835818 8:-0.836852 9:-0.837528 10:-0.839025 11:-0.840555 12:-0.875931 13:-0.904386 14:-0.919301 15:-0.933957 16:-0.938214 17:-0.930647 18:-0.926838 19:-0.92079 20:-0.916835 21:-0.924082 22:-0.936602 23:-0.946113 24:-0.953675 25:-0.955429 26:-0.956395 27:-0.958546 28:-0.962625 29:-0.966734 30:-0.970533 31:-0.973888 32:-0.976764 33:-0.979846 34:-0.982719 35:-0.985415 36:-0.987595 37:-0.98987 38:-0.992128 39:-0.994261 40:-0.995957 41:-0.99681 42:-0.997231 43:-0.997746 44:-0.998236 45:-0.99859 46:-0.998716 47:-0.998836 48:-0.998951 49:-0.99906 50:-0.999165 51:-0.999266 52:-0.999306 53:-0.999348 54:-0.999327 55:-0.999353 56:-0.999387 57:-0.99942 58:-0.999451 59:-0.999482 60:-0.999511 61:-0.99954 62:-0.999567 63:-0.999593 64:-0.999619 65:-0.999643 66:-0.999667 67:-0.99969 68:-0.999699 69:-0.999692 70:-0.999685 71:-0.999679 72:-0.999672 73:-0.999666 74:-0.999663 75:-0.99967 76:-0.999676 77:-0.999682 78:-0.999689 79:-0.999677 80:-0.999665 81:-0.999653 82:-0.999641 83:-0.999185 84:-0.996813 85:-0.994611 86:-0.992395 87:-0.990261 88:-0.988047 89:-0.986025 90:-0.984109 91:-0.982291 92:-0.98027 93:-0.978426 94:-0.976574 95:-0.97498 96:-0.973142 97:-0.971578 98:-0.969823 99:-0.968245 100:-0.966705 101:-0.96515 102:-0.96363 103:-0.962188 104:-0.962908 
2048 1:-0.999806 2:-0.997908 3:-0.998772 4:-0.999832 5:-0.832502 6:-0.839797 7:-0.837748 8:-0.838168 9:-0.838476 10:-0.839721 11:-0.841075 12:-0.876327 13:-0.904682 14:-0.919516 15:-0.934103 16:-0.938303 17:-0.930688 18:-0.926837 19:-0.920753 20:-0.916767 21:-0.923986 22:-0.936481 23:-0.945969 24:-0.953511 25:-0.955247 26:-0.956196 27:-0.958332 28:-0.962397 29:-0.966493 30:-0.970279 31:-0.973624 32:-0.976489 33:-0.979561 34:-0.982425 35:-0.985112 36:-0.987285 37:-0.989552 38:-0.991803 39:-0.993929 40:-0.995619 41:-0.996482 42:-0.996913 43:-0.997439 44:-0.997938 45:-0.998301 46:-0.998435 47:-0.998563 48:-0.998686 49:-0.998803 50:-0.998915 51:-0.999023 52:-0.999069 53:-0.999118 54:-0.999102 55:-0.999134 56:-0.999174 57:-0.999212 58:-0.999249 59:-0.999284 60:-0.999318 61:-0.999351 62:-0.999383 63:-0.999414 64:-0.999443 65:-0.999472 66:-0.9995 67:-0.999526 68:-0.999539 69:-0.999535 70:-0.999532 71:-0.999529 72:-0.999526 73:-0.999523 74:-0.999522 75:-0.999532 76:-0.999541 77:-0.999551 78:-0.999559 79:-0.99955 80:-0.999541 81:-0.999531 82:-0.999522 83:-0.999068 84:-0.996698 85:-0.994499 86:-0.992285 87:-0.990154 88:-0.987942 89:-0.985922 90:-0.984003 91:-0.982181 92:-0.980154 93:-0.978306 94:-0.976449 95:-0.974853 96:-0.973016 97:-0.971453 98:-0.969699 99:-0.968121 100:-0.966581 101:-0.965027 102:-0.963508 103:-0.962066 104:-0.962787 
2048 1:-0.999709 2:-0.996862 3:-0.998082 4:-0.999763 5:-0.830166 6:-0.838596 7:-0.836887 8:-0.837489 9:-0.837906 10:-0.839228 11:-0.840635 12:-0.87592 13:-0.904301 14:-0.919158 15:-0.933764 16:-0.93798 17:-0.93038 18:-0.926543 19:-0.920469 20:-0.916494 21:-0.92372 22:-0.936221 23:-0.945714 24:-0.953261 25:-0.955002 26:-0.955957 27:-0.958097 28:-0.962166 29:-0.966265 30:-0.970055 31:-0.973402 32:-0.976271 33:-0.979346 34:-0.982212 35:-0.984901 36:-0.987076 37:-0.989345 38:-0.991598 39:-0.993726 40:-0.995417 41:-0.996296 42:-0.996748 43:-0.997293 44:-0.997812 45:-0.998193 46:-0.998345 47:-0.998489 48:-0.998628 49:-0.99876 50:-0.998887 51:-0.999008 52:-0.999067 53:-0.999129 54:-0.999126 55:-0.99917 56:-0.999221 57:-0.999269 58:-0.999316 59:-0.999362 60:-0.999406 61:-0.999448 62:-0.999489 63:-0.999528 64:-0.999564 65:-0.999588 66:-0.999612 67:-0.999634 68:-0.999643 69:-0.999636 70:-0.999629 71:-0.999622 72:-0.999616 73:-0.999609 74:-0.999606 75:-0.999612 76:-0.999619 77:-0.999625 78:-0.999631 79:-0.999619 80:-0.999607 81:-0.999594 82:-0.999583 83:-0.999126 84:-0.996754 85:-0.994552 86:-0.992336 87:-0.990202 88:-0.987988 89:-0.985966 90:-0.984045 91:-0.98222 92:-0.980192 93:-0.978342 94:-0.976482 95:-0.974882 96:-0.973039 97:-0.971468 98:-0.969708 99:-0.968123 100:-0.966577 101:-0.965017 102:-0.963491 103:-0.962044 104:-0.962759 
1891.633394499134 1:-0.999515 2:-0.998954 3:-0.999636 4:-0.999618 5:-0.822812 6:-0.834997 7:-0.83443 8:-0.835636 9:-0.836416 10:-0.837988 11:-0.839571 12:-0.87497 13:-0.903443 14:-0.918377 15:-0.933047 16:-0.93732 17:-0.929769 18:-0.925974 19:-0.919936 20:-0.915992 21:-0.923244 22:-0.935767 23:-0.945281 24:-0.952846 25:-0.954604 26:-0.955576 27:-0.957731 28:-0.961812 29:-0.965924 30:-0.969725 31:-0.973113 32:-0.97602 33:-0.97913 34:-0.98203 35:-0.984751 36:-0.986941 37:-0.989213 38:-0.991469 39:-0.993599 40:-0.995292 41:-0.99616 42:-0.996594 43:-0.997124 44:-0.997627 45:-0.997992 46:-0.99813 47:-0.998261 48:-0.998386 49:-0.998506 50:-0.998621 51:-0.998731 52:-0.99878 53:-0.998831 54:-0.998818 55:-0.998852 56:-0.998894 57:-0.998933 58:-0.998972 59:-0.999009 60:-0.999045 61:-0.99908 62:-0.999113 63:-0.999145 64:-0.999177 65:-0.999207 66:-0.999236 67:-0.999264 68:-0.999278 69:-0.999276 70:-0.999274 71:-0.999272 72:-0.99927 73:-0.999268 74:-0.999269 75:-0.999279 76:-0.99929 77:-0.9993 78:-0.99931 79:-0.999301 80:-0.999293 81:-0.999284 82:-0.999276 83:-0.998823 84:-0.996455 85:-0.994257 86:-0.992044 87:-0.989913 88:-0.987702 89:-0.985683 90:-0.983766 91:-0.981944 92:-0.979919 93:-0.978071 94:-0.976215 95:-0.974617 96:-0.972776 97:-0.971209 98:-0.969451 99:-0.967869 100:-0.966325 101:-0.964767 102:-0.963244 103:-0.961799 104:-0.962516 
1338.639004415686 1:-0.927666 2:-0.834728 3:-0.871827 4:-0.92269 5:-0.82207 6:-0.80301 7:-0.789007 8:-0.782682 9:-0.777213 10:-0.775027 11:-0.77853 12:-0.819933 13:-0.849948 14:-0.864715 15:-0.88132 16:-0.88644 17:-0.876393 18:-0.876752 19:-0.868981 20:-0.864359 21:-0.869803 22:-0.881498 23:-0.890434 24:-0.896199 25:-0.896908 26:-0.897201 27:-0.898291 28:-0.90134 29:-0.904312 30:-0.907401 31:-0.909927 32:-0.91187 33:-0.914248 34:-0.916434 35:-0.918346 36:-0.920333 37:-0.922243 38:-0.924622 39:-0.928356 40:-0.930706 41:-0.931242 42:-0.931125 43:-0.931421 44:-0.931481 45:-0.931436 46:-0.931184 47:-0.930998 48:-0.93076 49:-0.930651 50:-0.93166 51:-0.931582 52:-0.931388 53:-0.931065 54:-0.930659 55:-0.9305 56:-0.930177 57:-0.929921 58:-0.92962 59:-0.929323 60:-0.92945 61:-0.929172 62:-0.929097 63:-0.928839 64:-0.928851 65:-0.928784 66:-0.928684 67:-0.929331 68:-0.929597 69:-0.929503 70:-0.929295 71:-0.929032 72:-0.929114 73:-0.928859 74:-0.928864 75:-0.928796 76:-0.928655 77:-0.928429 78:-0.928635 79:-0.92864 80:-0.928494 81:-0.928248 82:-0.928472 83:-0.927839 84:-0.9255 85:-0.923698 86:-0.92136 87:-0.919168 88:-0.91684 89:-0.914872 90:-0.913194 91:-0.911309 92:-0.909268 93:-0.90771 94:-0.905794 95:-0.904079 96:-0.902232 97:-0.900554 98:-0.898791 99:-0.897105 100:-0.895508 101:-0.893849 102:-0.892588 103:-0.891469 104:-0.892151 
408.3059612385075 1:-0.927472 2:-0.802301 3:-0.875527 4:-0.91764 5:-0.813926 6:-0.806649 7:-0.788422 8:-0.778857 9:-0.774066 10:-0.773075 11:-0.772169 12:-0.819237 13:-0.844303 14:-0.8677 15:-0.892871 16:-0.893228 17:-0.882505 18:-0.876367 19:-0.867843 20:-0.861898 21:-0.867079 22:-0.877381 23:-0.885422 24:-0.891399 25:-0.891882 26:-0.891964 27:-0.893066 28:-0.89612 29:-0.899277 30:-0.902187 31:-0.904885 32:-0.906986 33:-0.909356 34:-0.911533 35:-0.913585 36:-0.916819 37:-0.920648 38:-0.922261 39:-0.923656 40:-0.924761 41:-0.925251 42:-0.925457 43:-0.925541 44:-0.925623 45:-0.925488 46:-0.925362 47:-0.925329 48:-0.925684 49:-0.92581 50:-0.92573 51:-0.925524 52:-0.925155 53:-0.925104 54:-0.92481 55:-0.924584 56:-0.924367 57:-0.924206 58:-0.924004 59:-0.923885 60:-0.923616 61:-0.923514 62:-0.923529 63:-0.923282 64:-0.923292 65:-0.923046 66:-0.922889 67:-0.922707 68:-0.922654 69:-0.922816 70:-0.922575 71:-0.922406 72:-0.922174 73:-0.922014 74:-0.921802 75:-0.921601 76:-0.92159 77:-0.921945 78:-0.922116 79:-0.922374 80:-0.922308 81:-0.922254 82:-0.922048 83:-0.921483 84:-0.91963 85:-0.917433 86:-0.915225 87:-0.913242 88:-0.911005 89:-0.908894 90:-0.907389 91:-0.906024 92:-0.903893 93:-0.902095 94:-0.900637 95:-0.898977 96:-0.897135 97:-0.895605 98:-0.893754 99:-0.892128 100:-0.890571 101:-0.888917 102:-0.887436 103:-0.886032 104:-0.886791 
123.3332723011908 1:-0.850187 2:-0.790795 3:-0.857102 4:-0.875141 5:-0.823817 6:-0.80717 7:-0.772862 8:-0.757427 9:-0.749122 10:-0.74524 11:-0.743222 12:-0.784085 13:-0.807327 14:-0.818277 15:-0.830304 16:-0.831938 17:-0.823181 18:-0.81844 19:-0.811243 20:-0.806894 21:-0.812798 22:-0.823887 23:-0.832451 24:-0.844113 25:-0.848822 26:-0.851042 27:-0.852629 28:-0.855524 29:-0.858736 30:-0.861255 31:-0.863667 32:-0.865835 33:-0.868259 34:-0.870099 35:-0.872211 36:-0.874222 37:-0.876022 38:-0.877565 39:-0.879889 40:-0.881081 41:-0.881402 42:-0.881345 43:-0.881576 44:-0.881968 45:-0.882182 46:-0.881912 47:-0.881789 48:-0.881529 49:-0.881579 50:-0.882025 51:-0.881698 52:-0.881484 53:-0.881585 54:-0.881354 55:-0.881195 56:-0.881379 57:-0.881579 58:-0.881335 59:-0.881171 60:-0.881734 61:-0.881734 62:-0.881493 63:-0.881354 64:-0.88122 65:-0.881111 66:-0.881011 67:-0.88092 68:-0.880668 69:-0.880521 70:-0.880379 71:-0.880271 72:-0.880223 73:-0.880149 74:-0.88009 75:-0.87997 76:-0.879782 77:-0.879787 78:-0.879553 79:-0.879419 80:-0.8794 81:-0.879128 82:-0.879074 83:-0.878438 84:-0.876229 85:-0.874016 86:-0.871896 87:-0.86997 88:-0.867743 89:-0.865979 90:-0.86476 91:-0.863316 92:-0.861611 93:-0.859763 94:-0.858092 95:-0.856496 96:-0.854676 97:-0.853065 98:-0.851514 99:-0.849941 100:-0.848316 101:-0.846813 102:-0.845301 103:-0.843866 104:-0.844717 
1654.670159989424 1:-0.871353 2:-0.825314 3:-0.8582 4:-0.873718 5:-0.816837 6:-0.803357 7:-0.771278 8:-0.756995 9:-0.748506 10:-0.744882 11:-0.741447 12:-0.772679 13:-0.805877 14:-0.816826 15:-0.828641 16:-0.831239 17:-0.821564 18:-0.816857 19:-0.809661 20:-0.805777 21:-0.811799 22:-0.822932 23:-0.830759 24:-0.837411 25:-0.847009 26:-0.848936 27:-0.850355 28:-0.853499 29:-0.856734 30:-0.859713 31:-0.862264 32:-0.86443 33:-0.866868 34:-0.868995 35:-0.870726 36:-0.872427 37:-0.874197 38:-0.875757 39:-0.878097 40:-0.878995 41:-0.879522 42:-0.879683 43:-0.879921 44:-0.88015 45:-0.880272 46:-0.880378 47:-0.879938 48:-0.879896 49:-0.879806 50:-0.87948 51:-0.879419 52:-0.879274 53:-0.879072 54:-0.879142 55:-0.879165 56:-0.879065 57:-0.878738 58:-0.878649 59:-0.878342 60:-0.878267 61:-0.878188 62:-0.878094 63:-0.877834 64:-0.877584 65:-0.877468 66:-0.878222 67:-0.877971 68:-0.877713 69:-0.877524 70:-0.87779 71:-0.877529 72:-0.877612 73:-0.877592 74:-0.877682 75:-0.87761 76:-0.877371 77:-0.877315 78:-0.877245 79:-0.877155 80:-0.876988 81:-0.876941 82:-0.877311 83:-0.87697 84:-0.874673 85:-0.872407 86:-0.870265 87:-0.868312 88:-0.86604 89:-0.864332 90:-0.862337 91:-0.860604 92:-0.858638 93:-0.856927 94:-0.85501 95:-0.853461 96:-0.851733 97:-0.850771 98:-0.849425 99:-0.848186 100:-0.846797 101:-0.845158 102:-0.843674 103:-0.842153 104:-0.843202 
1864.482411283607 1:-0.887276 2:-0.802301 3:-0.858356 4:-0.873308 5:-0.821644 6:-0.803081 7:-0.772337 8:-0.75769 9:-0.748982 10:-0.744834 11:-0.747005 12:-0.783309 13:-0.805939 14:-0.817735 15:-0.829026 16:-0.831185 17:-0.822171 18:-0.817224 19:-0.809536 20:-0.804789 21:-0.810706 22:-0.821802 23:-0.832593 24:-0.846407 25:-0.848598 26:-0.848656 27:-0.850368 28:-0.853208 29:-0.856344 30:-0.859056 31:-0.8614 32:-0.86365 33:-0.865862 34:-0.868749 35:-0.871054 36:-0.872793 37:-0.874215 38:-0.876013 39:-0.877607 40:-0.878507 41:-0.878849 42:-0.87869 43:-0.879222 44:-0.879169 45:-0.879676 46:-0.879314 47:-0.879409 48:-0.879058 49:-0.878721 50:-0.878897 51:-0.878598 52:-0.879112 53:-0.879002 54:-0.878605 55:-0.878961 56:-0.878723 57:-0.878353 58:-0.878263 59:-0.878477 60:-0.878186 61:-0.878216 62:-0.877926 63:-0.877856 64:-0.87778 65:-0.878074 66:-0.878001 67:-0.877974 68:-0.877709 69:-0.877617 70:-0.877528 71:-0.877429 72:-0.877173 73:-0.877085 74:-0.87701 75:-0.87678 76:-0.876707 77:-0.876637 78:-0.8766 79:-0.876952 80:-0.876882 81:-0.876619 82:-0.876515 83:-0.875889 84:-0.873609 85:-0.871493 86:-0.86938 87:-0.867198 88:-0.865411 89:-0.863953 90:-0.862011 91:-0.860754 92:-0.859117 93:-0.857513 94:-0.855711 95:-0.854273 96:-0.852363 97:-0.850867 98:-0.849165 99:-0.847666 100:-0.846323 101:-0.844847 102:-0.843359 103:-0.841836 104:-0.842777 
2048 1:-0.900675 2:-0.808577 3:-0.86173 4:-0.872599 5:-0.798014 6:-0.781405 7:-0.754618 8:-0.744274 9:-0.739029 10:-0.746686 11:-0.743544 12:-0.775551 13:-0.802494 14:-0.813673 15:-0.824864 16:-0.826577 17:-0.818938 18:-0.813558 19:-0.80735 20:-0.802158 21:-0.809535 22:-0.820792 23:-0.828677 24:-0.835477 25:-0.838036 26:-0.842027 27:-0.843828 28:-0.8472 29:-0.850187 30:-0.853699 31:-0.856048 32:-0.858806 33:-0.861007 34:-0.863385 35:-0.865262 36:-0.867212 37:-0.868759 38:-0.870996 39:-0.872454 40:-0.873478 41:-0.874281 42:-0.87423 43:-0.874524 44:-0.874834 45:-0.874813 46:-0.875105 47:-0.874763 48:-0.874507 49:-0.874963 50:-0.874974 51:-0.874749 52:-0.875049 53:-0.875052 54:-0.874724 55:-0.874698 56:-0.874445 57:-0.874709 58:-0.874692 59:-0.87465 60:-0.874699 61:-0.874466 62:-0.874423 63:-0.874547 64:-0.874529 65:-0.874303 66:-0.874347 67:-0.874326 68:-0.874212 69:-0.873993 70:-0.873951 71:-0.873903 72:-0.873688 73:-0.874061 74:-0.874025 75:-0.873996 76:-0.874155 77:-0.874018 78:-0.873831 79:-0.874037 80:-0.87388 81:-0.873798 82:-0.873607 83:-0.873158 84:-0.870994 85:-0.86881 86:-0.866729 87:-0.864682 88:-0.862443 89:-0.860538 90:-0.85858 91:-0.856729 92:-0.854671 93:-0.853339 94:-0.851625 95:-0.85008 96:-0.848358 97:-0.847556 98:-0.845814 99:-0.844609 100:-0.844327 101:-0.84383 102:-0.842373 103:-0.841035 104:-0.841849 
812.5123574799247 1:-0.912908 2:-0.833682 3:-0.857716 4:-0.871444 5:-0.819146 6:-0.806488 7:-0.773436 8:-0.75804 9:-0.747135 10:-0.743716 11:-0.741387 12:-0.779913 13:-0.80503 14:-0.815825 15:-0.826697 16:-0.829081 17:-0.819396 18:-0.815486 19:-0.807486 20:-0.803328 21:-0.808686 22:-0.819278 23:-0.827662 24:-0.837687 25:-0.844399 26:-0.845906 27:-0.847185 28:-0.850429 29:-0.853622 30:-0.856625 31:-0.859475 32:-0.861397 33:-0.86346 34:-0.86571 35:-0.867837 36:-0.869553 37:-0.870987 38:-0.872439 39:-0.873815 40:-0.874761 41:-0.876127 42:-0.875988 43:-0.876663 44:-0.876625 45:-0.876495 46:-0.87732 47:-0.876893 48:-0.876555 49:-0.876414 50:-0.876417 51:-0.876129 52:-0.876242 53:-0.876151 54:-0.875772 55:-0.875695 56:-0.875785 57:-0.87565 58:-0.875864 59:-0.875565 60:-0.875884 61:-0.875604 62:-0.875523 63:-0.875462 64:-0.875281 65:-0.875207 66:-0.875149 67:-0.875092 68:-0.875315 69:-0.875492 70:-0.875405 71:-0.875144 72:-0.875227 73:-0.874995 74:-0.87476 75:-0.874787 76:-0.874714 77:-0.874487 78:-0.874584 79:-0.874344 80:-0.874165 81:-0.87391 82:-0.873994 83:-0.874266 84:-0.87184 85:-0.869583 86:-0.86731 87:-0.865132 88:-0.863141 89:-0.861076 90:-0.859441 91:-0.857949 92:-0.856375 93:-0.854566 94:-0.852652 95:-0.851105 96:-0.849334 97:-0.848351 98:-0.846811 99:-0.845692 100:-0.844375 101:-0.842967 102:-0.841414 103:-0.839894 104:-0.84092 
610.4756978324147 1:-0.896597 2:-0.805439 3:-0.845628 4:-0.852657 5:-0.799847 6:-0.74969 7:-0.727592 8:-0.733125 9:-0.743771 10:-0.737368 11:-0.731664 12:-0.760981 13:-0.784714 14:-0.795002 15:-0.807924 16:-0.810112 17:-0.801305 18:-0.796942 19:-0.788846 20:-0.783532 21:-0.78949 22:-0.801208 23:-0.80893 24:-0.815613 25:-0.817458 26:-0.817454 27:-0.818595 28:-0.821617 29:-0.824736 30:-0.829284 31:-0.832046 32:-0.835012 33:-0.837423 34:-0.839837 35:-0.84578 36:-0.849475 37:-0.851584 38:-0.853526 39:-0.855259 40:-0.856138 41:-0.856356 42:-0.857115 43:-0.857576 44:-0.857796 45:-0.857915 46:-0.857545 47:-0.857365 48:-0.857746 49:-0.858282 50:-0.857935 51:-0.858103 52:-0.8578 53:-0.857909 54:-0.857493 55:-0.857157 56:-0.857484 57:-0.857089 58:-0.857021 59:-0.856906 60:-0.856607 61:-0.857113 62:-0.856805 63:-0.856754 64:-0.856481 65:-0.85668 66:-0.856412 67:-0.856332 68:-0.856304 69:-0.856206 70:-0.856107 71:-0.856155 72:-0.855976 73:-0.855708 74:-0.855791 75:-0.855548 76:-0.856218 77:-0.856151 78:-0.855912 79:-0.857059 80:-0.857024 81:-0.856725 82:-0.856476 83:-0.856163 84:-0.85379 85:-0.851528 86:-0.84925 87:-0.847344 88:-0.845074 89:-0.843006 90:-0.841512 91:-0.839834 92:-0.837742 93:-0.835835 94:-0.834178 95:-0.83263 96:-0.831084 97:-0.829834 98:-0.828536 99:-0.827318 100:-0.825908 101:-0.824273 102:-0.822904 103:-0.821718 104:-0.822563 
20.68380199331406 1:-0.910675 2:-0.812762 3:-0.875502 4:-0.910409 5:-0.740898 6:-0.793613 7:-0.777169 8:-0.770801 9:-0.766184 10:-0.78397 11:-0.789466 12:-0.818391 13:-0.853422 14:-0.864691 15:-0.875449 16:-0.87811 17:-0.872013 18:-0.866373 19:-0.858019 20:-0.851977 21:-0.857527 22:-0.868356 23:-0.876261 24:-0.882293 25:-0.88285 26:-0.883022 27:-0.884384 28:-0.887291 29:-0.890493 30:-0.893619 31:-0.897732 32:-0.900195 33:-0.902379 34:-0.904531 35:-0.906706 36:-0.908303 37:-0.910129 38:-0.911821 39:-0.913553 40:-0.91472 41:-0.91516 42:-0.915737 43:-0.916157 44:-0.917662 45:-0.91804 46:-0.91792 47:-0.917643 48:-0.917425 49:-0.917612 50:-0.917411 51:-0.917225 52:-0.916966 53:-0.917201 54:-0.916825 55:-0.916836 56:-0.916741 57:-0.916498 58:-0.91631 59:-0.917101 60:-0.917913 61:-0.918075 62:-0.917857 63:-0.917734 64:-0.91754 65:-0.917556 66:-0.917368 67:-0.917398 68:-0.917235 69:-0.917409 70:-0.917206 71:-0.917005 72:-0.916877 73:-0.916619 74:-0.916607 75:-0.916462 76:-0.916514 77:-0.916373 78:-0.916152 79:-0.915973 80:-0.915775 81:-0.915588 82:-0.915373 83:-0.914857 84:-0.912502 85:-0.910261 86:-0.90795 87:-0.905786 88:-0.903647 89:-0.901649 90:-0.899688 91:-0.897829 92:-0.895817 93:-0.893936 94:-0.89205 95:-0.890411 96:-0.888593 97:-0.886988 98:-0.885327 99:-0.884005 100:-0.882663 101:-0.881286 102:-0.880263 103:-0.878863 104:-0.879441 
382.2122681316504 1:-0.937958 2:-0.857741 3:-0.888896 4:-0.909529 5:-0.753574 6:-0.786421 7:-0.775564 8:-0.770613 9:-0.765145 10:-0.773483 11:-0.787019 12:-0.817829 13:-0.846203 14:-0.866803 15:-0.877779 16:-0.878391 17:-0.867928 18:-0.86298 19:-0.854548 20:-0.849429 21:-0.85469 22:-0.865734 23:-0.873481 24:-0.879982 25:-0.880748 26:-0.880871 27:-0.883773 28:-0.886702 29:-0.889743 30:-0.892985 31:-0.895397 32:-0.897395 33:-0.900066 34:-0.90252 35:-0.904512 36:-0.906031 37:-0.908949 38:-0.910722 39:-0.912351 40:-0.913421 41:-0.914082 42:-0.914034 43:-0.9141 44:-0.91455 45:-0.914501 46:-0.914521 47:-0.91478 48:-0.914522 49:-0.91453 50:-0.914296 51:-0.914078 52:-0.914268 53:-0.914006 54:-0.914058 55:-0.916413 56:-0.91612 57:-0.915802 58:-0.915744 59:-0.915472 60:-0.915631 61:-0.915376 62:-0.915292 63:-0.915057 64:-0.915023 65:-0.914976 66:-0.915332 67:-0.91517 68:-0.915008 69:-0.914771 70:-0.914712 71:-0.914651 72:-0.914591 73:-0.914365 74:-0.914239 75:-0.9142 76:-0.914156 77:-0.913957 78:-0.914002 79:-0.91379 80:-0.913772 81:-0.9137 82:-0.913508 83:-0.9129 84:-0.91046 85:-0.908331 86:-0.906224 87:-0.904027 88:-0.901964 89:-0.899881 90:-0.897888 91:-0.89613 92:-0.894035 93:-0.892124 94:-0.890462 95:-0.888916 96:-0.887246 97:-0.885843 98:-0.884711 99:-0.883261 100:-0.881736 101:-0.880104 102:-0.878625 103:-0.877131 104:-0.877725 
1315.967293149181 1:-0.905529 2:-0.875523 3:-0.89227 4:-0.908254 5:-0.739751 6:-0.789906 7:-0.773197 8:-0.768629 9:-0.783488 10:-0.779871 11:-0.779852 12:-0.809974 13:-0.835295 14:-0.853483 15:-0.865727 16:-0.867246 17:-0.858305 18:-0.85272 19:-0.845916 20:-0.847096 21:-0.853228 22:-0.864194 23:-0.871959 24:-0.877906 25:-0.879045 26:-0.879134 27:-0.88022 28:-0.883247 29:-0.886835 30:-0.889703 31:-0.892616 32:-0.895081 33:-0.897396 34:-0.899516 35:-0.902258 36:-0.903812 37:-0.905615 38:-0.907606 39:-0.90916 40:-0.910284 41:-0.910999 42:-0.911035 43:-0.911793 44:-0.912134 45:-0.912158 46:-0.911933 47:-0.911927 48:-0.914068 49:-0.914715 50:-0.914703 51:-0.914452 52:-0.914611 53:-0.91432 54:-0.914209 55:-0.91416 56:-0.91389 57:-0.913591 58:-0.913555 59:-0.913302 60:-0.913275 61:-0.913042 62:-0.912956 63:-0.912937 64:-0.91292 65:-0.912702 66:-0.912685 67:-0.912486 68:-0.912913 69:-0.912938 70:-0.913011 71:-0.912788 72:-0.913539 73:-0.913312 74:-0.913102 75:-0.912902 76:-0.912701 77:-0.912506 78:-0.912322 79:-0.912118 80:-0.911956 81:-0.912014 82:-0.912028 83:-0.911425 84:-0.908991 85:-0.907011 86:-0.904868 87:-0.902676 88:-0.900515 89:-0.898438 90:-0.896716 91:-0.89496 92:-0.892981 93:-0.891071 94:-0.889283 95:-0.887614 96:-0.885842 97:-0.884494 98:-0.883065 99:-0.881779 100:-0.880259 101:-0.878632 102:-0.877044 103:-0.875669 104:-0.876222 
2000.513404253013 1:-0.914268 2:-0.850418 3:-0.890808 4:-0.907944 5:-0.739352 6:-0.791993 7:-0.775558 8:-0.768116 9:-0.783021 10:-0.779787 11:-0.777902 12:-0.81002 13:-0.838802 14:-0.850795 15:-0.871602 16:-0.87637 17:-0.866141 18:-0.860582 19:-0.852507 20:-0.847983 21:-0.854012 22:-0.86498 23:-0.872685 24:-0.879018 25:-0.879654 26:-0.879891 27:-0.880926 28:-0.884096 29:-0.887531 30:-0.890532 31:-0.892976 32:-0.895482 33:-0.897927 34:-0.900399 35:-0.902568 36:-0.904385 37:-0.906002 38:-0.9079 39:-0.909695 40:-0.911031 41:-0.911419 42:-0.912066 43:-0.912143 44:-0.912598 45:-0.912672 46:-0.912424 47:-0.912449 48:-0.912209 49:-0.912182 50:-0.912746 51:-0.912626 52:-0.912525 53:-0.912268 54:-0.912143 55:-0.914578 56:-0.914601 57:-0.914491 58:-0.91443 59:-0.914351 60:-0.914414 61:-0.914154 62:-0.914133 63:-0.914271 64:-0.914109 65:-0.914053 66:-0.913993 67:-0.913766 68:-0.913741 69:-0.9135 70:-0.913467 71:-0.913231 72:-0.913198 73:-0.91297 74:-0.912954 75:-0.91275 76:-0.912705 77:-0.912594 78:-0.912868 79:-0.912666 80:-0.912491 81:-0.912326 82:-0.912132 83:-0.911523 84:-0.909139 85:-0.906869 86:-0.904639 87:-0.902444 88:-0.900304 89:-0.898455 90:-0.896462 91:-0.894705 92:-0.892632 93:-0.890722 94:-0.888933 95:-0.887335 96:-0.885439 97:-0.88442 98:-0.882888 99:-0.881562 100:-0.88004 101:-0.878504 102:-0.876913 103:-0.8754 104:-0.875996 
514.831352362796 1:-0.849119 2:-0.766736 3:-0.821092 4:-0.839718 5:-0.714014 6:-0.715542 7:-0.75969 8:-0.744252 9:-0.735733 10:-0.738356 11:-0.736496 12:-0.763491 13:-0.787298 14:-0.796704 15:-0.807309 16:-0.814244 17:-0.810885 18:-0.806896 19:-0.798517 20:-0.793764 21:-0.800434 22:-0.810298 23:-0.81703 24:-0.82236 25:-0.822208 26:-0.821721 27:-0.822612 28:-0.825229 29:-0.828404 30:-0.831022 31:-0.833002 32:-0.83476 33:-0.836822 34:-0.838982 35:-0.842294 36:-0.846754 37:-0.849342 38:-0.851733 39:-0.853005 40:-0.853831 41:-0.855133 42:-0.855109 43:-0.85495 44:-0.854801 45:-0.854681 46:-0.854414 47:-0.854053 48:-0.853636 49:-0.853342 50:-0.853477 51:-0.853393 52:-0.852954 53:-0.852667 54:-0.852148 55:-0.852063 56:-0.851631 57:-0.851407 58:-0.851216 59:-0.851005 60:-0.850627 61:-0.850495 62:-0.850279 63:-0.850208 64:-0.849909 65:-0.849974 66:-0.849673 67:-0.849355 68:-0.849169 69:-0.848845 70:-0.848665 71:-0.848347 72:-0.848104 73:-0.848033 74:-0.847969 75:-0.847818 76:-0.84763 77:-0.847569 78:-0.847367 79:-0.847379 80:-0.847222 81:-0.846972 82:-0.846805 83:-0.84618 84:-0.843901 85:-0.841669 86:-0.839396 87:-0.837433 88:-0.835223 89:-0.833348 90:-0.831439 91:-0.829638 92:-0.827632 93:-0.825861 94:-0.823981 95:-0.822392 96:-0.820577 97:-0.819117 98:-0.817304 99:-0.815893 100:-0.814371 101:-0.813244 102:-0.811885 103:-0.810429 104:-0.810915 
20.69703491626711 1:-0.807563 2:-0.723849 3:-0.822835 4:-0.837107 5:-0.711525 6:-0.717271 7:-0.703631 8:-0.738979 9:-0.751944 10:-0.748641 11:-0.740918 12:-0.76734 13:-0.788272 14:-0.802553 15:-0.813347 16:-0.812972 17:-0.802724 18:-0.796121 19:-0.787527 20:-0.78234 21:-0.787216 22:-0.796833 23:-0.805042 24:-0.814788 25:-0.816192 26:-0.816666 27:-0.818243 28:-0.82093 29:-0.82374 30:-0.826587 31:-0.828871 32:-0.830842 33:-0.833104 34:-0.834842 35:-0.836785 36:-0.838348 37:-0.839832 38:-0.84133 39:-0.843134 40:-0.844229 41:-0.844539 42:-0.844477 43:-0.844642 44:-0.847268 45:-0.85027 46:-0.850104 47:-0.850781 48:-0.851103 49:-0.850604 50:-0.850241 51:-0.850099 52:-0.849674 53:-0.849308 54:-0.849074 55:-0.84891 56:-0.849006 57:-0.84861 58:-0.84821 59:-0.847976 60:-0.847769 61:-0.847603 62:-0.84743 63:-0.847168 64:-0.846917 65:-0.846725 66:-0.846555 67:-0.846535 68:-0.846536 69:-0.84638 70:-0.84606 71:-0.845811 72:-0.845567 73:-0.845328 74:-0.845046 75:-0.844901 76:-0.844684 77:-0.844476 78:-0.844219 79:-0.844242 80:-0.8441 81:-0.844083 82:-0.843831 83:-0.8433 84:-0.840998 85:-0.838805 86:-0.836702 87:-0.834801 88:-0.832595 89:-0.830643 90:-0.828715 91:-0.826894 92:-0.824917 93:-0.823372 94:-0.82152 95:-0.819906 96:-0.81836 97:-0.816921 98:-0.815124 99:-0.813629 100:-0.812034 101:-0.810584 102:-0.809119 103:-0.807621 104:-0.808154 
162.9747379172069 1:-0.880091 2:-0.810669 3:-0.826016 4:-0.835569 5:-0.709723 6:-0.709449 7:-0.75706 8:-0.746355 9:-0.754289 10:-0.742697 11:-0.738425 12:-0.769469 13:-0.789781 14:-0.799327 15:-0.809874 16:-0.809495 17:-0.799273 18:-0.797553 19:-0.788441 20:-0.786484 21:-0.790525 22:-0.801156 23:-0.808494 24:-0.814241 25:-0.814408 26:-0.814209 27:-0.814676 28:-0.818017 29:-0.821438 30:-0.823705 31:-0.826336 32:-0.828269 33:-0.830333 34:-0.832345 35:-0.833882 36:-0.836142 37:-0.837472 38:-0.839067 39:-0.840578 40:-0.842535 41:-0.842606 42:-0.844747 43:-0.845109 44:-0.846304 45:-0.8475 46:-0.847202 47:-0.846817 48:-0.846534 49:-0.846928 50:-0.846667 51:-0.846554 52:-0.847091 53:-0.8468 54:-0.846228 55:-0.845971 56:-0.845936 57:-0.845833 58:-0.845801 59:-0.845516 60:-0.845085 61:-0.845065 62:-0.844784 63:-0.844585 64:-0.844579 65:-0.844549 66:-0.844172 67:-0.844353 68:-0.843974 69:-0.843777 70:-0.843613 71:-0.843415 72:-0.843222 73:-0.843032 74:-0.842699 75:-0.8427 76:-0.842559 77:-0.842393 78:-0.842396 79:-0.842198 80:-0.842091 81:-0.842035 82:-0.84188 83:-0.841185 84:-0.839011 85:-0.836961 86:-0.834647 87:-0.83257 88:-0.830907 89:-0.828936 90:-0.826909 91:-0.825122 92:-0.82319 93:-0.821379 94:-0.819612 95:-0.818128 96:-0.81633 97:-0.814783 98:-0.813434 99:-0.811803 100:-0.810286 101:-0.808633 102:-0.807251 103:-0.805829 104:-0.806395 
91.14808193981256 1:-0.832225 2:-0.740586 3:-0.825039 4:-0.834859 5:-0.703327 6:-0.710802 7:-0.753598 8:-0.744234 9:-0.740586 10:-0.746807 11:-0.746606 12:-0.772157 13:-0.792363 14:-0.801332 15:-0.820952 16:-0.821239 17:-0.810514 18:-0.803497 19:-0.794571 20:-0.788235 21:-0.792655 22:-0.802124 23:-0.809247 24:-0.815037 25:-0.815342 26:-0.815319 27:-0.816512 28:-0.819556 29:-0.822332 30:-0.824708 31:-0.826906 32:-0.829022 33:-0.831418 34:-0.83344 35:-0.83521 36:-0.837076 37:-0.838887 38:-0.84518 39:-0.846355 40:-0.847816 41:-0.848537 42:-0.849136 43:-0.8505 44:-0.850319 45:-0.850186 46:-0.849748 47:-0.849335 48:-0.848818 49:-0.849081 50:-0.848939 51:-0.848584 52:-0.848239 53:-0.847858 54:-0.847609 55:-0.847521 56:-0.847172 57:-0.846769 58:-0.846526 59:-0.846764 60:-0.846617 61:-0.846392 62:-0.846085 63:-0.845886 64:-0.84562 65:-0.845917 66:-0.845725 67:-0.845466 68:-0.845199 69:-0.845 70:-0.845005 71:-0.844671 72:-0.844546 73:-0.84429 74:-0.844122 75:-0.844084 76:-0.843912 77:-0.843621 78:-0.84347 79:-0.843233 80:-0.843126 81:-0.842926 82:-0.842832 83:-0.842171 84:-0.839744 85:-0.837541 86:-0.835349 87:-0.833141 88:-0.830984 89:-0.829028 90:-0.827122 91:-0.825348 92:-0.823339 93:-0.821517 94:-0.819589 95:-0.818073 96:-0.816266 97:-0.814658 98:-0.813005 99:-0.811323 100:-0.809779 101:-0.808261 102:-0.806645 103:-0.805243 104:-0.805733 
1426.873256178799 1:-0.877858 2:-0.808577 3:-0.825783 4:-0.830499 5:-0.708989 6:-0.7043 7:-0.724136 8:-0.710329 9:-0.702642 10:-0.69868 11:-0.69731 12:-0.748845 13:-0.779855 14:-0.789354 15:-0.799571 16:-0.805321 17:-0.794902 18:-0.789002 19:-0.787215 20:-0.781229 21:-0.78846 22:-0.797648 23:-0.80548 24:-0.810319 25:-0.810942 26:-0.812407 27:-0.814208 28:-0.818781 29:-0.822435 30:-0.824461 31:-0.826166 32:-0.827916 33:-0.831157 34:-0.832966 35:-0.834954 36:-0.835937 37:-0.837683 38:-0.838777 39:-0.840801 40:-0.842716 41:-0.843017 42:-0.842579 43:-0.844023 44:-0.843686 45:-0.843559 46:-0.843504 47:-0.84281 48:-0.842498 49:-0.842307 50:-0.842032 51:-0.841679 52:-0.841339 53:-0.841165 54:-0.840929 55:-0.840447 56:-0.840417 57:-0.840316 58:-0.840167 59:-0.839709 60:-0.839493 61:-0.839345 62:-0.839083 63:-0.839086 64:-0.8389 65:-0.838743 66:-0.838375 67:-0.838382 68:-0.838194 69:-0.838181 70:-0.837996 71:-0.838318 72:-0.838089 73:-0.837896 74:-0.837818 75:-0.837812 76:-0.837619 77:-0.837448 78:-0.837136 79:-0.837108 80:-0.836999 81:-0.836855 82:-0.836552 83:-0.836255 84:-0.83394 85:-0.83179 86:-0.829621 87:-0.827408 88:-0.825339 89:-0.823512 90:-0.821624 91:-0.819935 92:-0.817945 93:-0.816083 94:-0.814274 95:-0.812824 96:-0.81115 97:-0.809872 98:-0.80804 99:-0.806486 100:-0.804975 101:-0.803685 102:-0.802163 103:-0.800631 104:-0.801255 
17.9803481949749 1:-0.876208 2:-0.789749 3:-0.824302 4:-0.825732 5:-0.695542 6:-0.704752 7:-0.71647 8:-0.734875 9:-0.740533 10:-0.74247 11:-0.734518 12:-0.760012 13:-0.779434 14:-0.789355 15:-0.798251 16:-0.807187 17:-0.795843 18:-0.789889 19:-0.781097 20:-0.775903 21:-0.780551 22:-0.790494 23:-0.79781 24:-0.802757 25:-0.804173 26:-0.80398 27:-0.804593 28:-0.807447 29:-0.81041 30:-0.813133 31:-0.815483 32:-0.817618 33:-0.819451 34:-0.821925 35:-0.823453 36:-0.824994 37:-0.826774 38:-0.828031 39:-0.83021 40:-0.831468 41:-0.835587 42:-0.83746 43:-0.837503 44:-0.837541 45:-0.837441 46:-0.837138 47:-0.836472 48:-0.836323 49:-0.836037 50:-0.83605 51:-0.836129 52:-0.836351 53:-0.835962 54:-0.835737 55:-0.835516 56:-0.835705 57:-0.83538 58:-0.835138 59:-0.834845 60:-0.835052 61:-0.834935 62:-0.834703 63:-0.834501 64:-0.834706 65:-0.835109 66:-0.835275 67:-0.835069 68:-0.834854 69:-0.834538 70:-0.8345 71:-0.834505 72:-0.834291 73:-0.834081 74:-0.834411 75:-0.83422 76:-0.833863 77:-0.833856 78:-0.833524 79:-0.833171 80:-0.833352 81:-0.833124 82:-0.833101 83:-0.832388 84:-0.830063 85:-0.827866 86:-0.825764 87:-0.82368 88:-0.821372 89:-0.819505 90:-0.817742 91:-0.815822 92:-0.813868 93:-0.811996 94:-0.810156 95:-0.808451 96:-0.806631 97:-0.804965 98:-0.803257 99:-0.801706 100:-0.800197 101:-0.798791 102:-0.79723 103:-0.795815 104:-0.796499 
-1083.282276039856 1:-0.902714 2:-0.809623 3:-0.880855 4:-0.899677 5:-0.79467 6:-0.787627 7:-0.768196 8:-0.759293 9:-0.755782 10:-0.753584 11:-0.754538 12:-0.78694 13:-0.813301 14:-0.826325 15:-0.839037 16:-0.846307 17:-0.843612 18:-0.838764 19:-0.831233 20:-0.826831 21:-0.833313 22:-0.844671 23:-0.852929 24:-0.859739 25:-0.86562 26:-0.865896 27:-0.867139 28:-0.8703 29:-0.874277 30:-0.877247 31:-0.880502 32:-0.882636 33:-0.885354 34:-0.887693 35:-0.8899 36:-0.892253 37:-0.894061 38:-0.896418 39:-0.898262 40:-0.899792 41:-0.900464 42:-0.900614 43:-0.900749 44:-0.901775 45:-0.902653 46:-0.902427 47:-0.902358 48:-0.902347 49:-0.902234 50:-0.902233 51:-0.902143 52:-0.901973 53:-0.902119 54:-0.902283 55:-0.902373 56:-0.902604 57:-0.902421 58:-0.902535 59:-0.902392 60:-0.902347 61:-0.902219 62:-0.902209 63:-0.902359 64:-0.902168 65:-0.902193 66:-0.90208 67:-0.902153 68:-0.90213 69:-0.901998 70:-0.901798 71:-0.9018 72:-0.90211 73:-0.90212 74:-0.901999 75:-0.901821 76:-0.901766 77:-0.901777 78:-0.901713 79:-0.90154 80:-0.901456 81:-0.901371 82:-0.901317 83:-0.900847 84:-0.898553 85:-0.896425 86:-0.894278 87:-0.892111 88:-0.89005 89:-0.888436 90:-0.886596 91:-0.884727 92:-0.88333 93:-0.882422 94:-0.881267 95:-0.880427 96:-0.878612 97:-0.877009 98:-0.875183 99:-0.873619 100:-0.872142 101:-0.870554 102:-0.869004 103:-0.867577 104:-0.868203 
-2048 1:-0.99932 2:-0.996862 3:-0.998563 4:-0.99962 5:-0.831326 6:-0.83911 7:-0.837203 8:-0.837701 9:-0.838055 10:-0.839335 11:-0.840712 12:-0.875975 13:-0.904339 14:-0.919182 15:-0.933777 16:-0.937983 17:-0.930375 18:-0.926531 19:-0.920451 20:-0.91647 21:-0.923691 22:-0.936188 23:-0.945678 24:-0.953221 25:-0.954959 26:-0.955911 27:-0.958049 28:-0.962115 29:-0.966212 30:-0.97 31:-0.973345 32:-0.976212 33:-0.979285 34:-0.98215 35:-0.984838 36:-0.987011 37:-0.989279 38:-0.99153 39:-0.993657 40:-0.995347 41:-0.996211 42:-0.996643 43:-0.997169 44:-0.997669 45:-0.998032 46:-0.998168 47:-0.998296 48:-0.998419 49:-0.998537 50:-0.99865 51:-0.998758 52:-0.998804 53:-0.998854 54:-0.998839 55:-0.998871 56:-0.998911 57:-0.998949 58:-0.998987 59:-0.999022 60:-0.999057 61:-0.99909 62:-0.999122 63:-0.999153 64:-0.999183 65:-0.999212 66:-0.99924 67:-0.999267 68:-0.99928 69:-0.999277 70:-0.999274 71:-0.999271 72:-0.999268 73:-0.999265 74:-0.999265 75:-0.999275 76:-0.999284 77:-0.999303 78:-0.999325 79:-0.999329 80:-0.999332 81:-0.999335 82:-0.999337 83:-0.998895 84:-0.996537 85:-0.994349 86:-0.992142 87:-0.990009 88:-0.987796 89:-0.985775 90:-0.983856 91:-0.982032 92:-0.980005 93:-0.978156 94:-0.976298 95:-0.974698 96:-0.972856 97:-0.971287 98:-0.969527 99:-0.967943 100:-0.966399 101:-0.964839 102:-0.963314 103:-0.961868 104:-0.962584 
-826.720028810801 1:-0.88582 2:-0.805439 3:-0.852394 4:-0.890681 5:-0.732937 6:-0.735879 7:-0.745287 8:-0.760536 9:-0.757958 10:-0.755069 11:-0.752186 12:-0.783743 13:-0.809482 14:-0.821522 15:-0.837766 16:-0.840106 17:-0.83103 18:-0.826824 19:-0.819797 20:-0.815605 21:-0.82141 22:-0.833283 23:-0.841496 24:-0.848405 25:-0.849851 26:-0.85053 27:-0.851959 28:-0.855751 29:-0.859584 30:-0.863175 31:-0.866022 32:-0.868672 33:-0.871396 34:-0.874829 35:-0.87869 36:-0.88103 37:-0.883346 38:-0.887174 39:-0.888963 40:-0.890371 41:-0.890748 42:-0.891045 43:-0.891139 44:-0.892638 45:-0.893377 46:-0.893581 47:-0.895389 48:-0.896296 49:-0.897638 50:-0.898595 51:-0.899498 52:-0.899055 53:-0.899303 54:-0.89931 55:-0.899151 56:-0.899061 57:-0.899745 58:-0.899369 59:-0.898998 60:-0.899048 61:-0.898904 62:-0.898759 63:-0.898963 64:-0.89906 65:-0.898903 66:-0.898959 67:-0.899068 68:-0.898759 69:-0.89931 70:-0.900135 71:-0.899795 72:-0.899465 73:-0.899309 74:-0.899168 75:-0.898873 76:-0.898819 77:-0.898531 78:-0.898411 79:-0.898116 80:-0.897872 81:-0.897868 82:-0.8976 83:-0.897161 84:-0.894665 85:-0.89234 86:-0.890141 87:-0.888181 88:-0.88585 89:-0.884182 90:-0.882136 91:-0.880196 92:-0.878052 93:-0.876477 94:-0.874764 95:-0.873092 96:-0.871147 97:-0.869586 98:-0.86773 99:-0.866161 100:-0.864514 101:-0.862969 102:-0.861346 103:-0.859993 104:-0.860804 
-90.55358617006658 1:-0.892034 2:-0.737448 3:-0.732963 4:-0.904694 5:-0.783033 6:-0.770036 7:-0.754963 8:-0.749494 9:-0.750859 10:-0.784305 11:-0.809456 12:-0.862194 13:-0.887638 14:-0.91085 15:-0.936551 16:-0.950051 17:-0.935968 18:-0.925382 19:-0.912866 20:-0.903464 21:-0.906588 22:-0.91379 23:-0.920343 24:-0.926429 25:-0.924248 26:-0.924854 27:-0.92444 28:-0.934672 29:-0.935847 30:-0.937699 31:-0.938243 32:-0.938563 33:-0.939258 34:-0.939959 35:-0.940324 36:-0.940703 37:-0.940846 38:-0.941358 39:-0.942221 40:-0.9424 41:-0.94175 42:-0.940885 43:-0.939931 44:-0.939315 45:-0.938296 46:-0.937444 47:-0.936538 48:-0.935496 49:-0.934553 50:-0.933856 51:-0.932902 52:-0.932104 53:-0.931172 54:-0.930308 55:-0.929445 56:-0.928879 57:-0.928043 58:-0.927764 59:-0.927004 60:-0.927769 61:-0.92704 62:-0.926489 63:-0.925889 64:-0.925618 65:-0.925168 66:-0.924729 67:-0.924223 68:-0.923797 69:-0.923366 70:-0.922952 71:-0.922409 72:-0.922017 73:-0.921501 74:-0.921108 75:-0.920731 76:-0.920545 77:-0.920891 78:-0.921467 79:-0.922815 80:-0.923125 81:-0.922742 82:-0.922272 83:-0.921509 84:-0.918767 85:-0.916283 86:-0.913712 87:-0.911403 88:-0.909125 89:-0.906873 90:-0.904622 91:-0.902686 92:-0.900345 93:-0.898683 94:-0.896527 95:-0.894749 96:-0.892696 97:-0.89098 98:-0.88895 99:-0.887552 100:-0.885784 101:-0.884367 102:-0.882891 103:-0.881318 104:-0.882376 
-253.4526680662223 1:-0.926598 2:-0.785565 3:-0.86519 4:-0.925592 5:-0.762245 6:-0.767571 7:-0.761401 8:-0.762539 9:-0.763804 10:-0.76469 11:-0.768538 12:-0.802645 13:-0.830475 14:-0.850206 15:-0.863906 16:-0.866914 17:-0.85918 18:-0.858075 19:-0.856379 20:-0.853167 21:-0.861405 22:-0.872663 23:-0.880859 24:-0.887427 25:-0.888457 26:-0.889052 27:-0.890805 28:-0.894078 29:-0.897617 30:-0.900707 31:-0.903907 32:-0.906152 33:-0.908813 34:-0.911109 35:-0.913714 36:-0.915424 37:-0.917499 38:-0.919292 39:-0.92138 40:-0.922632 41:-0.923269 42:-0.925351 43:-0.925517 44:-0.926079 45:-0.926119 46:-0.926802 47:-0.92657 48:-0.926642 49:-0.92696 50:-0.927653 51:-0.92754 52:-0.927873 53:-0.927642 54:-0.927541 55:-0.927321 56:-0.927374 57:-0.927305 58:-0.927271 59:-0.927065 60:-0.927039 61:-0.92685 62:-0.926894 63:-0.926718 64:-0.926625 65:-0.927693 66:-0.927632 67:-0.927901 68:-0.928129 69:-0.927992 70:-0.928136 71:-0.927991 72:-0.927856 73:-0.927657 74:-0.927801 75:-0.92837 76:-0.928428 77:-0.928399 78:-0.928374 79:-0.928283 80:-0.928237 81:-0.928533 82:-0.928597 83:-0.928189 84:-0.925728 85:-0.923572 86:-0.921406 87:-0.919214 88:-0.916916 89:-0.914924 90:-0.913463 91:-0.911834 92:-0.909903 93:-0.908243 94:-0.906668 95:-0.905335 96:-0.903508 97:-0.902361 98:-0.90131 99:-0.899992 100:-0.898898 101:-0.89741 102:-0.896049 103:-0.894671 104:-0.895509 
