svm_type c_svc
kernel_type rbf
gamma 2
nr_class 2
total_sv 8
rho 4.382
distance 27.7648
label 94 -1
nr_sv 4 4
SV
133.3784578550382 1:-0.959804 2:-0.910042 3:-0.948042 4:-0.964782 5:-0.804449 6:-0.807527 7:-0.803184 8:-0.804875 9:-0.806004 10:-0.806555 11:-0.809242 12:-0.843292 13:-0.870716 14:-0.885334 15:-0.899754 16:-0.903553 17:-0.897237 18:-0.898108 19:-0.891339 20:-0.887129 21:-0.894246 22:-0.906589 23:-0.915494 24:-0.92272 25:-0.92458 26:-0.925661 27:-0.929888 28:-0.935072 29:-0.938962 30:-0.943288 31:-0.946341 32:-0.949069 33:-0.951704 34:-0.954528 35:-0.956875 36:-0.958968 37:-0.960871 38:-0.963044 39:-0.964836 40:-0.966703 41:-0.967396 42:-0.967671 43:-0.96793 44:-0.968404 45:-0.968637 46:-0.968974 47:-0.969063 48:-0.969165 49:-0.96916 50:-0.969159 51:-0.969257 52:-0.969275 53:-0.969419 54:-0.96921 55:-0.96915 56:-0.969097 57:-0.969119 58:-0.968984 59:-0.96906 60:-0.968971 61:-0.968846 62:-0.96888 63:-0.968762 64:-0.968724 65:-0.968608 66:-0.968499 67:-0.968466 68:-0.968349 69:-0.968361 70:-0.968235 71:-0.96811 72:-0.967989 73:-0.967871 74:-0.967762 75:-0.967728 76:-0.967692 77:-0.967596 78:-0.967503 79:-0.967393 80:-0.967359 81:-0.967306 82:-0.967263 83:-0.966844 84:-0.964424 85:-0.962174 86:-0.959966 87:-0.957843 88:-0.955639 89:-0.953574 90:-0.951608 91:-0.94974 92:-0.947721 93:-0.94583 94:-0.943933 95:-0.94239 96:-0.94051 97:-0.9389 98:-0.937153 99:-0.935531 100:-0.933949 101:-0.932399 102:-0.930885 103:-0.929574 104:-0.930267 
168.9233180525875 1:-0.954949 2:-0.917364 3:-0.949003 4:-0.96421 5:-0.818787 6:-0.81641 7:-0.809054 8:-0.808122 9:-0.806754 10:-0.807095 11:-0.810219 12:-0.845196 13:-0.872371 14:-0.886336 15:-0.900624 16:-0.904308 17:-0.896361 18:-0.897413 19:-0.893249 20:-0.888605 21:-0.895085 22:-0.90873 23:-0.918056 24:-0.928039 25:-0.930466 26:-0.931874 27:-0.934121 28:-0.93751 29:-0.941705 30:-0.945058 31:-0.948 32:-0.950898 33:-0.953685 34:-0.956292 35:-0.95856 36:-0.960585 37:-0.962425 38:-0.964666 39:-0.966634 40:-0.967962 41:-0.968551 42:-0.968716 43:-0.969169 44:-0.969594 45:-0.969784 46:-0.969646 47:-0.969495 48:-0.969367 49:-0.969347 50:-0.96923 51:-0.969121 52:-0.969142 53:-0.968988 54:-0.968869 55:-0.968716 56:-0.968661 57:-0.968509 58:-0.968376 59:-0.968245 60:-0.968204 61:-0.968163 62:-0.968043 63:-0.968008 64:-0.967898 65:-0.967787 66:-0.967757 67:-0.967655 68:-0.967543 69:-0.96749 70:-0.96742 71:-0.967318 72:-0.967332 73:-0.967282 74:-0.967174 75:-0.967141 76:-0.967043 77:-0.967011 78:-0.966919 79:-0.96681 80:-0.966717 81:-0.966665 82:-0.966625 83:-0.966149 84:-0.963789 85:-0.961598 86:-0.959336 87:-0.957216 88:-0.954959 89:-0.952951 90:-0.950986 91:-0.949172 92:-0.947103 93:-0.945214 94:-0.943369 95:-0.941778 96:-0.939899 97:-0.938291 98:-0.936545 99:-0.93502 100:-0.933439 101:-0.931843 102:-0.930284 103:-0.928804 104:-0.929626 
13.1450502068793 1:-0.961066 2:-0.893305 3:-0.942177 4:-0.964011 5:-0.831158 6:-0.828453 7:-0.817031 8:-0.812862 9:-0.811299 10:-0.810757 11:-0.81143 12:-0.846174 13:-0.873181 14:-0.887008 15:-0.90118 16:-0.904767 17:-0.898089 18:-0.897776 19:-0.892001 20:-0.887606 21:-0.897221 22:-0.910591 23:-0.920848 24:-0.927994 25:-0.929643 26:-0.930145 27:-0.93167 28:-0.935481 29:-0.939379 30:-0.942882 31:-0.945793 32:-0.948355 33:-0.951427 34:-0.954296 35:-0.95655 36:-0.958617 37:-0.960911 38:-0.962915 39:-0.965069 40:-0.966397 41:-0.967314 42:-0.967441 43:-0.968145 44:-0.968586 45:-0.968785 46:-0.968765 47:-0.968619 48:-0.968759 49:-0.968787 50:-0.968868 51:-0.96885 52:-0.968673 53:-0.968609 54:-0.968576 55:-0.968596 56:-0.968618 57:-0.968628 58:-0.968651 59:-0.968503 60:-0.968528 61:-0.96839 62:-0.968648 63:-0.968592 64:-0.968767 65:-0.968631 66:-0.968524 67:-0.968452 68:-0.968317 69:-0.968242 70:-0.9681 71:-0.967961 72:-0.967892 73:-0.967759 74:-0.9677 75:-0.967586 76:-0.9676 77:-0.967551 78:-0.967444 79:-0.96732 80:-0.967272 81:-0.967145 82:-0.967032 83:-0.966601 84:-0.964226 85:-0.961966 86:-0.959691 87:-0.957504 88:-0.955343 89:-0.953376 90:-0.951399 91:-0.949521 92:-0.94744 93:-0.945591 94:-0.943684 95:-0.942032 96:-0.940144 97:-0.938623 98:-0.936819 99:-0.935281 100:-0.933691 101:-0.932086 102:-0.930518 103:-0.929074 104:-0.929843 
70.03916097573949 1:-0.954658 2:-0.922594 3:-0.951344 4:-0.963641 5:-0.803504 6:-0.806607 7:-0.802247 8:-0.802903 9:-0.804693 10:-0.805314 11:-0.808314 12:-0.842351 13:-0.869764 14:-0.884377 15:-0.898385 16:-0.902216 17:-0.896383 18:-0.897951 19:-0.892652 20:-0.888019 21:-0.894504 22:-0.908742 23:-0.920167 24:-0.926901 25:-0.928642 26:-0.93267 27:-0.93463 28:-0.937979 29:-0.942138 30:-0.945282 31:-0.948534 32:-0.950826 33:-0.953368 34:-0.955724 35:-0.957939 36:-0.959826 37:-0.961674 38:-0.963661 39:-0.965538 40:-0.966985 41:-0.96752 42:-0.967766 43:-0.967997 44:-0.968331 45:-0.968541 46:-0.968422 47:-0.968394 48:-0.968281 49:-0.968172 50:-0.968171 51:-0.968075 52:-0.968013 53:-0.967872 54:-0.967675 55:-0.967626 56:-0.967584 57:-0.967529 58:-0.967406 59:-0.96745 60:-0.967334 61:-0.96722 62:-0.967108 63:-0.967003 64:-0.966979 65:-0.967026 66:-0.966927 67:-0.966831 68:-0.966724 69:-0.966677 70:-0.966561 71:-0.966583 72:-0.96647 73:-0.96636 74:-0.966324 75:-0.966232 76:-0.966204 77:-0.966114 78:-0.966029 79:-0.965925 80:-0.965958 81:-0.965851 82:-0.965815 83:-0.965344 84:-0.962989 85:-0.960747 86:-0.958599 87:-0.956427 88:-0.954176 89:-0.952119 90:-0.950159 91:-0.948351 92:-0.946286 93:-0.944402 94:-0.942612 95:-0.940975 96:-0.939101 97:-0.937545 98:-0.935804 99:-0.934281 100:-0.932704 101:-0.931112 102:-0.929556 103:-0.928124 104:-0.928904 
-50.71589789794403 1:-0.940483 2:-0.871339 3:-0.916012 4:-0.953025 5:-0.794893 6:-0.800368 7:-0.796696 8:-0.802009 9:-0.803423 10:-0.802163 11:-0.801712 12:-0.835444 13:-0.862126 14:-0.876166 15:-0.889703 16:-0.893169 17:-0.885939 18:-0.881653 19:-0.875453 20:-0.871131 21:-0.877796 22:-0.8897 23:-0.8987 24:-0.905778 25:-0.907765 26:-0.909001 27:-0.910861 28:-0.914628 29:-0.918444 30:-0.92262 31:-0.926031 32:-0.928634 33:-0.931468 34:-0.934089 35:-0.936553 36:-0.938546 37:-0.940969 38:-0.943363 39:-0.9454 40:-0.948375 41:-0.949053 42:-0.949317 43:-0.950386 44:-0.951925 45:-0.952103 46:-0.952996 47:-0.95294 48:-0.952878 49:-0.952819 50:-0.952873 51:-0.952964 52:-0.952844 53:-0.953394 54:-0.953224 55:-0.953421 56:-0.954334 57:-0.954189 58:-0.954452 59:-0.954535 60:-0.954416 61:-0.9545 62:-0.954379 63:-0.954452 64:-0.954481 65:-0.954366 66:-0.954445 67:-0.954391 68:-0.955066 69:-0.955018 70:-0.954949 71:-0.954812 72:-0.954934 73:-0.955265 74:-0.955135 75:-0.955015 76:-0.955181 77:-0.955203 78:-0.955087 79:-0.95533 80:-0.955437 81:-0.955501 82:-0.95545 83:-0.954889 84:-0.952824 85:-0.951047 86:-0.948949 87:-0.946748 88:-0.94476 89:-0.942748 90:-0.941008 91:-0.939472 92:-0.937619 93:-0.935843 94:-0.934012 95:-0.932333 96:-0.930592 97:-0.928947 98:-0.927119 99:-0.925579 100:-0.923965 101:-0.922382 102:-0.920836 103:-0.919323 104:-0.92028 
-262.9304412051376 1:-0.961746 2:-0.9341 3:-0.959043 4:-0.965316 5:-0.80982 6:-0.810726 7:-0.815258 8:-0.814576 9:-0.816659 10:-0.816761 11:-0.822321 12:-0.855057 13:-0.881422 14:-0.894702 15:-0.908013 16:-0.911229 17:-0.90321 18:-0.90115 19:-0.894295 20:-0.889968 21:-0.899784 22:-0.911414 23:-0.920338 24:-0.927174 25:-0.928771 26:-0.929215 27:-0.931063 28:-0.935123 29:-0.939006 30:-0.942352 31:-0.945623 32:-0.948095 33:-0.950962 34:-0.95347 35:-0.955826 36:-0.957983 37:-0.959953 38:-0.96192 39:-0.96391 40:-0.965335 41:-0.966215 42:-0.966434 43:-0.966756 44:-0.967177 45:-0.967358 46:-0.967321 47:-0.96747 48:-0.967429 49:-0.967389 50:-0.967383 51:-0.96742 52:-0.967322 53:-0.967423 54:-0.967279 55:-0.967193 56:-0.967202 57:-0.96711 58:-0.967036 59:-0.967336 60:-0.967262 61:-0.967188 62:-0.967223 63:-0.967155 64:-0.967089 65:-0.967095 66:-0.967216 67:-0.967151 68:-0.967104 69:-0.967015 70:-0.966928 71:-0.967042 72:-0.966955 73:-0.96687 74:-0.966858 75:-0.96679 76:-0.966721 77:-0.966655 78:-0.966712 79:-0.966629 80:-0.966562 81:-0.966535 82:-0.96646 83:-0.965951 84:-0.963596 85:-0.961449 86:-0.95921 87:-0.957057 88:-0.954877 89:-0.952837 90:-0.950894 91:-0.949061 92:-0.947156 93:-0.945286 94:-0.943409 95:-0.941836 96:-0.939976 97:-0.938385 98:-0.936609 99:-0.935054 100:-0.93349 101:-0.93226 102:-0.930714 103:-0.929299 104:-0.930135 
-46.78895256187298 1:-0.969901 2:-0.930962 3:-0.960533 4:-0.966249 5:-0.806676 6:-0.820074 7:-0.812442 8:-0.810246 9:-0.809868 10:-0.81012 11:-0.810744 12:-0.844904 13:-0.873399 14:-0.887543 15:-0.90157 16:-0.905407 17:-0.897586 18:-0.893588 19:-0.887269 20:-0.883887 21:-0.890792 22:-0.903058 23:-0.912257 24:-0.920091 25:-0.921641 26:-0.922463 27:-0.924452 28:-0.928349 29:-0.932288 30:-0.935926 31:-0.939131 32:-0.941866 33:-0.944823 34:-0.947563 35:-0.950139 36:-0.952228 37:-0.954748 38:-0.957349 39:-0.959545 40:-0.961116 41:-0.961899 42:-0.962259 43:-0.962889 44:-0.96338 45:-0.96368 46:-0.963756 47:-0.964018 48:-0.96408 49:-0.964138 50:-0.964197 51:-0.964257 52:-0.964438 53:-0.964438 54:-0.964376 55:-0.96443 56:-0.96454 57:-0.964518 58:-0.964512 59:-0.965316 60:-0.965584 61:-0.965749 62:-0.965718 63:-0.965892 64:-0.966309 65:-0.966599 66:-0.966634 67:-0.966949 68:-0.967031 69:-0.967099 70:-0.967365 71:-0.96755 72:-0.967873 73:-0.967922 74:-0.967845 75:-0.967778 76:-0.967774 77:-0.967708 78:-0.967729 79:-0.967717 80:-0.967649 81:-0.967563 82:-0.967488 83:-0.966979 84:-0.964667 85:-0.962443 86:-0.960343 87:-0.958188 88:-0.955952 89:-0.953911 90:-0.951967 91:-0.950121 92:-0.948072 93:-0.946202 94:-0.944326 95:-0.942704 96:-0.941249 97:-0.939702 98:-0.937923 99:-0.936316 100:-0.934749 101:-0.933167 102:-0.931622 103:-0.930155 104:-0.930992 
-25.05069542528972 1:-0.988543 2:-0.966527 3:-0.981072 4:-0.987122 5:-0.820035 6:-0.835339 7:-0.830142 8:-0.829026 9:-0.828416 10:-0.829118 11:-0.830078 12:-0.86567 13:-0.894542 14:-0.908932 15:-0.923156 16:-0.927087 17:-0.919279 18:-0.915713 19:-0.909428 20:-0.905304 21:-0.912337 22:-0.924641 23:-0.933968 24:-0.941359 25:-0.94299 26:-0.94386 27:-0.945912 28:-0.949888 29:-0.953901 30:-0.958049 31:-0.961386 32:-0.964166 33:-0.96716 34:-0.969946 35:-0.972709 36:-0.975551 37:-0.978476 38:-0.980632 39:-0.982659 40:-0.984251 41:-0.985032 42:-0.985387 43:-0.98584 44:-0.986271 45:-0.98657 46:-0.986644 47:-0.986706 48:-0.986773 49:-0.986837 50:-0.986899 51:-0.987056 52:-0.987052 53:-0.987055 54:-0.986996 55:-0.986988 56:-0.986988 57:-0.986981 58:-0.986981 59:-0.986979 60:-0.986979 61:-0.986979 62:-0.987214 63:-0.987438 64:-0.987579 65:-0.987567 66:-0.987557 67:-0.98762 68:-0.987862 69:-0.987897 70:-0.987855 71:-0.987813 72:-0.987772 73:-0.987732 74:-0.987697 75:-0.987673 76:-0.987657 77:-0.987686 78:-0.987662 79:-0.98762 80:-0.987584 81:-0.987541 82:-0.987503 83:-0.987024 84:-0.984641 85:-0.982429 86:-0.980202 87:-0.978059 88:-0.975835 89:-0.973804 90:-0.971874 91:-0.97004 92:-0.968002 93:-0.966144 94:-0.964277 95:-0.962667 96:-0.960817 97:-0.959281 98:-0.957567 99:-0.956188 100:-0.954786 101:-0.953213 102:-0.951676 103:-0.950217 104:-0.950951 
