svm_type c_svc
kernel_type rbf
gamma 2
nr_class 2
total_sv 344
rho 65.8723
distance 447.818
label 88 -1
nr_sv 174 170
SV
2048 1:-0.881839 2:-0.804393 3:-0.866521 4:-0.887563 5:-0.752611 6:-0.742221 7:-0.747506 8:-0.742479 9:-0.739755 10:-0.73963 11:-0.738688 12:-0.772575 13:-0.797953 14:-0.812453 15:-0.827549 16:-0.831442 17:-0.823222 18:-0.819252 19:-0.812431 20:-0.808533 21:-0.815298 22:-0.82744 23:-0.836282 24:-0.843202 25:-0.844876 26:-0.845504 27:-0.850394 28:-0.859677 29:-0.86299 30:-0.866327 31:-0.869195 32:-0.871405 33:-0.87404 34:-0.8766 35:-0.878573 36:-0.880567 37:-0.882754 38:-0.88438 39:-0.886181 40:-0.887533 41:-0.888295 42:-0.888533 43:-0.89218 44:-0.896985 45:-0.898015 46:-0.897688 47:-0.897811 48:-0.899195 49:-0.898853 50:-0.898534 51:-0.898335 52:-0.897963 53:-0.897729 54:-0.897444 55:-0.89714 56:-0.896756 57:-0.8966 58:-0.896325 59:-0.89605 60:-0.89588 61:-0.89571 62:-0.895539 63:-0.895388 64:-0.895319 65:-0.895086 66:-0.895089 67:-0.894931 68:-0.894729 69:-0.894682 70:-0.894619 71:-0.894396 72:-0.89431 73:-0.894164 74:-0.893965 75:-0.893836 76:-0.893643 77:-0.893456 78:-0.893403 79:-0.893144 80:-0.893057 81:-0.892964 82:-0.892788 83:-0.892202 84:-0.889859 85:-0.887704 86:-0.885545 87:-0.883387 88:-0.881145 89:-0.879102 90:-0.877198 91:-0.875294 92:-0.873288 93:-0.871413 94:-0.869682 95:-0.868046 96:-0.866185 97:-0.864629 98:-0.86295 99:-0.861386 100:-0.85991 101:-0.858322 102:-0.856818 103:-0.855391 104:-0.856767 
1908.990485821145 1:-0.904364 2:-0.82636 3:-0.862113 4:-0.885671 5:-0.784369 6:-0.769135 7:-0.769219 8:-0.758267 9:-0.752823 10:-0.748641 11:-0.74821 12:-0.778861 13:-0.804598 14:-0.817122 15:-0.829227 16:-0.832635 17:-0.824296 18:-0.82027 19:-0.813658 20:-0.808884 21:-0.817522 22:-0.82883 23:-0.837959 24:-0.844688 25:-0.84557 26:-0.850629 27:-0.856146 28:-0.859292 29:-0.862348 30:-0.865676 31:-0.868432 32:-0.870587 33:-0.873171 34:-0.875531 35:-0.877759 36:-0.879422 37:-0.881297 38:-0.883033 39:-0.884806 40:-0.886131 41:-0.886622 42:-0.886906 43:-0.887452 44:-0.887863 45:-0.887978 46:-0.887947 47:-0.890042 48:-0.892626 49:-0.893983 50:-0.896109 51:-0.895981 52:-0.895515 53:-0.895286 54:-0.895437 55:-0.896393 56:-0.896177 57:-0.895902 58:-0.895513 59:-0.895374 60:-0.895257 61:-0.894898 62:-0.894623 63:-0.894879 64:-0.894574 65:-0.894536 66:-0.894221 67:-0.894132 68:-0.893817 69:-0.893643 70:-0.893332 71:-0.893163 72:-0.893031 73:-0.892834 74:-0.892752 75:-0.892612 76:-0.892467 77:-0.892203 78:-0.892075 79:-0.891925 80:-0.891884 81:-0.891776 82:-0.891528 83:-0.890987 84:-0.888576 85:-0.886549 86:-0.884398 87:-0.882228 88:-0.880082 89:-0.878027 90:-0.876163 91:-0.874297 92:-0.872329 93:-0.870441 94:-0.86855 95:-0.866951 96:-0.865079 97:-0.863513 98:-0.861775 99:-0.860201 100:-0.858575 101:-0.857022 102:-0.855465 103:-0.854075 104:-0.855114 
2048 1:-0.917763 2:-0.83159 3:-0.859089 4:-0.88092 5:-0.75988 6:-0.748786 7:-0.7395 8:-0.739727 9:-0.739139 10:-0.737246 11:-0.736906 12:-0.769308 13:-0.794471 14:-0.80793 15:-0.821415 16:-0.824479 17:-0.81592 18:-0.812624 19:-0.808416 20:-0.803958 21:-0.809862 22:-0.821573 23:-0.830454 24:-0.837513 25:-0.838478 26:-0.841458 27:-0.847801 28:-0.852881 29:-0.85617 30:-0.859464 31:-0.861923 32:-0.864374 33:-0.867122 34:-0.869208 35:-0.87155 36:-0.87331 37:-0.875287 38:-0.877628 39:-0.879148 40:-0.880232 41:-0.881352 42:-0.881644 43:-0.882325 44:-0.882773 45:-0.883019 46:-0.883035 47:-0.882713 48:-0.882471 49:-0.882751 50:-0.882779 51:-0.882683 52:-0.88263 53:-0.882506 54:-0.882431 55:-0.88242 56:-0.882267 57:-0.881985 58:-0.882018 59:-0.881999 60:-0.881789 61:-0.88178 62:-0.881766 63:-0.881765 64:-0.881577 65:-0.881377 66:-0.881416 67:-0.881419 68:-0.88147 69:-0.881448 70:-0.881422 71:-0.881283 72:-0.881085 73:-0.880958 74:-0.880945 75:-0.880773 76:-0.880874 77:-0.880791 78:-0.880694 79:-0.880655 80:-0.880522 81:-0.880466 82:-0.880442 83:-0.880012 84:-0.877632 85:-0.875616 86:-0.873524 87:-0.871384 88:-0.869431 89:-0.867554 90:-0.865607 91:-0.863765 92:-0.861896 93:-0.860158 94:-0.858286 95:-0.856829 96:-0.855024 97:-0.853501 98:-0.853496 99:-0.854265 100:-0.853069 101:-0.851882 102:-0.850331 103:-0.849036 104:-0.85047 
1263.204266024962 1:-0.895626 2:-0.819038 3:-0.848808 4:-0.878833 5:-0.734767 6:-0.745823 7:-0.740115 8:-0.762696 9:-0.753115 10:-0.748362 11:-0.75015 12:-0.781007 13:-0.804437 14:-0.817333 15:-0.828719 16:-0.832079 17:-0.823569 18:-0.818718 19:-0.811724 20:-0.806598 21:-0.813338 22:-0.824088 23:-0.833293 24:-0.839625 25:-0.840355 26:-0.841147 27:-0.842652 28:-0.849695 29:-0.854157 30:-0.85783 31:-0.862748 32:-0.865887 33:-0.868441 34:-0.870488 35:-0.872698 36:-0.874129 37:-0.875989 38:-0.878188 39:-0.879939 40:-0.88134 41:-0.881935 42:-0.882439 43:-0.882435 44:-0.883012 45:-0.883182 46:-0.883136 47:-0.883013 48:-0.882826 49:-0.882709 50:-0.882492 51:-0.882658 52:-0.882306 53:-0.882237 54:-0.881879 55:-0.882069 56:-0.881783 57:-0.881673 58:-0.881405 59:-0.88142 60:-0.881581 61:-0.881528 62:-0.881271 63:-0.881288 64:-0.88106 65:-0.881009 66:-0.88097 67:-0.880934 68:-0.880704 69:-0.88065 70:-0.880624 71:-0.880391 72:-0.880165 73:-0.880109 74:-0.880062 75:-0.880024 76:-0.879972 77:-0.879772 78:-0.879727 79:-0.879674 80:-0.879668 81:-0.879437 82:-0.879447 83:-0.878849 84:-0.876678 85:-0.874444 86:-0.872333 87:-0.870255 88:-0.868119 89:-0.86618 90:-0.864217 91:-0.862464 92:-0.860529 93:-0.858774 94:-0.856988 95:-0.855491 96:-0.853622 97:-0.852156 98:-0.850911 99:-0.851401 100:-0.85053 101:-0.850113 102:-0.849162 103:-0.847742 104:-0.848979 
520.727424072088 1:-0.898247 2:-0.841004 3:-0.851323 4:-0.869705 5:-0.771993 6:-0.751151 7:-0.735873 8:-0.738866 9:-0.732288 10:-0.730759 11:-0.728495 12:-0.761403 13:-0.785826 14:-0.798921 15:-0.811081 16:-0.814594 17:-0.807472 18:-0.80286 19:-0.796315 20:-0.793864 21:-0.799898 22:-0.810828 23:-0.819024 24:-0.826479 25:-0.836185 26:-0.838369 27:-0.839589 28:-0.842514 29:-0.846002 30:-0.848774 31:-0.852021 32:-0.853977 33:-0.856221 34:-0.858638 35:-0.861292 36:-0.863148 37:-0.864825 38:-0.866733 39:-0.86821 40:-0.870749 41:-0.871153 42:-0.871613 43:-0.871946 44:-0.871976 45:-0.871911 46:-0.87219 47:-0.872102 48:-0.872089 49:-0.871819 50:-0.871824 51:-0.871831 52:-0.871545 53:-0.871477 54:-0.871461 55:-0.871206 56:-0.871396 57:-0.871306 58:-0.871061 59:-0.871072 60:-0.870844 61:-0.870618 62:-0.870929 63:-0.870717 64:-0.870706 65:-0.870486 66:-0.870472 67:-0.870458 68:-0.870484 69:-0.870269 70:-0.870232 71:-0.87019 72:-0.870148 73:-0.870096 74:-0.870068 75:-0.870042 76:-0.869965 77:-0.869775 78:-0.869754 79:-0.869552 80:-0.869713 81:-0.869684 82:-0.869502 83:-0.869062 84:-0.86672 85:-0.864612 86:-0.862699 87:-0.860558 88:-0.858467 89:-0.856439 90:-0.854494 91:-0.852654 92:-0.850995 93:-0.849128 94:-0.84752 95:-0.846012 96:-0.844157 97:-0.842679 98:-0.84105 99:-0.839679 100:-0.840608 101:-0.840677 102:-0.840007 103:-0.83871 104:-0.839545 
1556.055782832353 1:-0.914753 2:-0.827406 3:-0.849973 4:-0.867465 5:-0.739264 6:-0.763033 7:-0.754462 8:-0.740521 9:-0.744297 10:-0.738468 11:-0.735964 12:-0.765325 13:-0.790313 14:-0.804851 15:-0.817293 16:-0.819138 17:-0.811095 18:-0.806678 19:-0.799982 20:-0.795088 21:-0.801253 22:-0.812722 23:-0.821287 24:-0.827369 25:-0.828663 26:-0.829628 27:-0.831414 28:-0.834843 29:-0.838433 30:-0.841546 31:-0.844631 32:-0.847161 33:-0.849778 34:-0.852316 35:-0.854925 36:-0.856965 37:-0.858833 38:-0.861407 39:-0.866192 40:-0.869552 41:-0.869957 42:-0.870164 43:-0.870171 44:-0.870469 45:-0.870659 46:-0.870358 47:-0.870251 48:-0.87029 49:-0.870003 50:-0.870241 51:-0.870234 52:-0.869894 53:-0.869931 54:-0.869586 55:-0.869543 56:-0.869316 57:-0.869215 58:-0.869174 59:-0.869391 60:-0.869147 61:-0.868906 62:-0.868663 63:-0.869032 64:-0.868814 65:-0.868771 66:-0.868754 67:-0.868544 68:-0.868505 69:-0.868458 70:-0.868436 71:-0.868211 72:-0.86816 73:-0.868109 74:-0.868094 75:-0.86806 76:-0.867857 77:-0.867818 78:-0.867633 79:-0.867599 80:-0.867601 81:-0.86752 82:-0.86748 83:-0.86702 84:-0.864637 85:-0.862845 86:-0.860606 87:-0.858516 88:-0.856511 89:-0.854613 90:-0.852792 91:-0.850989 92:-0.849063 93:-0.847319 94:-0.845489 95:-0.843977 96:-0.842191 97:-0.840685 98:-0.839032 99:-0.837536 100:-0.836921 101:-0.838029 102:-0.837254 103:-0.836729 104:-0.837351 
399.0410011997416 1:-0.903393 2:-0.820084 3:-0.846337 4:-0.86566 5:-0.729428 6:-0.754517 7:-0.738815 8:-0.742654 9:-0.735662 10:-0.733157 11:-0.738397 12:-0.767781 13:-0.792293 14:-0.804699 15:-0.815939 16:-0.817723 17:-0.809303 18:-0.804252 19:-0.797888 20:-0.793405 21:-0.798932 22:-0.81044 23:-0.819961 24:-0.82644 25:-0.827136 26:-0.828332 27:-0.832052 28:-0.835564 29:-0.839463 30:-0.8423 31:-0.845182 32:-0.847619 33:-0.849915 34:-0.852398 35:-0.856212 36:-0.861538 37:-0.863354 38:-0.865167 39:-0.867091 40:-0.868031 41:-0.868296 42:-0.869098 43:-0.869375 44:-0.869352 45:-0.869799 46:-0.869786 47:-0.869644 48:-0.869319 49:-0.869804 50:-0.86975 51:-0.869463 52:-0.869302 53:-0.868982 54:-0.868614 55:-0.868549 56:-0.868809 57:-0.868461 58:-0.868182 59:-0.868201 60:-0.868264 61:-0.868001 62:-0.868191 63:-0.867946 64:-0.867712 65:-0.867858 66:-0.867812 67:-0.867766 68:-0.867527 69:-0.867487 70:-0.867421 71:-0.867351 72:-0.867113 73:-0.867046 74:-0.866831 75:-0.866952 76:-0.866735 77:-0.86671 78:-0.866511 79:-0.866444 80:-0.866489 81:-0.866245 82:-0.866048 83:-0.865739 84:-0.86349 85:-0.861405 86:-0.859412 87:-0.857258 88:-0.855368 89:-0.853326 90:-0.851493 91:-0.849637 92:-0.847834 93:-0.845995 94:-0.844364 95:-0.842842 96:-0.840989 97:-0.839426 98:-0.837766 99:-0.836384 100:-0.835183 101:-0.836252 102:-0.835728 103:-0.834591 104:-0.835739 
2048 1:-0.862032 2:-0.766736 3:-0.848583 4:-0.862706 5:-0.725509 6:-0.739257 7:-0.723896 8:-0.718561 9:-0.715455 10:-0.713786 11:-0.716641 12:-0.748104 13:-0.774035 14:-0.787266 15:-0.800569 16:-0.804132 17:-0.796731 18:-0.792702 19:-0.787499 20:-0.783477 21:-0.790307 22:-0.801905 23:-0.818775 24:-0.825175 25:-0.826437 26:-0.827113 27:-0.828687 28:-0.832105 29:-0.835601 30:-0.838992 31:-0.841629 32:-0.844161 33:-0.846787 34:-0.849765 35:-0.855473 36:-0.860006 37:-0.866259 38:-0.868571 39:-0.870989 40:-0.872078 41:-0.872525 42:-0.872465 43:-0.872521 44:-0.872574 45:-0.872471 46:-0.87228 47:-0.87185 48:-0.871615 49:-0.871645 50:-0.871577 51:-0.871285 52:-0.871103 53:-0.870965 54:-0.870589 55:-0.87038 56:-0.870256 57:-0.869997 58:-0.869973 59:-0.869772 60:-0.869431 61:-0.869289 62:-0.869073 63:-0.869073 64:-0.868846 65:-0.869606 66:-0.869593 67:-0.869361 68:-0.869332 69:-0.869088 70:-0.868917 71:-0.868745 72:-0.869029 73:-0.868923 74:-0.868899 75:-0.868877 76:-0.868782 77:-0.868567 78:-0.868426 79:-0.868201 80:-0.868098 81:-0.867973 82:-0.867774 83:-0.867448 84:-0.865052 85:-0.862966 86:-0.860743 87:-0.858627 88:-0.856516 89:-0.854424 90:-0.8526 91:-0.850867 92:-0.848859 93:-0.847083 94:-0.845252 95:-0.843662 96:-0.8419 97:-0.840392 98:-0.838617 99:-0.837099 100:-0.835621 101:-0.83403 102:-0.832525 103:-0.831097 104:-0.832598 
2048 1:-0.899024 2:-0.824268 3:-0.842862 4:-0.860053 5:-0.672134 6:-0.732475 7:-0.721143 8:-0.726337 9:-0.721039 10:-0.717921 11:-0.717933 12:-0.748333 13:-0.775406 14:-0.787719 15:-0.800919 16:-0.804395 17:-0.795708 18:-0.791062 19:-0.787845 20:-0.783891 21:-0.791279 22:-0.802355 23:-0.813121 24:-0.82182 25:-0.822449 26:-0.823071 27:-0.824295 28:-0.827397 29:-0.83059 30:-0.834847 31:-0.841918 32:-0.845982 33:-0.848127 34:-0.850447 35:-0.852271 36:-0.853712 37:-0.855924 38:-0.857433 39:-0.858862 40:-0.860174 41:-0.861111 42:-0.861614 43:-0.861632 44:-0.862228 45:-0.862377 46:-0.862298 47:-0.861917 48:-0.861893 49:-0.862051 50:-0.861785 51:-0.861541 52:-0.861692 53:-0.861405 54:-0.861069 55:-0.86081 56:-0.861218 57:-0.861114 58:-0.861469 59:-0.861284 60:-0.861041 61:-0.861406 62:-0.861153 63:-0.860927 64:-0.86071 65:-0.860856 66:-0.86064 67:-0.860431 68:-0.860752 69:-0.861003 70:-0.860771 71:-0.860744 72:-0.860716 73:-0.860488 74:-0.860445 75:-0.860242 76:-0.860035 77:-0.859835 78:-0.859648 79:-0.860204 80:-0.860073 81:-0.859982 82:-0.85994 83:-0.859613 84:-0.857286 85:-0.85507 86:-0.853002 87:-0.850861 88:-0.848634 89:-0.846742 90:-0.844795 91:-0.842955 92:-0.840908 93:-0.839429 94:-0.837689 95:-0.836156 96:-0.834303 97:-0.832897 98:-0.831129 99:-0.830241 100:-0.83184 101:-0.831786 102:-0.830665 103:-0.829295 104:-0.830252 
2048 1:-0.827856 2:-0.793933 3:-0.817128 4:-0.857377 5:-0.732191 6:-0.731019 7:-0.714478 8:-0.71817 9:-0.711974 10:-0.711552 11:-0.711521 12:-0.743499 13:-0.769589 14:-0.78273 15:-0.795976 16:-0.798564 17:-0.792551 18:-0.788228 19:-0.781303 20:-0.777907 21:-0.783965 22:-0.798282 23:-0.809308 24:-0.81533 25:-0.818507 26:-0.818598 27:-0.819829 28:-0.826259 29:-0.830048 30:-0.837165 31:-0.84123 32:-0.843596 33:-0.846067 34:-0.847927 35:-0.84969 36:-0.851075 37:-0.853583 38:-0.855031 39:-0.856402 40:-0.858093 41:-0.858345 42:-0.858226 43:-0.858515 44:-0.859438 45:-0.859313 46:-0.859261 47:-0.859006 48:-0.858949 49:-0.858637 50:-0.858433 51:-0.858334 52:-0.857981 53:-0.857682 54:-0.858301 55:-0.858014 56:-0.857728 57:-0.858048 58:-0.857994 59:-0.85775 60:-0.857699 61:-0.857441 62:-0.857322 63:-0.85734 64:-0.857353 65:-0.857106 66:-0.856882 67:-0.857029 68:-0.856796 69:-0.856563 70:-0.856792 71:-0.856756 72:-0.856691 73:-0.856459 74:-0.856249 75:-0.856368 76:-0.856314 77:-0.856212 78:-0.856016 79:-0.856151 80:-0.855994 81:-0.855987 82:-0.855789 83:-0.855403 84:-0.85304 85:-0.850827 86:-0.848924 87:-0.846894 88:-0.844985 89:-0.842956 90:-0.841048 91:-0.83937 92:-0.83747 93:-0.835729 94:-0.833931 95:-0.833323 96:-0.834872 97:-0.834626 98:-0.8335 99:-0.83238 100:-0.830739 101:-0.829199 102:-0.827799 103:-0.826893 104:-0.82911 
11.77167129093969 1:-0.882616 2:-0.811715 3:-0.829185 4:-0.856714 5:-0.713077 6:-0.711219 7:-0.711069 8:-0.706125 9:-0.702385 10:-0.707464 11:-0.706594 12:-0.739153 13:-0.76423 14:-0.777176 15:-0.792469 16:-0.795367 17:-0.788753 18:-0.785596 19:-0.779225 20:-0.775449 21:-0.782393 22:-0.796331 23:-0.808684 24:-0.814918 25:-0.816221 26:-0.816947 27:-0.818259 28:-0.821955 29:-0.825655 30:-0.829865 31:-0.833234 32:-0.838179 33:-0.841236 34:-0.844025 35:-0.84734 36:-0.848805 37:-0.85069 38:-0.853163 39:-0.854593 40:-0.856029 41:-0.856343 42:-0.856302 43:-0.85722 44:-0.857536 45:-0.857745 46:-0.85801 47:-0.858168 48:-0.858137 49:-0.858104 50:-0.858337 51:-0.85857 52:-0.858315 53:-0.858249 54:-0.858356 55:-0.858296 56:-0.858165 57:-0.857823 58:-0.857981 59:-0.857912 60:-0.857657 61:-0.857403 62:-0.857348 63:-0.857547 64:-0.857511 65:-0.8573 66:-0.857263 67:-0.857225 68:-0.857173 69:-0.857114 70:-0.856879 71:-0.856829 72:-0.856598 73:-0.856537 74:-0.856329 75:-0.85645 76:-0.85644 77:-0.85639 78:-0.856195 79:-0.856129 80:-0.856267 81:-0.856022 82:-0.855974 83:-0.855378 84:-0.853288 85:-0.851227 86:-0.849166 87:-0.847053 88:-0.844935 89:-0.84291 90:-0.841229 91:-0.839483 92:-0.837562 93:-0.83572 94:-0.833976 95:-0.832516 96:-0.83095 97:-0.829494 98:-0.830166 99:-0.831667 100:-0.830454 101:-0.82935 102:-0.827759 103:-0.826784 104:-0.827697 
199.3573172503867 1:-0.951939 2:-0.84205 3:-0.877342 4:-0.946044 5:-0.785553 6:-0.844879 7:-0.826822 8:-0.820167 9:-0.811911 10:-0.80838 11:-0.807267 12:-0.838665 13:-0.865172 14:-0.877531 15:-0.890085 16:-0.893669 17:-0.885679 18:-0.88556 19:-0.878062 20:-0.87298 21:-0.879511 22:-0.890799 23:-0.899839 24:-0.906385 25:-0.907663 26:-0.908156 27:-0.909832 28:-0.913797 29:-0.917261 30:-0.921137 31:-0.927944 32:-0.930793 33:-0.933222 34:-0.935616 35:-0.938092 36:-0.939735 37:-0.941481 38:-0.943237 39:-0.945351 40:-0.946573 41:-0.947036 42:-0.947403 43:-0.947567 44:-0.948009 45:-0.948103 46:-0.948148 47:-0.948088 48:-0.948332 49:-0.948159 50:-0.948248 51:-0.948092 52:-0.948198 53:-0.947998 54:-0.94797 55:-0.947816 56:-0.94763 57:-0.947427 58:-0.947678 59:-0.947569 60:-0.948967 61:-0.94952 62:-0.949319 63:-0.949825 64:-0.950132 65:-0.950362 66:-0.950424 67:-0.950538 68:-0.950607 69:-0.950918 70:-0.95095 71:-0.951015 72:-0.95084 73:-0.950792 74:-0.950708 75:-0.95058 76:-0.950511 77:-0.950673 78:-0.950943 79:-0.950958 80:-0.951275 81:-0.951083 82:-0.950885 83:-0.950261 84:-0.948169 85:-0.945987 86:-0.943826 87:-0.941714 88:-0.939383 89:-0.93725 90:-0.935391 91:-0.933638 92:-0.931571 93:-0.929613 94:-0.927777 95:-0.926479 96:-0.925383 97:-0.923852 98:-0.922322 99:-0.920684 100:-0.919026 101:-0.917355 102:-0.915837 103:-0.914402 104:-0.915555 
2048 1:-0.948444 2:-0.812762 3:-0.869079 4:-0.945267 5:-0.805834 6:-0.81487 7:-0.832758 8:-0.824304 9:-0.814966 10:-0.811423 11:-0.808129 12:-0.83982 13:-0.86487 14:-0.877127 15:-0.890626 16:-0.893293 17:-0.884355 18:-0.879418 19:-0.872819 20:-0.867998 21:-0.874867 22:-0.886319 23:-0.894914 24:-0.902185 25:-0.903279 26:-0.903709 27:-0.905914 28:-0.909615 29:-0.914277 30:-0.920418 31:-0.924421 32:-0.9282 33:-0.930797 34:-0.933073 35:-0.935362 36:-0.937048 37:-0.93896 38:-0.941283 39:-0.942958 40:-0.944528 41:-0.945323 42:-0.945396 43:-0.945907 44:-0.946073 45:-0.946126 46:-0.946778 47:-0.946726 48:-0.946556 49:-0.946392 50:-0.946539 51:-0.946637 52:-0.947076 53:-0.947342 54:-0.947364 55:-0.947155 56:-0.947177 57:-0.946958 58:-0.947727 59:-0.947843 60:-0.948264 61:-0.948838 62:-0.948954 63:-0.949133 64:-0.949231 65:-0.949022 66:-0.949343 67:-0.949526 68:-0.949407 69:-0.949951 70:-0.950217 71:-0.950804 72:-0.950568 73:-0.950599 74:-0.950379 75:-0.950333 76:-0.950153 77:-0.949952 78:-0.949882 79:-0.94967 80:-0.949986 81:-0.950093 82:-0.950122 83:-0.949637 84:-0.947138 85:-0.944813 86:-0.942685 87:-0.940518 88:-0.938187 89:-0.936265 90:-0.934226 91:-0.932649 92:-0.930955 93:-0.929141 94:-0.927608 95:-0.926004 96:-0.924497 97:-0.923149 98:-0.921779 99:-0.920446 100:-0.91887 101:-0.917187 102:-0.915773 103:-0.914287 104:-0.915272 
127.896479422855 1:-0.945531 2:-0.808577 3:-0.863273 4:-0.943798 5:-0.797774 6:-0.833412 7:-0.816083 8:-0.808372 9:-0.801864 10:-0.800279 11:-0.79836 12:-0.831468 13:-0.857163 14:-0.870861 15:-0.883708 16:-0.890385 17:-0.882378 18:-0.877458 19:-0.870287 20:-0.866217 21:-0.873317 22:-0.884746 23:-0.893321 24:-0.901761 25:-0.902787 26:-0.903362 27:-0.904911 28:-0.908678 29:-0.915091 30:-0.919993 31:-0.922855 32:-0.925929 33:-0.928538 34:-0.930824 35:-0.933347 36:-0.935105 37:-0.936892 38:-0.939023 39:-0.940771 40:-0.942026 41:-0.942897 42:-0.942985 43:-0.943181 44:-0.943657 45:-0.944005 46:-0.944356 47:-0.945295 48:-0.945115 49:-0.944942 50:-0.944923 51:-0.944771 52:-0.944793 53:-0.944597 54:-0.944347 55:-0.944161 56:-0.944802 57:-0.945743 58:-0.946529 59:-0.946502 60:-0.947955 61:-0.948056 62:-0.948427 63:-0.948278 64:-0.948435 65:-0.948397 66:-0.94818 67:-0.948146 68:-0.947925 69:-0.947699 70:-0.947652 71:-0.947533 72:-0.947487 73:-0.947918 74:-0.948032 75:-0.947988 76:-0.947947 77:-0.94775 78:-0.948252 79:-0.948465 80:-0.948501 81:-0.948943 82:-0.948757 83:-0.948519 84:-0.946156 85:-0.943962 86:-0.941613 87:-0.939355 88:-0.937117 89:-0.934976 90:-0.933064 91:-0.931562 92:-0.929452 93:-0.928009 94:-0.926292 95:-0.924615 96:-0.923074 97:-0.9219 98:-0.920495 99:-0.919384 100:-0.917708 101:-0.916019 102:-0.914506 103:-0.913003 104:-0.914134 
2048 1:-0.950677 2:-0.812762 3:-0.868773 4:-0.943729 5:-0.798038 6:-0.833899 7:-0.819744 8:-0.808751 9:-0.803094 10:-0.801717 11:-0.800507 12:-0.83231 13:-0.857949 14:-0.871831 15:-0.884619 16:-0.888027 17:-0.879387 18:-0.874708 19:-0.868487 20:-0.86385 21:-0.870196 22:-0.881799 23:-0.891131 24:-0.902307 25:-0.90332 26:-0.903677 27:-0.905421 28:-0.908888 29:-0.912609 30:-0.919616 31:-0.923137 32:-0.925554 33:-0.928455 34:-0.931136 35:-0.933552 36:-0.935244 37:-0.937035 38:-0.93917 39:-0.940858 40:-0.94212 41:-0.942624 42:-0.943146 43:-0.943345 44:-0.943535 45:-0.943893 46:-0.94402 47:-0.944467 48:-0.945341 49:-0.94527 50:-0.945109 51:-0.945204 52:-0.944982 53:-0.944788 54:-0.94474 55:-0.944581 56:-0.944402 57:-0.944421 58:-0.94428 59:-0.94522 60:-0.946484 61:-0.947529 62:-0.947563 63:-0.948167 64:-0.948138 65:-0.948624 66:-0.948408 67:-0.948199 68:-0.947981 69:-0.947758 70:-0.947747 71:-0.947702 72:-0.947888 73:-0.947831 74:-0.947693 75:-0.947501 76:-0.947871 77:-0.948151 78:-0.948091 79:-0.948241 80:-0.948477 81:-0.948257 82:-0.948058 83:-0.947725 84:-0.945456 85:-0.943612 86:-0.941411 87:-0.939158 88:-0.936826 89:-0.934819 90:-0.932912 91:-0.931098 92:-0.929207 93:-0.927461 94:-0.926064 95:-0.924354 96:-0.922774 97:-0.921485 98:-0.920056 99:-0.918352 100:-0.916691 101:-0.915016 102:-0.91378 103:-0.912699 104:-0.913728 
1054.673369333917 1:-0.906792 2:-0.73954 3:-0.827446 4:-0.882106 5:-0.804428 6:-0.765757 7:-0.747905 8:-0.742176 9:-0.742777 10:-0.739392 11:-0.737381 12:-0.769848 13:-0.800935 14:-0.813462 15:-0.827997 16:-0.835005 17:-0.828606 18:-0.825865 19:-0.822512 20:-0.819755 21:-0.828986 22:-0.8404 23:-0.849826 24:-0.857839 25:-0.860231 26:-0.8608 27:-0.86212 28:-0.867004 29:-0.869527 30:-0.871848 31:-0.874988 32:-0.877821 33:-0.883744 34:-0.886176 35:-0.888176 36:-0.890107 37:-0.891268 38:-0.892807 39:-0.896285 40:-0.89827 41:-0.898391 42:-0.898507 43:-0.900438 44:-0.900148 45:-0.902032 46:-0.901755 47:-0.901092 48:-0.900672 49:-0.900056 50:-0.899727 51:-0.899702 52:-0.899036 53:-0.898707 54:-0.898286 55:-0.898188 56:-0.897627 57:-0.897949 58:-0.897413 59:-0.897214 60:-0.896714 61:-0.896382 62:-0.8961 63:-0.895834 64:-0.895393 65:-0.895139 66:-0.894972 67:-0.89456 68:-0.894147 69:-0.8945 70:-0.894087 71:-0.893854 72:-0.893801 73:-0.893541 74:-0.893334 75:-0.893005 76:-0.892807 77:-0.892458 78:-0.892335 79:-0.891981 80:-0.891859 81:-0.891647 82:-0.891412 83:-0.890798 84:-0.888259 85:-0.885893 86:-0.883792 87:-0.881653 88:-0.879419 89:-0.877251 90:-0.875171 91:-0.873325 92:-0.871351 93:-0.86936 94:-0.867467 95:-0.865719 96:-0.86375 97:-0.862187 98:-0.860355 99:-0.858784 100:-0.857254 101:-0.855613 102:-0.854058 103:-0.852535 104:-0.853617 
146.7094845467246 1:-0.843099 2:-0.766736 3:-0.834155 4:-0.878194 5:-0.82523 6:-0.776316 7:-0.755293 8:-0.745754 9:-0.750188 10:-0.744949 11:-0.741633 12:-0.771576 13:-0.798635 14:-0.811023 15:-0.826798 16:-0.833094 17:-0.827353 18:-0.825256 19:-0.820445 20:-0.816876 21:-0.823364 22:-0.835624 23:-0.843072 24:-0.850993 25:-0.853056 26:-0.854562 27:-0.855309 28:-0.859209 29:-0.863115 30:-0.866893 31:-0.871697 32:-0.876092 33:-0.879987 34:-0.881811 35:-0.883759 36:-0.884797 37:-0.886684 38:-0.887985 39:-0.889217 40:-0.891812 41:-0.893675 42:-0.894175 43:-0.895577 44:-0.895717 45:-0.895364 46:-0.89471 47:-0.894442 48:-0.893829 49:-0.89452 50:-0.894039 51:-0.893961 52:-0.893579 53:-0.893142 54:-0.89253 55:-0.892002 56:-0.892143 57:-0.891591 58:-0.891316 59:-0.891044 60:-0.891001 61:-0.891024 62:-0.890574 63:-0.890381 64:-0.890163 65:-0.889935 66:-0.889682 67:-0.889297 68:-0.889089 69:-0.889005 70:-0.888621 71:-0.888415 72:-0.888276 73:-0.887911 74:-0.887827 75:-0.887493 76:-0.887161 77:-0.886997 78:-0.886841 79:-0.886512 80:-0.886391 81:-0.886201 82:-0.885903 83:-0.88549 84:-0.883122 85:-0.880894 86:-0.878537 87:-0.876386 88:-0.874042 89:-0.872034 90:-0.870111 91:-0.868161 92:-0.866103 93:-0.864135 94:-0.862266 95:-0.860639 96:-0.85874 97:-0.857149 98:-0.85541 99:-0.853875 100:-0.852341 101:-0.850694 102:-0.849202 103:-0.847902 104:-0.849229 
2048 1:-0.956697 2:-0.89749 3:-0.922357 4:-0.953509 5:-0.818414 6:-0.820721 7:-0.807905 8:-0.803108 9:-0.810415 10:-0.8081 11:-0.807526 12:-0.840171 13:-0.866581 14:-0.880195 15:-0.893466 16:-0.897639 17:-0.889257 18:-0.88479 19:-0.878035 20:-0.874556 21:-0.881084 22:-0.892992 23:-0.902238 24:-0.909197 25:-0.910525 26:-0.911157 27:-0.913926 28:-0.917974 29:-0.921879 30:-0.925309 31:-0.928648 32:-0.931193 33:-0.935007 34:-0.940185 35:-0.942654 36:-0.944487 37:-0.94683 38:-0.948744 39:-0.950685 40:-0.95302 41:-0.954245 42:-0.954397 43:-0.954655 44:-0.955189 45:-0.955363 46:-0.955267 47:-0.955146 48:-0.955055 49:-0.954968 50:-0.954888 51:-0.955867 52:-0.956117 53:-0.956205 54:-0.956064 55:-0.955915 56:-0.955776 57:-0.955622 58:-0.955912 59:-0.955776 60:-0.95565 61:-0.955527 62:-0.955405 63:-0.955448 64:-0.955866 65:-0.955932 66:-0.955916 67:-0.955868 68:-0.955855 69:-0.955718 70:-0.955755 71:-0.955619 72:-0.955488 73:-0.955359 74:-0.955241 75:-0.955326 76:-0.956254 77:-0.956132 78:-0.956016 79:-0.955882 80:-0.95577 81:-0.955632 82:-0.955659 83:-0.955107 84:-0.952683 85:-0.950429 86:-0.948301 87:-0.946269 88:-0.94414 89:-0.942069 90:-0.940225 91:-0.938601 92:-0.936519 93:-0.934745 94:-0.932861 95:-0.931206 96:-0.929317 97:-0.927696 98:-0.926013 99:-0.9245 100:-0.922907 101:-0.921654 102:-0.920307 103:-0.919293 104:-0.920382 
2048 1:-0.95126 2:-0.854603 3:-0.904444 4:-0.953042 5:-0.803644 6:-0.806457 7:-0.820078 8:-0.811857 9:-0.807862 10:-0.806455 11:-0.805285 12:-0.837988 13:-0.864833 14:-0.878105 15:-0.892441 16:-0.895784 17:-0.887428 18:-0.882984 19:-0.876994 20:-0.87265 21:-0.879191 22:-0.890988 23:-0.900486 24:-0.907545 25:-0.908874 26:-0.909511 27:-0.911899 28:-0.915595 29:-0.919347 30:-0.922811 31:-0.926349 32:-0.93144 33:-0.936093 34:-0.938542 35:-0.940993 36:-0.943255 37:-0.94517 38:-0.947219 39:-0.949156 40:-0.950527 41:-0.951128 42:-0.952231 43:-0.953314 44:-0.953553 45:-0.953674 46:-0.953581 47:-0.953997 48:-0.953984 49:-0.953885 50:-0.953794 51:-0.953711 52:-0.953802 53:-0.95367 54:-0.953708 55:-0.95481 56:-0.954661 57:-0.954584 58:-0.954445 59:-0.954307 60:-0.954424 61:-0.954325 62:-0.954555 63:-0.954585 64:-0.954614 65:-0.954778 66:-0.954654 67:-0.954678 68:-0.954688 69:-0.955068 70:-0.954952 71:-0.954937 72:-0.954792 73:-0.954716 74:-0.954838 75:-0.954713 76:-0.954835 77:-0.954894 78:-0.954835 79:-0.954756 80:-0.954638 81:-0.954554 82:-0.954485 83:-0.954073 84:-0.95167 85:-0.94951 86:-0.9473 87:-0.945112 88:-0.942951 89:-0.940877 90:-0.938899 91:-0.937126 92:-0.935044 93:-0.933143 94:-0.931541 95:-0.929957 96:-0.928065 97:-0.926568 98:-0.925162 99:-0.92394 100:-0.923068 101:-0.922127 102:-0.921124 103:-0.919889 104:-0.921007 
2048 1:-0.962814 2:-0.893305 3:-0.923639 4:-0.952547 5:-0.808715 6:-0.815568 7:-0.804113 8:-0.800043 9:-0.809489 10:-0.807188 11:-0.806623 12:-0.839258 13:-0.866049 14:-0.879273 15:-0.892542 16:-0.896716 17:-0.888848 18:-0.884347 19:-0.877561 20:-0.873103 21:-0.879659 22:-0.891469 23:-0.900382 24:-0.907759 25:-0.909818 26:-0.910442 27:-0.912241 28:-0.915952 29:-0.919717 30:-0.923193 31:-0.926911 32:-0.930125 33:-0.93532 34:-0.938999 35:-0.941311 36:-0.943299 37:-0.945234 38:-0.947302 39:-0.949125 40:-0.950516 41:-0.951136 42:-0.95165 43:-0.952128 44:-0.952415 45:-0.952862 46:-0.952805 47:-0.952718 48:-0.952914 49:-0.954568 50:-0.954737 51:-0.954893 52:-0.954734 53:-0.954831 54:-0.954976 55:-0.955095 56:-0.954954 57:-0.954798 58:-0.954752 59:-0.954621 60:-0.954705 61:-0.954583 62:-0.954461 63:-0.95435 64:-0.954242 65:-0.95432 66:-0.954215 67:-0.954578 68:-0.954457 69:-0.954327 70:-0.9542 71:-0.954246 72:-0.954121 73:-0.954166 74:-0.954051 75:-0.953947 76:-0.953842 77:-0.953899 78:-0.9538 79:-0.953837 80:-0.95374 81:-0.953622 82:-0.953516 83:-0.953125 84:-0.950912 85:-0.948783 86:-0.946634 87:-0.944997 88:-0.942846 89:-0.941403 90:-0.939427 91:-0.937834 92:-0.935932 93:-0.934223 94:-0.932311 95:-0.930702 96:-0.928809 97:-0.927248 98:-0.925498 99:-0.923862 100:-0.922267 101:-0.920657 102:-0.91936 103:-0.918217 104:-0.919326 
2048 1:-0.945823 2:-0.881799 3:-0.919328 4:-0.952319 5:-0.796395 6:-0.806742 7:-0.805083 8:-0.800649 9:-0.798931 10:-0.805334 11:-0.804971 12:-0.838279 13:-0.864621 14:-0.878377 15:-0.891678 16:-0.89494 17:-0.887532 18:-0.883094 19:-0.876501 20:-0.872081 21:-0.879439 22:-0.891233 23:-0.900131 24:-0.907571 25:-0.908907 26:-0.909756 27:-0.912705 28:-0.916391 29:-0.920301 30:-0.923735 31:-0.92692 32:-0.929474 33:-0.932478 34:-0.938681 35:-0.94126 36:-0.943092 37:-0.945207 38:-0.948286 39:-0.950068 40:-0.95174 41:-0.95249 42:-0.952954 43:-0.953212 44:-0.953458 45:-0.953587 46:-0.953945 47:-0.95419 48:-0.954156 49:-0.954057 50:-0.954441 51:-0.954613 52:-0.954448 53:-0.954511 54:-0.954308 55:-0.954601 56:-0.954459 57:-0.954303 58:-0.954173 59:-0.954043 60:-0.953923 61:-0.953885 62:-0.953966 63:-0.954188 64:-0.954524 65:-0.954589 66:-0.954572 67:-0.954577 68:-0.954509 69:-0.954487 70:-0.954442 71:-0.954305 72:-0.954341 73:-0.954375 74:-0.954526 75:-0.954408 76:-0.954435 77:-0.954647 78:-0.954532 79:-0.954399 80:-0.954478 81:-0.954339 82:-0.954364 83:-0.953811 84:-0.951387 85:-0.949266 86:-0.946997 87:-0.944815 88:-0.942714 89:-0.940855 90:-0.93888 91:-0.937449 92:-0.935781 93:-0.933972 94:-0.932252 95:-0.930803 96:-0.928933 97:-0.927424 98:-0.925632 99:-0.923989 100:-0.922481 101:-0.920863 102:-0.91943 103:-0.918245 104:-0.919358 
2048 1:-0.931938 2:-0.882845 3:-0.916381 4:-0.951831 5:-0.798745 6:-0.814442 7:-0.811394 8:-0.805219 9:-0.802454 10:-0.809512 11:-0.808445 12:-0.840732 13:-0.867243 14:-0.880237 15:-0.893315 16:-0.897327 17:-0.88881 18:-0.884364 19:-0.877499 20:-0.872972 21:-0.880129 22:-0.891849 23:-0.900681 24:-0.907609 25:-0.909434 26:-0.91054 27:-0.912282 28:-0.915942 29:-0.91966 30:-0.923092 31:-0.926106 32:-0.929189 33:-0.934212 34:-0.938324 35:-0.94094 36:-0.94276 37:-0.94509 38:-0.947126 39:-0.949051 40:-0.95041 41:-0.951001 42:-0.951856 43:-0.952523 44:-0.95277 45:-0.953035 46:-0.953085 47:-0.953717 48:-0.95361 49:-0.954679 50:-0.954659 51:-0.954547 52:-0.954369 53:-0.95445 54:-0.954235 55:-0.954478 56:-0.954761 57:-0.954586 58:-0.954437 59:-0.95429 60:-0.954235 61:-0.954099 62:-0.954164 63:-0.954095 64:-0.954299 65:-0.954167 66:-0.954045 67:-0.954084 68:-0.953952 69:-0.953812 70:-0.953674 71:-0.953675 72:-0.953879 73:-0.953925 74:-0.953797 75:-0.953679 76:-0.953562 77:-0.953605 78:-0.953495 79:-0.953366 80:-0.95326 81:-0.953128 82:-0.953307 83:-0.952917 84:-0.950496 85:-0.948246 86:-0.946274 87:-0.944093 88:-0.942044 89:-0.940029 90:-0.938056 91:-0.936239 92:-0.934366 93:-0.932468 94:-0.930564 95:-0.928914 96:-0.927508 97:-0.926253 98:-0.924445 99:-0.92332 100:-0.921812 101:-0.920467 102:-0.919514 103:-0.918176 104:-0.919043 
2048 1:-0.952328 2:-0.853556 3:-0.905264 4:-0.949425 5:-0.813236 6:-0.815613 7:-0.80274 8:-0.80542 9:-0.806154 10:-0.804454 11:-0.803075 12:-0.836128 13:-0.862268 14:-0.87542 15:-0.889658 16:-0.892768 17:-0.884537 18:-0.880049 19:-0.873261 20:-0.868815 21:-0.876019 22:-0.88838 23:-0.897217 24:-0.904148 25:-0.905893 26:-0.906501 27:-0.90828 28:-0.912537 29:-0.91626 30:-0.921503 31:-0.9278 32:-0.930445 33:-0.933225 34:-0.935643 35:-0.938065 36:-0.939874 37:-0.941777 38:-0.944018 39:-0.945893 40:-0.947674 41:-0.948251 42:-0.948421 43:-0.948696 44:-0.948958 45:-0.949102 46:-0.949575 47:-0.950115 48:-0.950631 49:-0.950741 50:-0.950813 51:-0.950715 52:-0.950741 53:-0.950597 54:-0.950487 55:-0.950345 56:-0.950212 57:-0.950062 58:-0.950686 59:-0.950549 60:-0.950423 61:-0.950299 62:-0.950374 63:-0.950258 64:-0.950336 65:-0.950217 66:-0.950108 67:-0.950111 68:-0.950098 69:-0.950038 70:-0.950448 71:-0.950313 72:-0.950902 73:-0.950829 74:-0.950766 75:-0.950646 76:-0.950526 77:-0.950723 78:-0.95067 79:-0.950898 80:-0.95108 81:-0.951398 82:-0.951439 83:-0.951106 84:-0.94887 85:-0.946603 86:-0.944512 87:-0.942371 88:-0.940094 89:-0.938014 90:-0.936098 91:-0.934405 92:-0.932315 93:-0.930949 94:-0.929327 95:-0.928133 96:-0.92656 97:-0.92529 98:-0.923459 99:-0.922032 100:-0.920737 101:-0.919192 102:-0.917707 103:-0.916517 104:-0.917279 
2048 1:-0.932327 2:-0.855649 3:-0.895172 4:-0.946731 5:-0.805567 6:-0.797719 7:-0.798076 8:-0.794732 9:-0.791922 10:-0.80115 11:-0.800407 12:-0.833346 13:-0.860357 14:-0.873354 15:-0.886845 16:-0.890636 17:-0.88215 18:-0.877599 19:-0.871047 20:-0.866535 21:-0.873007 22:-0.885464 23:-0.894267 24:-0.901165 25:-0.902458 26:-0.90348 27:-0.905243 28:-0.908915 29:-0.913187 30:-0.916782 31:-0.922043 32:-0.927663 33:-0.93058 34:-0.933265 35:-0.935798 36:-0.93757 37:-0.939437 38:-0.941771 39:-0.94419 40:-0.945665 41:-0.946204 42:-0.946458 43:-0.946695 44:-0.947786 45:-0.94877 46:-0.950015 47:-0.950269 48:-0.950545 49:-0.950364 50:-0.950294 51:-0.950134 52:-0.94991 53:-0.949947 54:-0.949826 55:-0.94972 56:-0.949897 57:-0.950199 58:-0.950447 59:-0.950252 60:-0.95007 61:-0.950296 62:-0.950312 63:-0.950267 64:-0.950098 65:-0.949927 66:-0.949767 67:-0.950159 68:-0.949986 69:-0.949805 70:-0.949779 71:-0.949603 72:-0.949576 73:-0.949463 74:-0.949431 75:-0.949283 76:-0.949197 77:-0.949308 78:-0.949456 79:-0.949499 80:-0.949508 81:-0.949404 82:-0.949334 83:-0.948754 84:-0.946496 85:-0.944638 86:-0.942531 87:-0.940321 88:-0.938166 89:-0.936071 90:-0.934097 91:-0.932198 92:-0.930097 93:-0.928305 94:-0.926379 95:-0.924707 96:-0.92311 97:-0.921849 98:-0.920431 99:-0.919105 100:-0.917825 101:-0.916397 102:-0.915412 103:-0.914544 104:-0.915159 
2048 1:-0.962717 2:-0.942469 3:-0.957014 4:-0.968138 5:-0.804573 6:-0.81165 7:-0.823454 8:-0.822557 9:-0.820883 10:-0.819521 11:-0.82057 12:-0.853844 13:-0.881342 14:-0.894908 15:-0.908455 16:-0.911867 17:-0.903667 18:-0.89998 19:-0.893354 20:-0.888983 21:-0.896495 22:-0.908447 23:-0.917472 24:-0.925022 25:-0.926424 26:-0.927104 27:-0.929166 28:-0.932945 29:-0.936776 30:-0.940314 31:-0.943754 32:-0.946392 33:-0.949257 34:-0.951914 35:-0.954558 36:-0.956565 37:-0.958663 38:-0.960751 39:-0.962724 40:-0.96458 41:-0.965376 42:-0.965995 43:-0.966402 44:-0.966788 45:-0.967319 46:-0.967351 47:-0.967359 48:-0.967385 49:-0.967409 50:-0.967634 51:-0.967657 52:-0.967614 53:-0.967805 54:-0.968024 55:-0.968438 56:-0.969767 57:-0.970473 58:-0.970388 59:-0.970304 60:-0.97028 61:-0.97023 62:-0.970153 63:-0.97016 64:-0.970091 65:-0.97002 66:-0.970139 67:-0.970072 68:-0.969993 69:-0.970069 70:-0.969978 71:-0.969889 72:-0.970364 73:-0.970549 74:-0.970462 75:-0.970497 76:-0.970416 77:-0.970338 78:-0.970325 79:-0.970232 80:-0.970153 81:-0.970058 82:-0.970091 83:-0.969571 84:-0.967164 85:-0.964927 86:-0.962788 87:-0.960622 88:-0.958375 89:-0.956323 90:-0.954368 91:-0.952644 92:-0.950583 93:-0.948703 94:-0.946839 95:-0.945256 96:-0.943386 97:-0.941882 98:-0.940095 99:-0.938482 100:-0.936909 101:-0.935367 102:-0.933816 103:-0.932342 104:-0.933129 
2048 1:-0.969707 2:-0.938285 3:-0.957722 4:-0.967872 5:-0.805597 6:-0.809889 7:-0.820436 8:-0.821542 9:-0.818322 10:-0.818086 11:-0.817754 12:-0.851313 13:-0.878831 14:-0.89261 15:-0.907622 16:-0.912341 17:-0.904085 18:-0.899831 19:-0.893198 20:-0.889269 21:-0.896067 22:-0.908028 23:-0.917061 24:-0.924404 25:-0.925822 26:-0.926931 27:-0.928792 28:-0.932577 29:-0.936594 30:-0.940129 31:-0.943239 32:-0.945993 33:-0.949074 34:-0.951729 35:-0.954223 36:-0.956241 37:-0.95861 38:-0.960692 39:-0.962659 40:-0.96419 41:-0.965178 42:-0.965493 43:-0.965906 44:-0.966702 45:-0.966958 46:-0.966992 47:-0.967002 48:-0.967174 49:-0.967197 50:-0.967223 51:-0.96725 52:-0.96769 53:-0.967817 54:-0.967913 55:-0.968331 56:-0.96958 57:-0.969757 58:-0.969681 59:-0.969689 60:-0.969618 61:-0.969784 62:-0.969711 63:-0.969644 64:-0.969655 65:-0.969587 66:-0.970483 67:-0.970572 68:-0.970481 69:-0.970379 70:-0.97028 71:-0.97025 72:-0.970154 73:-0.970192 74:-0.970104 75:-0.970026 76:-0.970012 77:-0.969936 78:-0.969864 79:-0.969834 80:-0.969768 81:-0.969724 82:-0.969641 83:-0.969123 84:-0.966719 85:-0.964598 86:-0.962349 87:-0.960186 88:-0.957996 89:-0.955946 90:-0.953994 91:-0.952241 92:-0.950183 93:-0.948304 94:-0.946469 95:-0.944839 96:-0.943066 97:-0.941466 98:-0.939682 99:-0.938071 100:-0.936547 101:-0.93496 102:-0.93341 103:-0.932027 104:-0.932814 
2048 1:-0.962717 2:-0.940377 3:-0.958678 4:-0.967796 5:-0.809985 6:-0.812016 7:-0.817696 8:-0.822675 9:-0.819225 10:-0.818107 11:-0.818387 12:-0.853256 13:-0.880319 14:-0.893956 15:-0.908377 16:-0.911774 17:-0.903562 18:-0.899545 19:-0.89293 20:-0.888571 21:-0.895814 22:-0.907786 23:-0.91683 24:-0.923957 25:-0.925612 26:-0.926318 27:-0.928205 28:-0.932488 29:-0.936326 30:-0.939871 31:-0.943229 32:-0.945877 33:-0.94875 34:-0.951414 35:-0.953918 36:-0.956222 37:-0.958322 38:-0.960412 39:-0.962386 40:-0.964178 41:-0.964919 42:-0.96524 43:-0.965659 44:-0.966286 45:-0.966552 46:-0.966596 47:-0.966615 48:-0.96686 49:-0.96689 50:-0.966922 51:-0.966955 52:-0.96692 53:-0.967136 54:-0.967897 55:-0.967848 56:-0.968853 57:-0.969479 58:-0.970233 59:-0.970146 60:-0.970307 61:-0.970225 62:-0.97016 63:-0.970146 64:-0.970073 65:-0.969997 66:-0.970075 67:-0.970004 68:-0.969922 69:-0.969829 70:-0.969876 71:-0.969784 72:-0.969694 73:-0.969607 74:-0.969527 75:-0.969582 76:-0.969665 77:-0.969599 78:-0.969531 79:-0.96949 80:-0.969524 81:-0.969484 82:-0.969404 83:-0.968889 84:-0.966488 85:-0.964258 86:-0.962153 87:-0.959992 88:-0.957827 89:-0.955779 90:-0.953829 91:-0.951977 92:-0.949922 93:-0.948148 94:-0.946264 95:-0.944636 96:-0.942781 97:-0.941222 98:-0.93944 99:-0.937951 100:-0.936494 101:-0.934908 102:-0.933359 103:-0.931888 104:-0.932678 
2048 1:-0.970193 2:-0.935146 3:-0.956975 4:-0.967662 5:-0.807641 6:-0.810749 7:-0.817341 8:-0.821901 9:-0.819429 10:-0.818233 11:-0.817841 12:-0.851905 13:-0.878838 14:-0.892589 15:-0.906398 16:-0.911314 17:-0.903118 18:-0.898796 19:-0.892511 20:-0.888441 21:-0.895164 22:-0.907784 23:-0.916814 24:-0.924251 25:-0.925663 26:-0.926355 27:-0.928229 28:-0.932214 29:-0.936052 30:-0.939775 31:-0.943051 32:-0.945695 33:-0.948566 34:-0.951531 35:-0.954022 36:-0.95603 37:-0.958127 38:-0.960349 39:-0.962317 40:-0.963976 41:-0.964715 42:-0.965034 43:-0.965452 44:-0.965849 45:-0.966119 46:-0.966441 47:-0.966457 48:-0.966492 49:-0.966766 50:-0.966794 51:-0.966824 52:-0.966787 53:-0.966831 54:-0.967657 55:-0.967799 56:-0.969035 57:-0.96976 58:-0.969679 59:-0.969598 60:-0.969524 61:-0.969607 62:-0.969556 63:-0.96954 64:-0.969473 65:-0.969623 66:-0.969555 67:-0.969489 68:-0.969411 69:-0.970304 70:-0.97036 71:-0.970257 72:-0.970157 73:-0.970124 74:-0.970033 75:-0.969953 76:-0.969999 77:-0.969919 78:-0.969844 79:-0.96975 80:-0.96967 81:-0.969693 82:-0.969665 83:-0.969144 84:-0.966736 85:-0.964555 86:-0.962303 87:-0.960137 88:-0.95789 89:-0.955891 90:-0.953937 91:-0.952184 92:-0.950123 93:-0.948243 94:-0.946455 95:-0.944822 96:-0.942951 97:-0.941398 98:-0.939611 99:-0.937998 100:-0.936472 101:-0.934929 102:-0.933377 103:-0.931903 104:-0.932646 
2048 1:-0.975047 2:-0.946653 3:-0.962242 4:-0.96763 5:-0.792923 6:-0.805664 7:-0.817761 8:-0.81851 9:-0.815912 10:-0.815378 11:-0.81607 12:-0.849827 13:-0.87701 14:-0.89097 15:-0.904843 16:-0.909656 17:-0.901625 18:-0.89744 19:-0.89155 20:-0.887286 21:-0.894094 22:-0.906176 23:-0.915526 24:-0.922718 25:-0.92422 26:-0.924995 27:-0.926944 28:-0.931282 29:-0.935257 30:-0.938845 31:-0.942004 32:-0.945022 33:-0.947928 34:-0.950622 35:-0.953154 36:-0.955484 37:-0.957608 38:-0.959721 39:-0.961718 40:-0.96353 41:-0.964291 42:-0.964631 43:-0.965068 44:-0.965484 45:-0.966053 46:-0.966111 47:-0.966143 48:-0.966341 49:-0.966385 50:-0.96643 51:-0.966476 52:-0.966453 53:-0.966632 54:-0.967 55:-0.967235 56:-0.968589 57:-0.969742 58:-0.969668 59:-0.969594 60:-0.969608 61:-0.96954 62:-0.969471 63:-0.969487 64:-0.969427 65:-0.969363 66:-0.96947 67:-0.969431 68:-0.96936 69:-0.96931 70:-0.969228 71:-0.969147 72:-0.969069 73:-0.969158 74:-0.969086 75:-0.969024 76:-0.968992 77:-0.968931 78:-0.968873 79:-0.968948 80:-0.968887 81:-0.968805 82:-0.968735 83:-0.968231 84:-0.96584 85:-0.963759 86:-0.961522 87:-0.959371 88:-0.957138 89:-0.9551 90:-0.953159 91:-0.951448 92:-0.9494 93:-0.947532 94:-0.945657 95:-0.944037 96:-0.942179 97:-0.940799 98:-0.939024 99:-0.937421 100:-0.935858 101:-0.93428 102:-0.932739 103:-0.931541 104:-0.932291 
2048 1:-0.972523 2:-0.937238 3:-0.955902 4:-0.967603 5:-0.809624 6:-0.813808 7:-0.815453 8:-0.823351 9:-0.819694 10:-0.818435 11:-0.817999 12:-0.852032 13:-0.878941 14:-0.892672 15:-0.907383 16:-0.911012 17:-0.902831 18:-0.898524 19:-0.891952 20:-0.888191 21:-0.894921 22:-0.906919 23:-0.915986 24:-0.923586 25:-0.925025 26:-0.925741 27:-0.927637 28:-0.931453 29:-0.935316 30:-0.939233 31:-0.942361 32:-0.945512 33:-0.948385 34:-0.951048 35:-0.953552 36:-0.95557 37:-0.957678 38:-0.960178 39:-0.962149 40:-0.963682 41:-0.964426 42:-0.96475 43:-0.965289 44:-0.965688 45:-0.965959 46:-0.966008 47:-0.966032 48:-0.966335 49:-0.966369 50:-0.966948 51:-0.966972 52:-0.96693 53:-0.967065 54:-0.967593 55:-0.967821 56:-0.969174 57:-0.969608 58:-0.969612 59:-0.969531 60:-0.969456 61:-0.969542 62:-0.969466 63:-0.969474 64:-0.969911 65:-0.970466 66:-0.97054 67:-0.970456 68:-0.970361 69:-0.970255 70:-0.970152 71:-0.970118 72:-0.970018 73:-0.970053 74:-0.969961 75:-0.96988 76:-0.969799 77:-0.969783 78:-0.969708 79:-0.969614 80:-0.969535 81:-0.969589 82:-0.969502 83:-0.96901 84:-0.966602 85:-0.964366 86:-0.962115 87:-0.95995 88:-0.957808 89:-0.955814 90:-0.953858 91:-0.952054 92:-0.950045 93:-0.948164 94:-0.946276 95:-0.944643 96:-0.942822 97:-0.941222 98:-0.939436 99:-0.937824 100:-0.936345 101:-0.934757 102:-0.933205 103:-0.931732 104:-0.932652 
1200.894356779367 1:-0.973785 2:-0.937238 3:-0.955596 4:-0.967502 5:-0.803849 6:-0.810946 7:-0.817199 8:-0.820804 9:-0.81851 10:-0.817438 11:-0.817132 12:-0.851249 13:-0.878226 14:-0.892013 15:-0.90656 16:-0.910068 17:-0.901954 18:-0.898342 19:-0.891775 20:-0.887461 21:-0.894226 22:-0.906253 23:-0.915822 24:-0.922972 25:-0.924434 26:-0.925173 27:-0.927089 28:-0.930922 29:-0.935345 30:-0.938908 31:-0.942043 32:-0.944715 33:-0.94761 34:-0.950295 35:-0.952819 36:-0.955216 37:-0.957535 38:-0.959633 39:-0.961615 40:-0.96316 41:-0.963915 42:-0.96425 43:-0.964682 44:-0.965093 45:-0.965376 46:-0.965436 47:-0.965891 48:-0.965933 49:-0.965973 50:-0.966014 51:-0.966057 52:-0.966271 53:-0.967339 54:-0.967704 55:-0.967967 56:-0.969065 57:-0.970358 58:-0.970595 59:-0.970738 60:-0.970798 61:-0.970698 62:-0.970679 63:-0.970587 64:-0.970574 65:-0.970482 66:-0.970397 67:-0.970386 68:-0.97029 69:-0.970184 70:-0.970254 71:-0.970182 72:-0.970079 73:-0.969979 74:-0.969887 75:-0.969967 76:-0.969914 77:-0.969832 78:-0.969755 79:-0.96972 80:-0.969638 81:-0.96954 82:-0.969453 83:-0.969077 84:-0.966667 85:-0.964428 86:-0.962175 87:-0.960009 88:-0.957761 89:-0.95589 90:-0.953933 91:-0.952074 92:-0.950012 93:-0.948131 94:-0.946392 95:-0.944757 96:-0.942885 97:-0.941282 98:-0.939542 99:-0.937928 100:-0.936353 101:-0.93481 102:-0.933302 103:-0.931827 104:-0.932569 
2048 1:-0.973688 2:-0.937238 3:-0.955518 4:-0.967397 5:-0.808145 6:-0.812983 7:-0.813172 8:-0.822881 9:-0.819275 10:-0.818776 11:-0.81826 12:-0.851688 13:-0.879101 14:-0.892795 15:-0.906447 16:-0.910329 17:-0.902186 18:-0.897911 19:-0.891365 20:-0.887071 21:-0.893851 22:-0.90652 23:-0.915595 24:-0.923084 25:-0.924536 26:-0.925265 27:-0.927172 28:-0.930997 29:-0.935326 30:-0.938885 31:-0.942017 32:-0.945094 33:-0.948124 34:-0.950789 35:-0.953293 36:-0.955671 37:-0.957769 38:-0.959857 39:-0.962159 40:-0.963686 41:-0.964424 42:-0.964742 43:-0.965454 44:-0.966098 45:-0.966354 46:-0.966388 47:-0.966397 48:-0.966426 49:-0.966485 50:-0.96658 51:-0.967098 52:-0.967215 53:-0.967176 54:-0.967169 55:-0.967444 56:-0.96881 57:-0.969531 58:-0.969448 59:-0.969531 60:-0.969452 61:-0.969374 62:-0.969376 63:-0.969304 64:-0.969235 65:-0.969164 66:-0.969098 67:-0.969216 68:-0.969171 69:-0.96908 70:-0.968991 71:-0.968904 72:-0.968818 73:-0.968901 74:-0.968823 75:-0.968755 76:-0.968686 77:-0.968647 78:-0.968584 79:-0.968655 80:-0.968587 81:-0.9685 82:-0.968425 83:-0.968266 84:-0.966237 85:-0.964144 86:-0.961894 87:-0.959772 88:-0.957526 89:-0.955475 90:-0.953726 91:-0.95192 92:-0.949859 93:-0.947978 94:-0.94609 95:-0.944507 96:-0.942636 97:-0.941035 98:-0.939249 99:-0.937637 100:-0.936064 101:-0.934477 102:-0.933041 103:-0.931589 104:-0.932466 
2048 1:-0.962425 2:-0.937238 3:-0.958009 4:-0.967391 5:-0.822051 6:-0.819816 7:-0.818062 8:-0.825394 9:-0.821311 10:-0.81976 11:-0.819118 12:-0.853016 13:-0.880825 14:-0.89458 15:-0.908264 16:-0.911633 17:-0.903397 18:-0.89936 19:-0.892727 20:-0.888353 21:-0.895069 22:-0.907554 23:-0.916585 24:-0.924366 25:-0.925764 26:-0.926443 27:-0.928305 28:-0.932565 29:-0.936381 30:-0.939906 31:-0.943006 32:-0.945645 33:-0.94851 34:-0.951391 35:-0.953881 36:-0.955887 37:-0.958331 38:-0.960407 39:-0.962555 40:-0.964075 41:-0.964806 42:-0.965117 43:-0.965528 44:-0.966206 45:-0.966463 46:-0.966544 47:-0.966553 48:-0.966581 49:-0.966607 50:-0.966635 51:-0.966664 52:-0.966626 53:-0.966971 54:-0.967057 55:-0.967714 56:-0.968233 57:-0.969541 58:-0.970178 59:-0.970085 60:-0.97008 61:-0.969993 62:-0.969908 63:-0.969829 64:-0.96983 65:-0.96975 66:-0.969863 67:-0.969788 68:-0.969703 69:-0.969706 70:-0.969609 71:-0.969514 72:-0.969422 73:-0.969331 74:-0.969249 75:-0.969501 76:-0.969601 77:-0.969524 78:-0.969451 79:-0.96936 80:-0.969283 81:-0.969189 82:-0.969254 83:-0.968736 84:-0.966331 85:-0.964098 86:-0.961849 87:-0.959823 88:-0.957578 89:-0.955527 90:-0.953575 91:-0.951721 92:-0.949793 93:-0.947914 94:-0.946028 95:-0.944419 96:-0.94255 97:-0.940952 98:-0.939169 99:-0.937558 100:-0.936106 101:-0.934539 102:-0.933035 103:-0.931563 104:-0.932307 
2048 1:-0.95427 2:-0.937238 3:-0.955654 4:-0.967317 5:-0.809322 6:-0.813515 7:-0.822569 8:-0.825179 9:-0.821096 10:-0.819547 11:-0.819524 12:-0.854826 13:-0.8819 14:-0.896737 15:-0.91004 16:-0.913243 17:-0.904862 18:-0.900382 19:-0.893964 20:-0.889496 21:-0.896136 22:-0.908055 23:-0.917647 24:-0.924702 25:-0.926073 26:-0.926727 27:-0.928567 28:-0.932489 29:-0.936605 30:-0.940113 31:-0.943342 32:-0.94596 33:-0.948807 34:-0.951447 35:-0.954238 36:-0.956284 37:-0.958361 38:-0.960429 39:-0.962713 40:-0.964338 41:-0.965056 42:-0.965355 43:-0.965871 44:-0.966361 45:-0.966609 46:-0.966743 47:-0.966743 48:-0.966761 49:-0.966795 50:-0.966996 51:-0.967013 52:-0.966963 53:-0.967022 54:-0.967198 55:-0.967669 56:-0.967741 57:-0.9689 58:-0.970189 59:-0.970559 60:-0.970542 61:-0.970467 62:-0.970425 63:-0.970333 64:-0.970245 65:-0.970231 66:-0.970331 67:-0.970246 68:-0.970251 69:-0.970142 70:-0.970036 71:-0.969931 72:-0.969998 73:-0.969896 74:-0.969802 75:-0.969793 76:-0.96973 77:-0.969648 78:-0.96957 79:-0.969474 80:-0.969393 81:-0.969445 82:-0.969356 83:-0.968834 84:-0.966533 85:-0.964323 86:-0.962069 87:-0.959901 88:-0.957707 89:-0.955652 90:-0.953798 91:-0.951938 92:-0.949876 93:-0.948044 94:-0.946154 95:-0.94452 96:-0.942743 97:-0.94114 98:-0.939352 99:-0.937738 100:-0.936163 101:-0.93462 102:-0.933067 103:-0.93168 104:-0.932377 
2048 1:-0.9733 2:-0.939331 3:-0.956305 4:-0.967267 5:-0.803656 6:-0.812788 7:-0.820226 8:-0.821706 9:-0.818319 10:-0.817247 11:-0.816943 12:-0.851057 13:-0.878031 14:-0.891818 15:-0.906363 16:-0.910814 17:-0.903443 18:-0.899069 19:-0.89244 20:-0.888907 21:-0.895579 22:-0.907526 23:-0.916548 24:-0.923654 25:-0.92529 26:-0.92598 27:-0.927853 28:-0.932095 29:-0.935947 30:-0.939563 31:-0.942668 32:-0.94531 33:-0.948179 34:-0.950839 35:-0.95378 36:-0.955782 37:-0.957874 38:-0.959956 39:-0.961924 40:-0.963775 41:-0.964508 42:-0.964873 43:-0.965284 44:-0.965675 45:-0.965939 46:-0.965981 47:-0.965998 48:-0.966033 49:-0.966265 50:-0.966546 51:-0.966572 52:-0.966572 53:-0.966546 54:-0.967703 55:-0.967645 56:-0.967863 57:-0.969182 58:-0.970323 59:-0.970361 60:-0.970289 61:-0.970195 62:-0.970255 63:-0.970167 64:-0.970158 65:-0.970145 66:-0.970061 67:-0.96998 68:-0.970068 69:-0.969962 70:-0.969858 71:-0.969756 72:-0.969816 73:-0.969716 74:-0.969625 75:-0.969545 76:-0.969464 77:-0.969543 78:-0.969555 79:-0.969459 80:-0.969379 81:-0.969281 82:-0.969194 83:-0.968674 84:-0.966409 85:-0.9642 86:-0.961948 87:-0.959782 88:-0.957534 89:-0.955482 90:-0.953528 91:-0.95177 92:-0.949766 93:-0.947885 94:-0.945998 95:-0.944365 96:-0.942495 97:-0.940991 98:-0.939205 99:-0.93764 100:-0.936066 101:-0.934478 102:-0.932927 103:-0.931453 104:-0.932286 
831.8898928281459 1:-0.949318 2:-0.846234 3:-0.892487 4:-0.958061 5:-0.813842 6:-0.808303 7:-0.826078 8:-0.819524 9:-0.814843 10:-0.812938 11:-0.811421 12:-0.845067 13:-0.87118 14:-0.884284 15:-0.897914 16:-0.901527 17:-0.893215 18:-0.88865 19:-0.883324 20:-0.879421 21:-0.887411 22:-0.899425 23:-0.908737 24:-0.915534 25:-0.917067 26:-0.917525 27:-0.919177 28:-0.922762 29:-0.926867 30:-0.930219 31:-0.933576 32:-0.93605 33:-0.938764 34:-0.941426 35:-0.94393 36:-0.947923 37:-0.950434 38:-0.952648 39:-0.95456 40:-0.95591 41:-0.956734 42:-0.956894 43:-0.95721 44:-0.957991 45:-0.958112 46:-0.958219 47:-0.95889 48:-0.959228 49:-0.959366 50:-0.959394 51:-0.95953 52:-0.959352 53:-0.959422 54:-0.959297 55:-0.95914 56:-0.958992 57:-0.958832 58:-0.958695 59:-0.958769 60:-0.95864 61:-0.95899 62:-0.960038 63:-0.960269 64:-0.960124 65:-0.960732 66:-0.960894 67:-0.96092 68:-0.961035 69:-0.960931 70:-0.961223 71:-0.961469 72:-0.961426 73:-0.961252 74:-0.961318 75:-0.961316 76:-0.961348 77:-0.961342 78:-0.96147 79:-0.961301 80:-0.961452 81:-0.961279 82:-0.961352 83:-0.960932 84:-0.958606 85:-0.956379 86:-0.954516 87:-0.952648 88:-0.950333 89:-0.948269 90:-0.946249 91:-0.944329 92:-0.942311 93:-0.94037 94:-0.938425 95:-0.936833 96:-0.93503 97:-0.93365 98:-0.932357 99:-0.93121 100:-0.929571 101:-0.928286 102:-0.926961 103:-0.92587 104:-0.926843 
2048 1:-0.95058 2:-0.867155 3:-0.903604 4:-0.961267 5:-0.806726 6:-0.824267 7:-0.825447 8:-0.826076 9:-0.83341 10:-0.837342 11:-0.834481 12:-0.865481 13:-0.889958 14:-0.902126 15:-0.914515 16:-0.916563 17:-0.907541 18:-0.902194 19:-0.895032 20:-0.889955 21:-0.896239 22:-0.90763 23:-0.916386 24:-0.92305 25:-0.92424 26:-0.924548 27:-0.926267 28:-0.929729 29:-0.933449 30:-0.936708 31:-0.939899 32:-0.942297 33:-0.944939 34:-0.947536 35:-0.949831 36:-0.951934 37:-0.953849 38:-0.956859 39:-0.96049 40:-0.961919 41:-0.962567 42:-0.96292 43:-0.963135 44:-0.96334 45:-0.963651 46:-0.963857 47:-0.964097 48:-0.963958 49:-0.964129 50:-0.963998 51:-0.963876 52:-0.963691 53:-0.964562 54:-0.964553 55:-0.964436 56:-0.964713 57:-0.965174 58:-0.964994 59:-0.965317 60:-0.965141 61:-0.96497 62:-0.964881 63:-0.964723 64:-0.964722 65:-0.964944 66:-0.964976 67:-0.964825 68:-0.964864 69:-0.965036 70:-0.965026 71:-0.964853 72:-0.96482 73:-0.964923 74:-0.964791 75:-0.964644 76:-0.964926 77:-0.964883 78:-0.964741 79:-0.964695 80:-0.964733 81:-0.96467 82:-0.964536 83:-0.964345 84:-0.961994 85:-0.959981 86:-0.95788 87:-0.955871 88:-0.953741 89:-0.951872 90:-0.950265 91:-0.948472 92:-0.946467 93:-0.94452 94:-0.942568 95:-0.940922 96:-0.93899 97:-0.93733 98:-0.935486 99:-0.933909 100:-0.93228 101:-0.930683 102:-0.929481 103:-0.928299 104:-0.929419 
1354.321002507211 1:-0.961163 2:-0.862971 3:-0.90339 4:-0.960393 5:-0.801517 6:-0.831254 7:-0.830012 8:-0.822207 9:-0.816805 10:-0.816075 11:-0.81525 12:-0.847908 13:-0.877797 14:-0.895879 15:-0.910994 16:-0.913258 17:-0.904774 18:-0.899568 19:-0.89252 20:-0.887506 21:-0.893915 22:-0.905623 23:-0.914194 24:-0.92089 25:-0.922161 26:-0.922729 27:-0.92429 28:-0.927984 29:-0.931553 30:-0.934849 31:-0.938072 32:-0.940501 33:-0.943171 34:-0.945643 35:-0.947968 36:-0.949964 37:-0.952677 38:-0.956722 39:-0.958874 40:-0.960194 41:-0.960863 42:-0.960996 43:-0.961471 44:-0.961695 45:-0.962193 46:-0.962075 47:-0.962205 48:-0.962275 49:-0.962158 50:-0.96215 51:-0.962047 52:-0.962072 53:-0.961924 54:-0.961719 55:-0.961574 56:-0.961439 57:-0.961292 58:-0.961421 59:-0.961292 60:-0.961173 61:-0.961649 62:-0.962603 63:-0.963021 64:-0.963033 65:-0.96289 66:-0.963312 67:-0.963585 68:-0.963472 69:-0.96358 70:-0.963415 71:-0.963321 72:-0.963163 73:-0.963009 74:-0.963029 75:-0.963 76:-0.962913 77:-0.962801 78:-0.962811 79:-0.962735 80:-0.963191 81:-0.963168 82:-0.963315 83:-0.963029 84:-0.960723 85:-0.958487 86:-0.956676 87:-0.954563 88:-0.95226 89:-0.950153 90:-0.948278 91:-0.946368 92:-0.944466 93:-0.942548 94:-0.94061 95:-0.939052 96:-0.937308 97:-0.935881 98:-0.934045 99:-0.932615 100:-0.931169 101:-0.929854 102:-0.928634 103:-0.92734 104:-0.928544 
153.9965060606075 1:-0.951939 2:-0.816946 3:-0.885707 4:-0.95597 5:-0.831145 6:-0.822898 7:-0.827693 8:-0.824695 9:-0.8295 10:-0.825254 11:-0.82159 12:-0.853239 13:-0.878738 14:-0.891321 15:-0.903649 16:-0.906431 17:-0.897714 18:-0.892955 19:-0.885676 20:-0.880761 21:-0.887468 22:-0.899444 23:-0.908498 24:-0.915178 25:-0.916451 26:-0.916821 27:-0.91859 28:-0.922092 29:-0.925846 30:-0.929312 31:-0.932189 32:-0.934782 33:-0.937921 34:-0.942465 35:-0.945874 36:-0.948562 37:-0.950923 38:-0.953265 39:-0.955087 40:-0.95635 41:-0.956969 42:-0.957263 43:-0.957708 44:-0.95846 45:-0.958819 46:-0.959743 47:-0.959584 48:-0.959397 49:-0.959422 50:-0.959501 51:-0.959621 52:-0.959867 53:-0.960038 54:-0.960349 55:-0.960247 56:-0.960426 57:-0.960399 58:-0.960484 59:-0.960478 60:-0.960272 61:-0.960502 62:-0.960298 63:-0.960276 64:-0.960338 65:-0.960335 66:-0.960151 67:-0.960357 68:-0.960516 69:-0.96031 70:-0.960109 71:-0.960184 72:-0.959989 73:-0.960125 74:-0.960514 75:-0.960463 76:-0.960284 77:-0.960111 78:-0.959944 79:-0.959943 80:-0.959779 81:-0.959594 82:-0.959542 83:-0.959001 84:-0.957083 85:-0.95497 86:-0.952808 87:-0.950674 88:-0.949025 89:-0.946982 90:-0.945258 91:-0.943652 92:-0.941632 93:-0.939671 94:-0.938295 95:-0.936776 96:-0.934824 97:-0.93319 98:-0.931418 99:-0.929819 100:-0.928393 101:-0.927 102:-0.925635 103:-0.924127 104:-0.925133 
2048 1:-0.960484 2:-0.865063 3:-0.905653 4:-0.961704 5:-0.802968 6:-0.804055 7:-0.798957 8:-0.814519 9:-0.818931 10:-0.817053 11:-0.816086 12:-0.849267 13:-0.875452 14:-0.889049 15:-0.902216 16:-0.905705 17:-0.897244 18:-0.892702 19:-0.885909 20:-0.883133 21:-0.892625 22:-0.904398 23:-0.913107 24:-0.920489 25:-0.921643 26:-0.922097 27:-0.924246 28:-0.927986 29:-0.931615 30:-0.934966 31:-0.937904 32:-0.940392 33:-0.943589 34:-0.946097 35:-0.948456 36:-0.950453 37:-0.953248 38:-0.95712 39:-0.959335 40:-0.960685 41:-0.961505 42:-0.961661 43:-0.961923 44:-0.962401 45:-0.962808 46:-0.96271 47:-0.962592 48:-0.962914 49:-0.963355 50:-0.963447 51:-0.963349 52:-0.963188 53:-0.963233 54:-0.963032 55:-0.962891 56:-0.962759 57:-0.962616 58:-0.962707 59:-0.962622 60:-0.962506 61:-0.962472 62:-0.962511 63:-0.962952 64:-0.963702 65:-0.964016 66:-0.963961 67:-0.96417 68:-0.964238 69:-0.964285 70:-0.964568 71:-0.96448 72:-0.964326 73:-0.964177 74:-0.964332 75:-0.9642 76:-0.964596 77:-0.964829 78:-0.964695 79:-0.964545 80:-0.964473 81:-0.96438 82:-0.964359 83:-0.964224 84:-0.961839 85:-0.959694 86:-0.957688 87:-0.955706 88:-0.953576 89:-0.951604 90:-0.949595 91:-0.947686 92:-0.94559 93:-0.943737 94:-0.942053 95:-0.94037 96:-0.938697 97:-0.937046 98:-0.935345 99:-0.933828 100:-0.932436 101:-0.93113 102:-0.929829 103:-0.928618 104:-0.929738 
2048 1:-0.950774 2:-0.862971 3:-0.902434 4:-0.961364 5:-0.802432 6:-0.803533 7:-0.799882 8:-0.813841 9:-0.81918 10:-0.816447 11:-0.826833 12:-0.858145 13:-0.883862 14:-0.896163 15:-0.908663 16:-0.911199 17:-0.902949 18:-0.897944 19:-0.890768 20:-0.885926 21:-0.892215 22:-0.903812 23:-0.913119 24:-0.919912 25:-0.921378 26:-0.921819 27:-0.923657 28:-0.927415 29:-0.931044 30:-0.934488 31:-0.937593 32:-0.940147 33:-0.943018 34:-0.945527 35:-0.947886 36:-0.950049 37:-0.952549 38:-0.956457 39:-0.958758 40:-0.960235 41:-0.961175 42:-0.961325 43:-0.96223 44:-0.962458 45:-0.962721 46:-0.962887 47:-0.962752 48:-0.962897 49:-0.962788 50:-0.962687 51:-0.962595 52:-0.962531 53:-0.962392 54:-0.962197 55:-0.962156 56:-0.962156 57:-0.962014 58:-0.961893 59:-0.961979 60:-0.961946 61:-0.962034 62:-0.963196 63:-0.963786 64:-0.963801 65:-0.963661 66:-0.963824 67:-0.963836 68:-0.96379 69:-0.963925 70:-0.964002 71:-0.964026 72:-0.964064 73:-0.964199 74:-0.96412 75:-0.964105 76:-0.963967 77:-0.963834 78:-0.963829 79:-0.963804 80:-0.963886 81:-0.963894 82:-0.964009 83:-0.963952 84:-0.96158 85:-0.959345 86:-0.957425 87:-0.955738 88:-0.953694 89:-0.95158 90:-0.949565 91:-0.947724 92:-0.945607 93:-0.943798 94:-0.94188 95:-0.940192 96:-0.93827 97:-0.936618 98:-0.934998 99:-0.933449 100:-0.932129 101:-0.93095 102:-0.929654 103:-0.928561 104:-0.92959 
2048 1:-0.950774 2:-0.873431 3:-0.905444 4:-0.961058 5:-0.804415 6:-0.804448 7:-0.800469 8:-0.814402 9:-0.822554 10:-0.819506 11:-0.817565 12:-0.850968 13:-0.883123 14:-0.895483 15:-0.908752 16:-0.911271 17:-0.902318 18:-0.897353 19:-0.890209 20:-0.886098 21:-0.892996 22:-0.904547 23:-0.913214 24:-0.919998 25:-0.921135 26:-0.921583 27:-0.92323 28:-0.926813 29:-0.930461 30:-0.934248 31:-0.937632 32:-0.940106 33:-0.943956 34:-0.946626 35:-0.948947 36:-0.950797 37:-0.95302 38:-0.955672 39:-0.959564 40:-0.961144 41:-0.961933 42:-0.962061 43:-0.962296 44:-0.962863 45:-0.96296 46:-0.962843 47:-0.962707 48:-0.96286 49:-0.962749 50:-0.962882 51:-0.963027 52:-0.962859 53:-0.963021 54:-0.962811 55:-0.96284 56:-0.962697 57:-0.962542 58:-0.962409 59:-0.962278 60:-0.962156 61:-0.962036 62:-0.962005 63:-0.962493 64:-0.963418 65:-0.963357 66:-0.9636 67:-0.963824 68:-0.963708 69:-0.963926 70:-0.964148 71:-0.964086 72:-0.963929 73:-0.963776 74:-0.963763 75:-0.963791 76:-0.963976 77:-0.964046 78:-0.964059 79:-0.964001 80:-0.963868 81:-0.963994 82:-0.964077 83:-0.963633 84:-0.961627 85:-0.95938 86:-0.957075 87:-0.954996 88:-0.952697 89:-0.950595 90:-0.948591 91:-0.946687 92:-0.944581 93:-0.942982 94:-0.941116 95:-0.939733 96:-0.938071 97:-0.936657 98:-0.934879 99:-0.933389 100:-0.931883 101:-0.930524 102:-0.929385 103:-0.928103 104:-0.929095 
1969.284009210461 1:-0.962814 2:-0.873431 3:-0.907493 4:-0.96097 5:-0.797938 6:-0.801302 7:-0.800454 8:-0.816114 9:-0.816656 10:-0.814343 11:-0.820005 12:-0.852069 13:-0.877899 14:-0.891399 15:-0.904305 16:-0.907193 17:-0.898566 18:-0.89388 19:-0.887717 20:-0.883068 21:-0.890149 22:-0.901847 23:-0.910648 24:-0.917551 25:-0.921718 26:-0.922139 27:-0.923763 28:-0.927325 29:-0.931135 30:-0.934478 31:-0.937579 32:-0.940055 33:-0.94277 34:-0.945284 35:-0.947941 36:-0.949822 37:-0.951798 38:-0.956252 39:-0.958638 40:-0.960163 41:-0.960856 42:-0.961012 43:-0.961274 44:-0.961753 45:-0.961878 46:-0.961788 47:-0.962212 48:-0.962114 49:-0.9623 50:-0.962207 51:-0.962122 52:-0.962457 53:-0.962722 54:-0.962518 55:-0.962374 56:-0.962657 57:-0.962529 58:-0.962665 59:-0.96253 60:-0.962609 61:-0.963135 62:-0.962999 63:-0.963066 64:-0.963309 65:-0.963175 66:-0.963581 67:-0.963827 68:-0.963962 69:-0.963926 70:-0.963769 71:-0.963615 72:-0.963662 73:-0.963513 74:-0.963538 75:-0.963597 76:-0.963465 77:-0.963371 78:-0.963578 79:-0.963763 80:-0.963751 81:-0.9636 82:-0.963905 83:-0.963332 84:-0.96111 85:-0.95925 86:-0.956965 87:-0.955272 88:-0.953379 89:-0.951268 90:-0.949463 91:-0.947548 92:-0.945432 93:-0.943497 94:-0.941557 95:-0.939873 96:-0.938167 97:-0.936515 98:-0.93468 99:-0.933019 100:-0.93161 101:-0.930533 102:-0.929261 103:-0.927933 104:-0.928879 
2048 1:-0.966989 2:-0.872385 3:-0.909522 4:-0.960854 5:-0.80235 6:-0.803453 7:-0.798343 8:-0.814957 9:-0.818177 10:-0.823177 11:-0.824932 12:-0.856994 13:-0.882819 14:-0.89521 15:-0.910248 16:-0.912645 17:-0.903585 18:-0.899387 19:-0.892109 20:-0.887175 21:-0.89339 22:-0.905421 23:-0.914046 24:-0.920792 25:-0.921893 26:-0.922718 27:-0.924316 28:-0.927856 29:-0.931827 30:-0.935145 31:-0.938054 32:-0.940514 33:-0.943213 34:-0.946095 35:-0.948504 36:-0.950368 37:-0.952328 38:-0.955824 39:-0.959173 40:-0.961018 41:-0.961688 42:-0.961822 43:-0.96236 44:-0.962611 45:-0.962847 46:-0.962733 47:-0.962868 48:-0.962755 49:-0.962682 50:-0.962789 51:-0.962936 52:-0.96277 53:-0.962763 54:-0.962559 55:-0.962588 56:-0.96245 57:-0.962301 58:-0.962173 59:-0.962212 60:-0.962708 61:-0.962579 62:-0.962452 63:-0.96302 64:-0.963207 65:-0.963339 66:-0.963672 67:-0.963541 68:-0.963939 69:-0.964073 70:-0.964087 71:-0.963961 72:-0.963806 73:-0.963655 74:-0.963705 75:-0.963735 76:-0.963815 77:-0.963683 78:-0.963556 79:-0.963412 80:-0.963403 81:-0.963257 82:-0.963503 83:-0.96302 84:-0.96092 85:-0.959107 86:-0.956878 87:-0.954664 88:-0.952817 89:-0.950874 90:-0.949132 91:-0.94747 92:-0.945355 93:-0.944082 94:-0.942135 95:-0.940444 96:-0.938566 97:-0.93691 98:-0.93507 99:-0.933546 100:-0.931921 101:-0.930328 102:-0.928771 103:-0.927615 104:-0.928636 
2048 1:-0.96262 2:-0.859833 3:-0.902687 4:-0.960756 5:-0.801839 6:-0.802955 7:-0.799293 8:-0.815523 9:-0.821074 10:-0.818641 11:-0.816757 12:-0.857968 13:-0.883144 14:-0.895453 15:-0.908809 16:-0.911282 17:-0.90229 18:-0.898248 19:-0.891012 20:-0.886116 21:-0.89236 22:-0.903916 23:-0.912587 24:-0.919945 25:-0.921368 26:-0.921988 27:-0.923595 28:-0.927331 29:-0.930939 30:-0.93427 31:-0.937518 32:-0.939978 33:-0.942834 34:-0.945328 35:-0.947673 36:-0.949824 37:-0.953487 38:-0.95687 39:-0.95879 40:-0.960213 41:-0.961078 42:-0.961266 43:-0.961626 44:-0.961854 45:-0.961963 46:-0.961858 47:-0.962354 48:-0.962241 49:-0.962433 50:-0.962326 51:-0.962227 52:-0.962064 53:-0.961923 54:-0.961725 55:-0.961812 56:-0.961679 57:-0.961827 58:-0.961945 59:-0.962181 60:-0.962883 61:-0.962898 62:-0.962988 63:-0.963437 64:-0.963506 65:-0.963726 66:-0.96378 67:-0.963694 68:-0.963721 69:-0.963557 70:-0.963635 71:-0.963475 72:-0.963319 73:-0.963233 74:-0.963533 75:-0.963395 76:-0.963322 77:-0.963495 78:-0.963364 79:-0.963397 80:-0.963733 81:-0.963802 82:-0.963829 83:-0.96329 84:-0.961378 85:-0.959218 86:-0.957088 87:-0.954962 88:-0.952794 89:-0.950684 90:-0.948806 91:-0.947024 92:-0.944909 93:-0.942974 94:-0.941225 95:-0.939539 96:-0.937618 97:-0.936267 98:-0.934477 99:-0.932951 100:-0.931735 101:-0.930405 102:-0.929236 103:-0.927952 104:-0.928957 
2048 1:-0.949124 2:-0.865063 3:-0.90209 4:-0.960203 5:-0.801248 6:-0.80238 7:-0.800164 8:-0.815074 9:-0.821558 10:-0.818744 11:-0.817381 12:-0.857899 13:-0.884259 14:-0.896701 15:-0.909045 16:-0.912196 17:-0.903086 18:-0.897986 19:-0.891322 20:-0.886369 21:-0.892563 22:-0.904076 23:-0.913305 24:-0.920137 25:-0.921216 26:-0.921609 27:-0.923207 28:-0.927032 29:-0.930713 30:-0.93403 31:-0.937104 32:-0.939557 33:-0.942406 34:-0.945045 35:-0.94738 36:-0.949385 37:-0.951943 38:-0.95629 39:-0.958312 40:-0.959767 41:-0.960316 42:-0.960818 43:-0.961056 44:-0.961849 45:-0.961944 46:-0.962249 47:-0.9621 48:-0.961979 49:-0.962066 50:-0.961954 51:-0.96185 52:-0.961683 53:-0.961772 54:-0.9617 55:-0.96155 56:-0.96141 57:-0.961258 58:-0.961243 59:-0.961249 60:-0.961126 61:-0.961005 62:-0.960947 63:-0.961792 64:-0.962599 65:-0.962533 66:-0.9624 67:-0.962832 68:-0.962893 69:-0.963013 70:-0.962991 71:-0.962831 72:-0.962676 73:-0.962914 74:-0.962768 75:-0.962822 76:-0.962685 77:-0.96271 78:-0.962693 79:-0.9627 80:-0.962923 81:-0.963275 82:-0.963372 83:-0.962791 84:-0.960344 85:-0.958622 86:-0.956616 87:-0.954712 88:-0.952479 89:-0.950367 90:-0.948353 91:-0.946439 92:-0.944324 93:-0.94239 94:-0.94062 95:-0.939059 96:-0.937137 97:-0.935485 98:-0.933992 99:-0.932605 100:-0.931231 101:-0.929879 102:-0.928601 103:-0.927404 104:-0.928431 
2048 1:-0.947959 2:-0.82636 3:-0.895492 4:-0.960146 5:-0.815976 6:-0.810514 7:-0.802624 8:-0.809946 9:-0.816177 10:-0.813691 11:-0.814213 12:-0.847038 13:-0.873442 14:-0.886563 15:-0.89989 16:-0.903253 17:-0.894816 18:-0.890935 19:-0.884111 20:-0.880155 21:-0.889317 22:-0.901597 23:-0.910783 24:-0.917601 25:-0.918992 26:-0.919467 27:-0.92153 28:-0.925116 29:-0.928948 30:-0.932486 31:-0.935431 32:-0.938087 33:-0.940813 34:-0.943488 35:-0.945855 36:-0.9486 37:-0.952986 38:-0.954877 39:-0.956795 40:-0.958524 41:-0.959094 42:-0.959489 43:-0.959866 44:-0.960111 45:-0.960237 46:-0.960148 47:-0.960764 48:-0.961079 49:-0.960972 50:-0.960874 51:-0.96088 52:-0.960723 53:-0.960774 54:-0.960577 55:-0.960925 56:-0.961192 57:-0.961061 58:-0.961216 59:-0.961571 60:-0.961725 61:-0.961594 62:-0.961693 63:-0.961866 64:-0.962001 65:-0.962387 66:-0.962497 67:-0.962717 68:-0.962777 69:-0.962822 70:-0.962657 71:-0.963022 72:-0.963211 73:-0.9631 74:-0.963009 75:-0.963421 76:-0.963269 77:-0.96328 78:-0.963474 79:-0.963338 80:-0.963465 81:-0.963415 82:-0.963488 83:-0.963185 84:-0.960995 85:-0.958692 86:-0.956593 87:-0.95476 88:-0.952456 89:-0.950462 90:-0.948546 91:-0.946625 92:-0.944502 93:-0.942611 94:-0.940664 95:-0.939072 96:-0.937145 97:-0.935678 98:-0.934263 99:-0.933034 100:-0.931445 101:-0.930115 102:-0.928943 103:-0.927778 104:-0.928777 
2048 1:-0.960969 2:-0.845188 3:-0.896147 4:-0.959601 5:-0.815609 6:-0.808912 7:-0.801375 8:-0.810144 9:-0.816108 10:-0.813554 11:-0.812198 12:-0.84598 13:-0.8722 14:-0.885835 15:-0.899034 16:-0.902935 17:-0.894485 18:-0.889956 19:-0.883164 20:-0.879224 21:-0.88576 22:-0.897566 23:-0.906705 24:-0.913688 25:-0.915024 26:-0.916276 27:-0.918063 28:-0.921769 29:-0.925711 30:-0.929177 31:-0.934169 32:-0.937013 33:-0.939758 34:-0.942334 35:-0.94512 36:-0.949766 37:-0.952269 38:-0.954408 39:-0.956194 40:-0.957678 41:-0.958257 42:-0.958667 43:-0.959231 44:-0.959528 45:-0.959656 46:-0.959781 47:-0.959872 48:-0.960566 49:-0.960692 50:-0.960688 51:-0.960835 52:-0.960895 53:-0.960745 54:-0.96063 55:-0.960553 56:-0.960432 57:-0.960366 58:-0.960236 59:-0.960189 60:-0.960067 61:-0.960028 62:-0.9612 63:-0.961374 64:-0.961509 65:-0.961887 66:-0.961934 67:-0.962213 68:-0.96231 69:-0.962244 70:-0.96215 71:-0.962526 72:-0.962495 73:-0.962464 74:-0.96231 75:-0.962232 76:-0.962568 77:-0.96272 78:-0.962666 79:-0.962551 80:-0.962485 81:-0.962441 82:-0.962292 83:-0.961829 84:-0.959943 85:-0.958329 86:-0.956013 87:-0.953839 88:-0.951531 89:-0.949525 90:-0.947511 91:-0.945649 92:-0.943532 93:-0.941648 94:-0.939707 95:-0.938105 96:-0.936484 97:-0.935141 98:-0.933674 99:-0.932247 100:-0.930841 101:-0.929517 102:-0.928303 103:-0.927203 104:-0.928183 
2048 1:-0.96359 2:-0.866109 3:-0.904599 4:-0.959494 5:-0.800454 6:-0.801722 7:-0.798075 8:-0.814536 9:-0.819152 10:-0.816138 11:-0.820089 12:-0.8544 13:-0.879809 14:-0.893442 15:-0.906116 16:-0.908714 17:-0.899837 18:-0.894937 19:-0.888437 20:-0.883637 21:-0.88995 22:-0.902062 23:-0.910764 24:-0.917577 25:-0.920409 26:-0.920841 27:-0.922447 28:-0.92618 29:-0.929967 30:-0.933289 31:-0.936201 32:-0.938664 33:-0.941837 34:-0.944324 35:-0.946662 36:-0.948672 37:-0.951958 38:-0.955314 39:-0.957347 40:-0.959005 41:-0.959559 42:-0.959876 43:-0.960123 44:-0.960359 45:-0.960476 46:-0.960597 47:-0.960472 48:-0.960375 49:-0.960538 50:-0.960745 51:-0.960655 52:-0.960713 53:-0.960857 54:-0.961085 55:-0.960936 56:-0.960797 57:-0.960646 58:-0.960963 59:-0.960827 60:-0.960906 61:-0.960779 62:-0.961449 63:-0.961319 64:-0.961491 65:-0.961925 66:-0.962165 67:-0.96232 68:-0.962171 69:-0.962013 70:-0.962207 71:-0.962109 72:-0.961956 73:-0.961807 74:-0.961897 75:-0.961766 76:-0.961636 77:-0.961667 78:-0.961594 79:-0.961453 80:-0.961716 81:-0.962267 82:-0.962212 83:-0.961639 84:-0.959667 85:-0.957402 86:-0.955464 87:-0.953457 88:-0.951158 89:-0.949056 90:-0.947317 91:-0.945523 92:-0.943412 93:-0.941483 94:-0.939674 95:-0.938015 96:-0.936099 97:-0.934708 98:-0.93322 99:-0.931912 100:-0.930579 101:-0.929391 102:-0.927874 103:-0.926499 104:-0.927556 
1250.698488417264 1:-0.959416 2:-0.846234 3:-0.895744 4:-0.959284 5:-0.814719 6:-0.808579 7:-0.801036 8:-0.810425 9:-0.814988 10:-0.812571 11:-0.811928 12:-0.8446 13:-0.871414 14:-0.884643 15:-0.897914 16:-0.90113 17:-0.893665 18:-0.889307 19:-0.882535 20:-0.878073 21:-0.884653 22:-0.897124 23:-0.90603 24:-0.913027 25:-0.914377 26:-0.915027 27:-0.917399 28:-0.921239 29:-0.925006 30:-0.928924 31:-0.934167 32:-0.937292 33:-0.940015 34:-0.942535 35:-0.945052 36:-0.947594 37:-0.950955 38:-0.953148 39:-0.955598 40:-0.956961 41:-0.957797 42:-0.957969 43:-0.958364 44:-0.958625 45:-0.958767 46:-0.959241 47:-0.959842 48:-0.960108 49:-0.960353 50:-0.9605 51:-0.960399 52:-0.960234 53:-0.9604 54:-0.960194 55:-0.960137 56:-0.959999 57:-0.959848 58:-0.959721 59:-0.959594 60:-0.959682 61:-0.959672 62:-0.960853 63:-0.961191 64:-0.961282 65:-0.961484 66:-0.961626 67:-0.962087 68:-0.962002 69:-0.961835 70:-0.961846 71:-0.962193 72:-0.96232 73:-0.962253 74:-0.962096 75:-0.961952 76:-0.962095 77:-0.962288 78:-0.962147 79:-0.962228 80:-0.962449 81:-0.962283 82:-0.962409 83:-0.962115 84:-0.959867 85:-0.957868 86:-0.95578 87:-0.95355 88:-0.951241 89:-0.949129 90:-0.947491 91:-0.945626 92:-0.943506 93:-0.941567 94:-0.939623 95:-0.938081 96:-0.93642 97:-0.935294 98:-0.933495 99:-0.932407 100:-0.930964 101:-0.92958 102:-0.928407 103:-0.927265 104:-0.927886 
2048 1:-0.941551 2:-0.839958 3:-0.899249 4:-0.95918 5:-0.813268 6:-0.809793 7:-0.801889 8:-0.809137 9:-0.811767 10:-0.819691 11:-0.820498 12:-0.85277 13:-0.878272 14:-0.890861 15:-0.904008 16:-0.907824 17:-0.899334 18:-0.894426 19:-0.887332 20:-0.882831 21:-0.889414 22:-0.901268 23:-0.909974 24:-0.916792 25:-0.918096 26:-0.918857 27:-0.92052 28:-0.924304 29:-0.928137 30:-0.931677 31:-0.934622 32:-0.937279 33:-0.940006 34:-0.942681 35:-0.945196 36:-0.947231 37:-0.950613 38:-0.953998 39:-0.956362 40:-0.957834 41:-0.958525 42:-0.95868 43:-0.959059 44:-0.959305 45:-0.959655 46:-0.959779 47:-0.959764 48:-0.959668 49:-0.959576 50:-0.959785 51:-0.960648 52:-0.96048 53:-0.960426 54:-0.960221 55:-0.960076 56:-0.96156 57:-0.961807 58:-0.961645 59:-0.961567 60:-0.961416 61:-0.961348 62:-0.96128 63:-0.961142 64:-0.961085 65:-0.961087 66:-0.961604 67:-0.961771 68:-0.961851 69:-0.962143 70:-0.962253 71:-0.962174 72:-0.962124 73:-0.961963 74:-0.961878 75:-0.961802 76:-0.962044 77:-0.962269 78:-0.96225 79:-0.962152 80:-0.962073 81:-0.962042 82:-0.96226 83:-0.961956 84:-0.959852 85:-0.95778 86:-0.955523 87:-0.953298 88:-0.951047 89:-0.948992 90:-0.946981 91:-0.945122 92:-0.943009 93:-0.941256 94:-0.939583 95:-0.937995 96:-0.93623 97:-0.935063 98:-0.933242 99:-0.93162 100:-0.930309 101:-0.928938 102:-0.927644 103:-0.926506 104:-0.927565 
2048 1:-0.963882 2:-0.870293 3:-0.907512 4:-0.958858 5:-0.804633 6:-0.803531 7:-0.799152 8:-0.816146 9:-0.818694 10:-0.820473 11:-0.823966 12:-0.856554 13:-0.881693 14:-0.895144 15:-0.908865 16:-0.911196 17:-0.90243 18:-0.897304 19:-0.890319 20:-0.885367 21:-0.891819 22:-0.903311 23:-0.911926 24:-0.919114 25:-0.92019 26:-0.920584 27:-0.92218 28:-0.925716 29:-0.929777 30:-0.933087 31:-0.93607 32:-0.93893 33:-0.941607 34:-0.944085 35:-0.946415 36:-0.948613 37:-0.95149 38:-0.955351 39:-0.957108 40:-0.958566 41:-0.95943 42:-0.959617 43:-0.959977 44:-0.960204 45:-0.960314 46:-0.960741 47:-0.960602 48:-0.96106 49:-0.960941 50:-0.961217 51:-0.961106 52:-0.961164 53:-0.961827 54:-0.962288 55:-0.962291 56:-0.962204 57:-0.962452 58:-0.962348 59:-0.962179 60:-0.962019 61:-0.962066 62:-0.96191 63:-0.961772 64:-0.961815 65:-0.961742 66:-0.961679 67:-0.961727 68:-0.962113 69:-0.962074 70:-0.962119 71:-0.961957 72:-0.961866 73:-0.961711 74:-0.961693 75:-0.96172 76:-0.961584 77:-0.961452 78:-0.961709 79:-0.96156 80:-0.961431 81:-0.961281 82:-0.961558 83:-0.96153 84:-0.959145 85:-0.957032 86:-0.95483 87:-0.952754 88:-0.950688 89:-0.948864 90:-0.947214 91:-0.945303 92:-0.94319 93:-0.941341 94:-0.939419 95:-0.937736 96:-0.935818 97:-0.934292 98:-0.93248 99:-0.930822 100:-0.929549 101:-0.928073 102:-0.926705 103:-0.925745 104:-0.926731 
2048 1:-0.952619 2:-0.823222 3:-0.891031 4:-0.95812 5:-0.792019 6:-0.796555 7:-0.796517 8:-0.812382 9:-0.809128 10:-0.808205 11:-0.807378 12:-0.840927 13:-0.867458 14:-0.881734 15:-0.89519 16:-0.898508 17:-0.890269 18:-0.885923 19:-0.884451 20:-0.881407 21:-0.887714 22:-0.899319 23:-0.908038 24:-0.915319 25:-0.916491 26:-0.916975 27:-0.918651 28:-0.922822 29:-0.926468 30:-0.930009 31:-0.933124 32:-0.935776 33:-0.938498 34:-0.941169 35:-0.945933 36:-0.948059 37:-0.950169 38:-0.952482 39:-0.954597 40:-0.956181 41:-0.956874 42:-0.95703 43:-0.957293 44:-0.957772 45:-0.957898 46:-0.957917 47:-0.958221 48:-0.958861 49:-0.959138 50:-0.959029 51:-0.958927 52:-0.958952 53:-0.959074 54:-0.958864 55:-0.958941 56:-0.959001 57:-0.959275 58:-0.959343 59:-0.959219 60:-0.95979 61:-0.959812 62:-0.960127 63:-0.960125 64:-0.960556 65:-0.960803 66:-0.9608 67:-0.960747 68:-0.961116 69:-0.96108 70:-0.960975 71:-0.960804 72:-0.960704 73:-0.960738 74:-0.960843 75:-0.961324 76:-0.961169 77:-0.961366 78:-0.961302 79:-0.961195 80:-0.961429 81:-0.961802 82:-0.961755 83:-0.961329 84:-0.958965 85:-0.956826 86:-0.954702 87:-0.952762 88:-0.9505 89:-0.948433 90:-0.946411 91:-0.944542 92:-0.942418 93:-0.940526 94:-0.938579 95:-0.93689 96:-0.935153 97:-0.933856 98:-0.932491 99:-0.930861 100:-0.929594 101:-0.928389 102:-0.927169 103:-0.925994 104:-0.926991 
219.6099031431748 1:-0.940094 2:-0.811715 3:-0.882831 4:-0.954182 5:-0.81167 6:-0.823858 7:-0.820232 8:-0.813016 9:-0.807875 10:-0.807119 11:-0.805824 12:-0.843139 13:-0.868947 14:-0.881809 15:-0.894778 16:-0.9025 17:-0.894284 18:-0.889317 19:-0.882442 20:-0.877612 21:-0.884128 22:-0.897086 23:-0.905923 24:-0.912665 25:-0.913743 26:-0.914351 27:-0.915941 28:-0.919466 29:-0.923516 30:-0.926899 31:-0.929787 32:-0.93427 33:-0.938169 34:-0.941135 35:-0.943432 36:-0.945543 37:-0.947721 38:-0.949557 39:-0.951292 40:-0.952854 41:-0.953387 42:-0.953514 43:-0.954043 44:-0.954314 45:-0.954412 46:-0.954788 47:-0.954888 48:-0.954762 49:-0.954742 50:-0.95512 51:-0.955004 52:-0.95538 53:-0.955211 54:-0.955439 55:-0.955267 56:-0.955194 57:-0.955017 58:-0.95495 59:-0.954799 60:-0.954659 61:-0.955297 62:-0.955383 63:-0.955775 64:-0.956077 65:-0.955921 66:-0.955775 67:-0.956041 68:-0.956847 69:-0.957043 70:-0.9572 71:-0.957016 72:-0.957334 73:-0.957313 74:-0.957655 75:-0.957487 76:-0.957412 77:-0.957439 78:-0.957647 79:-0.957672 80:-0.957808 81:-0.957621 82:-0.957511 83:-0.956912 84:-0.954551 85:-0.952905 86:-0.950748 87:-0.948834 88:-0.946762 89:-0.944859 90:-0.943036 91:-0.941561 92:-0.939731 93:-0.937859 94:-0.936043 95:-0.934331 96:-0.932385 97:-0.93071 98:-0.929044 99:-0.927591 100:-0.926154 101:-0.924593 102:-0.923316 103:-0.922111 104:-0.923491 
2011.344654921841 1:-0.945143 2:-0.854603 3:-0.897356 4:-0.95768 5:-0.798431 6:-0.828053 7:-0.829786 8:-0.821273 9:-0.817099 10:-0.814067 11:-0.818602 12:-0.854551 13:-0.881416 14:-0.893543 15:-0.9059 16:-0.911151 17:-0.902308 18:-0.897062 19:-0.889971 20:-0.884928 21:-0.891035 22:-0.903094 23:-0.911623 24:-0.918615 25:-0.919627 26:-0.919963 27:-0.921703 28:-0.925181 29:-0.928913 30:-0.932329 31:-0.935387 32:-0.937795 33:-0.940546 34:-0.943052 35:-0.948132 36:-0.950789 37:-0.952842 38:-0.955497 39:-0.957327 40:-0.958727 41:-0.959225 42:-0.959317 43:-0.959519 44:-0.95994 45:-0.960011 46:-0.960143 47:-0.959974 48:-0.959835 49:-0.959958 50:-0.960079 51:-0.960226 52:-0.961394 53:-0.961598 54:-0.961461 55:-0.961259 56:-0.961156 57:-0.960954 58:-0.961274 59:-0.96109 60:-0.961081 61:-0.961111 62:-0.961433 63:-0.961418 64:-0.961261 65:-0.96117 66:-0.961073 67:-0.961217 68:-0.961049 69:-0.960872 70:-0.961015 71:-0.961093 72:-0.961225 73:-0.961052 74:-0.961018 75:-0.960866 76:-0.961035 77:-0.960885 78:-0.960748 79:-0.960967 80:-0.961256 81:-0.961532 82:-0.9615 83:-0.960907 84:-0.958437 85:-0.956336 86:-0.954302 87:-0.952324 88:-0.950389 89:-0.948444 90:-0.946525 91:-0.944894 92:-0.94318 93:-0.941253 94:-0.939563 95:-0.938173 96:-0.936294 97:-0.934686 98:-0.933005 99:-0.931321 100:-0.92977 101:-0.92816 102:-0.926541 103:-0.925116 104:-0.926156 
2048 1:-0.925725 2:-0.854603 3:-0.89006 4:-0.938432 5:-0.785921 6:-0.835729 7:-0.826395 8:-0.830683 9:-0.818965 10:-0.813819 11:-0.809395 12:-0.839702 13:-0.865384 14:-0.877244 15:-0.889189 16:-0.891324 17:-0.882108 18:-0.878193 19:-0.87072 20:-0.865962 21:-0.87195 22:-0.883735 23:-0.892395 24:-0.898937 25:-0.900344 26:-0.902035 27:-0.907651 28:-0.911232 29:-0.914696 30:-0.917892 31:-0.920519 32:-0.923125 33:-0.926264 34:-0.928494 35:-0.930594 36:-0.932606 37:-0.934697 38:-0.936559 39:-0.938202 40:-0.939738 41:-0.941024 42:-0.941068 43:-0.941213 44:-0.942033 45:-0.942045 46:-0.941846 47:-0.941619 48:-0.941433 49:-0.941256 50:-0.941091 51:-0.942164 52:-0.941919 53:-0.941918 54:-0.941827 55:-0.941614 56:-0.941412 57:-0.942026 58:-0.941824 59:-0.941916 60:-0.94193 61:-0.942142 62:-0.942073 63:-0.941889 64:-0.941904 65:-0.941756 66:-0.941736 67:-0.941766 68:-0.941585 69:-0.941397 70:-0.941526 71:-0.94134 72:-0.941159 73:-0.941178 74:-0.94133 75:-0.94117 76:-0.94116 77:-0.941003 78:-0.941008 79:-0.940838 80:-0.940849 81:-0.941022 82:-0.940863 83:-0.940774 84:-0.938447 85:-0.936168 86:-0.934283 87:-0.932458 88:-0.930343 89:-0.928715 90:-0.926838 91:-0.925609 92:-0.923669 93:-0.921929 94:-0.920108 95:-0.918537 96:-0.916767 97:-0.915104 98:-0.913262 99:-0.911711 100:-0.910149 101:-0.908504 102:-0.907421 103:-0.905986 104:-0.907037 
2048 1:-0.926501 2:-0.864017 3:-0.890925 4:-0.937286 5:-0.784953 6:-0.831252 7:-0.81479 8:-0.803758 9:-0.799828 10:-0.796345 11:-0.794316 12:-0.827819 13:-0.853338 14:-0.867135 15:-0.888279 16:-0.89113 17:-0.881842 18:-0.876609 19:-0.869849 20:-0.86486 21:-0.870843 22:-0.882122 23:-0.891377 24:-0.897909 25:-0.899298 26:-0.901178 27:-0.902605 28:-0.906155 29:-0.909589 30:-0.912757 31:-0.915949 32:-0.918264 33:-0.920832 34:-0.923199 35:-0.926063 36:-0.92782 37:-0.929668 38:-0.931857 39:-0.933597 40:-0.934904 41:-0.935771 42:-0.936217 43:-0.938382 44:-0.938563 45:-0.938632 46:-0.938726 47:-0.938543 48:-0.938663 49:-0.938967 50:-0.939078 51:-0.938944 52:-0.938741 53:-0.938567 54:-0.938338 55:-0.938172 56:-0.938478 57:-0.93829 58:-0.938136 59:-0.937981 60:-0.93784 61:-0.937903 62:-0.937959 63:-0.937826 64:-0.937912 65:-0.937964 66:-0.938011 67:-0.938066 68:-0.937925 69:-0.93833 70:-0.938516 71:-0.938702 72:-0.938545 73:-0.93839 74:-0.938575 75:-0.9386 76:-0.938619 77:-0.938581 78:-0.93851 79:-0.938817 80:-0.939061 81:-0.939006 82:-0.938858 83:-0.938432 84:-0.936513 85:-0.93451 86:-0.932357 87:-0.930215 88:-0.928208 89:-0.926323 90:-0.924922 91:-0.92315 92:-0.921047 93:-0.919126 94:-0.917201 95:-0.915527 96:-0.913622 97:-0.912434 98:-0.911191 99:-0.909761 100:-0.908258 101:-0.906762 102:-0.905695 103:-0.904618 104:-0.905818 
625.5291522170884 1:-0.9499 2:-0.858787 3:-0.890755 4:-0.93724 5:-0.782433 6:-0.842382 7:-0.818046 8:-0.807285 9:-0.80347 10:-0.799354 11:-0.796881 12:-0.830062 13:-0.85535 14:-0.867828 15:-0.881511 16:-0.884183 17:-0.875443 18:-0.871473 19:-0.864366 20:-0.864579 21:-0.870576 22:-0.881867 23:-0.890928 24:-0.897705 25:-0.900552 26:-0.902035 27:-0.905056 28:-0.908316 29:-0.912584 30:-0.915638 31:-0.918726 32:-0.921175 33:-0.923643 34:-0.925918 35:-0.928184 36:-0.930473 37:-0.932242 38:-0.934017 39:-0.935696 40:-0.936946 41:-0.938253 42:-0.938329 43:-0.938632 44:-0.938806 45:-0.938867 46:-0.938992 47:-0.938801 48:-0.938915 49:-0.939023 50:-0.939132 51:-0.938996 52:-0.938955 53:-0.938775 54:-0.938541 55:-0.938597 56:-0.93843 57:-0.938242 58:-0.938302 59:-0.938144 60:-0.938223 61:-0.938076 62:-0.937947 63:-0.93825 64:-0.938115 65:-0.937974 66:-0.938031 67:-0.938265 68:-0.938122 69:-0.93797 70:-0.937821 71:-0.938106 72:-0.938823 73:-0.938891 74:-0.939021 75:-0.939283 76:-0.939253 77:-0.939233 78:-0.939091 79:-0.939168 80:-0.939034 81:-0.939014 82:-0.93902 83:-0.93873 84:-0.936437 85:-0.934171 86:-0.932162 87:-0.930605 88:-0.928322 89:-0.9266 90:-0.924603 91:-0.922708 92:-0.92061 93:-0.918702 94:-0.917101 95:-0.915565 96:-0.914115 97:-0.912661 98:-0.911254 99:-0.909689 100:-0.90832 101:-0.907024 102:-0.905819 103:-0.904558 104:-0.905782 
1021.338401857078 1:-0.934463 2:-0.828452 3:-0.885249 4:-0.937088 5:-0.781457 6:-0.844821 7:-0.819534 8:-0.80937 9:-0.803335 10:-0.800569 11:-0.801618 12:-0.837671 13:-0.862623 14:-0.874808 15:-0.887219 16:-0.88975 17:-0.880873 18:-0.875991 19:-0.868849 20:-0.86383 21:-0.870101 22:-0.881636 23:-0.890311 24:-0.896865 25:-0.898652 26:-0.900578 27:-0.90468 28:-0.908866 29:-0.912683 30:-0.916229 31:-0.91902 32:-0.921371 33:-0.924672 34:-0.927265 35:-0.929495 36:-0.931414 37:-0.933277 38:-0.935008 39:-0.936905 40:-0.938235 41:-0.938809 42:-0.938857 43:-0.939132 44:-0.939617 45:-0.939928 46:-0.941845 47:-0.941707 48:-0.941603 49:-0.941384 50:-0.941378 51:-0.941566 52:-0.941298 53:-0.941963 54:-0.941923 55:-0.941836 56:-0.941961 57:-0.941957 58:-0.941808 59:-0.941659 60:-0.941523 61:-0.941389 62:-0.941993 63:-0.941782 64:-0.941578 65:-0.941927 66:-0.942005 67:-0.942159 68:-0.941945 69:-0.942325 70:-0.9424 71:-0.94233 72:-0.942374 73:-0.942614 74:-0.94243 75:-0.94223 76:-0.942318 77:-0.94227 78:-0.94266 79:-0.942528 80:-0.942607 81:-0.942592 82:-0.942449 83:-0.942085 84:-0.939678 85:-0.937362 86:-0.935144 87:-0.932904 88:-0.930691 89:-0.928675 90:-0.926646 91:-0.924872 92:-0.923084 93:-0.921233 94:-0.919374 95:-0.917814 96:-0.915925 97:-0.914303 98:-0.912595 99:-0.910962 100:-0.909494 101:-0.908076 102:-0.906504 103:-0.905055 104:-0.905965 
2048 1:-0.947473 2:-0.822176 3:-0.879632 4:-0.936951 5:-0.804015 6:-0.821216 7:-0.824686 8:-0.812029 9:-0.804497 10:-0.801494 11:-0.799191 12:-0.830881 13:-0.856018 14:-0.868782 15:-0.881265 16:-0.884625 17:-0.876119 18:-0.871557 19:-0.864379 20:-0.859622 21:-0.866363 22:-0.878313 23:-0.887126 24:-0.894071 25:-0.899544 26:-0.900878 27:-0.903175 28:-0.90647 29:-0.911072 30:-0.914319 31:-0.916994 32:-0.919552 33:-0.922652 34:-0.924925 35:-0.927925 36:-0.929592 37:-0.931495 38:-0.933263 39:-0.935195 40:-0.936619 41:-0.937164 42:-0.937667 43:-0.937843 44:-0.938283 45:-0.938334 46:-0.93839 47:-0.938296 48:-0.938137 49:-0.93829 50:-0.938142 51:-0.938201 52:-0.937992 53:-0.937999 54:-0.937761 55:-0.937855 56:-0.937684 57:-0.937491 58:-0.937502 59:-0.937341 60:-0.937356 61:-0.937207 62:-0.937216 63:-0.937079 64:-0.937175 65:-0.937034 66:-0.93709 67:-0.937387 68:-0.93742 69:-0.9376 70:-0.937831 71:-0.937668 72:-0.93771 73:-0.937552 74:-0.937407 75:-0.937425 76:-0.937511 77:-0.937421 78:-0.938499 79:-0.938523 80:-0.938611 81:-0.938584 82:-0.938629 83:-0.938122 84:-0.936123 85:-0.93406 86:-0.931769 87:-0.929674 88:-0.927816 89:-0.925935 90:-0.924145 91:-0.922684 92:-0.920575 93:-0.918724 94:-0.916918 95:-0.915237 96:-0.913584 97:-0.912263 98:-0.910792 99:-0.909598 100:-0.908468 101:-0.907202 102:-0.90615 103:-0.905136 104:-0.90617 
1199.178305715036 1:-0.950192 2:-0.830544 3:-0.881603 4:-0.936924 5:-0.794291 6:-0.833296 7:-0.811579 8:-0.801119 9:-0.796612 10:-0.79353 11:-0.79334 12:-0.825189 13:-0.852068 14:-0.865892 15:-0.883957 16:-0.886351 17:-0.877369 18:-0.873204 19:-0.866065 20:-0.861203 21:-0.867997 22:-0.87969 23:-0.888697 24:-0.895532 25:-0.896988 26:-0.898553 27:-0.900249 28:-0.904226 29:-0.909085 30:-0.912235 31:-0.914987 32:-0.918096 33:-0.920637 34:-0.92336 35:-0.925552 36:-0.927295 37:-0.92913 38:-0.931306 39:-0.933523 40:-0.935294 41:-0.935812 42:-0.935929 43:-0.936152 44:-0.93715 45:-0.93769 46:-0.937546 47:-0.937635 48:-0.937527 49:-0.93739 50:-0.937463 51:-0.937343 52:-0.937154 53:-0.936993 54:-0.936776 55:-0.936623 56:-0.936477 57:-0.93696 58:-0.937026 59:-0.936929 60:-0.93679 61:-0.936652 62:-0.93695 63:-0.936818 64:-0.936884 65:-0.936748 66:-0.936624 67:-0.936642 68:-0.937004 69:-0.936995 70:-0.93702 71:-0.936968 72:-0.936821 73:-0.936677 74:-0.936709 75:-0.936615 76:-0.937134 77:-0.937954 78:-0.938283 79:-0.938292 80:-0.93854 81:-0.938543 82:-0.938797 83:-0.938607 84:-0.936306 85:-0.934171 86:-0.932286 87:-0.930111 88:-0.928188 89:-0.926199 90:-0.924553 91:-0.922958 92:-0.921256 93:-0.919322 94:-0.917384 95:-0.915698 96:-0.913781 97:-0.912403 98:-0.910583 99:-0.909424 100:-0.90854 101:-0.907201 102:-0.90601 103:-0.905028 104:-0.906022 
2048 1:-0.943881 2:-0.83682 3:-0.879448 4:-0.930908 5:-0.770503 6:-0.824464 7:-0.807913 8:-0.79684 9:-0.791139 10:-0.787986 11:-0.787741 12:-0.819458 13:-0.846194 14:-0.858824 15:-0.871608 16:-0.874502 17:-0.865978 18:-0.862213 19:-0.856528 20:-0.856361 21:-0.864996 22:-0.87642 23:-0.885 24:-0.893642 25:-0.894896 26:-0.895071 27:-0.896642 28:-0.899942 29:-0.903783 30:-0.906971 31:-0.91035 32:-0.912598 33:-0.915105 34:-0.917794 35:-0.919954 36:-0.92203 37:-0.92714 38:-0.929384 39:-0.931113 40:-0.932409 41:-0.932832 42:-0.932859 43:-0.933292 44:-0.933417 45:-0.933714 46:-0.933788 47:-0.933545 48:-0.933351 49:-0.93342 50:-0.933413 51:-0.933244 52:-0.933007 53:-0.932801 54:-0.932541 55:-0.932347 56:-0.932382 57:-0.932386 58:-0.93242 59:-0.932236 60:-0.932326 61:-0.932358 62:-0.932185 63:-0.932027 64:-0.931875 65:-0.931906 66:-0.931943 67:-0.931796 68:-0.931639 69:-0.931652 70:-0.931488 71:-0.931568 72:-0.931576 73:-0.931416 74:-0.931402 75:-0.931293 76:-0.931452 77:-0.932761 78:-0.932619 79:-0.9326 80:-0.932851 81:-0.932666 82:-0.932608 83:-0.932529 84:-0.930481 85:-0.928206 86:-0.926083 87:-0.924042 88:-0.921893 89:-0.920279 90:-0.918407 91:-0.91703 92:-0.915196 93:-0.913444 94:-0.911928 95:-0.91042 96:-0.909261 97:-0.907644 98:-0.9058 99:-0.904246 100:-0.902614 101:-0.901169 102:-0.900054 103:-0.899047 104:-0.900038 
2048 1:-0.918928 2:-0.857741 3:-0.884104 4:-0.930794 5:-0.768371 6:-0.823403 7:-0.802884 8:-0.798473 9:-0.792567 10:-0.796322 11:-0.796155 12:-0.826945 13:-0.85178 14:-0.865216 15:-0.877462 16:-0.879887 17:-0.870951 18:-0.866831 19:-0.86025 20:-0.85544 21:-0.864316 22:-0.876022 23:-0.884394 24:-0.892848 25:-0.894137 26:-0.894408 27:-0.896163 28:-0.900628 29:-0.907257 30:-0.910239 31:-0.913667 32:-0.915807 33:-0.918526 34:-0.920728 35:-0.922804 36:-0.924853 37:-0.926578 38:-0.928306 39:-0.930269 40:-0.931466 41:-0.932591 42:-0.93263 43:-0.932778 44:-0.93292 45:-0.933288 46:-0.933102 47:-0.933093 48:-0.932913 49:-0.933436 50:-0.933262 51:-0.933101 52:-0.932871 53:-0.932907 54:-0.932879 55:-0.932908 56:-0.932749 57:-0.932533 58:-0.932523 59:-0.932341 60:-0.932337 61:-0.932775 62:-0.93277 63:-0.9328 64:-0.93283 65:-0.932944 66:-0.933153 67:-0.933158 68:-0.933493 69:-0.933303 70:-0.933292 71:-0.933106 72:-0.933122 73:-0.933276 74:-0.933154 75:-0.933148 76:-0.932984 77:-0.932982 78:-0.932829 79:-0.933117 80:-0.933131 81:-0.933061 82:-0.932904 83:-0.932599 84:-0.93016 85:-0.928284 86:-0.926456 87:-0.924252 88:-0.921982 89:-0.919971 90:-0.918395 91:-0.91689 92:-0.915019 93:-0.913469 94:-0.911947 95:-0.910508 96:-0.908709 97:-0.907052 98:-0.905217 99:-0.90378 100:-0.902155 101:-0.900674 102:-0.899398 103:-0.898684 104:-0.899637 
876.170152848446 1:-0.938638 2:-0.841004 3:-0.875424 4:-0.926476 5:-0.78839 6:-0.834684 7:-0.808935 8:-0.797537 9:-0.793389 10:-0.800908 11:-0.798917 12:-0.829305 13:-0.853355 14:-0.864832 15:-0.877884 16:-0.87986 17:-0.870545 18:-0.866102 19:-0.858997 20:-0.854466 21:-0.860326 22:-0.871959 23:-0.886618 24:-0.892768 25:-0.893619 26:-0.89424 27:-0.895441 28:-0.899064 29:-0.902289 30:-0.906832 31:-0.909788 32:-0.912292 33:-0.914951 34:-0.917101 35:-0.919498 36:-0.921436 37:-0.92336 38:-0.925031 39:-0.926611 40:-0.928087 41:-0.928494 42:-0.928921 43:-0.929035 44:-0.929144 45:-0.929147 46:-0.929488 47:-0.929231 48:-0.929286 49:-0.929207 50:-0.929016 51:-0.928838 52:-0.928591 53:-0.928633 54:-0.92857 55:-0.928526 56:-0.928321 57:-0.928092 58:-0.928115 59:-0.927922 60:-0.92795 61:-0.927771 62:-0.92774 63:-0.927771 64:-0.92761 65:-0.927631 66:-0.92766 67:-0.927532 68:-0.927367 69:-0.92733 70:-0.9272 71:-0.92703 72:-0.927419 73:-0.927249 74:-0.927093 75:-0.927108 76:-0.927421 77:-0.927269 78:-0.927126 79:-0.926963 80:-0.927223 81:-0.928231 82:-0.928245 83:-0.928142 84:-0.926229 85:-0.924064 86:-0.921971 87:-0.92 88:-0.917815 89:-0.915857 90:-0.913856 91:-0.912673 92:-0.910759 93:-0.909335 94:-0.907645 95:-0.906294 96:-0.904368 97:-0.902951 98:-0.901111 99:-0.899442 100:-0.898022 101:-0.896789 102:-0.895615 103:-0.894704 104:-0.895779 
807.9516349611639 1:-0.944366 2:-0.813808 3:-0.867758 4:-0.924844 5:-0.781341 6:-0.809851 7:-0.794286 8:-0.786025 9:-0.782469 10:-0.780042 11:-0.780302 12:-0.811997 13:-0.837567 14:-0.858923 15:-0.87107 16:-0.873432 17:-0.865331 18:-0.860792 19:-0.854349 20:-0.84943 21:-0.855447 22:-0.870883 23:-0.879982 24:-0.88872 25:-0.890309 26:-0.890379 27:-0.892244 28:-0.895431 29:-0.899168 30:-0.902425 31:-0.905036 32:-0.90737 33:-0.910284 34:-0.912511 35:-0.914611 36:-0.916273 37:-0.918724 38:-0.920847 39:-0.922482 40:-0.923687 41:-0.924466 42:-0.924528 43:-0.924995 44:-0.925243 45:-0.925288 46:-0.925122 47:-0.924913 48:-0.924756 49:-0.924605 50:-0.925218 51:-0.925288 52:-0.925069 53:-0.924883 54:-0.924643 55:-0.924468 56:-0.9243 57:-0.924104 58:-0.924802 59:-0.924679 60:-0.924522 61:-0.924366 62:-0.92421 63:-0.924264 64:-0.924318 65:-0.924169 66:-0.924219 67:-0.924177 68:-0.92403 69:-0.92484 70:-0.924674 71:-0.92451 72:-0.924519 73:-0.924526 74:-0.925105 75:-0.925541 76:-0.926055 77:-0.926112 78:-0.926415 79:-0.927 80:-0.927068 81:-0.926866 82:-0.926691 83:-0.926241 84:-0.924167 85:-0.921988 86:-0.919983 87:-0.917779 88:-0.915762 89:-0.913911 90:-0.912344 91:-0.910936 92:-0.909187 93:-0.907253 94:-0.90544 95:-0.90375 96:-0.901954 97:-0.900421 98:-0.899195 99:-0.897635 100:-0.896462 101:-0.895456 102:-0.894276 103:-0.893308 104:-0.894591 
724.1379494618805 1:-0.943881 2:-0.824268 3:-0.883826 4:-0.932987 5:-0.781352 6:-0.810396 7:-0.794764 8:-0.789743 9:-0.785054 10:-0.785506 11:-0.785013 12:-0.817869 13:-0.845109 14:-0.866146 15:-0.87915 16:-0.881992 17:-0.873058 18:-0.868772 19:-0.861823 20:-0.857274 21:-0.863398 22:-0.875286 23:-0.884048 24:-0.891513 25:-0.897162 26:-0.89786 27:-0.899303 28:-0.90307 29:-0.906507 30:-0.909602 31:-0.912631 32:-0.914886 33:-0.917556 34:-0.920247 35:-0.922759 36:-0.924465 37:-0.926882 38:-0.928667 39:-0.930919 40:-0.932186 41:-0.932969 42:-0.933228 43:-0.933715 44:-0.933945 45:-0.934007 46:-0.934075 47:-0.933883 48:-0.933944 49:-0.933799 50:-0.933765 51:-0.933886 52:-0.933732 53:-0.933561 54:-0.933334 55:-0.933441 56:-0.933281 57:-0.933356 58:-0.933203 59:-0.933258 60:-0.933231 61:-0.933087 62:-0.933333 63:-0.933587 64:-0.933641 65:-0.933494 66:-0.93345 67:-0.933676 68:-0.933778 69:-0.933618 70:-0.933666 71:-0.933536 72:-0.93372 73:-0.933877 74:-0.933729 75:-0.933753 76:-0.933771 77:-0.934063 78:-0.934215 79:-0.934268 80:-0.93457 81:-0.934865 82:-0.934856 83:-0.934353 84:-0.931918 85:-0.929954 86:-0.928141 87:-0.926051 88:-0.924101 89:-0.922471 90:-0.920474 91:-0.918779 92:-0.917009 93:-0.915466 94:-0.913857 95:-0.912414 96:-0.910543 97:-0.908888 98:-0.907055 99:-0.905512 100:-0.904077 101:-0.902825 102:-0.901711 103:-0.900622 104:-0.901884 
1265.005541010464 1:-0.931938 2:-0.830544 3:-0.882715 4:-0.921942 5:-0.788088 6:-0.818049 7:-0.796278 8:-0.788115 9:-0.782415 10:-0.780017 11:-0.778785 12:-0.816052 13:-0.852996 14:-0.864643 15:-0.876516 16:-0.878631 17:-0.869092 18:-0.864294 19:-0.856889 20:-0.851957 21:-0.857713 22:-0.86901 23:-0.880451 24:-0.887963 25:-0.889651 26:-0.890494 27:-0.891674 28:-0.895365 29:-0.898566 30:-0.901517 31:-0.904588 32:-0.906712 33:-0.909894 34:-0.912195 35:-0.914237 36:-0.916205 37:-0.917965 38:-0.919665 39:-0.921602 40:-0.923093 41:-0.923632 42:-0.923662 43:-0.924098 44:-0.924225 45:-0.924521 46:-0.924323 47:-0.924353 48:-0.924423 49:-0.924528 50:-0.924347 51:-0.924424 52:-0.92418 53:-0.92397 54:-0.924193 55:-0.923986 56:-0.924009 57:-0.92378 58:-0.923805 59:-0.923613 60:-0.923597 61:-0.923623 62:-0.923444 63:-0.923282 64:-0.923327 65:-0.923223 66:-0.92344 67:-0.923415 68:-0.923248 69:-0.923251 70:-0.92318 71:-0.923179 72:-0.923008 73:-0.923064 74:-0.923071 75:-0.922921 76:-0.92277 77:-0.922781 78:-0.922701 79:-0.92254 80:-0.922567 81:-0.922483 82:-0.922338 83:-0.9229 84:-0.920816 85:-0.919035 86:-0.917 87:-0.91514 88:-0.912909 89:-0.910965 90:-0.909101 91:-0.907473 92:-0.905584 93:-0.903721 94:-0.902452 95:-0.901106 96:-0.899758 97:-0.898398 98:-0.896754 99:-0.895128 100:-0.893515 101:-0.891878 102:-0.890394 103:-0.889384 104:-0.890723 
2048 1:-0.931744 2:-0.84728 3:-0.883492 4:-0.921083 5:-0.788903 6:-0.819516 7:-0.797005 8:-0.789552 9:-0.782528 10:-0.779279 11:-0.779255 12:-0.821255 13:-0.849792 14:-0.861107 15:-0.872804 16:-0.874783 17:-0.867213 18:-0.861858 19:-0.854857 20:-0.850005 21:-0.855821 22:-0.867668 23:-0.881888 24:-0.888006 25:-0.888841 26:-0.888848 27:-0.890849 28:-0.893973 29:-0.897234 30:-0.900603 31:-0.903172 32:-0.905724 33:-0.908515 34:-0.910703 35:-0.9131 36:-0.914718 37:-0.916429 38:-0.918149 39:-0.919775 40:-0.920971 41:-0.921432 42:-0.921799 43:-0.921965 44:-0.922124 45:-0.922174 46:-0.922834 47:-0.923596 48:-0.923402 49:-0.923472 50:-0.923344 51:-0.923179 52:-0.923184 53:-0.922977 54:-0.922947 55:-0.922974 56:-0.922779 57:-0.922585 58:-0.922617 59:-0.922432 60:-0.922262 61:-0.922297 62:-0.922325 63:-0.922167 64:-0.922016 65:-0.921857 66:-0.922083 67:-0.921936 68:-0.921958 69:-0.921969 70:-0.921977 71:-0.921809 72:-0.921646 73:-0.922594 74:-0.923043 75:-0.922882 76:-0.922843 77:-0.922684 78:-0.922534 79:-0.922517 80:-0.922383 81:-0.922402 82:-0.922644 83:-0.922065 84:-0.920405 85:-0.918382 86:-0.916104 87:-0.914053 88:-0.911781 89:-0.909707 90:-0.907725 91:-0.906381 92:-0.904496 93:-0.903135 94:-0.901314 95:-0.900123 96:-0.898693 97:-0.897167 98:-0.895645 99:-0.893985 100:-0.892414 101:-0.890781 102:-0.889584 103:-0.888501 104:-0.889802 
2048 1:-0.94058 2:-0.839958 3:-0.879468 4:-0.920085 5:-0.781805 6:-0.819762 7:-0.796762 8:-0.790154 9:-0.782763 10:-0.779269 11:-0.780308 12:-0.812045 13:-0.846626 14:-0.858115 15:-0.869956 16:-0.873008 17:-0.86392 18:-0.85872 19:-0.852405 20:-0.847356 21:-0.856659 22:-0.868237 23:-0.876636 24:-0.882935 25:-0.884275 26:-0.887517 27:-0.888734 28:-0.89189 29:-0.895141 30:-0.898139 31:-0.900748 32:-0.904519 33:-0.906911 34:-0.909107 35:-0.911177 36:-0.912815 37:-0.914543 38:-0.916617 39:-0.918907 40:-0.92009 41:-0.92054 42:-0.920596 43:-0.92091 44:-0.921388 45:-0.921706 46:-0.921526 47:-0.921721 48:-0.921541 49:-0.921624 50:-0.921459 51:-0.921554 52:-0.921565 53:-0.921519 54:-0.921723 55:-0.921524 56:-0.921554 57:-0.92133 58:-0.921361 59:-0.921175 60:-0.921005 61:-0.920838 62:-0.92067 63:-0.920863 64:-0.920904 65:-0.920991 66:-0.921024 67:-0.920874 68:-0.920713 69:-0.9209 70:-0.920888 71:-0.920718 72:-0.920552 73:-0.920556 74:-0.920436 75:-0.920456 76:-0.920309 77:-0.920168 78:-0.920034 79:-0.920187 80:-0.920147 81:-0.919979 82:-0.919839 83:-0.91988 84:-0.918551 85:-0.916662 86:-0.915017 87:-0.913139 88:-0.910863 89:-0.909198 90:-0.907207 91:-0.905405 92:-0.903732 93:-0.901945 94:-0.900833 95:-0.899326 96:-0.897538 97:-0.89589 98:-0.894065 99:-0.892529 100:-0.891361 101:-0.889838 102:-0.888705 103:-0.887608 104:-0.889035 
2048 1:-0.907957 2:-0.806485 3:-0.86486 4:-0.919241 5:-0.775547 6:-0.813018 7:-0.791609 8:-0.783672 9:-0.778109 10:-0.782427 11:-0.784343 12:-0.814864 13:-0.842028 14:-0.853777 15:-0.865834 16:-0.869081 17:-0.860871 18:-0.856181 19:-0.849354 20:-0.844394 21:-0.853195 22:-0.864691 23:-0.875439 24:-0.882398 25:-0.883679 26:-0.883873 27:-0.885666 28:-0.888964 29:-0.892257 30:-0.896173 31:-0.899258 32:-0.901837 33:-0.904258 34:-0.907144 35:-0.909218 36:-0.911219 37:-0.91294 38:-0.915129 39:-0.917739 40:-0.918903 41:-0.919649 42:-0.919759 43:-0.920133 44:-0.920837 45:-0.920844 46:-0.920838 47:-0.920587 48:-0.920654 49:-0.920611 50:-0.92043 51:-0.92036 52:-0.920119 53:-0.920147 54:-0.919926 55:-0.920086 56:-0.919887 57:-0.919833 58:-0.919646 59:-0.919668 60:-0.919533 61:-0.919562 62:-0.919622 63:-0.919573 64:-0.919605 65:-0.919543 66:-0.919571 67:-0.919659 68:-0.91949 69:-0.919728 70:-0.91955 71:-0.919373 72:-0.919401 73:-0.91923 74:-0.919268 75:-0.919117 76:-0.919303 77:-0.919496 78:-0.919502 79:-0.919586 80:-0.919753 81:-0.919715 82:-0.919969 83:-0.919983 84:-0.917972 85:-0.915818 86:-0.913897 87:-0.912205 88:-0.910056 89:-0.908042 90:-0.906355 91:-0.904613 92:-0.903465 93:-0.901645 94:-0.900125 95:-0.898966 96:-0.897585 97:-0.896064 98:-0.894352 99:-0.892675 100:-0.891158 101:-0.889692 102:-0.888776 103:-0.887801 104:-0.889073 
2048 1:-0.961357 2:-0.864017 3:-0.905672 4:-0.961063 5:-0.802327 6:-0.824375 7:-0.832343 8:-0.825138 9:-0.820089 10:-0.817906 11:-0.816198 12:-0.849235 13:-0.883209 14:-0.899158 15:-0.911389 16:-0.913689 17:-0.904889 18:-0.899733 19:-0.892431 20:-0.888016 21:-0.894183 22:-0.905673 23:-0.914285 24:-0.921388 25:-0.92265 26:-0.923105 27:-0.924882 28:-0.928398 29:-0.932166 30:-0.93547 31:-0.938535 32:-0.940977 33:-0.94366 34:-0.946314 35:-0.948774 36:-0.95119 37:-0.955144 38:-0.957146 39:-0.958916 40:-0.960706 41:-0.961306 42:-0.962004 43:-0.962627 44:-0.962842 45:-0.96294 46:-0.962824 47:-0.962901 48:-0.962787 49:-0.962779 50:-0.962676 51:-0.963334 52:-0.963732 53:-0.964732 54:-0.964579 55:-0.964795 56:-0.964876 57:-0.964681 58:-0.964934 59:-0.964776 60:-0.964814 61:-0.964686 62:-0.964679 63:-0.964523 64:-0.964372 65:-0.964296 66:-0.964177 67:-0.964371 68:-0.964359 69:-0.964193 70:-0.964169 71:-0.964082 72:-0.964114 73:-0.963958 74:-0.963976 75:-0.963839 76:-0.963854 77:-0.96403 78:-0.963898 79:-0.963749 80:-0.96377 81:-0.963993 82:-0.963998 83:-0.963615 84:-0.961326 85:-0.959038 86:-0.95704 87:-0.95522 88:-0.952919 89:-0.95097 90:-0.948962 91:-0.947053 92:-0.944943 93:-0.943014 94:-0.941205 95:-0.939525 96:-0.937681 97:-0.936044 98:-0.934463 99:-0.93329 100:-0.931895 101:-0.930571 102:-0.929242 103:-0.928098 104:-0.929085 
644.1813242171842 1:-0.962911 2:-0.862971 3:-0.905881 4:-0.961865 5:-0.803144 6:-0.827754 7:-0.832926 8:-0.823731 9:-0.819105 10:-0.818673 11:-0.816968 12:-0.849471 13:-0.876148 14:-0.889251 15:-0.902417 16:-0.907026 17:-0.898474 18:-0.893854 19:-0.890701 20:-0.88859 21:-0.895435 22:-0.907045 23:-0.91587 24:-0.922571 25:-0.923843 26:-0.924204 27:-0.925774 28:-0.929288 29:-0.932874 30:-0.936533 31:-0.939422 32:-0.942189 33:-0.94486 34:-0.947334 35:-0.949807 36:-0.951799 37:-0.956325 38:-0.958291 39:-0.960184 40:-0.961516 41:-0.962319 42:-0.962458 43:-0.962939 44:-0.963168 45:-0.963496 46:-0.964229 47:-0.964187 48:-0.964063 49:-0.963944 50:-0.964628 51:-0.964586 52:-0.964883 53:-0.965181 54:-0.964944 55:-0.964912 56:-0.964744 57:-0.965002 58:-0.964907 59:-0.964745 60:-0.964593 61:-0.964678 62:-0.96469 63:-0.96482 64:-0.965055 65:-0.965092 66:-0.965309 67:-0.965309 68:-0.965153 69:-0.965058 70:-0.965028 71:-0.965045 72:-0.965175 73:-0.965016 74:-0.964932 75:-0.964956 76:-0.965034 77:-0.964896 78:-0.964887 79:-0.964736 80:-0.964797 81:-0.964835 82:-0.964804 83:-0.964524 84:-0.962308 85:-0.960159 86:-0.95818 87:-0.956116 88:-0.95395 89:-0.951841 90:-0.949884 91:-0.948235 92:-0.946377 93:-0.94444 94:-0.942498 95:-0.940888 96:-0.938965 97:-0.937313 98:-0.935477 99:-0.934123 100:-0.932652 101:-0.931285 102:-0.930248 103:-0.928856 104:-0.929888 
2048 1:-0.976892 2:-0.942469 3:-0.958392 4:-0.971116 5:-0.820625 6:-0.839458 7:-0.82719 8:-0.824684 9:-0.821492 10:-0.820529 11:-0.820304 12:-0.854539 13:-0.881606 14:-0.895459 15:-0.909242 16:-0.912849 17:-0.904811 18:-0.900624 19:-0.894757 20:-0.890489 21:-0.897311 22:-0.909396 23:-0.919137 24:-0.926327 25:-0.927817 26:-0.928576 27:-0.930514 28:-0.934371 29:-0.938729 30:-0.942315 31:-0.945473 32:-0.948165 33:-0.951213 34:-0.953913 35:-0.95645 36:-0.958857 37:-0.96229 38:-0.965354 39:-0.96729 40:-0.968792 41:-0.969502 42:-0.969913 43:-0.9703 44:-0.970783 45:-0.971023 46:-0.971041 47:-0.971039 48:-0.971053 49:-0.971066 50:-0.971082 51:-0.971344 52:-0.97129 53:-0.97125 54:-0.97115 55:-0.971169 56:-0.971274 57:-0.97122 58:-0.971394 59:-0.971349 60:-0.971309 61:-0.97127 62:-0.971229 63:-0.971194 64:-0.971161 65:-0.971124 66:-0.971091 67:-0.971059 68:-0.971015 69:-0.970957 70:-0.971665 71:-0.971801 72:-0.971733 73:-0.971731 74:-0.97167 75:-0.97178 76:-0.971726 77:-0.971673 78:-0.971624 79:-0.971556 80:-0.971501 81:-0.971429 82:-0.971621 83:-0.971729 84:-0.969654 85:-0.967556 86:-0.965309 87:-0.963148 88:-0.960906 89:-0.958858 90:-0.956908 91:-0.955057 92:-0.953002 93:-0.951128 94:-0.949246 95:-0.947619 96:-0.945755 97:-0.944445 98:-0.942662 99:-0.941052 100:-0.939483 101:-0.93799 102:-0.936441 103:-0.935234 104:-0.936071 
2048 1:-0.973979 2:-0.929916 3:-0.954232 4:-0.969577 5:-0.810582 6:-0.819359 7:-0.824098 8:-0.821874 9:-0.818884 10:-0.818071 11:-0.81795 12:-0.852222 13:-0.879814 14:-0.893651 15:-0.907423 16:-0.911027 17:-0.902991 18:-0.898807 19:-0.893843 20:-0.889742 21:-0.896498 22:-0.90877 23:-0.917847 24:-0.925004 25:-0.926467 26:-0.927204 27:-0.92912 28:-0.932955 29:-0.936837 30:-0.940422 31:-0.943578 32:-0.946269 33:-0.949183 34:-0.95265 35:-0.955166 36:-0.957618 37:-0.961541 38:-0.963585 39:-0.965516 40:-0.96714 41:-0.967843 42:-0.968128 43:-0.968513 44:-0.968879 45:-0.969119 46:-0.969138 47:-0.969136 48:-0.969151 49:-0.969164 50:-0.96918 51:-0.969688 52:-0.96963 53:-0.969989 54:-0.969876 55:-0.969819 56:-0.969769 57:-0.969707 58:-0.969661 59:-0.969614 60:-0.969572 61:-0.96953 62:-0.969487 63:-0.96945 64:-0.969887 65:-0.969986 66:-0.970015 67:-0.969971 68:-0.969914 69:-0.969844 70:-0.969846 71:-0.96991 72:-0.970039 73:-0.969969 74:-0.969977 75:-0.970421 76:-0.970359 77:-0.970314 78:-0.970305 79:-0.97029 80:-0.970495 81:-0.970497 82:-0.970424 83:-0.969973 84:-0.967772 85:-0.965572 86:-0.963384 87:-0.961373 88:-0.959463 89:-0.957625 90:-0.955669 91:-0.953916 92:-0.951854 93:-0.949973 94:-0.948184 95:-0.94655 96:-0.944678 97:-0.943125 98:-0.941337 99:-0.939723 100:-0.938149 101:-0.936561 102:-0.9351 103:-0.933864 104:-0.934762 
