svm_type c_svc
kernel_type rbf
gamma 2
nr_class 2
total_sv 50
rho 20.9422
distance 189.72
label 90 -1
nr_sv 24 26
SV
1659.191341006871 1:-0.94592 2:-0.904812 3:-0.934964 4:-0.943329 5:-0.777505 6:-0.812436 7:-0.799145 8:-0.794184 9:-0.792152 10:-0.791423 11:-0.796834 12:-0.837724 13:-0.865104 14:-0.877547 15:-0.89219 16:-0.894721 17:-0.887387 18:-0.882492 19:-0.875248 20:-0.871099 21:-0.877254 22:-0.888821 23:-0.897402 24:-0.904671 25:-0.905851 26:-0.906258 27:-0.907854 28:-0.911851 29:-0.915872 30:-0.919151 31:-0.922022 32:-0.924448 33:-0.927118 34:-0.930039 35:-0.932344 36:-0.934189 37:-0.936472 38:-0.938555 39:-0.940528 40:-0.942221 41:-0.942883 42:-0.943987 43:-0.945443 44:-0.945962 45:-0.946069 46:-0.945967 47:-0.945829 48:-0.94599 49:-0.945886 50:-0.945839 51:-0.945752 52:-0.946077 53:-0.946198 54:-0.945995 55:-0.945855 56:-0.945898 57:-0.945742 58:-0.945616 59:-0.945735 60:-0.945615 61:-0.945699 62:-0.945611 63:-0.945501 64:-0.946243 65:-0.947052 66:-0.947091 67:-0.947033 68:-0.946964 69:-0.946813 70:-0.946735 71:-0.946657 72:-0.946581 73:-0.946595 74:-0.946502 75:-0.946443 76:-0.946383 77:-0.946324 78:-0.94627 79:-0.946135 80:-0.946086 81:-0.946061 82:-0.946055 83:-0.945561 84:-0.943146 85:-0.940957 86:-0.938751 87:-0.936578 88:-0.934378 89:-0.932476 90:-0.930562 91:-0.928696 92:-0.926728 93:-0.924838 94:-0.922993 95:-0.921348 96:-0.919569 97:-0.917957 98:-0.916212 99:-0.914637 100:-0.913056 101:-0.911551 102:-0.90999 103:-0.908576 104:-0.90926 
2048 1:-0.927666 2:-0.859833 3:-0.912968 4:-0.941625 5:-0.83001 6:-0.813464 7:-0.803144 8:-0.799195 9:-0.796767 10:-0.795475 11:-0.798571 12:-0.831733 13:-0.857496 14:-0.870802 15:-0.88414 16:-0.887723 17:-0.879253 18:-0.875566 19:-0.868578 20:-0.86425 21:-0.871646 22:-0.883837 23:-0.893515 24:-0.900241 25:-0.9018 26:-0.902254 27:-0.903889 28:-0.907632 29:-0.91196 30:-0.915266 31:-0.918163 32:-0.9211 33:-0.923776 34:-0.926245 35:-0.928716 36:-0.931274 37:-0.9332 38:-0.935213 39:-0.937272 40:-0.938948 41:-0.939678 42:-0.940647 43:-0.941445 44:-0.941698 45:-0.942164 46:-0.942186 47:-0.942582 48:-0.942686 49:-0.942587 50:-0.943142 51:-0.94319 52:-0.943208 53:-0.943063 54:-0.942862 55:-0.943392 56:-0.943368 57:-0.944045 58:-0.944058 59:-0.944065 60:-0.944002 61:-0.944477 62:-0.944556 63:-0.944712 64:-0.944643 65:-0.94486 66:-0.944858 67:-0.944856 68:-0.944772 69:-0.944819 70:-0.944655 71:-0.944494 72:-0.944467 73:-0.944478 74:-0.944614 75:-0.944677 76:-0.944584 77:-0.944508 78:-0.94453 79:-0.944582 80:-0.944454 81:-0.944352 82:-0.944784 83:-0.94421 84:-0.941942 85:-0.940147 86:-0.938151 87:-0.936055 88:-0.933771 89:-0.93184 90:-0.929899 91:-0.928221 92:-0.926219 93:-0.924341 94:-0.922544 95:-0.920942 96:-0.919085 97:-0.91754 98:-0.91572 99:-0.914255 100:-0.912646 101:-0.911089 102:-0.909616 103:-0.908152 104:-0.908877 
2048 1:-0.933298 2:-0.875523 3:-0.913391 4:-0.940965 5:-0.769465 6:-0.814989 7:-0.801134 8:-0.797529 9:-0.795308 10:-0.793439 11:-0.797329 12:-0.829481 13:-0.855895 14:-0.868841 15:-0.881883 16:-0.885902 17:-0.877427 18:-0.873982 19:-0.867055 20:-0.862509 21:-0.869589 22:-0.88122 23:-0.889981 24:-0.897409 25:-0.898655 26:-0.900324 27:-0.902099 28:-0.906174 29:-0.910273 30:-0.913617 31:-0.917012 32:-0.919477 33:-0.922805 34:-0.925731 35:-0.92805 36:-0.930269 37:-0.933369 38:-0.9359 39:-0.938448 40:-0.940092 41:-0.940951 42:-0.941982 43:-0.94226 44:-0.942476 45:-0.942709 46:-0.942739 47:-0.942587 48:-0.942735 49:-0.942713 50:-0.942606 51:-0.94323 52:-0.94355 53:-0.943983 54:-0.94414 55:-0.943963 56:-0.944016 57:-0.943947 58:-0.944034 59:-0.944192 60:-0.944238 61:-0.944193 62:-0.944033 63:-0.944308 64:-0.944532 65:-0.944373 66:-0.94433 67:-0.944185 68:-0.94403 69:-0.944045 70:-0.94405 71:-0.94429 72:-0.944314 73:-0.94439 74:-0.944428 75:-0.944281 76:-0.944349 77:-0.944204 78:-0.944222 79:-0.944064 80:-0.944133 81:-0.943968 82:-0.943971 83:-0.943624 84:-0.94127 85:-0.939525 86:-0.937265 87:-0.935228 88:-0.93321 89:-0.931257 90:-0.929395 91:-0.927594 92:-0.925646 93:-0.923826 94:-0.921999 95:-0.92045 96:-0.918543 97:-0.917118 98:-0.915295 99:-0.913645 100:-0.912129 101:-0.910504 102:-0.908917 103:-0.907455 104:-0.908181 
75.77041671970066 1:-0.837856 2:-0.768828 3:-0.883068 4:-0.832401 5:-0.712533 6:-0.710712 7:-0.704966 8:-0.696249 9:-0.692824 10:-0.693907 11:-0.694863 12:-0.732766 13:-0.761447 14:-0.773003 15:-0.784926 16:-0.78701 17:-0.780061 18:-0.776005 19:-0.768373 20:-0.764365 21:-0.769985 22:-0.78134 23:-0.791367 24:-0.797368 25:-0.798976 26:-0.799396 27:-0.800908 28:-0.804254 29:-0.808022 30:-0.811324 31:-0.81453 32:-0.816952 33:-0.81995 34:-0.822227 35:-0.824236 36:-0.826152 37:-0.827964 38:-0.829903 39:-0.831739 40:-0.832983 41:-0.833566 42:-0.833886 43:-0.834178 44:-0.83468 45:-0.835022 46:-0.834803 47:-0.834758 48:-0.834806 49:-0.834647 50:-0.834709 51:-0.834782 52:-0.834461 53:-0.834667 54:-0.834437 55:-0.834548 56:-0.834695 57:-0.834667 58:-0.834507 59:-0.834587 60:-0.834602 61:-0.834369 62:-0.834447 63:-0.834389 64:-0.834407 65:-0.834253 66:-0.834195 67:-0.834283 68:-0.834281 69:-0.834268 70:-0.834255 71:-0.834167 72:-0.834012 73:-0.83412 74:-0.834049 75:-0.83398 76:-0.834026 77:-0.833887 78:-0.833883 79:-0.833849 80:-0.834054 81:-0.833865 82:-0.833847 83:-0.833375 84:-0.831196 85:-0.829123 86:-0.826972 87:-0.824969 88:-0.822931 89:-0.821092 90:-0.819324 91:-0.817557 92:-0.815632 93:-0.814039 94:-0.812532 95:-0.811063 96:-0.809276 97:-0.807837 98:-0.80623 99:-0.804731 100:-0.803318 101:-0.801884 102:-0.800395 103:-0.799115 104:-0.799674 
1018.912116230163 1:-0.848439 2:-0.804393 3:-0.872 4:-0.831498 5:-0.734112 6:-0.708143 7:-0.717296 8:-0.706797 9:-0.700117 10:-0.698351 11:-0.697016 12:-0.726788 13:-0.75203 14:-0.768522 15:-0.782744 16:-0.788295 17:-0.780939 18:-0.778007 19:-0.771139 20:-0.76615 21:-0.772034 22:-0.783717 23:-0.791957 24:-0.799156 25:-0.800054 26:-0.80005 27:-0.80166 28:-0.805004 29:-0.808574 30:-0.812305 31:-0.815567 32:-0.817578 33:-0.820481 34:-0.822382 35:-0.824766 36:-0.826546 37:-0.828348 38:-0.830163 39:-0.831869 40:-0.833424 41:-0.834015 42:-0.834674 43:-0.834785 44:-0.83529 45:-0.835566 46:-0.835523 47:-0.835154 48:-0.835052 49:-0.835401 50:-0.835837 51:-0.835658 52:-0.83538 53:-0.835253 54:-0.835065 55:-0.835408 56:-0.835263 57:-0.83507 58:-0.835041 59:-0.834915 60:-0.834895 61:-0.834868 62:-0.83483 63:-0.834737 64:-0.834802 65:-0.834764 66:-0.834598 67:-0.834581 68:-0.834544 69:-0.834365 70:-0.834325 71:-0.834211 72:-0.834166 73:-0.834116 74:-0.834086 75:-0.833993 76:-0.833827 77:-0.833824 78:-0.833822 79:-0.833767 80:-0.833724 81:-0.833577 82:-0.833601 83:-0.83311 84:-0.830887 85:-0.828878 86:-0.826903 87:-0.824855 88:-0.822745 89:-0.820889 90:-0.819052 91:-0.817373 92:-0.815432 93:-0.813722 94:-0.812204 95:-0.810767 96:-0.809064 97:-0.807514 98:-0.805845 99:-0.804452 100:-0.802997 101:-0.801457 102:-0.799956 103:-0.798532 104:-0.799436 
341.1452787999357 1:-0.797854 2:-0.832636 3:-0.882437 4:-0.827321 5:-0.703231 6:-0.70583 7:-0.688688 8:-0.69225 9:-0.688233 10:-0.687893 11:-0.694202 12:-0.728163 13:-0.753889 14:-0.767635 15:-0.780881 16:-0.78436 17:-0.775751 18:-0.770559 19:-0.764719 20:-0.762147 21:-0.767577 22:-0.778472 23:-0.786657 24:-0.792957 25:-0.794523 26:-0.794633 27:-0.796769 28:-0.800161 29:-0.803679 30:-0.80694 31:-0.809709 32:-0.811631 33:-0.814395 34:-0.816752 35:-0.818832 36:-0.820682 37:-0.822566 38:-0.824483 39:-0.826255 40:-0.827558 41:-0.828207 42:-0.828775 43:-0.828872 44:-0.82921 45:-0.829441 46:-0.829613 47:-0.82945 48:-0.829499 49:-0.829494 50:-0.829554 51:-0.829331 52:-0.82934 53:-0.829449 54:-0.829127 55:-0.82924 56:-0.82899 57:-0.829013 58:-0.828989 59:-0.829025 60:-0.829006 61:-0.828897 62:-0.828862 63:-0.828847 64:-0.828837 65:-0.828801 66:-0.828817 67:-0.828617 68:-0.828766 69:-0.828681 70:-0.828639 71:-0.82842 72:-0.828537 73:-0.828487 74:-0.828455 75:-0.828344 76:-0.828142 77:-0.828105 78:-0.828108 79:-0.827898 80:-0.827766 81:-0.827736 82:-0.827787 83:-0.827322 84:-0.825251 85:-0.823432 86:-0.821349 87:-0.819387 88:-0.817198 89:-0.8155 90:-0.813716 91:-0.812168 92:-0.810365 93:-0.808527 94:-0.806837 95:-0.805353 96:-0.803648 97:-0.802194 98:-0.800572 99:-0.799154 100:-0.797864 101:-0.796483 102:-0.795089 103:-0.793859 104:-0.794549 
1746.777297199281 1:-0.939512 2:-0.915272 3:-0.937833 4:-0.947327 5:-0.835509 6:-0.824669 7:-0.81252 8:-0.806769 9:-0.802183 10:-0.802805 11:-0.804427 12:-0.836764 13:-0.862825 14:-0.876805 15:-0.889884 16:-0.892965 17:-0.885411 18:-0.881002 19:-0.874143 20:-0.869631 21:-0.876782 22:-0.888492 23:-0.897893 24:-0.904785 25:-0.906064 26:-0.907175 27:-0.909415 28:-0.913054 29:-0.917794 30:-0.921169 31:-0.924337 32:-0.927047 33:-0.92978 34:-0.932304 35:-0.93481 36:-0.936949 37:-0.939198 38:-0.941171 39:-0.943035 40:-0.944463 41:-0.945124 42:-0.945677 43:-0.946019 44:-0.946633 45:-0.947044 46:-0.947019 47:-0.946958 48:-0.947193 49:-0.947802 50:-0.947761 51:-0.948216 52:-0.948341 53:-0.948243 54:-0.948087 55:-0.948217 56:-0.948443 57:-0.948323 58:-0.94823 59:-0.948136 60:-0.948256 61:-0.948168 62:-0.94808 63:-0.948391 64:-0.948309 65:-0.948222 66:-0.94831 67:-0.948231 68:-0.948319 69:-0.948215 70:-0.948113 71:-0.948354 72:-0.948392 73:-0.948288 74:-0.948686 75:-0.948594 76:-0.948501 77:-0.948568 78:-0.948482 79:-0.948537 80:-0.948869 81:-0.948958 82:-0.948876 83:-0.948343 84:-0.946058 85:-0.943827 86:-0.941721 87:-0.939561 88:-0.937319 89:-0.935549 90:-0.933969 91:-0.932157 92:-0.930229 93:-0.928413 94:-0.926769 95:-0.925375 96:-0.923496 97:-0.921885 98:-0.920093 99:-0.918472 100:-0.916891 101:-0.915524 102:-0.913963 103:-0.91248 104:-0.913148 
530.8966981923014 1:-0.942619 2:-0.869247 3:-0.926968 4:-0.944504 5:-0.833361 6:-0.811082 7:-0.799911 8:-0.797059 9:-0.795464 10:-0.794279 11:-0.793873 12:-0.828884 13:-0.860282 14:-0.873251 15:-0.886719 16:-0.890511 17:-0.882008 18:-0.877763 19:-0.870879 20:-0.866898 21:-0.873329 22:-0.885514 23:-0.894296 24:-0.901401 25:-0.902882 26:-0.903458 27:-0.905206 28:-0.909431 29:-0.915466 30:-0.919233 31:-0.922514 32:-0.926481 33:-0.929735 34:-0.933634 35:-0.93585 36:-0.938314 37:-0.940148 38:-0.942121 39:-0.943985 40:-0.945413 41:-0.945949 42:-0.946555 43:-0.946781 44:-0.947339 45:-0.947759 46:-0.947738 47:-0.947783 48:-0.947861 49:-0.947732 50:-0.948 51:-0.948358 52:-0.948164 53:-0.948088 54:-0.947862 55:-0.947788 56:-0.947719 57:-0.94763 58:-0.947566 59:-0.947417 60:-0.947362 61:-0.947507 62:-0.947554 63:-0.947422 64:-0.947448 65:-0.947389 66:-0.947265 67:-0.947216 68:-0.947155 69:-0.947083 70:-0.947081 71:-0.94694 72:-0.94687 73:-0.946735 74:-0.946676 75:-0.946626 76:-0.946572 77:-0.946459 78:-0.946474 79:-0.946346 80:-0.946304 81:-0.946229 82:-0.946171 83:-0.945628 84:-0.943277 85:-0.941151 86:-0.938897 87:-0.936785 88:-0.93459 89:-0.932537 90:-0.930631 91:-0.928772 92:-0.92676 93:-0.924928 94:-0.92314 95:-0.921551 96:-0.919728 97:-0.918933 98:-0.917377 99:-0.915796 100:-0.914209 101:-0.913013 102:-0.911489 103:-0.910088 104:-0.910945 
2048 1:-0.934851 2:-0.883891 3:-0.920842 4:-0.91954 5:-0.803788 6:-0.784322 7:-0.774793 8:-0.770877 9:-0.775628 10:-0.776932 11:-0.776114 12:-0.809084 13:-0.834714 14:-0.847975 15:-0.86167 16:-0.865007 17:-0.857211 18:-0.852651 19:-0.846009 20:-0.842041 21:-0.849119 22:-0.862658 23:-0.872686 24:-0.87927 25:-0.880878 26:-0.881374 27:-0.882944 28:-0.886985 29:-0.890507 30:-0.893755 31:-0.896863 32:-0.899638 33:-0.903609 34:-0.907354 35:-0.909782 36:-0.911525 37:-0.913623 38:-0.916229 39:-0.917929 40:-0.919195 41:-0.920348 42:-0.920462 43:-0.920977 44:-0.921218 45:-0.921309 46:-0.921483 47:-0.921542 48:-0.921412 49:-0.921543 50:-0.921661 51:-0.921794 52:-0.921603 53:-0.921914 54:-0.921807 55:-0.921871 56:-0.921832 57:-0.921982 58:-0.922075 59:-0.922122 60:-0.921972 61:-0.921822 62:-0.922022 63:-0.921959 64:-0.921823 65:-0.92168 66:-0.921735 67:-0.921605 68:-0.921709 69:-0.921558 70:-0.921409 71:-0.921261 72:-0.921286 73:-0.921237 74:-0.921362 75:-0.921235 76:-0.921106 77:-0.920981 78:-0.921224 79:-0.921142 80:-0.921036 81:-0.921031 82:-0.920904 83:-0.920618 84:-0.918364 85:-0.916329 86:-0.914086 87:-0.911933 88:-0.909859 89:-0.907819 90:-0.906024 91:-0.904174 92:-0.902194 93:-0.900399 94:-0.898646 95:-0.897276 96:-0.895554 97:-0.89419 98:-0.892692 99:-0.891073 100:-0.889496 101:-0.887948 102:-0.886392 103:-0.884914 104:-0.885942 
504.6593208610834 1:-0.926987 2:-0.887029 3:-0.921362 4:-0.914282 5:-0.789541 6:-0.779032 7:-0.768024 8:-0.766169 9:-0.76579 10:-0.764685 11:-0.771156 12:-0.803266 13:-0.829397 14:-0.842188 15:-0.856333 16:-0.85967 17:-0.85191 18:-0.848974 19:-0.84726 20:-0.84504 21:-0.850865 22:-0.862518 23:-0.870788 24:-0.878558 25:-0.879946 26:-0.88019 27:-0.88158 28:-0.885454 29:-0.889735 30:-0.892946 31:-0.896042 32:-0.899071 33:-0.901926 34:-0.904589 35:-0.906692 36:-0.908505 37:-0.910608 38:-0.912695 39:-0.914713 40:-0.915915 41:-0.916511 42:-0.917191 43:-0.917652 44:-0.917955 45:-0.917994 46:-0.918041 47:-0.918046 48:-0.917911 49:-0.917895 50:-0.91799 51:-0.917842 52:-0.917856 53:-0.917758 54:-0.91751 55:-0.917508 56:-0.91755 57:-0.917338 58:-0.917534 59:-0.917357 60:-0.917196 61:-0.917239 62:-0.917076 63:-0.916929 64:-0.917049 65:-0.916896 66:-0.916942 67:-0.916804 68:-0.916655 69:-0.916676 70:-0.916695 71:-0.916628 72:-0.916473 73:-0.916488 74:-0.916379 75:-0.916409 76:-0.916271 77:-0.916139 78:-0.916015 79:-0.91587 80:-0.91579 81:-0.915634 82:-0.915507 83:-0.915366 84:-0.913028 85:-0.910934 86:-0.908698 87:-0.906553 88:-0.904459 89:-0.90258 90:-0.900747 91:-0.898902 92:-0.897155 93:-0.895353 94:-0.893476 95:-0.891896 96:-0.890134 97:-0.888821 98:-0.88723 99:-0.885806 100:-0.88428 101:-0.882779 102:-0.881341 103:-0.879865 104:-0.880565 
538.7123182203987 1:-0.928152 2:-0.892259 3:-0.928925 4:-0.911982 5:-0.793234 6:-0.777879 7:-0.765159 8:-0.766087 9:-0.763367 10:-0.766595 11:-0.767232 12:-0.799479 13:-0.825289 14:-0.839402 15:-0.853359 16:-0.856408 17:-0.849085 18:-0.844615 19:-0.838609 20:-0.835692 21:-0.842732 22:-0.854136 23:-0.863316 24:-0.870722 25:-0.872388 26:-0.872856 27:-0.874946 28:-0.878917 29:-0.882462 30:-0.887153 31:-0.889962 32:-0.892807 33:-0.895412 34:-0.897953 35:-0.900201 36:-0.902011 37:-0.904705 38:-0.906565 39:-0.908325 40:-0.909643 41:-0.910596 42:-0.910774 43:-0.911349 44:-0.911946 45:-0.91235 46:-0.912267 47:-0.91213 48:-0.912309 49:-0.912224 50:-0.912496 51:-0.912424 52:-0.912275 53:-0.912393 54:-0.912441 55:-0.912773 56:-0.912871 57:-0.912708 58:-0.912589 59:-0.912647 60:-0.912742 61:-0.912627 62:-0.91251 63:-0.912523 64:-0.912725 65:-0.912611 66:-0.912509 67:-0.912593 68:-0.91248 69:-0.912526 70:-0.912578 71:-0.912658 72:-0.912533 73:-0.91282 74:-0.912705 75:-0.912969 76:-0.912853 77:-0.912928 78:-0.912821 79:-0.912692 80:-0.912844 81:-0.9127 82:-0.912761 83:-0.912227 84:-0.910219 85:-0.908038 86:-0.905847 87:-0.90374 88:-0.901524 89:-0.899613 90:-0.897682 91:-0.895983 92:-0.893948 93:-0.892094 94:-0.890359 95:-0.888844 96:-0.887334 97:-0.885984 98:-0.884453 99:-0.883088 100:-0.881525 101:-0.879992 102:-0.87845 103:-0.876986 104:-0.877763 
1448.764307468612 1:-0.912714 2:-0.848326 3:-0.922313 4:-0.911585 5:-0.813054 6:-0.787138 7:-0.772641 8:-0.771502 9:-0.77338 10:-0.771975 11:-0.770775 12:-0.80284 13:-0.829206 14:-0.841743 15:-0.854862 16:-0.858093 17:-0.850248 18:-0.845953 19:-0.842971 20:-0.838945 21:-0.845612 22:-0.85743 23:-0.866505 24:-0.876145 25:-0.877484 26:-0.87927 27:-0.880962 28:-0.884547 29:-0.888478 30:-0.891738 31:-0.894519 32:-0.896861 33:-0.899614 34:-0.902375 35:-0.904884 36:-0.906869 37:-0.908726 38:-0.910581 39:-0.912335 40:-0.913778 41:-0.914355 42:-0.914533 43:-0.914929 44:-0.915192 45:-0.915343 46:-0.915278 47:-0.915372 48:-0.915196 49:-0.915231 50:-0.915073 51:-0.915123 52:-0.915091 53:-0.914926 54:-0.914835 55:-0.914653 56:-0.914735 57:-0.914522 58:-0.914438 59:-0.914267 60:-0.91443 61:-0.914431 62:-0.914347 63:-0.914278 64:-0.914288 65:-0.914209 66:-0.914142 67:-0.914076 68:-0.914137 69:-0.914048 70:-0.914094 71:-0.914002 72:-0.913979 73:-0.91389 74:-0.913877 75:-0.91387 76:-0.913729 77:-0.913719 78:-0.913651 79:-0.913562 80:-0.913631 81:-0.913525 82:-0.913595 83:-0.913177 84:-0.910843 85:-0.908676 86:-0.906547 87:-0.904451 88:-0.90227 89:-0.900286 90:-0.898337 91:-0.896542 92:-0.894641 93:-0.89277 94:-0.890943 95:-0.889313 96:-0.887504 97:-0.886096 98:-0.884368 99:-0.88276 100:-0.881239 101:-0.880019 102:-0.878514 103:-0.877129 104:-0.877765 
806.6969246019261 1:-0.905529 2:-0.874477 3:-0.912613 4:-0.902255 5:-0.789936 6:-0.771066 7:-0.75983 8:-0.755238 9:-0.751691 10:-0.752353 11:-0.755127 12:-0.788742 13:-0.818166 14:-0.830744 15:-0.844695 16:-0.847554 17:-0.840097 18:-0.835521 19:-0.829091 20:-0.825379 21:-0.831551 22:-0.843168 23:-0.854105 24:-0.860979 25:-0.864752 26:-0.865458 27:-0.867419 28:-0.870763 29:-0.874185 30:-0.877338 31:-0.881362 32:-0.884452 33:-0.88761 34:-0.890543 35:-0.893934 36:-0.895812 37:-0.897546 38:-0.899553 39:-0.90119 40:-0.902773 41:-0.903245 42:-0.90399 43:-0.904455 44:-0.904713 45:-0.905041 46:-0.905752 47:-0.905773 48:-0.905732 49:-0.905546 50:-0.905951 51:-0.905791 52:-0.905643 53:-0.905436 54:-0.90545 55:-0.905253 56:-0.905325 57:-0.905311 58:-0.905245 59:-0.905055 60:-0.905089 61:-0.905029 62:-0.905051 63:-0.905273 64:-0.905112 65:-0.905122 66:-0.905112 67:-0.904955 68:-0.905003 69:-0.904899 70:-0.904725 71:-0.904725 72:-0.904586 73:-0.904585 74:-0.904592 75:-0.904443 76:-0.904661 77:-0.90451 78:-0.904552 79:-0.904386 80:-0.904313 81:-0.904354 82:-0.904206 83:-0.903786 84:-0.901396 85:-0.899287 86:-0.897104 87:-0.894956 88:-0.892723 89:-0.89085 90:-0.888901 91:-0.88716 92:-0.885109 93:-0.883342 94:-0.881467 95:-0.879987 96:-0.87813 97:-0.876724 98:-0.874999 99:-0.873852 100:-0.872561 101:-0.871244 102:-0.869733 103:-0.868255 104:-0.868876 
482.6280638145334 1:-0.951066 2:-0.908996 3:-0.940746 4:-0.949409 5:-0.80775 6:-0.818867 7:-0.806444 8:-0.801773 9:-0.800338 10:-0.799266 11:-0.80463 12:-0.837981 13:-0.865599 14:-0.878653 15:-0.892597 16:-0.895645 17:-0.887532 18:-0.882977 19:-0.876735 20:-0.872476 21:-0.878941 22:-0.891155 23:-0.89997 24:-0.908633 25:-0.910016 26:-0.910958 27:-0.91264 28:-0.916434 29:-0.920094 30:-0.923724 31:-0.92754 32:-0.930337 33:-0.933636 34:-0.93688 35:-0.939353 36:-0.941191 37:-0.943123 38:-0.945321 39:-0.947137 40:-0.948558 41:-0.949383 42:-0.949885 43:-0.95023 44:-0.950509 45:-0.950998 46:-0.950933 47:-0.951252 48:-0.95118 49:-0.95111 50:-0.951147 51:-0.951334 52:-0.951203 53:-0.951227 54:-0.951058 55:-0.950948 56:-0.951022 57:-0.950898 58:-0.9508 59:-0.950911 60:-0.950934 61:-0.95084 62:-0.950745 63:-0.950738 64:-0.950847 65:-0.950757 66:-0.950779 67:-0.950697 68:-0.950604 69:-0.950711 70:-0.950606 71:-0.950502 72:-0.950534 73:-0.950433 74:-0.950341 75:-0.950387 76:-0.950302 77:-0.950338 78:-0.950262 79:-0.950163 80:-0.950267 81:-0.95016 82:-0.950071 83:-0.949552 84:-0.947279 85:-0.945061 86:-0.943261 87:-0.941109 88:-0.938929 89:-0.936889 90:-0.935099 91:-0.933253 92:-0.931202 93:-0.929729 94:-0.928092 95:-0.926606 96:-0.924738 97:-0.923186 98:-0.921729 99:-0.920208 100:-0.918958 101:-0.917453 102:-0.91594 103:-0.914459 104:-0.915086 
1857.184285415042 1:-0.967668 2:-0.960251 3:-0.977926 4:-0.960862 5:-0.806497 6:-0.807491 7:-0.802457 8:-0.802769 9:-0.802149 10:-0.803015 11:-0.804685 12:-0.838981 13:-0.866604 14:-0.88095 15:-0.895146 16:-0.899894 17:-0.89217 18:-0.888261 19:-0.881999 20:-0.877984 21:-0.885621 22:-0.897784 23:-0.907009 24:-0.914866 25:-0.916449 26:-0.917494 27:-0.919504 28:-0.923416 29:-0.927825 30:-0.931457 31:-0.934656 32:-0.937387 33:-0.94034 34:-0.943443 35:-0.94615 36:-0.948221 37:-0.950375 38:-0.952514 39:-0.954798 40:-0.956371 41:-0.957283 42:-0.957647 43:-0.958106 44:-0.958543 45:-0.959134 46:-0.959212 47:-0.959259 48:-0.959327 49:-0.959391 50:-0.959604 51:-0.959666 52:-0.959658 53:-0.959846 54:-0.959787 55:-0.959781 56:-0.960002 57:-0.959979 58:-0.959974 59:-0.960006 60:-0.960002 61:-0.960198 62:-0.960187 63:-0.960218 64:-0.960212 65:-0.9602 66:-0.960192 67:-0.960185 68:-0.960377 69:-0.96034 70:-0.960302 71:-0.960264 72:-0.960227 73:-0.960356 74:-0.960355 75:-0.960331 76:-0.960304 77:-0.9604 78:-0.960376 79:-0.960331 80:-0.960456 81:-0.960428 82:-0.960387 83:-0.959914 84:-0.957562 85:-0.955431 86:-0.953318 87:-0.951229 88:-0.94903 89:-0.947026 90:-0.945117 91:-0.943305 92:-0.941392 93:-0.939555 94:-0.93771 95:-0.936216 96:-0.934386 97:-0.932824 98:-0.931077 99:-0.929643 100:-0.928105 101:-0.926552 102:-0.925034 103:-0.923595 104:-0.924449 
365.6322498970426 1:-0.96126 2:-0.942469 3:-0.978174 4:-0.960849 5:-0.797687 6:-0.803203 7:-0.801002 8:-0.800585 9:-0.801277 10:-0.802293 11:-0.803451 12:-0.838434 13:-0.866113 14:-0.881399 15:-0.895556 16:-0.899896 17:-0.892172 18:-0.888581 19:-0.882299 20:-0.878543 21:-0.885487 22:-0.897906 23:-0.907125 24:-0.914859 25:-0.916443 26:-0.917301 27:-0.919516 28:-0.923617 29:-0.927561 30:-0.931203 31:-0.934412 32:-0.937314 33:-0.940426 34:-0.943158 35:-0.945726 36:-0.948096 37:-0.950253 38:-0.952531 39:-0.954683 40:-0.95626 41:-0.957174 42:-0.957541 43:-0.958121 44:-0.958558 45:-0.95909 46:-0.959169 47:-0.959217 48:-0.95939 49:-0.959453 50:-0.959616 51:-0.959776 52:-0.959765 53:-0.959863 54:-0.959861 55:-0.959887 56:-0.959972 57:-0.95995 58:-0.959946 59:-0.960021 60:-0.960017 61:-0.960091 62:-0.96016 63:-0.960155 64:-0.960226 65:-0.960214 66:-0.96028 67:-0.960343 68:-0.960319 69:-0.960353 70:-0.960315 71:-0.960345 72:-0.960374 73:-0.960335 74:-0.960303 75:-0.960343 76:-0.960316 77:-0.960353 78:-0.960391 79:-0.960347 80:-0.960379 81:-0.960386 82:-0.960347 83:-0.959932 84:-0.957579 85:-0.955395 86:-0.953251 87:-0.951191 88:-0.949047 89:-0.947042 90:-0.945133 91:-0.943373 92:-0.941408 93:-0.93957 94:-0.937775 95:-0.936182 96:-0.934401 97:-0.932887 98:-0.931139 99:-0.92961 100:-0.928073 101:-0.926566 102:-0.925049 103:-0.923654 104:-0.92442 
2048 1:-0.956309 2:-0.956067 3:-0.978159 4:-0.960677 5:-0.804261 6:-0.806329 7:-0.801618 8:-0.802102 9:-0.801586 10:-0.802524 11:-0.804829 12:-0.839091 13:-0.867179 14:-0.881455 15:-0.895594 16:-0.900272 17:-0.892506 18:-0.888879 19:-0.882567 20:-0.878506 21:-0.885954 22:-0.898092 23:-0.907317 24:-0.914785 25:-0.916365 26:-0.91722 27:-0.919618 28:-0.923519 29:-0.927642 30:-0.931275 31:-0.934475 32:-0.937523 33:-0.940466 34:-0.943343 35:-0.945901 36:-0.947975 37:-0.9504 38:-0.952535 39:-0.954552 40:-0.956254 41:-0.957041 42:-0.957642 43:-0.958098 44:-0.958531 45:-0.958948 46:-0.959027 47:-0.959075 48:-0.959346 49:-0.959406 50:-0.959567 51:-0.959627 52:-0.959616 53:-0.959802 54:-0.95974 55:-0.959733 56:-0.959818 57:-0.959796 58:-0.959791 59:-0.959945 60:-0.95994 61:-0.960013 62:-0.960002 63:-0.959996 64:-0.960113 65:-0.960126 66:-0.960191 67:-0.960181 68:-0.960157 69:-0.960257 70:-0.960218 71:-0.960179 72:-0.960208 73:-0.960169 74:-0.960137 75:-0.960239 76:-0.960211 77:-0.960247 78:-0.960223 79:-0.960178 80:-0.960268 81:-0.960215 82:-0.960234 83:-0.959761 84:-0.957409 85:-0.955335 86:-0.953134 87:-0.951019 88:-0.948875 89:-0.946871 90:-0.944962 91:-0.943252 92:-0.941235 93:-0.939448 94:-0.937603 95:-0.93601 96:-0.934276 97:-0.932713 98:-0.930966 99:-0.929437 100:-0.9279 101:-0.926437 102:-0.92492 103:-0.923479 104:-0.924246 
2048 1:-0.967863 2:-0.91841 3:-0.933227 4:-0.959039 5:-0.788788 6:-0.796684 7:-0.810491 8:-0.807682 9:-0.806062 10:-0.810988 11:-0.810245 12:-0.843975 13:-0.870589 14:-0.884102 15:-0.898425 16:-0.901772 17:-0.897869 18:-0.894014 19:-0.887069 20:-0.882786 21:-0.890549 22:-0.902207 23:-0.911399 24:-0.91825 25:-0.919455 26:-0.919965 27:-0.922163 28:-0.925775 29:-0.929538 30:-0.932928 31:-0.935903 32:-0.938425 33:-0.941645 34:-0.944183 35:-0.946569 36:-0.948482 37:-0.950487 38:-0.952487 39:-0.954623 40:-0.956152 41:-0.956831 42:-0.957352 43:-0.9577 44:-0.958031 45:-0.958239 46:-0.958502 47:-0.958457 48:-0.958585 49:-0.958562 50:-0.958544 51:-0.95853 52:-0.958688 53:-0.958855 54:-0.958805 55:-0.958729 56:-0.958659 57:-0.958573 58:-0.959002 59:-0.958927 60:-0.95886 61:-0.958855 62:-0.958957 63:-0.958893 64:-0.958832 65:-0.958766 66:-0.958707 67:-0.959096 68:-0.959746 69:-0.959647 70:-0.959549 71:-0.959625 72:-0.95962 73:-0.959525 74:-0.959509 75:-0.959618 76:-0.959537 77:-0.959476 78:-0.959539 79:-0.959692 80:-0.959661 81:-0.959558 82:-0.959469 83:-0.958975 84:-0.956884 85:-0.95474 86:-0.952908 87:-0.950742 88:-0.948899 89:-0.946976 90:-0.945411 91:-0.943544 92:-0.941651 93:-0.939975 94:-0.938296 95:-0.936745 96:-0.934954 97:-0.933336 98:-0.931906 99:-0.930404 100:-0.928995 101:-0.927384 102:-0.925923 103:-0.924583 104:-0.925337 
131.0403441161833 1:-0.949803 2:-0.916318 3:-0.935484 4:-0.955728 5:-0.811294 6:-0.80607 7:-0.816557 8:-0.811784 9:-0.808704 10:-0.807174 11:-0.807154 12:-0.840212 13:-0.866847 14:-0.880834 15:-0.894326 16:-0.898113 17:-0.889927 18:-0.886429 19:-0.879911 20:-0.875544 21:-0.882513 22:-0.894595 23:-0.903562 24:-0.913461 25:-0.915329 26:-0.916914 27:-0.918752 28:-0.922365 29:-0.926953 30:-0.931902 31:-0.93479 32:-0.937232 33:-0.940288 34:-0.943109 35:-0.946564 36:-0.948594 37:-0.950494 38:-0.952395 39:-0.954453 40:-0.956133 41:-0.956711 42:-0.957051 43:-0.95732 44:-0.957577 45:-0.957938 46:-0.957854 47:-0.957746 48:-0.957874 49:-0.958049 50:-0.957969 51:-0.95804 52:-0.958619 53:-0.958484 54:-0.958625 55:-0.958712 56:-0.958578 57:-0.958504 58:-0.958379 59:-0.958254 60:-0.958302 61:-0.958388 62:-0.958296 63:-0.958194 64:-0.958089 65:-0.958056 66:-0.957954 67:-0.958586 68:-0.958644 69:-0.958572 70:-0.95844 71:-0.958311 72:-0.958316 73:-0.958191 74:-0.958076 75:-0.95816 76:-0.958053 77:-0.957949 78:-0.95785 79:-0.957793 80:-0.957696 81:-0.957574 82:-0.957643 83:-0.957686 84:-0.955265 85:-0.953014 86:-0.950885 87:-0.948705 88:-0.946445 89:-0.944434 90:-0.942466 91:-0.940597 92:-0.938587 93:-0.936786 94:-0.934887 95:-0.933241 96:-0.931458 97:-0.929845 98:-0.92853 99:-0.927108 100:-0.925518 101:-0.923912 102:-0.922433 103:-0.920943 104:-0.921833 
1326.764705095693 1:-0.947085 2:-0.921548 3:-0.933975 4:-0.955322 5:-0.789471 6:-0.80141 7:-0.810841 8:-0.805928 9:-0.808209 10:-0.807406 11:-0.806664 12:-0.840669 13:-0.867331 14:-0.880776 15:-0.898165 16:-0.905849 17:-0.897011 18:-0.892147 19:-0.885074 20:-0.88034 21:-0.887356 22:-0.899072 23:-0.907791 24:-0.91462 25:-0.915813 26:-0.916836 27:-0.918985 28:-0.922567 29:-0.926395 30:-0.929755 31:-0.932702 32:-0.935514 33:-0.938237 34:-0.940757 35:-0.943126 36:-0.945025 37:-0.947364 38:-0.949658 39:-0.951516 40:-0.95294 41:-0.95359 42:-0.953827 43:-0.954462 44:-0.954826 45:-0.955018 46:-0.954992 47:-0.954937 48:-0.95491 49:-0.955381 50:-0.955348 51:-0.955321 52:-0.955225 53:-0.95515 54:-0.955245 55:-0.955286 56:-0.955209 57:-0.955115 58:-0.955043 59:-0.95497 60:-0.955522 61:-0.956004 62:-0.955918 63:-0.955841 64:-0.955767 65:-0.955688 66:-0.955802 67:-0.956192 68:-0.956884 69:-0.95677 70:-0.956658 71:-0.956548 72:-0.95644 73:-0.956335 74:-0.956521 75:-0.956431 76:-0.95634 77:-0.956252 78:-0.95617 79:-0.956068 80:-0.956224 81:-0.956114 82:-0.95602 83:-0.955496 84:-0.953242 85:-0.951154 86:-0.94901 87:-0.94685 88:-0.944608 89:-0.942561 90:-0.940664 91:-0.939575 92:-0.93802 93:-0.93617 94:-0.935086 95:-0.933556 96:-0.931761 97:-0.930139 98:-0.928478 99:-0.926844 100:-0.925298 101:-0.923736 102:-0.922253 103:-0.920847 104:-0.921513 
2048 1:-0.961843 2:-0.884937 3:-0.933319 4:-0.954685 5:-0.788834 6:-0.800166 7:-0.814751 8:-0.809797 9:-0.806015 10:-0.805485 11:-0.805553 12:-0.839198 13:-0.869511 14:-0.882762 15:-0.896797 16:-0.899909 17:-0.891836 18:-0.887311 19:-0.880812 20:-0.876593 21:-0.883381 22:-0.895157 23:-0.904272 24:-0.911232 25:-0.912854 26:-0.913591 27:-0.915374 28:-0.919264 29:-0.923195 30:-0.926824 31:-0.929852 32:-0.932586 33:-0.936486 34:-0.939148 35:-0.941694 36:-0.943617 37:-0.946115 38:-0.948107 39:-0.950299 40:-0.951985 41:-0.952766 42:-0.953128 43:-0.954239 44:-0.955326 45:-0.955491 46:-0.955438 47:-0.955463 48:-0.955513 49:-0.955458 50:-0.955509 51:-0.955464 52:-0.955447 53:-0.955353 54:-0.955643 55:-0.955541 56:-0.955534 57:-0.955638 58:-0.955661 59:-0.955647 60:-0.955564 61:-0.95555 62:-0.95554 63:-0.955458 64:-0.955455 65:-0.955371 66:-0.955438 67:-0.956304 68:-0.956363 69:-0.956247 70:-0.956203 71:-0.956226 72:-0.956113 73:-0.956069 74:-0.955968 75:-0.956005 76:-0.955911 77:-0.956001 78:-0.955913 79:-0.955866 80:-0.9559 81:-0.955786 82:-0.955746 83:-0.955796 84:-0.95347 85:-0.95123 86:-0.949665 87:-0.947488 88:-0.945283 89:-0.943274 90:-0.941359 91:-0.93949 92:-0.937419 93:-0.93563 94:-0.933732 95:-0.932087 96:-0.930257 97:-0.928739 98:-0.927126 99:-0.926048 100:-0.924457 101:-0.922944 102:-0.921509 103:-0.920152 104:-0.920905 
2048 1:-0.950386 2:-0.900628 3:-0.92945 4:-0.949545 5:-0.78781 6:-0.801735 7:-0.804824 8:-0.800096 9:-0.803017 10:-0.802111 11:-0.80191 12:-0.834737 13:-0.861685 14:-0.875127 15:-0.893981 16:-0.897524 17:-0.891475 18:-0.886941 19:-0.8801 20:-0.875585 21:-0.881842 22:-0.893638 23:-0.902773 24:-0.909525 25:-0.910877 26:-0.911327 27:-0.913163 28:-0.916722 29:-0.920527 30:-0.923866 31:-0.92713 32:-0.929596 33:-0.93246 34:-0.935411 35:-0.937745 36:-0.939757 37:-0.941712 38:-0.943798 39:-0.94564 40:-0.9473 41:-0.947932 42:-0.948273 43:-0.948711 44:-0.949012 45:-0.949306 46:-0.949485 47:-0.949409 48:-0.949469 49:-0.949424 50:-0.949485 51:-0.949466 52:-0.949535 53:-0.949448 54:-0.949303 55:-0.94979 56:-0.949981 57:-0.95012 58:-0.950025 59:-0.949929 60:-0.949925 61:-0.950584 62:-0.951792 63:-0.951679 64:-0.951723 65:-0.951635 66:-0.951788 67:-0.95168 68:-0.951633 69:-0.951504 70:-0.951378 71:-0.951525 72:-0.9514 73:-0.951343 74:-0.951229 75:-0.951126 76:-0.951148 77:-0.951046 78:-0.95113 79:-0.951012 80:-0.950917 81:-0.950912 82:-0.950805 83:-0.950494 84:-0.948087 85:-0.946068 86:-0.943814 87:-0.941701 88:-0.939452 89:-0.937707 90:-0.935745 91:-0.934383 92:-0.932311 93:-0.930421 94:-0.928956 95:-0.927371 96:-0.925568 97:-0.923952 98:-0.922567 99:-0.921028 100:-0.91953 101:-0.917968 102:-0.916489 103:-0.915084 104:-0.915917 
2048 1:-0.948735 2:-0.878661 3:-0.915536 4:-0.945921 5:-0.778928 6:-0.805634 7:-0.809063 8:-0.803072 9:-0.799544 10:-0.797777 11:-0.79758 12:-0.830884 13:-0.857228 14:-0.871453 15:-0.884737 16:-0.888007 17:-0.879759 18:-0.876371 19:-0.872891 20:-0.869245 21:-0.875589 22:-0.887201 23:-0.896536 24:-0.903885 25:-0.905069 26:-0.906096 27:-0.907762 28:-0.911628 29:-0.915266 30:-0.918624 31:-0.921993 32:-0.92455 33:-0.927268 34:-0.930081 35:-0.932432 36:-0.934321 37:-0.936296 38:-0.939008 39:-0.941179 40:-0.942677 41:-0.943308 42:-0.943881 43:-0.944443 44:-0.945023 45:-0.945726 46:-0.945937 47:-0.946242 48:-0.946576 49:-0.946748 50:-0.946917 51:-0.946989 52:-0.946839 53:-0.946948 54:-0.94676 55:-0.946633 56:-0.946513 57:-0.946502 58:-0.946602 59:-0.946485 60:-0.946378 61:-0.946474 62:-0.946365 63:-0.946565 64:-0.946465 65:-0.94636 66:-0.946265 67:-0.946244 68:-0.946139 69:-0.946201 70:-0.946259 71:-0.946142 72:-0.946197 73:-0.946083 74:-0.946128 75:-0.946193 76:-0.946183 77:-0.946085 78:-0.945993 79:-0.946494 80:-0.946399 81:-0.946572 82:-0.946479 83:-0.946492 84:-0.944232 85:-0.94218 86:-0.939921 87:-0.937997 88:-0.936013 89:-0.93395 90:-0.932146 91:-0.930277 92:-0.928306 93:-0.926413 94:-0.924757 95:-0.923256 96:-0.921518 97:-0.919948 98:-0.918241 99:-0.916844 100:-0.915252 101:-0.914138 102:-0.912698 103:-0.911637 104:-0.913086 
1074.603506830937 1:-0.952231 2:-0.911088 3:-0.924489 4:-0.942359 5:-0.775898 6:-0.808813 7:-0.801984 8:-0.799598 9:-0.796491 10:-0.795475 11:-0.794572 12:-0.827835 13:-0.854149 14:-0.867465 15:-0.88163 16:-0.8849 17:-0.876662 18:-0.873132 19:-0.866398 20:-0.862713 21:-0.86924 22:-0.884774 23:-0.893469 24:-0.900269 25:-0.901958 26:-0.902469 27:-0.904158 28:-0.908236 29:-0.913252 30:-0.916565 31:-0.919892 32:-0.922645 33:-0.925319 34:-0.928168 35:-0.930479 36:-0.93233 37:-0.934268 38:-0.936204 39:-0.938475 40:-0.939857 41:-0.94079 42:-0.940994 43:-0.942189 44:-0.942747 45:-0.942903 46:-0.94305 47:-0.942939 48:-0.942866 49:-0.943307 50:-0.943233 51:-0.943167 52:-0.94327 53:-0.943154 54:-0.942979 55:-0.943544 56:-0.943601 57:-0.943944 58:-0.94393 59:-0.943804 60:-0.94369 61:-0.943831 62:-0.943713 63:-0.943618 64:-0.94408 65:-0.943963 66:-0.944186 67:-0.944671 68:-0.944542 69:-0.94458 70:-0.944675 71:-0.944535 72:-0.944398 73:-0.944651 74:-0.944523 75:-0.944405 76:-0.944384 77:-0.944801 78:-0.944839 79:-0.944701 80:-0.944589 81:-0.944728 82:-0.944601 83:-0.944048 84:-0.941775 85:-0.939528 86:-0.937312 87:-0.935231 88:-0.933077 89:-0.931016 90:-0.929181 91:-0.927313 92:-0.92537 93:-0.923479 94:-0.921707 95:-0.920333 96:-0.918661 97:-0.917042 98:-0.915244 99:-0.913851 100:-0.912399 101:-0.910792 102:-0.909395 103:-0.908179 104:-0.908916 
-2048 1:-0.910481 2:-0.894351 3:-0.929764 4:-0.918165 5:-0.809882 6:-0.78994 7:-0.778332 8:-0.772231 9:-0.769522 10:-0.783305 11:-0.786696 12:-0.818473 13:-0.843057 14:-0.856336 15:-0.86845 16:-0.873324 17:-0.864133 18:-0.859801 19:-0.852332 20:-0.848059 21:-0.854727 22:-0.865874 23:-0.874213 24:-0.880682 25:-0.881727 26:-0.883163 27:-0.884618 28:-0.88799 29:-0.891438 30:-0.895142 31:-0.898325 32:-0.900632 33:-0.903195 34:-0.90555 35:-0.908281 36:-0.910403 37:-0.912237 38:-0.914073 39:-0.916467 40:-0.917748 41:-0.918561 42:-0.9187 43:-0.919177 44:-0.919403 45:-0.919798 46:-0.92007 47:-0.919905 48:-0.919793 49:-0.919989 50:-0.919886 51:-0.920039 52:-0.919912 53:-0.91977 54:-0.919802 55:-0.919796 56:-0.91966 57:-0.919711 58:-0.919676 59:-0.919781 60:-0.919657 61:-0.919804 62:-0.919873 63:-0.920175 64:-0.920055 65:-0.920001 66:-0.919884 67:-0.919952 68:-0.919824 69:-0.919992 70:-0.919854 71:-0.919717 72:-0.919752 73:-0.919712 74:-0.91972 75:-0.919604 76:-0.919708 77:-0.919742 78:-0.91963 79:-0.919558 80:-0.919462 81:-0.919436 82:-0.919465 83:-0.919069 84:-0.916744 85:-0.914531 86:-0.912302 87:-0.910217 88:-0.907994 89:-0.906131 90:-0.904216 91:-0.902401 92:-0.900358 93:-0.898548 94:-0.896842 95:-0.895258 96:-0.893456 97:-0.891916 98:-0.89015 99:-0.888929 100:-0.887499 101:-0.886151 102:-0.884683 103:-0.883279 104:-0.883997 
-2048 1:-0.955046 2:-0.90795 3:-0.938503 4:-0.948817 5:-0.805874 6:-0.812803 7:-0.80988 8:-0.805793 9:-0.801705 10:-0.800277 11:-0.80094 12:-0.836292 13:-0.865212 14:-0.878228 15:-0.891732 16:-0.89479 17:-0.88721 18:-0.882625 19:-0.875761 20:-0.871241 21:-0.877731 22:-0.890107 23:-0.899523 24:-0.906515 25:-0.907786 26:-0.908372 27:-0.910133 28:-0.913808 29:-0.91754 30:-0.921424 31:-0.924857 32:-0.927544 33:-0.930471 34:-0.933027 35:-0.935577 36:-0.937509 37:-0.939526 38:-0.941535 39:-0.943764 40:-0.945217 41:-0.9459 42:-0.946463 43:-0.946826 44:-0.947171 45:-0.947395 46:-0.947398 47:-0.947634 48:-0.947627 49:-0.947802 50:-0.947868 51:-0.947947 52:-0.947872 53:-0.948001 54:-0.947882 55:-0.94782 56:-0.94794 57:-0.947859 58:-0.947804 59:-0.947895 60:-0.948008 61:-0.948279 62:-0.948215 63:-0.948229 64:-0.948185 65:-0.948126 66:-0.948361 67:-0.948305 68:-0.948417 69:-0.948513 70:-0.948565 71:-0.94848 72:-0.948397 73:-0.948316 74:-0.948408 75:-0.948342 76:-0.948492 77:-0.949626 78:-0.949608 79:-0.949508 80:-0.949431 81:-0.949443 82:-0.949353 83:-0.948892 84:-0.946505 85:-0.944288 86:-0.942055 87:-0.939909 88:-0.937818 89:-0.935784 90:-0.933844 91:-0.932131 92:-0.93009 93:-0.928352 94:-0.926479 95:-0.925107 96:-0.923299 97:-0.922086 98:-0.920383 99:-0.919231 100:-0.917777 101:-0.916303 102:-0.914892 103:-0.913576 104:-0.914622 
-1259.076435715815 1:-0.925627 2:-0.871339 3:-0.901992 4:-0.91909 5:-0.807459 6:-0.795074 7:-0.795817 8:-0.786264 9:-0.780605 10:-0.778272 11:-0.776422 12:-0.81081 13:-0.83609 14:-0.84951 15:-0.862542 16:-0.865299 17:-0.857377 18:-0.85333 19:-0.846239 20:-0.842174 21:-0.848376 22:-0.860305 23:-0.869354 24:-0.876013 25:-0.877587 26:-0.878074 27:-0.880111 28:-0.884109 29:-0.887766 30:-0.891055 31:-0.894439 32:-0.896854 33:-0.899915 34:-0.902423 35:-0.904715 36:-0.907549 37:-0.911191 38:-0.913034 39:-0.915032 40:-0.916971 41:-0.91774 42:-0.91788 43:-0.918124 44:-0.918646 45:-0.918926 46:-0.919251 47:-0.922398 48:-0.923682 49:-0.923727 50:-0.923525 51:-0.923483 52:-0.923222 53:-0.923702 54:-0.923409 55:-0.923469 56:-0.923247 57:-0.923217 58:-0.923133 59:-0.923131 60:-0.923961 61:-0.923928 62:-0.923715 63:-0.923518 64:-0.923329 65:-0.923323 66:-0.923249 67:-0.923069 68:-0.923095 69:-0.922897 70:-0.922877 71:-0.922684 72:-0.922594 73:-0.922408 74:-0.9224 75:-0.922266 76:-0.92242 77:-0.922367 78:-0.922363 79:-0.92248 80:-0.92248 81:-0.922287 82:-0.922239 83:-0.921654 84:-0.919399 85:-0.917253 86:-0.915118 87:-0.912956 88:-0.910688 89:-0.908777 90:-0.906797 91:-0.905023 92:-0.902991 93:-0.90109 94:-0.89941 95:-0.897866 96:-0.896099 97:-0.894544 98:-0.892834 99:-0.891197 100:-0.889739 101:-0.888127 102:-0.886598 103:-0.885338 104:-0.886641 
-2047.47569624679 1:-0.952425 2:-0.888075 3:-0.923046 4:-0.938844 5:-0.749407 6:-0.769554 7:-0.76834 8:-0.769813 9:-0.777384 10:-0.778363 11:-0.780199 12:-0.81409 13:-0.84141 14:-0.856706 15:-0.872692 16:-0.878766 17:-0.870743 18:-0.866598 19:-0.860063 20:-0.85588 21:-0.862582 22:-0.874987 23:-0.883978 24:-0.891042 25:-0.892514 26:-0.8933 27:-0.89523 28:-0.899047 29:-0.902908 30:-0.906819 31:-0.911665 32:-0.916318 33:-0.920176 34:-0.922944 35:-0.925302 36:-0.927539 37:-0.929511 38:-0.93188 39:-0.933727 40:-0.935137 41:-0.935788 42:-0.936333 43:-0.936953 44:-0.937379 45:-0.938339 46:-0.939255 47:-0.939147 48:-0.939483 49:-0.939509 50:-0.939634 51:-0.939569 52:-0.939672 53:-0.939791 54:-0.939613 55:-0.939496 56:-0.939386 57:-0.939253 58:-0.939151 59:-0.939088 60:-0.939496 61:-0.939393 62:-0.939291 63:-0.939394 64:-0.939336 65:-0.939238 66:-0.939336 67:-0.939765 68:-0.939657 69:-0.939539 70:-0.939424 71:-0.939646 72:-0.939596 73:-0.93948 74:-0.939539 75:-0.940158 76:-0.940182 77:-0.940621 78:-0.940922 79:-0.941329 80:-0.941276 81:-0.941128 82:-0.941002 83:-0.940787 84:-0.939036 85:-0.937142 86:-0.934868 87:-0.932691 88:-0.930495 89:-0.928425 90:-0.926449 91:-0.924705 92:-0.922625 93:-0.920855 94:-0.918963 95:-0.91768 96:-0.91579 97:-0.914167 98:-0.912483 99:-0.910849 100:-0.909257 101:-0.907649 102:-0.906079 103:-0.904587 104:-0.905432 
-81.48061072500289 1:-0.809602 2:-0.812762 3:-0.863048 4:-0.816443 5:-0.72224 6:-0.694768 7:-0.680098 8:-0.692822 9:-0.695372 10:-0.692307 11:-0.689801 12:-0.719436 13:-0.743111 14:-0.754891 15:-0.768016 16:-0.769846 17:-0.761444 18:-0.75674 19:-0.749672 20:-0.745372 21:-0.751358 22:-0.763343 23:-0.771037 24:-0.778585 25:-0.779377 26:-0.779968 27:-0.781553 28:-0.785046 29:-0.788931 30:-0.792621 31:-0.795579 32:-0.797955 33:-0.800801 34:-0.803563 35:-0.806363 36:-0.808486 37:-0.810521 38:-0.81237 39:-0.81445 40:-0.81581 41:-0.816437 42:-0.816906 43:-0.817236 44:-0.817886 45:-0.817813 46:-0.818084 47:-0.818044 48:-0.818393 49:-0.818117 50:-0.818356 51:-0.818381 52:-0.81827 53:-0.818117 54:-0.818234 55:-0.818479 56:-0.818507 57:-0.818776 58:-0.818711 59:-0.818795 60:-0.818738 61:-0.818591 62:-0.818518 63:-0.818623 64:-0.818578 65:-0.818574 66:-0.818336 67:-0.818505 68:-0.818259 69:-0.818576 70:-0.818326 71:-0.818608 72:-0.818524 73:-0.818523 74:-0.818457 75:-0.818614 76:-0.818584 77:-0.818632 78:-0.81841 79:-0.818466 80:-0.81845 81:-0.81817 82:-0.818357 83:-0.817745 84:-0.815805 85:-0.813609 86:-0.811612 87:-0.809708 88:-0.807905 89:-0.806028 90:-0.804088 91:-0.802358 92:-0.800318 93:-0.798687 94:-0.796957 95:-0.795479 96:-0.793761 97:-0.792334 98:-0.790698 99:-0.789261 100:-0.787795 101:-0.786307 102:-0.784903 103:-0.783818 104:-0.784679 
-864.6510179025329 1:-0.928443 2:-0.932008 3:-0.955546 4:-0.959538 5:-0.836052 6:-0.820562 7:-0.810443 8:-0.80809 9:-0.80587 10:-0.805652 11:-0.80594 12:-0.841691 13:-0.870118 14:-0.88496 15:-0.900189 16:-0.903542 17:-0.897297 18:-0.893126 19:-0.88636 20:-0.882448 21:-0.889013 22:-0.90085 23:-0.909778 24:-0.916797 25:-0.919235 26:-0.919839 27:-0.921627 28:-0.925526 29:-0.929285 30:-0.932755 31:-0.935805 32:-0.938396 33:-0.941689 34:-0.944288 35:-0.946731 36:-0.948697 37:-0.950887 38:-0.953201 39:-0.955124 40:-0.956611 41:-0.957316 42:-0.957669 43:-0.958346 44:-0.958707 45:-0.958944 46:-0.95896 47:-0.958948 48:-0.959271 49:-0.959274 50:-0.959532 51:-0.959536 52:-0.959472 53:-0.959652 54:-0.95954 55:-0.959485 56:-0.959436 57:-0.959371 58:-0.959539 59:-0.959799 60:-0.960594 61:-0.960529 62:-0.960542 63:-0.960482 64:-0.960617 65:-0.960741 66:-0.960679 67:-0.960802 68:-0.960747 69:-0.960661 70:-0.960576 71:-0.960492 72:-0.96058 73:-0.960497 74:-0.960454 75:-0.960389 76:-0.960322 77:-0.960416 78:-0.960353 79:-0.960341 80:-0.960355 81:-0.960267 82:-0.960192 83:-0.959832 84:-0.957446 85:-0.955365 86:-0.953132 87:-0.950986 88:-0.948757 89:-0.946856 90:-0.944917 91:-0.943152 92:-0.941107 93:-0.939242 94:-0.937564 95:-0.935944 96:-0.93421 97:-0.932732 98:-0.930957 99:-0.929354 100:-0.927838 101:-0.926259 102:-0.924777 103:-0.923388 104:-0.924475 
-2048 1:-0.947667 2:-0.944561 3:-0.963926 4:-0.95432 5:-0.803261 6:-0.80231 7:-0.797946 8:-0.799207 9:-0.798204 10:-0.798532 11:-0.799199 12:-0.833187 13:-0.861811 14:-0.876497 15:-0.890394 16:-0.894159 17:-0.88631 18:-0.8823 19:-0.875932 20:-0.872546 21:-0.879382 22:-0.892049 23:-0.901158 24:-0.908338 25:-0.909866 26:-0.910683 27:-0.912658 28:-0.916531 29:-0.92221 30:-0.925914 31:-0.929199 32:-0.931846 33:-0.934722 34:-0.937382 35:-0.940178 36:-0.942194 37:-0.944293 38:-0.94672 39:-0.948683 40:-0.950207 41:-0.951253 42:-0.951574 43:-0.951992 44:-0.95239 45:-0.952945 46:-0.952988 47:-0.95305 48:-0.953085 49:-0.953117 50:-0.953403 51:-0.953435 52:-0.953533 53:-0.953509 54:-0.953424 55:-0.953395 56:-0.953546 57:-0.953498 58:-0.953472 59:-0.953443 60:-0.953626 61:-0.953713 62:-0.953681 63:-0.953657 64:-0.953634 65:-0.953604 66:-0.953801 67:-0.954403 68:-0.954424 69:-0.954361 70:-0.954437 71:-0.954505 72:-0.95444 73:-0.954508 74:-0.954451 75:-0.954402 76:-0.954351 77:-0.954459 78:-0.954412 79:-0.954371 80:-0.954324 81:-0.954249 82:-0.95419 83:-0.953701 84:-0.951482 85:-0.949363 86:-0.947151 87:-0.945025 88:-0.942817 89:-0.940803 90:-0.938884 91:-0.937064 92:-0.935287 93:-0.933439 94:-0.931584 95:-0.930106 96:-0.928266 97:-0.926694 98:-0.925006 99:-0.92342 100:-0.921875 101:-0.920313 102:-0.918879 103:-0.91743 104:-0.918657 
-70.18912587090622 1:-0.93524 2:-0.855649 3:-0.846678 4:-0.943036 5:-0.83617 6:-0.846992 7:-0.835298 8:-0.833436 9:-0.821564 10:-0.816649 11:-0.812092 12:-0.843994 13:-0.868222 14:-0.880927 15:-0.893321 16:-0.895283 17:-0.888082 18:-0.882763 19:-0.876623 20:-0.8729 21:-0.87862 22:-0.890179 23:-0.898392 24:-0.904791 25:-0.905987 26:-0.906223 27:-0.909036 28:-0.917953 29:-0.923748 30:-0.926511 31:-0.929752 32:-0.931703 33:-0.93472 34:-0.937844 35:-0.944151 36:-0.949745 37:-0.955213 38:-0.956717 39:-0.958209 40:-0.959886 41:-0.959855 42:-0.959734 43:-0.960356 44:-0.962912 45:-0.963292 46:-0.962633 47:-0.962248 48:-0.961885 49:-0.961298 50:-0.960739 51:-0.960597 52:-0.960011 53:-0.959465 54:-0.958923 55:-0.959081 56:-0.96114 57:-0.961243 58:-0.960888 59:-0.96046 60:-0.959971 61:-0.959577 62:-0.959116 63:-0.958675 64:-0.95825 65:-0.957832 66:-0.957765 67:-0.957372 68:-0.956978 69:-0.956583 70:-0.956372 71:-0.955995 72:-0.95576 73:-0.955568 74:-0.955223 75:-0.954923 76:-0.954601 77:-0.954288 78:-0.954141 79:-0.95385 80:-0.953598 81:-0.953398 82:-0.953106 83:-0.952418 84:-0.949979 85:-0.947569 86:-0.94515 87:-0.942823 88:-0.940554 89:-0.938348 90:-0.936373 91:-0.934437 92:-0.932231 93:-0.930209 94:-0.928311 95:-0.926541 96:-0.92477 97:-0.923117 98:-0.921482 99:-0.919835 100:-0.918135 101:-0.916694 102:-0.915019 103:-0.913469 104:-0.914378 
-40.21241999489294 1:-0.945337 2:-0.834728 3:-0.884638 4:-0.941014 5:-0.789998 6:-0.81805 7:-0.80264 8:-0.795475 9:-0.792994 10:-0.791239 11:-0.790427 12:-0.824754 13:-0.850959 14:-0.864197 15:-0.878509 16:-0.881718 17:-0.873439 18:-0.869072 19:-0.863854 20:-0.859469 21:-0.865953 22:-0.8783 23:-0.887112 24:-0.894015 25:-0.895332 26:-0.896491 27:-0.89827 28:-0.901951 29:-0.905842 30:-0.909283 31:-0.912305 32:-0.915688 33:-0.918463 34:-0.921404 35:-0.9238 36:-0.925736 37:-0.927751 38:-0.930136 39:-0.932195 40:-0.934393 41:-0.936327 42:-0.937159 43:-0.938207 44:-0.938708 45:-0.938858 46:-0.938901 47:-0.939063 48:-0.939607 49:-0.941309 50:-0.942021 51:-0.942277 52:-0.942078 53:-0.941906 54:-0.94214 55:-0.942128 56:-0.941961 57:-0.942208 58:-0.942438 59:-0.943081 60:-0.944891 61:-0.94598 62:-0.945836 63:-0.945705 64:-0.945503 65:-0.945298 66:-0.945533 67:-0.945522 68:-0.94542 69:-0.945455 70:-0.945245 71:-0.945139 72:-0.944936 73:-0.944738 74:-0.944553 75:-0.944701 76:-0.944588 77:-0.944573 78:-0.944559 79:-0.944373 80:-0.944214 81:-0.944025 82:-0.944432 83:-0.944006 84:-0.941685 85:-0.939896 86:-0.937647 87:-0.935477 88:-0.933432 89:-0.931373 90:-0.929643 91:-0.927803 92:-0.925733 93:-0.923892 94:-0.922047 95:-0.920403 96:-0.918478 97:-0.917429 98:-0.915956 99:-0.914609 100:-0.913053 101:-0.911641 102:-0.910101 103:-0.909393 104:-0.909994 
-112.058741447801 1:-0.866013 2:-0.764644 3:-0.839898 4:-0.841176 5:-0.73285 6:-0.728567 7:-0.71653 8:-0.706455 9:-0.701838 10:-0.699951 11:-0.699606 12:-0.729672 13:-0.756495 14:-0.770617 15:-0.790788 16:-0.797218 17:-0.795856 18:-0.789815 19:-0.782138 20:-0.777625 21:-0.783205 22:-0.795208 23:-0.803773 24:-0.8121 25:-0.812492 26:-0.81277 27:-0.813585 28:-0.816868 29:-0.820141 30:-0.822711 31:-0.825344 32:-0.82791 33:-0.829982 34:-0.832227 35:-0.834353 36:-0.836278 37:-0.838261 38:-0.83969 39:-0.841374 40:-0.842924 41:-0.843164 42:-0.843038 43:-0.843749 44:-0.844872 45:-0.844727 46:-0.844655 47:-0.844483 48:-0.844902 49:-0.844641 50:-0.844944 51:-0.844718 52:-0.84461 53:-0.844692 54:-0.844717 55:-0.844469 56:-0.844236 57:-0.844115 58:-0.844231 59:-0.844078 60:-0.844041 61:-0.843993 62:-0.844313 63:-0.844194 64:-0.844121 65:-0.844018 66:-0.844164 67:-0.844086 68:-0.844082 69:-0.844016 70:-0.843812 71:-0.843539 72:-0.843535 73:-0.843666 74:-0.844124 75:-0.844066 76:-0.844051 77:-0.843957 78:-0.843964 79:-0.843849 80:-0.843715 81:-0.843486 82:-0.843485 83:-0.843055 84:-0.840717 85:-0.838666 86:-0.836521 87:-0.834789 88:-0.832855 89:-0.831227 90:-0.829428 91:-0.827981 92:-0.825896 93:-0.824126 94:-0.822346 95:-0.821744 96:-0.820331 97:-0.818833 98:-0.817208 99:-0.815769 100:-0.814499 101:-0.812912 102:-0.811457 103:-0.810122 104:-0.811243 
-1647.865010479319 1:-0.969222 2:-0.936192 3:-0.956994 4:-0.961884 5:-0.810426 6:-0.809285 7:-0.808986 8:-0.81305 9:-0.810325 10:-0.809744 11:-0.810397 12:-0.844024 13:-0.871108 14:-0.885003 15:-0.899619 16:-0.903228 17:-0.895221 18:-0.89187 19:-0.885354 20:-0.881105 21:-0.887892 22:-0.899925 23:-0.909133 24:-0.916878 25:-0.918354 26:-0.919114 27:-0.921043 28:-0.924882 29:-0.928851 30:-0.934751 31:-0.937822 32:-0.940657 33:-0.943491 34:-0.946116 35:-0.948584 36:-0.950931 37:-0.952997 38:-0.955055 39:-0.956999 40:-0.958506 41:-0.959541 42:-0.959839 43:-0.960236 44:-0.960613 45:-0.961078 46:-0.961104 47:-0.961102 48:-0.961122 49:-0.961141 50:-0.961162 51:-0.961185 52:-0.96114 53:-0.961971 54:-0.961943 55:-0.96189 56:-0.961843 57:-0.962164 58:-0.962114 59:-0.962062 60:-0.962016 61:-0.962131 62:-0.962081 63:-0.962429 64:-0.962381 65:-0.962518 66:-0.962551 67:-0.962502 68:-0.96244 69:-0.962437 70:-0.962363 71:-0.962291 72:-0.96222 73:-0.962307 74:-0.962252 75:-0.962198 76:-0.962142 77:-0.962087 78:-0.962037 79:-0.961967 80:-0.962066 81:-0.961989 82:-0.961925 83:-0.961429 84:-0.959052 85:-0.956987 86:-0.954763 87:-0.952625 88:-0.950405 89:-0.94838 90:-0.946583 91:-0.944751 92:-0.942802 93:-0.941046 94:-0.93918 95:-0.937567 96:-0.935729 97:-0.934259 98:-0.932625 99:-0.931497 100:-0.929998 101:-0.928653 102:-0.927144 103:-0.925679 104:-0.926771 
-73.69092194847707 1:-0.913005 2:-0.860879 3:-0.90624 4:-0.922191 5:-0.810055 6:-0.792803 7:-0.778238 8:-0.772817 9:-0.77139 10:-0.771196 11:-0.771664 12:-0.815263 13:-0.844829 14:-0.857316 15:-0.869983 16:-0.87241 17:-0.863498 18:-0.859239 19:-0.852581 20:-0.848037 21:-0.854113 22:-0.86607 23:-0.874893 24:-0.881466 25:-0.882948 26:-0.883862 27:-0.885882 28:-0.889316 29:-0.893278 30:-0.896753 31:-0.899555 32:-0.901917 33:-0.904927 34:-0.908355 35:-0.912061 36:-0.914152 37:-0.915959 38:-0.918446 39:-0.920621 40:-0.923025 41:-0.924368 42:-0.924729 43:-0.924887 44:-0.925038 45:-0.925362 46:-0.9254 47:-0.925178 48:-0.925007 49:-0.9251 50:-0.924944 51:-0.925292 52:-0.925104 53:-0.92491 54:-0.924893 55:-0.924925 56:-0.924742 57:-0.924533 58:-0.924533 59:-0.92436 60:-0.924408 61:-0.92445 62:-0.924288 63:-0.924361 64:-0.924398 65:-0.924253 66:-0.924111 67:-0.923973 68:-0.924004 69:-0.923913 70:-0.923757 71:-0.923773 72:-0.923849 73:-0.923695 74:-0.923555 75:-0.923423 76:-0.923479 77:-0.923348 78:-0.923379 79:-0.923233 80:-0.923332 81:-0.923173 82:-0.923217 83:-0.922664 84:-0.92077 85:-0.919301 86:-0.917743 87:-0.915987 88:-0.914249 89:-0.912227 90:-0.910242 91:-0.908471 92:-0.906429 93:-0.904525 94:-0.902727 95:-0.901152 96:-0.899309 97:-0.897778 98:-0.89602 99:-0.894805 100:-0.893204 101:-0.89177 102:-0.890191 103:-0.888913 104:-0.889533 
-93.28800753736851 1:-0.875722 2:-0.853556 3:-0.884827 4:-0.873016 5:-0.802724 6:-0.764369 7:-0.749552 8:-0.739631 9:-0.735688 10:-0.747156 11:-0.776425 12:-0.804152 13:-0.826278 14:-0.836059 15:-0.845482 16:-0.848655 17:-0.838544 18:-0.831917 19:-0.823804 20:-0.818351 21:-0.823068 22:-0.833744 23:-0.841802 24:-0.847324 25:-0.848659 26:-0.848798 27:-0.849604 28:-0.852912 29:-0.855754 30:-0.859133 31:-0.861359 32:-0.863593 33:-0.865775 34:-0.868065 35:-0.870599 36:-0.872025 37:-0.873838 38:-0.87577 39:-0.877151 40:-0.878103 41:-0.87886 42:-0.879042 43:-0.879028 44:-0.879402 45:-0.879568 46:-0.879518 47:-0.879424 48:-0.879112 49:-0.879063 50:-0.878776 51:-0.878844 52:-0.878492 53:-0.878424 54:-0.878468 55:-0.878179 56:-0.878118 57:-0.877914 58:-0.877646 59:-0.877377 60:-0.877478 61:-0.877429 62:-0.878368 63:-0.878302 64:-0.878253 65:-0.877998 66:-0.877873 67:-0.877827 68:-0.877835 69:-0.87759 70:-0.877523 71:-0.877446 72:-0.877207 73:-0.876974 74:-0.876989 75:-0.876941 76:-0.87684 77:-0.876788 78:-0.87668 79:-0.876612 80:-0.876617 81:-0.876385 82:-0.876269 83:-0.87581 84:-0.873687 85:-0.871447 86:-0.869325 87:-0.867161 88:-0.865102 89:-0.863051 90:-0.861259 91:-0.859702 92:-0.85763 93:-0.855793 94:-0.854028 95:-0.8524 96:-0.850674 97:-0.849058 98:-0.847414 99:-0.845908 100:-0.844344 101:-0.842835 102:-0.841502 103:-0.840143 104:-0.840855 
-552.0739068171824 1:-0.965629 2:-0.859833 3:-0.910289 4:-0.962756 5:-0.807652 6:-0.809759 7:-0.803272 8:-0.801743 9:-0.801768 10:-0.805376 11:-0.809816 12:-0.843264 13:-0.8707 14:-0.884436 15:-0.898127 16:-0.902068 17:-0.894 18:-0.889796 19:-0.883284 20:-0.879047 21:-0.886494 22:-0.898845 23:-0.907899 24:-0.915032 25:-0.916716 26:-0.91787 27:-0.920325 28:-0.924854 29:-0.929012 30:-0.932853 31:-0.935918 32:-0.938525 33:-0.941831 34:-0.944443 35:-0.947799 36:-0.95144 37:-0.954448 38:-0.956405 39:-0.958515 40:-0.959925 41:-0.960556 42:-0.960894 43:-0.961211 44:-0.961514 45:-0.961918 46:-0.961875 47:-0.961808 48:-0.96187 49:-0.961827 50:-0.961988 51:-0.96195 52:-0.961942 53:-0.9624 54:-0.962244 55:-0.962763 56:-0.96266 57:-0.963384 58:-0.963358 59:-0.963247 60:-0.963349 61:-0.963245 62:-0.963141 63:-0.963046 64:-0.963139 65:-0.963041 66:-0.962951 67:-0.963046 68:-0.962944 69:-0.962935 70:-0.962998 71:-0.962885 72:-0.963343 73:-0.963459 74:-0.963414 75:-0.963315 76:-0.963215 77:-0.963136 78:-0.96315 79:-0.963038 80:-0.962945 81:-0.96283 82:-0.96273 83:-0.962197 84:-0.959928 85:-0.957836 86:-0.956144 87:-0.953964 88:-0.951757 89:-0.949723 90:-0.947906 91:-0.946504 92:-0.944903 93:-0.943326 94:-0.941654 95:-0.940316 96:-0.938752 97:-0.937305 98:-0.935659 99:-0.934605 100:-0.933531 101:-0.932078 102:-0.930746 103:-0.92953 104:-0.930523 
-329.2180042724057 1:-0.883878 2:-0.83159 3:-0.877175 4:-0.833591 5:-0.742801 6:-0.738376 7:-0.718439 8:-0.705472 9:-0.702023 10:-0.701014 11:-0.700063 12:-0.729414 13:-0.756909 14:-0.770374 15:-0.782814 16:-0.786406 17:-0.778789 18:-0.774085 19:-0.767513 20:-0.763203 21:-0.768997 22:-0.780277 23:-0.788526 24:-0.795194 25:-0.796423 26:-0.797087 27:-0.798838 28:-0.802394 29:-0.806011 30:-0.809321 31:-0.812313 32:-0.815176 33:-0.817488 34:-0.820176 35:-0.822501 36:-0.82407 37:-0.826167 38:-0.828119 39:-0.830085 40:-0.831524 41:-0.83217 42:-0.83243 43:-0.832781 44:-0.833339 45:-0.833455 46:-0.833357 47:-0.835787 48:-0.835653 49:-0.835494 50:-0.835844 51:-0.835618 52:-0.83577 53:-0.8355 54:-0.83541 55:-0.835391 56:-0.835583 57:-0.835402 58:-0.835373 59:-0.83533 60:-0.835336 61:-0.835508 62:-0.835266 63:-0.835393 64:-0.835376 65:-0.835392 66:-0.835293 67:-0.83527 68:-0.835411 69:-0.835273 70:-0.835189 71:-0.835135 72:-0.835074 73:-0.836122 74:-0.83612 75:-0.836067 76:-0.835937 77:-0.835878 78:-0.835829 79:-0.835826 80:-0.83582 81:-0.835561 82:-0.835499 83:-0.835128 84:-0.832908 85:-0.830993 86:-0.828792 87:-0.826805 88:-0.824728 89:-0.822899 90:-0.821088 91:-0.81936 92:-0.817579 93:-0.816121 94:-0.814256 95:-0.812716 96:-0.810968 97:-0.809422 98:-0.807662 99:-0.806108 100:-0.80469 101:-0.803227 102:-0.801934 103:-0.800557 104:-0.801245 
-2048 1:-0.940288 2:-0.876569 3:-0.919653 4:-0.949566 5:-0.793987 6:-0.825389 7:-0.823455 8:-0.815937 9:-0.809739 10:-0.80831 11:-0.806508 12:-0.839301 13:-0.865231 14:-0.878651 15:-0.892081 16:-0.89726 17:-0.889453 18:-0.884826 19:-0.878385 20:-0.87503 21:-0.881285 22:-0.893079 23:-0.901738 24:-0.908961 25:-0.910098 26:-0.910969 27:-0.912599 28:-0.916157 29:-0.919963 30:-0.92374 31:-0.927075 32:-0.930005 33:-0.934484 34:-0.936896 35:-0.939313 36:-0.941475 37:-0.943421 38:-0.945307 39:-0.94709 40:-0.949082 41:-0.949997 42:-0.95051 43:-0.951053 44:-0.951733 45:-0.951835 46:-0.951721 47:-0.95184 48:-0.951727 49:-0.951822 50:-0.951718 51:-0.951623 52:-0.951701 53:-0.951558 54:-0.951402 55:-0.951262 56:-0.951352 57:-0.9512 58:-0.951378 59:-0.952178 60:-0.952402 61:-0.952463 62:-0.95266 63:-0.952795 64:-0.952658 65:-0.9527 66:-0.952567 67:-0.952438 68:-0.952478 69:-0.952327 70:-0.952179 71:-0.952135 72:-0.952387 73:-0.952451 74:-0.953092 75:-0.953044 76:-0.953335 77:-0.95351 78:-0.953372 79:-0.953369 80:-0.953818 81:-0.953937 82:-0.954135 83:-0.953549 84:-0.951093 85:-0.948808 86:-0.946649 87:-0.944438 88:-0.942226 89:-0.940265 90:-0.938264 91:-0.936364 92:-0.93439 93:-0.932468 94:-0.930588 95:-0.928961 96:-0.927053 97:-0.925413 98:-0.923712 99:-0.922062 100:-0.920615 101:-0.91899 102:-0.917448 103:-0.915939 104:-0.91654 
-974.6981012068283 1:-0.919316 2:-0.83682 3:-0.881594 4:-0.909047 5:-0.822665 6:-0.789389 7:-0.771064 8:-0.767013 9:-0.762085 10:-0.761804 11:-0.76139 12:-0.793336 13:-0.826697 14:-0.839412 15:-0.851864 16:-0.855294 17:-0.850931 18:-0.846769 19:-0.839646 20:-0.835016 21:-0.840943 22:-0.854288 23:-0.863357 24:-0.874381 25:-0.875048 26:-0.87533 27:-0.876587 28:-0.880335 29:-0.884832 30:-0.890614 31:-0.893077 32:-0.896215 33:-0.898655 34:-0.900892 35:-0.903002 36:-0.904817 37:-0.906438 38:-0.908207 39:-0.909857 40:-0.911564 41:-0.912249 42:-0.912785 43:-0.913655 44:-0.913935 45:-0.914102 46:-0.913943 47:-0.913628 48:-0.913637 49:-0.913431 50:-0.913399 51:-0.91318 52:-0.91313 53:-0.912917 54:-0.912838 55:-0.912637 56:-0.9124 57:-0.912392 58:-0.912168 59:-0.912362 60:-0.912149 61:-0.912244 62:-0.912031 63:-0.912263 64:-0.912585 65:-0.912375 66:-0.912366 67:-0.912309 68:-0.912286 69:-0.91211 70:-0.911904 71:-0.911904 72:-0.911871 73:-0.911891 74:-0.911703 75:-0.911718 76:-0.911855 77:-0.911915 78:-0.911741 79:-0.911854 80:-0.911806 81:-0.911598 82:-0.911596 83:-0.911001 84:-0.908689 85:-0.906432 86:-0.904299 87:-0.902304 88:-0.900249 89:-0.898311 90:-0.896328 91:-0.894574 92:-0.892488 93:-0.890935 94:-0.889024 95:-0.887485 96:-0.885666 97:-0.884158 98:-0.882467 99:-0.880827 100:-0.879229 101:-0.878381 102:-0.877599 103:-0.876619 104:-0.877683 
-2048 1:-0.964464 2:-0.908996 3:-0.942163 4:-0.956597 5:-0.800056 6:-0.803365 7:-0.797526 8:-0.801726 9:-0.803487 10:-0.808346 11:-0.808637 12:-0.841688 13:-0.868809 14:-0.882293 15:-0.895777 16:-0.899467 17:-0.891351 18:-0.887037 19:-0.880421 20:-0.876102 21:-0.88346 22:-0.895711 23:-0.904692 24:-0.911756 25:-0.913171 26:-0.91388 27:-0.916254 28:-0.920023 29:-0.923842 30:-0.927947 31:-0.931027 32:-0.933646 33:-0.936496 34:-0.939132 35:-0.941982 36:-0.943974 37:-0.946051 38:-0.948118 39:-0.950265 40:-0.951773 41:-0.952504 42:-0.953122 43:-0.953526 44:-0.953911 45:-0.954436 46:-0.954577 47:-0.954574 48:-0.954597 49:-0.954618 50:-0.954893 51:-0.954915 52:-0.954866 53:-0.954835 54:-0.954743 55:-0.954933 56:-0.954898 57:-0.954918 58:-0.954884 59:-0.954847 60:-0.954818 61:-0.954988 62:-0.95499 63:-0.95496 64:-0.955123 65:-0.955085 66:-0.955053 67:-0.955022 68:-0.955147 69:-0.955962 70:-0.956374 71:-0.956429 72:-0.95635 73:-0.956273 74:-0.956205 75:-0.956338 76:-0.956274 77:-0.956212 78:-0.956155 79:-0.956078 80:-0.956021 81:-0.956087 82:-0.956017 83:-0.955516 84:-0.953284 85:-0.951449 86:-0.949222 87:-0.947537 88:-0.94549 89:-0.943453 90:-0.941512 91:-0.93967 92:-0.937878 93:-0.93601 94:-0.934134 95:-0.932637 96:-0.931081 97:-0.929608 98:-0.928065 99:-0.926455 100:-0.925067 101:-0.923769 102:-0.922601 103:-0.921229 104:-0.922306 
-2048 1:-0.925627 2:-0.881799 3:-0.91873 4:-0.939786 5:-0.782018 6:-0.80393 7:-0.795537 8:-0.790894 9:-0.787746 10:-0.787179 11:-0.788507 12:-0.822838 13:-0.849824 14:-0.863254 15:-0.877105 16:-0.880501 17:-0.872383 18:-0.868156 19:-0.862303 20:-0.858684 21:-0.865262 22:-0.877691 23:-0.887175 24:-0.894537 25:-0.896413 26:-0.898079 27:-0.899827 28:-0.90389 29:-0.907585 30:-0.910994 31:-0.914409 32:-0.91701 33:-0.91977 34:-0.922315 35:-0.925152 36:-0.927073 37:-0.929075 38:-0.931408 39:-0.933285 40:-0.934721 41:-0.935584 42:-0.93597 43:-0.936328 44:-0.937792 45:-0.938066 46:-0.93804 47:-0.938241 48:-0.938205 49:-0.938171 50:-0.938394 51:-0.938461 52:-0.938409 53:-0.938516 54:-0.938375 55:-0.938516 56:-0.938436 57:-0.938331 58:-0.938469 59:-0.938388 60:-0.938438 61:-0.938566 62:-0.939283 63:-0.939511 64:-0.939656 65:-0.939939 66:-0.940632 67:-0.940531 68:-0.94049 69:-0.940683 70:-0.940597 71:-0.940527 72:-0.940794 73:-0.940835 74:-0.941295 75:-0.94118 76:-0.941223 77:-0.941221 78:-0.941208 79:-0.941341 80:-0.941355 81:-0.941214 82:-0.94124 83:-0.94083 84:-0.938421 85:-0.936323 86:-0.934476 87:-0.932521 88:-0.930372 89:-0.92831 90:-0.926342 91:-0.924606 92:-0.922534 93:-0.920865 94:-0.919061 95:-0.917417 96:-0.915968 97:-0.914638 98:-0.912883 99:-0.911484 100:-0.910139 101:-0.908889 102:-0.907318 103:-0.905925 104:-0.906654 
-2048 1:-0.942716 2:-0.879707 3:-0.927872 4:-0.941779 5:-0.784334 6:-0.825569 7:-0.823678 8:-0.816596 9:-0.809686 10:-0.805614 11:-0.805031 12:-0.837076 13:-0.862904 14:-0.875801 15:-0.888392 16:-0.891444 17:-0.883002 18:-0.878971 19:-0.875683 20:-0.872901 21:-0.880597 22:-0.891761 23:-0.90186 24:-0.909179 25:-0.910162 26:-0.910331 27:-0.911807 28:-0.915451 29:-0.9188 30:-0.922066 31:-0.924757 32:-0.927177 33:-0.929842 34:-0.932231 35:-0.934471 36:-0.936741 37:-0.938538 38:-0.940474 39:-0.942435 40:-0.9437 41:-0.944331 42:-0.944735 43:-0.945104 44:-0.945291 45:-0.946039 46:-0.946159 47:-0.946099 48:-0.945944 49:-0.945999 50:-0.945857 51:-0.945971 52:-0.94599 53:-0.945809 54:-0.945756 55:-0.94558 56:-0.945676 57:-0.945486 58:-0.945327 59:-0.945252 60:-0.945104 61:-0.945161 62:-0.945051 63:-0.945084 64:-0.945157 65:-0.945016 66:-0.944959 67:-0.945044 68:-0.944903 69:-0.944893 70:-0.944744 71:-0.944597 72:-0.944588 73:-0.944446 74:-0.944544 75:-0.944513 76:-0.94445 77:-0.944328 78:-0.944335 79:-0.944317 80:-0.944205 81:-0.944131 82:-0.944114 83:-0.94362 84:-0.941262 85:-0.939017 86:-0.936757 87:-0.934586 88:-0.932518 89:-0.930593 90:-0.928884 91:-0.927272 92:-0.925399 93:-0.923503 94:-0.921651 95:-0.92 96:-0.918166 97:-0.916549 98:-0.914844 99:-0.913402 100:-0.911814 101:-0.910209 102:-0.908643 103:-0.907333 104:-0.908119 
-1861.672178104578 1:-0.950192 2:-0.879707 3:-0.91724 4:-0.943517 5:-0.800032 6:-0.794454 7:-0.788102 8:-0.794642 9:-0.79797 10:-0.798231 11:-0.797029 12:-0.83011 13:-0.856276 14:-0.87036 15:-0.883527 16:-0.886703 17:-0.87838 18:-0.874776 19:-0.867984 20:-0.864253 21:-0.870992 22:-0.882708 23:-0.891545 24:-0.898472 25:-0.899799 26:-0.900963 27:-0.902749 28:-0.906441 29:-0.910799 30:-0.914583 31:-0.917586 32:-0.920134 33:-0.923695 34:-0.92624 35:-0.928635 36:-0.930926 37:-0.93293 38:-0.934927 39:-0.936814 40:-0.938684 41:-0.939358 42:-0.939621 43:-0.939983 44:-0.940328 45:-0.941093 46:-0.941084 47:-0.941037 48:-0.941024 49:-0.941418 50:-0.941402 51:-0.941392 52:-0.941308 53:-0.941248 54:-0.941358 55:-0.941292 56:-0.941444 57:-0.942239 58:-0.942656 59:-0.942567 60:-0.942694 61:-0.942612 62:-0.942727 63:-0.942651 64:-0.942744 65:-0.94386 66:-0.943947 67:-0.943854 68:-0.943749 69:-0.943635 70:-0.943697 71:-0.943616 72:-0.943504 73:-0.943728 74:-0.943624 75:-0.94353 76:-0.943593 77:-0.943813 78:-0.943875 79:-0.94376 80:-0.943671 81:-0.943549 82:-0.943447 83:-0.942919 84:-0.940586 85:-0.938658 86:-0.936418 87:-0.934644 88:-0.932932 89:-0.931094 90:-0.929135 91:-0.927276 92:-0.925368 93:-0.923586 94:-0.921822 95:-0.920182 96:-0.918524 97:-0.917132 98:-0.915667 99:-0.914382 100:-0.913221 101:-0.911861 102:-0.910778 103:-0.909599 104:-0.910538 
-764.6603521524535 1:-0.805136 2:-0.8159 3:-0.885 4:-0.831875 5:-0.726935 6:-0.705674 7:-0.723776 8:-0.71129 9:-0.705597 10:-0.703456 11:-0.701616 12:-0.731184 13:-0.755617 14:-0.768127 15:-0.780433 16:-0.784349 17:-0.775929 18:-0.772479 19:-0.765056 20:-0.760959 21:-0.769455 22:-0.78064 23:-0.789319 24:-0.795619 25:-0.797289 26:-0.798166 27:-0.799909 28:-0.803088 29:-0.806712 30:-0.809871 31:-0.812627 32:-0.81503 33:-0.817533 34:-0.820168 35:-0.822375 36:-0.824192 37:-0.826187 38:-0.828163 39:-0.830035 40:-0.831559 41:-0.832292 42:-0.832514 43:-0.832829 44:-0.833191 45:-0.833548 46:-0.833588 47:-0.833291 48:-0.833468 49:-0.833483 50:-0.833609 51:-0.8335 52:-0.833437 53:-0.833508 54:-0.833476 55:-0.833423 56:-0.833879 57:-0.83378 58:-0.833669 59:-0.833673 60:-0.833615 61:-0.833593 62:-0.833553 63:-0.833576 64:-0.833453 65:-0.833943 66:-0.834036 67:-0.834046 68:-0.83397 69:-0.833888 70:-0.833874 71:-0.833853 72:-0.833629 73:-0.833674 74:-0.8336 75:-0.833726 76:-0.833574 77:-0.833579 78:-0.833585 79:-0.833457 80:-0.833435 81:-0.833307 82:-0.833291 83:-0.832874 84:-0.830837 85:-0.828793 86:-0.826776 87:-0.824744 88:-0.822704 89:-0.820809 90:-0.819014 91:-0.817372 92:-0.815444 93:-0.813726 94:-0.8119 95:-0.810482 96:-0.80879 97:-0.807334 98:-0.805656 99:-0.804206 100:-0.802772 101:-0.801386 102:-0.799917 103:-0.798505 104:-0.799021 
-874.5524172986284 1:-0.922326 2:-0.865063 3:-0.921162 4:-0.91515 5:-0.775889 6:-0.78852 7:-0.774739 8:-0.769749 9:-0.767708 10:-0.766406 11:-0.767096 12:-0.80001 13:-0.826563 14:-0.840151 15:-0.853733 16:-0.857709 17:-0.84948 18:-0.845495 19:-0.839625 20:-0.835956 21:-0.842712 22:-0.85452 23:-0.86394 24:-0.870706 25:-0.872177 26:-0.879321 27:-0.880785 28:-0.884349 29:-0.888156 30:-0.891318 31:-0.894912 32:-0.897207 33:-0.900535 34:-0.904535 35:-0.906888 36:-0.908579 37:-0.91091 38:-0.912675 39:-0.914984 40:-0.916202 41:-0.916936 42:-0.917021 43:-0.917564 44:-0.917738 45:-0.91789 46:-0.917874 47:-0.917674 48:-0.917841 49:-0.917951 50:-0.918312 51:-0.918823 52:-0.918734 53:-0.918541 54:-0.918517 55:-0.918383 56:-0.918204 57:-0.918253 58:-0.918083 59:-0.918077 60:-0.917918 61:-0.918001 62:-0.91784 63:-0.917777 64:-0.917707 65:-0.917557 66:-0.917638 67:-0.917501 68:-0.917534 69:-0.917412 70:-0.917258 71:-0.917309 72:-0.917156 73:-0.917173 74:-0.917132 75:-0.917001 76:-0.917057 77:-0.916926 78:-0.916802 79:-0.91678 80:-0.916824 81:-0.916666 82:-0.916623 83:-0.916074 84:-0.913831 85:-0.911752 86:-0.909515 87:-0.907533 88:-0.905491 89:-0.90353 90:-0.901891 91:-0.900093 92:-0.898141 93:-0.896317 94:-0.894488 95:-0.892954 96:-0.89114 97:-0.889588 98:-0.887858 99:-0.886295 100:-0.884818 101:-0.883277 102:-0.881772 103:-0.880345 104:-0.88146 
-2048 1:-0.964561 2:-0.949791 3:-0.969805 4:-0.959722 5:-0.802798 6:-0.804904 7:-0.800167 8:-0.80065 9:-0.801883 10:-0.803938 11:-0.80645 12:-0.840348 13:-0.868145 14:-0.882181 15:-0.896121 16:-0.900632 17:-0.89669 18:-0.892328 19:-0.885689 20:-0.882311 21:-0.888949 22:-0.901479 23:-0.91085 24:-0.917874 25:-0.919237 26:-0.919891 27:-0.922221 28:-0.925954 29:-0.929741 30:-0.933496 31:-0.93656 32:-0.939165 33:-0.942001 34:-0.945009 35:-0.947466 36:-0.949512 37:-0.951577 38:-0.953972 39:-0.955906 40:-0.957403 41:-0.958117 42:-0.958415 43:-0.958812 44:-0.959478 45:-0.959831 46:-0.959961 47:-0.959952 48:-0.959966 49:-0.96008 50:-0.960094 51:-0.96011 52:-0.960147 53:-0.960115 54:-0.960017 55:-0.9602 56:-0.960159 57:-0.960225 58:-0.960184 59:-0.960142 60:-0.960106 61:-0.960069 62:-0.960229 63:-0.960194 64:-0.96016 65:-0.960121 66:-0.960088 67:-0.960238 68:-0.96019 69:-0.960268 70:-0.960206 71:-0.960144 72:-0.960084 73:-0.960025 74:-0.960138 75:-0.960093 76:-0.960046 77:-0.960001 78:-0.95996 79:-0.960052 80:-0.960061 81:-0.959991 82:-0.959935 83:-0.959447 84:-0.957223 85:-0.955024 86:-0.952809 87:-0.950761 88:-0.948549 89:-0.946665 90:-0.944766 91:-0.942941 92:-0.940911 93:-0.93906 94:-0.937281 95:-0.935695 96:-0.933853 97:-0.932327 98:-0.930569 99:-0.929029 100:-0.927528 101:-0.925964 102:-0.924436 103:-0.922986 104:-0.923788 
-214.5162267487226 1:-0.895141 2:-0.811715 3:-0.858389 4:-0.842611 5:-0.685099 6:-0.716617 7:-0.704888 8:-0.698354 9:-0.695865 10:-0.694703 11:-0.695483 12:-0.727712 13:-0.752535 14:-0.76754 15:-0.779928 16:-0.784269 17:-0.779271 18:-0.776542 19:-0.772112 20:-0.769759 21:-0.779127 22:-0.790218 23:-0.799828 24:-0.80763 25:-0.811502 26:-0.813408 27:-0.814805 28:-0.817582 29:-0.821389 30:-0.824453 31:-0.826697 32:-0.829125 33:-0.833237 34:-0.835082 35:-0.837204 36:-0.838933 37:-0.840713 38:-0.842489 39:-0.843842 40:-0.845859 41:-0.846176 42:-0.846344 43:-0.846313 44:-0.846574 45:-0.846876 46:-0.846816 47:-0.846545 48:-0.846481 49:-0.846613 50:-0.84662 51:-0.846582 52:-0.846925 53:-0.848146 54:-0.847894 55:-0.848079 56:-0.848136 57:-0.847734 58:-0.847838 59:-0.848029 60:-0.848198 61:-0.848119 62:-0.847958 63:-0.847899 64:-0.847916 65:-0.848175 66:-0.848196 67:-0.848241 68:-0.848501 69:-0.848296 70:-0.848343 71:-0.84835 72:-0.848051 73:-0.847923 74:-0.847816 75:-0.84755 76:-0.84744 77:-0.847178 78:-0.847392 79:-0.847177 80:-0.846973 81:-0.84697 82:-0.846724 83:-0.846373 84:-0.843957 85:-0.841971 86:-0.839843 87:-0.837803 88:-0.835679 89:-0.8338 90:-0.831818 91:-0.829945 92:-0.827995 93:-0.826421 94:-0.82466 95:-0.823007 96:-0.82125 97:-0.819622 98:-0.817948 99:-0.816433 100:-0.815076 101:-0.813639 102:-0.812219 103:-0.810945 104:-0.811568 
-2048 1:-0.961357 2:-0.919456 3:-0.94293 4:-0.955707 5:-0.79921 6:-0.813198 7:-0.81776 8:-0.812899 9:-0.809315 10:-0.807751 11:-0.807707 12:-0.841306 13:-0.872823 14:-0.886967 15:-0.899967 16:-0.904401 17:-0.899245 18:-0.895033 19:-0.889332 20:-0.88438 21:-0.891225 22:-0.90269 23:-0.911585 24:-0.918284 25:-0.919566 26:-0.91994 27:-0.921519 28:-0.925038 29:-0.929084 30:-0.93238 31:-0.935517 32:-0.93795 33:-0.940624 34:-0.943098 35:-0.945425 36:-0.947549 37:-0.949584 38:-0.951524 39:-0.953358 40:-0.954759 41:-0.955386 42:-0.955755 43:-0.956215 44:-0.956837 45:-0.957285 46:-0.957227 47:-0.957143 48:-0.957088 49:-0.957034 50:-0.957494 51:-0.957651 52:-0.957527 53:-0.957423 54:-0.957261 55:-0.957159 56:-0.957285 57:-0.95717 58:-0.957078 59:-0.957151 60:-0.958269 61:-0.958161 62:-0.958055 63:-0.957957 64:-0.95787 65:-0.957955 66:-0.957862 67:-0.957954 68:-0.95785 69:-0.957808 70:-0.957695 71:-0.957823 72:-0.957743 73:-0.957633 74:-0.957532 75:-0.957442 76:-0.95751 77:-0.957419 78:-0.957334 79:-0.957229 80:-0.957245 81:-0.957185 82:-0.95709 83:-0.956564 84:-0.954307 85:-0.952075 86:-0.949828 87:-0.948178 88:-0.945979 89:-0.943979 90:-0.942021 91:-0.940163 92:-0.938152 93:-0.936271 94:-0.934775 95:-0.933136 96:-0.931261 97:-0.929704 98:-0.927914 99:-0.926297 100:-0.924813 101:-0.923448 102:-0.922026 103:-0.92059 104:-0.921354 
