svm_type c_svc
kernel_type rbf
gamma 2
nr_class 2
total_sv 24
rho 23.745
distance 130.388
label 95 -1
nr_sv 11 13
SV
2048 1:-0.91184 2:-0.785565 3:-0.86384 4:-0.917638 5:-0.766246 6:-0.771949 7:-0.769537 8:-0.764712 9:-0.771419 10:-0.772914 11:-0.776122 12:-0.809058 13:-0.834594 14:-0.847333 15:-0.859802 16:-0.86322 17:-0.854935 18:-0.850549 19:-0.843833 20:-0.839133 21:-0.846335 22:-0.857659 23:-0.866165 24:-0.873351 25:-0.875189 26:-0.876424 27:-0.87817 28:-0.881803 29:-0.88531 30:-0.888983 31:-0.891876 32:-0.894243 33:-0.897335 34:-0.899725 35:-0.901979 36:-0.904152 37:-0.906361 38:-0.908229 39:-0.910755 40:-0.914186 41:-0.915138 42:-0.916463 43:-0.917102 44:-0.917602 45:-0.918041 46:-0.91824 47:-0.91801 48:-0.91882 49:-0.919654 50:-0.920144 51:-0.920337 52:-0.920062 53:-0.919917 54:-0.919854 55:-0.919625 56:-0.919705 57:-0.91945 58:-0.919454 59:-0.91924 60:-0.919249 61:-0.919121 62:-0.919123 63:-0.919135 64:-0.918956 65:-0.919567 66:-0.92042 67:-0.920225 68:-0.920475 69:-0.920506 70:-0.920855 71:-0.921168 72:-0.921079 73:-0.921287 74:-0.921615 75:-0.921472 76:-0.921263 77:-0.921532 78:-0.921482 79:-0.92152 80:-0.921613 81:-0.921424 82:-0.921338 83:-0.920716 84:-0.918255 85:-0.916189 86:-0.914381 87:-0.912311 88:-0.910328 89:-0.90848 90:-0.907123 91:-0.905532 92:-0.903621 93:-0.90167 94:-0.89991 95:-0.898398 96:-0.896605 97:-0.89527 98:-0.893669 99:-0.892338 100:-0.890946 101:-0.889534 102:-0.887997 103:-0.886583 104:-0.887506 
1061.632558281726 1:-0.943104 2:-0.85251 3:-0.912288 4:-0.934902 5:-0.813699 6:-0.808911 7:-0.795995 8:-0.790729 9:-0.792636 10:-0.790932 11:-0.789538 12:-0.822299 13:-0.848289 14:-0.861326 15:-0.875474 16:-0.879109 17:-0.871432 18:-0.867006 19:-0.860121 20:-0.856335 21:-0.862728 22:-0.875069 23:-0.8838 24:-0.890628 25:-0.892429 26:-0.893095 27:-0.89598 28:-0.899563 29:-0.903389 30:-0.906745 31:-0.910024 32:-0.912504 33:-0.915407 34:-0.918186 35:-0.920685 36:-0.922573 37:-0.924806 38:-0.926843 39:-0.928689 40:-0.930412 41:-0.931056 42:-0.931294 43:-0.931865 44:-0.932181 45:-0.934011 46:-0.934707 47:-0.93517 48:-0.935737 49:-0.936037 50:-0.935936 51:-0.935943 52:-0.935779 53:-0.935877 54:-0.936079 55:-0.936384 56:-0.937691 57:-0.937967 58:-0.938182 59:-0.938569 60:-0.93856 61:-0.938388 62:-0.938296 63:-0.938138 64:-0.937987 65:-0.93783 66:-0.938056 67:-0.937971 68:-0.937814 69:-0.937826 70:-0.937662 71:-0.9375 72:-0.937342 73:-0.937188 74:-0.937374 75:-0.937237 76:-0.937121 77:-0.936988 78:-0.936913 79:-0.937022 80:-0.936903 81:-0.936747 82:-0.936614 83:-0.936273 84:-0.933858 85:-0.931613 86:-0.929354 87:-0.927321 88:-0.925462 89:-0.923819 90:-0.921897 91:-0.920024 92:-0.918076 93:-0.916406 94:-0.914682 95:-0.913523 96:-0.911678 97:-0.910363 98:-0.908932 99:-0.907446 100:-0.905841 101:-0.904267 102:-0.902685 103:-0.901317 104:-0.902084 
2048 1:-0.938929 2:-0.838912 3:-0.898671 4:-0.931908 5:-0.758604 6:-0.767717 7:-0.774224 8:-0.780205 9:-0.784524 10:-0.792709 11:-0.792814 12:-0.824226 13:-0.85244 14:-0.868646 15:-0.881187 16:-0.884 17:-0.875096 18:-0.870645 19:-0.863561 20:-0.859166 21:-0.865174 22:-0.877215 23:-0.886081 24:-0.892608 25:-0.893802 26:-0.89454 27:-0.896034 28:-0.89964 29:-0.903126 30:-0.90669 31:-0.909489 32:-0.912172 33:-0.91477 34:-0.917466 35:-0.92008 36:-0.921932 37:-0.924149 38:-0.926006 39:-0.928073 40:-0.929387 41:-0.9302 42:-0.930476 43:-0.930733 44:-0.931207 45:-0.931614 46:-0.931564 47:-0.931632 48:-0.931636 49:-0.931538 50:-0.931644 51:-0.932958 52:-0.933467 53:-0.933917 54:-0.934521 55:-0.934596 56:-0.934923 57:-0.93551 58:-0.935757 59:-0.935636 60:-0.93561 61:-0.935501 62:-0.935698 63:-0.93575 64:-0.936025 65:-0.935911 66:-0.935734 67:-0.935779 68:-0.935595 69:-0.935474 70:-0.935286 71:-0.935302 72:-0.935119 73:-0.935006 74:-0.935003 75:-0.934844 76:-0.934842 77:-0.934686 78:-0.93472 79:-0.93455 80:-0.934533 81:-0.934356 82:-0.934492 83:-0.933913 84:-0.931538 85:-0.929277 86:-0.92714 87:-0.925049 88:-0.923658 89:-0.92173 90:-0.92004 91:-0.918705 92:-0.916651 93:-0.914779 94:-0.9129 95:-0.911347 96:-0.909461 97:-0.907817 98:-0.906183 99:-0.904671 100:-0.903104 101:-0.901613 102:-0.900066 103:-0.898825 104:-0.899876 
2048 1:-0.94058 2:-0.843096 3:-0.906565 4:-0.936111 5:-0.789121 6:-0.810152 7:-0.794632 8:-0.789669 9:-0.79265 10:-0.79463 11:-0.795844 12:-0.828049 13:-0.854012 14:-0.867043 15:-0.879749 16:-0.882925 17:-0.874613 18:-0.8699 19:-0.863713 20:-0.859107 21:-0.86566 22:-0.87719 23:-0.886338 24:-0.893093 25:-0.89482 26:-0.895319 27:-0.897279 28:-0.901036 29:-0.905375 30:-0.90938 31:-0.912429 32:-0.914858 33:-0.917689 34:-0.920301 35:-0.922759 36:-0.924611 37:-0.926962 38:-0.928882 39:-0.930829 40:-0.932204 41:-0.933072 42:-0.93328 43:-0.93359 44:-0.934173 45:-0.934398 46:-0.934459 47:-0.934367 48:-0.93616 49:-0.936572 50:-0.936773 51:-0.937538 52:-0.938017 53:-0.937946 54:-0.937902 55:-0.937831 56:-0.937851 57:-0.937887 58:-0.937981 59:-0.938901 60:-0.93882 61:-0.939203 62:-0.939577 63:-0.939413 64:-0.939255 65:-0.939167 66:-0.939015 67:-0.93905 68:-0.93907 69:-0.938959 70:-0.938792 71:-0.938626 72:-0.938634 73:-0.938641 74:-0.938615 75:-0.938474 76:-0.938332 77:-0.938346 78:-0.938369 79:-0.938215 80:-0.938092 81:-0.937932 82:-0.937943 83:-0.93738 84:-0.935105 85:-0.932958 86:-0.930692 87:-0.928515 88:-0.926256 89:-0.924328 90:-0.922484 91:-0.920617 92:-0.918796 93:-0.9169 94:-0.915392 95:-0.913833 96:-0.911995 97:-0.910926 98:-0.909351 99:-0.907871 100:-0.906614 101:-0.905243 102:-0.903882 103:-0.90264 104:-0.903665 
814.8931677475116 1:-0.908928 2:-0.845188 3:-0.901793 4:-0.929627 5:-0.744373 6:-0.759807 7:-0.76189 8:-0.765001 9:-0.764827 10:-0.770455 11:-0.771235 12:-0.807006 13:-0.841515 14:-0.85505 15:-0.872939 16:-0.876862 17:-0.869156 18:-0.865001 19:-0.858749 20:-0.854803 21:-0.861196 22:-0.872823 23:-0.881589 24:-0.888221 25:-0.889851 26:-0.890354 27:-0.891939 28:-0.895437 29:-0.899459 30:-0.90299 31:-0.905845 32:-0.908255 33:-0.911309 34:-0.913743 35:-0.916392 36:-0.918795 37:-0.9211 38:-0.923118 39:-0.925026 40:-0.92649 41:-0.927077 42:-0.927621 43:-0.927898 44:-0.928162 45:-0.928592 46:-0.92857 47:-0.928451 48:-0.928638 49:-0.928711 50:-0.92864 51:-0.928578 52:-0.928681 53:-0.930208 54:-0.930317 55:-0.930776 56:-0.931227 57:-0.931796 58:-0.931795 59:-0.931709 60:-0.931553 61:-0.931635 62:-0.931703 63:-0.932539 64:-0.932457 65:-0.93273 66:-0.93316 67:-0.933068 68:-0.932894 69:-0.93289 70:-0.93271 71:-0.932697 72:-0.932522 73:-0.932517 74:-0.932387 75:-0.932236 76:-0.932244 77:-0.932095 78:-0.931954 79:-0.931946 80:-0.931874 81:-0.931835 82:-0.931706 83:-0.931137 84:-0.928717 85:-0.926609 86:-0.924394 87:-0.922217 88:-0.920094 89:-0.91803 90:-0.916392 91:-0.914726 92:-0.912851 93:-0.911149 94:-0.909539 95:-0.907879 96:-0.906509 97:-0.904878 98:-0.903304 99:-0.901708 100:-0.900574 101:-0.899217 102:-0.897722 103:-0.896526 104:-0.897365 
325.2868502505192 1:-0.908928 2:-0.76569 3:-0.864646 4:-0.912268 5:-0.817233 6:-0.79322 7:-0.786386 8:-0.779621 9:-0.776372 10:-0.773995 11:-0.772109 12:-0.803678 13:-0.829648 14:-0.842307 15:-0.85512 16:-0.858467 17:-0.85003 18:-0.84555 19:-0.838656 20:-0.83423 21:-0.840858 22:-0.853399 23:-0.862276 24:-0.869023 25:-0.870266 26:-0.871076 27:-0.872813 28:-0.87662 29:-0.880288 30:-0.883669 31:-0.886634 32:-0.889147 33:-0.892061 34:-0.894587 35:-0.897115 36:-0.901361 37:-0.904557 38:-0.906841 39:-0.909249 40:-0.911014 41:-0.911517 42:-0.911694 43:-0.912781 44:-0.914795 45:-0.915272 46:-0.915937 47:-0.916104 48:-0.915891 49:-0.915899 50:-0.915706 51:-0.915584 52:-0.915291 53:-0.915271 54:-0.91509 55:-0.915071 56:-0.91504 57:-0.914984 58:-0.915039 59:-0.914804 60:-0.914794 61:-0.914616 62:-0.914401 63:-0.914204 64:-0.914666 65:-0.914767 66:-0.914718 67:-0.914956 68:-0.915521 69:-0.915506 70:-0.915656 71:-0.915599 72:-0.915641 73:-0.915652 74:-0.915471 75:-0.915589 76:-0.916051 77:-0.916242 78:-0.916225 79:-0.916002 80:-0.916054 81:-0.91588 82:-0.916467 83:-0.916135 84:-0.914108 85:-0.912297 86:-0.910677 87:-0.908492 88:-0.906696 89:-0.904701 90:-0.902736 91:-0.901006 92:-0.899017 93:-0.897111 94:-0.895648 95:-0.893931 96:-0.892326 97:-0.890643 98:-0.888833 99:-0.887236 100:-0.885726 101:-0.884155 102:-0.882667 103:-0.881165 104:-0.881997 
326.4870105604165 1:-0.919316 2:-0.781381 3:-0.871903 4:-0.909953 5:-0.735817 6:-0.76216 7:-0.756961 8:-0.754379 9:-0.753787 10:-0.75426 11:-0.755608 12:-0.788788 13:-0.815561 14:-0.82936 15:-0.842712 16:-0.8473 17:-0.839256 18:-0.835923 19:-0.830839 20:-0.827621 21:-0.834242 22:-0.846017 23:-0.854941 24:-0.862276 25:-0.86362 26:-0.864444 27:-0.866681 28:-0.870278 29:-0.874383 30:-0.877909 31:-0.880841 32:-0.884206 33:-0.889742 34:-0.893171 35:-0.89626 36:-0.899276 37:-0.90134 38:-0.903263 39:-0.905344 40:-0.908584 41:-0.909776 42:-0.910433 43:-0.911824 44:-0.912043 45:-0.912041 46:-0.911939 47:-0.911677 48:-0.911683 49:-0.911485 50:-0.911602 51:-0.911429 52:-0.911181 53:-0.911205 54:-0.911336 55:-0.911354 56:-0.911148 57:-0.911206 58:-0.911009 59:-0.911174 60:-0.911041 61:-0.910857 62:-0.910909 63:-0.910738 64:-0.911176 65:-0.911289 66:-0.912051 67:-0.912155 68:-0.912242 69:-0.912174 70:-0.912644 71:-0.913039 72:-0.913485 73:-0.913464 74:-0.913324 75:-0.913256 76:-0.913279 77:-0.913173 78:-0.914061 79:-0.913902 80:-0.914575 81:-0.914933 82:-0.914892 83:-0.914813 84:-0.912517 85:-0.910268 86:-0.908111 87:-0.905882 88:-0.903679 89:-0.90183 90:-0.899805 91:-0.897989 92:-0.895916 93:-0.894076 94:-0.892425 95:-0.89097 96:-0.889235 97:-0.887761 98:-0.885963 99:-0.884333 100:-0.882746 101:-0.881142 102:-0.879667 103:-0.878312 104:-0.879199 
1031.01303009287 1:-0.915433 2:-0.777197 3:-0.870485 4:-0.909553 5:-0.761532 6:-0.758762 7:-0.762822 8:-0.759302 9:-0.756755 10:-0.756637 11:-0.756951 12:-0.78992 13:-0.817017 14:-0.830629 15:-0.844642 16:-0.84828 17:-0.840809 18:-0.836841 19:-0.830219 20:-0.827686 21:-0.834274 22:-0.846269 23:-0.855155 24:-0.862111 25:-0.863563 26:-0.864572 27:-0.866483 28:-0.870256 29:-0.874073 30:-0.877767 31:-0.880853 32:-0.883641 33:-0.887739 34:-0.891715 35:-0.895423 36:-0.898097 37:-0.900596 38:-0.902525 39:-0.90422 40:-0.905924 41:-0.908671 42:-0.909282 43:-0.910519 44:-0.911105 45:-0.911113 46:-0.911131 47:-0.910875 48:-0.91068 49:-0.910749 50:-0.91072 51:-0.910555 52:-0.910555 53:-0.910347 54:-0.910404 55:-0.910204 56:-0.910011 57:-0.910002 58:-0.910526 59:-0.910329 60:-0.910149 61:-0.910512 62:-0.910719 63:-0.910772 64:-0.910675 65:-0.910731 66:-0.910617 67:-0.910523 68:-0.910346 69:-0.910791 70:-0.911413 71:-0.911551 72:-0.911937 73:-0.912585 74:-0.912899 75:-0.912702 76:-0.91263 77:-0.912498 78:-0.912554 79:-0.912586 80:-0.912478 81:-0.912492 82:-0.91236 83:-0.912507 84:-0.910308 85:-0.908703 86:-0.907245 87:-0.905125 88:-0.903292 89:-0.901336 90:-0.899364 91:-0.897496 92:-0.895526 93:-0.893834 94:-0.892109 95:-0.89058 96:-0.889056 97:-0.88741 98:-0.885611 99:-0.88398 100:-0.882438 101:-0.880876 102:-0.879354 103:-0.877999 104:-0.878879 
627.8293808237446 1:-0.937181 2:-0.857741 3:-0.913594 4:-0.922191 5:-0.768235 6:-0.776561 7:-0.770255 8:-0.772278 9:-0.770167 10:-0.769527 11:-0.770102 12:-0.804051 13:-0.83044 14:-0.843995 15:-0.858547 16:-0.861957 17:-0.853906 18:-0.849752 19:-0.84461 20:-0.840611 21:-0.847126 22:-0.858833 23:-0.869337 24:-0.876625 25:-0.87814 26:-0.879177 27:-0.880942 28:-0.884782 29:-0.888481 30:-0.892242 31:-0.895646 32:-0.898159 33:-0.900914 34:-0.903816 35:-0.906191 36:-0.908118 37:-0.910465 38:-0.912753 39:-0.917059 40:-0.91854 41:-0.920718 42:-0.921307 43:-0.921959 44:-0.922417 45:-0.922864 46:-0.922976 47:-0.922947 48:-0.924535 49:-0.924594 50:-0.924969 51:-0.925575 52:-0.925353 53:-0.92535 54:-0.925102 55:-0.92501 56:-0.924834 57:-0.924848 58:-0.924681 59:-0.924636 60:-0.924686 61:-0.924644 62:-0.924684 63:-0.924647 64:-0.924773 65:-0.924942 66:-0.924795 67:-0.924725 68:-0.924572 69:-0.924729 70:-0.924734 71:-0.924742 72:-0.92481 73:-0.924714 74:-0.924695 75:-0.924743 76:-0.924597 77:-0.924758 78:-0.924621 79:-0.924822 80:-0.924873 81:-0.924993 82:-0.924902 83:-0.92439 84:-0.922175 85:-0.920057 86:-0.917793 87:-0.915783 88:-0.913524 89:-0.911463 90:-0.909626 91:-0.907831 92:-0.905757 93:-0.903866 94:-0.902095 95:-0.900447 96:-0.898733 97:-0.897117 98:-0.895323 99:-0.893745 100:-0.892279 101:-0.890678 102:-0.889342 103:-0.888142 104:-0.889082 
795.5936035000914 1:-0.916501 2:-0.875523 3:-0.922905 4:-0.937231 5:-0.79289 6:-0.794915 7:-0.786445 8:-0.788312 9:-0.785227 10:-0.785293 11:-0.786381 12:-0.819362 13:-0.845952 14:-0.859516 15:-0.873887 16:-0.877356 17:-0.869997 18:-0.865782 19:-0.859932 20:-0.855781 21:-0.862384 22:-0.874364 23:-0.883611 24:-0.890603 25:-0.892552 26:-0.893409 27:-0.896237 28:-0.900237 29:-0.904161 30:-0.907781 31:-0.910802 32:-0.913365 33:-0.916637 34:-0.919356 35:-0.921768 36:-0.923719 37:-0.926025 38:-0.928038 39:-0.930269 40:-0.931721 41:-0.932415 42:-0.933002 43:-0.933482 44:-0.933835 45:-0.934069 46:-0.935468 47:-0.936038 48:-0.936463 49:-0.937261 50:-0.937782 51:-0.937908 52:-0.937768 53:-0.937747 54:-0.937574 55:-0.937642 56:-0.937758 57:-0.939001 58:-0.93904 59:-0.939197 60:-0.939743 61:-0.939765 62:-0.939625 63:-0.939575 64:-0.939451 65:-0.939321 66:-0.939202 67:-0.93927 68:-0.939516 69:-0.939373 70:-0.939232 71:-0.939093 72:-0.939127 73:-0.938992 74:-0.939088 75:-0.938971 76:-0.939012 77:-0.938896 78:-0.938786 79:-0.938962 80:-0.938931 81:-0.93879 82:-0.938671 83:-0.938126 84:-0.935929 85:-0.933776 86:-0.931526 87:-0.929626 88:-0.927753 89:-0.925961 90:-0.923999 91:-0.922313 92:-0.920365 93:-0.918474 94:-0.916628 95:-0.914983 96:-0.913106 97:-0.911685 98:-0.91008 99:-0.908502 100:-0.907081 101:-0.90554 102:-0.904244 103:-0.902932 104:-0.903801 
1380.369447662631 1:-0.933977 2:-0.870293 3:-0.922963 4:-0.93835 5:-0.780363 6:-0.792772 7:-0.785354 8:-0.78679 9:-0.786805 10:-0.78678 11:-0.787188 12:-0.820765 13:-0.847336 14:-0.86088 15:-0.875236 16:-0.878687 17:-0.871488 18:-0.867394 19:-0.860762 20:-0.856493 21:-0.863897 22:-0.875699 23:-0.884621 24:-0.891622 25:-0.893034 26:-0.894782 27:-0.896735 28:-0.901474 29:-0.905214 30:-0.909004 31:-0.912023 32:-0.914747 33:-0.917846 34:-0.920412 35:-0.922828 36:-0.925097 37:-0.927223 38:-0.929234 39:-0.931136 40:-0.932596 41:-0.933662 42:-0.933943 43:-0.934617 44:-0.934971 45:-0.935204 46:-0.935491 47:-0.936587 48:-0.937278 49:-0.937548 50:-0.938233 51:-0.938225 52:-0.938773 53:-0.93883 54:-0.939019 55:-0.938901 56:-0.938877 57:-0.938913 58:-0.939299 59:-0.939666 60:-0.940531 61:-0.940839 62:-0.940778 63:-0.941153 64:-0.941716 65:-0.941568 66:-0.941431 67:-0.941298 68:-0.941436 69:-0.941281 70:-0.941128 71:-0.94115 72:-0.941169 73:-0.941081 74:-0.941108 75:-0.940978 76:-0.940848 77:-0.940879 78:-0.941031 79:-0.941092 80:-0.941011 81:-0.940858 82:-0.940895 83:-0.940361 84:-0.938057 85:-0.935808 86:-0.933599 87:-0.931639 88:-0.929379 89:-0.927579 90:-0.925913 91:-0.924242 92:-0.922366 93:-0.920514 94:-0.918656 95:-0.917049 96:-0.915208 97:-0.913633 98:-0.911829 99:-0.910195 100:-0.908696 101:-0.907088 102:-0.905517 103:-0.904137 104:-0.904934 
-1430.14975347191 1:-0.917666 2:-0.829498 3:-0.892748 4:-0.912454 5:-0.753039 6:-0.780154 7:-0.769051 8:-0.765477 9:-0.761664 10:-0.762124 11:-0.762852 12:-0.795989 13:-0.823639 14:-0.837056 15:-0.85296 16:-0.856921 17:-0.848411 18:-0.844488 19:-0.83779 20:-0.833817 21:-0.840053 22:-0.851746 23:-0.861052 24:-0.868178 25:-0.869336 26:-0.870589 27:-0.872729 28:-0.876591 29:-0.880861 30:-0.884121 31:-0.888114 32:-0.890807 33:-0.893418 34:-0.896268 35:-0.898511 36:-0.900461 37:-0.902339 38:-0.904617 39:-0.906709 40:-0.908203 41:-0.908939 42:-0.909563 43:-0.909952 44:-0.91031 45:-0.912084 46:-0.912607 47:-0.912941 48:-0.913829 49:-0.91367 50:-0.914174 51:-0.914805 52:-0.915049 53:-0.915258 54:-0.915111 55:-0.915356 56:-0.915384 57:-0.915141 58:-0.915157 59:-0.914995 60:-0.915055 61:-0.915416 62:-0.915614 63:-0.915734 64:-0.915852 65:-0.915732 66:-0.915551 67:-0.915879 68:-0.915686 69:-0.915559 70:-0.915537 71:-0.915342 72:-0.915483 73:-0.915291 74:-0.915273 75:-0.915104 76:-0.915093 77:-0.914956 78:-0.914952 79:-0.914862 80:-0.914749 81:-0.914707 82:-0.914544 83:-0.914138 84:-0.911778 85:-0.909672 86:-0.907408 87:-0.905349 88:-0.903107 89:-0.901181 90:-0.899288 91:-0.897522 92:-0.895499 93:-0.893751 94:-0.892544 95:-0.890986 96:-0.889529 97:-0.887947 98:-0.88656 99:-0.885011 100:-0.883409 101:-0.882106 102:-0.881018 103:-0.879729 104:-0.880462 
-360.1181916080996 1:-0.937958 2:-0.890167 3:-0.923891 4:-0.945349 5:-0.792701 6:-0.791628 7:-0.786927 8:-0.78749 9:-0.786315 10:-0.788131 11:-0.789339 12:-0.831618 13:-0.85866 14:-0.8723 15:-0.885915 16:-0.889085 17:-0.880877 18:-0.876966 19:-0.870182 20:-0.866305 21:-0.872811 22:-0.884562 23:-0.893903 24:-0.900836 25:-0.902808 26:-0.90342 27:-0.905397 28:-0.909078 29:-0.912996 30:-0.916612 31:-0.919796 32:-0.92235 33:-0.925141 34:-0.928021 35:-0.931775 36:-0.937526 37:-0.940652 38:-0.942631 39:-0.944371 40:-0.945809 41:-0.946354 42:-0.946705 43:-0.947091 44:-0.947316 45:-0.947426 46:-0.947595 47:-0.947453 48:-0.947397 49:-0.947294 50:-0.947451 51:-0.94736 52:-0.947201 53:-0.947112 54:-0.94715 55:-0.947015 56:-0.947017 57:-0.946868 58:-0.946748 59:-0.946836 60:-0.946722 61:-0.946728 62:-0.946614 63:-0.946706 64:-0.946716 65:-0.946607 66:-0.94658 67:-0.946481 68:-0.946372 69:-0.946393 70:-0.946274 71:-0.946361 72:-0.946243 73:-0.946193 74:-0.946087 75:-0.946055 76:-0.945956 77:-0.945861 78:-0.946036 79:-0.946081 80:-0.946052 81:-0.946048 82:-0.945944 83:-0.945471 84:-0.943074 85:-0.940904 86:-0.939258 87:-0.937513 88:-0.935263 89:-0.933262 90:-0.931355 91:-0.929547 92:-0.927483 93:-0.9256 94:-0.923808 95:-0.922651 96:-0.920822 97:-0.919445 98:-0.91765 99:-0.916145 100:-0.914908 101:-0.913702 102:-0.912312 103:-0.911165 104:-0.911993 
-92.29157778341774 1:-0.9499 2:-0.908996 3:-0.937299 4:-0.939636 5:-0.782991 6:-0.796276 7:-0.793009 8:-0.78979 9:-0.787931 10:-0.787343 11:-0.787353 12:-0.822014 13:-0.848937 14:-0.862549 15:-0.876144 16:-0.879702 17:-0.873064 18:-0.868857 19:-0.862274 20:-0.858042 21:-0.866038 22:-0.878277 23:-0.887187 24:-0.894749 25:-0.896119 26:-0.897113 27:-0.898946 28:-0.902677 29:-0.906915 30:-0.910472 31:-0.913856 32:-0.916434 33:-0.919561 34:-0.92392 35:-0.926445 36:-0.928358 37:-0.930352 38:-0.932744 39:-0.934612 40:-0.936041 41:-0.93815 42:-0.938966 43:-0.940361 44:-0.940702 45:-0.941373 46:-0.941921 47:-0.941996 48:-0.942002 49:-0.941905 50:-0.941818 51:-0.941739 52:-0.941876 53:-0.941746 54:-0.94156 55:-0.941435 56:-0.941747 57:-0.941599 58:-0.941482 59:-0.941364 60:-0.941463 61:-0.941388 62:-0.941278 63:-0.941179 64:-0.941165 65:-0.941562 66:-0.941461 67:-0.941363 68:-0.941254 69:-0.941207 70:-0.941223 71:-0.941105 72:-0.940989 73:-0.941042 74:-0.94103 75:-0.940933 76:-0.940835 77:-0.940897 78:-0.940805 79:-0.940838 80:-0.940752 81:-0.940631 82:-0.940531 83:-0.940176 84:-0.937788 85:-0.93557 86:-0.933337 87:-0.931329 88:-0.929179 89:-0.927278 90:-0.925335 91:-0.923492 92:-0.922102 93:-0.920228 94:-0.918348 95:-0.916719 96:-0.914857 97:-0.913455 98:-0.911676 99:-0.910068 100:-0.9085 101:-0.907008 102:-0.905753 103:-0.904281 104:-0.905363 
-1997.197535603019 1:-0.94825 2:-0.883891 3:-0.93559 4:-0.93763 5:-0.77647 6:-0.783894 7:-0.799451 8:-0.799073 9:-0.796138 10:-0.795199 11:-0.794383 12:-0.82716 13:-0.85358 14:-0.866985 15:-0.880407 16:-0.883433 17:-0.875337 18:-0.870808 19:-0.864548 20:-0.860314 21:-0.866733 22:-0.878892 23:-0.887895 24:-0.894746 25:-0.896433 26:-0.897215 27:-0.898949 28:-0.902966 29:-0.90665 30:-0.910223 31:-0.913199 32:-0.916047 33:-0.918955 34:-0.921487 35:-0.924241 36:-0.926221 37:-0.928213 38:-0.930466 39:-0.932335 40:-0.933891 41:-0.934559 42:-0.934938 43:-0.935292 44:-0.935973 45:-0.936183 46:-0.936391 47:-0.937146 48:-0.937552 49:-0.938314 50:-0.938755 51:-0.939458 52:-0.939311 53:-0.939189 54:-0.939102 55:-0.939133 56:-0.939824 57:-0.939838 58:-0.939798 59:-0.939999 60:-0.939878 61:-0.939918 62:-0.940479 63:-0.94074 64:-0.940616 65:-0.940561 66:-0.940442 67:-0.940325 68:-0.940412 69:-0.940273 70:-0.940137 71:-0.940206 72:-0.940071 73:-0.93994 74:-0.940015 75:-0.939902 76:-0.939787 77:-0.939801 78:-0.939694 79:-0.93964 80:-0.939623 81:-0.939516 82:-0.939402 83:-0.939154 84:-0.936799 85:-0.934568 86:-0.932321 87:-0.9303 88:-0.928084 89:-0.926587 90:-0.924649 91:-0.922842 92:-0.920778 93:-0.918896 94:-0.917134 95:-0.915519 96:-0.913648 97:-0.912165 98:-0.910399 99:-0.908782 100:-0.907263 101:-0.905731 102:-0.904176 103:-0.902698 104:-0.903428 
-6.69084384552341 1:-0.862129 2:-0.5 3:-0.663166 4:-0.871387 5:-0.739594 6:-0.744851 7:-0.725415 8:-0.719081 9:-0.715831 10:-0.715483 11:-0.715301 12:-0.747437 13:-0.77217 14:-0.784432 15:-0.798718 16:-0.802417 17:-0.794792 18:-0.791052 19:-0.78387 20:-0.77937 21:-0.786693 22:-0.798471 23:-0.807207 24:-0.814135 25:-0.815149 26:-0.816131 27:-0.818423 28:-0.82226 29:-0.82576 30:-0.829337 31:-0.832297 32:-0.834983 33:-0.837515 34:-0.841153 35:-0.847162 36:-0.850645 37:-0.85456 38:-0.856382 39:-0.858513 40:-0.859866 41:-0.860955 42:-0.861502 43:-0.862797 44:-0.864984 45:-0.864841 46:-0.865288 47:-0.866816 48:-0.866899 49:-0.866918 50:-0.869089 51:-0.870291 52:-0.870247 53:-0.870707 54:-0.870376 55:-0.870331 56:-0.870621 57:-0.870133 58:-0.870243 59:-0.870716 60:-0.870869 61:-0.870867 62:-0.871491 63:-0.871401 64:-0.871653 65:-0.871325 66:-0.87197 67:-0.872634 68:-0.873227 69:-0.874311 70:-0.874829 71:-0.875525 72:-0.875954 73:-0.876531 74:-0.877048 75:-0.87769 76:-0.878285 77:-0.878693 78:-0.879038 79:-0.879466 80:-0.880107 81:-0.880424 82:-0.880883 83:-0.880752 84:-0.878981 85:-0.877287 86:-0.875518 87:-0.873776 88:-0.872045 89:-0.870622 90:-0.869184 91:-0.867821 92:-0.866056 93:-0.864733 94:-0.863293 95:-0.862067 96:-0.860599 97:-0.85942 98:-0.858037 99:-0.856727 100:-0.85559 101:-0.85438 102:-0.853157 103:-0.852005 104:-0.852797 
-884.2516544091825 1:-0.933395 2:-0.853556 3:-0.917638 4:-0.946643 5:-0.786527 6:-0.80768 7:-0.798129 8:-0.793992 9:-0.792454 10:-0.792774 11:-0.792812 12:-0.826758 13:-0.853618 14:-0.867381 15:-0.883524 16:-0.886968 17:-0.878871 18:-0.875459 19:-0.868835 20:-0.866028 21:-0.872866 22:-0.884666 23:-0.893576 24:-0.900571 25:-0.902496 26:-0.903447 27:-0.905464 28:-0.909181 29:-0.91295 30:-0.91643 31:-0.919487 32:-0.922494 33:-0.925684 34:-0.928274 35:-0.930712 36:-0.933102 37:-0.93514 38:-0.938089 39:-0.941371 40:-0.943657 41:-0.944286 42:-0.944625 43:-0.944943 44:-0.945914 45:-0.946081 46:-0.94603 47:-0.945946 48:-0.946104 49:-0.946051 50:-0.946104 51:-0.946062 52:-0.946374 53:-0.946792 54:-0.946704 55:-0.946596 56:-0.946494 57:-0.946713 58:-0.946862 59:-0.946922 60:-0.946824 61:-0.946967 62:-0.946864 63:-0.94685 64:-0.946924 65:-0.946854 66:-0.946765 67:-0.946859 68:-0.946829 69:-0.94699 70:-0.946946 71:-0.946968 72:-0.947827 73:-0.948295 74:-0.948172 75:-0.94806 76:-0.947946 77:-0.947961 78:-0.947856 79:-0.948191 80:-0.948102 81:-0.948025 82:-0.947908 83:-0.947363 84:-0.945293 85:-0.943382 86:-0.941492 87:-0.939313 88:-0.93705 89:-0.935038 90:-0.933119 91:-0.931502 92:-0.92988 93:-0.928028 94:-0.92634 95:-0.924904 96:-0.923059 97:-0.921574 98:-0.919764 99:-0.918173 100:-0.916942 101:-0.915389 102:-0.913929 103:-0.912607 104:-0.913692 
-2048 1:-0.899801 2:-0.796025 3:-0.887706 4:-0.924539 5:-0.773193 6:-0.785334 7:-0.77481 8:-0.771792 9:-0.777616 10:-0.776548 11:-0.776826 12:-0.809023 13:-0.835982 14:-0.849428 15:-0.862889 16:-0.86638 17:-0.865958 18:-0.861585 19:-0.854555 20:-0.849958 21:-0.856261 22:-0.867798 23:-0.876723 24:-0.883272 25:-0.884728 26:-0.885303 27:-0.88722 28:-0.890651 29:-0.894335 30:-0.897908 31:-0.900884 32:-0.903568 33:-0.90678 34:-0.909751 35:-0.912114 36:-0.914025 37:-0.915874 38:-0.917857 39:-0.919732 40:-0.922203 41:-0.924581 42:-0.925122 43:-0.925419 44:-0.925702 45:-0.92587 46:-0.925821 47:-0.925725 48:-0.925674 49:-0.925625 50:-0.925684 51:-0.925925 52:-0.925808 53:-0.925719 54:-0.926356 55:-0.926344 56:-0.926246 57:-0.926449 58:-0.926432 59:-0.92633 60:-0.92624 61:-0.92615 62:-0.926059 63:-0.926057 64:-0.926128 65:-0.92604 66:-0.925963 67:-0.925887 68:-0.925799 69:-0.925702 70:-0.925607 71:-0.92551 72:-0.925416 73:-0.925323 74:-0.925425 75:-0.925914 76:-0.925951 77:-0.925927 78:-0.926028 79:-0.925924 80:-0.925854 81:-0.925679 82:-0.925626 83:-0.925416 84:-0.923218 85:-0.921188 86:-0.918919 87:-0.916794 88:-0.914903 89:-0.913302 90:-0.911318 91:-0.909913 92:-0.908786 93:-0.907608 94:-0.905726 95:-0.904474 96:-0.903307 97:-0.902017 98:-0.90027 99:-0.898644 100:-0.89706 101:-0.89546 102:-0.893898 103:-0.892414 104:-0.893057 
-271.9170810711859 1:-0.949318 2:-0.839958 3:-0.852004 4:-0.941743 5:-0.784113 6:-0.785471 7:-0.782468 8:-0.780032 9:-0.781595 10:-0.781597 11:-0.787676 12:-0.829779 13:-0.866673 14:-0.880494 15:-0.894762 16:-0.896519 17:-0.887836 18:-0.883114 19:-0.875382 20:-0.870105 21:-0.876263 22:-0.887871 23:-0.896143 24:-0.903131 25:-0.903958 26:-0.904144 27:-0.906031 28:-0.909515 29:-0.913087 30:-0.916383 31:-0.919101 32:-0.921385 33:-0.924237 34:-0.92687 35:-0.929054 36:-0.931072 37:-0.932891 38:-0.934848 39:-0.936567 40:-0.937983 41:-0.938638 42:-0.940087 43:-0.943148 44:-0.943379 45:-0.943383 46:-0.943177 47:-0.943211 48:-0.943013 49:-0.944499 50:-0.946608 51:-0.947024 52:-0.946699 53:-0.946641 54:-0.946292 55:-0.946011 56:-0.945743 57:-0.945679 58:-0.94564 59:-0.945389 60:-0.945153 61:-0.946134 62:-0.94692 63:-0.947809 64:-0.949762 65:-0.951093 66:-0.951021 67:-0.951018 68:-0.951919 69:-0.95246 70:-0.952133 71:-0.952186 72:-0.952886 73:-0.952554 74:-0.952402 75:-0.952381 76:-0.952079 77:-0.95203 78:-0.951745 79:-0.951445 80:-0.951354 81:-0.951057 82:-0.950782 83:-0.950083 84:-0.94752 85:-0.945131 86:-0.942872 87:-0.940667 88:-0.938359 89:-0.936303 90:-0.934467 91:-0.932474 92:-0.930448 93:-0.928535 94:-0.926619 95:-0.924858 96:-0.922866 97:-0.921144 98:-0.919242 99:-0.917894 100:-0.916329 101:-0.914808 102:-0.913143 103:-0.91185 104:-0.912736 
-1525.548020754957 1:-0.937861 2:-0.857741 3:-0.904191 4:-0.92257 5:-0.772604 6:-0.772293 7:-0.765848 8:-0.763585 9:-0.772682 10:-0.784015 11:-0.781834 12:-0.813902 13:-0.839274 14:-0.853182 15:-0.865823 16:-0.868616 17:-0.860893 18:-0.856209 19:-0.849173 20:-0.845528 21:-0.851759 22:-0.863222 23:-0.871848 24:-0.878774 25:-0.880861 26:-0.881366 27:-0.883029 28:-0.886589 29:-0.890212 30:-0.893552 31:-0.896904 32:-0.900185 33:-0.903152 34:-0.905608 35:-0.907922 36:-0.910785 37:-0.912779 38:-0.914688 39:-0.916769 40:-0.918126 41:-0.918742 42:-0.919259 43:-0.919564 44:-0.920143 45:-0.920313 46:-0.920467 47:-0.92089 48:-0.922508 49:-0.922406 50:-0.922646 51:-0.922671 52:-0.922922 53:-0.923192 54:-0.922985 55:-0.923021 56:-0.922881 57:-0.922928 58:-0.922919 59:-0.92278 60:-0.922656 61:-0.922734 62:-0.922606 63:-0.923093 64:-0.923813 65:-0.923853 66:-0.924299 67:-0.924162 68:-0.924368 69:-0.924345 70:-0.924255 71:-0.924096 72:-0.924008 73:-0.924022 74:-0.924312 75:-0.924347 76:-0.924268 77:-0.924316 78:-0.924244 79:-0.924151 80:-0.924092 81:-0.924102 82:-0.92402 83:-0.923803 84:-0.921732 85:-0.920073 86:-0.917941 87:-0.916087 88:-0.913984 89:-0.911994 90:-0.91019 91:-0.908364 92:-0.906344 93:-0.904633 94:-0.902965 95:-0.901603 96:-0.899758 97:-0.89825 98:-0.896557 99:-0.895035 100:-0.893455 101:-0.891955 102:-0.890665 103:-0.889161 104:-0.890045 
-576.5009182308409 1:-0.942619 2:-0.855649 3:-0.900628 4:-0.935075 5:-0.782711 6:-0.801738 7:-0.790052 8:-0.788645 9:-0.789589 10:-0.790055 11:-0.789065 12:-0.821308 13:-0.847307 14:-0.861727 15:-0.874766 16:-0.877864 17:-0.869502 18:-0.865872 19:-0.859029 20:-0.855535 21:-0.861942 22:-0.873583 23:-0.882361 24:-0.8898 25:-0.891073 26:-0.892179 27:-0.894973 28:-0.901219 29:-0.904779 30:-0.908063 31:-0.911485 32:-0.914018 33:-0.916672 34:-0.919117 35:-0.922531 36:-0.924345 37:-0.926246 38:-0.928483 39:-0.930269 40:-0.931619 41:-0.932529 42:-0.933025 43:-0.934617 44:-0.93485 45:-0.93497 46:-0.935148 47:-0.935372 48:-0.935435 49:-0.935767 50:-0.935662 51:-0.936056 52:-0.93604 53:-0.935888 54:-0.93591 55:-0.93576 56:-0.935747 57:-0.935796 58:-0.935694 59:-0.935972 60:-0.936062 61:-0.935925 62:-0.935986 63:-0.935859 64:-0.935737 65:-0.935609 66:-0.935814 67:-0.935756 68:-0.935843 69:-0.935701 70:-0.935805 71:-0.936143 72:-0.93615 73:-0.936172 74:-0.936038 75:-0.936074 76:-0.936105 77:-0.936 78:-0.935928 79:-0.936755 80:-0.937049 81:-0.937208 82:-0.937643 83:-0.937416 84:-0.9352 85:-0.933096 86:-0.930811 87:-0.928753 88:-0.926474 89:-0.924526 90:-0.922537 91:-0.920687 92:-0.918756 93:-0.916845 94:-0.914929 95:-0.913702 96:-0.9118 97:-0.910311 98:-0.908821 99:-0.907592 100:-0.905994 101:-0.904805 102:-0.903212 103:-0.902012 104:-0.902976 
-910.7024612427956 1:-0.932036 2:-0.822176 3:-0.878982 4:-0.927676 5:-0.775811 6:-0.784535 7:-0.792027 8:-0.793655 9:-0.801371 10:-0.795921 11:-0.792501 12:-0.823818 13:-0.848583 14:-0.86178 15:-0.874005 16:-0.876423 17:-0.868309 18:-0.863331 19:-0.856334 20:-0.851958 21:-0.858044 22:-0.869388 23:-0.878701 24:-0.885293 25:-0.88635 26:-0.887285 27:-0.889307 28:-0.893142 29:-0.896837 30:-0.900362 31:-0.903564 32:-0.90609 33:-0.909467 34:-0.911843 35:-0.914375 36:-0.916443 37:-0.918302 38:-0.920296 39:-0.922311 40:-0.92375 41:-0.924438 42:-0.924718 43:-0.925095 44:-0.925455 45:-0.925918 46:-0.926207 47:-0.926625 48:-0.926616 49:-0.926568 50:-0.926797 51:-0.928491 52:-0.928536 53:-0.929241 54:-0.92948 55:-0.930644 56:-0.930514 57:-0.930272 58:-0.930069 59:-0.930439 60:-0.930448 61:-0.931035 62:-0.93094 63:-0.930745 64:-0.931517 65:-0.931839 66:-0.93213 67:-0.931926 68:-0.931714 69:-0.931778 70:-0.931561 71:-0.931348 72:-0.93114 73:-0.930937 74:-0.931133 75:-0.930949 76:-0.930926 77:-0.930904 78:-0.931026 79:-0.930831 80:-0.930903 81:-0.93077 82:-0.930669 83:-0.930351 84:-0.928033 85:-0.925805 86:-0.923647 87:-0.92157 88:-0.919331 89:-0.917712 90:-0.915909 91:-0.914054 92:-0.91245 93:-0.910566 94:-0.908777 95:-0.907186 96:-0.905314 97:-0.903812 98:-0.902325 99:-0.900863 100:-0.899282 101:-0.897858 102:-0.896837 103:-0.895611 104:-0.896782 
-355.7370108985775 1:-0.883392 2:-0.718619 3:-0.774014 4:-0.901679 5:-0.743393 6:-0.744028 7:-0.736815 8:-0.737049 9:-0.737317 10:-0.743747 11:-0.7434 12:-0.777243 13:-0.804345 14:-0.823195 15:-0.840551 16:-0.843362 17:-0.836184 18:-0.833127 19:-0.825668 20:-0.821491 21:-0.829252 22:-0.840227 23:-0.848435 24:-0.855226 25:-0.856658 26:-0.857616 27:-0.863756 28:-0.872558 29:-0.878295 30:-0.883911 31:-0.886651 32:-0.889225 33:-0.892397 34:-0.894587 35:-0.899395 36:-0.901703 37:-0.903795 38:-0.905956 39:-0.908854 40:-0.90991 41:-0.909937 42:-0.910259 43:-0.910461 44:-0.911693 45:-0.912173 46:-0.911861 47:-0.911256 48:-0.911336 49:-0.912599 50:-0.913188 51:-0.914123 52:-0.914404 53:-0.913959 54:-0.913614 55:-0.91334 56:-0.913033 57:-0.912502 58:-0.914284 59:-0.914273 60:-0.914566 61:-0.914659 62:-0.914267 63:-0.913944 64:-0.913481 65:-0.9135 66:-0.913946 67:-0.913501 68:-0.913234 69:-0.912888 70:-0.912451 71:-0.912195 72:-0.911946 73:-0.911536 74:-0.911721 75:-0.911452 76:-0.911136 77:-0.910769 78:-0.910571 79:-0.9102 80:-0.910174 81:-0.9098 82:-0.909608 83:-0.909244 84:-0.906944 85:-0.904867 86:-0.90244 87:-0.900371 88:-0.899652 89:-0.897684 90:-0.895727 91:-0.893764 92:-0.891527 93:-0.889476 94:-0.887425 95:-0.885625 96:-0.883698 97:-0.882426 98:-0.880773 99:-0.879448 100:-0.878781 101:-0.877544 102:-0.876143 103:-0.875641 104:-0.876793 
-2048 1:-0.92922 2:-0.793933 3:-0.877767 4:-0.928061 5:-0.782871 6:-0.777041 7:-0.770361 8:-0.767936 9:-0.776624 10:-0.781324 11:-0.781286 12:-0.813351 13:-0.840694 14:-0.853547 15:-0.866517 16:-0.870331 17:-0.861909 18:-0.858234 19:-0.851327 20:-0.847818 21:-0.854154 22:-0.865715 23:-0.874427 24:-0.881901 25:-0.883781 26:-0.884332 27:-0.886237 28:-0.890309 29:-0.893947 30:-0.897561 31:-0.900493 32:-0.902975 33:-0.906097 34:-0.908592 35:-0.911307 36:-0.913196 37:-0.915439 38:-0.917524 39:-0.919627 40:-0.921019 41:-0.921978 42:-0.92227 43:-0.922602 44:-0.923206 45:-0.923564 46:-0.923535 47:-0.923723 48:-0.924969 49:-0.92538 50:-0.925562 51:-0.925637 52:-0.925589 53:-0.925709 54:-0.925762 55:-0.92572 56:-0.925605 57:-0.926295 58:-0.926506 59:-0.92687 60:-0.927619 61:-0.927639 62:-0.927727 63:-0.927594 64:-0.927542 65:-0.927541 66:-0.927576 67:-0.927987 68:-0.928849 69:-0.929413 70:-0.930001 71:-0.93049 72:-0.931391 73:-0.931728 74:-0.931533 75:-0.931511 76:-0.931478 77:-0.93148 78:-0.931304 79:-0.931348 80:-0.931649 81:-0.931936 82:-0.932183 83:-0.931568 84:-0.929273 85:-0.926977 86:-0.924807 87:-0.922586 88:-0.920418 89:-0.918313 90:-0.916407 91:-0.914497 92:-0.912384 93:-0.910657 94:-0.90921 95:-0.90786 96:-0.906603 97:-0.905269 98:-0.903469 99:-0.901838 100:-0.900224 101:-0.899054 102:-0.897936 103:-0.896569 104:-0.897247 
